svm_type c_svc
kernel_type rbf
gamma 0.16666666666666666
nr_class 2
total_sv 4201
rho 0.5779071978391982
label 1 -1
probA -1.3571547819389647
probB 0.66031359023691
nr_sv 809 3392
SV
1.5798801191042737 1:86900.0 2:45.0 3:0.0 4:0.0 5:93.0 6:1.98 
1.577844566380956 1:1500000.0 2:0.0 3:0.0 4:0.0 5:63.0 6:1.42 
1.5912747455023057 1:118000.0 2:0.0 3:7.0 4:7.0 5:19.0 6:0.48 
1.5784063321684716 1:3030000.0 2:0.0 3:0.0 4:0.0 5:58.0 6:3.98 
1.5775032433671015 1:2.69E7 2:0.0 3:0.0 4:0.0 5:69.0 6:1.46 
1.5740316025657257 1:1.45E7 2:0.0 3:0.0 4:0.0 5:43.0 6:1.96 
1.578357661671339 1:243.0 2:12.0 3:0.0 4:0.0 5:226.0 6:5.48 
1.9473882168953685 1:270000.0 2:0.0 3:0.0 4:0.0 5:229.0 6:5.1 
1.5782964220903388 1:1830000.0 2:0.0 3:0.0 4:0.0 5:32.0 6:1.36 
1.5776499973711038 1:1910000.0 2:0.0 3:9.0 4:9.0 5:133.0 6:2.68 
1.5776323036284754 1:1240000.0 2:0.0 3:0.0 4:0.0 5:33.0 6:1.6 
0.8576471227799136 1:1040000.0 2:0.0 3:0.0 4:0.0 5:38.0 6:1.26 
1.577621594579911 1:1.2E8 2:0.0 3:0.0 4:0.0 5:60.0 6:2.36 
1.5778101303622334 1:5.83E8 2:0.0 3:6.0 4:6.0 5:36.0 6:1.12 
1.5778116637841568 1:3650000.0 2:0.0 3:6.333333333333333 4:6.333333333333333 5:204.0 6:4.1 
1.5784448794363886 1:2740000.0 2:24.0 3:5.0 4:5.0 5:274.0 6:5.84 
1.5783561889242883 1:209000.0 2:0.0 3:0.0 4:0.0 5:95.0 6:2.14 
1.5778116333814962 1:2.47E7 2:0.0 3:0.0 4:0.0 5:46.0 6:1.62 
1.5778111340939176 1:1260000.0 2:0.0 3:0.0 4:0.0 5:63.0 6:3.08 
2.5779088930955205 1:7.28E8 2:0.0 3:0.0 4:0.0 5:40.0 6:1.6 
1.5784442383157522 1:1.48E7 2:0.0 3:0.0 4:0.0 5:90.0 6:1.86 
1.5779491274644657 1:3640000.0 2:0.0 3:0.0 4:0.0 5:60.0 6:1.46 
1.5782240278127349 1:357000.0 2:0.0 3:0.0 4:0.0 5:150.0 6:3.32 
1.5783569396145443 1:1760000.0 2:0.0 3:0.0 4:0.0 5:64.0 6:1.4 
1.5783555268146132 1:2.21E7 2:0.0 3:11.0 4:11.0 5:35.0 6:1.76 
1.5783974780159922 1:1.9E7 2:0.0 3:0.0 4:0.0 5:49.0 6:1.54 
1.5783053638207485 1:179000.0 2:0.0 3:0.0 4:0.0 5:140.0 6:2.86 
1.5783709915948378 1:1180000.0 2:0.0 3:0.0 4:0.0 5:76.0 6:1.62 
2.112369776615944 1:1.07E8 2:1.0 3:8.6 4:8.6 5:108.0 6:2.58 
0.9508845133012266 1:8890000.0 2:0.0 3:0.0 4:0.0 5:50.0 6:2.72 
1.5783545484602985 1:2.03E7 2:0.0 3:0.0 4:0.0 5:43.0 6:1.54 
1.5784303413813394 1:10300.0 2:21.0 3:0.0 4:0.0 5:97.0 6:3.0816326530612246 
3.460259603067872 1:2.14E7 2:0.0 3:0.0 4:0.0 5:63.0 6:1.4042553191489362 
1.5783539165548044 1:3570000.0 2:0.0 3:5.5 4:5.5 5:45.0 6:3.24 
1.578675996463207 1:8.35E7 2:1.0 3:0.0 4:0.0 5:129.0 6:3.98 
1.5776614098522095 1:6.29E7 2:0.0 3:0.0 4:0.0 5:79.0 6:1.58 
1.6121131247560998 1:999000.0 2:5.0 3:3.0 4:3.0 5:45.0 6:1.06 
1.5783433349233613 1:3.17E7 2:0.0 3:1.0 4:1.0 5:52.0 6:1.9 
2.5783841915404953 1:9300000.0 2:0.0 3:0.0 4:0.0 5:56.0 6:1.4791666666666667 
2.4472379344600004 1:4390000.0 2:0.0 3:0.0 4:0.0 5:61.0 6:1.76 
1.5783441932800493 1:77500.0 2:0.0 3:0.0 4:0.0 5:31.0 6:2.3 
2.5783445073187443 1:9590000.0 2:0.0 3:0.0 4:0.0 5:25.0 6:1.12 
1.5783865467328457 1:1.03E7 2:0.0 3:0.0 4:0.0 5:68.0 6:1.66 
1.5783538308094651 1:1.88E7 2:0.0 3:0.0 4:0.0 5:51.0 6:1.56 
1.5780649265699975 1:5370000.0 2:0.0 3:0.0 4:0.0 5:148.0 6:3.06 
1.5780840503253304 1:2.28E7 2:0.0 3:0.0 4:0.0 5:93.0 6:1.94 
1.5778923869882484 1:9710000.0 2:0.0 3:0.0 4:0.0 5:65.0 6:3.4 
1.5779125417960096 1:2960000.0 2:0.0 3:0.0 4:0.0 5:46.0 6:2.82 
1.5779451585914979 1:1000000.0 2:0.0 3:1.3333333333333333 4:1.3333333333333333 5:137.0 6:5.58 
2.5775791819921507 1:1.22E7 2:0.0 3:0.0 4:0.0 5:85.0 6:1.72 
1.301748553935199 1:8690000.0 2:0.0 3:1.0 4:1.0 5:65.0 6:1.94 
1.5777539366503734 1:3010000.0 2:0.0 3:5.0 4:5.0 5:195.0 6:3.9 
1.577760735999236 1:1.4E8 2:0.0 3:0.0 4:0.0 5:73.0 6:3.02 
1.5776833705434252 1:2.66E7 2:0.0 3:0.0 4:0.0 5:48.0 6:1.72 
2.5776861252326526 1:9490000.0 2:0.0 3:0.0 4:0.0 5:78.0 6:1.58 
1.5776798609528402 1:144000.0 2:0.0 3:0.0 4:0.0 5:105.0 6:2.2 
1.5778279884329238 1:4.74E7 2:9.0 3:3.3333333333333335 4:3.3333333333333335 5:135.0 6:3.74 
1.5776833460658115 1:1290000.0 2:0.0 3:5.0 4:5.0 5:141.0 6:3.98 
2.4164881271417396 1:30700.0 2:0.0 3:8.333333333333334 4:8.333333333333334 5:3.0 6:0.24 
1.5776905558153225 1:3.66E7 2:0.0 3:0.0 4:0.0 5:74.0 6:1.54 
1.5777149059752211 1:7130000.0 2:0.0 3:0.0 4:0.0 5:73.0 6:1.48 
1.5776628434686386 1:2650000.0 2:0.0 3:0.0 4:0.0 5:21.0 6:0.86 
1.5777713160235427 1:8950000.0 2:0.0 3:0.0 4:0.0 5:22.0 6:1.42 
1.577641294296265 1:2.29E7 2:0.0 3:9.0 4:9.0 5:50.0 6:3.26 
1.578370359453272 1:1050000.0 2:21.0 3:6.75 4:6.75 5:69.0 6:1.48 
1.5776547697658967 1:3210000.0 2:1.0 3:0.5 4:0.5 5:213.0 6:5.46 
1.577618748578289 1:4690000.0 2:0.0 3:0.0 4:0.0 5:43.0 6:1.54 
1.5783538308094651 1:1.49E7 2:0.0 3:0.0 4:0.0 5:77.0 6:1.54 
1.578344463689336 1:6500000.0 2:6.0 3:2.0 4:2.0 5:142.0 6:3.0 
1.577623093308386 1:192000.0 2:0.0 3:8.666666666666666 4:8.666666666666666 5:64.0 6:1.32 
1.5776386844675874 1:1490000.0 2:0.0 3:5.0 4:5.0 5:85.0 6:2.84 
1.5779149777753119 1:1320000.0 2:3.0 3:5.0 4:5.0 5:62.0 6:3.44 
2.3905381184977026 1:2720000.0 2:0.0 3:5.0 4:5.0 5:32.0 6:2.8 
1.5776464552223612 1:2250000.0 2:0.0 3:0.0 4:0.0 5:50.0 6:2.48 
1.6102357616230998 1:178000.0 2:5.0 3:1.5 4:1.5 5:94.0 6:2.44 
1.5783435275904338 1:2660000.0 2:0.0 3:9.0 4:9.0 5:29.0 6:0.86 
1.5783901605077326 1:5400000.0 2:0.0 3:0.0 4:0.0 5:28.0 6:1.44 
2.113831442523346 1:1.31E7 2:0.0 3:1.5 4:1.5 5:85.0 6:2.28 
1.577649176257137 1:2880000.0 2:0.0 3:7.0 4:7.0 5:75.0 6:2.68 
1.5776554117320292 1:2140000.0 2:0.0 3:0.0 4:0.0 5:32.0 6:1.28 
1.5776468084972528 1:8090000.0 2:0.0 3:0.0 4:0.0 5:45.0 6:1.9 
1.5776475684921767 1:7.83E7 2:0.0 3:0.0 4:0.0 5:90.0 6:1.82 
1.5814777159245006 1:247.0 2:0.0 3:0.0 4:0.0 5:109.0 6:2.48 
1.5776640109126483 1:3120000.0 2:0.0 3:0.0 4:0.0 5:45.0 6:1.34 
1.5783430406303802 1:37300.0 2:0.0 3:9.5 4:9.5 5:102.0 6:2.24 
2.1842123544065024 1:510000.0 2:0.0 3:3.0 4:3.0 5:99.0 6:2.02 
1.6792569764496494 1:5.52E7 2:3.0 3:0.6666666666666666 4:0.6666666666666666 5:78.0 6:2.06 
1.5783438497965232 1:1.08E8 2:0.0 3:0.0 4:0.0 5:70.0 6:1.44 
2.577935385088285 1:9810000.0 2:0.0 3:0.0 4:0.0 5:42.0 6:2.12 
1.5783452675812266 1:9650000.0 2:0.0 3:0.0 4:0.0 5:71.0 6:1.44 
1.7986039022099576 1:3.29E7 2:0.0 3:4.0 4:4.0 5:51.0 6:2.48 
1.5783429083386809 1:5140000.0 2:1.0 3:0.0 4:0.0 5:148.0 6:3.08 
1.5783449338946298 1:2.77E7 2:0.0 3:0.0 4:0.0 5:254.0 6:5.8 
1.5783413348256596 1:7.29E7 2:0.0 3:0.0 4:0.0 5:40.0 6:1.14 
1.5788059025410222 1:3360000.0 2:44.0 3:0.0 4:0.0 5:183.0 6:5.58 
1.5787821657283245 1:2280000.0 2:8.0 3:1.25 4:1.25 5:205.0 6:4.26 
1.5783372428151863 1:8.01E7 2:0.0 3:0.0 4:0.0 5:82.0 6:1.74 
1.5783107492027988 1:18100.0 2:0.0 3:0.0 4:0.0 5:83.0 6:1.8 
2.57160859649128 1:2700000.0 2:0.0 3:0.0 4:0.0 5:53.0 6:3.3 
1.5783033485433329 1:3130000.0 2:0.0 3:10.0 4:10.0 5:127.0 6:2.58 
1.5782839557941957 1:2740000.0 2:0.0 3:0.0 4:0.0 5:32.0 6:1.14 
1.5784387813992315 1:6.29E7 2:0.0 3:0.0 4:0.0 5:68.0 6:3.18 
1.5782665343542757 1:3.28E7 2:0.0 3:4.5 4:4.5 5:122.0 6:3.36 
1.5767372270436972 1:223.0 2:0.0 3:6.0 4:6.0 5:124.0 6:2.62 
1.5782383559273914 1:3.45E7 2:0.0 3:0.0 4:0.0 5:42.0 6:1.5 
1.578243047701036 1:247000.0 2:0.0 3:0.0 4:0.0 5:43.0 6:1.54 
1.5782394572629803 1:219000.0 2:0.0 3:6.0 4:6.0 5:75.0 6:1.66 
1.5782283327435098 1:1.05E8 2:0.0 3:0.0 4:0.0 5:38.0 6:1.82 
1.5778089260745638 1:5.87E7 2:0.0 3:0.0 4:0.0 5:103.0 6:4.86 
1.5782255909476852 1:5580000.0 2:0.0 3:0.0 4:0.0 5:64.0 6:1.88 
1.578228149198607 1:9.76E7 2:0.0 3:0.0 4:0.0 5:53.0 6:1.74 
1.514716354700563 1:1.18E7 2:0.0 3:0.0 4:0.0 5:46.0 6:1.44 
1.5782240278127349 1:1.75E7 2:0.0 3:10.0 4:10.0 5:134.0 6:2.68 
1.5782284298390064 1:2040000.0 2:0.0 3:0.0 4:0.0 5:38.0 6:1.2 
1.848005449672666 1:1.01E7 2:0.0 3:0.5 4:0.5 5:82.0 6:2.98 
1.5782240387015654 1:1050000.0 2:0.0 3:0.0 4:0.0 5:15.0 6:0.66 
1.578217989579389 1:324000.0 2:0.0 3:0.0 4:0.0 5:150.0 6:3.46 
1.5782158603537675 1:1.35E8 2:0.0 3:0.0 4:0.0 5:55.0 6:2.48 
1.4776566191979135 1:1.52E7 2:0.0 3:0.0 4:0.0 5:43.0 6:1.9 
1.6405572977255884 1:1.97E7 2:1.0 3:0.0 4:0.0 5:109.0 6:2.96 
1.5782161239331947 1:2680000.0 2:0.0 3:0.0 4:0.0 5:34.0 6:1.94 
2.1401929215149593 1:2.58E7 2:1.0 3:6.0 4:6.0 5:119.0 6:4.92 
1.5782163915814968 1:262000.0 2:0.0 3:9.5 4:9.5 5:70.0 6:3.0 
1.5778679872284482 1:228.0 2:0.0 3:7.5 4:7.5 5:118.0 6:2.48 
1.5781984256327277 1:3190000.0 2:0.0 3:1.3333333333333333 4:1.3333333333333333 5:131.0 6:2.94 
1.5807501953224925 1:196000.0 2:1.0 3:8.0 4:8.0 5:110.0 6:2.24 
1.5779115016812886 1:4900000.0 2:0.0 3:0.0 4:0.0 5:66.0 6:1.64 
1.5781863373683955 1:9100000.0 2:0.0 3:0.0 4:0.0 5:43.0 6:1.96 
1.6355270898652576 1:4230000.0 2:7.0 3:0.6666666666666666 4:0.6666666666666666 5:132.0 6:3.84 
1.5781844897283068 1:5450000.0 2:0.0 3:0.0 4:0.0 5:54.0 6:1.4 
1.5781782078417792 1:1.55E7 2:0.0 3:0.0 4:0.0 5:75.0 6:1.56 
1.578157650870093 1:6430000.0 2:0.0 3:0.0 4:0.0 5:94.0 6:1.94 
1.578165134283851 1:3830000.0 2:0.0 3:2.0 4:2.0 5:12.0 6:0.68 
1.6496204800295065 1:2660000.0 2:0.0 3:0.0 4:0.0 5:104.0 6:3.76 
1.5784012080922272 1:173000.0 2:0.0 3:0.0 4:0.0 5:69.0 6:3.1 
1.5781274788038153 1:1180000.0 2:0.0 3:0.0 4:0.0 5:36.0 6:1.14 
1.5781269571938852 1:4480000.0 2:0.0 3:0.0 4:0.0 5:64.0 6:2.44 
2.578114798423653 1:4.74E7 2:0.0 3:0.0 4:0.0 5:50.0 6:1.58 
1.5781118516167751 1:5890000.0 2:0.0 3:6.666666666666667 4:6.666666666666667 5:180.0 6:3.6 
2.5777865240190985 1:1.05E7 2:0.0 3:0.0 4:0.0 5:75.0 6:2.3 
1.5781100003418507 1:1.95E8 2:0.0 3:10.0 4:10.0 5:48.0 6:3.76 
1.7134142344927077 1:8140000.0 2:0.0 3:0.0 4:0.0 5:47.0 6:1.3 
1.57836563463135 1:979000.0 2:0.0 3:0.0 4:0.0 5:52.0 6:1.54 
1.5780906105173946 1:2140000.0 2:0.0 3:0.0 4:0.0 5:211.0 6:5.06 
1.5780803934030456 1:2610000.0 2:0.0 3:0.0 4:0.0 5:64.0 6:3.06 
1.5780667661041576 1:1.42E7 2:0.0 3:0.0 4:0.0 5:47.0 6:1.7 
1.5780610223394984 1:5.79E7 2:0.0 3:0.0 4:0.0 5:72.0 6:1.6 
2.578049347791164 1:1.28E8 2:0.0 3:0.0 4:0.0 5:14.0 6:0.78 
1.578040396127828 1:2620000.0 2:0.0 3:0.0 4:0.0 5:47.0 6:3.34 
1.6371509988739432 1:309000.0 2:2.0 3:0.0 4:0.0 5:75.0 6:1.68 
1.5780374667208634 1:74700.0 2:0.0 3:0.0 4:0.0 5:59.0 6:1.52 
2.3016838488700846 1:1.21E7 2:0.0 3:0.0 4:0.0 5:40.0 6:2.54 
1.5780275318636583 1:5010000.0 2:0.0 3:8.0 4:8.0 5:40.0 6:1.56 
1.5780170591851697 1:2420000.0 2:0.0 3:0.0 4:0.0 5:60.0 6:1.56 
1.5780048681316545 1:1.83E7 2:0.0 3:0.0 4:0.0 5:21.0 6:2.14 
1.5779865794304315 1:5610000.0 2:0.0 3:6.0 4:6.0 5:103.0 6:2.12 
1.5779840062752348 1:1900000.0 2:0.0 3:0.0 4:0.0 5:12.0 6:0.3 
1.577988665573307 1:405000.0 2:14.0 3:2.3333333333333335 4:2.3333333333333335 5:128.0 6:2.64 
1.5779854117799508 1:215000.0 2:6.0 3:0.5 4:0.5 5:120.0 6:3.78 
1.577997052819484 1:238000.0 2:0.0 3:0.0 4:0.0 5:12.0 6:0.5 
2.06076762735988 1:4060000.0 2:1.0 3:4.5 4:4.5 5:77.0 6:2.9 
1.5779920604960185 1:1.86E7 2:31.0 3:2.0 4:2.0 5:272.0 6:6.06 
1.5779868322023476 1:290000.0 2:0.0 3:5.0 4:5.0 5:164.0 6:5.4 
1.5779889192403271 1:9.31E7 2:0.0 3:0.0 4:0.0 5:54.0 6:1.8 
1.577977736237096 1:974000.0 2:0.0 3:10.0 4:10.0 5:110.0 6:2.22 
1.577802740497452 1:4090000.0 2:0.0 3:0.0 4:0.0 5:40.0 6:1.04 
1.577954044786721 1:2.86E7 2:0.0 3:0.0 4:0.0 5:64.0 6:1.96 
1.5779263417387583 1:4360000.0 2:0.0 3:0.0 4:0.0 5:44.0 6:1.62 
1.5778615581157507 1:2740000.0 2:0.0 3:0.0 4:0.0 5:69.0 6:3.12 
1.5783788178302824 1:593000.0 2:0.0 3:8.0 4:8.0 5:72.0 6:1.6 
1.5779541961992192 1:2890000.0 2:0.0 3:0.0 4:0.0 5:128.0 6:2.6 
2.0180211672416632 1:3120000.0 2:1.0 3:0.0 4:0.0 5:261.0 6:5.7 
1.577698526327379 1:208.0 2:0.0 3:7.5 4:7.5 5:123.0 6:2.5 
1.583349421747689 1:6990000.0 2:0.0 3:0.0 4:0.0 5:46.0 6:2.94 
1.5779499403287125 1:495000.0 2:0.0 3:0.0 4:0.0 5:196.0 6:4.06 
1.5778342098705722 1:195.0 2:0.0 3:10.0 4:10.0 5:121.0 6:2.46 
1.5779451585914979 1:5110000.0 2:0.0 3:0.0 4:0.0 5:58.0 6:2.76 
1.5783832852917077 1:230.0 2:0.0 3:10.5 4:10.5 5:147.0 6:2.94 
1.5779448328899595 1:135000.0 2:0.0 3:0.0 4:0.0 5:46.0 6:2.7 
1.577943661048768 1:182000.0 2:4.0 3:3.4 4:3.4 5:35.0 6:0.7 
1.5779285341710612 1:278000.0 2:0.0 3:0.0 4:0.0 5:113.0 6:2.34 
1.577909517250625 1:2.53E7 2:0.0 3:0.0 4:0.0 5:71.0 6:1.44 
1.5779144033595853 1:627000.0 2:0.0 3:5.0 4:5.0 5:145.0 6:3.96 
1.5779060416258943 1:917000.0 2:0.0 3:9.0 4:9.0 5:9.0 6:1.08 
1.5776717949102188 1:1.22E7 2:0.0 3:6.0 4:6.0 5:44.0 6:1.74 
1.5778917179515248 1:312000.0 2:0.0 3:7.0 4:7.0 5:130.0 6:3.5 
2.5778918497121315 1:2.98E7 2:0.0 3:7.0 4:7.0 5:201.0 6:5.24 
2.577878782509386 1:9720000.0 2:0.0 3:0.0 4:0.0 5:82.0 6:1.66 
1.5778552069397291 1:2130000.0 2:0.0 3:0.0 4:0.0 5:161.0 6:3.22 
1.5786402653776022 1:2.66E7 2:1.0 3:3.6666666666666665 4:3.6666666666666665 5:18.0 6:2.12 
1.5778458256698018 1:2.27E7 2:0.0 3:0.0 4:0.0 5:100.0 6:3.54 
1.5778426408493005 1:340000.0 2:0.0 3:0.0 4:0.0 5:116.0 6:2.4 
1.5778168264831258 1:6550000.0 2:0.0 3:0.0 4:0.0 5:39.0 6:1.62 
1.577769389228688 1:201.0 2:0.0 3:0.0 4:0.0 5:164.0 6:3.74 
3.577826512731588 1:5.0E7 2:0.0 3:3.0 4:3.0 5:54.0 6:2.62 
1.5791520913275292 1:185000.0 2:7.0 3:0.0 4:0.0 5:44.0 6:2.36 
2.0914754596929446 1:5.31E7 2:2.0 3:0.0 4:0.0 5:77.0 6:2.14 
1.5951310649401669 1:6.64E7 2:7.0 3:0.0 4:0.0 5:163.0 6:4.44 
1.5778190361709177 1:9080000.0 2:0.0 3:0.0 4:0.0 5:49.0 6:1.42 
1.5777652012740004 1:970000.0 2:2.0 3:5.0 4:5.0 5:279.0 6:8.34 
1.5783553827126975 1:4.09E7 2:0.0 3:0.0 4:0.0 5:64.0 6:2.04 
1.577823527187658 1:5890000.0 2:0.0 3:0.0 4:0.0 5:45.0 6:1.58 
1.577821617377293 1:179.0 2:0.0 3:7.0 4:7.0 5:12.0 6:0.36 
1.5778216851365494 1:6.91E7 2:0.0 3:6.333333333333333 4:6.333333333333333 5:152.0 6:3.14 
3.6052509639465278 1:1.2E7 2:0.0 3:0.0 4:0.0 5:49.0 6:1.72 
1.5778116637841568 1:6.33E8 2:0.0 3:0.0 4:0.0 5:65.0 6:1.98 
1.577811674273252 1:8850000.0 2:0.0 3:0.0 4:0.0 5:60.0 6:1.68 
1.5777999785784131 1:4500000.0 2:0.0 3:0.0 4:0.0 5:141.0 6:2.92 
3.756471585672405 1:9490000.0 2:0.0 3:0.0 4:0.0 5:58.0 6:1.88 
1.5777654464847188 1:1.56E7 2:0.0 3:0.0 4:0.0 5:74.0 6:1.68 
1.5777517277784896 1:1.77E7 2:0.0 3:0.0 4:0.0 5:34.0 6:2.7 
1.5777504597964578 1:122000.0 2:0.0 3:7.5 4:7.5 5:76.0 6:2.22 
1.577749091852145 1:1660000.0 2:0.0 3:0.0 4:0.0 5:51.0 6:1.68 
2.5781649900939914 1:1.2E7 2:0.0 3:0.0 4:0.0 5:37.0 6:1.68 
1.577751452880709 1:4490000.0 2:32.0 3:0.0 4:0.0 5:262.0 6:5.34 
1.5354135395298651 1:179.0 2:0.0 3:6.333333333333333 4:6.333333333333333 5:190.0 6:3.86 
1.5777496644304416 1:26000.0 2:0.0 3:3.0 4:3.0 5:48.0 6:1.18 
1.5777697916503761 1:26000.0 2:15.0 3:2.5 4:2.5 5:48.0 6:1.18 
1.5772219770750722 1:2670000.0 2:0.0 3:8.5 4:8.5 5:55.0 6:2.26 
2.4241345716287563 1:1.29E7 2:1.0 3:5.0 4:5.0 5:282.0 6:6.26 
2.57774972197283 1:4920000.0 2:0.0 3:7.5 4:7.5 5:120.0 6:2.42 
1.5985585542042313 1:4150000.0 2:7.0 3:0.0 4:0.0 5:65.0 6:2.98 
1.6126785279564104 1:5910000.0 2:0.0 3:0.0 4:0.0 5:40.0 6:1.5 
1.5839711298235215 1:395000.0 2:0.0 3:0.0 4:0.0 5:90.0 6:3.5 
2.3562688672190593 1:1670000.0 2:1.0 3:4.5 4:4.5 5:79.0 6:1.64 
1.577766700656651 1:161000.0 2:0.0 3:7.0 4:7.0 5:124.0 6:2.7 
1.5777661978557367 1:3760000.0 2:0.0 3:5.5 4:5.5 5:267.0 6:5.4 
1.5776841610772965 1:2690000.0 2:0.0 3:0.0 4:0.0 5:55.0 6:2.92 
1.5777613051317088 1:4.72E7 2:25.0 3:4.0 4:4.0 5:104.0 6:3.5 
1.5777565106123412 1:6900000.0 2:0.0 3:0.0 4:0.0 5:41.0 6:2.88 
1.5777557254333106 1:7600000.0 2:0.0 3:0.0 4:0.0 5:49.0 6:2.9 
1.5777530784617997 1:8430000.0 2:0.0 3:0.0 4:0.0 5:62.0 6:1.42 
2.2587404849083783 1:4.47E7 2:0.0 3:3.5 4:3.5 5:109.0 6:2.4 
1.5777707833694823 1:287000.0 2:0.0 3:0.0 4:0.0 5:88.0 6:4.26 
0.8620724327405337 1:1.26E7 2:0.0 3:0.0 4:0.0 5:49.0 6:2.16 
1.5777606457176212 1:363000.0 2:0.0 3:0.0 4:0.0 5:17.0 6:1.5 
2.564488328054753 1:5430000.0 2:5.0 3:4.0 4:4.0 5:88.0 6:1.78 
2.4179044909966825 1:640000.0 2:0.0 3:5.4 4:5.4 5:339.0 6:7.66 
1.9126882705707187 1:8560000.0 2:0.0 3:6.166666666666667 4:6.166666666666667 5:90.0 6:3.06 
1.5777614476866013 1:8370000.0 2:0.0 3:0.0 4:0.0 5:86.0 6:1.74 
1.5789885508068413 1:2740000.0 2:0.0 3:2.5 4:2.5 5:59.0 6:1.48 
1.5777625306725465 1:1.48E7 2:0.0 3:0.0 4:0.0 5:156.0 6:4.34 
3.395731029743355 1:8730000.0 2:0.0 3:0.0 4:0.0 5:43.0 6:1.7 
1.5777644683376215 1:1150000.0 2:0.0 3:0.0 4:0.0 5:52.0 6:1.46 
1.5776592996761951 1:1.06E7 2:0.0 3:0.0 4:0.0 5:28.0 6:1.46 
1.5777678384372344 1:158000.0 2:0.0 3:0.0 4:0.0 5:23.0 6:1.36 
1.5777700369298369 1:2030000.0 2:0.0 3:0.0 4:0.0 5:25.0 6:1.28 
1.5777612779477193 1:2830000.0 2:0.0 3:8.0 4:8.0 5:130.0 6:2.66 
2.57775482802049 1:3.0E7 2:0.0 3:0.0 4:0.0 5:58.0 6:1.74 
2.3077584215017826 1:5440000.0 2:1.0 3:3.0 4:3.0 5:53.0 6:1.28 
1.5794839813046817 1:3.39E7 2:0.0 3:0.0 4:0.0 5:62.0 6:3.8 
2.5777550199819887 1:1.51E7 2:0.0 3:0.0 4:0.0 5:47.0 6:1.72 
1.5777418612593275 1:5.95E7 2:0.0 3:0.0 4:0.0 5:71.0 6:1.44 
1.577684209034086 1:1.21E7 2:0.0 3:8.5 4:8.5 5:41.0 6:2.64 
1.5777185196980712 1:1260000.0 2:0.0 3:0.0 4:0.0 5:264.0 6:5.68 
1.5872783967337512 1:2.29E7 2:0.0 3:1.6666666666666667 4:1.6666666666666667 5:158.0 6:4.18 
1.577712325424975 1:175000.0 2:0.0 3:0.0 4:0.0 5:153.0 6:3.06 
1.5777083718303213 1:8300000.0 2:0.0 3:0.0 4:0.0 5:68.0 6:1.44 
1.5774515009034955 1:622000.0 2:0.0 3:10.5 4:10.5 5:142.0 6:2.84 
1.577696425814941 1:4.48E7 2:0.0 3:0.0 4:0.0 5:44.0 6:1.44 
1.5776897241779047 1:1190000.0 2:0.0 3:0.0 4:0.0 5:70.0 6:2.76 
1.5776861832790712 1:6.0E7 2:0.0 3:0.0 4:0.0 5:74.0 6:3.0 
1.577683941642157 1:8390000.0 2:0.0 3:0.0 4:0.0 5:28.0 6:1.42 
1.577737535092738 1:1730000.0 2:0.0 3:6.5 4:6.5 5:38.0 6:1.54 
1.5776815919828686 1:3400000.0 2:0.0 3:0.0 4:0.0 5:61.0 6:1.26 
1.5776956607167198 1:763000.0 2:0.0 3:0.0 4:0.0 5:126.0 6:2.8 
1.577679572237296 1:4750000.0 2:0.0 3:0.0 4:0.0 5:38.0 6:1.68 
1.5776843353748793 1:128000.0 2:0.0 3:0.0 4:0.0 5:122.0 6:2.58 
2.0601976465311336 1:1520000.0 2:3.0 3:1.8 4:1.8 5:111.0 6:3.92 
1.577683866220139 1:1920000.0 2:0.0 3:0.0 4:0.0 5:128.0 6:2.6 
2.0031886830222985 1:203000.0 2:2.0 3:4.5 4:4.5 5:66.0 6:1.48 
1.5776815240471933 1:477000.0 2:0.0 3:0.0 4:0.0 5:51.0 6:1.64 
2.4911790876633786 1:3400000.0 2:0.0 3:1.5 4:1.5 5:222.0 6:5.22 
1.5776810023024939 1:1360000.0 2:0.0 3:0.0 4:0.0 5:89.0 6:1.82 
1.5778756581424602 1:1.78E7 2:0.0 3:0.0 4:0.0 5:32.0 6:1.52 
1.578955650455016 1:3750000.0 2:0.0 3:2.0 4:2.0 5:282.0 6:6.2 
1.5776713724519915 1:11400.0 2:0.0 3:0.0 4:0.0 5:113.0 6:2.82 
1.9398857397678217 1:4960000.0 2:0.0 3:0.0 4:0.0 5:85.0 6:1.88 
1.5776692520374307 1:9180000.0 2:0.0 3:0.0 4:0.0 5:39.0 6:1.58 
1.6891178056475307 1:1.34E7 2:0.0 3:0.0 4:0.0 5:78.0 6:1.56 
1.5776695360111967 1:570000.0 2:0.0 3:0.0 4:0.0 5:68.0 6:1.4 
1.5776588287339355 1:7270000.0 2:2.0 3:7.666666666666667 4:7.666666666666667 5:211.0 6:4.46 
1.5799147714196717 1:1.38E8 2:0.0 3:5.5 4:5.5 5:80.0 6:3.34 
2.6659449717188877 1:1.01E8 2:0.0 3:0.0 4:0.0 5:82.0 6:1.68 
1.5779818962673875 1:6320000.0 2:0.0 3:0.8 4:0.8 5:209.0 6:4.46 
1.577659587372871 1:1690000.0 2:0.0 3:8.0 4:8.0 5:71.0 6:2.04 
1.5777820086537537 1:1280000.0 2:0.0 3:0.0 4:0.0 5:21.0 6:0.96 
1.575521145001734 1:1390000.0 2:0.0 3:0.0 4:0.0 5:65.0 6:1.46 
2.5776499637670205 1:2.6E7 2:0.0 3:0.0 4:0.0 5:89.0 6:2.98 
1.5768478890420636 1:221.0 2:0.0 3:10.0 4:10.0 5:121.0 6:2.44 
1.577650022025551 1:1820000.0 2:0.0 3:0.0 4:0.0 5:48.0 6:2.4 
1.5780553582799675 1:9370000.0 2:0.0 3:0.0 4:0.0 5:26.0 6:0.88 
1.5790585451267056 1:5.96E7 2:0.0 3:3.5 4:3.5 5:57.0 6:3.92 
1.5775574757477626 1:452000.0 2:0.0 3:0.0 4:0.0 5:264.0 6:5.7 
1.2905244319732012 1:1.43E7 2:0.0 3:0.0 4:0.0 5:56.0 6:2.16 
1.7666222604171637 1:2.32E7 2:1.0 3:0.0 4:0.0 5:57.0 6:3.56 
1.5776423159932866 1:4.64E7 2:0.0 3:0.0 4:0.0 5:23.0 6:1.7105263157894737 
2.4241390989941483 1:1.27E7 2:0.0 3:0.0 4:0.0 5:167.0 6:4.58 
1.9323404531039947 1:1.27E7 2:9.0 3:0.5 4:0.5 5:42.0 6:0.86 
1.5780922307265366 1:5.04E7 2:2.0 3:6.0 4:6.0 5:107.0 6:2.72 
1.577634059514672 1:1.76E7 2:0.0 3:0.0 4:0.0 5:35.0 6:1.48 
1.5776417771278424 1:4180000.0 2:0.0 3:0.0 4:0.0 5:56.0 6:2.72 
2.5776330616224863 1:1.43E8 2:0.0 3:0.0 4:0.0 5:27.0 6:1.78 
1.5776323036284754 1:171000.0 2:0.0 3:0.0 4:0.0 5:53.0 6:3.04 
3.6891586072880815 1:3.66E7 2:3.0 3:5.5 4:5.5 5:35.0 6:1.94 
2.5782405891676046 1:2.43E8 2:0.0 3:2.3333333333333335 4:2.3333333333333335 5:77.0 6:3.4 
1.585219189729295 1:3.68E7 2:0.0 3:0.0 4:0.0 5:42.0 6:1.74 
1.5778968086096323 1:1.36E7 2:0.0 3:0.0 4:0.0 5:43.0 6:1.84 
1.577623093308386 1:147000.0 2:0.0 3:0.0 4:0.0 5:57.0 6:3.54 
1.578081161294734 1:4.29E7 2:0.0 3:0.0 4:0.0 5:89.0 6:1.82 
1.5776351487540454 1:1240000.0 2:0.0 3:0.0 4:0.0 5:144.0 6:2.9 
1.5776356075355098 1:6510000.0 2:0.0 3:0.0 4:0.0 5:69.0 6:2.52 
1.5778094304720898 1:75700.0 2:0.0 3:2.0 4:2.0 5:223.0 6:6.04 
1.5776329170545051 1:3260000.0 2:0.0 3:0.0 4:0.0 5:39.0 6:1.4 
1.577648537317602 1:2.38E7 2:0.0 3:0.0 4:0.0 5:54.0 6:1.66 
1.57764853987988 1:2.04E7 2:0.0 3:7.0 4:7.0 5:177.0 6:3.58 
2.184211592089062 1:252.0 2:2.0 3:4.0 4:4.0 5:76.0 6:2.08 
1.5776485398799966 1:8720000.0 2:0.0 3:7.5 4:7.5 5:36.0 6:2.12 
1.5776184272416862 1:1.22E7 2:0.0 3:0.0 4:0.0 5:48.0 6:1.96 
2.587898145688758 1:1960000.0 2:1.0 3:6.0 4:6.0 5:140.0 6:6.02 
1.5776384286078913 1:6.18E7 2:0.0 3:7.333333333333333 4:7.333333333333333 5:70.0 6:3.84 
1.577645918437296 1:7080000.0 2:0.0 3:0.0 4:0.0 5:257.0 6:5.9 
1.5776456147741986 1:229000.0 2:0.0 3:7.666666666666667 4:7.666666666666667 5:187.0 6:3.74 
1.5776528148016484 1:6180000.0 2:0.0 3:0.0 4:0.0 5:49.0 6:1.3 
1.5776827839851504 1:1.17E7 2:0.0 3:0.0 4:0.0 5:76.0 6:1.88 
1.5776483258943341 1:1.5E7 2:0.0 3:9.5 4:9.5 5:117.0 6:2.36 
1.5776475684921767 1:3550000.0 2:0.0 3:0.0 4:0.0 5:42.0 6:1.46 
1.577654252883764 1:169000.0 2:0.0 3:0.0 4:0.0 5:57.0 6:3.74 
1.5776562992651197 1:1.81E7 2:0.0 3:2.0 4:2.0 5:49.0 6:2.42 
1.5776550374134872 1:4.66E7 2:0.0 3:0.0 4:0.0 5:84.0 6:1.78 
1.5776560291898658 1:8.28E7 2:0.0 3:0.0 4:0.0 5:66.0 6:4.2 
1.5979059431377118 1:226000.0 2:3.0 3:0.0 4:0.0 5:64.0 6:1.34 
1.289775508827961 1:8600000.0 2:0.0 3:0.0 4:0.0 5:63.0 6:1.32 
1.0723042998466012 1:2820000.0 2:0.0 3:0.0 4:0.0 5:34.0 6:2.22 
1.5776636336067038 1:3.07E7 2:0.0 3:0.0 4:0.0 5:57.0 6:1.64 
1.6659663678632135 1:2300000.0 2:2.0 3:0.0 4:0.0 5:126.0 6:2.54 
1.5779300022820646 1:108000.0 2:5.0 3:0.0 4:0.0 5:62.0 6:1.92 
1.6112149682551187 1:6.64E7 2:6.0 3:2.4285714285714284 4:2.4285714285714284 5:66.0 6:1.8 
1.5778365064409894 1:195.0 2:0.0 3:6.666666666666667 4:6.666666666666667 5:177.0 6:3.58 
1.577914081452989 1:9300000.0 2:0.0 3:0.0 4:0.0 5:75.0 6:2.26 
1.6134834425647466 1:6130000.0 2:0.0 3:0.0 4:0.0 5:25.0 6:1.14 
1.6171357965542392 1:7.93E7 2:0.0 3:0.0 4:0.0 5:51.0 6:1.34 
0.8630003204745311 1:1.26E7 2:0.0 3:0.0 4:0.0 5:48.0 6:1.82 
1.5756892105658578 1:1390000.0 2:0.0 3:0.0 4:0.0 5:59.0 6:3.32 
1.5776622532809923 1:1.98E7 2:0.0 3:9.5 4:9.5 5:53.0 6:2.34 
1.5776641118908203 1:7130000.0 2:0.0 3:0.0 4:0.0 5:110.0 6:2.38 
1.57760530012211 1:1.71E7 2:0.0 3:0.0 4:0.0 5:99.0 6:3.42 
1.5776592996761918 1:2690000.0 2:0.0 3:0.0 4:0.0 5:147.0 6:3.0 
1.577659965953275 1:8180000.0 2:0.0 3:0.0 4:0.0 5:56.0 6:2.04 
1.5778855637593971 1:8520000.0 2:0.0 3:0.0 4:0.0 5:30.0 6:1.64 
1.5782701048772367 1:3210000.0 2:0.0 3:0.0 4:0.0 5:86.0 6:3.02 
2.5776637543599072 1:6.93E7 2:0.0 3:0.0 4:0.0 5:52.0 6:3.02 
1.5776594632375796 1:2930000.0 2:0.0 3:0.0 4:0.0 5:27.0 6:1.6 
1.5776666786405062 1:112000.0 2:0.0 3:0.0 4:0.0 5:56.0 6:1.3 
1.577594819418848 1:2660000.0 2:0.0 3:0.0 4:0.0 5:32.0 6:4.6 
1.5776691928318223 1:8030000.0 2:0.0 3:0.0 4:0.0 5:53.0 6:4.32 
1.577667291344878 1:5400000.0 2:0.0 3:9.5 4:9.5 5:111.0 6:2.26 
1.5774722692919028 1:1.18E7 2:0.0 3:0.0 4:0.0 5:57.0 6:2.36 
1.5778614098382313 1:151.0 2:24.0 3:4.0 4:4.0 5:113.0 6:4.24 
1.5776671045684372 1:430000.0 2:0.0 3:0.0 4:0.0 5:48.0 6:3.0 
1.5776651287785808 1:624000.0 2:0.0 3:0.0 4:0.0 5:115.0 6:4.0 
1.5776783878686236 1:8910000.0 2:0.0 3:0.0 4:0.0 5:22.0 6:1.4 
1.5776747656833463 1:242000.0 2:0.0 3:12.0 4:12.0 5:3.0 6:0.06 
1.5776800921383767 1:8760000.0 2:0.0 3:0.0 4:0.0 5:47.0 6:1.78 
1.5776839874068087 1:423000.0 2:0.0 3:0.0 4:0.0 5:73.0 6:1.6 
1.5777273233729519 1:2200000.0 2:17.0 3:1.0 4:1.0 5:352.0 6:8.88 
1.577756281911963 1:4220000.0 2:0.0 3:0.0 4:0.0 5:139.0 6:2.82 
1.5777654160505419 1:4.28E7 2:0.0 3:0.0 4:0.0 5:120.0 6:2.78 
1.5783649098888681 1:2.26E7 2:3.0 3:0.0 4:0.0 5:139.0 6:4.32 
1.5783722867777188 1:565000.0 2:0.0 3:7.333333333333333 4:7.333333333333333 5:52.0 6:3.48 
1.5777874559014125 1:8460000.0 2:0.0 3:0.0 4:0.0 5:58.0 6:1.18 
1.5778496145396719 1:8790000.0 2:0.0 3:0.0 4:0.0 5:59.0 6:1.62 
1.5783422106970375 1:6910000.0 2:0.0 3:0.0 4:0.0 5:43.0 6:1.6 
2.5778896135161933 1:1.73E7 2:0.0 3:0.0 4:0.0 5:66.0 6:1.88 
1.5779108849582841 1:8320000.0 2:0.0 3:0.0 4:0.0 5:59.0 6:1.68 
1.5779355009233011 1:3.33E7 2:0.0 3:0.0 4:0.0 5:26.0 6:1.52 
1.5779387035934946 1:280000.0 2:0.0 3:9.0 4:9.0 5:113.0 6:2.26 
1.5784141875003717 1:253000.0 2:0.0 3:0.0 4:0.0 5:28.0 6:1.36 
2.5779423156778187 1:2.15E7 2:0.0 3:0.0 4:0.0 5:47.0 6:1.6 
1.53542884787925 1:182.0 2:0.0 3:5.0 4:5.0 5:187.0 6:3.92 
2.426436280009273 1:1.07E7 2:0.0 3:0.0 4:0.0 5:28.0 6:1.44 
1.578432808025732 1:1.4E7 2:0.0 3:4.0 4:4.0 5:225.0 6:4.84 
1.5783570327147185 1:9090000.0 2:0.0 3:0.0 4:0.0 5:50.0 6:1.6041666666666667 
1.5783547865852396 1:7170000.0 2:0.0 3:0.0 4:0.0 5:37.0 6:1.434782608695652 
1.5783224560251103 1:9510000.0 2:0.0 3:0.0 4:0.0 5:34.0 6:2.0 
2.5075926646502777 1:8690000.0 2:0.0 3:0.0 4:0.0 5:64.0 6:2.38 
1.477764950478803 1:1.52E7 2:0.0 3:0.0 4:0.0 5:47.0 6:2.2 
1.5776740048479136 1:208.0 2:0.0 3:8.5 4:8.5 5:92.0 6:1.98 
1.5781178597824124 1:1.14E7 2:0.0 3:0.0 4:0.0 5:43.0 6:1.72 
1.5783089722212489 1:243000.0 2:0.0 3:0.0 4:0.0 5:290.0 6:6.44 
1.3438549582937371 1:241.0 2:0.0 3:6.0 4:6.0 5:87.0 6:1.88 
1.5782662820720015 1:250000.0 2:20.0 3:4.0 4:4.0 5:106.0 6:4.7 
1.578250274089072 1:2770000.0 2:0.0 3:0.0 4:0.0 5:68.0 6:3.1 
1.5782489428306192 1:1.19E7 2:0.0 3:0.0 4:0.0 5:73.0 6:1.82 
1.578236981540854 1:3340000.0 2:0.0 3:0.0 4:0.0 5:77.0 6:2.8 
1.578189619492015 1:1.94E7 2:0.0 3:9.5 4:9.5 5:100.0 6:2.0 
2.113417540439108 1:1340000.0 2:3.0 3:7.0 4:7.0 5:263.0 6:5.66 
1.7718333172549778 1:177000.0 2:3.0 3:1.0 4:1.0 5:156.0 6:3.52 
1.5781575055018027 1:2950000.0 2:0.0 3:0.0 4:0.0 5:54.0 6:2.68 
1.5776815240471933 1:1.77E7 2:0.0 3:10.0 4:10.0 5:49.0 6:2.9 
1.5776986609425414 1:9250000.0 2:0.0 3:0.0 4:0.0 5:52.0 6:1.34 
1.578147713839919 1:8280000.0 2:0.0 3:0.0 4:0.0 5:27.0 6:1.16 
1.578119939915096 1:7810000.0 2:0.0 3:0.0 4:0.0 5:48.0 6:2.98 
1.5781200615225053 1:6080000.0 2:0.0 3:8.5 4:8.5 5:129.0 6:2.64 
1.5784228700297633 1:129000.0 2:17.0 3:0.0 4:0.0 5:162.0 6:3.36 
1.5740323110226102 1:238000.0 2:0.0 3:0.0 4:0.0 5:123.0 6:2.88 
1.5780965910336269 1:288000.0 2:0.0 3:0.0 4:0.0 5:29.0 6:2.76 
1.5781007649336911 1:608000.0 2:0.0 3:0.0 4:0.0 5:24.0 6:1.12 
1.5780665379135388 1:107000.0 2:0.0 3:0.0 4:0.0 5:146.0 6:3.6 
1.5780667026558324 1:182000.0 2:0.0 3:0.0 4:0.0 5:157.0 6:3.56 
1.5780563343766398 1:2540000.0 2:0.0 3:0.0 4:0.0 5:40.0 6:1.66 
3.960530168832028 1:7.93E7 2:0.0 3:0.0 4:0.0 5:51.0 6:1.34 
1.5779870662953048 1:1.42E8 2:0.0 3:0.0 4:0.0 5:50.0 6:3.0 
2.161678731290968 1:1.92E7 2:3.0 3:3.0 4:3.0 5:100.0 6:2.76 
1.5779812018818316 1:1.02E9 2:0.0 3:0.0 4:0.0 5:45.0 6:1.76 
1.5777591352566471 1:1.28E7 2:0.0 3:8.0 4:8.0 5:141.0 6:2.82 
1.5784322427748598 1:248.0 2:0.0 3:7.333333333333333 4:7.333333333333333 5:182.0 6:3.72 
1.5779646075254825 1:9620000.0 2:0.0 3:0.0 4:0.0 5:86.0 6:1.78 
1.5784169324865294 1:129000.0 2:0.0 3:0.0 4:0.0 5:155.0 6:3.54 
1.577941750882141 1:3580000.0 2:0.0 3:0.0 4:0.0 5:78.0 6:1.62 
1.578637658597037 1:2390000.0 2:0.0 3:0.0 4:0.0 5:54.0 6:1.64 
1.5779371283009713 1:2100000.0 2:0.0 3:0.0 4:0.0 5:31.0 6:1.44 
1.5779310004804934 1:6360000.0 2:0.0 3:0.0 4:0.0 5:40.0 6:2.06 
1.5779184388367025 1:4.99E7 2:0.0 3:0.0 4:0.0 5:42.0 6:3.4 
1.577909658310125 1:8470000.0 2:0.0 3:0.0 4:0.0 5:57.0 6:1.78 
1.5778753615803542 1:189000.0 2:0.0 3:0.0 4:0.0 5:90.0 6:2.82 
1.5778741103341032 1:4200000.0 2:0.0 3:0.0 4:0.0 5:181.0 6:3.86 
1.577890900642573 1:5430000.0 2:0.0 3:6.5 4:6.5 5:99.0 6:2.66 
1.577866186698566 1:2.68E7 2:0.0 3:0.0 4:0.0 5:46.0 6:2.24 
1.5778293471229787 1:9410000.0 2:0.0 3:0.0 4:0.0 5:53.0 6:2.54 
1.5778320431947799 1:150000.0 2:6.0 3:4.6 4:4.6 5:66.0 6:1.74 
1.5443511476899048 1:4.29E7 2:1.0 3:3.3333333333333335 4:3.3333333333333335 5:97.0 6:3.44 
1.5444033911347825 1:4.29E7 2:0.0 3:0.0 4:0.0 5:97.0 6:3.44 
1.5777755535852878 1:2320000.0 2:0.0 3:0.0 4:0.0 5:29.0 6:1.04 
1.5777600559590437 1:239000.0 2:0.0 3:0.0 4:0.0 5:88.0 6:4.26 
1.5784189502275054 1:4.04E7 2:20.0 3:0.0 4:0.0 5:49.0 6:1.98 
1.5865097139676987 1:4.3E7 2:0.0 3:0.0 4:0.0 5:76.0 6:2.98 
1.5777428178004658 1:8320000.0 2:0.0 3:0.0 4:0.0 5:89.0 6:1.78 
1.950245107980767 1:217000.0 2:2.0 3:1.0 4:1.0 5:187.0 6:5.62 
1.577729567849251 1:343000.0 2:0.0 3:0.0 4:0.0 5:75.0 6:2.04 
1.5783956997987276 1:2.26E7 2:0.0 3:0.0 4:0.0 5:53.0 6:1.44 
1.578443646598154 1:3640000.0 2:0.0 3:0.0 4:0.0 5:136.0 6:2.88 
1.5908590082649863 1:113000.0 2:1.0 3:2.5 4:2.5 5:56.0 6:1.18 
1.5777223246435557 1:7.95E7 2:0.0 3:0.0 4:0.0 5:35.0 6:1.78 
1.5777120728269471 1:4160000.0 2:0.0 3:0.0 4:0.0 5:70.0 6:1.52 
1.2798520134559528 1:2.83E7 2:0.0 3:0.0 4:0.0 5:56.0 6:1.5 
1.5778154681952694 1:1.0E7 2:0.0 3:0.0 4:0.0 5:54.0 6:1.62 
1.5784318078312587 1:1.35E7 2:0.0 3:0.0 4:0.0 5:162.0 6:3.26 
1.5777086778180731 1:3680000.0 2:0.0 3:8.0 4:8.0 5:120.0 6:2.48 
2.8092869275237926 1:2340000.0 2:0.0 3:7.75 4:7.75 5:4.0 6:0.16 
1.57771175062295 1:6310000.0 2:0.0 3:0.0 4:0.0 5:38.0 6:1.8 
1.577694256810865 1:1550000.0 2:0.0 3:0.0 4:0.0 5:52.0 6:1.76 
0.8600047797945685 1:1040000.0 2:0.0 3:0.0 4:0.0 5:39.0 6:1.0 
1.598885482773558 1:2560000.0 2:0.0 3:3.0 4:3.0 5:58.0 6:2.22 
2.577893846224388 1:224.0 2:0.0 3:0.0 4:0.0 5:26.0 6:0.54 
1.5777002970598883 1:6.95E7 2:0.0 3:0.0 4:0.0 5:27.0 6:1.12 
1.5776804891245884 1:4100000.0 2:0.0 3:0.0 4:0.0 5:40.0 6:1.7 
1.5776763134339302 1:9110000.0 2:0.0 3:0.0 4:0.0 5:49.0 6:1.82 
2.577666881839841 1:7.4E7 2:0.0 3:0.0 4:0.0 5:29.0 6:1.18 
1.5776303002189629 1:1.05E7 2:0.0 3:0.0 4:0.0 5:139.0 6:2.78 
1.5781961899269703 1:9650000.0 2:0.0 3:0.0 4:0.0 5:49.0 6:1.44 
1.5775877997471528 1:4620000.0 2:0.0 3:0.0 4:0.0 5:56.0 6:1.5 
1.5775673500385285 1:2850000.0 2:0.0 3:0.0 4:0.0 5:28.0 6:1.54 
1.5775547831652663 1:7890000.0 2:0.0 3:0.0 4:0.0 5:62.0 6:1.46 
1.577561281189173 1:5.49E7 2:0.0 3:0.0 4:0.0 5:49.0 6:1.46 
1.5815788193535187 1:258000.0 2:0.0 3:0.0 4:0.0 5:182.0 6:3.68 
1.5775505758978674 1:5.06E7 2:39.0 3:5.0 4:5.0 5:41.0 6:2.62 
1.5775056951572863 1:184000.0 2:0.0 3:0.0 4:0.0 5:110.0 6:2.7 
1.5782163770029725 1:4550000.0 2:0.0 3:0.0 4:0.0 5:52.0 6:1.5 
1.5783903514672766 1:3810000.0 2:11.0 3:10.0 4:10.0 5:113.0 6:3.6 
1.57843166717769 1:3930.0 2:41.0 3:7.0 4:7.0 5:62.0 6:2.26 
1.5775071565796486 1:2.2E7 2:0.0 3:0.0 4:0.0 5:52.0 6:2.6 
1.57749612373485 1:9060000.0 2:0.0 3:0.0 4:0.0 5:63.0 6:1.98 
2.247820068005676 1:2820000.0 2:4.0 3:3.5 4:3.5 5:36.0 6:2.28 
1.5779416391263497 1:293000.0 2:3.0 3:3.0 4:3.0 5:251.0 6:5.68 
3.5779263411180415 1:7540000.0 2:0.0 3:0.0 4:0.0 5:77.0 6:1.54 
1.577926424132019 1:1.05E7 2:0.0 3:4.0 4:4.0 5:30.0 6:2.4 
1.5779242592978302 1:4.45E7 2:0.0 3:6.666666666666667 4:6.666666666666667 5:79.0 6:4.12 
1.5776523599224506 1:9250000.0 2:0.0 3:0.0 4:0.0 5:40.0 6:1.74 
1.6437844942682536 1:2660000.0 2:1.0 3:2.5 4:2.5 5:38.0 6:1.94 
1.5863867752589909 1:1310000.0 2:0.0 3:0.0 4:0.0 5:199.0 6:4.28 
1.5779108106112878 1:309000.0 2:0.0 3:0.0 4:0.0 5:191.0 6:4.02 
1.5779247258088067 1:1200000.0 2:11.0 3:0.0 4:0.0 5:278.0 6:5.74 
1.577890548313515 1:2730000.0 2:0.0 3:5.0 4:5.0 5:218.0 6:4.4 
1.5783496558785515 1:133000.0 2:0.0 3:0.0 4:0.0 5:132.0 6:2.7 
1.5778738470820217 1:176000.0 2:0.0 3:0.0 4:0.0 5:59.0 6:1.38 
2.632155110815599 1:97100.0 2:0.0 3:6.5 4:6.5 5:5.0 6:0.18 
1.5778496027961266 1:1910000.0 2:0.0 3:0.0 4:0.0 5:76.0 6:1.52 
2.577836495023923 1:4.21E8 2:0.0 3:0.0 4:0.0 5:59.0 6:2.16 
1.5778343899761822 1:7880000.0 2:0.0 3:0.0 4:0.0 5:107.0 6:2.26 
1.5778359760496241 1:2430000.0 2:0.0 3:0.0 4:0.0 5:104.0 6:3.5 
1.5778118895303161 1:752000.0 2:0.0 3:0.0 4:0.0 5:33.0 6:1.34 
1.5778030195040667 1:778000.0 2:0.0 3:16.0 4:16.0 5:1.0 6:0.04 
1.5778031837476276 1:1.91E7 2:0.0 3:0.0 4:0.0 5:24.0 6:1.52 
2.0812038726855744 1:1.16E7 2:0.0 3:0.0 4:0.0 5:49.0 6:2.0 
1.5777886460853499 1:1.6E7 2:0.0 3:0.0 4:0.0 5:40.0 6:1.8 
1.5777697061632256 1:4090000.0 2:0.0 3:0.0 4:0.0 5:30.0 6:1.66 
1.9812515690936656 1:216.0 2:0.0 3:3.5 4:3.5 5:93.0 6:1.86 
1.5777838839213012 1:9780000.0 2:0.0 3:0.0 4:0.0 5:76.0 6:1.62 
1.5777801683604111 1:73000.0 2:0.0 3:0.0 4:0.0 5:56.0 6:1.18 
1.577776488832548 1:412000.0 2:0.0 3:6.5 4:6.5 5:60.0 6:3.26 
1.5777761694528936 1:339000.0 2:0.0 3:5.75 4:5.75 5:264.0 6:5.36 
1.5777665222073878 1:83400.0 2:0.0 3:0.0 4:0.0 5:89.0 6:4.16 
1.5777668485219973 1:925000.0 2:0.0 3:7.333333333333333 4:7.333333333333333 5:186.0 6:3.92 
1.5777368581142566 1:9530000.0 2:0.0 3:9.5 4:9.5 5:118.0 6:2.38 
1.5777071850381055 1:1.31E7 2:0.0 3:0.0 4:0.0 5:76.0 6:1.58 
2.2803061310105823 1:149.0 2:0.0 3:2.5 4:2.5 5:116.0 6:2.56 
1.6134135533107132 1:1.25E7 2:14.0 3:3.0 4:3.0 5:75.0 6:1.56 
1.5777282170640259 1:8.33E7 2:0.0 3:0.0 4:0.0 5:43.0 6:2.3 
1.5777212212208331 1:2660000.0 2:0.0 3:0.0 4:0.0 5:210.0 6:4.24 
1.5777001486284514 1:2450000.0 2:0.0 3:0.0 4:0.0 5:131.0 6:3.38 
1.5776776679575288 1:9.56E7 2:0.0 3:0.0 4:0.0 5:40.0 6:1.52 
1.5776671411161474 1:248000.0 2:0.0 3:10.5 4:10.5 5:128.0 6:2.56 
1.5776712827784753 1:214000.0 2:0.0 3:0.0 4:0.0 5:138.0 6:2.8 
1.8892528177266912 1:2.84E7 2:0.0 3:3.5 4:3.5 5:147.0 6:4.08 
1.57774713445377 1:2.84E7 2:13.0 3:3.1666666666666665 4:3.1666666666666665 5:147.0 6:4.08 
1.5776731350716737 1:7.71E7 2:0.0 3:0.0 4:0.0 5:82.0 6:2.54 
2.577666546253899 1:5.2E7 2:0.0 3:0.0 4:0.0 5:158.0 6:3.18 
1.7594430009201107 1:212000.0 2:0.0 3:0.0 4:0.0 5:110.0 6:2.94 
1.5776649108003613 1:1.07E8 2:0.0 3:7.333333333333333 4:7.333333333333333 5:133.0 6:2.82 
1.5776668834236085 1:3.44E7 2:0.0 3:0.0 4:0.0 5:76.0 6:1.6 
1.57766751693739 1:2.9E7 2:0.0 3:5.0 4:5.0 5:115.0 6:2.68 
1.5776694460880358 1:1.54E7 2:0.0 3:0.0 4:0.0 5:47.0 6:1.58 
1.6135892375791063 1:239000.0 2:0.0 3:1.0 4:1.0 5:33.0 6:2.68 
1.577666604674254 1:7000000.0 2:0.0 3:10.0 4:10.0 5:19.0 6:1.28 
1.5776662873359906 1:1850000.0 2:0.0 3:0.0 4:0.0 5:152.0 6:4.76 
1.577667186391489 1:1.65E7 2:0.0 3:0.0 4:0.0 5:55.0 6:3.1 
1.5776906551919065 1:1.13E8 2:0.0 3:0.0 4:0.0 5:47.0 6:1.64 
1.5776633369383897 1:901000.0 2:0.0 3:0.0 4:0.0 5:253.0 6:5.48 
1.5776608842841606 1:5.47E7 2:6.0 3:0.0 4:0.0 5:168.0 6:4.56 
1.5776637467697485 1:2.17E7 2:0.0 3:7.0 4:7.0 5:125.0 6:2.5 
1.5776572801172812 1:3740000.0 2:0.0 3:0.0 4:0.0 5:152.0 6:3.6 
1.5776614115131178 1:6070000.0 2:0.0 3:0.0 4:0.0 5:41.0 6:1.78 
1.6341987020352247 1:8.07E7 2:0.0 3:0.0 4:0.0 5:78.0 6:2.96 
1.577654884783548 1:3.48E7 2:2.0 3:6.0 4:6.0 5:59.0 6:4.04 
1.5776548731539113 1:3750000.0 2:0.0 3:0.0 4:0.0 5:33.0 6:1.58 
1.577654252883764 1:4.96E7 2:0.0 3:0.0 4:0.0 5:158.0 6:3.26 
2.5776528904953158 1:4.13E7 2:0.0 3:0.0 4:0.0 5:39.0 6:1.68 
1.5776441781598658 1:222.0 2:0.0 3:0.0 4:0.0 5:178.0 6:3.58 
1.5895924208935344 1:2400000.0 2:12.0 3:3.0 4:3.0 5:84.0 6:2.3 
1.5776460726953592 1:4.18E7 2:0.0 3:0.0 4:0.0 5:68.0 6:3.36 
1.577648537317602 1:5220000.0 2:0.0 3:0.0 4:0.0 5:131.0 6:2.62 
1.5776495160947202 1:215000.0 2:0.0 3:7.666666666666667 4:7.666666666666667 5:181.0 6:3.9 
1.554228218073784 1:1.06E7 2:0.0 3:0.0 4:0.0 5:51.0 6:2.32 
1.5776466050470177 1:3600000.0 2:0.0 3:0.0 4:0.0 5:70.0 6:1.42 
1.5777271219640825 1:2180000.0 2:0.0 3:0.0 4:0.0 5:101.0 6:2.64 
1.5778333249240115 1:2.4E7 2:0.0 3:0.0 4:0.0 5:59.0 6:1.3 
1.5776398693713658 1:1.46E7 2:13.0 3:0.0 4:0.0 5:234.0 6:5.2 
1.5776313996738833 1:236000.0 2:0.0 3:0.0 4:0.0 5:28.0 6:1.22 
1.5776337436682497 1:1.24E7 2:0.0 3:0.0 4:0.0 5:66.0 6:2.26 
1.5778573007649996 1:1.27E7 2:0.0 3:0.0 4:0.0 5:126.0 6:3.64 
1.5776346178082368 1:179000.0 2:0.0 3:0.0 4:0.0 5:239.0 6:5.0 
2.5778373415075047 1:1.05E7 2:0.0 3:0.0 4:0.0 5:67.0 6:2.02 
1.5777853591290905 1:4550000.0 2:0.0 3:0.0 4:0.0 5:39.0 6:1.26 
2.5776418148780476 1:2.5E7 2:0.0 3:0.0 4:0.0 5:48.0 6:1.78 
1.5781861659077887 1:3.54E7 2:0.0 3:4.5 4:4.5 5:109.0 6:3.06 
1.5776411122621197 1:227000.0 2:0.0 3:0.0 4:0.0 5:96.0 6:2.52 
1.5776499175301544 1:2.28E7 2:0.0 3:0.0 4:0.0 5:34.0 6:1.76 
2.5776516222095447 1:1.02E8 2:0.0 3:0.0 4:0.0 5:40.0 6:2.8 
1.5776493264187375 1:2190000.0 2:0.0 3:0.0 4:0.0 5:96.0 6:2.96 
1.5776511758986302 1:263000.0 2:0.0 3:12.0 4:12.0 5:2.0 6:0.06 
1.5776583450505755 1:2.42E7 2:0.0 3:0.0 4:0.0 5:197.0 6:4.02 
1.5776521550435512 1:3630000.0 2:0.0 3:8.0 4:8.0 5:30.0 6:2.28 
1.5776588287339355 1:303000.0 2:0.0 3:4.75 4:4.75 5:234.0 6:4.7 
1.57766477233197 1:3770000.0 2:0.0 3:0.0 4:0.0 5:53.0 6:2.84 
1.615150461374498 1:1780000.0 2:3.0 3:5.333333333333333 4:5.333333333333333 5:157.0 6:3.94 
1.577683941642157 1:1610000.0 2:0.0 3:7.0 4:7.0 5:4.0 6:0.12 
1.5791852549299517 1:208000.0 2:0.0 3:6.5 4:6.5 5:0.0 6:0.0 
1.5776827840441427 1:54500.0 2:3.0 3:3.6666666666666665 4:3.6666666666666665 5:33.0 6:1.46 
1.5778045120241706 1:355000.0 2:2.0 3:0.0 4:0.0 5:57.0 6:1.16 
1.5776967643219462 1:156000.0 2:47.0 3:2.0 4:2.0 5:76.0 6:2.32 
1.5776958271195274 1:2160000.0 2:0.0 3:0.0 4:0.0 5:65.0 6:3.6 
1.7542492982982345 1:2.74E7 2:0.0 3:0.5 4:0.5 5:78.0 6:2.52 
1.5778371701797007 1:2.74E7 2:8.0 3:0.0 4:0.0 5:78.0 6:2.52 
1.5777107313899743 1:6800000.0 2:0.0 3:0.0 4:0.0 5:43.0 6:1.58 
1.5777329267436715 1:254000.0 2:0.0 3:0.0 4:0.0 5:104.0 6:2.48 
1.577714252379788 1:2490000.0 2:0.0 3:10.0 4:10.0 5:127.0 6:2.54 
1.577902987450269 1:217.0 2:0.0 3:10.0 4:10.0 5:128.0 6:2.6 
1.577774737959165 1:1820000.0 2:6.0 3:0.0 4:0.0 5:249.0 6:5.34 
1.5778344536247415 1:204.0 2:0.0 3:0.0 4:0.0 5:35.0 6:0.92 
1.5777608375952676 1:1.47E7 2:0.0 3:0.0 4:0.0 5:69.0 6:1.48 
1.5777644683376215 1:91900.0 2:0.0 3:0.0 4:0.0 5:289.0 6:6.42 
1.577761199756187 1:169000.0 2:0.0 3:0.0 4:0.0 5:182.0 6:3.66 
1.5777639447045844 1:7.18E8 2:0.0 3:0.0 4:0.0 5:45.0 6:1.7272727272727273 
1.5783348075048131 1:214000.0 2:0.0 3:7.5 4:7.5 5:96.0 6:2.66 
1.6147575202792992 1:2.31E8 2:0.0 3:2.5 4:2.5 5:50.0 6:2.62 
2.577770979918459 1:3040000.0 2:0.0 3:2.0 4:2.0 5:10.0 6:0.28 
1.5778116483733793 1:9000000.0 2:0.0 3:0.0 4:0.0 5:69.0 6:1.38 
1.577807733971357 1:5040000.0 2:0.0 3:0.0 4:0.0 5:33.0 6:1.46 
1.578132056716448 1:2670000.0 2:0.0 3:9.0 4:9.0 5:48.0 6:2.26 
1.5791689748444848 1:6690000.0 2:1.0 3:0.0 4:0.0 5:88.0 6:2.6 
1.5741073026967134 1:1.02E7 2:0.0 3:0.0 4:0.0 5:41.0 6:1.565217391304348 
1.577821168409395 1:1.37E7 2:0.0 3:7.0 4:7.0 5:34.0 6:0.86 
1.5778738493061395 1:2.01E7 2:0.0 3:0.0 4:0.0 5:59.0 6:2.06 
1.577826814837356 1:2610000.0 2:0.0 3:0.0 4:0.0 5:125.0 6:2.72 
1.5778458256698018 1:1.82E7 2:0.0 3:0.0 4:0.0 5:76.0 6:1.56 
1.574096609889852 1:1.45E7 2:0.0 3:0.0 4:0.0 5:37.0 6:1.92 
1.5778501927328825 1:559.0 2:0.0 3:0.0 4:0.0 5:46.0 6:2.08 
1.5796473444167307 1:1.18E7 2:0.0 3:0.0 4:0.0 5:36.0 6:1.52 
1.5778583600660574 1:54400.0 2:0.0 3:0.0 4:0.0 5:263.0 6:6.28 
1.577855431519612 1:6230000.0 2:0.0 3:0.0 4:0.0 5:29.0 6:0.82 
1.5778577993053053 1:2.89E7 2:0.0 3:0.0 4:0.0 5:60.0 6:1.24 
1.5779301806144574 1:9830000.0 2:0.0 3:0.0 4:0.0 5:39.0 6:1.64 
1.5781891814855102 1:250.0 2:0.0 3:9.0 4:9.0 5:126.0 6:2.54 
1.5778774998792477 1:179000.0 2:0.0 3:0.0 4:0.0 5:95.0 6:6.78 
2.5778244750491757 1:9.62E7 2:0.0 3:1.2 4:1.2 5:141.0 6:3.14 
1.577884779936616 1:8940000.0 2:0.0 3:0.0 4:0.0 5:35.0 6:2.02 
1.5779123863334492 1:2190000.0 2:0.0 3:0.0 4:0.0 5:17.0 6:1.06 
1.5779220569558503 1:2.51E7 2:0.0 3:8.0 4:8.0 5:190.0 6:3.86 
1.7596344499962402 1:1.12E7 2:0.0 3:0.0 4:0.0 5:35.0 6:1.48 
1.57775538776638 1:3.85E7 2:8.0 3:1.0 4:1.0 5:100.0 6:2.86 
1.5779866632711959 1:1.5E7 2:0.0 3:0.0 4:0.0 5:80.0 6:1.64 
1.6722490578338722 1:1.16E7 2:0.0 3:0.0 4:0.0 5:60.0 6:3.06 
2.001530682630132 1:3430000.0 2:0.0 3:4.8 4:4.8 5:54.0 6:2.06 
1.5779920604960185 1:2.27E7 2:0.0 3:0.0 4:0.0 5:47.0 6:1.54 
1.577988536405138 1:142000.0 2:0.0 3:0.0 4:0.0 5:40.0 6:1.38 
1.5779803577325064 1:2270000.0 2:0.0 3:0.0 4:0.0 5:13.0 6:1.68 
2.207710428073337 1:4310000.0 2:7.0 3:5.6 4:5.6 5:284.0 6:5.92 
1.5779872333655764 1:4940000.0 2:0.0 3:0.0 4:0.0 5:42.0 6:1.88 
1.5780394448989308 1:249000.0 2:0.0 3:0.0 4:0.0 5:110.0 6:2.42 
1.578411313708264 1:1820000.0 2:0.0 3:0.0 4:0.0 5:70.0 6:2.0 
1.578030371257735 1:9160000.0 2:0.0 3:0.0 4:0.0 5:28.0 6:1.62 
1.5780047390343872 1:9380000.0 2:0.0 3:0.0 4:0.0 5:73.0 6:2.06 
2.4569745924287605 1:3050000.0 2:0.0 3:0.0 4:0.0 5:42.0 6:1.92 
1.577358327489422 1:182.0 2:0.0 3:6.0 4:6.0 5:129.0 6:2.66 
1.5780372318914018 1:3090000.0 2:0.0 3:0.0 4:0.0 5:27.0 6:1.32 
1.5780374667208634 1:1.63E7 2:0.0 3:7.0 4:7.0 5:48.0 6:2.1 
0.8539088300359867 1:1.01E7 2:0.0 3:0.0 4:0.0 5:39.0 6:1.64 
1.579740195623465 1:3220000.0 2:13.0 3:2.0 4:2.0 5:97.0 6:2.86 
1.5780378724646422 1:2.08E7 2:12.0 3:3.0 4:3.0 5:159.0 6:5.96 
1.5780515893290004 1:1.58E7 2:0.0 3:0.0 4:0.0 5:62.0 6:2.74 
1.7726721308372602 1:4190000.0 2:2.0 3:4.5 4:4.5 5:112.0 6:2.74 
1.5779072362034419 1:2.46E7 2:0.0 3:7.5 4:7.5 5:43.0 6:2.78 
1.5780610223394984 1:9640000.0 2:0.0 3:0.0 4:0.0 5:68.0 6:1.5 
1.5781098258817872 1:28000.0 2:0.0 3:0.0 4:0.0 5:61.0 6:1.36 
2.6747449466366398 1:4840000.0 2:3.0 3:1.0 4:1.0 5:147.0 6:4.18 
1.5776822539164326 1:4660000.0 2:0.0 3:7.0 4:7.0 5:106.0 6:3.18 
1.5781119771384247 1:3240000.0 2:44.0 3:2.8 4:2.8 5:189.0 6:4.52 
1.578117859783329 1:3950000.0 2:0.0 3:0.0 4:0.0 5:170.0 6:3.46 
1.5781252306630087 1:1340000.0 2:0.0 3:7.666666666666667 4:7.666666666666667 5:158.0 6:3.18 
1.578131040888489 1:9800000.0 2:0.0 3:0.0 4:0.0 5:71.0 6:1.58 
1.578188538908324 1:2030000.0 2:0.0 3:0.0 4:0.0 5:64.0 6:1.32 
1.5776405957920443 1:9490000.0 2:0.0 3:0.0 4:0.0 5:35.0 6:1.82 
1.5781782078417792 1:1910000.0 2:0.0 3:0.0 4:0.0 5:50.0 6:1.78 
1.577941748793094 1:2.13E7 2:0.0 3:0.0 4:0.0 5:31.0 6:1.62 
1.0711290781464837 1:2820000.0 2:0.0 3:0.0 4:0.0 5:36.0 6:2.94 
2.57818527989438 1:7.5E7 2:0.0 3:0.0 4:0.0 5:45.0 6:1.28 
1.5781870499410755 1:4600000.0 2:0.0 3:7.5 4:7.5 5:115.0 6:2.32 
1.5781854610837631 1:2650000.0 2:0.0 3:0.0 4:0.0 5:60.0 6:3.04 
1.5781984256327277 1:4.36E7 2:0.0 3:0.0 4:0.0 5:33.0 6:1.54 
1.5778911357471952 1:3370000.0 2:0.0 3:0.0 4:0.0 5:63.0 6:1.34 
1.5781961386786278 1:2.37E7 2:0.0 3:0.0 4:0.0 5:21.0 6:1.62 
1.5777531593033969 1:83200.0 2:1.0 3:3.0 4:3.0 5:152.0 6:3.72 
1.5744478518707419 1:1.02E7 2:0.0 3:0.0 4:0.0 5:35.0 6:1.9130434782608696 
1.578215267426687 1:9060000.0 2:0.0 3:0.0 4:0.0 5:32.0 6:1.6046511627906976 
1.5776562086168 1:1.0E7 2:0.0 3:0.0 4:0.0 5:44.0 6:1.82 
1.5782163915814968 1:1.04E7 2:0.0 3:0.0 4:0.0 5:90.0 6:1.96 
3.5782173948713547 1:5.96E7 2:0.0 3:0.0 4:0.0 5:24.0 6:1.46 
1.5781989118673105 1:1920000.0 2:0.0 3:0.0 4:0.0 5:56.0 6:2.58 
1.5782024209316334 1:1990000.0 2:0.0 3:0.0 4:0.0 5:62.0 6:1.72 
1.5776434248777018 1:1.17E7 2:0.0 3:0.0 4:0.0 5:64.0 6:2.12 
1.73333490359191 1:142000.0 2:0.0 3:2.6666666666666665 4:2.6666666666666665 5:147.0 6:3.86 
3.837343001691381 1:1.1E7 2:0.0 3:0.0 4:0.0 5:63.0 6:1.62 
1.578217989579389 1:187000.0 2:0.0 3:4.333333333333333 4:4.333333333333333 5:106.0 6:3.48 
1.578225592077561 1:8270000.0 2:0.0 3:0.0 4:0.0 5:41.0 6:1.72 
1.5782383559273914 1:3900000.0 2:0.0 3:0.0 4:0.0 5:116.0 6:2.62 
2.5782455856063695 1:1.28E7 2:0.0 3:0.0 4:0.0 5:70.0 6:2.04 
1.5782505568750063 1:5050000.0 2:0.0 3:0.0 4:0.0 5:157.0 6:3.2 
1.5782750974320496 1:9470000.0 2:0.0 3:0.0 4:0.0 5:66.0 6:2.9 
1.5782667000091397 1:228000.0 2:0.0 3:0.0 4:0.0 5:110.0 6:2.46 
1.8521830358455347 1:1910000.0 2:0.0 3:0.0 4:0.0 5:266.0 6:5.94 
1.5782906643332204 1:3970000.0 2:0.0 3:0.0 4:0.0 5:197.0 6:4.34 
1.577804374166648 1:3.31E7 2:7.0 3:0.0 4:0.0 5:166.0 6:4.7 
1.578302801026501 1:1230000.0 2:0.0 3:0.0 4:0.0 5:70.0 6:1.4 
1.5777239570229893 1:1.82E7 2:0.0 3:0.0 4:0.0 5:39.0 6:1.86 
1.578325599437811 1:2.39E7 2:0.0 3:0.0 4:0.0 5:30.0 6:1.358974358974359 
1.5783308411303993 1:230000.0 2:0.0 3:0.0 4:0.0 5:7.0 6:0.18 
1.578332744486499 1:9700000.0 2:0.0 3:0.0 4:0.0 5:36.0 6:1.4 
2.578365864671725 1:1.57E7 2:0.0 3:0.0 4:0.0 5:58.0 6:1.72 
3.5783170958238073 1:7.98E7 2:0.0 3:0.0 4:0.0 5:27.0 6:1.56 
1.577683866220139 1:2.29E7 2:0.0 3:0.0 4:0.0 5:40.0 6:1.28 
1.5783452675812264 1:6.49E7 2:0.0 3:0.0 4:0.0 5:93.0 6:1.86 
1.5783238444044372 1:6200000.0 2:0.0 3:0.0 4:0.0 5:106.0 6:2.34 
1.6114711530539352 1:8920000.0 2:2.0 3:5.5 4:5.5 5:88.0 6:3.2 
1.5783438497965232 1:346000.0 2:0.0 3:8.4 4:8.4 5:341.0 6:7.3 
1.5783422027568481 1:4820000.0 2:0.0 3:0.0 4:0.0 5:72.0 6:1.52 
1.5784297558923326 1:3250000.0 2:0.0 3:0.0 4:0.0 5:39.0 6:1.32 
1.5783393934868564 1:2820000.0 2:0.0 3:8.333333333333334 4:8.333333333333334 5:189.0 6:3.98 
1.5783880255521914 1:357000.0 2:0.0 3:0.0 4:0.0 5:83.0 6:1.74 
1.5783508765575192 1:3.42E7 2:0.0 3:0.0 4:0.0 5:34.0 6:1.74 
2.5783570062361876 1:3.58E8 2:0.0 3:0.0 4:0.0 5:39.0 6:1.54 
1.5740462458131197 1:1.14E7 2:0.0 3:0.0 4:0.0 5:62.0 6:1.6 
1.5783664151130132 1:9210000.0 2:0.0 3:0.0 4:0.0 5:47.0 6:1.62 
1.57836563463135 1:3.28E7 2:0.0 3:0.0 4:0.0 5:52.0 6:1.54 
1.578369701949434 1:2.34E7 2:0.0 3:0.0 4:0.0 5:48.0 6:1.28 
1.5783931923986372 1:1.19E7 2:0.0 3:0.0 4:0.0 5:125.0 6:3.9 
3.00547424880686 1:1210000.0 2:1.0 3:2.5 4:2.5 5:118.0 6:3.1 
1.6277970608293817 1:5470000.0 2:0.0 3:0.0 4:0.0 5:301.0 6:7.46 
1.578391904947536 1:1.31E8 2:0.0 3:0.0 4:0.0 5:89.0 6:3.38 
1.5783901605077277 1:3390000.0 2:0.0 3:0.0 4:0.0 5:44.0 6:2.28 
2.362258775553964 1:3690000.0 2:1.0 3:5.0 4:5.0 5:157.0 6:6.06 
1.7094672397711728 1:7.38E7 2:1.0 3:0.0 4:0.0 5:51.0 6:3.12 
1.578388025552184 1:230000.0 2:0.0 3:12.0 4:12.0 5:128.0 6:2.58 
1.5776674797453025 1:1.82E7 2:0.0 3:0.0 4:0.0 5:48.0 6:1.72 
1.5783867193346675 1:2470000.0 2:0.0 3:0.0 4:0.0 5:50.0 6:4.7 
1.5784346901162951 1:190000.0 2:5.0 3:6.666666666666667 4:6.666666666666667 5:140.0 6:3.44 
2.1148759938699255 1:4.37E7 2:6.0 3:2.25 4:2.25 5:167.0 6:4.7 
1.5778614233562616 1:1.22E7 2:0.0 3:0.0 4:0.0 5:40.0 6:1.54 
1.577192025654562 1:187.0 2:0.0 3:9.0 4:9.0 5:127.0 6:2.6 
1.64057685069208 1:369000.0 2:0.0 3:0.5 4:0.5 5:49.0 6:2.06 
1.5784303413717058 1:5730000.0 2:0.0 3:0.0 4:0.0 5:40.0 6:1.6 
1.5784316671768819 1:3.54E8 2:0.0 3:0.0 4:0.0 5:52.0 6:1.7 
2.577926341120897 1:2.56E8 2:0.0 3:0.0 4:0.0 5:20.0 6:1.7073170731707317 
1.2897782406917009 1:1.43E7 2:0.0 3:0.0 4:0.0 5:59.0 6:2.14 
1.5779135060544016 1:1900000.0 2:0.0 3:8.5 4:8.5 5:137.0 6:2.74 
2.5779071978325523 1:2.31E7 2:0.0 3:0.0 4:0.0 5:77.0 6:2.46 
1.5778615653692396 1:255000.0 2:0.0 3:5.666666666666667 4:5.666666666666667 5:194.0 6:4.48 
2.474153973116122 1:1.18E7 2:0.0 3:0.0 4:0.0 5:50.0 6:1.74 
2.0913636271608276 1:8.55E7 2:0.0 3:4.0 4:4.0 5:178.0 6:4.64 
1.585678609669227 1:1.1E7 2:0.0 3:0.0 4:0.0 5:75.0 6:1.5 
1.5778346330055522 1:7.84E7 2:1.0 3:0.0 4:0.0 5:57.0 6:2.2 
1.5778931083555543 1:1.56E7 2:0.0 3:0.0 4:0.0 5:33.0 6:1.86 
1.5782288247496048 1:1.01E7 2:0.0 3:0.0 4:0.0 5:67.0 6:1.74 
2.012431871203873 1:2.05E7 2:0.0 3:0.0 4:0.0 5:48.0 6:2.76 
1.5489317114970125 1:2660000.0 2:2.0 3:1.5 4:1.5 5:101.0 6:3.94 
2.5778738470820217 1:4.21E7 2:0.0 3:0.0 4:0.0 5:44.0 6:1.72 
1.5778505627589685 1:1.87E7 2:0.0 3:0.0 4:0.0 5:87.0 6:2.94 
1.5778857741349877 1:3000000.0 2:0.0 3:0.0 4:0.0 5:205.0 6:6.32 
1.5778343899761822 1:5950000.0 2:0.0 3:0.0 4:0.0 5:45.0 6:2.94 
1.290535318237096 1:8600000.0 2:0.0 3:0.0 4:0.0 5:66.0 6:1.32 
1.5778165615308386 1:5330000.0 2:0.0 3:0.0 4:0.0 5:144.0 6:3.978723404255319 
1.577762069766373 1:2.43E7 2:0.0 3:0.0 4:0.0 5:44.0 6:3.52 
1.5777842089842973 1:385000.0 2:0.0 3:0.0 4:0.0 5:46.0 6:2.92 
1.5778089260745638 1:8.18E7 2:0.0 3:0.0 4:0.0 5:43.0 6:1.84 
1.5777994359743934 1:1270000.0 2:0.0 3:7.333333333333333 4:7.333333333333333 5:178.0 6:3.8 
1.5777793713798605 1:5510000.0 2:0.0 3:0.0 4:0.0 5:69.0 6:3.88 
1.577796413412048 1:227000.0 2:0.0 3:0.0 4:0.0 5:44.0 6:3.24 
1.57781360205776 1:3.62E7 2:0.0 3:10.666666666666666 4:10.666666666666666 5:81.0 6:3.56 
1.5777618541443954 1:8800000.0 2:0.0 3:0.0 4:0.0 5:57.0 6:3.16 
1.5777834343725352 1:9000000.0 2:0.0 3:0.0 4:0.0 5:36.0 6:1.78 
1.577712192320402 1:1.13E7 2:0.0 3:0.0 4:0.0 5:85.0 6:1.7 
1.5868124604000449 1:2180000.0 2:0.0 3:0.0 4:0.0 5:85.0 6:2.0 
1.5895989156145174 1:5.21E7 2:11.0 3:0.0 4:0.0 5:53.0 6:2.6 
1.5774636855512276 1:9830000.0 2:0.0 3:0.0 4:0.0 5:46.0 6:2.1739130434782608 
1.5777085835636742 1:1.92E8 2:0.0 3:0.0 4:0.0 5:49.0 6:1.34 
1.5776815967645685 1:1520000.0 2:0.0 3:5.5 4:5.5 5:49.0 6:2.26 
1.5777267686243721 1:4420000.0 2:0.0 3:0.0 4:0.0 5:46.0 6:1.4 
1.5777318873816117 1:4.64E7 2:0.0 3:0.0 4:0.0 5:157.0 6:3.3 
2.430223233547123 1:2.0E7 2:1.0 3:3.0 4:3.0 5:96.0 6:2.9 
1.5778349844950417 1:9350000.0 2:0.0 3:0.0 4:0.0 5:52.0 6:1.8604651162790697 
2.577800867469485 1:1.0E8 2:0.0 3:0.0 4:0.0 5:123.0 6:2.64 
1.5916121706981579 1:1.06E7 2:0.0 3:0.0 4:0.0 5:46.0 6:1.82 
1.5778336637301182 1:2.85E7 2:0.0 3:9.0 4:9.0 5:65.0 6:2.78 
1.5777558785535701 1:1.85E7 2:0.0 3:0.0 4:0.0 5:93.0 6:2.7 
1.5778408619754636 1:4.46E7 2:0.0 3:0.0 4:0.0 5:14.0 6:1.8 
1.577879662814093 1:4670000.0 2:0.0 3:8.0 4:8.0 5:126.0 6:2.54 
1.5778566968262353 1:9950000.0 2:0.0 3:0.0 4:0.0 5:61.0 6:1.48 
1.5778453134174364 1:254000.0 2:3.0 3:0.0 4:0.0 5:145.0 6:3.44 
1.5817648069476624 1:2210000.0 2:6.0 3:2.0 4:2.0 5:108.0 6:2.38 
1.5776942226014394 1:128000.0 2:0.0 3:0.0 4:0.0 5:142.0 6:2.9 
1.5779355340163321 1:5.4E7 2:0.0 3:0.0 4:0.0 5:101.0 6:2.38 
1.5779332584088057 1:4.12E7 2:0.0 3:0.0 4:0.0 5:53.0 6:1.7 
1.577935061187658 1:153000.0 2:0.0 3:0.0 4:0.0 5:24.0 6:0.78 
1.5779303492101109 1:356000.0 2:0.0 3:10.5 4:10.5 5:111.0 6:2.28 
1.5783892692277375 1:2.29E7 2:9.0 3:0.0 4:0.0 5:114.0 6:2.78 
1.5779257375513813 1:5220000.0 2:0.0 3:0.0 4:0.0 5:85.0 6:3.8 
1.5779097041889598 1:8.32E8 2:0.0 3:0.0 4:0.0 5:62.0 6:1.6 
1.578444659779384 1:5970000.0 2:0.0 3:0.0 4:0.0 5:88.0 6:1.8 
1.5788178677425102 1:1.13E8 2:0.0 3:0.0 4:0.0 5:26.0 6:1.68 
1.5784446374189995 1:2780000.0 2:0.0 3:0.0 4:0.0 5:181.0 6:4.18 
1.5779132483586773 1:1.6E7 2:0.0 3:0.0 4:0.0 5:81.0 6:3.34 
1.5784341232872552 1:2600000.0 2:0.0 3:0.0 4:0.0 5:116.0 6:2.48 
1.5784292683649235 1:258000.0 2:0.0 3:6.5 4:6.5 5:105.0 6:2.94 
1.5784297558801392 1:297000.0 2:0.0 3:0.0 4:0.0 5:166.0 6:4.18 
1.8146310863613597 1:240.0 2:0.0 3:6.8 4:6.8 5:90.0 6:1.84 
1.9554544030522139 1:4.42E7 2:9.0 3:4.5 4:4.5 5:90.0 6:3.14 
1.5784328058634511 1:5.76E8 2:0.0 3:0.0 4:0.0 5:40.0 6:1.56 
1.5784335793069135 1:197000.0 2:0.0 3:0.0 4:0.0 5:88.0 6:4.12 
2.574408309308353 1:1.14E7 2:0.0 3:0.0 4:0.0 5:56.0 6:1.88 
1.5777275291162987 1:6150000.0 2:0.0 3:0.0 4:0.0 5:53.0 6:1.38 
0.9508845133012265 1:8890000.0 2:0.0 3:0.0 4:0.0 5:49.0 6:1.48 
1.5784309919192552 1:376000.0 2:0.0 3:6.666666666666667 4:6.666666666666667 5:199.0 6:4.1 
1.5784203135387127 1:7320000.0 2:0.0 3:0.0 4:0.0 5:62.0 6:3.1 
2.1877506338255825 1:19900.0 2:0.0 3:1.0 4:1.0 5:15.0 6:0.88 
1.5784191613865959 1:4040000.0 2:0.0 3:0.0 4:0.0 5:93.0 6:2.52 
0.8548555667717107 1:1.01E7 2:0.0 3:0.0 4:0.0 5:40.0 6:1.64 
1.5783959165434602 1:2.1E7 2:0.0 3:0.0 4:0.0 5:98.0 6:2.06 
1.578382189363612 1:3190000.0 2:0.0 3:0.0 4:0.0 5:81.0 6:1.64 
1.2800910939669896 1:2.83E7 2:0.0 3:0.0 4:0.0 5:59.0 6:1.56 
1.5783959405387744 1:1.71E7 2:30.0 3:0.0 4:0.0 5:181.0 6:5.26 
1.5783864090126531 1:2.18E7 2:0.0 3:0.0 4:0.0 5:44.0 6:1.6938775510204083 
1.5783832927268784 1:2780000.0 2:0.0 3:8.0 4:8.0 5:48.0 6:2.8 
1.578400627329056 1:1.24E7 2:0.0 3:7.0 4:7.0 5:120.0 6:2.42 
1.5783841915404815 1:323000.0 2:0.0 3:0.0 4:0.0 5:32.0 6:0.88 
1.5777539365977669 1:3.19E7 2:0.0 3:0.0 4:0.0 5:49.0 6:2.26 
2.5743920744126427 1:238000.0 2:0.0 3:0.0 4:0.0 5:129.0 6:2.82 
1.57838534943064 1:1.05E8 2:0.0 3:0.0 4:0.0 5:75.0 6:1.52 
1.5783703594532716 1:9320000.0 2:0.0 3:0.0 4:0.0 5:61.0 6:1.64 
3.578371785773956 1:3.85E7 2:0.0 3:0.0 4:0.0 5:45.0 6:1.76 
2.5783553824965915 1:4.79E8 2:0.0 3:0.0 4:0.0 5:30.0 6:1.7 
1.5783550198621104 1:503000.0 2:0.0 3:0.0 4:0.0 5:124.0 6:2.64 
1.9081998756488359 1:5020000.0 2:7.0 3:6.0 4:6.0 5:98.0 6:2.78 
3.5783428047061365 1:1.4E7 2:0.0 3:0.0 4:0.0 5:41.0 6:1.92 
2.5783387980471906 1:8.14E7 2:0.0 3:0.0 4:0.0 5:54.0 6:2.16 
1.5783729264280761 1:3770000.0 2:1.0 3:0.5 4:0.5 5:221.0 6:5.04 
1.578305142622784 1:8280000.0 2:0.0 3:0.0 4:0.0 5:52.0 6:1.6808510638297873 
1.5782575386382418 1:588000.0 2:1.0 3:5.25 4:5.25 5:327.0 6:8.36 
1.5776506947161582 1:3.19E7 2:0.0 3:0.0 4:0.0 5:37.0 6:1.5 
1.5782665343542757 1:4.02E8 2:0.0 3:0.0 4:0.0 5:41.0 6:1.631578947368421 
-0.42179151926792124 1:86900.0 2:32.0 3:4.0 4:4.0 5:93.0 6:1.98 
-0.37966687945267924 1:86900.0 2:48.0 3:6.0 4:6.0 5:93.0 6:1.98 
-0.3726995328865753 1:86900.0 2:12.0 3:6.0 4:6.0 5:93.0 6:1.98 
-0.38421299978803936 1:86900.0 2:39.0 3:6.0 4:6.0 5:93.0 6:1.98 
-0.4147315527159937 1:86900.0 2:35.0 3:8.0 4:8.0 5:93.0 6:1.98 
-0.39763905825135337 1:86900.0 2:42.0 3:8.0 4:8.0 5:93.0 6:1.98 
-0.42175186986136276 1:3410000.0 2:0.0 3:0.0 4:0.0 5:121.0 6:2.82 
-0.339992891626106 1:86900.0 2:5.0 3:3.5 4:3.5 5:93.0 6:1.98 
-0.347232905962868 1:86900.0 2:2.0 3:3.3333333333333335 4:3.3333333333333335 5:93.0 6:1.98 
-0.34867764904940596 1:86900.0 2:43.0 3:4.0 4:4.0 5:93.0 6:1.98 
-0.36697703519455543 1:86900.0 2:10.0 3:4.0 4:4.0 5:93.0 6:1.98 
-0.29947584967026103 1:86900.0 2:46.0 3:4.0 4:4.0 5:93.0 6:1.98 
-0.46656862189280024 1:118000.0 2:3.0 3:4.5 4:4.5 5:19.0 6:0.48 
-0.4220905299247019 1:118000.0 2:17.0 3:8.0 4:8.0 5:19.0 6:0.48 
-0.42225415327230986 1:118000.0 2:11.0 3:5.0 4:5.0 5:19.0 6:0.48 
-0.3424122600153077 1:3940000.0 2:44.0 3:3.2 4:3.2 5:169.0 6:6.36 
-0.4217637321604071 1:3940000.0 2:20.0 3:4.0 4:4.0 5:169.0 6:6.36 
-0.42177089540411705 1:3940000.0 2:0.0 3:1.5 4:1.5 5:169.0 6:6.36 
-0.4222872111867009 1:3940000.0 2:35.0 3:3.0 4:3.0 5:169.0 6:6.36 
-0.3415204667876874 1:3940000.0 2:46.0 3:1.6666666666666667 4:1.6666666666666667 5:169.0 6:6.36 
-0.5316215488519691 1:1.06E7 2:0.0 3:0.0 4:0.0 5:42.0 6:2.02 
-0.42178005455776035 1:5150000.0 2:0.0 3:5.5 4:5.5 5:50.0 6:2.4 
-0.08590511572212844 1:270000.0 2:4.0 3:2.0 4:2.0 5:229.0 6:5.1 
-0.42178181898340367 1:1370000.0 2:0.0 3:6.333333333333333 4:6.333333333333333 5:187.0 6:4.54 
-1.0 1:270000.0 2:2.0 3:1.0 4:1.0 5:229.0 6:5.1 
-0.4222734685208104 1:270000.0 2:23.0 3:3.0 4:3.0 5:229.0 6:5.1 
-0.42146127093282065 1:270000.0 2:9.0 3:3.3333333333333335 4:3.3333333333333335 5:229.0 6:5.1 
-0.42183830952174395 1:2010000.0 2:46.0 3:3.0 4:3.0 5:161.0 6:3.5 
-0.24422169520341258 1:9300000.0 2:2.0 3:5.666666666666667 4:5.666666666666667 5:44.0 6:2.56 
-0.2610953696348302 1:9300000.0 2:3.0 3:4.0 4:4.0 5:44.0 6:2.56 
-0.42233339532574604 1:9300000.0 2:38.0 3:4.0 4:4.0 5:44.0 6:2.56 
-0.1669943327765598 1:9300000.0 2:1.0 3:4.5 4:4.5 5:44.0 6:2.56 
-0.4218974729641383 1:178000.0 2:0.0 3:0.0 4:0.0 5:44.0 6:3.28 
-0.42056245094849026 1:2670000.0 2:0.0 3:0.0 4:0.0 5:49.0 6:3.86 
-0.4217836245500111 1:130000.0 2:3.0 3:3.5 4:3.5 5:31.0 6:1.68 
-0.2899325830851863 1:130000.0 2:14.0 3:6.5 4:6.5 5:31.0 6:1.68 
-0.28002120213443227 1:130000.0 2:12.0 3:6.0 4:6.0 5:31.0 6:1.68 
-0.41868331330985026 1:130000.0 2:7.0 3:7.0 4:7.0 5:31.0 6:1.68 
-0.3691099205967048 1:746000.0 2:25.0 3:4.333333333333333 4:4.333333333333333 5:146.0 6:3.18 
-0.35492772234484243 1:746000.0 2:22.0 3:5.5 4:5.5 5:146.0 6:3.18 
-0.4208967744373091 1:746000.0 2:14.0 3:3.5 4:3.5 5:146.0 6:3.18 
-0.4219158301254179 1:2.8E7 2:0.0 3:0.0 4:0.0 5:72.0 6:1.52 
-0.4219200447786024 1:3970000.0 2:0.0 3:0.0 4:0.0 5:35.0 6:0.96 
-0.40666217709022445 1:746000.0 2:20.0 3:2.6666666666666665 4:2.6666666666666665 5:146.0 6:3.18 
-0.4214091522026768 1:29700.0 2:45.0 3:9.0 4:9.0 5:94.0 6:7.24 
-0.42234676579162367 1:4410000.0 2:0.0 3:7.5 4:7.5 5:35.0 6:1.34 
-0.421959603872172 1:193000.0 2:0.0 3:10.5 4:10.5 5:52.0 6:1.66 
-0.42089268565633936 1:29700.0 2:47.0 3:4.6 4:4.6 5:94.0 6:7.24 
-0.4206461369781104 1:29700.0 2:41.0 3:4.0 4:4.0 5:94.0 6:7.24 
-0.4220058596933043 1:9.02E7 2:0.0 3:0.0 4:0.0 5:143.0 6:3.74 
-0.4220222637629041 1:2740000.0 2:0.0 3:6.285714285714286 4:6.285714285714286 5:274.0 6:5.84 
-0.42243670103477726 1:2740000.0 2:31.0 3:4.333333333333333 4:4.333333333333333 5:274.0 6:5.84 
-0.42203398466338227 1:5510000.0 2:0.0 3:5.666666666666667 4:5.666666666666667 5:135.0 6:3.42 
-0.42204595521327887 1:1140000.0 2:38.0 3:5.666666666666667 4:5.666666666666667 5:296.0 6:6.28 
-0.41613649582185086 1:320000.0 2:7.0 3:4.0 4:4.0 5:99.0 6:2.28 
-0.41681489138097516 1:320000.0 2:2.0 3:3.3333333333333335 4:3.3333333333333335 5:99.0 6:2.28 
-0.4208685447178736 1:174.0 2:39.0 3:5.0 4:5.0 5:90.0 6:1.88 
-0.4213586947344308 1:174.0 2:45.0 3:4.6 4:4.6 5:90.0 6:1.88 
-0.30857636414460543 1:271000.0 2:23.0 3:7.0 4:7.0 5:61.0 6:1.7 
-0.2432816010908937 1:271000.0 2:37.0 3:6.333333333333333 4:6.333333333333333 5:61.0 6:1.7 
-0.42123321111759787 1:271000.0 2:1.0 3:7.0 4:7.0 5:61.0 6:1.7 
-0.24458880418066908 1:271000.0 2:38.0 3:7.0 4:7.0 5:61.0 6:1.7 
-0.4220458038007809 1:209000.0 2:0.0 3:8.666666666666666 4:8.666666666666666 5:80.0 6:3.7 
-0.42130639293202826 1:271000.0 2:3.0 3:3.0 4:3.0 5:61.0 6:1.7 
-0.308661938025753 1:271000.0 2:25.0 3:8.0 4:8.0 5:61.0 6:1.7 
-0.39651045379775945 1:165000.0 2:13.0 3:3.5 4:3.5 5:98.0 6:2.28 
-0.39000638961261064 1:165000.0 2:9.0 3:4.0 4:4.0 5:98.0 6:2.28 
-0.4220500596712876 1:87100.0 2:0.0 3:0.0 4:0.0 5:177.0 6:3.54 
-0.4272125814565716 1:243.0 2:2.0 3:0.0 4:0.0 5:106.0 6:2.7 
-0.415813697075264 1:243.0 2:0.0 3:3.2 4:3.2 5:106.0 6:2.7 
-0.4220545045024262 1:3680000.0 2:0.0 3:0.0 4:0.0 5:51.0 6:1.3 
-0.4220545535576096 1:678000.0 2:0.0 3:4.0 4:4.0 5:8.0 6:0.16 
-0.4220560034135655 1:9570000.0 2:0.0 3:0.0 4:0.0 5:36.0 6:1.72 
-0.4138804623104564 1:36.0 2:3.0 3:5.5 4:5.5 5:2.0 6:0.08333333333333333 
-0.20640252847664883 1:155000.0 2:42.0 3:6.0 4:6.0 5:87.0 6:2.0 
-0.4012299024544603 1:155000.0 2:47.0 3:6.0 4:6.0 5:87.0 6:2.0 
-0.4043555146597489 1:155000.0 2:46.0 3:9.0 4:9.0 5:87.0 6:2.0 
-0.4083168128298838 1:155000.0 2:33.0 3:9.5 4:9.5 5:87.0 6:2.0 
-0.4222339344023315 1:155000.0 2:3.0 3:9.5 4:9.5 5:87.0 6:2.0 
-0.4215882288712913 1:155000.0 2:10.0 3:6.5 4:6.5 5:87.0 6:2.0 
-0.1997550951629755 1:155000.0 2:32.0 3:6.666666666666667 4:6.666666666666667 5:87.0 6:2.0 
-0.4220821250647868 1:593000.0 2:0.0 3:9.0 4:9.0 5:86.0 6:2.36 
-0.24582120769283683 1:155000.0 2:41.0 3:6.0 4:6.0 5:87.0 6:2.0 
-0.42234505479835804 1:155000.0 2:1.0 3:3.0 4:3.0 5:87.0 6:2.0 
-0.2722907413503834 1:155000.0 2:31.0 3:6.0 4:6.0 5:87.0 6:2.0 
-0.41907902122713947 1:484000.0 2:28.0 3:4.0 4:4.0 5:220.0 6:5.7 
-0.42207796854859925 1:484000.0 2:6.0 3:4.0 4:4.0 5:220.0 6:5.7 
-0.21678096664692947 1:484000.0 2:33.0 3:5.0 4:5.0 5:220.0 6:5.7 
-0.2373688291352071 1:484000.0 2:34.0 3:5.0 4:5.0 5:220.0 6:5.7 
-0.42209270276462846 1:3350000.0 2:0.0 3:0.0 4:0.0 5:44.0 6:2.86 
-0.4220907039757513 1:2750000.0 2:0.0 3:0.0 4:0.0 5:38.0 6:3.3 
-0.2994682559010716 1:1.68E7 2:7.0 3:5.5 4:5.5 5:57.0 6:2.74 
-0.40094531562982305 1:1.68E7 2:3.0 3:5.666666666666667 4:5.666666666666667 5:57.0 6:2.74 
-0.3394848295872041 1:1.68E7 2:9.0 3:7.0 4:7.0 5:57.0 6:2.74 
-0.3954012791044878 1:1.68E7 2:15.0 3:4.0 4:4.0 5:57.0 6:2.74 
-0.3763769278964444 1:1.68E7 2:11.0 3:4.0 4:4.0 5:57.0 6:2.74 
-0.42208726630582893 1:179000.0 2:25.0 3:5.5 4:5.5 5:140.0 6:2.86 
-0.4221084548696904 1:80500.0 2:42.0 3:5.0 4:5.0 5:105.0 6:2.2 
-0.4221665424476201 1:177000.0 2:0.0 3:0.5 4:0.5 5:115.0 6:2.32 
-0.4221883362158432 1:2.86E7 2:0.0 3:9.0 4:9.0 5:108.0 6:2.24 
-0.42222657986105716 1:3.87E7 2:1.0 3:5.6 4:5.6 5:146.0 6:3.4 
-1.0 1:1.07E8 2:2.0 3:7.0 4:7.0 5:108.0 6:2.58 
-0.4191920074368152 1:229000.0 2:0.0 3:6.5 4:6.5 5:63.0 6:1.54 
-0.422247132719273 1:1.07E8 2:28.0 3:1.0 4:1.0 5:108.0 6:2.58 
-0.30560783039431355 1:1.07E8 2:0.0 3:5.5 4:5.5 5:108.0 6:2.58 
-0.4223067422708614 1:4740000.0 2:27.0 3:4.0 4:4.0 5:59.0 6:3.2 
-0.42182894506082835 1:4740000.0 2:8.0 3:7.0 4:7.0 5:59.0 6:3.2 
-0.4222488378295926 1:9180000.0 2:0.0 3:0.0 4:0.0 5:22.0 6:1.12 
-0.4219088230958589 1:4740000.0 2:2.0 3:2.25 4:2.25 5:59.0 6:3.2 
-0.4223617141937092 1:4740000.0 2:18.0 3:2.0 4:2.0 5:59.0 6:3.2 
-0.2689143614872401 1:8.71E7 2:3.0 3:2.3333333333333335 4:2.3333333333333335 5:57.0 6:1.92 
-0.42224954020779715 1:1.22E7 2:41.0 3:2.3333333333333335 4:2.3333333333333335 5:91.0 6:2.82 
-0.12850219123606285 1:8.71E7 2:0.0 3:2.0 4:2.0 5:57.0 6:1.92 
-0.2582282087747235 1:8.71E7 2:1.0 3:1.0 4:1.0 5:57.0 6:1.92 
-0.42224766457730384 1:7260000.0 2:0.0 3:0.0 4:0.0 5:51.0 6:1.74 
-0.41623925918293914 1:8.71E7 2:13.0 3:2.0 4:2.0 5:57.0 6:1.92 
-0.3919957902173313 1:8.71E7 2:2.0 3:5.0 4:5.0 5:57.0 6:1.92 
-0.4165507156704363 1:8.71E7 2:18.0 3:3.0 4:3.0 5:57.0 6:1.92 
-0.4222503355695586 1:385000.0 2:0.0 3:0.0 4:0.0 5:9.0 6:1.24 
-0.4222442939077278 1:10300.0 2:46.0 3:0.0 4:0.0 5:97.0 6:3.0816326530612246 
-0.4223180398310721 1:10300.0 2:28.0 3:7.0 4:7.0 5:97.0 6:3.0816326530612246 
-0.39477963168135793 1:1750000.0 2:37.0 3:7.6 4:7.6 5:64.0 6:4.78 
-0.28747104517699124 1:1750000.0 2:2.0 3:8.75 4:8.75 5:64.0 6:4.78 
-0.22116619313261554 1:1750000.0 2:1.0 3:7.0 4:7.0 5:64.0 6:4.78 
-0.22116619313261573 1:1750000.0 2:3.0 3:7.0 4:7.0 5:64.0 6:4.78 
-0.4222388594991894 1:117000.0 2:0.0 3:4.5 4:4.5 5:23.0 6:1.78 
-0.3955826468574678 1:1750000.0 2:33.0 3:7.333333333333333 4:7.333333333333333 5:64.0 6:4.78 
-0.42196182916949126 1:3370000.0 2:0.0 3:0.0 4:0.0 5:52.0 6:1.96 
-0.42223391864255355 1:534000.0 2:0.0 3:0.0 4:0.0 5:80.0 6:2.04 
-0.4250359453802587 1:8.35E7 2:6.0 3:2.5 4:2.5 5:129.0 6:3.98 
-0.42208795304527646 1:9370000.0 2:0.0 3:0.0 4:0.0 5:33.0 6:0.9 
-0.5270469146244279 1:999000.0 2:1.0 3:2.5555555555555554 4:2.5555555555555554 5:45.0 6:1.06 
-0.42237008722794317 1:3.4E7 2:23.0 3:5.0 4:5.0 5:92.0 6:3.52 
-0.42176371438324317 1:3.4E7 2:13.0 3:6.0 4:6.0 5:92.0 6:3.52 
-0.4222333206520651 1:2.99E7 2:0.0 3:0.0 4:0.0 5:43.0 6:2.12 
-0.3341651151637792 1:8.6E7 2:3.0 3:5.0 4:5.0 5:51.0 6:2.82 
-0.3341657827343413 1:8.6E7 2:1.0 3:6.5 4:6.5 5:51.0 6:2.82 
-0.4223270276985899 1:8.6E7 2:12.0 3:5.0 4:5.0 5:51.0 6:2.82 
-0.42223872205228075 1:338000.0 2:0.0 3:7.5 4:7.5 5:56.0 6:2.38 
-0.42225829223119016 1:3180000.0 2:0.0 3:7.333333333333333 4:7.333333333333333 5:92.0 6:2.56 
-0.39421378302915866 1:1.09E8 2:2.0 3:6.0 4:6.0 5:43.0 6:3.72 
-0.4206207522171631 1:1.09E8 2:9.0 3:6.0 4:6.0 5:43.0 6:3.72 
-0.4220360520916121 1:1.09E8 2:13.0 3:2.0 4:2.0 5:43.0 6:3.72 
-1.0 1:1.28E7 2:0.0 3:0.0 4:0.0 5:70.0 6:2.04 
-0.3570909415452908 1:1.09E8 2:3.0 3:1.8571428571428572 4:1.8571428571428572 5:43.0 6:3.72 
-0.34499739186792966 1:1.09E8 2:4.0 3:3.6666666666666665 4:3.6666666666666665 5:43.0 6:3.72 
-0.4222916281696787 1:2440000.0 2:0.0 3:6.0 4:6.0 5:54.0 6:2.48 
-0.4212946245433188 1:8540000.0 2:0.0 3:4.5 4:4.5 5:81.0 6:3.14 
-0.34655303015536804 1:8540000.0 2:6.0 3:4.0 4:4.0 5:81.0 6:3.14 
-0.3469331845661626 1:8540000.0 2:9.0 3:3.6666666666666665 4:3.6666666666666665 5:81.0 6:3.14 
-0.42151991844471476 1:8540000.0 2:15.0 3:2.5 4:2.5 5:81.0 6:3.14 
-0.42230932941410076 1:8650000.0 2:0.0 3:0.0 4:0.0 5:40.0 6:1.52 
-0.4223171298235524 1:5.33E7 2:0.0 3:5.5 4:5.5 5:141.0 6:3.94 
-0.29051091239635946 1:168000.0 2:2.0 3:6.666666666666667 4:6.666666666666667 5:62.0 6:1.4 
-0.16327630826141487 1:168000.0 2:0.0 3:5.714285714285714 4:5.714285714285714 5:62.0 6:1.4 
-0.20810049948306636 1:168000.0 2:1.0 3:5.0 4:5.0 5:62.0 6:1.4 
-0.42181800908144484 1:298000.0 2:12.0 3:5.333333333333333 4:5.333333333333333 5:41.0 6:0.9 
-0.28226791192169176 1:5510000.0 2:2.0 3:4.666666666666667 4:4.666666666666667 5:62.0 6:3.6 
-0.28282238333348025 1:5510000.0 2:4.0 3:5.0 4:5.0 5:62.0 6:3.6 
-0.42231613377986116 1:148000.0 2:0.0 3:0.0 4:0.0 5:41.0 6:3.08 
-0.42231822459502966 1:3850000.0 2:0.0 3:0.0 4:0.0 5:53.0 6:2.1 
-0.3286450786759961 1:5800000.0 2:2.0 3:5.666666666666667 4:5.666666666666667 5:87.0 6:4.56 
-0.32866598001741726 1:5800000.0 2:0.0 3:7.0 4:7.0 5:87.0 6:4.56 
-0.42231907426235915 1:5800000.0 2:30.0 3:6.5 4:6.5 5:87.0 6:4.56 
-0.3036890632664357 1:1080000.0 2:0.0 3:3.5 4:3.5 5:132.0 6:5.44 
-0.4223214582314244 1:4.44E7 2:0.0 3:0.0 4:0.0 5:39.0 6:1.04 
-0.4223271098041539 1:2360000.0 2:38.0 3:3.6666666666666665 4:3.6666666666666665 5:151.0 6:5.44 
-0.42234043062341087 1:4810000.0 2:0.0 3:0.0 4:0.0 5:36.0 6:4.02 
-0.29452231081146985 1:1080000.0 2:1.0 3:2.0 4:2.0 5:132.0 6:5.44 
-0.4175036493321507 1:1080000.0 2:6.0 3:2.4 4:2.4 5:132.0 6:5.44 
-0.4223356355750293 1:3.73E7 2:23.0 3:2.6666666666666665 4:2.6666666666666665 5:116.0 6:2.38 
-0.4223451949334773 1:3.73E7 2:45.0 3:4.0 4:4.0 5:116.0 6:2.38 
-0.42235223903992086 1:192000.0 2:0.0 3:0.0 4:0.0 5:156.0 6:4.42 
-0.4223565750633555 1:3.73E7 2:2.0 3:2.0 4:2.0 5:116.0 6:2.38 
-1.0 1:8690000.0 2:1.0 3:0.0 4:0.0 5:65.0 6:1.94 
-0.43324031361775617 1:8690000.0 2:2.0 3:4.5 4:4.5 5:65.0 6:1.94 
-0.4223594042079557 1:8690000.0 2:19.0 3:8.0 4:8.0 5:65.0 6:1.94 
-0.42236750836591974 1:1.49E7 2:0.0 3:2.3333333333333335 4:2.3333333333333335 5:180.0 6:5.78 
-0.42237334324341774 1:1.49E7 2:48.0 3:2.6 4:2.6 5:180.0 6:5.78 
-0.42237820529395503 1:1.49E7 2:31.0 3:2.3333333333333335 4:2.3333333333333335 5:180.0 6:5.78 
-0.2912773996270053 1:4.39E7 2:6.0 3:6.5 4:6.5 5:149.0 6:3.76 
-0.27764955520436446 1:4.39E7 2:2.0 3:1.4 4:1.4 5:149.0 6:3.76 
-0.4216550468613562 1:8150000.0 2:0.0 3:0.0 4:0.0 5:46.0 6:1.8 
-0.42099220118385294 1:153.0 2:0.0 3:7.0 4:7.0 5:112.0 6:2.34 
-0.42237394080166285 1:4690000.0 2:0.0 3:0.0 4:0.0 5:103.0 6:2.52 
-0.34598071590388374 1:4.74E7 2:4.0 3:0.0 4:0.0 5:135.0 6:3.74 
-0.345177500657078 1:4.74E7 2:1.0 3:0.0 4:0.0 5:135.0 6:3.74 
-0.4221880017183329 1:3.54E7 2:12.0 3:3.5 4:3.5 5:113.0 6:3.26 
-0.508325928921671 1:1.2E7 2:0.0 3:0.0 4:0.0 5:45.0 6:2.96 
-0.42237658624026475 1:8430000.0 2:12.0 3:2.5 4:2.5 5:113.0 6:2.46 
-0.28986778224691656 1:7.0E7 2:0.0 3:1.0 4:1.0 5:161.0 6:3.5 
-0.3998472587573639 1:7.0E7 2:4.0 3:0.0 4:0.0 5:161.0 6:3.5 
-0.30526102474971 1:7.0E7 2:1.0 3:2.5 4:2.5 5:161.0 6:3.5 
-0.2940712067547398 1:165000.0 2:8.0 3:2.0 4:2.0 5:102.0 6:2.3 
-0.4161269431416289 1:165000.0 2:4.0 3:6.666666666666667 4:6.666666666666667 5:102.0 6:2.3 
-0.39751293553517003 1:165000.0 2:2.0 3:3.3333333333333335 4:3.3333333333333335 5:102.0 6:2.3 
-0.42237889901687664 1:4920000.0 2:0.0 3:5.5 4:5.5 5:76.0 6:1.96 
-0.25714458172013244 1:165000.0 2:6.0 3:2.5 4:2.5 5:102.0 6:2.3 
-0.422364526668652 1:270000.0 2:24.0 3:11.0 4:11.0 5:0.0 6:0.0 
-1.0 1:30700.0 2:1.0 3:8.5 4:8.5 5:3.0 6:0.24 
-0.34539711728233374 1:1.84E7 2:1.0 3:1.0 4:1.0 5:79.0 6:2.4 
-0.3451006993755051 1:1.84E7 2:0.0 3:3.0 4:3.0 5:79.0 6:2.4 
-0.42235518676969214 1:1.84E7 2:32.0 3:6.75 4:6.75 5:79.0 6:2.4 
-0.27251463707223267 1:1.84E7 2:13.0 3:5.5 4:5.5 5:79.0 6:2.4 
-0.3372582601545725 1:1.84E7 2:10.0 3:5.0 4:5.0 5:79.0 6:2.4 
-0.3602443223037792 1:1.84E7 2:16.0 3:5.5 4:5.5 5:79.0 6:2.4 
-0.39802806989834455 1:1.84E7 2:6.0 3:5.0 4:5.0 5:79.0 6:2.4 
-0.42236315367956934 1:3.72E7 2:0.0 3:0.0 4:0.0 5:125.0 6:3.48 
-0.4221277793624238 1:4360000.0 2:0.0 3:7.0 4:7.0 5:51.0 6:3.02 
-0.8102092217433235 1:9490000.0 2:0.0 3:0.0 4:0.0 5:61.0 6:1.64 
-0.42234681197233753 1:314000.0 2:0.0 3:7.5 4:7.5 5:77.0 6:2.26 
-0.4223400340467249 1:1.94E7 2:0.0 3:0.0 4:0.0 5:69.0 6:1.56 
-0.422334034613733 1:24000.0 2:0.0 3:4.5 4:4.5 5:78.0 6:2.12 
-0.34581381750944057 1:48.0 2:7.0 3:4.0 4:4.0 5:75.0 6:3.0208333333333335 
-0.11920774889404256 1:48.0 2:1.0 3:1.5 4:1.5 5:75.0 6:3.0208333333333335 
-0.4222501669831445 1:8880000.0 2:33.0 3:1.4 4:1.4 5:126.0 6:3.92 
-0.4223313211208954 1:1870000.0 2:0.0 3:0.0 4:0.0 5:26.0 6:1.48 
-0.4223323043271667 1:8880000.0 2:39.0 3:7.0 4:7.0 5:126.0 6:3.92 
-0.27896802305759316 1:48.0 2:0.0 3:2.0 4:2.0 5:75.0 6:3.0208333333333335 
-0.26594269873068416 1:48.0 2:3.0 3:2.75 4:2.75 5:75.0 6:3.0208333333333335 
-0.29342624041064524 1:48.0 2:6.0 3:2.0 4:2.0 5:75.0 6:3.0208333333333335 
-0.09299326483555191 1:738000.0 2:1.0 3:3.3333333333333335 4:3.3333333333333335 5:72.0 6:1.7 
-0.3864143864210109 1:738000.0 2:9.0 3:4.0 4:4.0 5:72.0 6:1.7 
-0.2961954245646523 1:738000.0 2:4.0 3:4.2 4:4.2 5:72.0 6:1.7 
-0.42231948610235576 1:738000.0 2:35.0 3:6.4 4:6.4 5:72.0 6:1.7 
-0.32696243816050047 1:738000.0 2:0.0 3:3.3333333333333335 4:3.3333333333333335 5:72.0 6:1.7 
-0.294466216671375 1:738000.0 2:6.0 3:5.5 4:5.5 5:72.0 6:1.7 
-0.31636143124104016 1:2730000.0 2:1.0 3:3.6666666666666665 4:3.6666666666666665 5:66.0 6:1.82 
-0.3163614312410401 1:2730000.0 2:2.0 3:2.0 4:2.0 5:66.0 6:1.82 
-0.4223199078616234 1:2180000.0 2:42.0 3:4.428571428571429 4:4.428571428571429 5:26.0 6:3.34 
-0.42237385482973927 1:2.67E7 2:6.0 3:9.0 4:9.0 5:29.0 6:3.16 
-0.42238676177359114 1:2.67E7 2:29.0 3:7.5 4:7.5 5:29.0 6:3.16 
-0.42172820205393313 1:2.67E7 2:5.0 3:3.0 4:3.0 5:29.0 6:3.16 
-0.4220246911805906 1:2.67E7 2:40.0 3:5.0 4:5.0 5:29.0 6:3.16 
-0.4222836023920006 1:2370000.0 2:0.0 3:0.0 4:0.0 5:128.0 6:2.66 
-0.42227267662704826 1:5.13E7 2:31.0 3:1.0 4:1.0 5:99.0 6:5.72 
-0.42227388005938193 1:5.13E7 2:8.0 3:1.0 4:1.0 5:99.0 6:5.72 
-0.4222733517006385 1:3290000.0 2:0.0 3:0.0 4:0.0 5:12.0 6:0.34 
-0.42227341459189993 1:1.48E8 2:0.0 3:0.0 4:0.0 5:53.0 6:2.9 
-0.41455079333533307 1:685000.0 2:11.0 3:10.0 4:10.0 5:83.0 6:1.72 
-0.42227321413078917 1:2660000.0 2:0.0 3:0.0 4:0.0 5:122.0 6:2.8 
-0.42211453161100215 1:1050000.0 2:34.0 3:2.5 4:2.5 5:69.0 6:1.48 
-0.4222729404650892 1:9630000.0 2:0.0 3:0.0 4:0.0 5:54.0 6:1.42 
-0.386178945339083 1:685000.0 2:2.0 3:8.0 4:8.0 5:83.0 6:1.72 
-0.36870869470862194 1:685000.0 2:0.0 3:5.333333333333333 4:5.333333333333333 5:83.0 6:1.72 
-0.41401940197646303 1:685000.0 2:15.0 3:8.0 4:8.0 5:83.0 6:1.72 
-0.13536491751529614 1:685000.0 2:3.0 3:5.5 4:5.5 5:83.0 6:1.72 
-0.42198574281816 1:685000.0 2:22.0 3:4.0 4:4.0 5:83.0 6:1.72 
-0.34841099742136594 1:685000.0 2:5.0 3:5.0 4:5.0 5:83.0 6:1.72 
-0.4222670532793621 1:3720000.0 2:0.0 3:0.0 4:0.0 5:47.0 6:2.42 
-0.38161074369730774 1:121.0 2:0.0 3:0.0 4:0.0 5:139.0 6:3.0 
-0.42223521601592173 1:1.02E7 2:0.0 3:0.0 4:0.0 5:86.0 6:1.74 
-0.417423863818564 1:121.0 2:10.0 3:4.0 4:4.0 5:139.0 6:3.0 
-0.41711571796261476 1:121.0 2:13.0 3:1.0 4:1.0 5:139.0 6:3.0 
-0.4222381405326269 1:6500000.0 2:25.0 3:3.5 4:3.5 5:142.0 6:3.0 
-0.42231889813206613 1:1.94E7 2:0.0 3:0.0 4:0.0 5:94.0 6:1.94 
-0.42198348059120916 1:121.0 2:23.0 3:2.5 4:2.5 5:139.0 6:3.0 
-0.38143745073578034 1:121.0 2:1.0 3:2.5 4:2.5 5:139.0 6:3.0 
-0.4216026388131855 1:1830000.0 2:0.0 3:4.0 4:4.0 5:137.0 6:3.18 
-0.42221978480139977 1:656000.0 2:0.0 3:0.0 4:0.0 5:79.0 6:3.44 
-0.42155692791484156 1:1830000.0 2:12.0 3:4.75 4:4.75 5:137.0 6:3.18 
-1.0 1:1.73E7 2:0.0 3:0.0 4:0.0 5:66.0 6:1.88 
-0.378230279621154 1:2290000.0 2:27.0 3:2.0 4:2.0 5:144.0 6:3.28 
-0.4221748180716338 1:5830000.0 2:42.0 3:3.0 4:3.0 5:174.0 6:3.74 
-0.024074045966739732 1:2290000.0 2:26.0 3:4.333333333333333 4:4.333333333333333 5:144.0 6:3.28 
-0.42216675418429256 1:8740000.0 2:0.0 3:0.0 4:0.0 5:54.0 6:1.64 
-0.4221644999374366 1:3.72E7 2:0.0 3:0.0 4:0.0 5:34.0 6:1.62 
-0.38491937904346046 1:2290000.0 2:24.0 3:5.0 4:5.0 5:144.0 6:3.28 
-0.3450401543084228 1:2290000.0 2:28.0 3:4.5 4:4.5 5:144.0 6:3.28 
-0.4221649745854427 1:1210000.0 2:3.0 3:5.0 4:5.0 5:94.0 6:2.7 
-0.4221663949738395 1:2660000.0 2:0.0 3:5.0 4:5.0 5:62.0 6:2.8 
-0.422116912887544 1:2230000.0 2:1.0 3:3.0 4:3.0 5:308.0 6:6.46 
-0.42214312262777737 1:4100000.0 2:38.0 3:3.4 4:3.4 5:301.0 6:6.42 
-0.422120337185907 1:2650000.0 2:0.0 3:6.666666666666667 4:6.666666666666667 5:182.0 6:3.66 
-0.42234206890591514 1:232.0 2:0.0 3:6.333333333333333 4:6.333333333333333 5:71.0 6:1.78 
-0.4215819554119079 1:4530000.0 2:0.0 3:0.0 4:0.0 5:60.0 6:2.64 
-0.31125180563793686 1:5.61E7 2:11.0 3:4.0 4:4.0 5:59.0 6:2.9 
-0.4221151827993235 1:2.39E7 2:0.0 3:0.0 4:0.0 5:61.0 6:2.08 
-0.4222495396624929 1:5.61E7 2:0.0 3:3.3333333333333335 4:3.3333333333333335 5:59.0 6:2.9 
-0.41741104277698865 1:5.61E7 2:18.0 3:3.0 4:3.0 5:59.0 6:2.9 
-0.4219145848695924 1:4960000.0 2:0.0 3:0.0 4:0.0 5:48.0 6:3.78 
-0.3011800714674734 1:5.61E7 2:13.0 3:3.0 4:3.0 5:59.0 6:2.9 
-0.42157860905275507 1:2.43E7 2:21.0 3:4.888888888888889 4:4.888888888888889 5:72.0 6:3.2 
-0.4203393306733417 1:8420000.0 2:0.0 3:0.0 4:0.0 5:73.0 6:3.2 
-0.2390856382367463 1:8420000.0 2:1.0 3:5.0 4:5.0 5:73.0 6:3.2 
-0.333781169650108 1:8420000.0 2:4.0 3:5.5 4:5.5 5:73.0 6:3.2 
-0.4222308674437167 1:2.43E7 2:33.0 3:5.25 4:5.25 5:72.0 6:3.2 
-0.26629737312962853 1:8420000.0 2:2.0 3:3.5714285714285716 4:3.5714285714285716 5:73.0 6:3.2 
-0.4221103864838068 1:8420000.0 2:32.0 3:4.142857142857143 4:4.142857142857143 5:73.0 6:3.2 
-0.4221061537756122 1:154000.0 2:37.0 3:11.0 4:11.0 5:64.0 6:1.88 
-0.4475354408178074 1:178000.0 2:9.0 3:2.5 4:2.5 5:94.0 6:2.44 
-0.422058215623583 1:128000.0 2:0.0 3:7.0 4:7.0 5:5.0 6:0.18 
-0.4029197676828833 1:178000.0 2:7.0 3:4.5 4:4.5 5:94.0 6:2.44 
-0.4224983414434639 1:1.31E7 2:37.0 3:7.0 4:7.0 5:85.0 6:2.28 
-0.4216450499621495 1:1.31E7 2:12.0 3:0.0 4:0.0 5:85.0 6:2.28 
-1.0 1:1.31E7 2:1.0 3:2.6666666666666665 4:2.6666666666666665 5:85.0 6:2.28 
-0.3690141968844469 1:1.31E7 2:4.0 3:4.666666666666667 4:4.666666666666667 5:85.0 6:2.28 
-0.42245861446930566 1:303000.0 2:0.0 3:6.0 4:6.0 5:115.0 6:3.54 
-0.206386146560633 1:4510000.0 2:1.0 3:5.0 4:5.0 5:61.0 6:3.26 
-0.4171778467731491 1:4510000.0 2:5.0 3:3.0 4:3.0 5:61.0 6:3.26 
-0.3446738787083286 1:4510000.0 2:18.0 3:4.0 4:4.0 5:61.0 6:3.26 
-0.34456483481469774 1:4510000.0 2:17.0 3:6.0 4:6.0 5:61.0 6:3.26 
-0.2460987865657336 1:4510000.0 2:0.0 3:5.0 4:5.0 5:61.0 6:3.26 
-0.4224344409561156 1:689000.0 2:0.0 3:0.0 4:0.0 5:53.0 6:2.82 
-0.42240249146769876 1:3010000.0 2:0.0 3:0.0 4:0.0 5:65.0 6:2.98 
-0.4215893743659752 1:205000.0 2:0.0 3:0.0 4:0.0 5:86.0 6:3.56 
-0.42135669786303664 1:4510000.0 2:12.0 3:3.0 4:3.0 5:61.0 6:3.26 
-0.42199546951120187 1:2600000.0 2:9.0 3:3.5 4:3.5 5:38.0 6:1.56 
-0.42225709541551293 1:2600000.0 2:1.0 3:3.25 4:3.25 5:38.0 6:1.56 
-0.42019247930636916 1:2670000.0 2:0.0 3:0.0 4:0.0 5:42.0 6:2.2 
-0.4223926865235981 1:2.32E7 2:5.0 3:5.0 4:5.0 5:82.0 6:3.72 
-0.4223983970180993 1:2.32E7 2:24.0 3:6.0 4:6.0 5:82.0 6:3.72 
-0.42239450348003793 1:1450000.0 2:10.0 3:0.0 4:0.0 5:173.0 6:3.92 
-0.27229867550640063 1:437000.0 2:0.0 3:9.0 4:9.0 5:65.0 6:2.3 
-0.42162731167254325 1:2790000.0 2:0.0 3:0.0 4:0.0 5:69.0 6:3.64 
-0.2463431678525841 1:437000.0 2:1.0 3:8.0 4:8.0 5:65.0 6:2.3 
-0.4152024659998138 1:437000.0 2:5.0 3:6.25 4:6.25 5:65.0 6:2.3 
-0.42239604536635345 1:3100000.0 2:0.0 3:0.0 4:0.0 5:137.0 6:2.74 
-0.4223727056788312 1:510000.0 2:26.0 3:2.5 4:2.5 5:99.0 6:2.02 
-0.3717161840414496 1:510000.0 2:47.0 3:4.0 4:4.0 5:99.0 6:2.02 
-1.0 1:510000.0 2:1.0 3:4.0 4:4.0 5:99.0 6:2.02 
-0.42228639450912636 1:480000.0 2:0.0 3:0.0 4:0.0 5:106.0 6:2.2 
-0.3080246356229115 1:510000.0 2:43.0 3:5.0 4:5.0 5:99.0 6:2.02 
-0.2587261378152705 1:510000.0 2:45.0 3:6.0 4:6.0 5:99.0 6:2.02 
-0.42221324827824025 1:5.52E7 2:44.0 3:6.0 4:6.0 5:78.0 6:2.06 
-0.41781795311146547 1:2780000.0 2:0.0 3:0.0 4:0.0 5:80.0 6:2.04 
-0.4491799649972118 1:5.52E7 2:4.0 3:3.25 4:3.25 5:78.0 6:2.06 
-0.4222124354094324 1:1050000.0 2:0.0 3:0.0 4:0.0 5:57.0 6:4.22 
-0.12215275923329935 1:5.52E7 2:2.0 3:3.0 4:3.0 5:78.0 6:2.06 
-0.3863674964146486 1:5.52E7 2:7.0 3:6.0 4:6.0 5:78.0 6:2.06 
-0.49591496061111706 1:5.52E7 2:0.0 3:2.25 4:2.25 5:78.0 6:2.06 
-0.4220357605129127 1:5.52E7 2:18.0 3:4.5 4:4.5 5:78.0 6:2.06 
-0.39532890298570844 1:5.52E7 2:11.0 3:5.5 4:5.5 5:78.0 6:2.06 
-0.42220849066040783 1:2.41E7 2:0.0 3:0.0 4:0.0 5:75.0 6:1.92 
-0.4222031465192605 1:6460000.0 2:11.0 3:1.0 4:1.0 5:74.0 6:1.9 
-0.4221771405360717 1:2.26E7 2:25.0 3:5.666666666666667 4:5.666666666666667 5:157.0 6:5.66 
-0.42217446316764523 1:3.53E7 2:31.0 3:6.4 4:6.4 5:171.0 6:6.02 
-1.0 1:2.05E7 2:0.0 3:0.0 4:0.0 5:50.0 6:3.72 
-0.42217357078810835 1:2.26E7 2:1.0 3:4.5 4:4.5 5:157.0 6:5.66 
-0.8465999680778147 1:3.29E7 2:2.0 3:2.5 4:2.5 5:51.0 6:2.48 
-0.4195861766035997 1:3.29E7 2:9.0 3:3.5 4:3.5 5:51.0 6:2.48 
-0.422150618056509 1:649000.0 2:0.0 3:9.0 4:9.0 5:17.0 6:1.8 
-0.4221473572028714 1:6750000.0 2:6.0 3:2.5 4:2.5 5:66.0 6:2.78 
-0.4579816482268628 1:3.29E7 2:4.0 3:5.5 4:5.5 5:51.0 6:2.48 
-0.42213210718792 1:149000.0 2:0.0 3:6.0 4:6.0 5:131.0 6:2.78 
-0.42226811723508245 1:5140000.0 2:36.0 3:0.0 4:0.0 5:148.0 6:3.08 
-0.3894379082152187 1:2370000.0 2:7.0 3:3.6 4:3.6 5:143.0 6:3.34 
-0.4218506659241228 1:5140000.0 2:45.0 3:4.5 4:4.5 5:148.0 6:3.08 
-0.42212601706464936 1:5140000.0 2:21.0 3:6.0 4:6.0 5:148.0 6:3.08 
-0.422127999264607 1:1510000.0 2:0.0 3:6.0 4:6.0 5:63.0 6:2.62 
-0.4167737167204691 1:8.68E7 2:20.0 3:5.0 4:5.0 5:227.0 6:5.12 
-0.41618463505557124 1:8.68E7 2:15.0 3:6.0 4:6.0 5:227.0 6:5.12 
-0.4221264518790359 1:2.12E7 2:11.0 3:2.3333333333333335 4:2.3333333333333335 5:210.0 6:4.94 
-0.4220988876757718 1:3.56E7 2:0.0 3:0.0 4:0.0 5:251.0 6:5.5 
-1.0 1:7.93E7 2:0.0 3:0.0 4:0.0 5:51.0 6:1.34 
-0.4223655330477316 1:8.68E7 2:30.0 3:5.0 4:5.0 5:227.0 6:5.12 
-0.42585170000496136 1:3360000.0 2:38.0 3:0.0 4:0.0 5:183.0 6:5.58 
-0.42208686391018896 1:89800.0 2:28.0 3:4.0 4:4.0 5:173.0 6:5.0 
-0.42208185329884923 1:3360000.0 2:2.0 3:1.6666666666666667 4:1.6666666666666667 5:183.0 6:5.58 
-0.42206828141592084 1:3360000.0 2:16.0 3:16.0 4:16.0 5:183.0 6:5.58 
-0.42202469127235165 1:3360000.0 2:22.0 3:1.25 4:1.25 5:183.0 6:5.58 
-0.4254612995616161 1:2280000.0 2:2.0 3:1.5 4:1.5 5:205.0 6:4.26 
-0.4219904811030393 1:2630000.0 2:0.0 3:0.0 4:0.0 5:156.0 6:3.12 
-1.0 1:7.28E8 2:0.0 3:0.0 4:0.0 5:40.0 6:1.6 
-0.4219449627155524 1:1.57E8 2:0.0 3:3.2 4:3.2 5:92.0 6:2.58 
-1.0 1:7.93E7 2:0.0 3:0.0 4:0.0 5:51.0 6:1.34 
-0.4219464881733692 1:1.57E8 2:19.0 3:6.0 4:6.0 5:92.0 6:2.58 
-0.3484492353525139 1:2.46E7 2:19.0 3:7.5 4:7.5 5:184.0 6:3.76 
-0.006760278651670948 1:2.46E7 2:26.0 3:8.4 4:8.4 5:184.0 6:3.76 
-0.2445160453580527 1:2.46E7 2:23.0 3:7.6 4:7.6 5:184.0 6:3.76 
-0.2762836785176188 1:2.46E7 2:37.0 3:7.666666666666667 4:7.666666666666667 5:184.0 6:3.76 
-0.31126635494682986 1:2.46E7 2:33.0 3:8.0 4:8.0 5:184.0 6:3.76 
-0.3939183486578544 1:2.46E7 2:20.0 3:11.0 4:11.0 5:184.0 6:3.76 
-0.35896169700282127 1:2.46E7 2:13.0 3:6.8 4:6.8 5:184.0 6:3.76 
-0.4219477055467256 1:2.46E7 2:29.0 3:1.0 4:1.0 5:184.0 6:3.76 
-0.003824123964300676 1:2.46E7 2:12.0 3:7.333333333333333 4:7.333333333333333 5:184.0 6:3.76 
-0.1737161106360598 1:2.46E7 2:36.0 3:7.0 4:7.0 5:184.0 6:3.76 
-0.3502085124232959 1:2.46E7 2:30.0 3:7.2 4:7.2 5:184.0 6:3.76 
-0.25306917351039426 1:2.46E7 2:10.0 3:6.2 4:6.2 5:184.0 6:3.76 
-0.18667513399601154 1:2.46E7 2:25.0 3:8.2 4:8.2 5:184.0 6:3.76 
-0.07757377586008664 1:2.46E7 2:8.0 3:7.333333333333333 4:7.333333333333333 5:184.0 6:3.76 
-0.34577362635123554 1:2.46E7 2:27.0 3:9.5 4:9.5 5:184.0 6:3.76 
-0.25139144953519954 1:2.46E7 2:9.0 3:8.0 4:8.0 5:184.0 6:3.76 
-0.42122795273796243 1:2.46E7 2:2.0 3:4.0 4:4.0 5:184.0 6:3.76 
-0.38857695208705745 1:2.46E7 2:5.0 3:8.0 4:8.0 5:184.0 6:3.76 
-0.15397044883986227 1:2.46E7 2:21.0 3:8.666666666666666 4:8.666666666666666 5:184.0 6:3.76 
-0.4219472587323484 1:203000.0 2:17.0 3:8.0 4:8.0 5:36.0 6:1.26 
-0.4219457652875816 1:3.53E8 2:0.0 3:6.0 4:6.0 5:30.0 6:1.84 
-0.41904253628149624 1:203000.0 2:3.0 3:2.0 4:2.0 5:36.0 6:1.26 
-0.41833160445212375 1:203000.0 2:2.0 3:5.75 4:5.75 5:36.0 6:1.26 
-0.42193797657780907 1:203000.0 2:39.0 3:4.75 4:4.75 5:36.0 6:1.26 
-0.4219021266227341 1:4930000.0 2:0.0 3:5.5 4:5.5 5:53.0 6:1.94 
-0.42206946437860626 1:18200.0 2:7.0 3:4.666666666666667 4:4.666666666666667 5:88.0 6:1.98 
-0.42233967308253784 1:18200.0 2:1.0 3:2.3333333333333335 4:2.3333333333333335 5:88.0 6:1.98 
-0.4051920338112076 1:6.03E7 2:2.0 3:8.0 4:8.0 5:82.0 6:3.78 
-0.39485162573848587 1:6.03E7 2:12.0 3:4.5 4:4.5 5:82.0 6:3.78 
-0.39400134045055124 1:6.03E7 2:8.0 3:5.5 4:5.5 5:82.0 6:3.78 
-1.0 1:1.51E7 2:0.0 3:0.0 4:0.0 5:47.0 6:1.72 
-0.4043944188781752 1:6.03E7 2:1.0 3:5.0 4:5.0 5:82.0 6:3.78 
-1.0 1:2.15E7 2:0.0 3:0.0 4:0.0 5:47.0 6:1.6 
-0.4218700861648298 1:1100000.0 2:42.0 3:8.5 4:8.5 5:267.0 6:5.9 
-0.42210857334533397 1:7.02E7 2:24.0 3:4.0 4:4.0 5:101.0 6:3.78 
-0.4222966671201692 1:7.02E7 2:2.0 3:0.0 4:0.0 5:101.0 6:3.78 
-0.42182951554510895 1:3.27E8 2:49.0 3:2.0 4:2.0 5:66.0 6:3.32 
-0.35500112803067935 1:7.02E7 2:12.0 3:4.5 4:4.5 5:101.0 6:3.78 
-0.3552980638437426 1:7.02E7 2:9.0 3:3.0 4:3.0 5:101.0 6:3.78 
-0.422147723568967 1:2870000.0 2:0.0 3:0.0 4:0.0 5:84.0 6:1.7 
-0.4218039804978229 1:7.0E7 2:44.0 3:0.0 4:0.0 5:139.0 6:3.06 
-0.42177914681451273 1:7210000.0 2:33.0 3:2.5 4:2.5 5:122.0 6:2.74 
-0.4077617549098872 1:7.0E7 2:1.0 3:1.6 4:1.6 5:139.0 6:3.06 
-0.41592471380447216 1:1.07E7 2:0.0 3:0.0 4:0.0 5:64.0 6:1.96 
-0.40783465548842696 1:7.0E7 2:5.0 3:3.0 4:3.0 5:139.0 6:3.06 
-0.3445397654181014 1:1.16E7 2:4.0 3:2.0 4:2.0 5:59.0 6:1.44 
-0.4012991384559071 1:1.16E7 2:13.0 3:4.0 4:4.0 5:59.0 6:1.44 
-0.6228977373759148 1:1.16E7 2:0.0 3:2.0 4:2.0 5:59.0 6:1.44 
-0.42170522155582457 1:1.0E8 2:0.0 3:4.0 4:4.0 5:91.0 6:2.78 
-0.4022929551287919 1:1.16E7 2:17.0 3:5.0 4:5.0 5:59.0 6:1.44 
-0.4216830254676611 1:183000.0 2:0.0 3:0.0 4:0.0 5:152.0 6:3.1 
-0.02699004465249942 1:1.16E7 2:1.0 3:3.0 4:3.0 5:59.0 6:1.44 
-0.37842760561093497 1:1.16E7 2:7.0 3:3.3333333333333335 4:3.3333333333333335 5:59.0 6:1.44 
-0.23105904564704058 1:53100.0 2:14.0 3:4.0 4:4.0 5:50.0 6:1.56 
-0.421615186926929 1:53100.0 2:0.0 3:3.5 4:3.5 5:50.0 6:1.56 
-0.22611648914623664 1:53100.0 2:15.0 3:4.0 4:4.0 5:50.0 6:1.56 
-0.4215994425518844 1:3.46E7 2:0.0 3:8.0 4:8.0 5:99.0 6:3.6 
-0.4215880743992198 1:2050000.0 2:47.0 3:0.0 4:0.0 5:115.0 6:4.64 
-0.4215811771580595 1:7830000.0 2:0.0 3:0.0 4:0.0 5:63.0 6:3.14 
-0.4215751792347451 1:1.89E7 2:0.0 3:0.0 4:0.0 5:50.0 6:1.28 
-0.4220916850826505 1:2.54E7 2:0.0 3:0.0 4:0.0 5:49.0 6:1.62 
-0.4216674606233733 1:2050000.0 2:2.0 3:10.0 4:10.0 5:115.0 6:4.64 
-0.4220621879672946 1:2050000.0 2:0.0 3:5.0 4:5.0 5:115.0 6:4.64 
-0.3530076436217678 1:1260000.0 2:0.0 3:2.5 4:2.5 5:90.0 6:2.0 
-0.367378063307282 1:1260000.0 2:4.0 3:4.25 4:4.25 5:90.0 6:2.0 
-0.29234359400973664 1:1260000.0 2:3.0 3:2.0 4:2.0 5:90.0 6:2.0 
-0.4220989166102029 1:1420000.0 2:0.0 3:8.0 4:8.0 5:114.0 6:3.46 
-0.4223032151872138 1:1260000.0 2:14.0 3:4.0 4:4.0 5:90.0 6:2.0 
-0.3814369147538172 1:78900.0 2:1.0 3:4.5 4:4.5 5:92.0 6:2.46 
-0.3954217110424629 1:78900.0 2:37.0 3:7.666666666666667 4:7.666666666666667 5:92.0 6:2.46 
-0.22897573884834335 1:78900.0 2:17.0 3:7.5 4:7.5 5:92.0 6:2.46 
-0.4218139540485118 1:78900.0 2:41.0 3:16.0 4:16.0 5:92.0 6:2.46 
-0.39518061775417884 1:78900.0 2:33.0 3:8.0 4:8.0 5:92.0 6:2.46 
-0.38184332148804834 1:78900.0 2:2.0 3:7.0 4:7.0 5:92.0 6:2.46 
-0.22832896973055386 1:78900.0 2:16.0 3:7.5 4:7.5 5:92.0 6:2.46 
-0.42210843836683337 1:3460000.0 2:0.0 3:5.666666666666667 4:5.666666666666667 5:40.0 6:1.42 
-0.42216402395037594 1:495000.0 2:48.0 3:7.0 4:7.0 5:73.0 6:1.64 
-0.3814359041951337 1:495000.0 2:29.0 3:8.0 4:8.0 5:73.0 6:1.64 
-0.2310849189573727 1:495000.0 2:1.0 3:5.0 4:5.0 5:73.0 6:1.64 
-0.38154081126370076 1:495000.0 2:28.0 3:5.5 4:5.5 5:73.0 6:1.64 
-0.40919493574157106 1:1.09E8 2:0.0 3:0.0 4:0.0 5:41.0 6:1.88 
-0.22610981055986862 1:495000.0 2:0.0 3:5.0 4:5.0 5:73.0 6:1.64 
-0.42228856147248767 1:495000.0 2:21.0 3:6.333333333333333 4:6.333333333333333 5:73.0 6:1.64 
-0.4213007862318108 1:95000.0 2:4.0 3:8.0 4:8.0 5:22.0 6:1.24 
-0.25779105867340096 1:95000.0 2:0.0 3:4.0 4:4.0 5:22.0 6:1.24 
-0.04599076873629814 1:95000.0 2:1.0 3:4.666666666666667 4:4.666666666666667 5:22.0 6:1.24 
-0.2548638278819232 1:95000.0 2:2.0 3:4.0 4:4.0 5:22.0 6:1.24 
-0.3182990926967239 1:168000.0 2:36.0 3:6.5 4:6.5 5:254.0 6:11.14 
-0.4221641706418517 1:5.82E7 2:0.0 3:0.0 4:0.0 5:44.0 6:1.5 
-0.4221748180716338 1:4880000.0 2:0.0 3:5.166666666666667 4:5.166666666666667 5:194.0 6:4.9 
-0.2715149215874957 1:168000.0 2:47.0 3:4.0 4:4.0 5:254.0 6:11.14 
-0.3118888939116584 1:168000.0 2:48.0 3:5.5 4:5.5 5:254.0 6:11.14 
-0.1530592804402402 1:168000.0 2:38.0 3:5.5 4:5.5 5:254.0 6:11.14 
-0.28969752967252216 1:168000.0 2:37.0 3:4.285714285714286 4:4.285714285714286 5:254.0 6:11.14 
-0.40248550335873634 1:168000.0 2:43.0 3:3.5 4:3.5 5:254.0 6:11.14 
-0.4221716129407209 1:4880000.0 2:0.0 3:4.4 4:4.4 5:267.0 6:6.04 
-0.4221897285111498 1:2.75E7 2:15.0 3:3.0 4:3.0 5:147.0 6:5.24 
-0.4190302016565541 1:2.75E7 2:0.0 3:2.0 4:2.0 5:147.0 6:5.24 
-0.4220876922445213 1:2.75E7 2:23.0 3:2.0 4:2.0 5:147.0 6:5.24 
-0.4188616545933907 1:2.75E7 2:3.0 3:5.166666666666667 4:5.166666666666667 5:147.0 6:5.24 
-0.42179152823015736 1:1.92E7 2:1.0 3:0.0 4:0.0 5:132.0 6:2.64 
-0.4221776422585996 1:1.92E7 2:33.0 3:3.5 4:3.5 5:132.0 6:2.64 
-0.32761125336762886 1:1.92E7 2:18.0 3:3.3333333333333335 4:3.3333333333333335 5:132.0 6:2.64 
-0.4207471758433855 1:1.92E7 2:9.0 3:6.5 4:6.5 5:132.0 6:2.64 
-0.4199219817488781 1:1.92E7 2:5.0 3:3.5 4:3.5 5:132.0 6:2.64 
-0.32862186932793347 1:1.92E7 2:16.0 3:2.0 4:2.0 5:132.0 6:2.64 
-0.42219685855493816 1:1.37E7 2:27.0 3:6.4 4:6.4 5:82.0 6:1.66 
-0.4215726896763299 1:95900.0 2:0.0 3:2.0 4:2.0 5:70.0 6:2.18 
-0.42224266223989054 1:11200.0 2:10.0 3:4.5 4:4.5 5:62.0 6:2.44 
-0.350891299416997 1:95900.0 2:10.0 3:4.333333333333333 4:4.333333333333333 5:70.0 6:2.18 
-0.3850465312379083 1:95900.0 2:6.0 3:6.5 4:6.5 5:70.0 6:2.18 
-0.30603540168127463 1:95900.0 2:7.0 3:4.0 4:4.0 5:70.0 6:2.18 
-0.41677541797928147 1:137000.0 2:0.0 3:5.666666666666667 4:5.666666666666667 5:44.0 6:1.2 
-0.4164385645278026 1:137000.0 2:2.0 3:9.0 4:9.0 5:44.0 6:1.2 
-0.422236253176806 1:43900.0 2:0.0 3:0.0 4:0.0 5:70.0 6:1.48 
-0.4222423998041694 1:1.01E7 2:47.0 3:8.0 4:8.0 5:82.0 6:2.98 
-0.42224429341630204 1:1.76E7 2:0.0 3:5.0 4:5.0 5:52.0 6:2.66 
-0.4220675690642646 1:1.01E7 2:12.0 3:1.0 4:1.0 5:82.0 6:2.98 
-0.6973353739713026 1:1.01E7 2:3.0 3:0.0 4:0.0 5:82.0 6:2.98 
-0.6545125649167236 1:1.01E7 2:2.0 3:2.25 4:2.25 5:82.0 6:2.98 
-0.42226241225026784 1:642000.0 2:34.0 3:5.5 4:5.5 5:58.0 6:2.48 
-0.4222718210748082 1:2390000.0 2:0.0 3:0.0 4:0.0 5:153.0 6:3.06 
-0.4222831510940151 1:5.07E7 2:0.0 3:0.0 4:0.0 5:201.0 6:4.86 
-0.4222836023920005 1:642000.0 2:1.0 3:8.0 4:8.0 5:58.0 6:2.48 
-0.4221154842033778 1:1.42E8 2:43.0 3:4.0 4:4.0 5:183.0 6:5.52 
-0.4220722505975243 1:3000000.0 2:0.0 3:0.0 4:0.0 5:136.0 6:2.88 
-0.4215795286168982 1:1.16E8 2:0.0 3:0.0 4:0.0 5:23.0 6:1.28 
-0.32046977444303376 1:5.26E7 2:2.0 3:2.75 4:2.75 5:179.0 6:4.76 
-0.3824254839883479 1:5.26E7 2:7.0 3:2.0 4:2.0 5:179.0 6:4.76 
-0.22184966335390754 1:5.26E7 2:4.0 3:3.0 4:3.0 5:179.0 6:4.76 
-0.42158126893238773 1:2370000.0 2:0.0 3:9.0 4:9.0 5:59.0 6:1.66 
-0.42130605413802413 1:199000.0 2:27.0 3:4.5 4:4.5 5:84.0 6:2.12 
-0.40108478256461016 1:199000.0 2:14.0 3:7.0 4:7.0 5:84.0 6:2.12 
-0.3250048508237315 1:199000.0 2:3.0 3:5.571428571428571 4:5.571428571428571 5:84.0 6:2.12 
-0.38256552709290265 1:199000.0 2:4.0 3:8.0 4:8.0 5:84.0 6:2.12 
-0.41433449090062496 1:199000.0 2:7.0 3:3.3333333333333335 4:3.3333333333333335 5:84.0 6:2.12 
-0.4011929905172155 1:199000.0 2:10.0 3:8.0 4:8.0 5:84.0 6:2.12 
-0.4222357104066226 1:207.0 2:0.0 3:0.0 4:0.0 5:96.0 6:2.04 
-0.3327137928930268 1:199000.0 2:1.0 3:2.0 4:2.0 5:84.0 6:2.12 
-0.30864244337977487 1:199000.0 2:21.0 3:6.0 4:6.0 5:84.0 6:2.12 
-0.21672768863878067 1:199000.0 2:2.0 3:3.5 4:3.5 5:84.0 6:2.12 
-0.30695886568907615 1:199000.0 2:19.0 3:5.0 4:5.0 5:84.0 6:2.12 
-0.4217939780277096 1:199000.0 2:34.0 3:5.5 4:5.5 5:84.0 6:2.12 
-0.5951553527902151 1:1.97E7 2:0.0 3:2.5 4:2.5 5:109.0 6:2.96 
-0.23108256541523262 1:2.7E7 2:0.0 3:0.0 4:0.0 5:33.0 6:1.54 
-0.42159378667468556 1:1.97E7 2:35.0 3:3.0 4:3.0 5:109.0 6:2.96 
-0.42234510667619996 1:514000.0 2:14.0 3:7.4 4:7.4 5:159.0 6:5.66 
-0.42160339290348164 1:237000.0 2:0.0 3:7.333333333333333 4:7.333333333333333 5:205.0 6:4.64 
-0.41773727546740563 1:2.58E7 2:5.0 3:7.5 4:7.5 5:119.0 6:4.92 
-1.0 1:7.5E7 2:0.0 3:0.0 4:0.0 5:45.0 6:1.28 
-0.4223404126271282 1:514000.0 2:27.0 3:3.3333333333333335 4:3.3333333333333335 5:159.0 6:5.66 
-1.0 1:2.58E7 2:0.0 3:4.8 4:4.8 5:119.0 6:4.92 
-0.41814266369950676 1:2.58E7 2:10.0 3:6.333333333333333 4:6.333333333333333 5:119.0 6:4.92 
-0.5116047690983527 1:2.58E7 2:2.0 3:8.75 4:8.75 5:119.0 6:4.92 
-0.421657233875816 1:1300000.0 2:0.0 3:0.0 4:0.0 5:134.0 6:2.68 
-0.42165988146877553 1:2.58E7 2:33.0 3:4.0 4:4.0 5:119.0 6:4.92 
-0.42165518793882656 1:8640000.0 2:0.0 3:0.0 4:0.0 5:38.0 6:1.38 
-0.3612830124847602 1:353000.0 2:3.0 3:6.5 4:6.5 5:20.0 6:0.7 
-0.4216586651743403 1:1.08E7 2:0.0 3:6.0 4:6.0 5:78.0 6:1.64 
-0.36391635008840173 1:353000.0 2:0.0 3:5.5 4:5.5 5:20.0 6:0.7 
-0.3224598765403877 1:353000.0 2:12.0 3:8.0 4:8.0 5:20.0 6:0.7 
-0.3563818453021337 1:353000.0 2:14.0 3:6.333333333333333 4:6.333333333333333 5:20.0 6:0.7 
-0.3962784095690372 1:353000.0 2:8.0 3:8.0 4:8.0 5:20.0 6:0.7 
-0.33702053362200224 1:402000.0 2:5.0 3:2.5 4:2.5 5:81.0 6:2.0 
-0.20428870636069868 1:402000.0 2:4.0 3:4.0 4:4.0 5:81.0 6:2.0 
-0.42172062242134034 1:148000.0 2:0.0 3:5.0 4:5.0 5:131.0 6:3.36 
-0.42172855226990574 1:4880000.0 2:0.0 3:0.0 4:0.0 5:40.0 6:1.74 
-0.3732826585558267 1:402000.0 2:3.0 3:6.0 4:6.0 5:81.0 6:2.0 
-0.42176344818654293 1:2930000.0 2:0.0 3:9.0 4:9.0 5:60.0 6:2.12 
-0.4217838760668053 1:3930000.0 2:2.0 3:4.333333333333333 4:4.333333333333333 5:243.0 6:5.28 
-0.42181427822541795 1:973000.0 2:0.0 3:0.0 4:0.0 5:57.0 6:3.04 
-0.4220178809386651 1:3930000.0 2:24.0 3:8.5 4:8.5 5:243.0 6:5.28 
-0.42209048274937505 1:1.11E7 2:0.0 3:0.0 4:0.0 5:66.0 6:1.96 
-0.42208711925876685 1:1.46E7 2:0.0 3:6.0 4:6.0 5:105.0 6:3.06 
-0.2613922155832764 1:196000.0 2:3.0 3:4.5 4:4.5 5:110.0 6:2.24 
-0.39484621099626555 1:196000.0 2:14.0 3:9.0 4:9.0 5:110.0 6:2.24 
-0.42210798424538554 1:234000.0 2:0.0 3:6.0 4:6.0 5:121.0 6:2.64 
-0.4220855966404147 1:8930000.0 2:0.0 3:0.0 4:0.0 5:75.0 6:1.54 
-0.27678003770773757 1:196000.0 2:2.0 3:3.3333333333333335 4:3.3333333333333335 5:110.0 6:2.24 
-0.3942267230988039 1:196000.0 2:10.0 3:9.0 4:9.0 5:110.0 6:2.24 
-0.42214253247447997 1:196000.0 2:49.0 3:1.0 4:1.0 5:110.0 6:2.24 
-0.4017374314142675 1:196000.0 2:7.0 3:4.0 4:4.0 5:110.0 6:2.24 
-0.14978843098627972 1:184000.0 2:1.0 3:2.5714285714285716 4:2.5714285714285716 5:63.0 6:2.66 
-0.4130235677589948 1:184000.0 2:6.0 3:7.0 4:7.0 5:63.0 6:2.66 
-0.4225246031045648 1:267000.0 2:15.0 3:7.0 4:7.0 5:64.0 6:2.52 
-0.34190208139797407 1:184000.0 2:0.0 3:1.0 4:1.0 5:63.0 6:2.66 
-0.4218812290461518 1:267000.0 2:5.0 3:5.0 4:5.0 5:64.0 6:2.52 
-0.125230229757983 1:184000.0 2:2.0 3:2.75 4:2.75 5:63.0 6:2.66 
-0.35495103586215393 1:184000.0 2:4.0 3:4.0 4:4.0 5:63.0 6:2.66 
-0.4221808412530997 1:113.0 2:0.0 3:7.0 4:7.0 5:12.0 6:0.32 
-0.33484177826522543 1:4230000.0 2:0.0 3:2.0 4:2.0 5:132.0 6:3.84 
-0.3882636269370283 1:2390000.0 2:29.0 3:4.5 4:4.5 5:170.0 6:4.9 
-0.4222386948682912 1:2390000.0 2:2.0 3:1.0 4:1.0 5:170.0 6:4.9 
-0.30914134910439633 1:2390000.0 2:35.0 3:5.5 4:5.5 5:170.0 6:4.9 
-0.4221072260321507 1:4230000.0 2:14.0 3:1.6666666666666667 4:1.6666666666666667 5:132.0 6:3.84 
-0.5148682354186538 1:4230000.0 2:8.0 3:3.5 4:3.5 5:132.0 6:3.84 
-0.3785977871390449 1:2390000.0 2:32.0 3:2.8333333333333335 4:2.8333333333333335 5:170.0 6:4.9 
-0.4222386955604917 1:2970000.0 2:0.0 3:0.0 4:0.0 5:163.0 6:4.2 
-0.2823587228652861 1:2390000.0 2:37.0 3:4.5 4:4.5 5:170.0 6:4.9 
-0.4045756231170722 1:2390000.0 2:38.0 3:1.6666666666666667 4:1.6666666666666667 5:170.0 6:4.9 
-0.45372771652037275 1:4230000.0 2:3.0 3:1.3333333333333333 4:1.3333333333333333 5:132.0 6:3.84 
-0.4222172366169291 1:4230000.0 2:11.0 3:8.0 4:8.0 5:132.0 6:3.84 
-0.2855969604212504 1:198000.0 2:8.0 3:4.0 4:4.0 5:57.0 6:1.5 
-0.21266609413204787 1:198000.0 2:2.0 3:3.0 4:3.0 5:57.0 6:1.5 
-0.315658105294222 1:198000.0 2:0.0 3:2.5 4:2.5 5:57.0 6:1.5 
-0.3628974429910483 1:198000.0 2:11.0 3:4.5 4:4.5 5:57.0 6:1.5 
-0.42232042776270395 1:1140000.0 2:9.0 3:3.0 4:3.0 5:44.0 6:0.96 
-0.3740369085873159 1:198000.0 2:3.0 3:6.0 4:6.0 5:57.0 6:1.5 
-0.2701696706321914 1:198000.0 2:5.0 3:4.0 4:4.0 5:57.0 6:1.5 
-0.381439635245529 1:568000.0 2:24.0 3:1.0 4:1.0 5:167.0 6:3.36 
-0.4215440246202046 1:568000.0 2:7.0 3:3.0 4:3.0 5:167.0 6:3.36 
-0.42232685786879404 1:348000.0 2:0.0 3:9.5 4:9.5 5:64.0 6:2.06 
-0.38161083368893756 1:568000.0 2:25.0 3:3.5 4:3.5 5:167.0 6:3.36 
-0.42234257518241 1:2790000.0 2:0.0 3:0.5 4:0.5 5:98.0 6:2.3 
-0.4219669488070579 1:568000.0 2:37.0 3:1.75 4:1.75 5:167.0 6:3.36 
-0.422183992616318 1:568000.0 2:16.0 3:5.0 4:5.0 5:167.0 6:3.36 
-0.42214058776683594 1:568000.0 2:0.0 3:0.3333333333333333 4:0.3333333333333333 5:167.0 6:3.36 
-0.4220056466003587 1:2.31E7 2:18.0 3:5.0 4:5.0 5:123.0 6:3.96 
-0.4200235065283972 1:198000.0 2:0.0 3:0.0 4:0.0 5:61.0 6:2.76 
-0.4223323968331807 1:2.31E7 2:9.0 3:4.0 4:4.0 5:123.0 6:3.96 
-0.4220876609937591 1:2.31E7 2:1.0 3:0.0 4:0.0 5:123.0 6:3.96 
-0.41953242698535737 1:3.15E7 2:0.0 3:0.75 4:0.75 5:56.0 6:1.56 
-0.4223078574199674 1:3.15E7 2:37.0 3:2.0 4:2.0 5:56.0 6:1.56 
-0.4193852934921606 1:3.15E7 2:3.0 3:4.0 4:4.0 5:56.0 6:1.56 
-0.12404385106539548 1:3.15E7 2:14.0 3:1.8333333333333333 4:1.8333333333333333 5:56.0 6:1.56 
-0.27226890498749795 1:3.15E7 2:12.0 3:1.8 4:1.8 5:56.0 6:1.56 
-0.3516715820343439 1:3.15E7 2:13.0 3:4.0 4:4.0 5:56.0 6:1.56 
-0.3664131751919741 1:3.15E7 2:15.0 3:0.0 4:0.0 5:56.0 6:1.56 
-0.4221875513928846 1:3.15E7 2:29.0 3:2.5 4:2.5 5:56.0 6:1.56 
-0.4223683012552402 1:298000.0 2:0.0 3:5.5 4:5.5 5:132.0 6:2.9 
-0.42151587344538816 1:559000.0 2:0.0 3:3.5 4:3.5 5:93.0 6:3.64 
-0.3013914736046765 1:559000.0 2:7.0 3:5.0 4:5.0 5:93.0 6:3.64 
-0.42233647290724285 1:559000.0 2:15.0 3:7.0 4:7.0 5:93.0 6:3.64 
-0.3015381741092241 1:559000.0 2:8.0 3:3.5 4:3.5 5:93.0 6:3.64 
-0.42138002780274453 1:211000.0 2:7.0 3:9.0 4:9.0 5:28.0 6:1.38 
-0.2790223213609128 1:211000.0 2:4.0 3:5.0 4:5.0 5:28.0 6:1.38 
-0.2711853313131377 1:211000.0 2:2.0 3:6.0 4:6.0 5:28.0 6:1.38 
-0.35064131675482335 1:211000.0 2:1.0 3:3.6666666666666665 4:3.6666666666666665 5:28.0 6:1.38 
-0.42237406136964045 1:1.67E7 2:0.0 3:5.5 4:5.5 5:68.0 6:1.4 
-0.3061385319222295 1:2.38E7 2:7.0 3:5.5 4:5.5 5:102.0 6:2.76 
-0.3032991711842197 1:2.38E7 2:3.0 3:3.6666666666666665 4:3.6666666666666665 5:102.0 6:2.76 
-0.2946582634282712 1:2.38E7 2:0.0 3:5.0 4:5.0 5:102.0 6:2.76 
-0.4223748066479799 1:2.38E7 2:41.0 3:6.5 4:6.5 5:102.0 6:2.76 
-0.42234737811442324 1:23600.0 2:0.0 3:0.0 4:0.0 5:128.0 6:2.6 
-0.42102933941556225 1:1.22E7 2:0.0 3:6.0 4:6.0 5:80.0 6:2.08 
-0.18923485985640123 1:2.38E7 2:2.0 3:5.5 4:5.5 5:102.0 6:2.76 
-0.1609871720798213 1:2.38E7 2:6.0 3:4.666666666666667 4:4.666666666666667 5:102.0 6:2.76 
-0.4223448848620689 1:1420000.0 2:1.0 3:2.6666666666666665 4:2.6666666666666665 5:60.0 6:3.32 
-0.3745487836602203 1:2.23E7 2:5.0 3:4.5 4:4.5 5:78.0 6:2.62 
-0.410395888951379 1:2.23E7 2:0.0 3:5.0 4:5.0 5:78.0 6:2.62 
-0.4160112621942195 1:2.23E7 2:33.0 3:3.857142857142857 4:3.857142857142857 5:78.0 6:2.62 
-0.42243774344007473 1:2.23E7 2:44.0 3:9.0 4:9.0 5:78.0 6:2.62 
-0.38259602507012647 1:2.23E7 2:8.0 3:3.0 4:3.0 5:78.0 6:2.62 
-0.4144914759775345 1:2.23E7 2:1.0 3:1.5 4:1.5 5:78.0 6:2.62 
-0.4166809591845811 1:2.23E7 2:38.0 3:4.5 4:4.5 5:78.0 6:2.62 
-0.4223377467190076 1:163000.0 2:0.0 3:4.333333333333333 4:4.333333333333333 5:124.0 6:3.02 
-0.42231890095977703 1:3440000.0 2:0.0 3:0.0 4:0.0 5:72.0 6:3.76 
-0.42230433928333677 1:2.51E7 2:18.0 3:4.0 4:4.0 5:156.0 6:7.46 
-0.4215707316348493 1:2.0E7 2:24.0 3:6.0 4:6.0 5:131.0 6:6.46 
-0.4222833981404038 1:2.0E7 2:4.0 3:2.5 4:2.5 5:131.0 6:6.46 
-0.4220076468873394 1:2.0E7 2:37.0 3:5.5 4:5.5 5:131.0 6:6.46 
-0.4222799540953219 1:3780000.0 2:0.0 3:6.0 4:6.0 5:64.0 6:3.66 
-0.37891782543227387 1:1.38E7 2:9.0 3:4.2 4:4.2 5:232.0 6:5.48 
-0.21899161467375353 1:1.38E7 2:6.0 3:5.0 4:5.0 5:232.0 6:5.48 
-0.2626065938442565 1:1.38E7 2:4.0 3:4.833333333333333 4:4.833333333333333 5:232.0 6:5.48 
-0.39152517741301796 1:1.38E7 2:1.0 3:3.4 4:3.4 5:232.0 6:5.48 
-0.4217624129546554 1:7670000.0 2:6.0 3:3.25 4:3.25 5:262.0 6:5.92 
-0.4222716063574987 1:7670000.0 2:37.0 3:2.5 4:2.5 5:262.0 6:5.92 
-0.4217807627668148 1:7670000.0 2:0.0 3:1.25 4:1.25 5:262.0 6:5.92 
-0.34531999290020293 1:5.05E7 2:14.0 3:6.0 4:6.0 5:103.0 6:4.3 
-0.42183051403395505 1:5400000.0 2:0.0 3:8.0 4:8.0 5:36.0 6:2.1 
-0.37211926737922435 1:5.05E7 2:0.0 3:6.666666666666667 4:6.666666666666667 5:103.0 6:4.3 
-0.37182746564008406 1:5.05E7 2:3.0 3:8.0 4:8.0 5:103.0 6:4.3 
-1.0 1:1.14E7 2:0.0 3:0.0 4:0.0 5:56.0 6:1.88 
-0.3453199654665469 1:5.05E7 2:13.0 3:8.0 4:8.0 5:103.0 6:4.3 
-0.42225151994954674 1:2530000.0 2:9.0 3:4.333333333333333 4:4.333333333333333 5:63.0 6:3.16 
-0.42222807531679557 1:1.83E7 2:0.0 3:0.0 4:0.0 5:110.0 6:2.44 
-0.23267549536284107 1:1.23E7 2:2.0 3:1.8 4:1.8 5:261.0 6:6.52 
-0.42222065858576857 1:8650000.0 2:0.0 3:0.0 4:0.0 5:149.0 6:3.8 
-0.42215172187918204 1:1.33E7 2:44.0 3:2.75 4:2.75 5:262.0 6:6.92 
-0.42214793857094673 1:2.32E7 2:0.0 3:0.0 4:0.0 5:184.0 6:4.52 
-0.23346347915739193 1:1.23E7 2:1.0 3:2.1666666666666665 4:2.1666666666666665 5:261.0 6:6.52 
-0.4221242156418505 1:248000.0 2:0.0 3:0.0 4:0.0 5:70.0 6:1.5 
-0.26748402547174377 1:5400000.0 2:4.0 3:2.5 4:2.5 5:67.0 6:3.12 
-0.3508608202040536 1:5400000.0 2:5.0 3:4.5 4:4.5 5:67.0 6:3.12 
-0.41969221240114196 1:5400000.0 2:8.0 3:0.0 4:0.0 5:67.0 6:3.12 
-0.3559189579000735 1:5400000.0 2:1.0 3:3.0 4:3.0 5:67.0 6:3.12 
-0.2331693389823138 1:246.0 2:46.0 3:5.0 4:5.0 5:103.0 6:2.64 
-0.2321455587115266 1:246.0 2:47.0 3:5.333333333333333 4:5.333333333333333 5:103.0 6:2.64 
-0.42124171200944255 1:246.0 2:7.0 3:5.0 4:5.0 5:103.0 6:2.64 
-0.42210923821526997 1:2390000.0 2:0.0 3:9.5 4:9.5 5:83.0 6:2.88 
-0.4213349016522429 1:246.0 2:12.0 3:7.5 4:7.5 5:103.0 6:2.64 
-0.4223084722682669 1:246.0 2:19.0 3:6.5 4:6.5 5:103.0 6:2.64 
-0.28684247439297617 1:359000.0 2:1.0 3:2.5 4:2.5 5:91.0 6:3.0 
-0.4225287197555912 1:359000.0 2:29.0 3:3.5 4:3.5 5:91.0 6:3.0 
-0.4224832936913844 1:54700.0 2:0.0 3:0.0 4:0.0 5:43.0 6:0.92 
-0.4223829391887585 1:359000.0 2:49.0 3:4.5 4:4.5 5:91.0 6:3.0 
-0.2865180104168042 1:359000.0 2:3.0 3:3.0 4:3.0 5:91.0 6:3.0 
-0.422176235377876 1:191.0 2:0.0 3:0.0 4:0.0 5:104.0 6:2.24 
-0.4223460976411529 1:907000.0 2:0.0 3:6.75 4:6.75 5:207.0 6:5.08 
-0.4163008760578429 1:8670000.0 2:23.0 3:1.3333333333333333 4:1.3333333333333333 5:143.0 6:3.32 
-0.4217081295957326 1:8670000.0 2:34.0 3:2.6 4:2.6 5:143.0 6:3.32 
-0.41620030204048825 1:8670000.0 2:27.0 3:3.5 4:3.5 5:143.0 6:3.32 
-0.05709142944790846 1:309000.0 2:0.0 3:3.25 4:3.25 5:75.0 6:1.68 
-0.5542838030572776 1:309000.0 2:1.0 3:2.5 4:2.5 5:75.0 6:1.68 
-0.42218653076733065 1:309000.0 2:22.0 3:5.0 4:5.0 5:75.0 6:1.68 
-0.42171508267953406 1:309000.0 2:3.0 3:7.0 4:7.0 5:75.0 6:1.68 
-0.42218285546033246 1:4690.0 2:1.0 3:5.0 4:5.0 5:44.0 6:1.3 
-0.4221758815189621 1:31800.0 2:8.0 3:3.0 4:3.0 5:65.0 6:1.56 
-0.42216232462846404 1:3120000.0 2:34.0 3:8.0 4:8.0 5:143.0 6:5.64 
-0.42214911180274556 1:2.25E7 2:0.0 3:8.0 4:8.0 5:56.0 6:1.84 
-0.4169781204847334 1:3120000.0 2:6.0 3:3.5 4:3.5 5:143.0 6:5.64 
-0.42213085729400457 1:2170000.0 2:0.0 3:5.0 4:5.0 5:128.0 6:4.5 
-0.41723057869169144 1:3120000.0 2:9.0 3:6.5 4:6.5 5:143.0 6:5.64 
-0.41613861251627543 1:5.43E7 2:8.0 3:3.5 4:3.5 5:201.0 6:6.26 
-0.4220978120832129 1:6.21E7 2:0.0 3:0.0 4:0.0 5:72.0 6:2.68 
-0.365898063199824 1:5.43E7 2:3.0 3:3.0 4:3.0 5:201.0 6:6.26 
-0.3680975261431903 1:5.43E7 2:1.0 3:5.0 4:5.0 5:201.0 6:6.26 
-0.4179666913474016 1:5.43E7 2:5.0 3:7.5 4:7.5 5:201.0 6:6.26 
-0.4223336540899643 1:215000.0 2:2.0 3:10.5 4:10.5 5:36.0 6:1.0816326530612246 
-0.42200317561559325 1:215000.0 2:26.0 3:5.0 4:5.0 5:36.0 6:1.0816326530612246 
-0.30572183164895617 1:215000.0 2:4.0 3:5.0 4:5.0 5:36.0 6:1.0816326530612246 
-0.40083152225573054 1:215000.0 2:0.0 3:5.0 4:5.0 5:36.0 6:1.0816326530612246 
-0.34705887979174666 1:215000.0 2:7.0 3:5.0 4:5.0 5:36.0 6:1.0816326530612246 
-0.01425227706043758 1:215000.0 2:5.0 3:5.5 4:5.5 5:36.0 6:1.0816326530612246 
-0.4222285842118313 1:188000.0 2:17.0 3:2.0 4:2.0 5:150.0 6:3.28 
-0.421979043110989 1:188000.0 2:43.0 3:0.0 4:0.0 5:150.0 6:3.28 
-0.4162695422205657 1:188000.0 2:2.0 3:1.5 4:1.5 5:150.0 6:3.28 
-0.42193051610248067 1:297000.0 2:30.0 3:4.5 4:4.5 5:181.0 6:4.64 
-0.4161466901701168 1:188000.0 2:6.0 3:3.6666666666666665 4:3.6666666666666665 5:150.0 6:3.28 
-0.42185712054192703 1:3.31E7 2:0.0 3:1.25 4:1.25 5:104.0 6:2.22 
-0.421606495278437 1:188000.0 2:24.0 3:5.0 4:5.0 5:150.0 6:3.28 
-0.4218145277477783 1:1.17E7 2:0.0 3:5.75 4:5.75 5:227.0 6:4.9 
-0.4217253098126561 1:1950000.0 2:0.0 3:9.5 4:9.5 5:70.0 6:2.18 
