svm_type c_svc
kernel_type rbf
gamma 0.0625
nr_class 2
total_sv 6632
rho 0.7268117414687473
label 1 -1
nr_sv 923 5709
SV
1.7268542233409256 1:1.47E7 2:0.0 3:0.0 4:102.0 5:2.06 6:0.42 7:22.84 8:0.0 9:0.40749 10:0.18460545454545452 11:5.0 12:19.0 13:6.217391304347826 14:0.0 15:0.0 16:0.0 17:0.12162530422210693 18:0.44327253103256226 19:0.0 20:5.0 
1.7269174702646686 1:1500000.0 2:0.0 3:0.0 4:63.0 5:1.42 6:0.72 7:18.8 8:0.41525 9:0.60011 10:0.5080403846153845 11:1.0 12:1.0 13:1.0 14:1.0 15:1.0 16:1.0 17:0.732824444770813 18:0.732824444770813 19:0.0 20:0.0 
2049.7270026291853 1:134000.0 2:8.0 3:8.0 4:3.0 5:0.06 6:0.0 7:25.0 8:0.0 9:0.0 10:0.0 11:0.0 12:0.0 13:0.0 14:0.0 15:0.0 16:0.0 17:0.0 18:0.0 19:2.147483647E9 20:0.0 
1.7269028887951807 1:2.69E7 2:0.0 3:0.0 4:69.0 5:1.46 6:0.54 7:17.44 8:0.0 9:0.52657 10:0.2663044 11:19.0 12:65.0 13:61.32 14:0.0 15:0.8658552169799805 16:0.7965867996215821 17:0.12162530422210693 18:0.40567952394485474 19:0.0 20:5.0 
1.7268386695921896 1:3030000.0 2:0.0 3:0.0 4:58.0 5:3.98 6:0.0 7:25.0 8:0.0 9:0.0 10:0.0 11:10.0 12:11.0 13:10.166666666666666 14:0.0 15:0.0 16:0.0 17:0.015834173187613487 18:0.0965866819024086 19:0.0 20:5.0 
53.63788691815986 1:9740000.0 2:2.5 3:2.5 4:32.0 5:1.48 6:0.0 7:25.0 8:0.0 9:0.0 10:0.0 11:11.0 12:19.0 13:13.666666666666666 14:0.0 15:0.0 16:0.0 17:0.0965866819024086 18:0.12162530422210693 19:0.0 20:5.0 
1.7862536509096558 1:1.45E7 2:0.0 3:0.0 4:43.0 5:1.96 6:0.2 7:22.24 8:0.0 9:0.29803 10:0.15823666666666666 11:1.0 12:19.0 13:9.916666666666666 14:0.0 15:1.0 16:0.6508302936951319 17:0.002627970650792122 18:0.12162530422210693 19:0.0 20:5.0 
1026.4500903816631 1:2400000.0 2:2.0 3:2.0 4:70.0 5:1.64 6:0.12 7:23.24 8:0.0 9:0.45131 10:0.151754 11:13.0 12:13.0 13:13.0 14:0.14327485859394073 15:0.14327485859394073 16:0.14327485859394073 17:0.3589743673801422 18:0.3589743673801422 19:0.0 20:0.0 
1.7269992846557845 1:1830000.0 2:0.0 3:0.0 4:32.0 5:1.36 6:0.46 7:21.16 8:0.0 9:0.3473 10:0.24294409090909094 11:3.0 12:11.0 13:3.347826086956522 14:0.0 15:0.9796379804611206 16:0.937045024788898 17:0.0965866819024086 18:0.16767600178718567 19:0.0 20:0.0 
1.7269965452918274 1:1910000.0 2:0.0 3:0.0 4:133.0 5:2.68 6:0.16 7:21.48 8:0.0 9:0.35342 10:0.19885166666666665 11:69.0 12:533.0 13:201.57142857142858 14:0.0 15:0.5752212405204773 16:0.4108723146574838 17:0.11142882704734802 18:0.12513256072998047 19:0.0 20:1.0 
1.726993987045243 1:1240000.0 2:0.0 3:0.0 4:33.0 5:1.6 6:0.5 7:17.16 8:0.0 9:0.70375 10:0.39529478260869555 11:2.0 12:11.0 13:2.96 14:0.0 15:0.9800000190734863 16:0.83994420170784 17:0.0606468990445137 18:0.6516128778457642 19:0.0 20:2.0 
1.7269939864724193 1:6010000.0 2:0.0 3:0.0 4:29.0 5:1.78 6:0.24 7:21.92 8:0.0 9:0.3483 10:0.239751 11:4.0 12:4.0 13:4.0 14:0.8549107313156128 15:0.8549107313156128 16:0.8549107313156128 17:0.14877402782440186 18:0.14877402782440186 19:0.0 20:0.0 
1.7269930458482852 1:1040000.0 2:0.0 3:0.0 4:38.0 5:1.26 6:1.16 7:12.6 8:0.5 9:0.91812 10:0.6812273333333334 11:1.0 12:1.0 13:1.0 14:1.0 15:1.0 16:1.0 17:1.0 18:1.0 19:0.0 20:0.0 
1.726992043411751 1:1.2E8 2:0.0 3:0.0 4:60.0 5:2.36 6:0.0 7:25.0 8:0.0 9:0.0 10:0.0 11:11.0 12:19.0 13:16.2 14:0.0 15:0.0 16:0.0 17:0.0965866819024086 18:0.12162530422210693 19:0.0 20:4.0 
1.7269006198127028 1:5.83E8 2:5.5 3:5.5 4:36.0 5:1.12 6:0.0 7:25.0 8:0.0 9:0.0 10:0.0 11:11.0 12:19.0 13:18.157894736842106 14:0.0 15:0.0 16:0.0 17:0.0965866819024086 18:0.12162530422210693 19:0.0 20:4.0 
1.7393771081647293 1:1.46E7 2:6.0 3:6.0 4:65.0 5:1.4 6:0.42 7:18.16 8:0.0 9:0.37233 10:0.22713049999999999 11:19.0 12:74.0 13:68.5 14:0.0 15:0.9101319313049316 16:0.8191187381744385 17:0.12162530422210693 18:0.35781973600387573 19:2.0 20:6.0 
1.726993452165095 1:3650000.0 2:0.0 3:0.0 4:204.0 5:4.1 6:0.0 7:25.0 8:0.0 9:0.0 10:0.0 11:19.0 12:146.0 13:139.65 14:0.0 15:0.0 16:0.0 17:0.12162530422210693 18:0.3215160667896271 19:0.0 20:5.0 
1.755032947353018 1:1.9E7 2:3.0 3:3.0 4:63.0 5:1.3 6:0.38 7:18.8 8:0.0 9:0.41031 10:0.1989236842105263 11:11.0 12:146.0 13:112.15789473684211 14:0.0 15:0.9265382289886475 16:0.6827123792547929 17:0.0965866819024086 18:0.3215160667896271 19:0.0 20:4.0 
1.8555885797768272 1:2.47E7 2:0.0 3:0.0 4:46.0 5:1.62 6:0.02 7:25.0 8:0.0 9:0.21303 10:0.07101 11:2.0 12:11.0 13:8.0 14:0.0 15:0.9768339991569519 16:0.3256113330523173 17:0.03433813899755478 18:0.0965866819024086 19:0.0 20:0.0 
1.726993305771919 1:209000.0 2:0.0 3:0.0 4:95.0 5:2.14 6:0.0 7:25.0 8:0.0 9:0.0 10:0.0 11:66.0 12:66.0 13:66.0 14:0.006872852332890034 15:0.006872852332890034 16:0.006872852332890034 17:0.10951008647680283 18:0.10951008647680283 19:0.0 20:0.0 
1.726993922550047 1:1260000.0 2:0.0 3:0.0 4:63.0 5:3.08 6:0.0 7:25.0 8:0.0 9:0.0 10:0.0 11:0.0 12:0.0 13:0.0 14:0.0 15:0.0 16:0.0 17:0.0 18:0.0 19:2.147483647E9 20:0.0 
2049.726993769924 1:7.28E8 2:0.0 3:0.0 4:40.0 5:1.6 6:0.0 7:25.0 8:0.0 9:0.0 10:0.0 11:11.0 12:19.0 13:17.22222222222222 14:0.0 15:0.0 16:0.0 17:0.0965866819024086 18:0.12162530422210693 19:0.0 20:5.0 
1026.1557899480533 1:1.48E7 2:0.0 3:0.0 4:90.0 5:1.86 6:0.48 7:19.88 8:0.0 9:0.39939 10:0.19818375 11:86.0 12:86.0 13:86.0 14:0.7875804305076599 15:0.7875804305076599 16:0.7875804305076599 17:0.37964701652526855 18:0.37964701652526855 19:0.0 20:0.0 
1.7271653623144265 1:689.0 2:1.0 3:1.0 4:40.0 5:1.02 6:0.0 7:25.0 8:0.0 9:0.0 10:0.0 11:19.0 12:19.0 13:19.0 14:0.0 15:0.0 16:0.0 17:0.12162530422210693 18:0.12162530422210693 19:5.0 20:5.0 
1.7269936914455548 1:3640000.0 2:0.0 3:0.0 4:60.0 5:1.46 6:0.58 7:19.88 8:0.0 9:0.50555 10:0.17239073170731706 11:3.0 12:30.0 13:25.097560975609756 14:0.0 15:0.8367347121238708 16:0.411709808721775 17:0.12162530422210693 18:0.4943527281284332 19:0.0 20:5.0 
1.7266959926354946 1:357000.0 2:0.0 3:0.0 4:150.0 5:3.32 6:0.0 7:25.0 8:0.0 9:0.0 10:0.0 11:0.0 12:0.0 13:0.0 14:0.0 15:0.0 16:0.0 17:0.0 18:0.0 19:2.147483647E9 20:0.0 
1.7263161865660024 1:1760000.0 2:0.0 3:0.0 4:64.0 5:1.4 6:0.58 7:20.2 8:0.0 9:0.62322 10:0.49691217391304343 11:1.0 12:19.0 13:1.75 14:0.0 15:1.0 16:0.9583333333333334 17:0.12162530422210693 18:0.6661490797996521 19:0.0 20:5.0 
3.629398651064504 1:3.72E7 2:5.0 3:5.0 4:36.0 5:1.28 6:0.08 7:22.68 8:0.0 9:0.35964 10:0.11208200000000001 11:11.0 12:27.0 13:22.2 14:0.0 15:0.5215947031974792 16:0.2607973515987396 17:0.0075966850854456425 18:0.12162530422210693 19:0.0 20:5.0 
1.7262947463587017 1:1.9E7 2:0.0 3:0.0 4:49.0 5:1.54 6:0.2 7:23.8 8:0.0 9:0.30746 10:0.10381052631578946 11:7.0 12:26.0 13:18.047619047619047 14:0.0 15:0.8993055820465088 16:0.3425926026843843 17:0.07476396858692169 18:0.18768946826457977 19:0.0 20:1.0 
1.7269685613658343 1:2.21E7 2:0.0 3:0.0 4:35.0 5:1.76 6:0.1 7:24.24 8:0.0 9:0.2757 10:0.025267142857142856 11:1.0 12:36.0 13:8.137931034482758 14:0.0 15:0.5954198241233826 16:0.023555874567607354 17:0.001904958044178784 18:0.0965866819024086 19:0.0 20:8.0 
1.7339697659235869 1:179000.0 2:0.0 3:0.0 4:140.0 5:2.86 6:0.0 7:25.0 8:0.0 9:0.0 10:0.0 11:1.0 12:19.0 13:6.6 14:0.0 15:0.0 16:0.0 17:0.0965866819024086 18:0.6901840567588806 19:0.0 20:4.0 
1.7266120509448626 1:1180000.0 2:0.0 3:0.0 4:76.0 5:1.62 6:1.12 7:16.04 8:0.0 9:0.69019 10:0.478474 11:1.0 12:19.0 13:1.9 14:0.0 15:1.0 16:0.95 17:0.12162530422210693 18:0.6901840567588806 19:0.0 20:5.0 
1.726926065167028 1:8890000.0 2:0.0 3:0.0 4:50.0 5:2.72 6:0.0 7:25.0 8:0.0 9:0.0 10:0.0 11:19.0 12:19.0 13:19.0 14:0.0 15:0.0 16:0.0 17:0.12162530422210693 18:0.12162530422210693 19:4.0 20:4.0 
1.72668619232894 1:2.03E7 2:0.0 3:0.0 4:43.0 5:1.54 6:0.52 7:21.12 8:0.0 9:0.35103 10:0.2488452380952381 11:2.0 12:45.0 13:7.2272727272727275 14:0.11224489659070969 15:0.9701492786407471 16:0.8840878141874616 17:0.05771248787641525 18:0.1480395793914795 19:0.0 20:7.0 
43.18764013394123 1:391000.0 2:3.0 3:3.0 4:9.0 5:1.18 6:0.0 7:25.0 8:0.0 9:0.0 10:0.0 11:11.0 12:11.0 13:11.0 14:0.0 15:0.0 16:0.0 17:0.0965866819024086 18:0.0965866819024086 19:0.0 20:0.0 
1025.7269941198579 1:2.14E7 2:0.0 3:0.0 4:63.0 5:1.4042553191489362 6:0.0 7:25.0 8:0.0 9:0.0 10:0.0 11:11.0 12:188.0 13:45.0 14:0.0 15:0.318708598613739 16:0.028914935027177516 17:0.02483333647251129 18:0.15810012817382812 19:0.0 20:5.0 
1.7269963815191307 1:3570000.0 2:0.0 3:0.0 4:45.0 5:3.24 6:0.32 7:23.16 8:0.0 9:0.29536 10:0.11787083333333333 11:21.0 12:64.0 13:56.5 14:0.0 15:0.5995762944221497 16:0.213066836198171 17:0.04813602939248085 18:0.07710404694080353 19:0.0 20:2.0 
1.7269968632388015 1:6.29E7 2:0.0 3:0.0 4:79.0 5:1.58 6:1.14 7:14.48 8:0.0 9:0.77658 10:0.34226837209302313 11:19.0 12:59.0 13:58.06976744186046 14:0.0 15:0.8861677646636963 16:0.8655592119970987 17:0.12162530422210693 18:0.47858479619026184 19:0.0 20:4.0 
1025.7269967220243 1:1590000.0 2:2.0 3:2.0 4:5.0 5:0.2 6:0.0 7:25.0 8:0.0 9:0.0 10:0.0 11:19.0 12:19.0 13:19.0 14:0.0 15:0.0 16:0.0 17:0.12162530422210693 18:0.12162530422210693 19:4.0 20:4.0 
1.9960895760070967 1:3.17E7 2:1.0 3:1.0 4:52.0 5:1.9 6:0.08 7:24.0 8:0.0 9:0.21978 10:0.03663 11:19.0 12:71.0 13:45.0 14:0.0 15:0.4278017282485962 16:0.2139008641242981 17:0.0760233923792839 18:0.12162530422210693 19:1.0 20:5.0 
1025.7264403005358 1:9300000.0 2:0.0 3:0.0 4:56.0 5:1.4791666666666667 6:0.2708333333333333 7:21.08 8:0.0 9:0.26413 10:0.1723941666666667 11:11.0 12:816.0 13:682.5 14:0.0 15:0.812152624130249 16:0.6767938534418741 17:0.055736836045980453 18:0.12162530422210693 19:0.0 20:3.0 
1.726997560736252 1:4390000.0 2:0.0 3:0.0 4:61.0 5:1.76 6:0.0 7:25.0 8:0.0 9:0.0 10:0.0 11:19.0 12:49.0 13:20.2 14:0.0 15:0.5636998414993286 16:0.022547993659973144 17:0.025785792618989944 18:0.12162530422210693 19:0.0 20:5.0 
1.7269969677842882 1:77500.0 2:0.0 3:0.0 4:31.0 5:2.3 6:0.04 7:25.0 8:0.0 9:0.33656 10:0.05041454545454546 11:3.0 12:24.0 13:6.818181818181818 14:0.0 15:0.013522650115191936 16:0.002458663657307625 17:0.020330624654889107 18:0.3096129894256592 19:0.0 20:0.0 
1025.7268215785793 1:9590000.0 2:0.0 3:0.0 4:25.0 5:1.12 6:0.16 7:22.44 8:0.0 9:0.28695 10:0.11925 11:11.0 12:31.0 13:24.0 14:0.0 15:0.7569230794906616 16:0.3784615397453308 17:0.0019396203570067883 18:0.12162530422210693 19:0.0 20:2.0 
1.726517658958931 1:1.03E7 2:0.0 3:0.0 4:68.0 5:1.66 6:0.0 7:25.0 8:0.0 9:0.0 10:0.0 11:11.0 12:19.0 13:18.428571428571427 14:0.0 15:0.0 16:0.0 17:0.0965866819024086 18:0.12162530422210693 19:0.0 20:4.0 
2.0035259686092326 1:1.88E7 2:0.0 3:0.0 4:51.0 5:1.56 6:0.26 7:22.96 8:0.0 9:0.3167 10:0.16735312500000002 11:10.0 12:23.0 13:20.0625 14:0.0 15:0.6662030816078186 16:0.4939735224470496 17:0.015200648456811905 18:0.12162530422210693 19:0.0 20:4.0 
1.7269961453876008 1:5370000.0 2:0.0 3:0.0 4:148.0 5:3.06 6:0.0 7:25.0 8:0.0 9:0.0 10:0.0 11:0.0 12:0.0 13:0.0 14:0.0 15:0.0 16:0.0 17:0.0 18:0.0 19:2.147483647E9 20:0.0 
1.7269933025627306 1:2.28E7 2:0.0 3:0.0 4:93.0 5:1.94 6:0.26 7:23.96 8:0.0 9:0.23746 10:0.14588 11:19.0 12:79.0 13:62.666666666666664 14:0.0 15:0.9588847160339355 16:0.6411419204539723 17:0.013910086825489998 18:0.14706391096115112 19:0.0 20:5.0 
1.7270038159551298 1:9710000.0 2:0.0 3:0.0 4:65.0 5:3.4 6:0.0 7:25.0 8:0.0 9:0.0 10:0.0 11:11.0 12:104.0 13:39.8 14:0.0 15:4.900759668089449E-4 16:9.801519336178899E-5 17:0.007118802051991224 18:0.032563287764787674 19:2.0 20:3.0 
1.7270037437897787 1:2960000.0 2:0.0 3:0.0 4:46.0 5:2.82 6:0.0 7:25.0 8:0.0 9:0.0 10:0.0 11:11.0 12:53.0 13:34.25 14:0.0 15:0.003821656107902527 16:0.0019108280539512634 17:0.011220453307032585 18:0.0965866819024086 19:0.0 20:3.0 
1.7270014995840408 1:1000000.0 2:1.3333333333333333 3:1.3333333333333333 4:137.0 5:5.58 6:0.0 7:25.0 8:0.0 9:0.0 10:0.0 11:0.0 12:0.0 13:0.0 14:0.0 15:0.0 16:0.0 17:0.0 18:0.0 19:2.147483647E9 20:0.0 
1025.7270089362198 1:1.22E7 2:0.0 3:0.0 4:85.0 5:1.72 6:0.5 7:18.24 8:0.0 9:0.38462 10:0.24758333333333335 11:277.0 12:277.0 13:277.0 14:0.7721014618873596 15:0.7721014618873596 16:0.7721014618873596 17:0.25547200441360474 18:0.25547200441360474 19:0.0 20:0.0 
1.8734936756137632 1:8690000.0 2:1.0 3:1.0 4:65.0 5:1.94 6:0.0 7:25.0 8:0.0 9:0.0 10:0.0 11:6.0 12:64.0 13:32.7 14:0.0 15:0.0028368793427944183 16:5.673758685588836E-4 17:0.031777575612068176 18:0.16977329552173615 19:0.0 20:8.0 
1.7270283449524575 1:3010000.0 2:0.0 3:0.0 4:195.0 5:3.9 6:0.0 7:25.0 8:0.0 9:0.0 10:0.0 11:146.0 12:146.0 13:146.0 14:0.0 15:0.0 16:0.0 17:0.3215160667896271 18:0.3215160667896271 19:0.0 20:0.0 
1.7270279627951761 1:1.4E8 2:0.0 3:0.0 4:73.0 5:3.02 6:0.08 7:24.32 8:0.0 9:0.2879 10:0.08017 11:19.0 12:25.0 13:19.666666666666668 14:0.0 15:0.14771519601345062 16:0.03397443393866221 17:0.02190476283431053 18:0.12162530422210693 19:0.0 20:4.0 
1025.7269815677369 1:9490000.0 2:0.0 3:0.0 4:78.0 5:1.58 6:0.96 7:14.56 8:0.0 9:0.45044 10:0.2798722222222222 11:19.0 12:66.0 13:64.69444444444444 14:0.0 15:0.9163225889205933 16:0.890869183672799 17:0.12162530422210693 18:0.37128135561943054 19:0.0 20:4.0 
1.7269231578025004 1:2.66E7 2:0.0 3:0.0 4:48.0 5:1.72 6:0.68 7:17.24 8:0.0 9:0.40134 10:0.244448 11:2.0 12:19.0 13:12.28 14:0.0 15:0.9881656765937805 16:0.8893990874290466 17:0.0965866819024086 18:0.17558401823043823 19:0.0 20:5.0 
1.7270310542251566 1:144000.0 2:0.0 3:0.0 4:105.0 5:2.2 6:0.0 7:25.0 8:0.0 9:0.0 10:0.0 11:0.0 12:0.0 13:0.0 14:0.0 15:0.0 16:0.0 17:0.0 18:0.0 19:2.147483647E9 20:0.0 
1.9187258309193096 1:4.74E7 2:3.3333333333333335 3:3.3333333333333335 4:135.0 5:3.74 6:0.0 7:25.0 8:0.0 9:0.0 10:0.0 11:11.0 12:14.0 13:12.5 14:0.0 15:0.0 16:0.0 17:0.0965866819024086 18:0.1898050308227539 19:0.0 20:1.0 
1.7967028300579677 1:6940000.0 2:0.0 3:0.0 4:27.0 5:1.2 6:0.0 7:25.0 8:0.0 9:0.0 10:0.0 11:11.0 12:19.0 13:17.0 14:0.0 15:0.0 16:0.0 17:0.0965866819024086 18:0.12162530422210693 19:0.0 20:5.0 
1.7270481524670207 1:3.66E7 2:0.0 3:0.0 4:74.0 5:1.54 6:1.1 7:15.96 8:0.0 9:0.5082 10:0.3343275609756097 11:19.0 12:66.0 13:61.8780487804878 14:0.0 15:0.9470316767692566 16:0.8560901426869195 17:0.031837161630392075 18:0.5034438967704773 19:0.0 20:5.0 
1.7741354758277694 1:3800000.0 2:1.0 3:1.0 4:49.0 5:1.46 6:0.12 7:23.36 8:0.0 9:0.36637 10:0.10490266666666666 11:2.0 12:19.0 13:7.6 14:0.0 15:0.9495515823364258 16:0.7463378270467123 17:0.03940886631608009 18:0.4059751331806183 19:1.0 20:5.0 
1.7270274262151581 1:7130000.0 2:0.0 3:0.0 4:73.0 5:1.48 6:0.7 7:19.32 8:0.0 9:0.35809 10:0.2610758333333334 11:19.0 12:28.0 13:27.25 14:0.0 15:0.9417383074760437 16:0.8632601151863734 17:0.12162530422210693 18:0.29680687189102173 19:0.0 20:5.0 
1.7270375809270595 1:2650000.0 2:0.0 3:0.0 4:21.0 5:0.86 6:0.0 7:25.0 8:0.0 9:0.0 10:0.0 11:19.0 12:19.0 13:19.0 14:0.0 15:0.0 16:0.0 17:0.12162530422210693 18:0.12162530422210693 19:3.0 20:3.0 
1.7270370767901548 1:8950000.0 2:0.0 3:0.0 4:22.0 5:1.42 6:1.08 7:15.08 8:0.0 9:0.76931 10:0.5157528947368422 11:2.0 12:7.0 13:6.871794871794871 14:0.7692307829856873 15:0.9039999842643738 16:0.9005443637187664 17:0.14432989060878754 18:0.7514970302581787 19:0.0 20:1.0 
1.7272533456351562 1:2.29E7 2:0.0 3:0.0 4:50.0 5:3.26 6:0.3 7:22.76 8:0.0 9:0.30725 10:0.08215833333333335 11:5.0 12:33.0 13:16.0 14:0.0 15:0.7168674468994141 16:0.20512743304042438 17:0.018370669335126877 18:0.08064721524715424 19:0.0 20:5.0 
3075.5957169007406 1:1.03E8 2:3.5 3:3.5 4:30.0 5:1.4 6:0.0 7:25.0 8:0.0 9:0.0 10:0.0 11:3.0 12:19.0 13:6.368421052631579 14:0.0 15:0.0 16:0.0 17:0.11071286350488663 18:0.12162530422210693 19:0.0 20:4.0 
1.7749710737096396 1:1050000.0 2:6.75 3:6.75 4:69.0 5:1.48 6:0.0 7:25.0 8:0.0 9:0.0 10:0.0 11:9.0 12:9.0 13:9.0 14:0.0 15:0.0 16:0.0 17:0.09583333134651184 18:0.09583333134651184 19:0.0 20:0.0 
1.7268174529145608 1:4690000.0 2:0.0 3:0.0 4:43.0 5:1.54 6:0.62 7:20.76 8:0.0 9:0.31444 10:0.21161619047619049 11:7.0 12:11.0 13:7.181818181818182 14:0.0 15:0.9731183052062988 16:0.9288856549696489 17:0.0965866819024086 18:0.14947116374969482 19:0.0 20:0.0 
1032.896304031628 1:4060000.0 2:3.5 3:3.5 4:45.0 5:1.66 6:0.0 7:25.0 8:0.0 9:0.0 10:0.0 11:7.0 12:11.0 13:7.4 14:0.0 15:0.0 16:0.0 17:0.0965866819024086 18:0.14947116374969482 19:0.0 20:0.0 
1.7270387179093383 1:1.49E7 2:0.0 3:0.0 4:77.0 5:1.54 6:0.74 7:16.76 8:0.0 9:0.38136 10:0.24994571428571422 11:74.0 12:74.0 13:74.0 14:0.9101319313049316 15:0.9101319313049316 16:0.9101319313049316 17:0.35781973600387573 18:0.35781973600387573 19:0.0 20:0.0 
1.7270438236575434 1:6500000.0 2:2.0 3:2.0 4:142.0 5:3.0 6:0.0 7:25.0 8:0.0 9:0.0 10:0.0 11:44.0 12:51.0 13:47.23880597014925 14:0.0 15:2.526847820263356E-4 16:1.3577092765594152E-4 17:0.34999778866767883 18:0.4621272385120392 19:0.0 20:0.0 
3073.7270467768735 1:2.15E7 2:0.0 3:0.0 4:55.0 5:1.94 6:0.0 7:25.0 8:0.0 9:0.0 10:0.0 11:0.0 12:0.0 13:0.0 14:0.0 15:0.0 16:0.0 17:0.0 18:0.0 19:2.147483647E9 20:0.0 
1.8735866226790312 1:3580000.0 2:4.5 3:4.5 4:35.0 5:1.02 6:0.0 7:25.0 8:0.0 9:0.0 10:0.0 11:19.0 12:19.0 13:19.0 14:0.0 15:0.0 16:0.0 17:0.12162530422210693 18:0.12162530422210693 19:5.0 20:5.0 
1.7268482448518259 1:192000.0 2:0.0 3:0.0 4:64.0 5:1.32 6:0.32 7:20.0 8:0.0 9:0.46005 10:0.31854249999999995 11:15.0 12:15.0 13:15.0 14:0.2951388955116272 15:0.2951388955116272 16:0.2951388955116272 17:0.36103034019470215 18:0.36103034019470215 19:1.0 20:1.0 
2.858082915468192 1:6670000.0 2:1.0 3:1.0 4:69.0 5:1.68 6:0.04 7:23.24 8:0.0 9:0.26748 10:0.10136 11:19.0 12:64.0 13:37.0 14:0.0 15:0.8997449278831482 16:0.3598979711532593 17:0.075344979763031 18:0.12162530422210693 19:1.0 20:5.0 
1.7269403431732262 1:1490000.0 2:0.0 3:0.0 4:85.0 5:2.84 6:0.06 7:23.84 8:0.0 9:0.21308 10:0.018083913043478263 11:41.0 12:68.0 13:44.11538461538461 14:0.0 15:0.2016129046678543 16:0.0232630274616755 17:0.0706220492720604 18:0.24246075749397278 19:0.0 20:2.0 
1.7268914016000405 1:1320000.0 2:5.0 3:5.0 4:62.0 5:3.44 6:0.0 7:25.0 8:0.0 9:0.0 10:0.0 11:17.0 12:17.0 13:17.0 14:0.0 15:0.0 16:0.0 17:0.017951801419258118 18:0.017951801419258118 19:7.0 20:7.0 
2.209875886005921 1:1.03E7 2:0.0 3:0.0 4:23.0 5:1.28 6:0.0 7:25.0 8:0.0 9:0.0 10:0.0 11:10.0 12:10.0 13:10.0 14:0.7881041169166565 15:0.7881041169166565 16:0.7881041169166565 17:0.00849197432398796 18:0.00849197432398796 19:0.0 20:0.0 
1.7268852907038406 1:2250000.0 2:0.0 3:0.0 4:50.0 5:2.48 6:0.0 7:25.0 8:0.0 9:0.0 10:0.0 11:3.0 12:9.0 13:7.363636363636363 14:0.0 15:0.014492753893136978 16:0.010540184649554167 17:0.019659623503684998 18:0.0803680419921875 19:0.0 20:1.0 
1.727045883886446 1:2720000.0 2:0.0 3:0.0 4:32.0 5:2.8 6:0.24 7:23.12 8:0.0 9:0.29156 10:0.1633685714285714 11:9.0 12:52.0 13:27.714285714285715 14:0.0 15:0.8243831396102905 16:0.3685599906103952 17:0.0017477816436439753 18:0.12162530422210693 19:0.0 20:4.0 
1025.7270521896455 1:178000.0 2:1.5 3:1.5 4:94.0 5:2.44 6:0.0 7:25.0 8:0.0 9:0.0 10:0.0 11:0.0 12:0.0 13:0.0 14:0.0 15:0.0 16:0.0 17:0.0 18:0.0 19:2.147483647E9 20:0.0 
1.7255173630162424 1:2660000.0 2:0.0 3:0.0 4:29.0 5:0.86 6:0.0 7:25.0 8:0.0 9:0.0 10:0.0 11:11.0 12:19.0 13:15.0 14:0.0 15:0.0 16:0.0 17:0.0965866819024086 18:0.12162530422210693 19:0.0 20:5.0 
1.7270546304063394 1:5400000.0 2:0.0 3:0.0 4:28.0 5:1.44 6:0.5 7:20.44 8:0.0 9:0.33382 10:0.24940550000000009 11:2.0 12:19.0 13:3.75 14:0.0 15:0.9940711259841919 16:0.9051350593566895 17:0.10442407429218292 18:0.12162530422210693 19:0.0 20:5.0 
6.710847870407285 1:3460000.0 2:3.5 3:3.5 4:81.0 5:1.78 6:0.0 7:25.0 8:0.0 9:0.0 10:0.0 11:11.0 12:29.0 13:24.5 14:0.0 15:0.7120000123977661 16:0.5340000092983246 17:0.0965866819024086 18:0.1658354103565216 19:0.0 20:0.0 
1.7270517347261212 1:2880000.0 2:0.0 3:0.0 4:75.0 5:2.68 6:0.0 7:25.0 8:0.0 9:0.0 10:0.0 11:19.0 12:33.0 13:21.333333333333332 14:0.0 15:0.06224899739027023 16:0.010374832898378372 17:0.02676399052143097 18:0.12162530422210693 19:0.0 20:4.0 
1.7268397671271676 1:8090000.0 2:0.0 3:0.0 4:45.0 5:1.9 6:0.26 7:21.44 8:0.0 9:0.27291 10:0.19584545454545454 11:11.0 12:24.0 13:20.90909090909091 14:0.0 15:0.7253521084785461 16:0.5240628773515875 17:0.019659068435430527 18:0.12162530422210693 19:0.0 20:4.0 
1.7269843328835845 1:7.83E7 2:0.0 3:0.0 4:90.0 5:1.82 6:0.92 7:16.56 8:0.0 9:0.48639 10:0.28722976744186046 11:11.0 12:205.0 13:179.27906976744185 14:0.0 15:0.9149914383888245 16:0.735299056352571 17:0.0965866819024086 18:0.5025523900985718 19:0.0 20:4.0 
1.726994844814937 1:2140000.0 2:0.0 3:0.0 4:32.0 5:1.28 6:0.08 7:24.0 8:0.0 9:0.33574 10:0.18586666666666665 11:1.0 12:12.0 13:8.0 14:0.0 15:1.0 16:0.5581395427385966 17:0.020304568111896515 18:0.0965866819024086 19:0.0 20:1.0 
1.726861081971937 1:247.0 2:0.0 3:0.0 4:109.0 5:2.48 6:0.0 7:25.0 8:0.0 9:0.0 10:0.0 11:11.0 12:11.0 13:11.0 14:0.0 15:0.0 16:0.0 17:0.0965866819024086 18:0.0965866819024086 19:0.0 20:0.0 
1.7270374756042455 1:37300.0 2:0.0 3:0.0 4:102.0 5:2.24 6:0.5 7:18.48 8:0.0 9:0.43748 10:0.13453486486486488 11:1.0 12:103.0 13:43.142857142857146 14:0.0 15:1.0 16:0.5476190476190477 17:0.12162530422210693 18:0.3674989342689514 19:0.0 20:5.0 
1.7268412910290587 1:3120000.0 2:0.0 3:0.0 4:45.0 5:1.34 6:0.54 7:17.84 8:0.0 9:0.44122 10:0.1766916216216216 11:1.0 12:6.0 13:5.594594594594595 14:0.9501312375068665 15:1.0 16:0.9541746506819854 17:0.0437743179500103 18:0.35640785098075867 19:0.0 20:1.0 
1.9485510539485444 1:8560000.0 2:0.0 3:0.0 4:72.0 5:1.7 6:0.06 7:23.68 8:0.0 9:0.29168 10:0.15600799999999998 11:9.0 12:121.0 13:57.8 14:0.0 15:0.7565706968307495 16:0.37990100383758546 17:0.05219552665948868 18:0.12162530422210693 19:0.0 20:5.0 
4097.7270340119385 1:510000.0 2:3.0 3:3.0 4:99.0 5:2.02 6:0.0 7:25.0 8:0.0 9:0.0 10:0.0 11:0.0 12:0.0 13:0.0 14:0.0 15:0.0 16:0.0 17:0.0 18:0.0 19:2.147483647E9 20:0.0 
4.145135391301466 1:5.52E7 2:0.6666666666666666 3:0.6666666666666666 4:78.0 5:2.06 6:0.0 7:25.0 8:0.0 9:0.0 10:0.0 11:11.0 12:11.0 13:11.0 14:0.0 15:0.0 16:0.0 17:0.0965866819024086 18:0.0965866819024086 19:0.0 20:0.0 
1.7262977734056182 1:1.08E8 2:0.0 3:0.0 4:70.0 5:1.44 6:1.02 7:15.48 8:0.0 9:0.37913 10:0.29089524999999994 11:11.0 12:268.0 13:255.35 14:0.0 15:0.9522810578346252 16:0.904667004942894 17:0.0965866819024086 18:0.44062337279319763 19:0.0 20:5.0 
1025.744595585289 1:9810000.0 2:0.0 3:0.0 4:42.0 5:2.12 6:0.32 7:21.2 8:0.0 9:0.24885 10:0.16484666666666667 11:11.0 12:19.0 13:15.333333333333334 14:0.0 15:0.9656631946563721 16:0.724247395992279 17:0.0645083412528038 18:0.12162530422210693 19:0.0 20:5.0 
1.727018017677771 1:9650000.0 2:0.0 3:0.0 4:71.0 5:1.44 6:0.96 7:14.92 8:0.29331 9:0.52574 10:0.35515147058823526 11:42.0 12:42.0 13:42.0 14:0.9735878705978394 15:0.9735878705978394 16:0.9735878705978394 17:0.4842590093612671 18:0.4842590093612671 19:0.0 20:0.0 
2.0287607563062537 1:7410000.0 2:4.0 3:4.0 4:52.0 5:1.8 6:0.0 7:25.0 8:0.0 9:0.0 10:0.0 11:16.0 12:35.0 13:19.333333333333332 14:0.0 15:0.11948052048683167 16:0.07822581827640533 17:0.012499206699430943 18:0.12162530422210693 19:0.0 20:5.0 
1.7597195163384343 1:5140000.0 2:0.0 3:0.0 4:148.0 5:3.08 6:0.0 7:25.0 8:0.0 9:0.0 10:0.0 11:37.0 12:37.0 13:37.0 14:0.0 15:0.0 16:0.0 17:0.14277023077011108 18:0.14277023077011108 19:0.0 20:0.0 
1025.7270182239126 1:93200.0 2:4.5 3:4.5 4:2.0 5:0.06 6:0.0 7:25.0 8:0.0 9:0.0 10:0.0 11:0.0 12:0.0 13:0.0 14:0.0 15:0.0 16:0.0 17:0.0 18:0.0 19:2.147483647E9 20:0.0 
1.7270035275111455 1:2.77E7 2:0.0 3:0.0 4:254.0 5:5.8 6:0.0 7:25.0 8:0.0 9:0.0 10:0.0 11:11.0 12:11.0 13:11.0 14:0.0 15:0.0 16:0.0 17:0.0965866819024086 18:0.0965866819024086 19:0.0 20:0.0 
2.26960889499998 1:1150000.0 2:5.0 3:5.0 4:64.0 5:1.32 6:0.42 7:21.84 8:0.20197 9:0.36864 10:0.27253466666666676 11:3.0 12:3.0 13:3.0 14:1.0 15:1.0 16:1.0 17:0.31210190057754517 18:0.31210190057754517 19:0.0 20:0.0 
1.726838042380709 1:7.29E7 2:0.0 3:0.0 4:40.0 5:1.14 6:0.0 7:25.0 8:0.0 9:0.0 10:0.0 11:11.0 12:19.0 13:15.0 14:0.0 15:0.0 16:0.0 17:0.0965866819024086 18:0.12162530422210693 19:0.0 20:5.0 
128.8662983354232 1:2280000.0 2:1.25 3:1.25 4:205.0 5:4.26 6:0.0 7:25.0 8:0.0 9:0.0 10:0.0 11:11.0 12:51.0 13:46.0 14:0.0 15:0.0012383901048451662 16:0.0010835913417395204 17:0.0965866819024086 18:0.1498248130083084 19:0.0 20:0.0 
1.7270235304312571 1:8.01E7 2:0.0 3:0.0 4:82.0 5:1.74 6:0.78 7:17.28 8:0.0 9:0.68475 10:0.33279380952380944 11:19.0 12:79.0 13:68.80952380952381 14:0.0 15:0.9243863821029663 16:0.7331306898877734 17:0.12162530422210693 18:0.8567235469818115 19:0.0 20:5.0 
1.727807272064109 1:1960000.0 2:1.0 3:1.0 4:28.0 5:1.32 6:0.7 7:18.36 8:0.0 9:0.67393 10:0.43055821428571434 11:1.0 12:19.0 13:3.6333333333333333 14:0.0 15:1.0 16:0.8888888994852702 17:0.05714285746216774 18:0.5136986374855042 19:0.0 20:5.0 
1.7268003612300782 1:18100.0 2:0.0 3:0.0 4:83.0 5:1.8 6:0.0 7:25.0 8:0.0 9:0.0 10:0.0 11:0.0 12:0.0 13:0.0 14:0.0 15:0.0 16:0.0 17:0.0 18:0.0 19:2.147483647E9 20:0.0 
1.7268542798784585 1:2700000.0 2:0.0 3:0.0 4:53.0 5:3.3 6:0.0 7:25.0 8:0.0 9:0.0 10:0.0 11:19.0 12:19.0 13:19.0 14:0.0 15:0.0 16:0.0 17:0.12162530422210693 18:0.12162530422210693 19:5.0 20:5.0 
1.727271451639525 1:3130000.0 2:0.0 3:0.0 4:127.0 5:2.58 6:0.12 7:22.68 8:0.0 9:0.34136 10:0.1403981818181818 11:19.0 12:61.0 13:54.0 14:0.0 15:0.15789473056793213 16:0.07177033207633278 17:0.12162530422210693 18:0.27138519287109375 19:0.0 20:5.0 
1.7268792964863855 1:2740000.0 2:0.0 3:0.0 4:32.0 5:1.14 6:0.56 7:20.6 8:0.0 9:0.34585 10:0.24744521739130437 11:2.0 12:11.0 13:2.6666666666666665 14:0.0 15:0.9885386824607849 16:0.9235287855068842 17:0.0600866824388504 18:0.10381543636322021 19:0.0 20:2.0 
1.726867842135395 1:6.29E7 2:0.0 3:0.0 4:68.0 5:3.18 6:0.14 7:24.12 8:0.0 9:0.32458 10:0.09797857142857144 11:5.0 12:62.0 13:16.857142857142858 14:0.0 15:0.09615384787321091 16:0.028042912400061532 17:0.0011450896272435784 18:0.12162530422210693 19:0.0 20:5.0 
122.51497220158373 1:3160000.0 2:5.0 3:5.0 4:87.0 5:1.76 6:0.0 7:25.0 8:0.0 9:0.0 10:0.0 11:56.0 12:56.0 13:56.0 14:0.004282655194401741 15:0.004282655194401741 16:0.004282655194401741 17:0.17967145144939423 18:0.17967145144939423 19:0.0 20:0.0 
1.7270122995935333 1:223.0 2:0.0 3:0.0 4:124.0 5:2.62 6:0.0 7:25.0 8:0.0 9:0.0 10:0.0 11:11.0 12:742.0 13:251.1578947368421 14:0.0 15:0.032258063554763794 16:0.008488964093358893 17:0.08602505177259445 18:0.32588106393814087 19:0.0 20:4.0 
1.7535028698630128 1:3.45E7 2:0.0 3:0.0 4:42.0 5:1.5 6:0.04 7:24.0 8:0.0 9:0.31998 10:0.050784166666666665 11:1.0 12:31.0 13:23.0 14:0.0 15:1.0 16:0.16666666666666666 17:0.06284957379102707 18:0.30000001192092896 19:0.0 20:5.0 
1.726963965592843 1:247000.0 2:0.0 3:0.0 4:43.0 5:1.54 6:0.76 7:18.32 8:0.0 9:0.47557 10:0.2787324242424243 11:2.0 12:11.0 13:10.181818181818182 14:0.5909090638160706 15:0.75 16:0.6053718761964277 17:0.14035087823867798 18:0.75 19:0.0 20:1.0 
1.7269529554567922 1:219000.0 2:0.0 3:0.0 4:75.0 5:1.66 6:0.26 7:19.48 8:0.0 9:0.51931 10:0.27157583333333335 11:11.0 12:19.0 13:12.5 14:0.0 15:0.6387434601783752 16:0.39034322566456264 17:0.0965866819024086 18:0.4650602340698242 19:0.0 20:4.0 
1.8553017989309315 1:1.05E8 2:0.0 3:0.0 4:38.0 5:1.82 6:0.08 7:24.48 8:0.0 9:0.24773 10:0.15098 11:10.0 12:19.0 13:15.333333333333334 14:0.0 15:0.8653846383094788 16:0.5749198794364929 17:0.004674236755818129 18:0.12162530422210693 19:0.0 20:5.0 
2.015887478158694 1:1.06E7 2:1.0 3:1.0 4:49.0 5:1.56 6:0.12 7:22.72 8:0.0 9:0.32043 10:0.08903214285714287 11:5.0 12:27.0 13:19.714285714285715 14:0.0 15:0.6998799443244934 16:0.21295271175248282 17:0.0019633506890386343 18:0.12162530422210693 19:0.0 20:4.0 
1.7746742699690223 1:1.37E7 2:0.0 3:0.0 4:42.0 5:1.42 6:0.14 7:23.4 8:0.0 9:0.33482 10:0.177575 11:8.0 12:19.0 13:11.666666666666666 14:0.0 15:0.9562236070632935 16:0.6374824047088623 17:0.03310532122850418 18:0.12162530422210693 19:0.0 20:5.0 
1.7270271096942402 1:5.87E7 2:0.0 3:0.0 4:103.0 5:4.86 6:0.0 7:25.0 8:0.0 9:0.0 10:0.0 11:19.0 12:19.0 13:19.0 14:0.0 15:0.0 16:0.0 17:0.12162530422210693 18:0.12162530422210693 19:3.0 20:3.0 
1.7269652074125894 1:9.76E7 2:0.0 3:0.0 4:53.0 5:1.74 6:0.04 7:24.52 8:0.0 9:0.23534 10:0.022153 11:13.0 12:20.0 13:17.55 14:0.0 15:0.9111747741699219 16:0.0815827224869281 17:0.02972421981394291 18:0.12162530422210693 19:0.0 20:7.0 
1.6800185810610992 1:1.18E7 2:0.0 3:0.0 4:46.0 5:1.44 6:0.28 7:21.4 8:0.0 9:0.25651 10:0.1349176470588235 11:6.0 12:19.0 13:10.941176470588236 14:0.0 15:0.9563409686088562 16:0.6076912073528066 17:0.02642541006207466 18:0.12162530422210693 19:0.0 20:5.0 
1.7270343592727921 1:5580000.0 2:0.0 3:0.0 4:64.0 5:1.88 6:0.36 7:23.96 8:0.0 9:0.32513 10:0.18774473684210524 11:4.0 12:30.0 13:23.94736842105263 14:0.0 15:0.7572178244590759 16:0.7164360786739149 17:0.10044150054454803 18:0.31380581855773926 19:0.0 20:5.0 
1.7268826148911822 1:1.75E7 2:0.0 3:0.0 4:134.0 5:2.68 6:0.0 7:25.0 8:0.0 9:0.0 10:0.0 11:54.0 12:155.0 13:110.8125 14:0.0 15:0.004438215401023626 16:0.00249649616307579 17:0.28700685501098633 18:0.33461710810661316 19:0.0 20:1.0 
1.726861128897983 1:2040000.0 2:0.0 3:0.0 4:38.0 5:1.2 6:0.18 7:23.88 8:0.0 9:0.24607 10:0.1845525 11:9.0 12:11.0 13:9.333333333333334 14:0.0 15:0.8288590312004089 16:0.6907158593336741 17:0.05775928869843483 18:0.0965866819024086 19:0.0 20:0.0 
2.6070865617531043 1:1.15E7 2:4.25 3:4.25 4:51.0 5:1.4 6:0.0 7:25.0 8:0.0 9:0.0 10:0.0 11:56.0 12:56.0 13:56.0 14:0.0 15:0.0 16:0.0 17:0.09290123730897903 18:0.09290123730897903 19:0.0 20:0.0 
12.516494794758533 1:1.01E7 2:0.5 3:0.5 4:82.0 5:2.98 6:0.0 7:25.0 8:0.0 9:0.0 10:0.0 11:19.0 12:34.0 13:31.5 14:0.0 15:0.0 16:0.0 17:0.031777575612068176 18:0.12162530422210693 19:0.0 20:4.0 
1.7268657978697435 1:324000.0 2:0.0 3:0.0 4:150.0 5:3.46 6:0.0 7:25.0 8:0.0 9:0.0 10:0.0 11:62.0 12:62.0 13:62.0 14:0.0 15:0.0 16:0.0 17:0.00828727800399065 18:0.00828727800399065 19:5.0 20:5.0 
1.7265060289558867 1:1050000.0 2:0.0 3:0.0 4:15.0 5:0.66 6:0.08 7:24.32 8:0.22401 9:0.29491 10:0.27036 11:4.0 12:6.0 13:5.333333333333333 14:0.14516128599643707 15:0.8493150472640991 16:0.3798792064189911 17:0.013379634357988834 18:0.015615240670740604 19:0.0 20:3.0 
1.9220824455132222 1:9940000.0 2:0.0 3:0.0 4:41.0 5:1.9 6:0.14 7:22.28 8:0.0 9:0.36835 10:0.1378325 11:19.0 12:114.0 13:47.25 14:0.0 15:0.6302083134651184 16:0.16681133769452572 17:0.02903943881392479 18:0.12162530422210693 19:0.0 20:5.0 
1.726735064731959 1:1.35E8 2:0.0 3:0.0 4:55.0 5:2.48 6:0.02 7:24.0 8:0.0 9:0.20824 10:0.02974857142857143 11:4.0 12:19.0 13:16.428571428571427 14:0.0 15:0.32085561752319336 16:0.08759476031575884 17:0.012175177223980427 18:0.12162530422210693 19:0.0 20:4.0 
1.7355574167200962 1:5.1E7 2:0.0 3:0.0 4:45.0 5:2.04 6:0.08 7:24.72 8:0.0 9:0.24348 10:0.01662 11:4.0 12:32.0 13:7.620689655172414 14:0.0 15:0.8636995553970337 16:0.2685236168126094 17:0.033233631402254105 18:0.25080281496047974 19:0.0 20:5.0 
1.7270551908704124 1:1.52E7 2:0.0 3:0.0 4:43.0 5:1.9 6:0.0 7:25.0 8:0.0 9:0.0 10:0.0 11:19.0 12:19.0 13:19.0 14:0.0 15:0.0 16:0.0 17:0.12162530422210693 18:0.12162530422210693 19:4.0 20:4.0 
12.801461999121024 1:176000.0 2:1.0 3:1.0 4:45.0 5:1.02 6:0.0 7:25.0 8:0.0 9:0.0 10:0.0 11:19.0 12:19.0 13:19.0 14:0.0 15:0.0 16:0.0 17:0.12162530422210693 18:0.12162530422210693 19:5.0 20:5.0 
2.9945684824274084 1:9450000.0 2:4.0 3:4.0 4:41.0 5:1.42 6:0.0 7:25.0 8:0.0 9:0.0 10:0.0 11:19.0 12:19.0 13:19.0 14:0.0 15:0.0 16:0.0 17:0.12162530422210693 18:0.12162530422210693 19:5.0 20:5.0 
2.2624892242265693 1:41.0 2:8.5 3:8.5 4:4.0 5:0.24390243902439024 6:0.0 7:25.0 8:0.0 9:0.0 10:0.0 11:11.0 12:11.0 13:11.0 14:0.0 15:0.0 16:0.0 17:0.0965866819024086 18:0.0965866819024086 19:0.0 20:0.0 
1.7269592115145183 1:2680000.0 2:0.0 3:0.0 4:34.0 5:1.94 6:0.02 7:25.0 8:0.22543 9:0.22543 10:0.22543 11:1.0 12:1.0 13:1.0 14:1.0 15:1.0 16:1.0 17:0.12944523990154266 18:0.12944523990154266 19:17.0 20:17.0 
1.7269977870017665 1:9060000.0 2:4.5 3:4.5 4:74.0 5:1.5 6:0.0 7:25.0 8:0.0 9:0.0 10:0.0 11:19.0 12:62.0 13:60.130434782608695 14:0.0 15:0.844744861125946 16:0.8080168236856875 17:0.12162530422210693 18:0.2644021213054657 19:0.0 20:5.0 
1.7269503516880502 1:262000.0 2:0.0 3:0.0 4:70.0 5:3.0 6:0.5 7:22.2 8:0.0 9:0.3337 10:0.2037093333333333 11:1.0 12:5.0 13:3.8125 14:0.0 15:1.0 16:0.5913742519915104 17:0.007394309621304274 18:0.10701107233762741 19:0.0 20:2.0 
1.726968714148335 1:228.0 2:0.0 3:0.0 4:118.0 5:2.48 6:0.54 7:19.08 8:0.0 9:0.71022 10:0.40847434782608694 11:1.0 12:101.0 13:14.478260869565217 14:0.0 15:1.0 16:0.8260869565217391 17:0.0965866819024086 18:0.4117647111415863 19:0.0 20:1.0 
1.7269180525764087 1:3190000.0 2:1.3333333333333333 3:1.3333333333333333 4:131.0 5:2.94 6:0.0 7:25.0 8:0.0 9:0.0 10:0.0 11:5.0 12:70.0 13:48.333333333333336 14:0.0 15:0.0 16:0.0 17:0.06978609412908554 18:0.09743472933769226 19:0.0 20:1.0 
7.597722812078558 1:196000.0 2:5.0 3:5.0 4:110.0 5:2.24 6:0.0 7:25.0 8:0.0 9:0.0 10:0.0 11:39.0 12:132.0 13:126.52941176470588 14:0.0 15:0.010152284055948257 16:5.971931797616622E-4 17:0.24974411725997925 18:0.5308322310447693 19:0.0 20:1.0 
1.726971439820695 1:9100000.0 2:0.0 3:0.0 4:43.0 5:1.96 6:0.08 7:24.0 8:0.0 9:0.25549 10:0.0763776923076923 11:9.0 12:52.0 13:24.307692307692307 14:0.0 15:0.46706587076187134 16:0.13055991438718942 17:0.00822936836630106 18:0.12162530422210693 19:0.0 20:4.0 
1.7269308137152508 1:4900000.0 2:0.0 3:0.0 4:66.0 5:1.64 6:0.14 7:22.2 8:0.0 9:0.36417 10:0.10534529411764705 11:14.0 12:55.0 13:38.72222222222222 14:0.0 15:0.5336763262748718 16:0.32542896270751953 17:0.05162154138088226 18:0.16840802133083344 19:0.0 20:4.0 
1.7362596582567136 1:1.13E8 2:0.0 3:0.0 4:66.0 5:2.5 6:0.0 7:25.0 8:0.0 9:0.0 10:0.0 11:11.0 12:19.0 13:16.647058823529413 14:0.0 15:0.0 16:0.0 17:0.0965866819024086 18:0.12162530422210693 19:0.0 20:5.0 
1.7269529611098464 1:1.55E7 2:0.0 3:0.0 4:75.0 5:1.56 6:0.54 7:17.96 8:0.0 9:0.591 10:0.37503708333333324 11:11.0 12:30.0 13:28.8 14:0.0 15:0.920135498046875 16:0.846524658203125 17:0.0965866819024086 18:0.794965386390686 19:0.0 20:4.0 
1.7269574181047849 1:5450000.0 2:0.0 3:0.0 4:54.0 5:1.4 6:0.0 7:25.0 8:0.0 9:0.0 10:0.0 11:12.0 12:19.0 13:16.666666666666668 14:0.0 15:0.8662316203117371 16:0.28874387343724567 17:0.06001855805516243 18:0.12162530422210693 19:0.0 20:4.0 
18.995054551336523 1:4230000.0 2:0.6666666666666666 3:0.6666666666666666 4:132.0 5:3.84 6:0.0 7:25.0 8:0.0 9:0.0 10:0.0 11:5.0 12:47.0 13:37.04081632653061 14:0.0 15:0.0 16:0.0 17:0.06001855805516243 18:0.794965386390686 19:0.0 20:1.0 
1.9412596589498525 1:6430000.0 2:0.0 3:0.0 4:94.0 5:1.94 6:0.48 7:21.72 8:0.0 9:0.56862 10:0.33083352941176475 11:11.0 12:14.0 13:13.833333333333334 14:0.0 15:0.9113923907279968 16:0.860759480131997 17:0.0965866819024086 18:0.5052928924560547 19:0.0 20:0.0 
1.7263573544270383 1:2660000.0 2:0.0 3:0.0 4:104.0 5:3.76 6:0.0 7:25.0 8:0.0 9:0.0 10:0.0 11:10.0 12:77.0 13:22.681818181818183 14:0.0 15:0.0 16:0.0 17:0.015834173187613487 18:0.2675902247428894 19:0.0 20:5.0 
1.7269531850772326 1:173000.0 2:0.0 3:0.0 4:69.0 5:3.1 6:0.0 7:25.0 8:0.0 9:0.0 10:0.0 11:6.0 12:20.0 13:8.333333333333334 14:0.0 15:0.0 16:0.0 17:0.07209081947803497 18:0.4022373557090759 19:0.0 20:0.0 
1.820203507244076 1:3.96E7 2:0.0 3:0.0 4:47.0 5:1.62 6:0.1 7:24.04 8:0.0 9:0.23604 10:0.03479538461538461 11:2.0 12:19.0 13:16.692307692307693 14:0.0 15:0.9555555582046509 16:0.136965811252594 17:0.009058312512934208 18:0.12162530422210693 19:0.0 20:5.0 
2.209171365937965 1:9080000.0 2:0.0 3:0.0 4:45.0 5:1.66 6:0.1 7:23.84 8:0.0 9:0.29158 10:0.12804666666666667 11:19.0 12:43.0 13:31.0 14:0.0 15:0.4987828731536865 16:0.24939143657684326 17:0.05572663992643356 18:0.12162530422210693 19:0.0 20:5.0 
1.7264730555596346 1:1180000.0 2:0.0 3:0.0 4:36.0 5:1.14 6:0.52 7:19.12 8:0.21252 9:0.37575 10:0.2815025 11:1.0 12:1.0 13:1.0 14:1.0 15:1.0 16:1.0 17:0.19546248018741608 18:0.19546248018741608 19:0.0 20:0.0 
1.7269461872063103 1:4480000.0 2:0.0 3:0.0 4:64.0 5:2.44 6:0.0 7:25.0 8:0.0 9:0.0 10:0.0 11:45.0 12:45.0 13:45.0 14:0.001669449033215642 15:0.001669449033215642 16:0.001669449033215642 17:0.013117686845362186 18:0.013117686845362186 19:0.0 20:0.0 
1025.7269472006415 1:4.74E7 2:0.0 3:0.0 4:50.0 5:1.58 6:0.08 7:23.24 8:0.0 9:0.30463 10:0.143476 11:4.0 12:21.0 13:14.8 14:0.0 15:0.841269850730896 16:0.409781464189291 17:0.006661899387836456 18:0.0965866819024086 19:0.0 20:2.0 
1.726944392751882 1:5890000.0 2:0.0 3:0.0 4:180.0 5:3.6 6:0.0 7:25.0 8:0.0 9:0.0 10:0.0 11:86.0 12:86.0 13:86.0 14:0.0 15:0.0 16:0.0 17:0.37964701652526855 18:0.37964701652526855 19:0.0 20:0.0 
1025.726948362657 1:1.05E7 2:0.0 3:0.0 4:75.0 5:2.3 6:0.02 7:25.0 8:0.0 9:0.24579 10:0.0614475 11:19.0 12:189.0 13:68.0 14:0.0 15:0.005218956153839827 16:0.0016228051972575486 17:0.00614770594984293 18:0.12162530422210693 19:0.0 20:5.0 
1.7270436577991761 1:1.95E8 2:0.0 3:0.0 4:48.0 5:3.76 6:0.04 7:24.44 8:0.0 9:0.23111 10:0.032490000000000005 11:3.0 12:33.0 13:21.5 14:0.0 15:0.10723192244768143 16:0.01200305244752339 17:0.0029300639871507883 18:0.12162530422210693 19:0.0 20:8.0 
1.7270275761235927 1:8140000.0 2:0.0 3:0.0 4:47.0 5:1.3 6:0.1 7:23.24 8:0.0 9:0.31524 10:0.22858166666666666 11:3.0 12:36.0 13:30.5 14:0.761904776096344 15:0.7774480581283569 16:0.7748575111230215 17:0.021174205467104912 18:0.1570991426706314 19:0.0 20:1.0 
1.7268827802975952 1:979000.0 2:0.0 3:0.0 4:52.0 5:1.54 6:0.92 7:17.4 8:0.0 9:0.41692 10:0.23398566666666668 11:1.0 12:10.0 13:9.15625 14:0.0 15:1.0 16:0.6881823129951954 17:0.07999999821186066 18:0.5869565010070801 19:0.0 20:1.0 
1.726962202583866 1:2140000.0 2:0.0 3:0.0 4:211.0 5:5.06 6:0.0 7:25.0 8:0.0 9:0.0 10:0.0 11:24.0 12:24.0 13:24.0 14:0.0 15:0.0 16:0.0 17:0.0021279186476022005 18:0.0021279186476022005 19:1.0 20:1.0 
1.7266020446342796 1:2610000.0 2:0.0 3:0.0 4:64.0 5:3.06 6:0.0 7:25.0 8:0.0 9:0.0 10:0.0 11:5.0 12:19.0 13:13.909090909090908 14:0.0 15:0.005119454115629196 16:0.0032578344372185793 17:0.06781326979398727 18:0.12162530422210693 19:0.0 20:4.0 
1.726531676824707 1:1.42E7 2:0.0 3:0.0 4:47.0 5:1.7 6:0.06 7:23.72 8:0.0 9:0.23012 10:0.1141375 11:9.0 12:48.0 13:23.75 14:0.0 15:0.7913669347763062 16:0.35000623762607574 17:0.024455610662698746 18:0.12162530422210693 19:0.0 20:5.0 
1.726519649971029 1:5.79E7 2:0.0 3:0.0 4:72.0 5:1.6 6:0.8 7:15.84 8:0.0 9:0.5496 10:0.2834247222222222 11:11.0 12:45.0 13:38.77777777777778 14:0.0 15:0.9159299731254578 16:0.7123899790975783 17:0.0965866819024086 18:0.4641512334346771 19:0.0 20:5.0 
1025.7270369881344 1:1.28E8 2:0.0 3:0.0 4:14.0 5:0.78 6:0.0 7:25.0 8:0.0 9:0.0 10:0.0 11:11.0 12:479.0 13:107.8 14:0.0 15:0.003800354665145278 16:7.600709330290556E-4 17:0.02245648205280304 18:0.12162530422210693 19:0.0 20:3.0 
2049.726488280622 1:8730000.0 2:0.0 3:0.0 4:64.0 5:1.28 6:0.0 7:25.0 8:0.0 9:0.0 10:0.0 11:0.0 12:0.0 13:0.0 14:0.0 15:0.0 16:0.0 17:0.0 18:0.0 19:2.147483647E9 20:0.0 
1.7323018350315649 1:1.04E7 2:0.0 3:0.0 4:47.0 5:2.04 6:0.32 7:22.44 8:0.0 9:0.33905 10:0.1909561538461539 11:19.0 12:25.0 13:23.615384615384617 14:0.0 15:0.8708333373069763 16:0.6698717979284433 17:0.12162530422210693 18:0.13643600046634674 19:0.0 20:5.0 
1025.8810959948646 1:1.66E8 2:0.0 3:0.0 4:77.0 5:1.88 6:0.04 7:24.12 8:0.0 9:0.26768 10:0.05895555555555555 11:9.0 12:223.0 13:40.55555555555556 14:0.0 15:0.1661721020936966 16:0.031210446523295507 17:0.0034323944710195065 18:0.12162530422210693 19:0.0 20:5.0 
1.7268014028624175 1:2620000.0 2:0.0 3:0.0 4:47.0 5:3.34 6:0.0 7:25.0 8:0.0 9:0.0 10:0.0 11:11.0 12:19.0 13:15.0 14:0.0 15:0.0 16:0.0 17:0.0965866819024086 18:0.12162530422210693 19:0.0 20:5.0 
1.7274211240721788 1:5710000.0 2:0.0 3:0.0 4:73.0 5:1.66 6:0.8 7:16.68 8:0.0 9:0.57974 10:0.3877894117647059 11:3.0 12:19.0 13:4.882352941176471 14:0.0 15:0.980064332485199 16:0.8647626463104697 17:0.12162530422210693 18:0.5600573420524597 19:0.0 20:5.0 
1.7264184428946072 1:74700.0 2:0.0 3:0.0 4:59.0 5:1.52 6:1.32 7:16.84 8:0.0 9:0.69926 10:0.5533737142857145 11:1.0 12:19.0 13:1.4736842105263157 14:0.0 15:1.0 16:0.9736842105263158 17:0.12162530422210693 18:1.0 19:0.0 20:5.0 
8.896382776944254 1:1.13E7 2:0.0 3:0.0 4:25.0 5:1.105263157894737 6:0.0 7:25.0 8:0.0 9:0.0 10:0.0 11:11.0 12:96.0 13:26.666666666666668 14:0.0 15:0.14450450241565704 16:0.016056055823961895 17:0.0059356531128287315 18:0.12162530422210693 19:0.0 20:5.0 
1.7269841826177974 1:1.21E7 2:0.0 3:0.0 4:40.0 5:2.54 6:0.0 7:25.0 8:0.0 9:0.0 10:0.0 11:19.0 12:26.0 13:20.75 14:0.0 15:0.028688523918390274 16:0.0071721309795975685 17:0.032546266913414 18:0.12162530422210693 19:0.0 20:4.0 
1.7279656064364657 1:1.05E7 2:0.0 3:0.0 4:70.0 5:1.42 6:0.56 7:18.52 8:0.0 9:0.33692 10:0.17061999999999997 11:19.0 12:240.0 13:225.26666666666668 14:0.0 15:0.6827368140220642 16:0.6372210264205933 17:0.12162530422210693 18:0.2801300883293152 19:0.0 20:5.0 
1.726436837880869 1:5010000.0 2:0.0 3:0.0 4:40.0 5:1.56 6:0.0 7:25.0 8:0.0 9:0.0 10:0.0 11:0.0 12:0.0 13:0.0 14:0.0 15:0.0 16:0.0 17:0.0 18:0.0 19:2.147483647E9 20:0.0 
1.7270222905573336 1:2420000.0 2:0.0 3:0.0 4:60.0 5:1.56 6:0.44 7:21.32 8:0.0 9:0.52053 10:0.17606285714285713 11:2.0 12:13.0 13:12.214285714285714 14:0.5 15:0.692307710647583 16:0.5137362650462559 17:0.07103825360536575 18:0.2921348214149475 19:0.0 20:1.0 
1.7264378018794757 1:1.83E7 2:0.0 3:0.0 4:21.0 5:2.14 6:0.14 7:22.64 8:0.20479 9:0.28613 10:0.2523933333333333 11:28.0 12:107.0 13:80.66666666666667 14:0.17745302617549896 15:0.6038185954093933 16:0.4616967389980952 17:0.012215670198202133 18:0.019437016919255257 19:0.0 20:1.0 
1.7268152476176244 1:5610000.0 2:0.0 3:0.0 4:103.0 5:2.12 6:0.12 7:21.84 8:0.0 9:0.25579 10:0.06644499999999999 11:86.0 12:171.0 13:143.95454545454547 14:0.0 15:0.06066733971238136 16:0.04136409525844184 17:0.19503429532051086 18:0.37964701652526855 19:0.0 20:1.0 
1.7263777110880467 1:3220000.0 2:3.0 3:3.0 4:37.0 5:1.68 6:1.3 7:15.24 8:0.0 9:0.65699 10:0.49704250000000005 11:1.0 12:19.0 13:1.4390243902439024 14:0.0 15:1.0 16:0.975609756097561 17:0.12162530422210693 18:1.0 19:2.0 20:5.0 
1.726802204022261 1:1900000.0 2:0.0 3:0.0 4:12.0 5:0.3 6:0.0 7:25.0 8:0.0 9:0.0 10:0.0 11:11.0 12:19.0 13:16.333333333333332 14:0.0 15:0.0 16:0.0 17:0.0965866819024086 18:0.12162530422210693 19:0.0 20:4.0 
1.7263707080183153 1:405000.0 2:2.3333333333333335 3:2.3333333333333335 4:128.0 5:2.64 6:0.0 7:25.0 8:0.0 9:0.0 10:0.0 11:0.0 12:0.0 13:0.0 14:0.0 15:0.0 16:0.0 17:0.0 18:0.0 19:2.147483647E9 20:0.0 
7.729108800176136 1:9170000.0 2:0.0 3:0.0 4:49.0 5:1.44 6:0.08 7:23.56 8:0.0 9:0.25657 10:0.15845333333333333 11:5.0 12:101.0 13:41.666666666666664 14:0.0 15:0.37931033968925476 16:0.2266240417957306 17:0.005378714296966791 18:0.12162530422210693 19:0.0 20:5.0 
6.2453213870374835 1:4.06E7 2:3.5 3:3.5 4:53.0 5:1.3902439024390243 6:0.0 7:25.0 8:0.0 9:0.0 10:0.0 11:11.0 12:107.0 13:102.2 14:0.0 15:3.487358335405588E-4 16:3.312990418635309E-4 17:0.0965866819024086 18:0.3012048304080963 19:0.0 20:0.0 
1.7272492074595647 1:238000.0 2:0.0 3:0.0 4:12.0 5:0.5 6:0.0 7:25.0 8:0.0 9:0.0 10:0.0 11:10.0 12:10.0 13:10.0 14:0.008097166195511818 15:0.008097166195511818 16:0.008097166195511818 17:0.20663900673389435 18:0.20663900673389435 19:0.0 20:0.0 
1.796750832016104 1:2.54E8 2:1.0 3:1.0 4:38.0 5:1.8048780487804879 6:0.024390243902439025 7:24.0 8:0.0 9:0.2181 10:0.024233333333333332 11:11.0 12:60.0 13:20.88888888888889 14:0.0 15:0.3699808716773987 16:0.04110898574193319 17:0.009304367005825043 18:0.12162530422210693 19:0.0 20:4.0 
4.9949640516039695 1:4060000.0 2:3.5 3:3.5 4:77.0 5:2.9 6:0.0 7:25.0 8:0.0 9:0.0 10:0.0 11:11.0 12:178.0 13:49.2 14:0.0 15:0.0 16:0.0 17:0.01995464786887169 18:0.12162530422210693 19:1.0 20:3.0 
1025.7263223995005 1:1.86E7 2:2.0 3:2.0 4:272.0 5:6.06 6:0.0 7:25.0 8:0.0 9:0.0 10:0.0 11:6.0 12:219.0 13:212.1290322580645 14:0.0 15:0.0 16:0.0 17:0.14414609968662262 18:0.3709877133369446 19:0.0 20:0.0 
1.7263231668864054 1:974000.0 2:0.0 3:0.0 4:110.0 5:2.22 6:0.4 7:20.64 8:0.0 9:0.44191 10:0.28389578947368427 11:1.0 12:533.0 13:29.94736842105263 14:0.0 15:1.0 16:0.8947368421052632 17:0.11142882704734802 18:0.2815631330013275 19:0.0 20:5.0 
1.7268863394104668 1:9.31E7 2:0.0 3:0.0 4:54.0 5:1.8 6:0.12 7:23.24 8:0.0 9:0.26559 10:0.06489210526315789 11:2.0 12:80.0 13:31.94736842105263 14:0.0 15:0.9237222671508789 16:0.2797081941052487 17:0.014826590195298195 18:0.12162530422210693 19:0.0 20:8.0 
1.726843502242513 1:4090000.0 2:0.0 3:0.0 4:40.0 5:1.04 6:0.1 7:24.0 8:0.0 9:0.24828 10:0.15333666666666668 11:16.0 12:19.0 13:16.428571428571427 14:0.0 15:0.5592105388641357 16:0.4793233190264021 17:0.01849086955189705 18:0.12162530422210693 19:0.0 20:5.0 
1.7268619564811234 1:2.86E7 2:0.0 3:0.0 4:64.0 5:1.96 6:0.3 7:22.84 8:0.0 9:0.29999 10:0.2085483333333333 11:8.0 12:22.0 13:19.916666666666668 14:0.0 15:0.7768206596374512 16:0.6873234485586485 17:0.013204043731093407 18:0.0965866819024086 19:0.0 20:1.0 
1.7283464128908554 1:4360000.0 2:0.0 3:0.0 4:44.0 5:1.62 6:0.12 7:23.76 8:0.0 9:0.26524 10:0.111392 11:5.0 12:19.0 13:7.8 14:0.0 15:0.6301369667053223 16:0.5041095733642578 17:0.12162530422210693 18:0.1455078125 19:0.0 20:5.0 
1.7455544289080498 1:1300000.0 2:6.333333333333333 3:6.333333333333333 4:55.0 5:1.2 6:0.0 7:25.0 8:0.0 9:0.0 10:0.0 11:7.0 12:7.0 13:7.0 14:0.10526315867900848 15:0.10526315867900848 16:0.10526315867900848 17:0.2235294133424759 18:0.2235294133424759 19:0.0 20:0.0 
1.7263306765684336 1:593000.0 2:0.0 3:0.0 4:72.0 5:1.6 6:0.0 7:25.0 8:0.0 9:0.0 10:0.0 11:11.0 12:11.0 13:11.0 14:0.0 15:0.0 16:0.0 17:0.0965866819024086 18:0.0965866819024086 19:0.0 20:0.0 
1.7263568367192197 1:2740000.0 2:0.0 3:0.0 4:69.0 5:3.12 6:0.0 7:25.0 8:0.0 9:0.0 10:0.0 11:10.0 12:620.0 13:213.33333333333334 14:0.0 15:0.0 16:0.0 17:0.041010741144418716 18:0.06109007075428963 19:0.0 20:3.0 
1.7262971315319369 1:2890000.0 2:0.0 3:0.0 4:128.0 5:2.6 6:0.0 7:25.0 8:0.0 9:0.0 10:0.0 11:0.0 12:0.0 13:0.0 14:0.0 15:0.0 16:0.0 17:0.0 18:0.0 19:2.147483647E9 20:0.0 
5.008164715743483 1:3120000.0 2:0.0 3:0.0 4:261.0 5:5.7 6:0.0 7:25.0 8:0.0 9:0.0 10:0.0 11:146.0 12:146.0 13:146.0 14:0.0 15:0.0 16:0.0 17:0.3215160667896271 18:0.3215160667896271 19:0.0 20:0.0 
1.7268366530192298 1:208.0 2:0.0 3:0.0 4:123.0 5:2.5 6:0.0 7:25.0 8:0.0 9:0.0 10:0.0 11:146.0 12:146.0 13:146.0 14:0.0 15:0.0 16:0.0 17:0.3215160667896271 18:0.3215160667896271 19:0.0 20:0.0 
1.7268307213484793 1:6990000.0 2:0.0 3:0.0 4:46.0 5:2.94 6:0.06 7:23.92 8:0.0 9:0.2635 10:0.047237 11:1.0 12:22.0 13:4.3 14:0.0 15:0.6206896305084229 16:0.07387451827526093 17:0.002705242484807968 18:0.01537408772855997 19:0.0 20:1.0 
1.7268200371150773 1:495000.0 2:0.0 3:0.0 4:196.0 5:4.06 6:0.0 7:25.0 8:0.0 9:0.0 10:0.0 11:0.0 12:0.0 13:0.0 14:0.0 15:0.0 16:0.0 17:0.0 18:0.0 19:2.147483647E9 20:0.0 
1.873738689102944 1:2.16E7 2:0.0 3:0.0 4:54.0 5:2.04 6:0.0 7:25.0 8:0.0 9:0.0 10:0.0 11:19.0 12:19.0 13:19.0 14:0.0 15:0.0 16:0.0 17:0.12162530422210693 18:0.12162530422210693 19:5.0 20:5.0 
1.7268067427638218 1:195.0 2:0.0 3:0.0 4:121.0 5:2.46 6:0.08 7:22.48 8:0.0 9:0.4457 10:0.111921 11:11.0 12:46.0 13:26.5 14:0.0 15:0.5474452376365662 16:0.2737226188182831 17:0.0965866819024086 18:0.4138972759246826 19:0.0 20:1.0 
1.726800052786181 1:5110000.0 2:0.0 3:0.0 4:58.0 5:2.76 6:0.0 7:25.0 8:0.0 9:0.0 10:0.0 11:3.0 12:26.0 13:18.5 14:0.0 15:0.0011415524641051888 16:5.707762320525944E-4 17:0.020043732598423958 18:0.12162530422210693 19:0.0 20:5.0 
1.7263022398805803 1:230.0 2:0.0 3:0.0 4:147.0 5:2.94 6:0.38 7:21.6 8:0.0 9:0.37631 10:0.1051251612903226 11:11.0 12:165.0 13:110.03225806451613 14:0.0 15:0.6700849533081055 16:0.28102154875617297 17:0.0965866819024086 18:0.3371819853782654 19:0.0 20:5.0 
1.726302966553869 1:135000.0 2:0.0 3:0.0 4:46.0 5:2.7 6:0.38 7:22.4 8:0.0 9:0.41482 10:0.20396041666666664 11:1.0 12:34.0 13:7.625 14:0.0 15:1.0 16:0.7083333333333334 17:0.054245997220277786 18:0.3166864514350891 19:0.0 20:1.0 
1025.728297057841 1:5030000.0 2:6.333333333333333 3:6.333333333333333 4:42.0 5:1.36 6:0.0 7:25.0 8:0.0 9:0.0 10:0.0 11:19.0 12:19.0 13:19.0 14:0.0 15:0.0 16:0.0 17:0.12162530422210693 18:0.12162530422210693 19:4.0 20:4.0 
1.7263022957751932 1:182000.0 2:3.4 3:3.4 4:35.0 5:0.7 6:0.0 7:25.0 8:0.0 9:0.0 10:0.0 11:206.0 12:206.0 13:206.0 14:0.0 15:0.0 16:0.0 17:0.21311374008655548 18:0.21311374008655548 19:0.0 20:0.0 
1.7263262167581825 1:2.53E7 2:0.0 3:0.0 4:71.0 5:1.44 6:0.88 7:18.52 8:0.0 9:0.55027 10:0.3522138235294118 11:90.0 12:90.0 13:90.0 14:0.9324913024902344 15:0.9324913024902344 16:0.9324913024902344 17:0.5064313411712646 18:0.5064313411712646 19:0.0 20:0.0 
1.7263674155036879 1:278000.0 2:0.0 3:0.0 4:113.0 5:2.34 6:0.0 7:25.0 8:0.0 9:0.0 10:0.0 11:11.0 12:11.0 13:11.0 14:0.0 15:0.0 16:0.0 17:0.0965866819024086 18:0.0965866819024086 19:0.0 20:0.0 
1.7263744530720981 1:627000.0 2:0.0 3:0.0 4:145.0 5:3.96 6:0.0 7:25.0 8:0.0 9:0.0 10:0.0 11:64.0 12:64.0 13:64.0 14:0.0 15:0.0 16:0.0 17:0.026066115126013756 18:0.026066115126013756 19:2.0 20:2.0 
1.7263742732982905 1:1.22E7 2:0.0 3:0.0 4:44.0 5:1.74 6:0.04 7:25.0 8:0.0 9:0.20674 10:0.101715 11:11.0 12:937.0 13:242.5 14:0.0 15:0.8329113721847534 16:0.48707424104213715 17:0.01646479219198227 18:0.0965866819024086 19:0.0 20:1.0 
1.7263971479826599 1:917000.0 2:0.0 3:0.0 4:9.0 5:1.08 6:0.0 7:25.0 8:0.0 9:0.0 10:0.0 11:0.0 12:0.0 13:0.0 14:0.0 15:0.0 16:0.0 17:0.0 18:0.0 19:2.147483647E9 20:0.0 
1.726402375527988 1:312000.0 2:0.0 3:0.0 4:130.0 5:3.5 6:0.0 7:25.0 8:0.0 9:0.0 10:0.0 11:0.0 12:0.0 13:0.0 14:0.0 15:0.0 16:0.0 17:0.0 18:0.0 19:2.147483647E9 20:0.0 
1025.726414665521 1:9720000.0 2:0.0 3:0.0 4:82.0 5:1.66 6:0.22 7:20.32 8:0.0 9:0.26704 10:0.20670090909090907 11:19.0 12:206.0 13:189.0 14:0.0 15:0.6928873062133789 16:0.6298975511030718 17:0.12162530422210693 18:0.21311374008655548 19:0.0 20:5.0 
1025.7264250852832 1:2.98E7 2:0.0 3:0.0 4:201.0 5:5.24 6:0.0 7:25.0 8:0.0 9:0.0 10:0.0 11:11.0 12:19.0 13:15.0 14:0.0 15:0.0 16:0.0 17:0.0965866819024086 18:0.12162530422210693 19:0.0 20:5.0 
1.727028838133501 1:2130000.0 2:0.0 3:0.0 4:161.0 5:3.22 6:0.0 7:25.0 8:0.0 9:0.0 10:0.0 11:0.0 12:0.0 13:0.0 14:0.0 15:0.0 16:0.0 17:0.0 18:0.0 19:2.147483647E9 20:0.0 
3.6295353946553117 1:7.87E7 2:1.0 3:1.0 4:52.0 5:1.76 6:0.16 7:23.16 8:0.0 9:0.33482 10:0.17780666666666667 11:8.0 12:19.0 13:10.333333333333334 14:0.0 15:0.9562236070632935 16:0.6374824047088623 17:0.03310532122850418 18:0.12162530422210693 19:0.0 20:4.0 
1.777144227671727 1:4.07E7 2:0.0 3:0.0 4:42.0 5:1.46 6:0.2 7:23.48 8:0.0 9:0.23604 10:0.09172416666666666 11:2.0 12:19.0 13:12.916666666666666 14:0.0 15:0.9555555582046509 16:0.3655092567205429 17:0.009058312512934208 18:0.12162530422210693 19:0.0 20:5.0 
4097.726411939715 1:3500000.0 2:6.333333333333333 3:6.333333333333333 4:7.0 5:0.2 6:0.0 7:25.0 8:0.0 9:0.0 10:0.0 11:0.0 12:0.0 13:0.0 14:0.0 15:0.0 16:0.0 17:0.0 18:0.0 19:2.147483647E9 20:0.0 
1.7264246597243673 1:2.27E7 2:0.0 3:0.0 4:100.0 5:3.54 6:0.0 7:25.0 8:0.0 9:0.0 10:0.0 11:0.0 12:0.0 13:0.0 14:0.0 15:0.0 16:0.0 17:0.0 18:0.0 19:2.147483647E9 20:0.0 
1.7264205743193681 1:340000.0 2:0.0 3:0.0 4:116.0 5:2.4 6:0.0 7:25.0 8:0.0 9:0.0 10:0.0 11:11.0 12:25.0 13:21.0 14:0.0 15:0.0 16:0.0 17:0.0965866819024086 18:0.3840811848640442 19:0.0 20:5.0 
1.7264085301737577 1:201.0 2:0.0 3:0.0 4:164.0 5:3.74 6:0.0 7:25.0 8:0.0 9:0.0 10:0.0 11:11.0 12:86.0 13:61.0 14:0.0 15:5.849093431606889E-4 16:3.8993956210712594E-4 17:0.0965866819024086 18:0.37964701652526855 19:0.0 20:0.0 
1.7264081241798248 1:6550000.0 2:0.0 3:0.0 4:39.0 5:1.62 6:0.0 7:25.0 8:0.0 9:0.0 10:0.0 11:19.0 12:188.0 13:131.66666666666666 14:0.0 15:0.0 16:0.0 17:0.03306976705789566 18:0.12162530422210693 19:0.0 20:4.0 
2049.726710744596 1:5.0E7 2:3.0 3:3.0 4:54.0 5:2.62 6:0.0 7:25.0 8:0.0 9:0.0 10:0.0 11:2.0 12:19.0 13:9.4 14:0.0 15:0.8484848737716675 16:0.39522603812317053 17:0.0023346920497715473 18:0.12162530422210693 19:0.0 20:4.0 
9.953253275190885 1:1360000.0 2:5.0 3:5.0 4:34.0 5:1.64 6:0.12 7:23.68 8:0.0 9:0.32497 10:0.04128083333333333 11:3.0 12:5.0 13:4.6 14:0.3125 15:0.4166666567325592 16:0.33333333134651183 17:0.09958506375551224 18:0.20118343830108643 19:0.0 20:1.0 
1.7268410094412683 1:2070000.0 2:0.0 3:0.0 4:41.0 5:1.52 6:1.08 7:15.88 8:0.0 9:0.61637 10:0.431296976744186 11:2.0 12:11.0 13:2.3488372093023258 14:0.0 15:0.9965397715568542 16:0.9400206111198248 17:0.0965866819024086 18:0.6575654149055481 19:0.0 20:4.0 
8.427913322219968 1:2.2E7 2:0.0 3:0.0 4:100.0 5:2.0 6:0.14 7:24.44 8:0.0 9:0.35997 10:0.08556625000000001 11:11.0 12:58.0 13:48.3125 14:0.0 15:0.8799871206283569 16:0.606285622343421 17:0.0965866819024086 18:0.20058725774288177 19:0.0 20:5.0 
1.7264078514049825 1:5.8E8 2:5.5 3:5.5 4:49.0 5:1.2 6:0.12 7:20.2 8:0.0 9:0.3441 10:0.09250611111111111 11:11.0 12:52.0 13:29.11111111111111 14:0.0 15:0.88857501745224 16:0.29619167248408 17:0.0965866819024086 18:0.1268111765384674 19:0.0 20:3.0 
1.7718842054121824 1:1.17E7 2:0.0 3:0.0 4:65.0 5:1.72 6:0.3 7:21.64 8:0.0 9:0.26285 10:0.17903999999999998 11:19.0 12:215.0 13:156.23076923076923 14:0.0 15:0.7163187861442566 16:0.5593408071077787 17:0.06470786035060883 18:0.12162530422210693 19:0.0 20:5.0 
1.7264076067332823 1:9080000.0 2:0.0 3:0.0 4:49.0 5:1.42 6:0.0 7:25.0 8:0.0 9:0.0 10:0.0 11:10.0 12:19.0 13:15.4 14:0.0 15:0.6939443349838257 16:0.27757773399353025 17:0.07303569465875626 18:0.12162530422210693 19:0.0 20:5.0 
2.0276992314397058 1:1.16E7 2:0.0 3:0.0 4:41.0 5:1.434782608695652 6:0.043478260869565216 7:24.0 8:0.0 9:0.25271 10:0.098634 11:1.0 12:584.0 13:125.0 14:0.0 15:1.0 16:0.286176472902298 17:0.0016846496146172285 18:0.12162530422210693 19:0.0 20:4.0 
2.2276682784205617 1:5.54E7 2:1.0 3:1.0 4:39.0 5:2.152173913043478 6:0.10869565217391304 7:25.0 8:0.0 9:0.27262 10:0.11711749999999999 11:9.0 12:31.0 13:17.25 14:0.0 15:0.7477663159370422 16:0.453388936817646 17:0.009243255481123924 18:0.12162530422210693 19:0.0 20:5.0 
1.7264061139791063 1:4.09E7 2:0.0 3:0.0 4:64.0 5:2.04 6:0.22 7:22.04 8:0.0 9:0.2786 10:0.13033692307692307 11:17.0 12:72.0 13:34.69230769230769 14:0.0 15:0.8528481125831604 16:0.45443331278287447 17:0.045545544475317 18:0.12238147854804993 19:0.0 20:4.0 
1.726405220177532 1:5890000.0 2:0.0 3:0.0 4:45.0 5:1.58 6:0.94 7:16.68 8:0.0 9:0.44437 10:0.2453135294117647 11:15.0 12:81.0 13:61.705882352941174 14:0.0 15:0.8955714702606201 16:0.8674137154046226 17:0.12162530422210693 18:0.42871496081352234 19:0.0 20:5.0 
1.7304253509095053 1:2440000.0 2:0.0 3:0.0 4:39.0 5:1.46 6:1.0 7:18.48 8:0.0 9:0.53298 10:0.32468 11:3.0 12:3.0 13:3.0 14:0.9488636255264282 15:0.9488636255264282 16:0.9488636255264282 17:0.33713850378990173 18:0.33713850378990173 19:0.0 20:0.0 
1.7287522032253968 1:9650000.0 2:0.0 3:0.0 4:72.0 5:1.52 6:0.64 7:17.48 8:0.0 9:0.59284 10:0.2592824 11:11.0 12:19.0 13:18.36 14:0.0 15:0.897988498210907 16:0.7902298784255981 17:0.0965866819024086 18:0.39492958784103394 19:0.0 20:4.0 
1.7264064076856807 1:6.91E7 2:0.0 3:0.0 4:152.0 5:3.14 6:0.0 7:25.0 8:0.0 9:0.0 10:0.0 11:77.0 12:77.0 13:77.0 14:0.0 15:0.0 16:0.0 17:0.31937190890312195 18:0.31937190890312195 19:0.0 20:0.0 
2049.7264894675077 1:1.2E7 2:0.0 3:0.0 4:49.0 5:1.72 6:0.14 7:22.96 8:0.0 9:0.33482 10:0.22412 11:8.0 12:19.0 13:10.2 14:0.0 15:0.9562236070632935 16:0.7649788856506348 17:0.03310532122850418 18:0.12162530422210693 19:0.0 20:5.0 
1.7264272498241444 1:6.33E8 2:0.0 3:0.0 4:65.0 5:1.98 6:0.76 7:15.96 8:0.0 9:0.44933 10:0.2401145161290322 11:7.0 12:43.0 13:15.935483870967742 14:0.0 15:0.9923354387283325 16:0.7301144077773055 17:0.05572663992643356 18:0.3549247086048126 19:0.0 20:8.0 
1.726806999904082 1:8850000.0 2:0.0 3:0.0 4:60.0 5:1.68 6:1.2 7:17.92 8:0.0 9:0.40339 10:0.2782291176470588 11:19.0 12:45.0 13:44.23529411764706 14:0.0 15:0.9573549032211304 16:0.9291974060675677 17:0.12162530422210693 18:0.25255295634269714 19:0.0 20:5.0 
2049.7269510583874 1:9490000.0 2:0.0 3:0.0 4:58.0 5:1.88 6:0.12 7:22.8 8:0.0 9:0.2586 10:0.11948083333333333 11:19.0 12:287.0 13:116.5 14:0.0 15:0.8366552591323853 16:0.3222847233215968 17:0.01077199261635542 18:0.12162530422210693 19:0.0 20:4.0 
1.726413565407379 1:1.56E7 2:0.0 3:0.0 4:74.0 5:1.68 6:0.24 7:21.32 8:0.0 9:0.29982 10:0.16406666666666667 11:11.0 12:46.0 13:35.666666666666664 14:0.0 15:0.9686509370803833 16:0.6457672913869222 17:0.0965866819024086 18:0.25964590907096863 19:0.0 20:5.0 
1.7263686216964054 1:4500000.0 2:0.0 3:0.0 4:141.0 5:2.92 6:0.0 7:25.0 8:0.0 9:0.0 10:0.0 11:39.0 12:39.0 13:39.0 14:2.648655790835619E-4 15:2.648655790835619E-4 16:2.648655790835619E-4 17:0.28255683183670044 18:0.28255683183670044 19:0.0 20:0.0 
1026.0295529717223 1:2.42E7 2:0.0 3:0.0 4:64.0 5:1.88 6:0.02 7:25.0 8:0.0 9:0.2098 10:0.011655555555555554 11:0.0 12:19.0 13:17.5 14:0.0 15:0.0 16:0.0 17:0.0 18:0.12162530422210693 19:0.0 20:5.0 
1.726440095696549 1:1.77E7 2:0.0 3:0.0 4:34.0 5:2.7 6:0.2 7:23.12 8:0.0 9:0.28824 10:0.12244235294117649 11:9.0 12:33.0 13:18.235294117647058 14:0.0 15:0.7440758347511292 16:0.34517696324516745 17:0.009338676929473877 18:0.12162530422210693 19:0.0 20:3.0 
1.7268187988631627 1:122000.0 2:0.0 3:0.0 4:76.0 5:2.22 6:0.3 7:20.44 8:0.0 9:0.29662 10:0.17916666666666664 11:5.0 12:177.0 13:162.66666666666666 14:0.0 15:0.7765306234359741 16:0.7118197381496429 17:0.04741980507969856 18:0.251667320728302 19:0.0 20:1.0 
2.365491934385269 1:2.1E7 2:0.0 3:0.0 4:41.0 5:1.68 6:0.24 7:22.44 8:0.0 9:0.28414 10:0.18687785714285715 11:4.0 12:21.0 13:18.142857142857142 14:0.0 15:0.7895981073379517 16:0.5976608991622925 17:0.025991791859269142 18:0.12162530422210693 19:0.0 20:5.0 
5.336931531187481 1:9730000.0 2:0.0 3:0.0 4:70.0 5:1.68 6:0.0 7:25.0 8:0.0 9:0.0 10:0.0 11:19.0 12:32.0 13:21.6 14:0.0 15:0.0 16:0.0 17:0.0665351003408432 18:0.12162530422210693 19:1.0 20:5.0 
1098.049264525954 1:7880000.0 2:4.0 3:4.0 4:45.0 5:2.0 6:0.0 7:25.0 8:0.0 9:0.0 10:0.0 11:7.0 12:19.0 13:17.125 14:0.0 15:0.44549763202667236 16:0.1570029892027378 17:0.04363563284277916 18:0.12162530422210693 19:0.0 20:5.0 
2.274395937914899 1:1.07E7 2:0.0 3:0.0 4:36.0 5:1.96 6:0.1 7:23.2 8:0.0 9:0.29548 10:0.12883899999999998 11:9.0 12:52.0 13:29.2 14:0.0 15:0.46706587076187134 16:0.2164344757795334 17:0.00822936836630106 18:0.12162530422210693 19:0.0 20:4.0 
1.7264477355942296 1:1660000.0 2:0.0 3:0.0 4:51.0 5:1.68 6:0.3 7:19.4 8:0.0 9:0.38364 10:0.18902687499999996 11:2.0 12:19.0 13:6.222222222222222 14:0.0 15:0.9764705896377563 16:0.4711246109671063 17:0.0965866819024086 18:0.3479887843132019 19:0.0 20:5.0 
2.7453358676315314 1:6870000.0 2:3.0 3:3.0 4:49.0 5:1.68 6:0.04 7:24.2 8:0.0 9:0.21384 10:0.04641222222222222 11:11.0 12:27.0 13:15.444444444444445 14:0.0 15:0.7363530993461609 16:0.16363402207692465 17:0.006107783410698175 18:0.12162530422210693 19:0.0 20:3.0 
1025.726998974655 1:1.2E7 2:0.0 3:0.0 4:37.0 5:1.68 6:0.12 7:23.96 8:0.0 9:0.24051 10:0.08051272727272728 11:11.0 12:44.0 13:26.636363636363637 14:0.0 15:0.887159526348114 16:0.3226034641265869 17:0.013203158974647522 18:0.12162530422210693 19:0.0 20:5.0 
1.726464624069997 1:179.0 2:0.0 3:0.0 4:190.0 5:3.86 6:0.0 7:25.0 8:0.0 9:0.0 10:0.0 11:11.0 12:165.0 13:147.88888888888889 14:0.0 15:0.0 16:0.0 17:0.0965866819024086 18:0.2887280583381653 19:0.0 20:0.0 
2.9936680353231955 1:3790000.0 2:4.0 3:4.0 4:43.0 5:1.32 6:0.0 7:25.0 8:0.0 9:0.0 10:0.0 11:19.0 12:25.0 13:20.5 14:0.0 15:0.0 16:0.0 17:0.030418528243899345 18:0.12162530422210693 19:0.0 20:5.0 
32.87086806175112 1:127000.0 2:8.0 3:8.0 4:15.0 5:0.36 6:0.0 7:25.0 8:0.0 9:0.0 10:0.0 11:19.0 12:19.0 13:19.0 14:0.0 15:0.0 16:0.0 17:0.12162530422210693 18:0.12162530422210693 19:5.0 20:5.0 
1.7264877980395723 1:26000.0 2:2.5 3:2.5 4:48.0 5:1.18 6:0.0 7:25.0 8:0.0 9:0.0 10:0.0 11:1.0 12:19.0 13:2.2 14:0.0 15:0.0 16:0.0 17:0.12162530422210693 18:0.8478260636329651 19:3.0 20:3.0 
1.7264915250572845 1:2670000.0 2:0.0 3:0.0 4:55.0 5:2.26 6:0.0 7:25.0 8:0.0 9:0.0 10:0.0 11:2.0 12:105.0 13:31.0 14:0.0 15:0.0 16:0.0 17:0.006244725547730923 18:0.12162530422210693 19:2.0 20:5.0 
1025.726492662302 1:4920000.0 2:0.0 3:0.0 4:120.0 5:2.42 6:0.28 7:20.44 8:0.0 9:0.34465 10:0.09493966666666664 11:11.0 12:255.0 13:148.83333333333334 14:0.0 15:0.3731694221496582 16:0.1493633120529315 17:0.0965866819024086 18:0.314834862947464 19:0.0 20:1.0 
1.7269205594564507 1:395000.0 2:0.0 3:0.0 4:90.0 5:3.5 6:0.4 7:22.8 8:0.0 9:0.34384 10:0.1698521052631579 11:13.0 12:21.0 13:15.909090909090908 14:0.0 15:0.39463600516319275 16:0.2511320032856681 17:0.16830870509147644 18:0.35782313346862793 19:0.0 20:0.0 
1.7273363190785664 1:3110000.0 2:0.0 3:0.0 4:62.0 5:1.56 6:1.1 7:17.36 8:0.0 9:0.45538 10:0.29167027027027026 11:7.0 12:7.0 13:7.0 14:0.7746031880378723 15:0.7746031880378723 16:0.7746031880378723 17:0.379518061876297 18:0.379518061876297 19:0.0 20:0.0 
1.7265290432731604 1:5910000.0 2:0.0 3:0.0 4:40.0 5:1.5 6:0.14 7:24.04 8:0.0 9:0.23604 10:0.06059454545454545 11:2.0 12:19.0 13:15.090909090909092 14:0.0 15:0.9555555582046509 16:0.23686868494207208 17:0.009058312512934208 18:0.12162530422210693 19:0.0 20:5.0 
9.00275025693188 1:4370000.0 2:3.0 3:3.0 4:75.0 5:1.62 6:0.0 7:25.0 8:0.0 9:0.0 10:0.0 11:19.0 12:45.0 13:36.333333333333336 14:0.0 15:0.1369047611951828 16:0.09126984079678853 17:0.12162530422210693 18:0.2647058963775635 19:1.0 20:4.0 
1.7268908580950106 1:161000.0 2:0.0 3:0.0 4:124.0 5:2.7 6:0.32 7:20.36 8:0.0 9:0.39098 10:0.303674 11:13.0 12:13.0 13:13.0 14:0.017543859779834747 15:0.017543859779834747 16:0.017543859779834747 17:0.3589743673801422 18:0.3589743673801422 19:1.0 20:1.0 
1.7268894360371303 1:3760000.0 2:0.0 3:0.0 4:267.0 5:5.4 6:0.0 7:25.0 8:0.0 9:0.0 10:0.0 11:0.0 12:0.0 13:0.0 14:0.0 15:0.0 16:0.0 17:0.0 18:0.0 19:2.147483647E9 20:0.0 
1.7268470994129677 1:2690000.0 2:0.0 3:0.0 4:55.0 5:2.92 6:0.0 7:25.0 8:0.0 9:0.0 10:0.0 11:11.0 12:12.0 13:11.333333333333334 14:0.0 15:0.0 16:0.0 17:0.06271880865097046 18:0.0965866819024086 19:0.0 20:0.0 
1.7269231465199075 1:4.72E7 2:4.0 3:4.0 4:104.0 5:3.5 6:0.0 7:25.0 8:0.0 9:0.0 10:0.0 11:0.0 12:0.0 13:0.0 14:0.0 15:0.0 16:0.0 17:0.0 18:0.0 19:2.147483647E9 20:0.0 
1.726495980550542 1:7600000.0 2:0.0 3:0.0 4:49.0 5:2.9 6:0.04 7:23.76 8:0.22164 9:0.23277 10:0.227205 11:46.0 12:425.0 13:235.5 14:0.14457830786705017 15:0.5614266991615295 16:0.35300250351428986 17:0.0011091254418715835 18:0.07070863991975784 19:0.0 20:1.0 
1.7268378960655337 1:6900000.0 2:0.0 3:0.0 4:41.0 5:2.88 6:0.08 7:25.0 8:0.0 9:0.31655 10:0.13954333333333332 11:4.0 12:32.0 13:19.666666666666668 14:0.2829457223415375 15:0.5638450384140015 16:0.51426533361276 17:0.0054458086378872395 18:0.029709557071328163 19:0.0 20:1.0 
1.726810951023694 1:8430000.0 2:0.0 3:0.0 4:62.0 5:1.42 6:0.12 7:22.92 8:0.21009 9:0.24651 10:0.23304999999999998 11:163.0 12:163.0 13:163.0 14:0.7096114754676819 15:0.7096114754676819 16:0.7096114754676819 17:0.04972151294350624 18:0.04972151294350624 19:0.0 20:0.0 
1.9259439260000235 1:7640000.0 2:0.0 3:0.0 4:74.0 5:2.14 6:0.16 7:22.44 8:0.0 9:0.31172 10:0.23447375 11:19.0 12:94.0 13:58.625 14:0.0 15:0.7180883288383484 16:0.4380975589156151 17:0.012488273903727531 18:0.12162530422210693 19:0.0 20:4.0 
4099.951373313041 1:1.0E7 2:3.5 3:3.5 4:79.0 5:1.66 6:0.0 7:25.0 8:0.0 9:0.0 10:0.0 11:19.0 12:19.0 13:19.0 14:0.0 15:0.0 16:0.0 17:0.12162530422210693 18:0.12162530422210693 19:5.0 20:5.0 
1.7269185514016852 1:287000.0 2:0.0 3:0.0 4:88.0 5:4.26 6:0.0 7:25.0 8:0.0 9:0.0 10:0.0 11:1.0 12:14.0 13:10.75 14:0.0 15:0.0 16:0.0 17:0.004025359638035297 18:0.038419511169195175 19:0.0 20:1.0 
1.7265448728023467 1:363000.0 2:0.0 3:0.0 4:17.0 5:1.5 6:1.42 7:14.32 8:0.0 9:0.82259 10:0.6368915217391306 11:1.0 12:2.0 13:1.9791666666666667 14:0.9849849939346313 15:1.0 16:0.9852978065609932 17:0.1666666716337204 18:0.8409090638160706 19:0.0 20:2.0 
1.7268388307418476 1:1.26E7 2:0.0 3:0.0 4:49.0 5:2.16 6:0.08 7:22.2 8:0.0 9:0.29931 10:0.1311825 11:2.0 12:33.0 13:15.75 14:0.0 15:1.0 16:0.4711538478732109 17:0.004513217136263847 18:0.12162530422210693 19:0.0 20:7.0 
32.87262223038594 1:5430000.0 2:1.0 3:1.0 4:88.0 5:1.78 6:0.0 7:25.0 8:0.0 9:0.0 10:0.0 11:19.0 12:284.0 13:151.5 14:0.0 15:0.010638297535479069 16:0.005319148767739534 17:0.08294700086116791 18:0.12162530422210693 19:1.0 20:5.0 
2.5377575688504206 1:1.09E7 2:4.0 3:4.0 4:70.0 5:1.6 6:0.3 7:22.0 8:0.0 9:0.34465 10:0.10829222222222222 11:11.0 12:255.0 13:215.22222222222223 14:0.0 15:0.3731694221496582 16:0.3109745184580485 17:0.0965866819024086 18:0.22146333754062653 19:0.0 20:5.0 
356.06953259371267 1:640000.0 2:5.4 3:5.4 4:339.0 5:7.66 6:0.0 7:25.0 8:0.0 9:0.0 10:0.0 11:77.0 12:77.0 13:77.0 14:0.0 15:0.0 16:0.0 17:0.018374405801296234 18:0.018374405801296234 19:5.0 20:5.0 
1.7269210297016546 1:8370000.0 2:0.0 3:0.0 4:86.0 5:1.74 6:0.28 7:21.52 8:0.0 9:0.2831 10:0.2067625 11:19.0 12:350.0 13:294.8333333333333 14:0.0 15:0.9420849680900574 16:0.7850708067417145 17:0.12162530422210693 18:0.15866480767726898 19:0.0 20:5.0 
1.7269230560997693 1:1.48E7 2:0.0 3:0.0 4:156.0 5:4.34 6:0.0 7:25.0 8:0.0 9:0.0 10:0.0 11:19.0 12:62.0 13:29.0 14:0.0 15:0.0 16:0.0 17:0.015477676875889301 18:0.12162530422210693 19:0.0 20:4.0 
1.7268432116508263 1:1150000.0 2:0.0 3:0.0 4:52.0 5:1.46 6:1.24 7:15.72 8:0.21201 9:0.54093 10:0.29295513513513516 11:5.0 12:5.0 13:5.0 14:0.9234234094619751 15:0.9234234094619751 16:0.9234234094619751 17:0.32463768124580383 18:0.32463768124580383 19:0.0 20:0.0 
1025.7269530577682 1:8730000.0 2:0.0 3:0.0 4:43.0 5:1.7 6:0.2 7:21.6 8:0.0 9:0.31713 10:0.22079363636363636 11:3.0 12:26.0 13:22.636363636363637 14:0.0 15:0.9389269351959229 16:0.7653475349599664 17:0.020043732598423958 18:0.12162530422210693 19:0.0 20:5.0 
1.7265818435762281 1:1.06E7 2:0.0 3:0.0 4:28.0 5:1.46 6:0.08 7:24.12 8:0.0 9:0.25487 10:0.14051285714285713 11:3.0 12:39.0 13:19.857142857142858 14:0.0 15:0.9456067085266113 16:0.4359752833843231 17:0.005538986064493656 18:0.12162530422210693 19:0.0 20:5.0 
1.7269121204793596 1:2030000.0 2:0.0 3:0.0 4:25.0 5:1.28 6:0.36 7:20.6 8:0.0 9:0.33028 10:0.2365628571428571 11:1.0 12:19.0 13:2.2857142857142856 14:0.0 15:1.0 16:0.9285714285714286 17:0.03678160905838013 18:0.23273657262325287 19:0.0 20:5.0 
1.7270518232569778 1:158000.0 2:0.0 3:0.0 4:23.0 5:1.36 6:1.12 7:14.2 8:0.0 9:0.63417 10:0.4413063043478261 11:1.0 12:19.0 13:3.04 14:0.0 15:1.0 16:0.9407792139053345 17:0.0965866819024086 18:0.7031963467597961 19:0.0 20:5.0 
1.7268108173473777 1:2830000.0 2:0.0 3:0.0 4:130.0 5:2.66 6:0.24 7:22.68 8:0.0 9:0.29989 10:0.05772166666666667 11:19.0 12:66.0 13:53.53125 14:0.0 15:0.8937768340110779 16:0.22344420850276947 17:0.12162530422210693 18:0.5034438967704773 19:0.0 20:5.0 
1025.727003953188 1:3.0E7 2:0.0 3:0.0 4:58.0 5:1.74 6:0.0 7:25.0 8:0.0 9:0.0 10:0.0 11:11.0 12:19.0 13:16.333333333333332 14:0.0 15:0.0 16:0.0 17:0.0965866819024086 18:0.12162530422210693 19:0.0 20:5.0 
2050.3443714566665 1:1.06E7 2:0.0 3:0.0 4:64.0 5:1.7708333333333333 6:0.0 7:25.0 8:0.0 9:0.0 10:0.0 11:19.0 12:19.0 13:19.0 14:0.0 15:0.0 16:0.0 17:0.12162530422210693 18:0.12162530422210693 19:4.0 20:4.0 
1568.1202031577584 1:9570000.0 2:3.0 3:3.0 4:61.0 5:1.56 6:0.0 7:25.0 8:0.0 9:0.0 10:0.0 11:11.0 12:219.0 13:67.0 14:0.0 15:3.178134502377361E-4 16:7.945336255943403E-5 17:0.03219352290034294 18:0.12162530422210693 19:0.0 20:4.0 
1.80807064466971 1:3890000.0 2:0.0 3:0.0 4:49.0 5:1.74 6:0.32 7:22.92 8:0.0 9:0.38189 10:0.17093947368421053 11:8.0 12:14.0 13:12.736842105263158 14:0.0 15:0.885288417339325 16:0.7629674955418235 17:0.0965866819024086 18:0.16865038871765137 19:0.0 20:3.0 
1025.7269290263948 1:1.51E7 2:0.0 3:0.0 4:47.0 5:1.72 6:0.0 7:25.0 8:0.0 9:0.0 10:0.0 11:11.0 12:19.0 13:16.77777777777778 14:0.0 15:0.0 16:0.0 17:0.0965866819024086 18:0.12162530422210693 19:0.0 20:5.0 
1.7268731310073901 1:5.95E7 2:0.0 3:0.0 4:71.0 5:1.44 6:0.94 7:16.36 8:0.27634 9:0.55517 10:0.3559427272727273 11:347.0 12:347.0 13:347.0 14:0.9320058822631836 15:0.9320058822631836 16:0.9320058822631836 17:0.48020118474960327 18:0.48020118474960327 19:0.0 20:0.0 
1.7267289244756223 1:1.21E7 2:0.0 3:0.0 4:41.0 5:2.64 6:0.32 7:20.72 8:0.0 9:0.31326 10:0.11555821428571426 11:6.0 12:33.0 13:16.178571428571427 14:0.0 15:0.9233098030090332 16:0.4286629174436842 17:0.018370669335126877 18:0.12162530422210693 19:0.0 20:5.0 
1.7269585119881752 1:1260000.0 2:0.0 3:0.0 4:264.0 5:5.68 6:0.0 7:25.0 8:0.0 9:0.0 10:0.0 11:0.0 12:0.0 13:0.0 14:0.0 15:0.0 16:0.0 17:0.0 18:0.0 19:2.147483647E9 20:0.0 
2.524634008010002 1:2.29E7 2:1.6666666666666667 3:1.6666666666666667 4:158.0 5:4.18 6:0.0 7:25.0 8:0.0 9:0.0 10:0.0 11:11.0 12:103.0 13:41.91428571428571 14:0.0 15:0.0 16:0.0 17:0.02571987174451351 18:0.24246075749397278 19:0.0 20:10.0 
1.8732968718729675 1:1.56E7 2:4.5 3:4.5 4:54.0 5:1.38 6:0.0 7:25.0 8:0.0 9:0.0 10:0.0 11:19.0 12:43.0 13:23.8 14:0.0 15:0.018840579316020012 16:0.0037681158632040025 17:0.04771197959780693 18:0.12162530422210693 19:1.0 20:5.0 
1.726948304314143 1:175000.0 2:0.0 3:0.0 4:153.0 5:3.06 6:0.0 7:25.0 8:0.0 9:0.0 10:0.0 11:4.0 12:4.0 13:4.0 14:0.0 15:0.0 16:0.0 17:0.469255656003952 18:0.469255656003952 19:1.0 20:1.0 
1.7295543852568138 1:8300000.0 2:0.0 3:0.0 4:68.0 5:1.44 6:0.68 7:17.76 8:0.0 9:0.4863 10:0.23111054054054056 11:19.0 12:31.0 13:30.675675675675677 14:0.0 15:0.8983963131904602 16:0.8741153317528803 17:0.12162530422210693 18:0.4140148460865021 19:0.0 20:5.0 
1.7266216805603907 1:4.48E7 2:0.0 3:0.0 4:44.0 5:1.44 6:0.06 7:23.16 8:0.0 9:0.25019 10:0.0548225 11:11.0 12:56.0 13:24.916666666666668 14:0.0 15:0.8362573385238647 16:0.14813976672788462 17:0.007916273549199104 18:0.12162530422210693 19:0.0 20:5.0 
1.726867761139221 1:622000.0 2:0.0 3:0.0 4:142.0 5:2.84 6:0.24 7:21.16 8:0.0 9:0.3186 10:0.14175444444444443 11:13.0 12:46.0 13:27.210526315789473 14:0.0 15:0.7483870983123779 16:0.3938879464801989 17:0.12162530422210693 18:0.25964590907096863 19:0.0 20:5.0 
1.7268704626872087 1:6.0E7 2:0.0 3:0.0 4:74.0 5:3.0 6:0.0 7:25.0 8:0.0 9:0.0 10:0.0 11:10.0 12:54.0 13:23.7 14:0.0 15:0.0 16:0.0 17:0.002380243968218565 18:0.12162530422210693 19:0.0 20:7.0 
1.7268887841974714 1:1190000.0 2:0.0 3:0.0 4:70.0 5:2.76 6:0.0 7:25.0 8:0.0 9:0.0 10:0.0 11:19.0 12:19.0 13:19.0 14:0.0 15:0.0 16:0.0 17:0.12162530422210693 18:0.12162530422210693 19:4.0 20:4.0 
1.7268478949750685 1:8390000.0 2:0.0 3:0.0 4:28.0 5:1.42 6:1.02 7:15.36 8:0.0 9:0.61004 10:0.43430347826086946 11:1.0 12:3.0 13:1.7391304347826086 14:0.0892857164144516 15:1.0 16:0.9786421083237814 17:0.11949685215950012 18:0.616287112236023 19:0.0 20:8.0 
1.8737084732497213 1:177000.0 2:7.5 3:7.5 4:17.0 5:0.38 6:0.0 7:25.0 8:0.0 9:0.0 10:0.0 11:19.0 12:19.0 13:19.0 14:0.0 15:0.0 16:0.0 17:0.12162530422210693 18:0.12162530422210693 19:5.0 20:5.0 
1.7270192888174145 1:3400000.0 2:0.0 3:0.0 4:61.0 5:1.26 6:0.82 7:16.44 8:0.0 9:0.58857 10:0.3486966666666667 11:6.0 12:19.0 13:6.696969696969697 14:0.0 15:0.9757462739944458 16:0.887042067267678 17:0.0965866819024086 18:0.5145584940910339 19:0.0 20:5.0 
1.7270370951906435 1:763000.0 2:0.0 3:0.0 4:126.0 5:2.8 6:0.1 7:24.32 8:0.0 9:0.25307 10:0.17804 11:8.0 12:42.0 13:33.5 14:0.0 15:0.22537562251091003 16:0.16903171688318253 17:0.03291118144989014 18:0.19395621120929718 19:0.0 20:3.0 
1.7270196286059298 1:4750000.0 2:0.0 3:0.0 4:38.0 5:1.68 6:0.14 7:23.28 8:0.0 9:0.2713 10:0.12275100000000001 11:1.0 12:19.0 13:10.8 14:0.0 15:1.0 16:0.45798816680908205 17:0.019661862403154373 18:0.12162530422210693 19:0.0 20:5.0 
1.726909176416948 1:128000.0 2:0.0 3:0.0 4:122.0 5:2.58 6:0.0 7:25.0 8:0.0 9:0.0 10:0.0 11:19.0 12:19.0 13:19.0 14:0.0 15:0.0 16:0.0 17:0.12162530422210693 18:0.12162530422210693 19:3.0 20:3.0 
995.1891210114715 1:1520000.0 2:1.8 3:1.8 4:111.0 5:3.92 6:0.0 7:25.0 8:0.0 9:0.0 10:0.0 11:8.0 12:62.0 13:52.15 14:0.0 15:0.0 16:0.0 17:0.0021279186476022005 18:0.2576611340045929 19:0.0 20:3.0 
1.7271622844100438 1:1920000.0 2:0.0 3:0.0 4:128.0 5:2.6 6:0.0 7:25.0 8:0.0 9:0.0 10:0.0 11:19.0 12:19.0 13:19.0 14:0.0 15:0.0 16:0.0 17:0.12162530422210693 18:0.12162530422210693 19:5.0 20:5.0 
2.6467907156341828 1:203000.0 2:4.5 3:4.5 4:66.0 5:1.48 6:0.12 7:22.16 8:0.0 9:0.45741 10:0.09305454545454546 11:3.0 12:3.0 13:3.0 14:0.08139535039663315 15:0.08139535039663315 16:0.08139535039663315 17:0.6231883764266968 18:0.6231883764266968 19:0.0 20:0.0 
1.7265397606147341 1:477000.0 2:0.0 3:0.0 4:51.0 5:1.64 6:1.28 7:15.12 8:0.5 9:0.82549 10:0.6609061538461538 11:1.0 12:1.0 13:1.0 14:1.0 15:1.0 16:1.0 17:0.7286821603775024 18:0.7286821603775024 19:0.0 20:0.0 
1028.4940484282715 1:3400000.0 2:1.5 3:1.5 4:222.0 5:5.22 6:0.0 7:25.0 8:0.0 9:0.0 10:0.0 11:22.0 12:414.0 13:143.71428571428572 14:0.0 15:0.0 16:0.0 17:0.06417112052440643 18:0.32262882590293884 19:0.0 20:4.0 
2.993080844275776 1:7.02E7 2:2.0 3:2.0 4:77.0 5:1.62 6:0.08 7:24.12 8:0.0 9:0.29342 10:0.04476111111111111 11:11.0 12:414.0 13:303.3888888888889 14:0.0 15:0.5061150193214417 16:0.36552751395437455 17:0.0965866819024086 18:0.22623953223228455 19:0.0 20:5.0 
1.726879701220125 1:1.78E7 2:0.0 3:0.0 4:32.0 5:1.52 6:0.52 7:20.56 8:0.0 9:0.37671 10:0.24039850000000001 11:5.0 12:19.0 13:11.0 14:0.0 15:0.7845622301101685 16:0.7275552068437848 17:0.043752316385507584 18:0.16221727430820465 19:0.0 20:5.0 
1.7270100394592016 1:1360000.0 2:0.0 3:0.0 4:89.0 5:1.82 6:0.22 7:24.48 8:0.0 9:0.29025 10:0.16070555555555555 11:11.0 12:25.0 13:23.444444444444443 14:0.0 15:0.5308641791343689 16:0.4718792703416612 17:0.0965866819024086 18:0.20588235557079315 19:0.0 20:0.0 
1.7265452715092993 1:3750000.0 2:2.0 3:2.0 4:282.0 5:6.2 6:0.0 7:25.0 8:0.0 9:0.0 10:0.0 11:40.0 12:60.0 13:53.333333333333336 14:0.0 15:0.0 16:0.0 17:0.010122154839336872 18:0.015587818808853626 19:0.0 20:3.0 
1.7266934369454423 1:11400.0 2:0.0 3:0.0 4:113.0 5:2.82 6:0.0 7:25.0 8:0.0 9:0.0 10:0.0 11:11.0 12:11.0 13:11.0 14:0.0 15:0.0 16:0.0 17:0.0965866819024086 18:0.0965866819024086 19:0.0 20:0.0 
4.073424658483646 1:4960000.0 2:0.0 3:0.0 4:85.0 5:1.88 6:0.0 7:25.0 8:0.0 9:0.0 10:0.0 11:11.0 12:165.0 13:88.0 14:0.0 15:0.0 16:0.0 17:0.0965866819024086 18:0.31965431571006775 19:0.0 20:5.0 
1.7266974083573219 1:9180000.0 2:0.0 3:0.0 4:39.0 5:1.58 6:0.1 7:24.48 8:0.0 9:0.25709 10:0.0907675 11:19.0 12:20.0 13:19.875 14:0.0 15:0.8071216344833374 16:0.7062314301729202 17:0.07530519366264343 18:0.12162530422210693 19:0.0 20:5.0 
1.7268718174716033 1:570000.0 2:0.0 3:0.0 4:68.0 5:1.4 6:1.3 7:14.0 8:0.49191 9:0.83598 10:0.6330497727272726 11:2.0 12:2.0 13:2.0 14:1.0 15:1.0 16:1.0 17:0.7942857146263123 18:0.7942857146263123 19:0.0 20:0.0 
1025.7277303096957 1:1.34E7 2:0.0 3:0.0 4:78.0 5:1.56 6:0.68 7:19.04 8:0.0 9:0.45199 10:0.18665757575757574 11:19.0 12:76.0 13:72.54545454545455 14:0.0 15:0.9013437628746033 16:0.8467168681549303 17:0.12162530422210693 18:0.3067189157009125 19:0.0 20:5.0 
4097.726732258679 1:1550000.0 2:0.0 3:0.0 4:61.0 5:1.24 6:0.0 7:25.0 8:0.0 9:0.0 10:0.0 11:0.0 12:0.0 13:0.0 14:0.0 15:0.0 16:0.0 17:0.0 18:0.0 19:2.147483647E9 20:0.0 
1.72691972652397 1:7270000.0 2:0.3333333333333333 3:0.3333333333333333 4:211.0 5:4.46 6:0.0 7:25.0 8:0.0 9:0.0 10:0.0 11:82.0 12:255.0 13:160.47619047619048 14:0.0 15:0.0 16:0.0 17:0.04210483655333519 18:0.314834862947464 19:0.0 20:1.0 
2.2812498697343915 1:2.42E7 2:0.0 3:0.0 4:29.0 5:1.697674418604651 6:0.0 7:25.0 8:0.0 9:0.0 10:0.0 11:3.0 12:19.0 13:13.0 14:0.0 15:0.9047619104385376 16:0.2261904776096344 17:0.024318348616361618 18:0.12162530422210693 19:0.0 20:5.0 
1025.726596821546 1:1.01E8 2:0.0 3:0.0 4:82.0 5:1.68 6:0.92 7:15.88 8:0.0 9:0.54923 10:0.38041222222222215 11:11.0 12:211.0 13:194.77777777777777 14:0.0 15:0.9615075588226318 16:0.8813819289207458 17:0.0965866819024086 18:0.6428800821304321 19:0.0 20:4.0 
1.88159690444781 1:1.38E8 2:5.5 3:5.5 4:80.0 5:3.34 6:0.0 7:25.0 8:0.0 9:0.0 10:0.0 11:19.0 12:211.0 13:192.0909090909091 14:0.0 15:0.0 16:0.0 17:0.009866781532764435 18:0.6428800821304321 19:0.0 20:3.0 
1.7263478895530446 1:1690000.0 2:0.0 3:0.0 4:71.0 5:2.04 6:0.0 7:25.0 8:0.0 9:0.0 10:0.0 11:4.0 12:24.0 13:19.208333333333332 14:0.0 15:0.0 16:0.0 17:0.03410230576992035 18:0.3068987727165222 19:2.0 20:5.0 
1.7266858390200444 1:1280000.0 2:0.0 3:0.0 4:21.0 5:0.96 6:0.42 7:22.28 8:0.0 9:0.44216 10:0.26694444444444454 11:1.0 12:19.0 13:3.0 14:0.0 15:1.0 16:0.8888888888888888 17:0.10000000149011612 18:0.2344827651977539 19:0.0 20:5.0 
1.7265622818632014 1:1390000.0 2:0.0 3:0.0 4:65.0 5:1.46 6:1.12 7:14.12 8:0.0 9:0.85255 10:0.579435 11:1.0 12:19.0 13:1.5 14:0.0 15:1.0 16:0.9722222222222222 17:0.12162530422210693 18:0.6687116622924805 19:0.0 20:5.0 
1.72657131635905 1:221.0 2:0.0 3:0.0 4:121.0 5:2.44 6:0.52 7:19.64 8:0.0 9:0.37757 10:0.2549472727272727 11:1.0 12:87.0 13:15.16 14:0.0 15:1.0 16:0.8 17:0.0965866819024086 18:0.4556961953639984 19:0.0 20:1.0 
1025.7265406927454 1:2.6E7 2:0.0 3:0.0 4:89.0 5:2.98 6:0.0 7:25.0 8:0.0 9:0.0 10:0.0 11:11.0 12:45.0 13:21.5 14:0.0 15:0.0 16:0.0 17:0.00614770594984293 18:0.12162530422210693 19:0.0 20:5.0 
1.7266970467485943 1:1820000.0 2:0.0 3:0.0 4:48.0 5:2.4 6:0.0 7:25.0 8:0.0 9:0.0 10:0.0 11:11.0 12:45.0 13:28.0 14:0.0 15:0.0 16:0.0 17:0.04115544259548187 18:0.0965866819024086 19:0.0 20:4.0 
1.726867540384091 1:9370000.0 2:0.0 3:0.0 4:26.0 5:0.88 6:0.0 7:25.0 8:0.0 9:0.0 10:0.0 11:19.0 12:19.0 13:19.0 14:0.0 15:0.0 16:0.0 17:0.12162530422210693 18:0.12162530422210693 19:5.0 20:5.0 
3073.726513516984 1:5.96E7 2:3.5 3:3.5 4:57.0 5:3.92 6:0.0 7:25.0 8:0.0 9:0.0 10:0.0 11:0.0 12:0.0 13:0.0 14:0.0 15:0.0 16:0.0 17:0.0 18:0.0 19:2.147483647E9 20:0.0 
1.7269243772238285 1:452000.0 2:0.0 3:0.0 4:264.0 5:5.7 6:0.0 7:25.0 8:0.0 9:0.0 10:0.0 11:2.0 12:19.0 13:8.666666666666666 14:0.0 15:0.0 16:0.0 17:0.011788412928581238 18:0.12162530422210693 19:4.0 20:7.0 
2.3040968328087152 1:2.26E7 2:1.0 3:1.0 4:57.0 5:2.22 6:0.28 7:22.24 8:0.0 9:0.26158 10:0.10739952380952382 11:11.0 12:19.0 13:16.142857142857142 14:0.0 15:0.5970149040222168 16:0.36019685722532724 17:0.05200764909386635 18:0.12162530422210693 19:0.0 20:5.0 
8.895864486990591 1:1.47E7 2:4.0 3:4.0 4:48.0 5:2.06 6:0.0 7:25.0 8:0.0 9:0.0 10:0.0 11:19.0 12:19.0 13:19.0 14:0.0 15:0.0 16:0.0 17:0.12162530422210693 18:0.12162530422210693 19:4.0 20:4.0 
2.389187341028307 1:5.68E7 2:4.5 3:4.5 4:39.0 5:2.22 6:0.16 7:23.08 8:0.0 9:0.30094 10:0.14666583333333333 11:5.0 12:19.0 13:10.666666666666666 14:0.0 15:0.7168674468994141 16:0.33664233501379687 17:0.0317244678735733 18:0.12162530422210693 19:0.0 20:5.0 
1.7269959811356124 1:1.43E7 2:0.0 3:0.0 4:56.0 5:2.16 6:0.04 7:24.8 8:0.0 9:0.21418 10:0.04265 11:5.0 12:19.0 13:11.3 14:0.0 15:0.9384615421295166 16:0.11323087066411971 17:0.0317244678735733 18:0.12162530422210693 19:0.0 20:5.0 
1.7267996491289226 1:3.69E7 2:0.0 3:0.0 4:56.0 5:1.84 6:0.02 7:25.0 8:0.0 9:0.22166 10:0.011666315789473684 11:8.0 12:34.0 13:25.105263157894736 14:0.0 15:0.9377574324607849 16:0.43325439879768773 17:0.009042825549840927 18:0.13875597715377808 19:0.0 20:4.0 
1.726821623987413 1:4.64E7 2:0.0 3:0.0 4:23.0 5:1.7105263157894737 6:0.02631578947368421 7:24.0 8:0.0 9:0.21028 10:0.035046666666666663 11:0.0 12:19.0 13:14.5 14:0.0 15:0.0 16:0.0 17:0.0 18:0.12162530422210693 19:0.0 20:4.0 
1028.4938698523663 1:1.25E7 2:0.0 3:0.0 4:55.0 5:1.54 6:0.0 7:25.0 8:0.0 9:0.0 10:0.0 11:19.0 12:19.0 13:19.0 14:0.0 15:0.0 16:0.0 17:0.12162530422210693 18:0.12162530422210693 19:4.0 20:4.0 
1026.343117167951 1:1.27E7 2:0.0 3:0.0 4:167.0 5:4.58 6:0.0 7:25.0 8:0.0 9:0.0 10:0.0 11:11.0 12:158.0 13:100.8 14:0.0 15:0.0 16:0.0 17:0.06312733143568039 18:0.12162530422210693 19:0.0 20:4.0 
12.015593237500244 1:1.27E7 2:0.5 3:0.5 4:42.0 5:0.86 6:0.0 7:25.0 8:0.0 9:0.0 10:0.0 11:19.0 12:19.0 13:19.0 14:0.0 15:0.0 16:0.0 17:0.12162530422210693 18:0.12162530422210693 19:4.0 20:4.0 
1.729039764648763 1:1.76E7 2:0.0 3:0.0 4:35.0 5:1.48 6:0.02 7:25.0 8:0.20241 9:0.20241 10:0.20241 11:2.0 12:2.0 13:2.0 14:0.9767441749572754 15:0.9767441749572754 16:0.9767441749572754 17:0.02152399718761444 18:0.02152399718761444 19:0.0 20:0.0 
2.786792718392278 1:5.04E7 2:3.0 3:3.0 4:107.0 5:2.72 6:0.0 7:25.0 8:0.0 9:0.0 10:0.0 11:83.0 12:83.0 13:83.0 14:0.0 15:0.0 16:0.0 17:0.39019787311553955 18:0.39019787311553955 19:5.0 20:5.0 
1.7264134025678854 1:4180000.0 2:0.0 3:0.0 4:56.0 5:2.72 6:0.0 7:25.0 8:0.0 9:0.0 10:0.0 11:19.0 12:19.0 13:19.0 14:0.0 15:0.0 16:0.0 17:0.12162530422210693 18:0.12162530422210693 19:4.0 20:4.0 
1.7264149505017063 1:171000.0 2:0.0 3:0.0 4:53.0 5:3.04 6:0.0 7:25.0 8:0.0 9:0.0 10:0.0 11:17.0 12:64.0 13:56.166666666666664 14:0.0 15:0.0 16:0.0 17:0.006791356485337019 18:0.026066115126013756 19:5.0 20:6.0 
2.0515390380119074 1:8.21E7 2:0.0 3:0.0 4:27.0 5:1.8333333333333333 6:0.0 7:25.0 8:0.0 9:0.0 10:0.0 11:2.0 12:19.0 13:7.857142857142857 14:0.0 15:0.8857142925262451 16:0.25306122643607004 17:0.006888633593916893 18:0.12162530422210693 19:0.0 20:5.0 
1025.7264264861362 1:1.43E8 2:0.0 3:0.0 4:27.0 5:1.78 6:0.02 7:24.88 8:0.0 9:0.25652 10:0.08550666666666668 11:19.0 12:159.0 13:65.66666666666667 14:0.0 15:0.8422842621803284 16:0.2807614207267761 17:0.020808955654501915 18:0.12162530422210693 19:0.0 20:4.0 
1025.7264111480083 1:75200.0 2:6.0 3:6.0 4:15.0 5:0.3 6:0.0 7:25.0 8:0.0 9:0.0 10:0.0 11:0.0 12:0.0 13:0.0 14:0.0 15:0.0 16:0.0 17:0.0 18:0.0 19:2.147483647E9 20:0.0 
1026.1139095489684 1:2.43E8 2:2.3333333333333335 3:2.3333333333333335 4:77.0 5:3.4 6:0.0 7:25.0 8:0.0 9:0.0 10:0.0 11:19.0 12:19.0 13:19.0 14:0.0 15:0.0 16:0.0 17:0.12162530422210693 18:0.12162530422210693 19:4.0 20:4.0 
1.7264247880556758 1:1.36E7 2:0.0 3:0.0 4:43.0 5:1.84 6:0.1 7:23.8 8:0.0 9:0.25271 10:0.1156 11:1.0 12:584.0 13:201.5 14:0.0 15:1.0 16:0.31029412150382996 17:0.0016846496146172285 18:0.12162530422210693 19:0.0 20:4.0 
1.7268385977793574 1:147000.0 2:0.0 3:0.0 4:57.0 5:3.54 6:0.0 7:25.0 8:0.0 9:0.0 10:0.0 11:0.0 12:0.0 13:0.0 14:0.0 15:0.0 16:0.0 17:0.0 18:0.0 19:2.147483647E9 20:0.0 
1.726823340804244 1:4.29E7 2:0.0 3:0.0 4:89.0 5:1.82 6:0.38 7:20.6 8:0.0 9:0.43805 10:0.2580538888888888 11:19.0 12:32.0 13:30.555555555555557 14:0.0 15:0.9615856409072876 16:0.854742791917589 17:0.12162530422210693 18:0.17313599586486816 19:0.0 20:5.0 
1.7263550609047513 1:1240000.0 2:0.0 3:0.0 4:144.0 5:2.9 6:0.06 7:24.88 8:0.0 9:0.28108 10:0.1335575 11:1.0 12:114.0 13:33.75 14:0.0 15:1.0 16:0.506578947417438 17:0.03361344709992409 18:0.12162530422210693 19:0.0 20:5.0 
1.7263736138701644 1:6510000.0 2:0.0 3:0.0 4:69.0 5:2.52 6:0.0 7:25.0 8:0.0 9:0.0 10:0.0 11:19.0 12:293.0 13:41.833333333333336 14:0.0 15:0.0 16:0.0 17:0.047455575317144394 18:0.12162530422210693 19:0.0 20:3.0 
6.786264125233446 1:348000.0 2:4.666666666666667 3:4.666666666666667 4:57.0 5:1.2 6:0.0 7:25.0 8:0.0 9:0.0 10:0.0 11:19.0 12:19.0 13:19.0 14:0.0 15:0.0 16:0.0 17:0.12162530422210693 18:0.12162530422210693 19:5.0 20:5.0 
1.7263779054610398 1:3260000.0 2:0.0 3:0.0 4:39.0 5:1.4 6:0.0 7:25.0 8:0.0 9:0.0 10:0.0 11:1.0 12:1.0 13:1.0 14:0.0 15:0.0 16:0.0 17:0.10096153616905212 18:0.10096153616905212 19:1.0 20:1.0 
1.7270267656627425 1:2.38E7 2:0.0 3:0.0 4:54.0 5:1.66 6:0.04 7:24.0 8:0.0 9:0.24044 10:0.05628125 11:2.0 12:11.0 13:8.75 14:0.0 15:0.9852320551872253 16:0.24630801379680634 17:0.04923968017101288 18:0.0965866819024086 19:0.0 20:0.0 
1.7263925276818868 1:2.04E7 2:0.0 3:0.0 4:177.0 5:3.58 6:0.12 7:22.44 8:0.20784 9:0.25743 10:0.2356575 11:2.0 12:2.0 13:2.0 14:0.75 15:0.75 16:0.75 17:0.1927710771560669 18:0.1927710771560669 19:1.0 20:1.0 
1.726876398105262 1:252.0 2:4.0 3:4.0 4:76.0 5:2.08 6:0.0 7:25.0 8:0.0 9:0.0 10:0.0 11:19.0 12:19.0 13:19.0 14:0.0 15:0.0 16:0.0 17:0.12162530422210693 18:0.12162530422210693 19:5.0 20:5.0 
1.6142976665718385 1:1.22E7 2:0.0 3:0.0 4:48.0 5:1.96 6:0.0 7:25.0 8:0.0 9:0.0 10:0.0 11:16.0 12:19.0 13:18.4 14:0.0 15:0.0 16:0.0 17:0.12162530422210693 18:0.16923736035823822 19:1.0 20:3.0 
1.7263965046766012 1:8720000.0 2:0.0 3:0.0 4:36.0 5:2.12 6:0.2 7:22.84 8:0.0 9:0.28363 10:0.05517725 11:3.0 12:29.0 13:9.853658536585366 14:0.0 15:0.3283582031726837 16:0.06572261961495005 17:0.012631013058125973 18:0.1284922957420349 19:0.0 20:3.0 
6.756147140741092 1:1960000.0 2:6.0 3:6.0 4:140.0 5:6.02 6:0.06 7:23.56 8:0.20041 9:0.23828 10:0.21345999999999998 11:17.0 12:17.0 13:17.0 14:0.07808564603328705 15:0.07808564603328705 16:0.07808564603328705 17:0.01342873927205801 18:0.01342873927205801 19:0.0 20:0.0 
1.7264255204243462 1:6.18E7 2:0.0 3:0.0 4:70.0 5:3.84 6:0.02 7:25.0 8:0.0 9:0.25343 10:0.126715 11:19.0 12:69.0 13:44.0 14:0.0 15:0.06872565299272537 16:0.034362826496362686 17:0.05314100906252861 18:0.12162530422210693 19:0.0 20:5.0 
1.7264261284856952 1:7080000.0 2:0.0 3:0.0 4:257.0 5:5.9 6:0.0 7:25.0 8:0.0 9:0.0 10:0.0 11:0.0 12:0.0 13:0.0 14:0.0 15:0.0 16:0.0 17:0.0 18:0.0 19:2.147483647E9 20:0.0 
1.726424696513578 1:229000.0 2:0.0 3:0.0 4:187.0 5:3.74 6:0.32 7:20.56 8:0.22706 9:0.4721 10:0.34586666666666666 11:5.0 12:5.0 13:5.0 14:0.9680638909339905 15:0.9680638909339905 16:0.9680638909339905 17:0.2637362778186798 18:0.2637362778186798 19:1.0 20:1.0 
1.7264136821657918 1:6180000.0 2:0.0 3:0.0 4:49.0 5:1.3 6:0.0 7:25.0 8:0.0 9:0.0 10:0.0 11:65.0 12:65.0 13:65.0 14:0.13377483189105988 15:0.13377483189105988 16:0.13377483189105988 17:0.23651960492134094 18:0.23651960492134094 19:0.0 20:0.0 
4.495890274101799 1:1.22E7 2:1.5 3:1.5 4:57.0 5:1.3 6:0.0 7:25.0 8:0.0 9:0.0 10:0.0 11:19.0 12:19.0 13:19.0 14:0.0 15:0.0 16:0.0 17:0.12162530422210693 18:0.12162530422210693 19:4.0 20:4.0 
4.49211380989463 1:2.95E7 2:1.0 3:1.0 4:57.0 5:1.56 6:0.0 7:25.0 8:0.0 9:0.0 10:0.0 11:19.0 12:61.0 13:23.666666666666668 14:0.0 15:0.010033444501459599 16:0.0011148271668288442 17:0.00840506050735712 18:0.12162530422210693 19:0.0 20:4.0 
1.3417723708919054 1:1.17E7 2:0.0 3:0.0 4:76.0 5:1.88 6:0.02 7:24.0 8:0.0 9:0.27035 10:0.05406999999999999 11:11.0 12:107.0 13:35.0 14:0.0 15:0.7434176802635193 16:0.14868353605270385 17:0.02923189103603363 18:0.12162530422210693 19:0.0 20:5.0 
1.7264187764077326 1:1.5E7 2:0.0 3:0.0 4:117.0 5:2.36 6:0.22 7:21.08 8:0.0 9:0.4035 10:0.13362 11:11.0 12:71.0 13:56.083333333333336 14:0.0 15:0.02304147556424141 16:0.01344086074580749 17:0.0965866819024086 18:0.37423089146614075 19:0.0 20:1.0 
1.748322764903049 1:1.02E7 2:0.0 3:0.0 4:44.0 5:1.4210526315789473 6:0.05263157894736842 7:24.08 8:0.0 9:0.24269 10:0.08089666666666666 11:19.0 12:203.0 13:80.33333333333333 14:0.0 15:0.3258209824562073 16:0.10860699415206909 17:0.002840605564415455 18:0.12162530422210693 19:0.0 20:5.0 
1.7264192674439895 1:169000.0 2:0.0 3:0.0 4:57.0 5:3.74 6:0.0 7:25.0 8:0.0 9:0.0 10:0.0 11:2.0 12:2.0 13:2.0 14:0.0 15:0.0 16:0.0 17:0.46948355436325073 18:0.46948355436325073 19:1.0 20:1.0 
2.028404350583924 1:3550000.0 2:0.0 3:0.0 4:42.0 5:1.46 6:0.58 7:20.84 8:0.0 9:0.4513 10:0.30017523809523816 11:1.0 12:22.0 13:21.0 14:0.9055330753326416 15:1.0 16:0.9100315003168016 17:0.2142857164144516 18:0.31156405806541443 19:0.0 20:5.0 
2.9944866626944635 1:4690000.0 2:5.0 3:5.0 4:29.0 5:1.02 6:0.0 7:25.0 8:0.0 9:0.0 10:0.0 11:1.0 12:19.0 13:14.666666666666666 14:0.0 15:0.0 16:0.0 17:0.0012074669357389212 18:0.12162530422210693 19:0.0 20:5.0 
1.726844468521893 1:4.66E7 2:0.0 3:0.0 4:84.0 5:1.78 6:1.44 7:12.16 8:0.0 9:0.85124 10:0.47786431818181824 11:19.0 12:89.0 13:87.4090909090909 14:0.0 15:0.9544103145599365 16:0.9327191710472107 17:0.12162530422210693 18:0.609058141708374 19:0.0 20:5.0 
1.7264095959887662 1:8.28E7 2:0.0 3:0.0 4:66.0 5:4.2 6:0.0 7:25.0 8:0.0 9:0.0 10:0.0 11:49.0 12:88.0 13:60.142857142857146 14:0.0 15:0.0 16:0.0 17:0.03607931360602379 18:0.10135667771100998 19:0.0 20:3.0 
1.991323388898683 1:226000.0 2:0.0 3:0.0 4:64.0 5:1.34 6:0.0 7:25.0 8:0.0 9:0.0 10:0.0 11:11.0 12:19.0 13:14.0 14:0.0 15:0.0 16:0.0 17:0.0965866819024086 18:0.12162530422210693 19:0.0 20:5.0 
1.7264064189575226 1:8600000.0 2:0.0 3:0.0 4:63.0 5:1.32 6:0.34 7:21.48 8:0.0 9:0.42147 10:0.12424482758620689 11:19.0 12:140.0 13:131.6551724137931 14:0.0 15:0.9216416478157043 16:0.8580801548628971 17:0.12162530422210693 18:0.3031170666217804 19:0.0 20:5.0 
1.7264059774672464 1:2820000.0 2:0.0 3:0.0 4:34.0 5:2.22 6:0.0 7:25.0 8:0.0 9:0.0 10:0.0 11:19.0 12:165.0 13:152.83333333333334 14:0.0 15:2.48827400355367E-5 16:2.280917836590864E-5 17:0.12162530422210693 18:0.31965431571006775 19:0.0 20:5.0 
2.625113070623 1:3.68E7 2:0.0 3:0.0 4:42.0 5:1.74 6:0.02 7:24.0 8:0.0 9:0.20978 10:0.052445 11:5.0 12:62.0 13:24.25 14:0.0 15:0.7878549098968506 16:0.37553516030311584 17:0.0011450896272435784 18:0.12162530422210693 19:0.0 20:5.0 
1.7269182966536822 1:3.07E7 2:0.0 3:0.0 4:57.0 5:1.64 6:0.0 7:25.0 8:0.0 9:0.0 10:0.0 11:19.0 12:19.0 13:19.0 14:0.0 15:0.0 16:0.0 17:0.12162530422210693 18:0.12162530422210693 19:5.0 20:5.0 
1.726401936999071 1:2300000.0 2:0.0 3:0.0 4:126.0 5:2.54 6:0.0 7:25.0 8:0.0 9:0.0 10:0.0 11:11.0 12:19.0 13:15.0 14:0.0 15:0.0 16:0.0 17:0.0965866819024086 18:0.12162530422210693 19:0.0 20:5.0 
1.7264011680297893 1:2.06E7 2:0.0 3:0.0 4:78.0 5:1.58 6:0.38 7:20.04 8:0.0 9:0.57544 10:0.20173812499999996 11:19.0 12:119.0 13:112.0625 14:0.0 15:0.9035241007804871 16:0.8211587637197226 17:0.1004677265882492 18:0.6272457242012024 19:0.0 20:5.0 
1.731575072434516 1:326000.0 2:0.0 3:0.0 4:33.0 5:1.18 6:0.4 7:21.6 8:0.0 9:0.3496 10:0.200776875 11:3.0 12:11.0 13:3.888888888888889 14:0.0 15:0.8265306353569031 16:0.7346938980950249 17:0.0965866819024086 18:0.26178011298179626 19:0.0 20:0.0 
2049.726869963111 1:6.64E7 2:2.4285714285714284 3:2.4285714285714284 4:66.0 5:1.8 6:0.0 7:25.0 8:0.0 9:0.0 10:0.0 11:9.0 12:9.0 13:9.0 14:0.0 15:0.0 16:0.0 17:0.0034323944710195065 18:0.0034323944710195065 19:3.0 20:3.0 
1.7270236393810976 1:195.0 2:0.0 3:0.0 4:177.0 5:3.58 6:0.0 7:25.0 8:0.0 9:0.0 10:0.0 11:19.0 12:19.0 13:19.0 14:0.0 15:0.0 16:0.0 17:0.12162530422210693 18:0.12162530422210693 19:5.0 20:5.0 
1.7432274506702305 1:9300000.0 2:0.0 3:0.0 4:75.0 5:2.26 6:0.22 7:22.68 8:0.0 9:0.30052 10:0.12807333333333334 11:19.0 12:252.0 13:200.22222222222223 14:0.0 15:0.658432126045227 16:0.5121138758129544 17:0.06069674342870712 18:0.12162530422210693 19:0.0 20:4.0 
1.7267654322349455 1:2.88E7 2:2.0 3:2.0 4:88.0 5:1.84 6:0.0 7:25.0 8:0.0 9:0.0 10:0.0 11:11.0 12:275.0 13:244.64705882352942 14:0.0 15:1.8176448065787554E-4 16:1.6038042410989017E-4 17:0.0965866819024086 18:0.5254914164543152 19:0.0 20:5.0 
1.7263750493010568 1:6130000.0 2:0.0 3:0.0 4:25.0 5:1.14 6:0.46 7:18.28 8:0.0 9:0.35639 10:0.23992555555555553 11:1.0 12:19.0 13:3.6666666666666665 14:0.0 15:1.0 16:0.7695473300086128 17:0.04511278122663498 18:0.1663244366645813 19:0.0 20:5.0 
1.7734545730787836 1:1.26E7 2:0.0 3:0.0 4:48.0 5:1.82 6:0.04 7:24.96 8:0.0 9:0.21355 10:0.024825882352941173 11:6.0 12:19.0 13:13.941176470588236 14:0.0 15:0.738161563873291 16:0.1707481496474322 17:0.001990529242902994 18:0.12162530422210693 19:0.0 20:5.0 
1.7272527107772793 1:1390000.0 2:0.0 3:0.0 4:59.0 5:3.32 6:0.0 7:25.0 8:0.0 9:0.0 10:0.0 11:11.0 12:165.0 13:126.5 14:0.0 15:0.0021987687796354294 16:0.001649076584726572 17:0.046083081513643265 18:0.0965866819024086 19:0.0 20:0.0 
1026.4403543779154 1:8640000.0 2:3.5 3:3.5 4:42.0 5:1.68 6:0.0 7:25.0 8:0.0 9:0.0 10:0.0 11:19.0 12:66.0 13:47.5 14:0.0 15:0.12492933869361877 16:0.0814557982608676 17:0.013886172324419022 18:0.12162530422210693 19:0.0 20:5.0 
1.727009231401325 1:7130000.0 2:0.0 3:0.0 4:110.0 5:2.38 6:0.0 7:25.0 8:0.0 9:0.0 10:0.0 11:19.0 12:165.0 13:159.59259259259258 14:0.0 15:3.5226152249379084E-5 16:3.392147994384652E-5 17:0.12162530422210693 18:0.2887280583381653 19:0.0 20:5.0 
1.726513429041782 1:1.98E7 2:0.0 3:0.0 4:53.0 5:2.34 6:0.0 7:25.0 8:0.0 9:0.0 10:0.0 11:5.0 12:32.0 13:16.333333333333332 14:0.0 15:0.28222525119781494 16:0.09407508373260498 17:0.001043785479851067 18:0.015343965031206608 19:0.0 20:2.0 
1.7265144663788146 1:1.71E7 2:0.0 3:0.0 4:99.0 5:3.42 6:0.0 7:25.0 8:0.0 9:0.0 10:0.0 11:1.0 12:62.0 13:17.476190476190474 14:0.0 15:0.0 16:0.0 17:0.012403811328113079 18:1.0 19:0.0 20:5.0 
1026.9944693954697 1:1.16E8 2:0.0 3:0.0 4:36.0 5:1.56 6:0.06 7:24.28 8:0.0 9:0.25482 10:0.06256375 11:19.0 12:228.0 13:46.375 14:0.0 15:0.7985827326774597 16:0.24095187336206436 17:0.0021279186476022005 18:0.12162530422210693 19:0.0 20:4.0 
1.726866657427564 1:2690000.0 2:0.0 3:0.0 4:147.0 5:3.0 6:0.0 7:25.0 8:0.0 9:0.0 10:0.0 11:19.0 12:19.0 13:19.0 14:0.0 15:0.0 16:0.0 17:0.12162530422210693 18:0.12162530422210693 19:4.0 20:4.0 
1.7269935810848682 1:8180000.0 2:0.0 3:0.0 4:56.0 5:2.04 6:1.1 7:18.28 8:0.0 9:0.52001 10:0.3433919999999999 11:8.0 12:19.0 13:8.35483870967742 14:0.0 15:0.8242158889770508 16:0.7976282796552104 17:0.12162530422210693 18:0.4245603084564209 19:0.0 20:5.0 
1.7268282522259937 1:8520000.0 2:0.0 3:0.0 4:30.0 5:1.64 6:0.62 7:19.28 8:0.0 9:0.68599 10:0.26306972972972975 11:1.0 12:19.0 13:1.9268292682926829 14:0.0 15:0.0 16:0.0 17:0.12162530422210693 18:0.6824644804000854 19:0.0 20:6.0 
1.726833355574009 1:3210000.0 2:0.0 3:0.0 4:86.0 5:3.02 6:0.02 7:24.08 8:0.0 9:0.25407 10:0.02823 11:10.0 12:92.0 13:36.333333333333336 14:0.0 15:0.0441988967359066 16:0.004910988526211845 17:0.0649479404091835 18:0.08826317638158798 19:0.0 20:3.0 
1025.726869681794 1:6.93E7 2:0.0 3:0.0 4:52.0 5:3.02 6:0.0 7:25.0 8:0.0 9:0.0 10:0.0 11:11.0 12:11.0 13:11.0 14:0.0 15:0.0 16:0.0 17:0.0965866819024086 18:0.0965866819024086 19:0.0 20:0.0 
2049.726907508725 1:2.81E8 2:4.0 3:4.0 4:44.0 5:1.7 6:0.08 7:22.68 8:0.0 9:0.2886 10:0.07088153846153845 11:4.0 12:65.0 13:28.46153846153846 14:0.0 15:0.8773379921913147 16:0.2224056331010965 17:0.0022947348188608885 18:0.12162530422210693 19:0.0 20:5.0 
1.7268247320558947 1:2930000.0 2:0.0 3:0.0 4:27.0 5:1.6 6:1.1 7:15.52 8:0.2032 9:0.54255 10:0.3426778947368422 11:1.0 12:1.0 13:1.0 14:1.0 15:1.0 16:1.0 17:0.125 18:0.4481865167617798 19:0.0 20:1.0 
1.8958897337928058 1:112000.0 2:0.0 3:0.0 4:56.0 5:1.3 6:0.28 7:21.96 8:0.0 9:0.26173 10:0.208858 11:4.0 12:19.0 13:5.25 14:0.0 15:0.9090909361839294 16:0.833333358168602 17:0.12162530422210693 18:0.3253012001514435 19:0.0 20:5.0 
1.7257982138019197 1:2660000.0 2:0.0 3:0.0 4:32.0 5:4.6 6:0.0 7:25.0 8:0.0 9:0.0 10:0.0 11:5.0 12:19.0 13:7.8 14:0.0 15:0.0 16:0.0 17:0.012506050989031792 18:0.12162530422210693 19:3.0 20:4.0 
1.726888432940777 1:8030000.0 2:0.0 3:0.0 4:53.0 5:4.32 6:0.0 7:25.0 8:0.0 9:0.0 10:0.0 11:34.0 12:44.0 13:35.42857142857143 14:0.0 15:0.0 16:0.0 17:0.013203158974647522 18:0.07841923832893372 19:0.0 20:0.0 
1.726887826486546 1:1.18E7 2:0.0 3:0.0 4:57.0 5:2.36 6:0.0 7:25.0 8:0.0 9:0.0 10:0.0 11:13.0 12:121.0 13:69.16666666666667 14:0.0 15:0.034060750156641006 16:0.01990283854926626 17:0.01985968090593815 18:0.12162530422210693 19:0.0 20:4.0 
1.726867761139221 1:5400000.0 2:0.0 3:0.0 4:111.0 5:2.26 6:0.2 7:23.24 8:0.0 9:0.31512 10:0.08725 11:11.0 12:114.0 13:66.2 14:0.0 15:0.46620848774909973 16:0.22389004815369845 17:0.0965866819024086 18:0.32092297077178955 19:0.0 20:1.0 
2049.72700880111 1:205000.0 2:4.0 3:4.0 4:45.0 5:1.22 6:0.0 7:25.0 8:0.0 9:0.0 10:0.0 11:0.0 12:0.0 13:0.0 14:0.0 15:0.0 16:0.0 17:0.0 18:0.0 19:2.147483647E9 20:0.0 
1.7267294568998195 1:624000.0 2:0.0 3:0.0 4:115.0 5:4.0 6:0.0 7:25.0 8:0.0 9:0.0 10:0.0 11:10.0 12:73.0 13:20.833333333333332 14:0.0 15:0.0012135922443121672 16:2.0226537405202785E-4 17:0.0435255728662014 18:0.19214819371700287 19:0.0 20:1.0 
1.7266257012751176 1:430000.0 2:0.0 3:0.0 4:48.0 5:3.0 6:0.02 7:25.0 8:0.0 9:0.21146 10:0.0264325 11:1.0 12:14.0 13:3.111111111111111 14:0.0 15:1.0 16:0.1111111111111111 17:0.0036247335374355316 18:0.0324324332177639 19:0.0 20:6.0 
1.7264730143147775 1:8910000.0 2:0.0 3:0.0 4:22.0 5:1.4 6:0.54 7:17.64 8:0.20311 9:0.39321 10:0.2867279166666667 11:2.0 12:19.0 13:15.5 14:0.10593900829553604 15:0.9858041405677795 16:0.8186800746868054 17:0.04383445531129837 18:0.22770057618618011 19:0.0 20:4.0 
1.726620410730555 1:242000.0 2:0.0 3:0.0 4:3.0 5:0.06 6:0.0 7:25.0 8:0.0 9:0.0 10:0.0 11:0.0 12:0.0 13:0.0 14:0.0 15:0.0 16:0.0 17:0.0 18:0.0 19:2.147483647E9 20:0.0 
2.7267328966753777 1:8760000.0 2:0.0 3:0.0 4:47.0 5:1.78 6:0.0 7:25.0 8:0.0 9:0.0 10:0.0 11:19.0 12:88.0 13:53.5 14:0.0 15:0.5267354846000671 16:0.26336774230003357 17:0.024747468531131744 18:0.12162530422210693 19:0.0 20:4.0 
1.7263292422216323 1:423000.0 2:0.0 3:0.0 4:73.0 5:1.6 6:0.98 7:16.16 8:0.0 9:0.73685 10:0.5084694594594595 11:1.0 12:19.0 13:2.4210526315789473 14:0.0 15:1.0 16:0.9210526315789473 17:0.12162530422210693 18:0.8324872851371765 19:0.0 20:5.0 
1.7267797797116393 1:4220000.0 2:0.0 3:0.0 4:139.0 5:2.82 6:0.0 7:25.0 8:0.0 9:0.0 10:0.0 11:19.0 12:19.0 13:19.0 14:0.0 15:0.0 16:0.0 17:0.12162530422210693 18:0.12162530422210693 19:4.0 20:4.0 
1.726788782923315 1:2200000.0 2:1.0 3:1.0 4:352.0 5:8.88 6:0.0 7:25.0 8:0.0 9:0.0 10:0.0 11:8.0 12:228.0 13:150.1 14:0.0 15:0.0 16:0.0 17:0.0021279186476022005 18:0.05227050930261612 19:0.0 20:5.0 
1.7268016658173806 1:4.28E7 2:0.0 3:0.0 4:120.0 5:2.78 6:0.0 7:25.0 8:0.0 9:0.0 10:0.0 11:0.0 12:0.0 13:0.0 14:0.0 15:0.0 16:0.0 17:0.0 18:0.0 19:2.147483647E9 20:0.0 
1.9966493082897039 1:8530000.0 2:0.0 3:0.0 4:66.0 5:1.56 6:0.12 7:24.84 8:0.0 9:0.2231 10:0.0428115 11:19.0 12:79.0 13:61.25 14:0.0 15:0.7764631509780884 16:0.5047010481357574 17:0.02546391822397709 18:0.12162530422210693 19:0.0 20:4.0 
1.7268171754545711 1:8460000.0 2:0.0 3:0.0 4:58.0 5:1.18 6:0.82 7:18.6 8:0.0 9:0.51529 10:0.4144236363636363 11:3.0 12:19.0 13:3.484848484848485 14:0.0 15:0.9228110313415527 16:0.894847060694839 17:0.12162530422210693 18:0.5579756498336792 19:0.0 20:5.0 
1.726802284646618 1:6340000.0 2:0.0 3:0.0 4:60.0 5:1.74 6:0.0 7:25.0 8:0.0 9:0.0 10:0.0 11:14.0 12:29.0 13:21.0 14:0.0 15:0.4444444477558136 16:0.17777777910232545 17:0.0313352569937706 18:0.12162530422210693 19:0.0 20:7.0 
1.726833623227481 1:8790000.0 2:0.0 3:0.0 4:59.0 5:1.62 6:0.32 7:22.76 8:0.20402 9:0.25901 10:0.23046799999999998 11:344.0 12:344.0 13:344.0 14:0.8971234560012817 15:0.8971234560012817 16:0.8971234560012817 17:0.17531143128871918 18:0.17531143128871918 19:0.0 20:0.0 
1.726889061943623 1:6910000.0 2:0.0 3:0.0 4:43.0 5:1.6 6:0.0 7:25.0 8:0.0 9:0.0 10:0.0 11:19.0 12:19.0 13:19.0 14:0.0 15:0.0 16:0.0 17:0.12162530422210693 18:0.12162530422210693 19:5.0 20:5.0 
1.7268636632713115 1:8320000.0 2:0.0 3:0.0 4:59.0 5:1.68 6:0.1 7:22.56 8:0.0 9:0.30948 10:0.1835925 11:19.0 12:63.0 13:52.0 14:0.0 15:0.9240641593933105 16:0.6930481195449829 17:0.0656215101480484 18:0.12162530422210693 19:0.0 20:4.0 
1025.7268667303265 1:1.73E7 2:0.0 3:0.0 4:66.0 5:1.88 6:0.2 7:22.56 8:0.0 9:0.28264 10:0.0975788888888889 11:11.0 12:137.0 13:38.888888888888886 14:0.0 15:0.2269141525030136 16:0.04704471667193704 17:0.020365752279758453 18:0.12162530422210693 19:0.0 20:5.0 
1.7269192965089846 1:3.33E7 2:0.0 3:0.0 4:26.0 5:1.52 6:0.12 7:23.76 8:0.0 9:0.26593 10:0.07453615384615385 11:11.0 12:38.0 13:26.0 14:0.0 15:0.4143790900707245 16:0.098579115091035 17:0.0015812187921255827 18:0.12162530422210693 19:0.0 20:5.0 
1.726922180906821 1:280000.0 2:0.0 3:0.0 4:113.0 5:2.26 6:0.22 7:21.08 8:0.0 9:0.34783 10:0.16824 11:1.0 12:219.0 13:94.42857142857143 14:0.0 15:1.0 16:0.5714285714285714 17:0.2840466797351837 18:0.3709877133369446 19:0.0 20:1.0 
1027.7995782936403 1:1.21E7 2:0.0 3:0.0 4:78.0 5:1.66 6:0.04 7:24.0 8:0.0 9:0.22566 10:0.03761 11:19.0 12:179.0 13:45.666666666666664 14:0.0 15:0.1499713808298111 16:0.02499523013830185 17:0.004644063301384449 18:0.12162530422210693 19:0.0 20:4.0 
1.726941947215059 1:253000.0 2:0.0 3:0.0 4:28.0 5:1.36 6:1.04 7:15.56 8:0.0 9:0.48059 10:0.299892972972973 11:1.0 12:1.0 13:1.0 14:0.0 15:1.0 16:0.95 17:0.30392158031463623 18:0.39240506291389465 19:0.0 20:3.0 
1025.7655769706753 1:2.15E7 2:0.0 3:0.0 4:47.0 5:1.6 6:0.0 7:25.0 8:0.0 9:0.0 10:0.0 11:19.0 12:70.0 13:44.5 14:0.0 15:0.5756207704544067 16:0.28781038522720337 17:0.07530523836612701 18:0.12162530422210693 19:0.0 20:5.0 
1.7269265437385306 1:182.0 2:0.0 3:0.0 4:187.0 5:3.92 6:0.24 7:21.88 8:0.0 9:0.29116 10:0.22312249999999997 11:19.0 12:133.0 13:118.75 14:0.0 15:0.5494240522384644 16:0.4807460457086563 17:0.12162530422210693 18:0.14667388796806335 19:1.0 20:4.0 
1.7362717516870834 1:1.07E7 2:0.0 3:0.0 4:28.0 5:1.44 6:0.08 7:24.2 8:0.0 9:0.27845 10:0.199765 11:7.0 12:19.0 13:10.0 14:0.0 15:0.9202454090118408 16:0.6901840567588806 17:0.0010283769806846976 18:0.12162530422210693 19:0.0 20:5.0 
1.7269485539910052 1:1.4E7 2:0.0 3:0.0 4:225.0 5:4.84 6:0.0 7:25.0 8:0.0 9:0.0 10:0.0 11:11.0 12:146.0 13:138.89473684210526 14:0.0 15:0.0 16:0.0 17:0.0965866819024086 18:0.3215160667896271 19:0.0 20:0.0 
1.726947886503343 1:9090000.0 2:0.0 3:0.0 4:50.0 5:1.6041666666666667 6:0.1875 7:20.84 8:0.0 9:0.27625 10:0.166348 11:19.0 12:148.0 13:109.3 14:0.0 15:0.5717675089836121 16:0.40023725628852846 17:0.04210483655333519 18:0.12162530422210693 19:0.0 20:5.0 
