svm_type c_svc
kernel_type rbf
gamma 0.16666666666666666
nr_class 2
total_sv 8584
rho 0.7416681649318888
label 1 -1
probA -1.3336427393515389
probB 1.2500539894241403
nr_sv 953 7631
SV
1.7414268488211175 1:1.47E7 2:4.0 3:0.0 4:0.0 5:102.0 6:2.06 
1.7414260484344326 1:1500000.0 2:0.0 3:0.0 4:0.0 5:63.0 6:1.42 
1.7529293718428967 1:134000.0 2:0.0 3:8.0 4:8.0 5:3.0 6:0.06 
1.7415270423310638 1:3030000.0 2:0.0 3:0.0 4:0.0 5:58.0 6:3.98 
1.7413891016806864 1:2.69E7 2:0.0 3:0.0 4:0.0 5:69.0 6:1.46 
1.7418812805845774 1:1.45E7 2:0.0 3:0.0 4:0.0 5:43.0 6:1.96 
2.2214372410774486 1:9740000.0 2:4.0 3:2.5 4:2.5 5:32.0 6:1.48 
1.7414450431671065 1:1830000.0 2:0.0 3:0.0 4:0.0 5:32.0 6:1.36 
2.762815771417185 1:2400000.0 2:4.0 3:2.0 4:2.0 5:70.0 6:1.64 
1.7414536611673475 1:1910000.0 2:0.0 3:9.0 4:9.0 5:133.0 6:2.68 
1.7414667099276055 1:1240000.0 2:0.0 3:0.0 4:0.0 5:33.0 6:1.6 
1.7414738321148653 1:6010000.0 2:2.0 3:0.0 4:0.0 5:29.0 6:1.78 
0.9484105259753888 1:1040000.0 2:0.0 3:0.0 4:0.0 5:38.0 6:1.26 
1.7413094255379398 1:1.2E8 2:0.0 3:0.0 4:0.0 5:60.0 6:2.36 
1.741486468087116 1:5.83E8 2:0.0 3:6.0 4:6.0 5:36.0 6:1.12 
1.9645269392674272 1:1.46E7 2:2.0 3:6.0 4:6.0 5:65.0 6:1.4 
1.741486382413077 1:3650000.0 2:0.0 3:6.333333333333333 4:6.333333333333333 5:204.0 6:4.1 
2.3478888652568997 1:1.9E7 2:1.0 3:3.0 4:3.0 5:63.0 6:1.3 
1.7414956240707544 1:209000.0 2:0.0 3:0.0 4:0.0 5:95.0 6:2.14 
1.752037373915916 1:2.47E7 2:0.0 3:0.0 4:0.0 5:46.0 6:1.62 
1.74149639881172 1:1260000.0 2:0.0 3:0.0 4:0.0 5:63.0 6:3.08 
3.7414971777044554 1:7.28E8 2:0.0 3:0.0 4:0.0 5:40.0 6:1.6 
2.997458542197267 1:1.48E7 2:0.0 3:0.0 4:0.0 5:90.0 6:1.86 
1.7413599274778546 1:689.0 2:0.0 3:1.0 4:1.0 5:40.0 6:1.02 
1.741510409466934 1:3640000.0 2:0.0 3:0.0 4:0.0 5:60.0 6:1.46 
1.741514562127088 1:357000.0 2:0.0 3:0.0 4:0.0 5:150.0 6:3.32 
1.758431463780815 1:1760000.0 2:0.0 3:0.0 4:0.0 5:64.0 6:1.4 
1.7683010059202797 1:3.72E7 2:0.0 3:5.0 4:5.0 5:36.0 6:1.28 
1.7413143516690777 1:1.9E7 2:0.0 3:0.0 4:0.0 5:49.0 6:1.54 
1.7415121343059616 1:2.21E7 2:0.0 3:11.0 4:11.0 5:35.0 6:1.76 
1.741515590444282 1:179000.0 2:0.0 3:0.0 4:0.0 5:140.0 6:2.86 
1.7415308286480704 1:1180000.0 2:0.0 3:0.0 4:0.0 5:76.0 6:1.62 
1.7680383602490728 1:1.07E8 2:1.0 3:8.6 4:8.6 5:108.0 6:2.58 
1.0491128970438297 1:8890000.0 2:0.0 3:0.0 4:0.0 5:50.0 6:2.72 
3.5952167305331946 1:2.03E7 2:0.0 3:0.0 4:0.0 5:43.0 6:1.54 
1.8879744319695457 1:391000.0 2:1.0 3:3.0 4:3.0 5:9.0 6:1.18 
3.6242494786460275 1:2.14E7 2:0.0 3:0.0 4:0.0 5:63.0 6:1.4042553191489362 
1.7415330321570563 1:3570000.0 2:0.0 3:5.5 4:5.5 5:45.0 6:3.24 
1.7413145346697114 1:6.29E7 2:0.0 3:0.0 4:0.0 5:79.0 6:1.58 
1.7453157216719042 1:1590000.0 2:0.0 3:3.0 4:3.0 5:5.0 6:0.2 
1.75799386172147 1:3.17E7 2:0.0 3:1.0 4:1.0 5:52.0 6:1.9 
3.1748594338866023 1:9300000.0 2:0.0 3:0.0 4:0.0 5:56.0 6:1.4791666666666667 
2.610509323949025 1:4390000.0 2:0.0 3:0.0 4:0.0 5:61.0 6:1.76 
1.7415328764346731 1:77500.0 2:0.0 3:0.0 4:0.0 5:31.0 6:2.3 
2.741533007183116 1:9590000.0 2:0.0 3:0.0 4:0.0 5:25.0 6:1.12 
2.246716223249218 1:1.03E7 2:0.0 3:0.0 4:0.0 5:68.0 6:1.66 
1.7537867345768174 1:1.88E7 2:0.0 3:0.0 4:0.0 5:51.0 6:1.56 
1.741535752135051 1:5370000.0 2:0.0 3:0.0 4:0.0 5:148.0 6:3.06 
1.74145466873642 1:2.28E7 2:0.0 3:0.0 4:0.0 5:93.0 6:1.94 
1.7415379688899186 1:2960000.0 2:0.0 3:0.0 4:0.0 5:46.0 6:2.82 
1.738805439266079 1:9710000.0 2:0.0 3:0.0 4:0.0 5:65.0 6:3.4 
1.7415356925162282 1:1000000.0 2:0.0 3:1.3333333333333333 4:1.3333333333333333 5:137.0 6:5.58 
2.7413519445428713 1:1.22E7 2:0.0 3:0.0 4:0.0 5:85.0 6:1.72 
1.1003315119723103 1:8690000.0 2:0.0 3:1.0 4:1.0 5:65.0 6:1.94 
1.7415355080720156 1:1.4E8 2:0.0 3:0.0 4:0.0 5:73.0 6:3.02 
1.7415367086018247 1:3010000.0 2:0.0 3:5.0 4:5.0 5:195.0 6:3.9 
2.7422507637306075 1:9490000.0 2:0.0 3:0.0 4:0.0 5:78.0 6:1.58 
1.7414434658750721 1:2.66E7 2:0.0 3:0.0 4:0.0 5:48.0 6:1.72 
1.7415363435457594 1:144000.0 2:0.0 3:0.0 4:0.0 5:105.0 6:2.2 
1.7422042294454763 1:4.74E7 2:9.0 3:3.3333333333333335 4:3.3333333333333335 5:135.0 6:3.74 
1.7415357725941067 1:1290000.0 2:0.0 3:5.0 4:5.0 5:141.0 6:3.98 
2.580208799142398 1:30700.0 2:0.0 3:8.333333333333334 4:8.333333333333334 5:3.0 6:0.24 
1.7425123101860767 1:6940000.0 2:4.0 3:0.0 4:0.0 5:27.0 6:1.2 
1.7421791757424718 1:3.66E7 2:0.0 3:0.0 4:0.0 5:74.0 6:1.54 
1.7549211608811457 1:3800000.0 2:1.0 3:1.0 4:1.0 5:49.0 6:1.46 
1.7415052070227783 1:7130000.0 2:0.0 3:0.0 4:0.0 5:73.0 6:1.48 
1.7415521394687994 1:2650000.0 2:0.0 3:0.0 4:0.0 5:21.0 6:0.86 
1.7412845095098104 1:8950000.0 2:0.0 3:0.0 4:0.0 5:22.0 6:1.42 
1.7414894218289902 1:2.29E7 2:0.0 3:9.0 4:9.0 5:50.0 6:3.26 
4.744265451098202 1:1.03E8 2:1.0 3:3.5 4:3.5 5:30.0 6:1.4 
1.7415126861667976 1:1050000.0 2:21.0 3:6.75 4:6.75 5:69.0 6:1.48 
1.7414560262107068 1:4690000.0 2:0.0 3:0.0 4:0.0 5:43.0 6:1.54 
2.862074636882708 1:4060000.0 2:1.0 3:3.5 4:3.5 5:45.0 6:1.66 
1.7417655863058004 1:1.49E7 2:0.0 3:0.0 4:0.0 5:77.0 6:1.54 
1.7415660205143588 1:6500000.0 2:6.0 3:2.0 4:2.0 5:142.0 6:3.0 
1.7460169059629358 1:3580000.0 2:1.0 3:4.5 4:4.5 5:35.0 6:1.02 
1.7669188257731518 1:2.15E7 2:0.0 3:0.0 4:0.0 5:55.0 6:1.94 
1.7415661438456245 1:192000.0 2:0.0 3:8.666666666666666 4:8.666666666666666 5:64.0 6:1.32 
1.741389943707878 1:1490000.0 2:0.0 3:5.0 4:5.0 5:85.0 6:2.84 
1.9167875656826097 1:6670000.0 2:0.0 3:1.0 4:1.0 5:69.0 6:1.68 
1.7414558200470485 1:1320000.0 2:3.0 3:5.0 4:5.0 5:62.0 6:3.44 
1.767214773069933 1:1.03E7 2:2.0 3:0.0 4:0.0 5:23.0 6:1.28 
2.5068890119089002 1:2720000.0 2:0.0 3:5.0 4:5.0 5:32.0 6:2.8 
1.7415778704315 1:2250000.0 2:0.0 3:0.0 4:0.0 5:50.0 6:2.48 
1.7588400251821805 1:178000.0 2:5.0 3:1.5 4:1.5 5:94.0 6:2.44 
1.7415111519130726 1:2660000.0 2:0.0 3:9.0 4:9.0 5:29.0 6:0.86 
1.7414517046351374 1:5400000.0 2:0.0 3:0.0 4:0.0 5:28.0 6:1.44 
1.8261966869515651 1:3460000.0 2:0.0 3:3.5 4:3.5 5:81.0 6:1.78 
1.741576219237141 1:2880000.0 2:0.0 3:7.0 4:7.0 5:75.0 6:2.68 
1.7415866526442165 1:8090000.0 2:0.0 3:0.0 4:0.0 5:45.0 6:1.9 
1.74158755935958 1:7.83E7 2:0.0 3:0.0 4:0.0 5:90.0 6:1.82 
1.7415929423954795 1:2140000.0 2:0.0 3:0.0 4:0.0 5:32.0 6:1.28 
1.742249674061147 1:247.0 2:0.0 3:0.0 4:0.0 5:109.0 6:2.48 
1.741594066085481 1:37300.0 2:0.0 3:9.5 4:9.5 5:102.0 6:2.24 
1.7416788666090852 1:3120000.0 2:0.0 3:0.0 4:0.0 5:45.0 6:1.34 
1.7531788026982045 1:8560000.0 2:0.0 3:0.0 4:0.0 5:72.0 6:1.7 
2.3486052284204018 1:510000.0 2:0.0 3:3.0 4:3.0 5:99.0 6:2.02 
1.8190314492784048 1:5.52E7 2:3.0 3:0.6666666666666666 4:0.6666666666666666 5:78.0 6:2.06 
1.7419381855571507 1:1.08E8 2:0.0 3:0.0 4:0.0 5:70.0 6:1.44 
2.7421954708659704 1:9810000.0 2:0.0 3:0.0 4:0.0 5:42.0 6:2.12 
1.6570628709952802 1:9650000.0 2:0.0 3:0.0 4:0.0 5:71.0 6:1.44 
2.4598262914134166 1:7410000.0 2:4.0 3:4.0 4:4.0 5:52.0 6:1.8 
1.7415952392516147 1:5140000.0 2:1.0 3:0.0 4:0.0 5:148.0 6:3.08 
2.520623644471333 1:93200.0 2:0.0 3:4.5 4:4.5 5:2.0 6:0.06 
1.7416111894429689 1:2.77E7 2:0.0 3:0.0 4:0.0 5:254.0 6:5.8 
2.724622794855429 1:1150000.0 2:4.0 3:5.0 4:5.0 5:64.0 6:1.32 
1.7413547315351299 1:7.29E7 2:0.0 3:0.0 4:0.0 5:40.0 6:1.14 
1.7423726114303726 1:2280000.0 2:8.0 3:1.25 4:1.25 5:205.0 6:4.26 
1.7416312634054238 1:8.01E7 2:0.0 3:0.0 4:0.0 5:82.0 6:1.74 
1.7422810014693355 1:1960000.0 2:0.0 3:1.0 4:1.0 5:28.0 6:1.32 
1.7416482408555565 1:18100.0 2:0.0 3:0.0 4:0.0 5:83.0 6:1.8 
2.735064309991814 1:2700000.0 2:0.0 3:0.0 4:0.0 5:53.0 6:3.3 
1.7416476570409902 1:3130000.0 2:0.0 3:10.0 4:10.0 5:127.0 6:2.58 
1.7416116368515273 1:2740000.0 2:0.0 3:0.0 4:0.0 5:32.0 6:1.14 
1.7413507592567936 1:6.29E7 2:0.0 3:0.0 4:0.0 5:68.0 6:3.18 
2.7294943699148857 1:3160000.0 2:2.0 3:5.0 4:5.0 5:87.0 6:1.76 
1.7412204378232496 1:223.0 2:0.0 3:6.0 4:6.0 5:124.0 6:2.62 
1.7423188297396752 1:3.45E7 2:0.0 3:0.0 4:0.0 5:42.0 6:1.5 
1.7416842095992409 1:247000.0 2:0.0 3:0.0 4:0.0 5:43.0 6:1.54 
1.7416874158690407 1:219000.0 2:0.0 3:6.0 4:6.0 5:75.0 6:1.66 
1.7436939349623632 1:1.05E8 2:0.0 3:0.0 4:0.0 5:38.0 6:1.82 
1.741687952076021 1:5.87E7 2:0.0 3:0.0 4:0.0 5:103.0 6:4.86 
2.4629965100990727 1:1.06E7 2:1.0 3:4.0 4:4.0 5:49.0 6:1.56 
1.7759534661277505 1:1.37E7 2:3.0 3:0.0 4:0.0 5:42.0 6:1.42 
1.7416986425825405 1:9.76E7 2:0.0 3:0.0 4:0.0 5:53.0 6:1.74 
2.1211839252503006 1:1.18E7 2:0.0 3:0.0 4:0.0 5:46.0 6:1.44 
1.7413514702609765 1:5580000.0 2:0.0 3:0.0 4:0.0 5:64.0 6:1.88 
1.7417033852208088 1:1.75E7 2:0.0 3:10.0 4:10.0 5:134.0 6:2.68 
1.7417139102881904 1:2040000.0 2:0.0 3:0.0 4:0.0 5:38.0 6:1.2 
2.7097865195833664 1:1.15E7 2:1.0 3:4.25 4:4.25 5:51.0 6:1.4 
1.8543294493939233 1:1.01E7 2:0.0 3:0.5 4:0.5 5:82.0 6:2.98 
1.7417219222756337 1:1050000.0 2:0.0 3:0.0 4:0.0 5:15.0 6:0.66 
1.741735108461715 1:324000.0 2:0.0 3:0.0 4:0.0 5:150.0 6:3.46 
1.7483911621879442 1:9940000.0 2:3.0 3:0.0 4:0.0 5:41.0 6:1.9 
1.7418548688366657 1:1.35E8 2:0.0 3:0.0 4:0.0 5:55.0 6:2.48 
1.762805099633058 1:5.1E7 2:4.0 3:0.0 4:0.0 5:45.0 6:2.04 
1.6336190590199733 1:1.52E7 2:0.0 3:0.0 4:0.0 5:43.0 6:1.9 
2.365945578814778 1:176000.0 2:0.0 3:1.0 4:1.0 5:45.0 6:1.02 
1.7627687094490374 1:9450000.0 2:0.0 3:10.0 4:10.0 5:41.0 6:1.42 
1.74174130592547 1:2680000.0 2:0.0 3:0.0 4:0.0 5:34.0 6:1.94 
1.7513580420916952 1:41.0 2:3.0 3:6.0 4:6.0 5:4.0 6:0.24390243902439024 
1.7422327387309813 1:9060000.0 2:4.0 3:4.5 4:4.5 5:74.0 6:1.5 
1.7413209433835024 1:262000.0 2:0.0 3:9.5 4:9.5 5:70.0 6:3.0 
1.7415609995685768 1:228.0 2:0.0 3:7.5 4:7.5 5:118.0 6:2.48 
1.7415047590255623 1:3190000.0 2:0.0 3:1.3333333333333333 4:1.3333333333333333 5:131.0 6:2.94 
1.7434821284641866 1:196000.0 2:1.0 3:8.0 4:8.0 5:110.0 6:2.24 
1.741797795096827 1:9100000.0 2:0.0 3:0.0 4:0.0 5:43.0 6:1.96 
1.7421263200470254 1:4900000.0 2:0.0 3:0.0 4:0.0 5:66.0 6:1.64 
1.7418728178049765 1:1.13E8 2:0.0 3:0.0 4:0.0 5:66.0 6:2.5 
1.7417615626945484 1:1.55E7 2:0.0 3:0.0 4:0.0 5:75.0 6:1.56 
1.7822940328512868 1:4230000.0 2:7.0 3:0.6666666666666666 4:0.6666666666666666 5:132.0 6:3.84 
1.7417646808706218 1:5450000.0 2:0.0 3:0.0 4:0.0 5:54.0 6:1.4 
1.804318085026439 1:6430000.0 2:0.0 3:0.0 4:0.0 5:94.0 6:1.94 
1.7417642018382602 1:3830000.0 2:0.0 3:2.0 4:2.0 5:12.0 6:0.68 
1.777874245128706 1:2660000.0 2:0.0 3:0.0 4:0.0 5:104.0 6:3.76 
1.7507799932140506 1:215000.0 2:0.0 3:6.0 4:6.0 5:19.0 6:0.82 
1.7432565570722436 1:3.96E7 2:0.0 3:0.0 4:0.0 5:47.0 6:1.62 
1.7415091434575876 1:173000.0 2:0.0 3:0.0 4:0.0 5:69.0 6:3.1 
1.6586342707379318 1:9080000.0 2:0.0 3:0.0 4:0.0 5:45.0 6:1.66 
1.7420578046753754 1:1180000.0 2:0.0 3:0.0 4:0.0 5:36.0 6:1.14 
1.7417315272503808 1:4480000.0 2:0.0 3:0.0 4:0.0 5:64.0 6:2.44 
2.7417657738885466 1:4.74E7 2:0.0 3:0.0 4:0.0 5:50.0 6:1.58 
1.7414064096690147 1:5890000.0 2:0.0 3:6.666666666666667 4:6.666666666666667 5:180.0 6:3.6 
2.751202124704029 1:1.05E7 2:0.0 3:0.0 4:0.0 5:75.0 6:2.3 
1.7417727643310137 1:1.95E8 2:0.0 3:10.0 4:10.0 5:48.0 6:3.76 
1.8527587804331271 1:8140000.0 2:0.0 3:0.0 4:0.0 5:47.0 6:1.3 
1.741403841188912 1:979000.0 2:0.0 3:0.0 4:0.0 5:52.0 6:1.54 
1.7417719922415869 1:2140000.0 2:0.0 3:0.0 4:0.0 5:211.0 6:5.06 
1.7417771459964997 1:2610000.0 2:0.0 3:0.0 4:0.0 5:64.0 6:3.06 
1.742267432542503 1:1.42E7 2:0.0 3:0.0 4:0.0 5:47.0 6:1.7 
1.741781131394141 1:5.79E7 2:0.0 3:0.0 4:0.0 5:72.0 6:1.6 
2.7417825038816006 1:1.28E8 2:0.0 3:0.0 4:0.0 5:14.0 6:0.78 
1.7844083399896393 1:8730000.0 2:4.0 3:0.0 4:0.0 5:64.0 6:1.28 
1.7665004772912831 1:1.04E7 2:3.0 3:0.0 4:0.0 5:47.0 6:2.04 
2.7429466625156302 1:1.66E8 2:3.0 3:0.0 4:0.0 5:77.0 6:1.88 
1.7417826202771882 1:2620000.0 2:0.0 3:0.0 4:0.0 5:47.0 6:3.34 
1.749182184015799 1:5710000.0 2:3.0 3:0.0 4:0.0 5:73.0 6:1.66 
1.7417835131166994 1:74700.0 2:0.0 3:0.0 4:0.0 5:59.0 6:1.52 
2.473940398654022 1:1.21E7 2:0.0 3:0.0 4:0.0 5:40.0 6:2.54 
2.1097489754033987 1:1.13E7 2:0.0 3:0.0 4:0.0 5:25.0 6:1.105263157894737 
2.129041740143973 1:1.05E7 2:4.0 3:0.0 4:0.0 5:70.0 6:1.42 
2.5336823770507846 1:1.04E7 2:1.0 3:3.0 4:3.0 5:66.0 6:1.8 
1.7417834663902414 1:5010000.0 2:0.0 3:8.0 4:8.0 5:40.0 6:1.56 
1.741446855559557 1:2420000.0 2:0.0 3:0.0 4:0.0 5:60.0 6:1.56 
1.7417819700541188 1:1.83E7 2:0.0 3:0.0 4:0.0 5:21.0 6:2.14 
1.7416610868424147 1:3220000.0 2:0.0 3:10.0 4:10.0 5:37.0 6:1.68 
1.741783688211064 1:5610000.0 2:0.0 3:6.0 4:6.0 5:103.0 6:2.12 
1.7417829148626205 1:1900000.0 2:0.0 3:0.0 4:0.0 5:12.0 6:0.3 
1.7417830606666347 1:405000.0 2:14.0 3:2.3333333333333335 4:2.3333333333333335 5:128.0 6:2.64 
3.10707707084135 1:1.05E7 2:2.0 3:6.0 4:6.0 5:3.0 6:0.08 
2.587988129099069 1:9170000.0 2:0.0 3:0.0 4:0.0 5:49.0 6:1.44 
2.2891380263758747 1:4.06E7 2:3.0 3:3.5 4:3.5 5:53.0 6:1.3902439024390243 
1.7417824768724035 1:238000.0 2:0.0 3:0.0 4:0.0 5:12.0 6:0.5 
1.7421154056874277 1:2.54E8 2:4.0 3:1.0 4:1.0 5:38.0 6:1.8048780487804879 
2.2178894367477726 1:4060000.0 2:1.0 3:4.5 4:4.5 5:77.0 6:2.9 
1.7417824773928485 1:1.86E7 2:31.0 3:2.0 4:2.0 5:272.0 6:6.06 
1.74178221167791 1:290000.0 2:0.0 3:5.0 4:5.0 5:164.0 6:5.4 
1.741781841222346 1:974000.0 2:0.0 3:10.0 4:10.0 5:110.0 6:2.22 
1.741781160370045 1:9.31E7 2:0.0 3:0.0 4:0.0 5:54.0 6:1.8 
1.7415285565940695 1:4090000.0 2:0.0 3:0.0 4:0.0 5:40.0 6:1.04 
1.7417797775538602 1:2.86E7 2:0.0 3:0.0 4:0.0 5:64.0 6:1.96 
1.744682715899399 1:4360000.0 2:0.0 3:0.0 4:0.0 5:44.0 6:1.62 
1.7460291469089004 1:1300000.0 2:2.0 3:6.333333333333333 4:6.333333333333333 5:55.0 6:1.2 
1.7412534967046949 1:593000.0 2:0.0 3:8.0 4:8.0 5:72.0 6:1.6 
1.7417500922719715 1:2740000.0 2:0.0 3:0.0 4:0.0 5:69.0 6:3.12 
1.7417796129556735 1:2890000.0 2:0.0 3:0.0 4:0.0 5:128.0 6:2.6 
2.182160468012712 1:3120000.0 2:1.0 3:0.0 4:0.0 5:261.0 6:5.7 
1.7417495037841846 1:208.0 2:0.0 3:7.5 4:7.5 5:123.0 6:2.5 
1.745469008968653 1:6990000.0 2:0.0 3:0.0 4:0.0 5:46.0 6:2.94 
1.7417781740497331 1:495000.0 2:0.0 3:0.0 4:0.0 5:196.0 6:4.06 
1.7453978910933277 1:2.16E7 2:2.0 3:0.0 4:0.0 5:54.0 6:2.04 
1.7416318455074693 1:195.0 2:0.0 3:10.0 4:10.0 5:121.0 6:2.46 
1.7417772708613075 1:5110000.0 2:0.0 3:0.0 4:0.0 5:58.0 6:2.76 
1.7417747647580626 1:230.0 2:0.0 3:10.5 4:10.5 5:147.0 6:2.94 
1.741774199989362 1:135000.0 2:0.0 3:0.0 4:0.0 5:46.0 6:2.7 
2.741352846660427 1:5030000.0 2:1.0 3:6.333333333333333 4:6.333333333333333 5:42.0 6:1.36 
1.7417730829717375 1:182000.0 2:4.0 3:3.4 4:3.4 5:35.0 6:0.7 
1.7415687632780898 1:2.53E7 2:0.0 3:0.0 4:0.0 5:71.0 6:1.44 
1.741749999336903 1:627000.0 2:0.0 3:5.0 4:5.0 5:145.0 6:3.96 
1.7414460920160904 1:278000.0 2:0.0 3:0.0 4:0.0 5:113.0 6:2.34 
1.76842619742039 1:1.22E7 2:0.0 3:6.0 4:6.0 5:44.0 6:1.74 
1.7418380643702336 1:917000.0 2:0.0 3:9.0 4:9.0 5:9.0 6:1.08 
1.7413339630315114 1:312000.0 2:0.0 3:7.0 4:7.0 5:130.0 6:3.5 
2.8030943098367307 1:9720000.0 2:0.0 3:0.0 4:0.0 5:82.0 6:1.66 
2.7418462564064536 1:2.98E7 2:0.0 3:7.0 4:7.0 5:201.0 6:5.24 
2.458219173806231 1:7.87E7 2:3.0 3:1.0 4:1.0 5:52.0 6:1.76 
1.7418648610171508 1:2130000.0 2:0.0 3:0.0 4:0.0 5:161.0 6:3.22 
1.7428099311422152 1:4.07E7 2:3.0 3:0.0 4:0.0 5:42.0 6:1.46 
3.4230549860212607 1:3500000.0 2:2.0 3:6.333333333333333 4:6.333333333333333 5:7.0 6:0.2 
1.7418666172277903 1:340000.0 2:0.0 3:0.0 4:0.0 5:116.0 6:2.4 
1.7418695955868808 1:2.27E7 2:0.0 3:0.0 4:0.0 5:100.0 6:3.54 
1.741745975114058 1:6550000.0 2:0.0 3:0.0 4:0.0 5:39.0 6:1.62 
1.741895256576417 1:201.0 2:0.0 3:0.0 4:0.0 5:164.0 6:3.74 
3.741903074808219 1:5.0E7 2:0.0 3:3.0 4:3.0 5:54.0 6:2.62 
1.7425854907979041 1:2070000.0 2:0.0 3:0.0 4:0.0 5:41.0 6:1.52 
2.5215336618556856 1:1360000.0 2:2.0 3:5.0 4:5.0 5:34.0 6:1.64 
1.7652354851502245 1:2.2E7 2:0.0 3:0.0 4:0.0 5:100.0 6:2.0 
1.4512837817332689 1:1.17E7 2:2.0 3:0.0 4:0.0 5:65.0 6:1.72 
3.7417473963704886 1:5.8E8 2:2.0 3:5.5 4:5.5 5:49.0 6:1.2 
1.629483914536559 1:9080000.0 2:0.0 3:0.0 4:0.0 5:49.0 6:1.42 
2.4683079962345125 1:1.16E7 2:0.0 3:0.0 4:0.0 5:41.0 6:1.434782608695652 
1.7680462787573221 1:5.54E7 2:4.0 3:1.0 4:1.0 5:39.0 6:2.152173913043478 
1.741779015478997 1:970000.0 2:2.0 3:5.0 4:5.0 5:279.0 6:8.34 
1.741954133649775 1:4.09E7 2:0.0 3:0.0 4:0.0 5:64.0 6:2.04 
1.7418122050250613 1:5890000.0 2:0.0 3:0.0 4:0.0 5:45.0 6:1.58 
1.744118958459672 1:2440000.0 2:3.0 3:0.0 4:0.0 5:39.0 6:1.46 
1.7415057499312545 1:179.0 2:0.0 3:7.0 4:7.0 5:12.0 6:0.36 
1.6479568787432937 1:9650000.0 2:4.0 3:0.0 4:0.0 5:72.0 6:1.52 
1.7419754962500151 1:6.91E7 2:0.0 3:6.333333333333333 4:6.333333333333333 5:152.0 6:3.14 
3.78683317151539 1:1.2E7 2:0.0 3:0.0 4:0.0 5:49.0 6:1.72 
1.7419802439308791 1:6.33E8 2:0.0 3:0.0 4:0.0 5:65.0 6:1.98 
5.227725267372125 1:8850000.0 2:0.0 3:0.0 4:0.0 5:60.0 6:1.68 
1.7417524233245998 1:4500000.0 2:0.0 3:0.0 4:0.0 5:141.0 6:2.92 
5.22285567008288 1:9490000.0 2:0.0 3:0.0 4:0.0 5:58.0 6:1.88 
1.7414462815682987 1:1.56E7 2:0.0 3:0.0 4:0.0 5:74.0 6:1.68 
1.7420043636622164 1:1.77E7 2:0.0 3:0.0 4:0.0 5:34.0 6:2.7 
3.6035441584002945 1:2.42E7 2:0.0 3:0.0 4:0.0 5:64.0 6:1.88 
1.7420044584581198 1:122000.0 2:0.0 3:7.5 4:7.5 5:76.0 6:2.22 
1.9629203103765145 1:2.1E7 2:3.0 3:0.0 4:0.0 5:41.0 6:1.68 
2.349022405059311 1:9730000.0 2:0.0 3:0.0 4:0.0 5:70.0 6:1.68 
4.475653444441679 1:7880000.0 2:3.0 3:4.0 4:4.0 5:45.0 6:2.0 
2.5758833022401064 1:1.07E7 2:3.0 3:0.0 4:0.0 5:36.0 6:1.96 
1.7420063915206632 1:1660000.0 2:0.0 3:0.0 4:0.0 5:51.0 6:1.68 
1.8094919895634107 1:6870000.0 2:0.0 3:3.0 4:3.0 5:49.0 6:1.68 
2.7417881183704473 1:1.2E7 2:0.0 3:0.0 4:0.0 5:37.0 6:1.68 
1.889296681654738 1:3790000.0 2:2.0 3:4.0 4:4.0 5:43.0 6:1.32 
1.6948376250128223 1:179.0 2:0.0 3:6.333333333333333 4:6.333333333333333 5:190.0 6:3.86 
2.7127270764927376 1:127000.0 2:2.0 3:8.0 4:8.0 5:15.0 6:0.36 
1.742019968826322 1:26000.0 2:15.0 3:2.5 4:2.5 5:48.0 6:1.18 
1.7412264021146207 1:2670000.0 2:0.0 3:8.5 4:8.5 5:55.0 6:2.26 
2.587953044560342 1:1.29E7 2:1.0 3:5.0 4:5.0 5:282.0 6:6.26 
2.742028998481241 1:4920000.0 2:0.0 3:7.5 4:7.5 5:120.0 6:2.42 
1.7428101125280469 1:3110000.0 2:0.0 3:0.0 4:0.0 5:62.0 6:1.56 
1.7662468773240954 1:5910000.0 2:0.0 3:0.0 4:0.0 5:40.0 6:1.5 
1.7460721830582893 1:395000.0 2:0.0 3:0.0 4:0.0 5:90.0 6:3.5 
2.3308960686822977 1:4370000.0 2:1.0 3:4.5 4:4.5 5:75.0 6:1.62 
1.7420290225067232 1:161000.0 2:0.0 3:7.0 4:7.0 5:124.0 6:2.7 
1.742031343644216 1:3760000.0 2:0.0 3:5.5 4:5.5 5:267.0 6:5.4 
1.7420321197282806 1:4.72E7 2:25.0 3:4.0 4:4.0 5:104.0 6:3.5 
1.7413604623208934 1:2690000.0 2:0.0 3:0.0 4:0.0 5:55.0 6:2.92 
1.7420365334344199 1:7600000.0 2:0.0 3:0.0 4:0.0 5:49.0 6:2.9 
1.7420396362001163 1:6900000.0 2:0.0 3:0.0 4:0.0 5:41.0 6:2.88 
1.7420434213273917 1:8430000.0 2:0.0 3:0.0 4:0.0 5:62.0 6:1.42 
1.7709346608159018 1:7640000.0 2:2.0 3:0.0 4:0.0 5:74.0 6:2.14 
2.678006909098186 1:1.0E7 2:1.0 3:3.5 4:3.5 5:79.0 6:1.66 
1.7419694733878273 1:287000.0 2:0.0 3:0.0 4:0.0 5:88.0 6:4.26 
1.7425864033304168 1:363000.0 2:0.0 3:0.0 4:0.0 5:17.0 6:1.5 
1.00883575791774 1:1.26E7 2:0.0 3:0.0 4:0.0 5:49.0 6:2.16 
2.4771640084448303 1:1.09E7 2:2.0 3:4.0 4:4.0 5:70.0 6:1.6 
2.698146234841934 1:5430000.0 2:5.0 3:4.0 4:4.0 5:88.0 6:1.78 
2.581725555522975 1:640000.0 2:0.0 3:5.4 4:5.4 5:339.0 6:7.66 
2.0596658001122363 1:8560000.0 2:0.0 3:6.166666666666667 4:6.166666666666667 5:90.0 6:3.06 
1.7420684384605756 1:8370000.0 2:0.0 3:0.0 4:0.0 5:86.0 6:1.74 
1.7421482849191077 1:2740000.0 2:0.0 3:2.5 4:2.5 5:59.0 6:1.48 
1.7417458618053092 1:1.48E7 2:0.0 3:0.0 4:0.0 5:156.0 6:4.34 
1.7419979258458405 1:1150000.0 2:0.0 3:0.0 4:0.0 5:52.0 6:1.46 
3.51331526551984 1:8730000.0 2:0.0 3:0.0 4:0.0 5:43.0 6:1.7 
1.741387557439361 1:1.06E7 2:0.0 3:0.0 4:0.0 5:28.0 6:1.46 
1.7421404177141584 1:2030000.0 2:0.0 3:0.0 4:0.0 5:25.0 6:1.28 
1.7421534091612614 1:158000.0 2:0.0 3:0.0 4:0.0 5:23.0 6:1.36 
1.741335487155356 1:2830000.0 2:0.0 3:8.0 4:8.0 5:130.0 6:2.66 
2.742169962423786 1:3.0E7 2:0.0 3:0.0 4:0.0 5:58.0 6:1.74 
4.780263942813537 1:1.06E7 2:0.0 3:0.0 4:0.0 5:64.0 6:1.7708333333333333 
4.586049126433927 1:9570000.0 2:4.0 3:3.0 4:3.0 5:61.0 6:1.56 
1.742131340939327 1:3890000.0 2:0.0 3:0.0 4:0.0 5:49.0 6:1.74 
2.7424472126211246 1:1.51E7 2:0.0 3:0.0 4:0.0 5:47.0 6:1.72 
1.7421712641947957 1:5.95E7 2:0.0 3:0.0 4:0.0 5:71.0 6:1.44 
1.741783421124616 1:1.21E7 2:0.0 3:8.5 4:8.5 5:41.0 6:2.64 
1.7421732607886289 1:1260000.0 2:0.0 3:0.0 4:0.0 5:264.0 6:5.68 
1.7478918829674366 1:2.29E7 2:0.0 3:1.6666666666666667 4:1.6666666666666667 5:158.0 6:4.18 
1.742192191043476 1:175000.0 2:0.0 3:0.0 4:0.0 5:153.0 6:3.06 
1.911102457542265 1:1.56E7 2:1.0 3:6.0 4:6.0 5:54.0 6:1.38 
1.747000608736816 1:8300000.0 2:0.0 3:0.0 4:0.0 5:68.0 6:1.44 
1.7422041342608932 1:622000.0 2:0.0 3:10.5 4:10.5 5:142.0 6:2.84 
1.7413488204457783 1:4.48E7 2:0.0 3:0.0 4:0.0 5:44.0 6:1.44 
1.7422090723590558 1:1190000.0 2:0.0 3:0.0 4:0.0 5:70.0 6:2.76 
1.7417465819790978 1:6.0E7 2:0.0 3:0.0 4:0.0 5:74.0 6:3.0 
1.7413525344500957 1:8390000.0 2:0.0 3:0.0 4:0.0 5:28.0 6:1.42 
1.744880192761457 1:177000.0 2:0.0 3:7.5 4:7.5 5:17.0 6:0.38 
1.742231662076648 1:3400000.0 2:0.0 3:0.0 4:0.0 5:61.0 6:1.26 
1.7415048949386511 1:763000.0 2:0.0 3:0.0 4:0.0 5:126.0 6:2.8 
1.7413547868135963 1:4750000.0 2:0.0 3:0.0 4:0.0 5:38.0 6:1.68 
1.742236550616784 1:128000.0 2:0.0 3:0.0 4:0.0 5:122.0 6:2.58 
2.2235673737390966 1:1520000.0 2:3.0 3:1.8 4:1.8 5:111.0 6:3.92 
1.7417517854481477 1:1920000.0 2:0.0 3:0.0 4:0.0 5:128.0 6:2.6 
2.8063485487114854 1:203000.0 2:2.0 3:4.5 4:4.5 5:66.0 6:1.48 
1.7417514545181714 1:477000.0 2:0.0 3:0.0 4:0.0 5:51.0 6:1.64 
2.616833433997522 1:3400000.0 2:0.0 3:1.5 4:1.5 5:222.0 6:5.22 
1.9454527657825313 1:7.02E7 2:4.0 3:2.0 4:2.0 5:77.0 6:1.62 
1.7462132090354503 1:1.78E7 2:0.0 3:0.0 4:0.0 5:32.0 6:1.52 
1.741751291937597 1:1360000.0 2:0.0 3:0.0 4:0.0 5:89.0 6:1.82 
1.7421354409212821 1:3750000.0 2:0.0 3:2.0 4:2.0 5:282.0 6:6.2 
1.7417495759548187 1:11400.0 2:0.0 3:0.0 4:0.0 5:113.0 6:2.82 
2.1034130696809714 1:4960000.0 2:0.0 3:0.0 4:0.0 5:85.0 6:1.88 
1.7421050100970783 1:9180000.0 2:0.0 3:0.0 4:0.0 5:39.0 6:1.58 
1.784433975035869 1:570000.0 2:0.0 3:0.0 4:0.0 5:68.0 6:1.4 
1.8565500319850698 1:1.34E7 2:0.0 3:0.0 4:0.0 5:78.0 6:1.56 
1.7478253505081371 1:1550000.0 2:0.0 3:0.0 4:0.0 5:61.0 6:1.24 
1.7417487830105225 1:7270000.0 2:2.0 3:7.666666666666667 4:7.666666666666667 5:211.0 6:4.46 
1.742968391472279 1:1.38E8 2:0.0 3:5.5 4:5.5 5:80.0 6:3.34 
1.7888126486775748 1:2.42E7 2:0.0 3:0.0 4:0.0 5:29.0 6:1.697674418604651 
2.8098934552667054 1:1.01E8 2:0.0 3:0.0 4:0.0 5:82.0 6:1.68 
1.742054478328975 1:6320000.0 2:0.0 3:0.8 4:0.8 5:209.0 6:4.46 
1.7420068091892433 1:1690000.0 2:0.0 3:8.0 4:8.0 5:71.0 6:2.04 
1.7420885424417272 1:1280000.0 2:0.0 3:0.0 4:0.0 5:21.0 6:0.96 
1.7392807057664064 1:1390000.0 2:0.0 3:0.0 4:0.0 5:65.0 6:1.46 
2.741752863352872 1:2.6E7 2:0.0 3:0.0 4:0.0 5:89.0 6:2.98 
1.7410624904436096 1:221.0 2:0.0 3:10.0 4:10.0 5:121.0 6:2.44 
1.7417521929989275 1:1820000.0 2:0.0 3:0.0 4:0.0 5:48.0 6:2.4 
1.7424448205279186 1:9370000.0 2:0.0 3:0.0 4:0.0 5:26.0 6:0.88 
1.7425474292947698 1:5.96E7 2:0.0 3:3.5 4:3.5 5:57.0 6:3.92 
1.741752387979094 1:452000.0 2:0.0 3:0.0 4:0.0 5:264.0 6:5.7 
2.136358989417043 1:2.26E7 2:4.0 3:1.0 4:1.0 5:57.0 6:2.22 
2.7337490247667695 1:1.43E7 2:0.0 3:0.0 4:0.0 5:56.0 6:2.16 
3.656720035673321 1:3330000.0 2:1.0 3:5.0 4:5.0 5:46.0 6:1.02 
2.349339970618974 1:1.47E7 2:2.0 3:4.0 4:4.0 5:48.0 6:2.06 
1.8042079141741554 1:5.68E7 2:0.0 3:4.5 4:4.5 5:39.0 6:2.22 
1.7417384047529398 1:3.69E7 2:0.0 3:0.0 4:0.0 5:56.0 6:1.84 
1.7417502983747322 1:4.64E7 2:0.0 3:0.0 4:0.0 5:23.0 6:1.7105263157894737 
2.913917916104663 1:1.25E7 2:0.0 3:0.0 4:0.0 5:55.0 6:1.54 
2.5880483160620624 1:1.27E7 2:0.0 3:0.0 4:0.0 5:167.0 6:4.58 
2.0674300645197308 1:1.27E7 2:9.0 3:0.5 4:0.5 5:42.0 6:0.86 
1.741770397706833 1:1.76E7 2:0.0 3:0.0 4:0.0 5:35.0 6:1.48 
1.7413964339669807 1:5.04E7 2:2.0 3:6.0 4:6.0 5:107.0 6:2.72 
1.7423592362146594 1:4180000.0 2:0.0 3:0.0 4:0.0 5:56.0 6:2.72 
1.7418331154000104 1:8.21E7 2:0.0 3:0.0 4:0.0 5:27.0 6:1.8333333333333333 
1.7417503202013322 1:171000.0 2:0.0 3:0.0 4:0.0 5:53.0 6:3.04 
2.74168190161956 1:1.43E8 2:0.0 3:0.0 4:0.0 5:27.0 6:1.78 
2.3486494146164683 1:75200.0 2:2.0 3:6.0 4:6.0 5:15.0 6:0.3 
2.741531899056366 1:2.43E8 2:0.0 3:2.3333333333333335 4:2.3333333333333335 5:77.0 6:3.4 
1.7946522662465383 1:3.68E7 2:0.0 3:0.0 4:0.0 5:42.0 6:1.74 
1.7417501856712556 1:147000.0 2:0.0 3:0.0 4:0.0 5:57.0 6:3.54 
1.7414948597743427 1:1.36E7 2:0.0 3:0.0 4:0.0 5:43.0 6:1.84 
1.7417490497637478 1:4.29E7 2:0.0 3:0.0 4:0.0 5:89.0 6:1.82 
1.7417497451631434 1:1240000.0 2:0.0 3:0.0 4:0.0 5:144.0 6:2.9 
1.7417492137269224 1:6510000.0 2:0.0 3:0.0 4:0.0 5:69.0 6:2.52 
2.2828045085852704 1:348000.0 2:0.0 3:4.666666666666667 4:4.666666666666667 5:57.0 6:1.2 
1.7417485927993726 1:3260000.0 2:0.0 3:0.0 4:0.0 5:39.0 6:1.4 
1.7417453740273439 1:2.38E7 2:0.0 3:0.0 4:0.0 5:54.0 6:1.66 
1.741744680396661 1:2.04E7 2:0.0 3:7.0 4:7.0 5:177.0 6:3.58 
2.3485594281382385 1:252.0 2:2.0 3:4.0 4:4.0 5:76.0 6:2.08 
1.7416269724555082 1:8720000.0 2:0.0 3:7.5 4:7.5 5:36.0 6:2.12 
1.4655258274362013 1:1.22E7 2:0.0 3:0.0 4:0.0 5:48.0 6:1.96 
2.2140917951103978 1:1960000.0 2:1.0 3:6.0 4:6.0 5:140.0 6:6.02 
1.7417438257576128 1:6.18E7 2:0.0 3:7.333333333333333 4:7.333333333333333 5:70.0 6:3.84 
1.7415510029634969 1:7080000.0 2:0.0 3:0.0 4:0.0 5:257.0 6:5.9 
1.7417375365308319 1:229000.0 2:0.0 3:7.666666666666667 4:7.666666666666667 5:187.0 6:3.74 
1.7422102495728091 1:6180000.0 2:0.0 3:0.0 4:0.0 5:49.0 6:1.3 
2.144056590376691 1:1.22E7 2:4.0 3:1.5 4:1.5 5:57.0 6:1.3 
1.8283630383641718 1:2.95E7 2:0.0 3:1.0 4:1.0 5:57.0 6:1.56 
1.5593550423055251 1:1.17E7 2:0.0 3:0.0 4:0.0 5:76.0 6:1.88 
1.74173681296414 1:1.5E7 2:0.0 3:9.5 4:9.5 5:117.0 6:2.36 
1.577377037601165 1:1.02E7 2:2.0 3:0.0 4:0.0 5:44.0 6:1.4210526315789473 
2.352743835044446 1:3550000.0 2:0.0 3:0.0 4:0.0 5:42.0 6:1.46 
1.7417330126529293 1:169000.0 2:0.0 3:0.0 4:0.0 5:57.0 6:3.74 
1.8085800590270333 1:4690000.0 2:2.0 3:5.0 4:5.0 5:29.0 6:1.02 
1.7423347602602877 1:4.66E7 2:0.0 3:0.0 4:0.0 5:84.0 6:1.78 
1.7417339092056627 1:8.28E7 2:0.0 3:0.0 4:0.0 5:66.0 6:4.2 
1.755441885993984 1:226000.0 2:3.0 3:0.0 4:0.0 5:64.0 6:1.34 
1.4704268030183227 1:8600000.0 2:0.0 3:0.0 4:0.0 5:63.0 6:1.32 
1.6614690504562712 1:3.68E7 2:4.0 3:0.0 4:0.0 5:42.0 6:1.74 
1.1840634846897817 1:2820000.0 2:0.0 3:0.0 4:0.0 5:34.0 6:2.22 
1.7417326735938912 1:3.07E7 2:0.0 3:0.0 4:0.0 5:57.0 6:1.64 
1.8094916974475392 1:2300000.0 2:2.0 3:0.0 4:0.0 5:126.0 6:2.54 
1.7743976053013073 1:2.06E7 2:4.0 3:0.0 4:0.0 5:78.0 6:1.58 
1.7418954503121653 1:326000.0 2:0.0 3:0.0 4:0.0 5:33.0 6:1.18 
1.7657085895757292 1:6.64E7 2:6.0 3:2.4285714285714284 4:2.4285714285714284 5:66.0 6:1.8 
1.7414041555944906 1:195.0 2:0.0 3:6.666666666666667 4:6.666666666666667 5:177.0 6:3.58 
1.7421802473989425 1:9300000.0 2:0.0 3:0.0 4:0.0 5:75.0 6:2.26 
1.7628150345024634 1:2.88E7 2:1.0 3:2.0 4:2.0 5:88.0 6:1.84 
1.7659236435686125 1:6130000.0 2:0.0 3:0.0 4:0.0 5:25.0 6:1.14 
0.912905437552836 1:1.26E7 2:0.0 3:0.0 4:0.0 5:48.0 6:1.82 
1.7394378405556636 1:1390000.0 2:0.0 3:0.0 4:0.0 5:59.0 6:3.32 
1.7416411937497565 1:1.98E7 2:0.0 3:9.5 4:9.5 5:53.0 6:2.34 
2.7696227630832047 1:8640000.0 2:1.0 3:3.5 4:3.5 5:42.0 6:1.68 
1.7417316563509466 1:7130000.0 2:0.0 3:0.0 4:0.0 5:110.0 6:2.38 
1.7414958805371354 1:1.71E7 2:0.0 3:0.0 4:0.0 5:99.0 6:3.42 
2.832766070773798 1:1.16E8 2:0.0 3:0.0 4:0.0 5:36.0 6:1.56 
1.741728643947603 1:2690000.0 2:0.0 3:0.0 4:0.0 5:147.0 6:3.0 
2.2485206709347842 1:8180000.0 2:0.0 3:0.0 4:0.0 5:56.0 6:2.04 
1.741483270010171 1:8520000.0 2:0.0 3:0.0 4:0.0 5:30.0 6:1.64 
1.7417307584494033 1:3210000.0 2:0.0 3:0.0 4:0.0 5:86.0 6:3.02 
2.7417282096316336 1:6.93E7 2:0.0 3:0.0 4:0.0 5:52.0 6:3.02 
9.037463976945245 1:2.81E8 2:3.0 3:4.0 4:4.0 5:44.0 6:1.7 
1.7419951856300284 1:2930000.0 2:0.0 3:0.0 4:0.0 5:27.0 6:1.6 
1.760544532340614 1:112000.0 2:0.0 3:0.0 4:0.0 5:56.0 6:1.3 
1.7414751058016598 1:2660000.0 2:0.0 3:0.0 4:0.0 5:32.0 6:4.6 
1.7417284482826139 1:8030000.0 2:0.0 3:0.0 4:0.0 5:53.0 6:4.32 
5.815178855099228 1:1.18E7 2:0.0 3:0.0 4:0.0 5:57.0 6:2.36 
1.7417307367058437 1:5400000.0 2:0.0 3:9.5 4:9.5 5:111.0 6:2.26 
1.8295518537054265 1:205000.0 2:3.0 3:4.0 4:4.0 5:45.0 6:1.22 
1.7417314655242893 1:430000.0 2:0.0 3:0.0 4:0.0 5:48.0 6:3.0 
1.7417315272503808 1:624000.0 2:0.0 3:0.0 4:0.0 5:115.0 6:4.0 
1.7413534114424374 1:8910000.0 2:0.0 3:0.0 4:0.0 5:22.0 6:1.4 
1.7417294527331082 1:242000.0 2:0.0 3:12.0 4:12.0 5:3.0 6:0.06 
1.7743738252227177 1:8760000.0 2:0.0 3:0.0 4:0.0 5:47.0 6:1.78 
1.741726698190952 1:423000.0 2:0.0 3:0.0 4:0.0 5:73.0 6:1.6 
1.7417251579800044 1:2200000.0 2:17.0 3:1.0 4:1.0 5:352.0 6:8.88 
1.7417250749733069 1:4220000.0 2:0.0 3:0.0 4:0.0 5:139.0 6:2.82 
1.7417251132361644 1:4.28E7 2:0.0 3:0.0 4:0.0 5:120.0 6:2.78 
2.1788936956793585 1:8530000.0 2:1.0 3:0.0 4:0.0 5:66.0 6:1.56 
1.7414012440701667 1:565000.0 2:0.0 3:7.333333333333333 4:7.333333333333333 5:52.0 6:3.48 
1.7417208032526168 1:8460000.0 2:0.0 3:0.0 4:0.0 5:58.0 6:1.18 
1.7417177551421434 1:6340000.0 2:0.0 3:0.0 4:0.0 5:60.0 6:1.74 
1.7413771014205308 1:8790000.0 2:0.0 3:0.0 4:0.0 5:59.0 6:1.62 
1.7414693094070108 1:6910000.0 2:0.0 3:0.0 4:0.0 5:43.0 6:1.6 
1.7443356401959211 1:8320000.0 2:0.0 3:0.0 4:0.0 5:59.0 6:1.68 
2.741717496898598 1:1.73E7 2:0.0 3:0.0 4:0.0 5:66.0 6:1.88 
1.7417162884925577 1:3.33E7 2:0.0 3:0.0 4:0.0 5:26.0 6:1.52 
1.7417154975433573 1:280000.0 2:0.0 3:9.0 4:9.0 5:113.0 6:2.26 
3.2147387986028657 1:1.21E7 2:3.0 3:0.0 4:0.0 5:78.0 6:1.66 
1.741713066549799 1:253000.0 2:0.0 3:0.0 4:0.0 5:28.0 6:1.36 
2.743999700469433 1:2.15E7 2:0.0 3:0.0 4:0.0 5:47.0 6:1.6 
1.6954235449325656 1:182.0 2:0.0 3:5.0 4:5.0 5:187.0 6:3.92 
2.5349857318111595 1:1.07E7 2:0.0 3:0.0 4:0.0 5:28.0 6:1.44 
1.7417083250849772 1:1.4E7 2:0.0 3:4.0 4:4.0 5:225.0 6:4.84 
2.1632813439589915 1:9090000.0 2:0.0 3:0.0 4:0.0 5:50.0 6:1.6041666666666667 
1.7538987733496496 1:7170000.0 2:0.0 3:0.0 4:0.0 5:37.0 6:1.434782608695652 
1.7417032044298102 1:9510000.0 2:0.0 3:0.0 4:0.0 5:34.0 6:2.0 
2.522198178410771 1:7230000.0 2:4.0 3:4.0 4:4.0 5:82.0 6:1.66 
9.037463976945245 1:5.28E7 2:2.0 3:0.0 4:0.0 5:57.0 6:1.7333333333333334 
2.0950145076539934 1:8690000.0 2:0.0 3:0.0 4:0.0 5:64.0 6:2.38 
1.6306590328144912 1:1.52E7 2:0.0 3:0.0 4:0.0 5:47.0 6:2.2 
4.742250360888197 1:8.4E8 2:3.0 3:0.0 4:0.0 5:60.0 6:1.56 
1.741507074493972 1:208.0 2:0.0 3:8.5 4:8.5 5:92.0 6:1.98 
1.7426247592286253 1:1.14E7 2:0.0 3:0.0 4:0.0 5:43.0 6:1.72 
1.4870643273001853 1:241.0 2:0.0 3:6.0 4:6.0 5:87.0 6:1.88 
1.7416801393956738 1:243000.0 2:0.0 3:0.0 4:0.0 5:290.0 6:6.44 
1.7416706799478783 1:250000.0 2:20.0 3:4.0 4:4.0 5:106.0 6:4.7 
1.7416601814824777 1:2770000.0 2:0.0 3:0.0 4:0.0 5:68.0 6:3.1 
2.466652721586823 1:1.19E7 2:0.0 3:0.0 4:0.0 5:73.0 6:1.82 
1.7417920736749029 1:3340000.0 2:0.0 3:0.0 4:0.0 5:77.0 6:2.8 
6.453459595442546 1:1.14E7 2:2.0 3:0.0 4:0.0 5:65.0 6:2.0 
1.7414037019744661 1:1.94E7 2:0.0 3:9.5 4:9.5 5:100.0 6:2.0 
1.7888066591520615 1:2.33E7 2:2.0 3:0.0 4:0.0 5:73.0 6:1.56 
5.8436926298687935 1:1.2E7 2:4.0 3:3.0 4:3.0 5:67.0 6:1.84 
1.9113450566863182 1:177000.0 2:3.0 3:1.0 4:1.0 5:156.0 6:3.52 
1.7416477094017975 1:2950000.0 2:0.0 3:0.0 4:0.0 5:54.0 6:2.68 
1.742022965148162 1:1.77E7 2:0.0 3:10.0 4:10.0 5:49.0 6:2.9 
1.7474139040213963 1:9250000.0 2:0.0 3:0.0 4:0.0 5:52.0 6:1.34 
1.7416376660969066 1:8280000.0 2:0.0 3:0.0 4:0.0 5:27.0 6:1.16 
1.7416331868240698 1:7810000.0 2:0.0 3:0.0 4:0.0 5:48.0 6:2.98 
1.7926794756347366 1:3180000.0 2:0.0 3:3.0 4:3.0 5:67.0 6:1.64 
1.7416305661107288 1:6080000.0 2:0.0 3:8.5 4:8.5 5:129.0 6:2.64 
1.7416297984551925 1:438000.0 2:1.0 3:4.0 4:4.0 5:74.0 6:1.5 
1.7373769722485803 1:238000.0 2:0.0 3:0.0 4:0.0 5:123.0 6:2.88 
1.9904166639467118 1:1.94E7 2:1.0 3:4.5 4:4.5 5:39.0 6:1.84 
1.7416303383070608 1:608000.0 2:0.0 3:0.0 4:0.0 5:24.0 6:1.12 
1.7416304056492136 1:288000.0 2:0.0 3:0.0 4:0.0 5:29.0 6:2.76 
1.7416286557250895 1:107000.0 2:0.0 3:0.0 4:0.0 5:146.0 6:3.6 
1.7417247648200451 1:182000.0 2:0.0 3:0.0 4:0.0 5:157.0 6:3.56 
1.7416246568287885 1:2540000.0 2:0.0 3:0.0 4:0.0 5:40.0 6:1.66 
1.741625572760067 1:1.42E8 2:0.0 3:0.0 4:0.0 5:50.0 6:3.0 
5.741624600296183 1:7.93E7 2:0.0 3:0.0 4:0.0 5:51.0 6:1.34 
1.7459783157032474 1:8080000.0 2:2.0 3:3.5 4:3.5 5:58.0 6:2.04 
1.9155889652690066 1:1.99E7 2:2.0 3:0.0 4:0.0 5:65.0 6:1.86 
1.741627879099396 1:1.02E9 2:0.0 3:0.0 4:0.0 5:45.0 6:1.76 
3.8354434525422594 1:4.0E7 2:2.0 3:7.333333333333333 4:7.333333333333333 5:28.0 6:0.62 
1.7421340185433296 1:248.0 2:0.0 3:7.333333333333333 4:7.333333333333333 5:182.0 6:3.72 
1.7420584043868212 1:9620000.0 2:0.0 3:0.0 4:0.0 5:86.0 6:1.78 
1.7418484603357016 1:129000.0 2:0.0 3:0.0 4:0.0 5:155.0 6:3.54 
1.741627379067099 1:3580000.0 2:0.0 3:0.0 4:0.0 5:78.0 6:1.62 
1.7422263804594285 1:2390000.0 2:0.0 3:0.0 4:0.0 5:54.0 6:1.64 
1.741627811473781 1:2100000.0 2:0.0 3:0.0 4:0.0 5:31.0 6:1.44 
1.7428122667788077 1:6360000.0 2:0.0 3:0.0 4:0.0 5:40.0 6:2.06 
1.2140288530908834 1:4.99E7 2:0.0 3:0.0 4:0.0 5:42.0 6:3.4 
1.7416303539144071 1:189000.0 2:0.0 3:0.0 4:0.0 5:90.0 6:2.82 
1.742558537106227 1:8470000.0 2:0.0 3:0.0 4:0.0 5:57.0 6:1.78 
1.741630945727446 1:4200000.0 2:0.0 3:0.0 4:0.0 5:181.0 6:3.86 
1.7425058264224562 1:2460000.0 2:0.0 3:0.0 4:0.0 5:56.0 6:1.38 
1.7416099864369086 1:2.68E7 2:0.0 3:0.0 4:0.0 5:46.0 6:2.24 
1.7416295638115433 1:5430000.0 2:0.0 3:6.5 4:6.5 5:99.0 6:2.66 
2.5214502112893706 1:9410000.0 2:0.0 3:0.0 4:0.0 5:53.0 6:2.54 
1.7502029683558196 1:4.19E7 2:3.0 3:6.666666666666667 4:6.666666666666667 5:53.0 6:1.32 
1.7416084932909008 1:150000.0 2:6.0 3:4.6 4:4.6 5:66.0 6:1.74 
1.8889403067042414 1:9570000.0 2:0.0 3:0.0 4:0.0 5:55.0 6:1.72 
1.7416027380988415 1:2320000.0 2:0.0 3:0.0 4:0.0 5:29.0 6:1.04 
2.6163785334244074 1:1.04E7 2:0.0 3:3.0 4:3.0 5:42.0 6:1.5 
1.7594707433533538 1:9800000.0 2:1.0 3:4.666666666666667 4:4.666666666666667 5:19.0 6:1.36 
2.222972354191059 1:4790000.0 2:1.0 3:0.0 4:0.0 5:35.0 6:1.76 
1.7415959802705117 1:239000.0 2:0.0 3:0.0 4:0.0 5:88.0 6:4.26 
2.3484983180383106 1:7560000.0 2:0.0 3:0.0 4:0.0 5:59.0 6:1.58 
1.7438796533002858 1:6720000.0 2:0.0 3:0.0 4:0.0 5:37.0 6:1.78 
1.7415877208452784 1:8320000.0 2:0.0 3:0.0 4:0.0 5:89.0 6:1.78 
1.741496325061156 1:343000.0 2:0.0 3:0.0 4:0.0 5:75.0 6:2.04 
3.15452417475643 1:9710000.0 2:0.0 3:3.25 4:3.25 5:69.0 6:1.46 
1.7367753863659876 1:2.26E7 2:0.0 3:0.0 4:0.0 5:53.0 6:1.44 
1.7414287241450173 1:3640000.0 2:0.0 3:0.0 4:0.0 5:136.0 6:2.88 
1.750291495453339 1:113000.0 2:1.0 3:2.5 4:2.5 5:56.0 6:1.18 
1.7415665972422874 1:7.95E7 2:0.0 3:0.0 4:0.0 5:35.0 6:1.78 
1.7415739403297934 1:4160000.0 2:0.0 3:0.0 4:0.0 5:70.0 6:1.52 
1.4126690231123753 1:2.83E7 2:0.0 3:0.0 4:0.0 5:56.0 6:1.5 
1.7414750180690532 1:1.0E7 2:0.0 3:0.0 4:0.0 5:54.0 6:1.62 
1.7417778111249125 1:1.35E7 2:0.0 3:0.0 4:0.0 5:162.0 6:3.26 
1.7415636500421527 1:3680000.0 2:0.0 3:8.0 4:8.0 5:120.0 6:2.48 
2.937032721879631 1:2340000.0 2:0.0 3:7.75 4:7.75 5:4.0 6:0.16 
1.7415700025708512 1:6310000.0 2:0.0 3:0.0 4:0.0 5:38.0 6:1.8 
1.7532353250285442 1:1550000.0 2:0.0 3:0.0 4:0.0 5:52.0 6:1.76 
0.9477882105123425 1:1040000.0 2:0.0 3:0.0 4:0.0 5:39.0 6:1.0 
1.7970073813044363 1:1.55E7 2:0.0 3:4.0 4:4.0 5:33.0 6:1.0 
2.741567371455437 1:224.0 2:0.0 3:0.0 4:0.0 5:26.0 6:0.54 
2.6056738199945637 1:1.17E7 2:3.0 3:0.0 4:0.0 5:74.0 6:1.9 
2.7432540701310515 1:4.16E7 2:3.0 3:0.0 4:0.0 5:65.0 6:1.64 
1.7415648581190477 1:6.95E7 2:0.0 3:0.0 4:0.0 5:27.0 6:1.12 
1.7870826363900953 1:4100000.0 2:0.0 3:0.0 4:0.0 5:40.0 6:1.7 
1.741561015561832 1:9110000.0 2:0.0 3:0.0 4:0.0 5:49.0 6:1.82 
2.7429794685297177 1:7.4E7 2:0.0 3:0.0 4:0.0 5:29.0 6:1.18 
1.741751807946512 1:1.05E7 2:0.0 3:0.0 4:0.0 5:139.0 6:2.78 
2.6140973510392387 1:4620000.0 2:0.0 3:0.0 4:0.0 5:56.0 6:1.5 
1.7415659508290307 1:9650000.0 2:0.0 3:0.0 4:0.0 5:49.0 6:1.44 
1.741473753450626 1:2850000.0 2:0.0 3:0.0 4:0.0 5:28.0 6:1.54 
1.7652550017586197 1:3.52E7 2:4.0 3:0.0 4:0.0 5:56.0 6:1.24 
1.7415161256662215 1:7890000.0 2:0.0 3:0.0 4:0.0 5:62.0 6:1.46 
1.7417909097570206 1:5.49E7 2:0.0 3:0.0 4:0.0 5:49.0 6:1.46 
1.788865068470685 1:81100.0 2:0.0 3:3.0 4:3.0 5:76.0 6:1.52 
1.741945652104915 1:774000.0 2:1.0 3:0.0 4:0.0 5:67.0 6:1.52 
2.7420826880403197 1:1.46E8 2:1.0 3:0.0 4:0.0 5:74.0 6:1.98 
2.7442083467856175 1:1.03E8 2:0.0 3:0.0 4:0.0 5:30.0 6:1.4 
1.7417628380034635 1:184000.0 2:0.0 3:0.0 4:0.0 5:110.0 6:2.7 
1.7421370948038537 1:4550000.0 2:0.0 3:0.0 4:0.0 5:52.0 6:1.5 
1.7414327820940014 1:3890000.0 2:5.0 3:10.0 4:10.0 5:110.0 6:3.48 
1.7413546560969513 1:4310.0 2:1.0 3:10.0 4:10.0 5:53.0 6:1.28 
1.7416749256048136 1:9060000.0 2:0.0 3:0.0 4:0.0 5:63.0 6:1.98 
2.3482761050202283 1:48600.0 2:0.0 3:3.5 4:3.5 5:44.0 6:1.04 
1.741352924791842 1:2.2E7 2:0.0 3:0.0 4:0.0 5:52.0 6:2.6 
2.7429683225127253 1:3.63E8 2:3.0 3:1.0 4:1.0 5:76.0 6:1.6 
1.7415213175956297 1:293000.0 2:3.0 3:3.0 4:3.0 5:251.0 6:5.68 
3.741514500003737 1:7540000.0 2:0.0 3:0.0 4:0.0 5:77.0 6:1.54 
1.7916600510127614 1:1.05E7 2:0.0 3:4.0 4:4.0 5:30.0 6:2.4 
1.7417530670432082 1:4.45E7 2:0.0 3:6.666666666666667 4:6.666666666666667 5:79.0 6:4.12 
1.7456103110180061 1:9250000.0 2:0.0 3:0.0 4:0.0 5:40.0 6:1.74 
1.791509670508069 1:2660000.0 2:1.0 3:2.5 4:2.5 5:38.0 6:1.94 
1.741494225273851 1:309000.0 2:0.0 3:0.0 4:0.0 5:191.0 6:4.02 
1.747021544828578 1:1310000.0 2:0.0 3:0.0 4:0.0 5:199.0 6:4.28 
2.5216894622529766 1:7060000.0 2:2.0 3:4.0 4:4.0 5:42.0 6:1.44 
1.7414820709899872 1:2730000.0 2:0.0 3:5.0 4:5.0 5:218.0 6:4.4 
1.7417799292603 1:133000.0 2:0.0 3:0.0 4:0.0 5:132.0 6:2.7 
1.741353112584068 1:176000.0 2:0.0 3:0.0 4:0.0 5:59.0 6:1.38 
2.758136011998837 1:97100.0 2:0.0 3:6.5 4:6.5 5:5.0 6:0.18 
1.741494859322858 1:1910000.0 2:0.0 3:0.0 4:0.0 5:76.0 6:1.52 
4.741498880091996 1:4.21E8 2:0.0 3:0.0 4:0.0 5:59.0 6:2.16 
1.741463751065091 1:7880000.0 2:0.0 3:0.0 4:0.0 5:107.0 6:2.26 
1.741413477110123 1:2430000.0 2:0.0 3:0.0 4:0.0 5:104.0 6:3.5 
2.7266219142499537 1:2.47E7 2:1.0 3:4.0 4:4.0 5:43.0 6:1.84 
1.741425739983571 1:752000.0 2:0.0 3:0.0 4:0.0 5:33.0 6:1.34 
1.7426287332095587 1:1.91E7 2:0.0 3:0.0 4:0.0 5:24.0 6:1.52 
1.7414243897401254 1:778000.0 2:0.0 3:16.0 4:16.0 5:1.0 6:0.04 
3.202541743685206 1:1.16E7 2:0.0 3:0.0 4:0.0 5:49.0 6:2.0 
1.7459618788596911 1:4090000.0 2:0.0 3:0.0 4:0.0 5:30.0 6:1.66 
1.7414418515276577 1:1.6E7 2:0.0 3:0.0 4:0.0 5:40.0 6:1.8 
2.141885455144592 1:216.0 2:0.0 3:3.5 4:3.5 5:93.0 6:1.86 
1.7421582484877782 1:9780000.0 2:0.0 3:0.0 4:0.0 5:76.0 6:1.62 
2.179480090278356 1:1.22E7 2:0.0 3:1.0 4:1.0 5:45.0 6:1.56 
1.7414472263741505 1:73000.0 2:0.0 3:0.0 4:0.0 5:56.0 6:1.18 
1.7417518470601703 1:339000.0 2:0.0 3:5.75 4:5.75 5:264.0 6:5.36 
1.7416441796304336 1:412000.0 2:0.0 3:6.5 4:6.5 5:60.0 6:3.26 
1.7421700205392865 1:83400.0 2:0.0 3:0.0 4:0.0 5:89.0 6:4.16 
1.741405967495865 1:925000.0 2:0.0 3:7.333333333333333 4:7.333333333333333 5:186.0 6:3.92 
2.2617207586065042 1:9620000.0 2:0.0 3:7.0 4:7.0 5:39.0 6:1.46 
1.7413941613769919 1:9530000.0 2:0.0 3:9.5 4:9.5 5:118.0 6:2.38 
1.7419407252585295 1:1.31E7 2:0.0 3:0.0 4:0.0 5:76.0 6:1.58 
2.4155883581752997 1:149.0 2:0.0 3:2.5 4:2.5 5:116.0 6:2.56 
1.841038513777978 1:1.25E7 2:0.0 3:3.0 4:3.0 5:75.0 6:1.56 
1.7414234401927775 1:2660000.0 2:0.0 3:0.0 4:0.0 5:210.0 6:4.24 
1.741426483839481 1:8.33E7 2:0.0 3:0.0 4:0.0 5:43.0 6:2.3 
1.7413895527092156 1:2450000.0 2:0.0 3:0.0 4:0.0 5:131.0 6:3.38 
1.741389086100913 1:9.56E7 2:0.0 3:0.0 4:0.0 5:40.0 6:1.52 
1.7413862063307222 1:248000.0 2:0.0 3:10.5 4:10.5 5:128.0 6:2.56 
2.109879498653641 1:1.52E7 2:2.0 3:6.0 4:6.0 5:79.0 6:1.62 
1.7413649296895666 1:214000.0 2:0.0 3:0.0 4:0.0 5:138.0 6:2.8 
1.9787588287749718 1:4320000.0 2:0.0 3:3.5 4:3.5 5:55.0 6:1.52 
2.823946240156208 1:9180000.0 2:3.0 3:6.5 4:6.5 5:32.0 6:1.38 
1.741381610569459 1:7.71E7 2:0.0 3:0.0 4:0.0 5:82.0 6:2.54 
2.5442167406893335 1:1.01E7 2:1.0 3:0.0 4:0.0 5:60.0 6:1.26 
1.76525934551207 1:8700000.0 2:0.0 3:0.0 4:0.0 5:56.0 6:1.64 
2.741371630957402 1:5.2E7 2:0.0 3:0.0 4:0.0 5:158.0 6:3.18 
1.8934775220281943 1:212000.0 2:0.0 3:0.0 4:0.0 5:110.0 6:2.94 
1.7413731521842912 1:1.07E8 2:0.0 3:7.333333333333333 4:7.333333333333333 5:133.0 6:2.82 
1.7413662715520009 1:3.44E7 2:0.0 3:0.0 4:0.0 5:76.0 6:1.6 
1.741376896225355 1:2.9E7 2:0.0 3:5.0 4:5.0 5:115.0 6:2.68 
1.804757151526411 1:1840000.0 2:0.0 3:1.0 4:1.0 5:38.0 6:0.9 
1.7418896827200623 1:7000000.0 2:0.0 3:10.0 4:10.0 5:19.0 6:1.28 
1.7414954161941802 1:1.54E7 2:0.0 3:0.0 4:0.0 5:47.0 6:1.58 
1.755009879183539 1:3.21E7 2:0.0 3:0.0 4:0.0 5:18.0 6:1.048780487804878 
1.7414239948248493 1:1850000.0 2:0.0 3:0.0 4:0.0 5:152.0 6:4.76 
2.8548327879399635 1:216000.0 2:3.0 3:8.5 4:8.5 5:57.0 6:1.16 
1.7413627928630095 1:1.65E7 2:0.0 3:0.0 4:0.0 5:55.0 6:3.1 
1.9388886987640908 1:1.13E8 2:0.0 3:0.0 4:0.0 5:47.0 6:1.64 
1.7419727697174574 1:901000.0 2:0.0 3:0.0 4:0.0 5:253.0 6:5.48 
1.7568502885101267 1:7.11E7 2:0.0 3:0.0 4:0.0 5:61.0 6:2.54 
1.7414070443767846 1:2.17E7 2:0.0 3:7.0 4:7.0 5:125.0 6:2.5 
1.742043359360297 1:3740000.0 2:0.0 3:0.0 4:0.0 5:152.0 6:3.6 
1.7416687103296697 1:6070000.0 2:0.0 3:0.0 4:0.0 5:41.0 6:1.78 
6.7658069438116595 1:1.25E8 2:0.0 3:0.0 4:0.0 5:54.0 6:1.44 
2.5087817574078093 1:2.52E7 2:3.0 3:0.0 4:0.0 5:68.0 6:1.5 
1.7860727540523396 1:2550000.0 2:0.0 3:0.0 4:0.0 5:45.0 6:1.54 
1.7413817667677298 1:3.48E7 2:2.0 3:6.0 4:6.0 5:59.0 6:4.04 
1.741390919436428 1:3750000.0 2:0.0 3:0.0 4:0.0 5:33.0 6:1.58 
1.7413714612244053 1:4.96E7 2:0.0 3:0.0 4:0.0 5:158.0 6:3.26 
2.741361366168284 1:4.13E7 2:0.0 3:0.0 4:0.0 5:39.0 6:1.68 
1.741359920939051 1:222.0 2:0.0 3:0.0 4:0.0 5:178.0 6:3.58 
2.5952280314675833 1:1.11E7 2:0.0 3:0.0 4:0.0 5:27.0 6:1.3191489361702127 
1.7545430073055304 1:3060000.0 2:4.0 3:4.0 4:4.0 5:70.0 6:1.42 
2.5216879857280023 1:2.79E7 2:1.0 3:3.5 4:3.5 5:58.0 6:1.86 
1.7416275170479354 1:5220000.0 2:0.0 3:0.0 4:0.0 5:131.0 6:2.62 
1.7413559565306003 1:4.18E7 2:0.0 3:0.0 4:0.0 5:68.0 6:3.36 
1.7413555210109322 1:215000.0 2:0.0 3:7.666666666666667 4:7.666666666666667 5:181.0 6:3.9 
1.8044576048946754 1:1.06E7 2:0.0 3:0.0 4:0.0 5:51.0 6:2.32 
1.7413629907607309 1:3600000.0 2:0.0 3:0.0 4:0.0 5:70.0 6:1.42 
1.7413648268208504 1:2180000.0 2:0.0 3:0.0 4:0.0 5:101.0 6:2.64 
1.743158291961652 1:9520000.0 2:1.0 3:0.0 4:0.0 5:79.0 6:1.66 
1.7413845278908076 1:236000.0 2:0.0 3:0.0 4:0.0 5:28.0 6:1.22 
1.741399338483494 1:2.4E7 2:0.0 3:0.0 4:0.0 5:59.0 6:1.3 
1.7452981409781934 1:2.64E7 2:4.0 3:0.0 4:0.0 5:65.0 6:1.96 
1.7413517433577894 1:1.24E7 2:0.0 3:0.0 4:0.0 5:66.0 6:2.26 
1.7413865561993975 1:1.27E7 2:0.0 3:0.0 4:0.0 5:126.0 6:3.64 
3.034540139064688 1:2390000.0 2:4.0 3:4.0 4:4.0 5:40.0 6:1.12 
2.2244202395809465 1:8550000.0 2:3.0 3:3.0 4:3.0 5:78.0 6:1.56 
1.7413964271804518 1:179000.0 2:0.0 3:0.0 4:0.0 5:239.0 6:5.0 
3.3762556985768692 1:1.05E7 2:0.0 3:0.0 4:0.0 5:67.0 6:2.02 
1.7422075804537176 1:4550000.0 2:0.0 3:0.0 4:0.0 5:39.0 6:1.26 
2.741877662919721 1:2.5E7 2:0.0 3:0.0 4:0.0 5:48.0 6:1.78 
2.8571333086683195 1:3070000.0 2:1.0 3:5.5 4:5.5 5:77.0 6:1.6 
1.741422581111659 1:227000.0 2:0.0 3:0.0 4:0.0 5:96.0 6:2.52 
1.7414168990363104 1:2.28E7 2:0.0 3:0.0 4:0.0 5:34.0 6:1.76 
2.7418018812176217 1:1.02E8 2:0.0 3:0.0 4:0.0 5:40.0 6:2.8 
1.7414027523680877 1:2190000.0 2:0.0 3:0.0 4:0.0 5:96.0 6:2.96 
1.7414008190538335 1:263000.0 2:0.0 3:12.0 4:12.0 5:2.0 6:0.06 
1.741432560134197 1:2.42E7 2:0.0 3:0.0 4:0.0 5:197.0 6:4.02 
1.7421084999639398 1:3630000.0 2:0.0 3:8.0 4:8.0 5:30.0 6:2.28 
1.7414327768103912 1:303000.0 2:0.0 3:4.75 4:4.75 5:234.0 6:4.7 
1.8675530173492207 1:3770000.0 2:0.0 3:0.0 4:0.0 5:53.0 6:2.84 
1.7682951925079473 1:1780000.0 2:3.0 3:5.333333333333333 4:5.333333333333333 5:157.0 6:3.94 
2.846989761985887 1:1610000.0 2:0.0 3:7.0 4:7.0 5:4.0 6:0.12 
1.7422139560768797 1:208000.0 2:0.0 3:6.5 4:6.5 5:0.0 6:0.0 
2.8679816229537907 1:986.0 2:0.0 3:5.0 4:5.0 5:25.0 6:0.68 
1.7421654441499146 1:355000.0 2:2.0 3:0.0 4:0.0 5:57.0 6:1.16 
1.8094903586096511 1:1.1E7 2:1.0 3:2.0 4:2.0 5:53.0 6:1.36 
1.7414000985320632 1:2160000.0 2:0.0 3:0.0 4:0.0 5:65.0 6:3.6 
2.42659431893569 1:5.24E7 2:1.0 3:3.0 4:3.0 5:37.0 6:1.7142857142857142 
3.747772123882667 1:9770000.0 2:4.0 3:0.0 4:0.0 5:32.0 6:1.28 
1.7414285375967937 1:6800000.0 2:0.0 3:0.0 4:0.0 5:43.0 6:1.58 
1.7628159461826418 1:7080000.0 2:0.0 3:1.0 4:1.0 5:51.0 6:1.7 
1.7414266477224094 1:2490000.0 2:0.0 3:10.0 4:10.0 5:127.0 6:2.54 
1.741416425048282 1:254000.0 2:0.0 3:0.0 4:0.0 5:104.0 6:2.48 
1.7424681842694127 1:5070000.0 2:0.0 3:0.0 4:0.0 5:48.0 6:1.22 
1.7415638649479752 1:217.0 2:0.0 3:10.0 4:10.0 5:128.0 6:2.6 
1.7414411080671828 1:204.0 2:0.0 3:0.0 4:0.0 5:35.0 6:0.92 
1.7680476510037408 1:1.47E7 2:0.0 3:0.0 4:0.0 5:69.0 6:1.48 
1.7414237143336582 1:91900.0 2:0.0 3:0.0 4:0.0 5:289.0 6:6.42 
1.7414075584752353 1:7.18E8 2:0.0 3:0.0 4:0.0 5:45.0 6:1.7272727272727273 
1.7414745808888386 1:169000.0 2:0.0 3:0.0 4:0.0 5:182.0 6:3.66 
1.7413543848686963 1:214000.0 2:0.0 3:7.5 4:7.5 5:96.0 6:2.66 
2.5383963669949723 1:346000.0 2:1.0 3:8.0 4:8.0 5:7.0 6:0.14 
2.741432516822442 1:3040000.0 2:0.0 3:2.0 4:2.0 5:10.0 6:0.28 
1.741394171284599 1:9000000.0 2:0.0 3:0.0 4:0.0 5:69.0 6:1.38 
1.7418956339164644 1:5040000.0 2:0.0 3:0.0 4:0.0 5:33.0 6:1.46 
1.7417460091956063 1:2670000.0 2:0.0 3:9.0 4:9.0 5:48.0 6:2.26 
1.742540322825326 1:6690000.0 2:1.0 3:0.0 4:0.0 5:88.0 6:2.6 
2.56455454842814 1:1.02E7 2:0.0 3:0.0 4:0.0 5:41.0 6:1.565217391304348 
2.79479431491676 1:8580000.0 2:2.0 3:4.0 4:4.0 5:58.0 6:1.2 
1.7417204642032902 1:1.37E7 2:0.0 3:7.0 4:7.0 5:34.0 6:0.86 
1.7414028707613327 1:2.01E7 2:0.0 3:0.0 4:0.0 5:59.0 6:2.06 
2.8606636992852317 1:1.07E7 2:3.0 3:0.0 4:0.0 5:41.0 6:1.6 
1.7417459130391282 1:2610000.0 2:0.0 3:0.0 4:0.0 5:125.0 6:2.72 
1.742005843995297 1:1.82E7 2:0.0 3:0.0 4:0.0 5:76.0 6:1.56 
1.7414082694524895 1:54400.0 2:0.0 3:0.0 4:0.0 5:263.0 6:6.28 
1.7372613383396427 1:1.45E7 2:0.0 3:0.0 4:0.0 5:37.0 6:1.92 
1.7419222755952828 1:559.0 2:0.0 3:0.0 4:0.0 5:46.0 6:2.08 
1.7435281385579935 1:1.18E7 2:0.0 3:0.0 4:0.0 5:36.0 6:1.52 
1.7420683471561738 1:6230000.0 2:0.0 3:0.0 4:0.0 5:29.0 6:0.82 
1.7413587889705167 1:2.89E7 2:0.0 3:0.0 4:0.0 5:60.0 6:1.24 
1.7415382041717042 1:250.0 2:0.0 3:9.0 4:9.0 5:126.0 6:2.54 
1.7432053305067337 1:9830000.0 2:0.0 3:0.0 4:0.0 5:39.0 6:1.64 
1.741437029174937 1:179000.0 2:0.0 3:0.0 4:0.0 5:95.0 6:6.78 
1.8092608045973315 1:9.62E7 2:0.0 3:1.2 4:1.2 5:141.0 6:3.14 
1.7428082140644234 1:6.12E7 2:0.0 3:0.0 4:0.0 5:27.0 6:1.75 
1.7417786676391709 1:8940000.0 2:0.0 3:0.0 4:0.0 5:35.0 6:2.02 
1.7414429926394166 1:2190000.0 2:0.0 3:0.0 4:0.0 5:17.0 6:1.06 
4.742914816650097 1:1.9E8 2:0.0 3:1.0 4:1.0 5:47.0 6:1.44 
2.3846755854292874 1:1.12E7 2:0.0 3:0.0 4:0.0 5:35.0 6:1.48 
1.7414509289185656 1:2.51E7 2:0.0 3:8.0 4:8.0 5:190.0 6:3.86 
2.2770918290196906 1:1.19E7 2:0.0 3:1.0 4:1.0 5:49.0 6:1.9 
1.742295620270841 1:1.5E7 2:0.0 3:0.0 4:0.0 5:80.0 6:1.64 
1.7497341391549481 1:1.16E7 2:0.0 3:0.0 4:0.0 5:60.0 6:3.06 
2.1639516618601293 1:3430000.0 2:0.0 3:4.8 4:4.8 5:54.0 6:2.06 
1.7594286299877204 1:2.27E7 2:0.0 3:0.0 4:0.0 5:47.0 6:1.54 
1.7414462815682987 1:142000.0 2:0.0 3:0.0 4:0.0 5:40.0 6:1.38 
1.741456822632585 1:2270000.0 2:0.0 3:0.0 4:0.0 5:13.0 6:1.68 
2.3471239471174723 1:4310000.0 2:7.0 3:5.6 4:5.6 5:284.0 6:5.92 
1.8976779955852843 1:2.56E7 2:1.0 3:4.0 4:4.0 5:68.0 6:1.38 
1.7416294894834585 1:4940000.0 2:0.0 3:0.0 4:0.0 5:42.0 6:1.88 
1.741459904223427 1:249000.0 2:0.0 3:0.0 4:0.0 5:110.0 6:2.42 
1.74239899734715 1:9160000.0 2:0.0 3:0.0 4:0.0 5:28.0 6:1.62 
1.7412590779827732 1:1820000.0 2:0.0 3:0.0 4:0.0 5:70.0 6:2.0 
1.7418007874328594 1:9380000.0 2:0.0 3:0.0 4:0.0 5:73.0 6:2.06 
1.7414560262107055 1:6600000.0 2:4.0 3:0.0 4:0.0 5:46.0 6:1.64 
2.6213892203370595 1:3050000.0 2:0.0 3:0.0 4:0.0 5:42.0 6:1.92 
1.7410494984650784 1:182.0 2:0.0 3:6.0 4:6.0 5:129.0 6:2.66 
1.7414418515280015 1:3090000.0 2:0.0 3:0.0 4:0.0 5:27.0 6:1.32 
1.7416817952219228 1:1.63E7 2:0.0 3:7.0 4:7.0 5:48.0 6:2.1 
0.9826086149432759 1:1.01E7 2:0.0 3:0.0 4:0.0 5:39.0 6:1.64 
1.7429012386931508 1:3220000.0 2:13.0 3:2.0 4:2.0 5:97.0 6:2.86 
1.7420190715545412 1:2.08E7 2:12.0 3:3.0 4:3.0 5:159.0 6:5.96 
1.7414037857180755 1:1.58E7 2:0.0 3:0.0 4:0.0 5:62.0 6:2.74 
1.8965132708287893 1:4190000.0 2:2.0 3:4.5 4:4.5 5:112.0 6:2.74 
1.7437037621014695 1:2.46E7 2:0.0 3:7.5 4:7.5 5:43.0 6:2.78 
1.7414444713190171 1:9640000.0 2:0.0 3:0.0 4:0.0 5:68.0 6:1.5 
2.34870925331802 1:2.37E7 2:2.0 3:4.5 4:4.5 5:24.0 6:1.28 
1.7414522638665555 1:28000.0 2:0.0 3:0.0 4:0.0 5:61.0 6:1.36 
2.791037595451883 1:4840000.0 2:3.0 3:1.0 4:1.0 5:147.0 6:4.18 
1.741385584533108 1:4660000.0 2:0.0 3:7.0 4:7.0 5:106.0 6:3.18 
1.7414399692093965 1:3240000.0 2:44.0 3:2.8 4:2.8 5:189.0 6:4.52 
3.1241835633465906 1:4.18E7 2:3.0 3:0.0 4:0.0 5:56.0 6:1.7 
1.6294406558619168 1:1.04E7 2:4.0 3:0.0 4:0.0 5:90.0 6:1.96 
1.741434474038189 1:3950000.0 2:0.0 3:0.0 4:0.0 5:170.0 6:3.46 
1.741443465865709 1:9800000.0 2:0.0 3:0.0 4:0.0 5:71.0 6:1.58 
1.741438016993755 1:1340000.0 2:0.0 3:7.666666666666667 4:7.666666666666667 5:158.0 6:3.18 
1.742465231321007 1:2030000.0 2:0.0 3:0.0 4:0.0 5:64.0 6:1.32 
1.7414398217348173 1:9490000.0 2:0.0 3:0.0 4:0.0 5:35.0 6:1.82 
1.741447981131502 1:1910000.0 2:0.0 3:0.0 4:0.0 5:50.0 6:1.78 
2.741455291664699 1:7.5E7 2:0.0 3:0.0 4:0.0 5:45.0 6:1.28 
1.7413547304023584 1:2.13E7 2:0.0 3:0.0 4:0.0 5:31.0 6:1.62 
1.184643636674375 1:2820000.0 2:0.0 3:0.0 4:0.0 5:36.0 6:2.94 
1.7414601443732511 1:4600000.0 2:0.0 3:7.5 4:7.5 5:115.0 6:2.32 
3.7680471077788162 1:8.19E7 2:4.0 3:1.0 4:1.0 5:52.0 6:2.02 
1.7417502353175367 1:2650000.0 2:0.0 3:0.0 4:0.0 5:60.0 6:3.04 
1.7414620496972635 1:4.36E7 2:0.0 3:0.0 4:0.0 5:33.0 6:1.54 
1.8936804618155034 1:3370000.0 2:0.0 3:0.0 4:0.0 5:63.0 6:1.34 
1.8882893890937489 1:2.37E7 2:0.0 3:0.0 4:0.0 5:21.0 6:1.62 
1.7423190837945801 1:3780000.0 2:3.0 3:4.5 4:4.5 5:80.0 6:1.6 
2.109762407972619 1:144000.0 2:1.0 3:4.0 4:4.0 5:57.0 6:1.14 
2.5784575194701693 1:1.02E7 2:0.0 3:0.0 4:0.0 5:35.0 6:1.9130434782608696 
1.7529877315749205 1:9060000.0 2:0.0 3:0.0 4:0.0 5:32.0 6:1.6046511627906976 
1.7457907074457195 1:1.0E7 2:0.0 3:0.0 4:0.0 5:44.0 6:1.82 
1.6295796245358973 1:1.04E7 2:0.0 3:0.0 4:0.0 5:90.0 6:1.96 
3.7414637050002995 1:5.96E7 2:0.0 3:0.0 4:0.0 5:24.0 6:1.46 
1.7414654275246344 1:1920000.0 2:0.0 3:0.0 4:0.0 5:56.0 6:2.58 
1.7414640849730885 1:1990000.0 2:0.0 3:0.0 4:0.0 5:62.0 6:1.72 
1.9236140622722764 1:1.17E7 2:0.0 3:0.0 4:0.0 5:64.0 6:2.12 
4.917540611633429 1:1.13E7 2:3.0 3:0.0 4:0.0 5:66.0 6:1.62 
1.8930390282378784 1:9830000.0 2:0.0 3:0.0 4:0.0 5:23.0 6:1.34 
1.7423675346709433 1:142000.0 2:0.0 3:2.6666666666666665 4:2.6666666666666665 5:147.0 6:3.86 
3.9706095914290427 1:1.1E7 2:0.0 3:0.0 4:0.0 5:63.0 6:1.62 
1.7414695451840985 1:187000.0 2:0.0 3:4.333333333333333 4:4.333333333333333 5:106.0 6:3.48 
1.7418286446370508 1:2.02E7 2:0.0 3:0.0 4:0.0 5:29.0 6:1.66 
2.2438738108608414 1:8270000.0 2:0.0 3:0.0 4:0.0 5:41.0 6:1.72 
1.7414691607292154 1:3900000.0 2:0.0 3:0.0 4:0.0 5:116.0 6:2.62 
1.741469309213034 1:5050000.0 2:0.0 3:0.0 4:0.0 5:157.0 6:3.2 
2.891292656803306 1:1.28E7 2:0.0 3:0.0 4:0.0 5:70.0 6:2.04 
2.753196498945511 1:4.25E7 2:4.0 3:1.0 4:1.0 5:57.0 6:1.58 
1.742042063055238 1:9470000.0 2:0.0 3:0.0 4:0.0 5:66.0 6:2.9 
1.741469987660082 1:228000.0 2:0.0 3:0.0 4:0.0 5:110.0 6:2.46 
1.9795544064972974 1:1910000.0 2:0.0 3:0.0 4:0.0 5:266.0 6:5.94 
3.748169198581132 1:6430000.0 2:1.0 3:3.0 4:3.0 5:32.0 6:1.76 
1.7417269946780225 1:3970000.0 2:0.0 3:0.0 4:0.0 5:197.0 6:4.34 
1.742272499164895 1:1230000.0 2:0.0 3:0.0 4:0.0 5:70.0 6:1.4 
1.788783651059917 1:6380000.0 2:1.0 3:2.5 4:2.5 5:43.0 6:1.48 
1.7421683668132126 1:1.82E7 2:0.0 3:0.0 4:0.0 5:39.0 6:1.86 
1.7426480634521018 1:2.12E7 2:0.0 3:1.0 4:1.0 5:53.0 6:1.38 
1.8898265509913597 1:20.0 2:0.0 3:6.0 4:6.0 5:3.0 6:0.3 
1.7414766571430027 1:2.39E7 2:0.0 3:0.0 4:0.0 5:30.0 6:1.358974358974359 
1.7414789383438105 1:230000.0 2:0.0 3:0.0 4:0.0 5:7.0 6:0.18 
1.7476472972405843 1:1.63E7 2:0.0 3:0.0 4:0.0 5:43.0 6:1.26 
1.7414813021422577 1:9700000.0 2:0.0 3:0.0 4:0.0 5:36.0 6:1.4 
2.7413553128491013 1:1.57E7 2:0.0 3:0.0 4:0.0 5:58.0 6:1.72 
3.741576639038642 1:7.98E7 2:0.0 3:0.0 4:0.0 5:27.0 6:1.56 
1.741512686166797 1:2.29E7 2:0.0 3:0.0 4:0.0 5:40.0 6:1.28 
1.7434271099984295 1:6.49E7 2:0.0 3:0.0 4:0.0 5:93.0 6:1.86 
1.7424708524078114 1:6200000.0 2:0.0 3:0.0 4:0.0 5:106.0 6:2.34 
1.7652623575916961 1:8920000.0 2:2.0 3:5.5 4:5.5 5:88.0 6:3.2 
1.7415226491720237 1:346000.0 2:0.0 3:8.4 4:8.4 5:341.0 6:7.3 
1.7415263442867586 1:4820000.0 2:0.0 3:0.0 4:0.0 5:72.0 6:1.52 
1.7419954240557778 1:3250000.0 2:0.0 3:0.0 4:0.0 5:39.0 6:1.32 
1.7415263784484842 1:2820000.0 2:0.0 3:8.333333333333334 4:8.333333333333334 5:189.0 6:3.98 
1.7413626663118391 1:357000.0 2:0.0 3:0.0 4:0.0 5:83.0 6:1.74 
1.756005490945858 1:1.14E7 2:0.0 3:0.0 4:0.0 5:62.0 6:1.6 
1.7415238660700962 1:9210000.0 2:0.0 3:0.0 4:0.0 5:47.0 6:1.62 
1.7419926281418951 1:3.42E7 2:0.0 3:0.0 4:0.0 5:34.0 6:1.74 
2.741529063246302 1:3.58E8 2:0.0 3:0.0 4:0.0 5:39.0 6:1.54 
1.7417414672586218 1:3.28E7 2:0.0 3:0.0 4:0.0 5:52.0 6:1.54 
1.7675039441663276 1:2.34E7 2:0.0 3:0.0 4:0.0 5:48.0 6:1.28 
3.1697875452092963 1:1210000.0 2:1.0 3:2.5 4:2.5 5:118.0 6:3.1 
1.7415340993903252 1:1.19E7 2:0.0 3:0.0 4:0.0 5:125.0 6:3.9 
1.7784419770875677 1:5470000.0 2:0.0 3:0.0 4:0.0 5:301.0 6:7.46 
1.7415340748849233 1:1.31E8 2:0.0 3:0.0 4:0.0 5:89.0 6:3.38 
1.7415329192886553 1:3390000.0 2:0.0 3:0.0 4:0.0 5:44.0 6:2.28 
2.509715796472031 1:3690000.0 2:1.0 3:5.0 4:5.0 5:157.0 6:6.06 
1.8517459882297664 1:7.38E7 2:1.0 3:0.0 4:0.0 5:51.0 6:3.12 
3.7414654217763754 1:2.89E7 2:2.0 3:11.0 4:11.0 5:68.0 6:1.6 
1.7415429764213939 1:230000.0 2:0.0 3:12.0 4:12.0 5:128.0 6:2.58 
2.1177287695777594 1:1.82E7 2:0.0 3:0.0 4:0.0 5:48.0 6:1.72 
1.749350206053042 1:1.09E7 2:1.0 3:0.0 4:0.0 5:41.0 6:1.84 
1.7415586465718136 1:2470000.0 2:0.0 3:0.0 4:0.0 5:50.0 6:4.7 
1.788754371959352 1:3.24E7 2:1.0 3:0.0 4:0.0 5:44.0 6:1.7234042553191489 
1.7433231653109917 1:4.57E7 2:0.0 3:0.0 4:0.0 5:33.0 6:1.7 
1.7415683836226181 1:190000.0 2:5.0 3:6.666666666666667 4:6.666666666666667 5:140.0 6:3.44 
2.18528492609662 1:1.04E7 2:3.0 3:0.0 4:0.0 5:54.0 6:1.6 
2.276052852528178 1:4.37E7 2:6.0 3:2.25 4:2.25 5:167.0 6:4.7 
1.7764440978751022 1:1.22E7 2:0.0 3:0.0 4:0.0 5:40.0 6:1.54 
1.7410592673676384 1:187.0 2:0.0 3:9.0 4:9.0 5:127.0 6:2.6 
2.5898240997402415 1:3620000.0 2:3.0 3:4.5 4:4.5 5:40.0 6:1.24 
1.7415699042566855 1:5730000.0 2:0.0 3:0.0 4:0.0 5:40.0 6:1.6 
1.741790154435951 1:3.54E8 2:0.0 3:0.0 4:0.0 5:52.0 6:1.7 
2.7415781903987697 1:2.56E8 2:0.0 3:0.0 4:0.0 5:20.0 6:1.7073170731707317 
1.4242345033117658 1:1.43E7 2:0.0 3:0.0 4:0.0 5:59.0 6:2.14 
1.7415783883828413 1:1900000.0 2:0.0 3:8.5 4:8.5 5:137.0 6:2.74 
2.864801900371438 1:2.31E7 2:0.0 3:0.0 4:0.0 5:77.0 6:2.46 
1.741588302262794 1:255000.0 2:0.0 3:5.666666666666667 4:5.666666666666667 5:194.0 6:4.48 
3.1157255183490022 1:1.18E7 2:0.0 3:0.0 4:0.0 5:50.0 6:1.74 
2.2556455686397956 1:8.55E7 2:0.0 3:4.0 4:4.0 5:178.0 6:4.64 
1.898412546175749 1:1.1E7 2:0.0 3:0.0 4:0.0 5:75.0 6:1.5 
1.7420489532123555 1:255000.0 2:0.0 3:0.0 4:0.0 5:47.0 6:1.16 
1.7415912811126246 1:1.56E7 2:0.0 3:0.0 4:0.0 5:33.0 6:1.86 
2.1764880980939023 1:2.05E7 2:0.0 3:0.0 4:0.0 5:48.0 6:2.76 
1.7497686197749949 1:1.01E7 2:0.0 3:0.0 4:0.0 5:67.0 6:1.74 
1.6888984802032514 1:2660000.0 2:2.0 3:1.5 4:1.5 5:101.0 6:3.94 
2.7415946303835197 1:4.21E7 2:0.0 3:0.0 4:0.0 5:44.0 6:1.72 
1.7423913152299042 1:7.48E7 2:0.0 3:1.0 4:1.0 5:47.0 6:1.88 
1.7417861614667587 1:1.87E7 2:0.0 3:0.0 4:0.0 5:87.0 6:2.94 
1.7415994605144756 1:3000000.0 2:0.0 3:0.0 4:0.0 5:205.0 6:6.32 
1.423530681780141 1:8600000.0 2:0.0 3:0.0 4:0.0 5:66.0 6:1.32 
1.7414640849730956 1:5950000.0 2:0.0 3:0.0 4:0.0 5:45.0 6:2.94 
1.7428704042794805 1:2.43E7 2:0.0 3:0.0 4:0.0 5:44.0 6:3.52 
1.7416010215168636 1:8.18E7 2:0.0 3:0.0 4:0.0 5:43.0 6:1.84 
1.7416038353416035 1:5330000.0 2:0.0 3:0.0 4:0.0 5:144.0 6:3.978723404255319 
1.741602618974104 1:385000.0 2:0.0 3:0.0 4:0.0 5:46.0 6:2.92 
1.7416034340473474 1:1270000.0 2:0.0 3:7.333333333333333 4:7.333333333333333 5:178.0 6:3.8 
1.7413506619430041 1:5510000.0 2:0.0 3:0.0 4:0.0 5:69.0 6:3.88 
1.741603537525412 1:227000.0 2:0.0 3:0.0 4:0.0 5:44.0 6:3.24 
4.29095715986586 1:2.59E7 2:2.0 3:3.0 4:3.0 5:81.0 6:2.0 
1.7416148956462632 1:3.62E7 2:0.0 3:10.666666666666666 4:10.666666666666666 5:81.0 6:3.56 
1.7417847184305153 1:8800000.0 2:0.0 3:0.0 4:0.0 5:57.0 6:3.16 
1.7416175060930545 1:9000000.0 2:0.0 3:0.0 4:0.0 5:36.0 6:1.78 
1.7861575199117832 1:9300000.0 2:2.0 3:0.0 4:0.0 5:42.0 6:2.02 
4.499093583953512 1:3.91E7 2:1.0 3:3.0 4:3.0 5:50.0 6:2.02 
1.741615311097601 1:1.13E7 2:0.0 3:0.0 4:0.0 5:85.0 6:1.7 
1.7478873872499054 1:2180000.0 2:0.0 3:0.0 4:0.0 5:85.0 6:2.0 
1.7395671498568113 1:1.13E8 2:2.0 3:0.0 4:0.0 5:53.0 6:1.8 
2.3771836282426193 1:9830000.0 2:0.0 3:0.0 4:0.0 5:46.0 6:2.1739130434782608 
1.7416165403062989 1:1.92E8 2:0.0 3:0.0 4:0.0 5:49.0 6:1.34 
1.7416214793837832 1:1520000.0 2:0.0 3:5.5 4:5.5 5:49.0 6:2.26 
1.7416231121091608 1:4420000.0 2:0.0 3:0.0 4:0.0 5:46.0 6:1.4 
1.7416582384650778 1:4.64E7 2:0.0 3:0.0 4:0.0 5:157.0 6:3.3 
1.988125528031026 1:2.0E7 2:1.0 3:3.0 4:3.0 5:96.0 6:2.9 
2.741629809131784 1:1.0E8 2:0.0 3:0.0 4:0.0 5:123.0 6:2.64 
1.7416273517055434 1:2.85E7 2:0.0 3:9.0 4:9.0 5:65.0 6:2.78 
1.7417513544262118 1:9350000.0 2:0.0 3:0.0 4:0.0 5:52.0 6:1.8604651162790697 
4.437133418414963 1:1.06E7 2:0.0 3:0.0 4:0.0 5:46.0 6:1.82 
1.7413574800655267 1:1.85E7 2:0.0 3:0.0 4:0.0 5:93.0 6:2.7 
1.7424486310518663 1:4.46E7 2:0.0 3:0.0 4:0.0 5:14.0 6:1.8 
2.0388326048424927 1:2.92E7 2:2.0 3:1.0 4:1.0 5:42.0 6:1.68 
2.9463738063925917 1:1.75E7 2:0.0 3:0.0 4:0.0 5:42.0 6:1.5 
1.7415752721099365 1:4670000.0 2:0.0 3:8.0 4:8.0 5:126.0 6:2.54 
1.7532122828468766 1:9950000.0 2:0.0 3:0.0 4:0.0 5:61.0 6:1.48 
2.446318413893664 1:1330000.0 2:1.0 3:2.5 4:2.5 5:75.0 6:1.52 
1.7416371804396176 1:128000.0 2:0.0 3:0.0 4:0.0 5:142.0 6:2.9 
5.013613270659827 1:8930000.0 2:3.0 3:2.5 4:2.5 5:70.0 6:1.42 
1.7416351113122848 1:5.4E7 2:0.0 3:0.0 4:0.0 5:101.0 6:2.38 
1.741648604649155 1:4.12E7 2:0.0 3:0.0 4:0.0 5:53.0 6:1.7 
1.741655366044711 1:153000.0 2:0.0 3:0.0 4:0.0 5:24.0 6:0.78 
1.741653427372027 1:356000.0 2:0.0 3:10.5 4:10.5 5:111.0 6:2.28 
1.742601017456941 1:4950000.0 2:2.0 3:0.0 4:0.0 5:50.0 6:1.7 
1.7416492128800087 1:5220000.0 2:0.0 3:0.0 4:0.0 5:85.0 6:3.8 
1.7416572804026813 1:8.32E8 2:0.0 3:0.0 4:0.0 5:62.0 6:1.6 
1.7414291416613281 1:2.31E8 2:0.0 3:0.0 4:0.0 5:44.0 6:1.44 
1.7416605382004355 1:5970000.0 2:0.0 3:0.0 4:0.0 5:88.0 6:1.8 
2.2797550604132 1:1.13E8 2:0.0 3:0.0 4:0.0 5:26.0 6:1.68 
1.214190862581741 1:4.99E7 2:0.0 3:1.0 4:1.0 5:42.0 6:1.66 
1.741753106281961 1:1.6E7 2:0.0 3:0.0 4:0.0 5:81.0 6:3.34 
1.7443140011716887 1:3.6E8 2:0.0 3:0.0 4:0.0 5:68.0 6:2.02 
1.7416545252986704 1:2780000.0 2:0.0 3:0.0 4:0.0 5:181.0 6:4.18 
1.7416706043311163 1:2600000.0 2:0.0 3:0.0 4:0.0 5:116.0 6:2.48 
1.7416552727997145 1:258000.0 2:0.0 3:6.5 4:6.5 5:105.0 6:2.94 
2.762062570926311 1:1.7E7 2:3.0 3:0.0 4:0.0 5:32.0 6:1.72 
1.7416635762563308 1:297000.0 2:0.0 3:0.0 4:0.0 5:166.0 6:4.18 
1.9426377608829977 1:240.0 2:0.0 3:6.8 4:6.8 5:90.0 6:1.84 
1.797325669815419 1:4570000.0 2:3.0 3:4.5 4:4.5 5:7.0 6:0.2 
1.7416126445256506 1:5.76E8 2:0.0 3:0.0 4:0.0 5:40.0 6:1.56 
1.7416582779697052 1:197000.0 2:0.0 3:0.0 4:0.0 5:88.0 6:4.12 
3.917754026952002 1:1.14E7 2:0.0 3:0.0 4:0.0 5:56.0 6:1.88 
2.1663265375471195 1:6150000.0 2:0.0 3:0.0 4:0.0 5:53.0 6:1.38 
1.0504596651327323 1:8890000.0 2:0.0 3:0.0 4:0.0 5:49.0 6:1.48 
1.7416518220328614 1:376000.0 2:0.0 3:6.666666666666667 4:6.666666666666667 5:199.0 6:4.1 
1.7416500809367244 1:7320000.0 2:0.0 3:0.0 4:0.0 5:62.0 6:3.1 
1.765254160044319 1:585000.0 2:0.0 3:4.5 4:4.5 5:6.0 6:0.2 
2.3497815577584795 1:19900.0 2:0.0 3:1.0 4:1.0 5:15.0 6:0.88 
1.7416592371146777 1:4040000.0 2:0.0 3:0.0 4:0.0 5:93.0 6:2.52 
0.9152740917699664 1:1.01E7 2:0.0 3:0.0 4:0.0 5:40.0 6:1.64 
1.742037322199842 1:2.1E7 2:0.0 3:0.0 4:0.0 5:98.0 6:2.06 
1.749211910248694 1:9.6E7 2:0.0 3:3.0 4:3.0 5:32.0 6:1.46 
1.7416604200838517 1:3190000.0 2:0.0 3:0.0 4:0.0 5:81.0 6:1.64 
1.4131616272977798 1:2.83E7 2:0.0 3:0.0 4:0.0 5:59.0 6:1.56 
1.9202575446915848 1:1.85E7 2:4.0 3:3.6666666666666665 4:3.6666666666666665 5:79.0 6:1.66 
1.746948185382997 1:2.18E7 2:0.0 3:0.0 4:0.0 5:44.0 6:1.6938775510204083 
1.7416654186508151 1:2780000.0 2:0.0 3:8.0 4:8.0 5:48.0 6:2.8 
1.7416859695210642 1:1.24E7 2:0.0 3:7.0 4:7.0 5:120.0 6:2.42 
1.7416714919943808 1:323000.0 2:0.0 3:0.0 4:0.0 5:32.0 6:0.88 
1.7419447460480026 1:3.19E7 2:0.0 3:0.0 4:0.0 5:49.0 6:2.26 
2.737445802062112 1:238000.0 2:0.0 3:0.0 4:0.0 5:129.0 6:2.82 
1.7416736836912678 1:1.05E8 2:0.0 3:0.0 4:0.0 5:75.0 6:1.52 
1.7416766325204867 1:9320000.0 2:0.0 3:0.0 4:0.0 5:61.0 6:1.64 
3.856385979582594 1:3.85E7 2:0.0 3:0.0 4:0.0 5:45.0 6:1.76 
2.7420666606001496 1:4.79E8 2:0.0 3:0.0 4:0.0 5:30.0 6:1.7 
1.7416758010569122 1:503000.0 2:0.0 3:0.0 4:0.0 5:124.0 6:2.64 
2.0151399256682665 1:5020000.0 2:7.0 3:6.0 4:6.0 5:98.0 6:2.78 
4.383086464604242 1:1.4E7 2:0.0 3:0.0 4:0.0 5:41.0 6:1.92 
2.7416707882926072 1:8.14E7 2:0.0 3:0.0 4:0.0 5:54.0 6:2.16 
2.3282119561837638 1:4120000.0 2:0.0 3:4.0 4:4.0 5:40.0 6:1.08 
1.9106057951164959 1:8280000.0 2:0.0 3:0.0 4:0.0 5:52.0 6:1.6808510638297873 
1.742027772746756 1:588000.0 2:1.0 3:5.25 4:5.25 5:327.0 6:8.36 
1.7419920294413946 1:3.19E7 2:0.0 3:0.0 4:0.0 5:37.0 6:1.5 
1.7416745836815712 1:4.02E8 2:0.0 3:0.0 4:0.0 5:41.0 6:1.631578947368421 
-0.25815666699294754 1:86900.0 2:32.0 3:4.0 4:4.0 5:93.0 6:1.98 
-0.23291492035061434 1:86900.0 2:48.0 3:6.0 4:6.0 5:93.0 6:1.98 
-0.22828039836523473 1:86900.0 2:12.0 3:6.0 4:6.0 5:93.0 6:1.98 
-0.2352307827901305 1:86900.0 2:39.0 3:6.0 4:6.0 5:93.0 6:1.98 
-0.25408873175181573 1:86900.0 2:35.0 3:8.0 4:8.0 5:93.0 6:1.98 
-0.24329331832727796 1:86900.0 2:42.0 3:8.0 4:8.0 5:93.0 6:1.98 
-0.22954766523064063 1:1420000.0 2:1.0 3:2.5 4:2.5 5:63.0 6:1.46 
-0.25860332969140104 1:3410000.0 2:0.0 3:0.0 4:0.0 5:121.0 6:2.82 
-0.2082327500457446 1:86900.0 2:5.0 3:3.5 4:3.5 5:93.0 6:1.98 
-0.21222209898022662 1:86900.0 2:2.0 3:3.3333333333333335 4:3.3333333333333335 5:93.0 6:1.98 
-0.21242554319630869 1:86900.0 2:43.0 3:4.0 4:4.0 5:93.0 6:1.98 
-0.22430598189166928 1:86900.0 2:10.0 3:4.0 4:4.0 5:93.0 6:1.98 
-0.25851821494482696 1:1420000.0 2:2.0 3:9.0 4:9.0 5:63.0 6:1.46 
-0.17924324529815538 1:86900.0 2:46.0 3:4.0 4:4.0 5:93.0 6:1.98 
-0.3086096017941853 1:134000.0 2:4.0 3:6.5 4:6.5 5:3.0 6:0.06 
-0.2583410080807906 1:118000.0 2:11.0 3:5.0 4:5.0 5:19.0 6:0.48 
-0.2586020306807266 1:118000.0 2:3.0 3:4.5 4:4.5 5:19.0 6:0.48 
-0.25713087532381285 1:134000.0 2:1.0 3:4.0 4:4.0 5:3.0 6:0.06 
-0.25859191775863205 1:118000.0 2:17.0 3:8.0 4:8.0 5:19.0 6:0.48 
-0.25859618213099567 1:3940000.0 2:20.0 3:4.0 4:4.0 5:169.0 6:6.36 
-0.19788710375454022 1:5670000.0 2:1.0 3:3.0 4:3.0 5:38.0 6:2.2 
-0.2075387254893122 1:5670000.0 2:2.0 3:0.0 4:0.0 5:38.0 6:2.2 
-0.2096192448504588 1:3940000.0 2:46.0 3:1.6666666666666667 4:1.6666666666666667 5:169.0 6:6.36 
-0.0623515725532948 1:5670000.0 2:3.0 3:1.0 4:1.0 5:38.0 6:2.2 
-0.208782771140808 1:3940000.0 2:44.0 3:3.2 4:3.2 5:169.0 6:6.36 
-0.13510022203158148 1:1.74E7 2:2.0 3:0.0 4:0.0 5:59.0 6:1.44 
-0.14315384570719372 1:1.74E7 2:3.0 3:0.0 4:0.0 5:59.0 6:1.44 
-0.22277954936535943 1:5.04E7 2:4.0 3:0.0 4:0.0 5:55.0 6:1.54 
-0.25863166510036634 1:3940000.0 2:0.0 3:1.5 4:1.5 5:169.0 6:6.36 
-0.258613440612519 1:3940000.0 2:35.0 3:3.0 4:3.0 5:169.0 6:6.36 
-0.19497040816273048 1:5670000.0 2:4.0 3:3.0 4:3.0 5:38.0 6:2.2 
-0.25825078795255746 1:1.54E8 2:2.0 3:1.0 4:1.0 5:41.0 6:1.84 
-0.2572090677739525 1:1.0E7 2:1.0 3:9.0 4:9.0 5:28.0 6:1.08 
-0.1867896040371596 1:1.0E7 2:4.0 3:0.0 4:0.0 5:28.0 6:1.08 
-0.06828696646182694 1:1.27E7 2:2.0 3:2.0 4:2.0 5:30.0 6:1.58 
-1.0 1:9740000.0 2:2.0 3:3.0 4:3.0 5:32.0 6:1.48 
-0.27782693890265425 1:9740000.0 2:1.0 3:0.0 4:0.0 5:32.0 6:1.48 
-0.18419764943075664 1:1.27E7 2:3.0 3:2.0 4:2.0 5:30.0 6:1.58 
-0.2547289306641646 1:1.0E7 2:2.0 3:5.0 4:5.0 5:28.0 6:1.08 
-0.17947374069492322 1:1.0E7 2:3.0 3:1.5 4:1.5 5:28.0 6:1.08 
-0.23446293244284017 1:1.27E7 2:0.0 3:0.0 4:0.0 5:30.0 6:1.58 
-0.28355563321133875 1:1.45E7 2:1.0 3:3.5 4:3.5 5:43.0 6:1.96 
-0.258518614422806 1:5150000.0 2:0.0 3:5.5 4:5.5 5:50.0 6:2.4 
-0.2587119433189692 1:1.45E7 2:4.0 3:15.0 4:15.0 5:43.0 6:1.96 
-0.18992705092497497 1:270000.0 2:2.0 3:1.0 4:1.0 5:229.0 6:5.1 
-0.25852028676155486 1:270000.0 2:23.0 3:3.0 4:3.0 5:229.0 6:5.1 
-0.2566459172581427 1:270000.0 2:9.0 3:3.3333333333333335 4:3.3333333333333335 5:229.0 6:5.1 
-0.25851767784373736 1:2010000.0 2:46.0 3:3.0 4:3.0 5:161.0 6:3.5 
-0.256952217298194 1:1840000.0 2:1.0 3:5.333333333333333 4:5.333333333333333 5:33.0 6:1.38 
-0.1861542492169178 1:270000.0 2:4.0 3:2.0 4:2.0 5:229.0 6:5.1 
-0.2584356849143381 1:1370000.0 2:0.0 3:6.333333333333333 4:6.333333333333333 5:187.0 6:4.54 
-0.25733488809049243 1:1.39E7 2:1.0 3:3.6666666666666665 4:3.6666666666666665 5:118.0 6:2.42 
-0.2571564116635685 1:1.39E7 2:4.0 3:0.0 4:0.0 5:118.0 6:2.42 
-0.24775010337568448 1:2310000.0 2:1.0 3:0.0 4:0.0 5:68.0 6:1.42 
-0.24781299085788605 1:2310000.0 2:2.0 3:3.0 4:3.0 5:68.0 6:1.42 
-0.25842151951459835 1:1900000.0 2:1.0 3:4.0 4:4.0 5:44.0 6:1.78 
-0.14928604359237227 1:9300000.0 2:2.0 3:5.666666666666667 4:5.666666666666667 5:44.0 6:2.56 
-0.07212472072097814 1:9300000.0 2:3.0 3:4.0 4:4.0 5:44.0 6:2.56 
-0.25843342418678206 1:9300000.0 2:38.0 3:4.0 4:4.0 5:44.0 6:2.56 
-0.07161216522175742 1:9300000.0 2:1.0 3:4.5 4:4.5 5:44.0 6:2.56 
-0.25847819982106385 1:1.38E7 2:0.0 3:0.0 4:0.0 5:23.0 6:1.558139534883721 
-0.1934241111071349 1:1.38E7 2:3.0 3:4.333333333333333 4:4.333333333333333 5:23.0 6:1.558139534883721 
-0.19358856453042386 1:1.38E7 2:2.0 3:6.0 4:6.0 5:23.0 6:1.558139534883721 
-0.25782747618237534 1:178000.0 2:0.0 3:0.0 4:0.0 5:44.0 6:3.28 
-0.2569043584076718 1:2670000.0 2:0.0 3:0.0 4:0.0 5:49.0 6:3.86 
-0.25827416849184925 1:1100000.0 2:1.0 3:11.0 4:11.0 5:51.0 6:1.1 
-0.2580496238231292 1:130000.0 2:3.0 3:3.5 4:3.5 5:31.0 6:1.68 
-0.17722192644540805 1:130000.0 2:14.0 3:6.5 4:6.5 5:31.0 6:1.68 
-0.17140346079723537 1:130000.0 2:12.0 3:6.0 4:6.0 5:31.0 6:1.68 
-0.2561648118308501 1:130000.0 2:7.0 3:7.0 4:7.0 5:31.0 6:1.68 
-0.22614054814285545 1:746000.0 2:25.0 3:4.333333333333333 4:4.333333333333333 5:146.0 6:3.18 
-0.22651409043042925 1:746000.0 2:22.0 3:5.5 4:5.5 5:146.0 6:3.18 
-0.26295052233208993 1:1.18E7 2:1.0 3:4.0 4:4.0 5:48.0 6:1.88 
-0.258282469274637 1:746000.0 2:14.0 3:3.5 4:3.5 5:146.0 6:3.18 
-0.258254447253503 1:2.8E7 2:0.0 3:0.0 4:0.0 5:72.0 6:1.52 
-0.25826041193818255 1:3970000.0 2:0.0 3:0.0 4:0.0 5:35.0 6:0.96 
-0.01764651854637923 1:2.59E7 2:1.0 3:0.5 4:0.5 5:83.0 6:1.74 
-0.1395745546933657 1:8180000.0 2:2.0 3:2.6666666666666665 4:2.6666666666666665 5:101.0 6:2.24 
-0.14020767349899857 1:8180000.0 2:3.0 3:2.6666666666666665 4:2.6666666666666665 5:101.0 6:2.24 
-1.0 1:1.18E7 2:0.0 3:0.0 4:0.0 5:48.0 6:1.88 
-0.2582603767127249 1:1.29E9 2:4.0 3:5.0 4:5.0 5:47.0 6:1.48 
-0.25816576040369565 1:4380000.0 2:0.0 3:0.0 4:0.0 5:41.0 6:1.22 
-0.5229790073994813 1:1.46E7 2:4.0 3:8.0 4:8.0 5:65.0 6:1.4 
-0.2110404699306102 1:78400.0 2:0.0 3:7.0 4:7.0 5:7.0 6:0.24 
-0.2582602398791492 1:193000.0 2:0.0 3:10.5 4:10.5 5:52.0 6:1.66 
-0.2582540420077706 1:9.02E7 2:0.0 3:0.0 4:0.0 5:143.0 6:3.74 
-0.18001544578340245 1:1.46E7 2:1.0 3:0.0 4:0.0 5:65.0 6:1.4 
-0.12040236670735677 1:2.42E7 2:2.0 3:2.5 4:2.5 5:65.0 6:1.84 
-0.1646812002008559 1:2.42E7 2:3.0 3:4.666666666666667 4:4.666666666666667 5:65.0 6:1.84 
-0.25717779116097644 1:29700.0 2:47.0 3:4.6 4:4.6 5:94.0 6:7.24 
-0.21162207397608856 1:78400.0 2:1.0 3:5.0 4:5.0 5:7.0 6:0.24 
-0.2573645789809787 1:1.36E7 2:0.0 3:4.0 4:4.0 5:25.0 6:0.7 
-1.0 1:2.42E7 2:0.0 3:0.0 4:0.0 5:65.0 6:1.84 
-0.257283118540554 1:1.36E7 2:2.0 3:0.0 4:0.0 5:25.0 6:0.7 
-0.25803042597886316 1:29700.0 2:45.0 3:9.0 4:9.0 5:94.0 6:7.24 
-0.25796502821217415 1:4410000.0 2:0.0 3:7.5 4:7.5 5:35.0 6:1.34 
-0.11189633948272783 1:2.42E7 2:4.0 3:3.0 4:3.0 5:65.0 6:1.84 
-0.25769719582310124 1:29700.0 2:41.0 3:4.0 4:4.0 5:94.0 6:7.24 
-0.1750008277651728 1:8860000.0 2:3.0 3:6.5 4:6.5 5:73.0 6:1.54 
-0.17788414689264662 1:5330000.0 2:2.0 3:6.0 4:6.0 5:67.0 6:2.02 
-0.2582495928935559 1:2740000.0 2:31.0 3:4.333333333333333 4:4.333333333333333 5:274.0 6:5.84 
-0.10741239818674918 1:1.33E7 2:3.0 3:3.0 4:3.0 5:66.0 6:1.84 
-0.18810174488122117 1:2.06E7 2:3.0 3:0.0 4:0.0 5:61.0 6:1.54 
-0.2578732189976707 1:5510000.0 2:0.0 3:5.666666666666667 4:5.666666666666667 5:135.0 6:3.42 
-0.2532402511620837 1:1.33E7 2:0.0 3:0.0 4:0.0 5:66.0 6:1.84 
-1.0 1:1.9E7 2:2.0 3:4.0 4:4.0 5:63.0 6:1.3 
-0.14973596837822048 1:5330000.0 2:4.0 3:6.5 4:6.5 5:67.0 6:2.02 
-0.18923748218142422 1:2.06E7 2:1.0 3:1.0 4:1.0 5:61.0 6:1.54 
-0.25787315421684004 1:2740000.0 2:0.0 3:6.285714285714286 4:6.285714285714286 5:274.0 6:5.84 
-0.23479301609135922 1:5330000.0 2:3.0 3:9.0 4:9.0 5:67.0 6:2.02 
-0.17338217177635662 1:8860000.0 2:1.0 3:6.0 4:6.0 5:73.0 6:1.54 
-0.25787321666941787 1:1140000.0 2:38.0 3:5.666666666666667 4:5.666666666666667 5:296.0 6:6.28 
-1.0 1:1.17E7 2:0.0 3:0.0 4:0.0 5:65.0 6:1.46 
-0.14901220372578924 1:9490000.0 2:3.0 3:4.0 4:4.0 5:79.0 6:1.62 
-0.2578732537876583 1:320000.0 2:7.0 3:4.0 4:4.0 5:99.0 6:2.28 
-0.1525751896810237 1:9490000.0 2:4.0 3:3.3333333333333335 4:3.3333333333333335 5:79.0 6:1.62 
-0.14662502771276606 1:1.17E7 2:3.0 3:4.0 4:4.0 5:65.0 6:1.46 
-0.25745271759747723 1:174.0 2:39.0 3:5.0 4:5.0 5:90.0 6:1.88 
-0.257642244315295 1:174.0 2:45.0 3:4.6 4:4.6 5:90.0 6:1.88 
-0.6670775481998417 1:2.47E7 2:1.0 3:3.5 4:3.5 5:46.0 6:1.62 
-0.25224851746656773 1:1.17E7 2:1.0 3:3.0 4:3.0 5:65.0 6:1.46 
-0.04093584036226851 1:1.17E7 2:2.0 3:3.0 4:3.0 5:65.0 6:1.46 
-0.18883367862558575 1:271000.0 2:23.0 3:7.0 4:7.0 5:61.0 6:1.7 
-0.2573585672863317 1:271000.0 2:3.0 3:3.0 4:3.0 5:61.0 6:1.7 
-0.14983561947356974 1:271000.0 2:37.0 3:6.333333333333333 4:6.333333333333333 5:61.0 6:1.7 
-0.2547976826448604 1:549000.0 2:0.0 3:3.5 4:3.5 5:70.0 6:1.5 
-0.25785034211705266 1:271000.0 2:1.0 3:7.0 4:7.0 5:61.0 6:1.7 
-0.14898358471023723 1:271000.0 2:38.0 3:7.0 4:7.0 5:61.0 6:1.7 
-0.25787359626500683 1:209000.0 2:0.0 3:8.666666666666666 4:8.666666666666666 5:80.0 6:3.7 
-0.2560302154158086 1:2.54E7 2:0.0 3:1.0 4:1.0 5:28.0 6:1.7 
-0.2543123351674116 1:549000.0 2:1.0 3:0.0 4:0.0 5:70.0 6:1.5 
-0.18876830768098868 1:271000.0 2:25.0 3:8.0 4:8.0 5:61.0 6:1.7 
-0.2563633427833705 1:2.54E7 2:4.0 3:3.5 4:3.5 5:28.0 6:1.7 
-0.2432128089604651 1:165000.0 2:13.0 3:3.5 4:3.5 5:98.0 6:2.28 
-0.23892056638202225 1:165000.0 2:9.0 3:4.0 4:4.0 5:98.0 6:2.28 
-0.257971826526762 1:87100.0 2:0.0 3:0.0 4:0.0 5:177.0 6:3.54 
-1.0 1:1.48E7 2:1.0 3:1.0 4:1.0 5:90.0 6:1.86 
-0.13397100952878246 1:419000.0 2:1.0 3:3.5 4:3.5 5:82.0 6:1.7 
-0.25535921167679515 1:419000.0 2:0.0 3:0.0 4:0.0 5:82.0 6:1.7 
-0.25879381924044564 1:243.0 2:0.0 3:3.2 4:3.2 5:106.0 6:2.7 
-0.1426496884100313 1:419000.0 2:2.0 3:3.5 4:3.5 5:82.0 6:1.7 
-0.149990813280519 1:689.0 2:1.0 3:8.666666666666666 4:8.666666666666666 5:40.0 6:1.02 
-0.2581086262003538 1:36100.0 2:0.0 3:5.0 4:5.0 5:11.0 6:0.68 
-0.14839482716474417 1:689.0 2:2.0 3:8.0 4:8.0 5:40.0 6:1.02 
-0.2222952644711144 1:7850000.0 2:4.0 3:3.0 4:3.0 5:39.0 6:1.76 
-0.22779166441825555 1:171000.0 2:0.0 3:6.0 4:6.0 5:3.0 6:0.06 
-0.22295868984433148 1:7850000.0 2:1.0 3:4.0 4:4.0 5:39.0 6:1.76 
-0.25824749983620615 1:3680000.0 2:0.0 3:0.0 4:0.0 5:51.0 6:1.3 
-0.2582003935532846 1:678000.0 2:0.0 3:4.0 4:4.0 5:8.0 6:0.16 
-0.2582176741845357 1:9570000.0 2:0.0 3:0.0 4:0.0 5:36.0 6:1.72 
-0.26420276124666725 1:36.0 2:3.0 3:5.5 4:5.5 5:2.0 6:0.08333333333333333 
-0.22742155207806108 1:171000.0 2:2.0 3:8.0 4:8.0 5:3.0 6:0.06 
-0.25822374439080603 1:171000.0 2:4.0 3:1.0 4:1.0 5:3.0 6:0.06 
-0.24557699927933985 1:155000.0 2:47.0 3:6.0 4:6.0 5:87.0 6:2.0 
-0.17754510899937181 1:3450000.0 2:1.0 3:4.0 4:4.0 5:61.0 6:1.4 
-0.2500968852989471 1:155000.0 2:33.0 3:9.5 4:9.5 5:87.0 6:2.0 
-0.1716355243827854 1:3450000.0 2:4.0 3:3.5 4:3.5 5:61.0 6:1.4 
-0.25864752992015927 1:155000.0 2:3.0 3:9.5 4:9.5 5:87.0 6:2.0 
-0.12451659382293079 1:3450000.0 2:3.0 3:5.0 4:5.0 5:61.0 6:1.4 
-0.1507193381477639 1:155000.0 2:41.0 3:6.0 4:6.0 5:87.0 6:2.0 
-0.14112233840903451 1:8210000.0 2:4.0 3:4.0 4:4.0 5:70.0 6:1.42 
-0.2586046585724636 1:155000.0 2:1.0 3:3.0 4:3.0 5:87.0 6:2.0 
-0.16787595487270007 1:155000.0 2:31.0 3:6.0 4:6.0 5:87.0 6:2.0 
-0.12609298763491933 1:155000.0 2:42.0 3:6.0 4:6.0 5:87.0 6:2.0 
-0.24734492157717547 1:155000.0 2:46.0 3:9.0 4:9.0 5:87.0 6:2.0 
-0.13815760375352346 1:8210000.0 2:3.0 3:4.0 4:4.0 5:70.0 6:1.42 
-0.25834793848038207 1:155000.0 2:10.0 3:6.5 4:6.5 5:87.0 6:2.0 
-0.12091896362925904 1:155000.0 2:32.0 3:6.666666666666667 4:6.666666666666667 5:87.0 6:2.0 
-0.25863910283086805 1:593000.0 2:0.0 3:9.0 4:9.0 5:86.0 6:2.36 
-0.25800183526972525 1:8210000.0 2:1.0 3:0.0 4:0.0 5:70.0 6:1.42 
-0.2566451067994269 1:484000.0 2:28.0 3:4.0 4:4.0 5:220.0 6:5.7 
-0.25839786634166145 1:484000.0 2:6.0 3:4.0 4:4.0 5:220.0 6:5.7 
-0.13089381060109054 1:484000.0 2:33.0 3:5.0 4:5.0 5:220.0 6:5.7 
-0.17961118511448265 1:2.49E7 2:0.0 3:2.0 4:2.0 5:30.0 6:1.52 
-0.24465376107577802 1:1.52E8 2:2.0 3:4.0 4:4.0 5:46.0 6:1.76 
-0.13766625165144647 1:1.16E7 2:3.0 3:3.5 4:3.5 5:71.0 6:1.74 
-0.1641848635107045 1:1.16E7 2:4.0 3:4.333333333333333 4:4.333333333333333 5:71.0 6:1.74 
-0.18635640351076166 1:1.52E8 2:1.0 3:2.0 4:2.0 5:46.0 6:1.76 
-0.14710109149041475 1:484000.0 2:34.0 3:5.0 4:5.0 5:220.0 6:5.7 
-0.19509365859052835 1:1690000.0 2:1.0 3:3.5 4:3.5 5:61.0 6:1.42 
-0.053044135172467054 1:1690000.0 2:3.0 3:3.0 4:3.0 5:61.0 6:1.42 
-0.25427183053759844 1:2.49E7 2:4.0 3:0.0 4:0.0 5:30.0 6:1.52 
-0.18547621260300318 1:2.49E7 2:1.0 3:3.5 4:3.5 5:30.0 6:1.52 
-0.1860342824425638 1:1690000.0 2:4.0 3:4.0 4:4.0 5:61.0 6:1.42 
-0.12594213693091455 1:1.16E7 2:1.0 3:1.0 4:1.0 5:71.0 6:1.74 
-0.2517036367106466 1:3350000.0 2:0.0 3:0.0 4:0.0 5:44.0 6:2.86 
-0.1696145727606111 1:1.16E7 2:0.0 3:0.0 4:0.0 5:71.0 6:1.74 
-0.20824988946583534 1:1.52E8 2:0.0 3:0.0 4:0.0 5:46.0 6:1.76 
-0.2584924205258732 1:2750000.0 2:0.0 3:0.0 4:0.0 5:38.0 6:3.3 
-0.18373373850531607 1:1.68E7 2:7.0 3:5.5 4:5.5 5:57.0 6:2.74 
-0.18393390777787366 1:2.11E7 2:4.0 3:1.0 4:1.0 5:44.0 6:1.48 
-0.20711149325459777 1:1.68E7 2:9.0 3:7.0 4:7.0 5:57.0 6:2.74 
-0.3815107972232806 1:3.72E7 2:4.0 3:5.0 4:5.0 5:36.0 6:1.28 
-0.25848786279903707 1:2.11E7 2:3.0 3:9.5 4:9.5 5:44.0 6:1.48 
-0.25844509545042427 1:2.12E7 2:3.0 3:0.0 4:0.0 5:31.0 6:1.48 
-0.24465068547512575 1:1.68E7 2:3.0 3:5.666666666666667 4:5.666666666666667 5:57.0 6:2.74 
-0.17862067930504966 1:2.11E7 2:2.0 3:2.0 4:2.0 5:44.0 6:1.48 
-0.25726037534729335 1:2.12E7 2:4.0 3:5.333333333333333 4:5.333333333333333 5:31.0 6:1.48 
-0.24240770175517595 1:1.68E7 2:15.0 3:4.0 4:4.0 5:57.0 6:2.74 
-0.22960214478547264 1:1.68E7 2:11.0 3:4.0 4:4.0 5:57.0 6:2.74 
-0.16458179643874019 1:9970000.0 2:4.0 3:2.5 4:2.5 5:41.0 6:1.2391304347826086 
-0.16887589632471045 1:2.66E7 2:1.0 3:4.0 4:4.0 5:70.0 6:1.46 
-0.19343115506235148 1:9970000.0 2:1.0 3:3.0 4:3.0 5:41.0 6:1.2391304347826086 
-0.25848962691943966 1:179000.0 2:25.0 3:5.5 4:5.5 5:140.0 6:2.86 
-0.2585034716555016 1:1090000.0 2:2.0 3:3.0 4:3.0 5:75.0 6:1.62 
-0.2585717699952862 1:177000.0 2:0.0 3:0.5 4:0.5 5:115.0 6:2.32 
-0.08582211696702066 1:9970000.0 2:3.0 3:1.5 4:1.5 5:41.0 6:1.2391304347826086 
-0.258606095989323 1:80500.0 2:42.0 3:5.0 4:5.0 5:105.0 6:2.2 
-0.17659987344149486 1:2.66E7 2:0.0 3:1.0 4:1.0 5:70.0 6:1.46 
-0.18968400625098308 1:2.66E7 2:2.0 3:0.0 4:0.0 5:70.0 6:1.46 
-0.2396634539543191 1:9970000.0 2:0.0 3:0.0 4:0.0 5:41.0 6:1.2391304347826086 
-0.17112035955264993 1:2.66E7 2:3.0 3:3.5 4:3.5 5:70.0 6:1.46 
-0.25863931237933163 1:2.86E7 2:0.0 3:9.0 4:9.0 5:108.0 6:2.24 
-0.1609349170214946 1:1.11E7 2:4.0 3:9.0 4:9.0 5:73.0 6:1.52 
-0.25863940233490196 1:3.87E7 2:1.0 3:5.6 4:5.6 5:146.0 6:3.4 
-0.2583162625276566 1:6.54E7 2:2.0 3:0.0 4:0.0 5:59.0 6:1.5 
-0.2586134896146005 1:6.54E7 2:0.0 3:5.0 4:5.0 5:59.0 6:1.5 
-0.2566784753211369 1:229000.0 2:0.0 3:6.5 4:6.5 5:63.0 6:1.54 
-0.2586403912186206 1:1.07E8 2:28.0 3:1.0 4:1.0 5:108.0 6:2.58 
-0.16003001297440872 1:1.11E7 2:3.0 3:10.0 4:10.0 5:73.0 6:1.52 
-0.3814937782982375 1:1.07E8 2:0.0 3:5.5 4:5.5 5:108.0 6:2.58 
-0.258488895629242 1:4740000.0 2:27.0 3:4.0 4:4.0 5:59.0 6:3.2 
-0.2553866313234462 1:1.71E7 2:1.0 3:4.0 4:4.0 5:44.0 6:2.04 
-1.0 1:1.75E7 2:0.0 3:0.0 4:0.0 5:42.0 6:1.5 
-0.25854900593676655 1:4740000.0 2:8.0 3:7.0 4:7.0 5:59.0 6:3.2 
-0.25839612565310904 1:9180000.0 2:0.0 3:0.0 4:0.0 5:22.0 6:1.12 
-0.2550952180174201 1:1.71E7 2:4.0 3:0.0 4:0.0 5:44.0 6:2.04 
-0.25863778041955604 1:4740000.0 2:2.0 3:2.25 4:2.25 5:59.0 6:3.2 
-0.25864853192480425 1:4740000.0 2:18.0 3:2.0 4:2.0 5:59.0 6:3.2 
-0.1643609890916382 1:8.71E7 2:3.0 3:2.3333333333333335 4:2.3333333333333335 5:57.0 6:1.92 
-0.2586408153270288 1:1.22E7 2:41.0 3:2.3333333333333335 4:2.3333333333333335 5:91.0 6:2.82 
-0.25864118994254043 1:1.93E7 2:0.0 3:0.0 4:0.0 5:52.0 6:1.52 
-0.2550456118624103 1:8.71E7 2:13.0 3:2.0 4:2.0 5:57.0 6:1.92 
-0.24021226144954583 1:8.71E7 2:2.0 3:5.0 4:5.0 5:57.0 6:1.92 
-0.07866478286489788 1:8.71E7 2:0.0 3:2.0 4:2.0 5:57.0 6:1.92 
-0.1578592654682077 1:8.71E7 2:1.0 3:1.0 4:1.0 5:57.0 6:1.92 
-0.25455115312830573 1:7260000.0 2:0.0 3:0.0 4:0.0 5:51.0 6:1.74 
-0.13195472918533097 1:1.07E7 2:4.0 3:2.0 4:2.0 5:59.0 6:1.7916666666666667 
-0.2551684837226332 1:8.71E7 2:18.0 3:3.0 4:3.0 5:57.0 6:1.92 
-0.2586460091740035 1:385000.0 2:0.0 3:0.0 4:0.0 5:9.0 6:1.24 
-0.6433200901601921 1:391000.0 2:4.0 3:2.5 4:2.5 5:9.0 6:1.18 
-0.33229559715763685 1:391000.0 2:2.0 3:6.0 4:6.0 5:9.0 6:1.18 
-0.25781635171484923 1:10300.0 2:28.0 3:7.0 4:7.0 5:97.0 6:3.0816326530612246 
-0.1411923698073438 1:2.92E7 2:3.0 3:4.5 4:4.5 5:55.0 6:1.86 
-0.25868693700522716 1:2.15E7 2:0.0 3:0.0 4:0.0 5:65.0 6:1.3877551020408163 
-0.3884599881686709 1:1.05E7 2:2.0 3:2.0 4:2.0 5:31.0 6:1.22 
-0.2418289122985791 1:1750000.0 2:37.0 3:7.6 4:7.6 5:64.0 6:4.78 
-0.1353733380904178 1:1750000.0 2:1.0 3:7.0 4:7.0 5:64.0 6:4.78 
-0.25785738974809647 1:117000.0 2:0.0 3:4.5 4:4.5 5:23.0 6:1.78 
-0.1366733083783392 1:2.92E7 2:2.0 3:4.5 4:4.5 5:55.0 6:1.86 
-0.1754350265432314 1:1750000.0 2:2.0 3:8.75 4:8.75 5:64.0 6:4.78 
-0.2564296504823345 1:2.92E7 2:0.0 3:1.0 4:1.0 5:55.0 6:1.86 
-0.1351224961966379 1:1750000.0 2:3.0 3:7.0 4:7.0 5:64.0 6:4.78 
-0.25705586430019217 1:9.58E7 2:0.0 3:4.0 4:4.0 5:32.0 6:1.5 
-0.2572099409776936 1:9.58E7 2:1.0 3:0.0 4:0.0 5:32.0 6:1.5 
-0.15531043709240705 1:1.05E7 2:0.0 3:0.0 4:0.0 5:31.0 6:1.22 
-0.24199638623230668 1:1750000.0 2:33.0 3:7.333333333333333 4:7.333333333333333 5:64.0 6:4.78 
-0.25870093321681953 1:2.08E8 2:1.0 3:1.0 4:1.0 5:66.0 6:1.66 
-0.25873710469943434 1:9740000.0 2:1.0 3:3.5 4:3.5 5:81.0 6:1.7 
-0.25581825245906337 1:2.78E7 2:1.0 3:9.0 4:9.0 5:19.0 6:1.1612903225806452 
-0.25871193763759365 1:3370000.0 2:0.0 3:0.0 4:0.0 5:52.0 6:1.96 
-0.2582631730192259 1:534000.0 2:0.0 3:0.0 4:0.0 5:80.0 6:2.04 
-0.2586444131251687 1:2.78E7 2:0.0 3:1.0 4:1.0 5:19.0 6:1.1612903225806452 
-0.25546427962025114 1:2.78E7 2:4.0 3:6.0 4:6.0 5:19.0 6:1.1612903225806452 
-0.12240879274993724 1:9090000.0 2:2.0 3:6.0 4:6.0 5:35.0 6:1.12 
-0.2467943036891293 1:9090000.0 2:3.0 3:3.0 4:3.0 5:35.0 6:1.12 
-0.25874950235684613 1:9370000.0 2:0.0 3:0.0 4:0.0 5:33.0 6:0.9 
-0.27800766449597614 1:1590000.0 2:3.0 3:0.0 4:0.0 5:5.0 6:0.2 
-0.2555117623908619 1:9090000.0 2:0.0 3:0.0 4:0.0 5:35.0 6:1.12 
-0.2582633280626182 1:999000.0 2:1.0 3:2.5555555555555554 4:2.5555555555555554 5:45.0 6:1.06 
-0.14835112801456365 1:9090000.0 2:1.0 3:6.0 4:6.0 5:35.0 6:1.12 
-0.2255832925691318 1:3.17E7 2:4.0 3:5.5 4:5.5 5:52.0 6:1.9 
-0.2243799402862376 1:2.42E7 2:1.0 3:0.0 4:0.0 5:45.0 6:1.26 
-0.22697085755187635 1:2.42E7 2:3.0 3:2.0 4:2.0 5:45.0 6:1.26 
-0.3056484792915351 1:3.17E7 2:1.0 3:4.0 4:4.0 5:52.0 6:1.9 
-0.25846381650762507 1:3.4E7 2:13.0 3:6.0 4:6.0 5:92.0 6:3.52 
-0.21062070974459812 1:6720000.0 2:4.0 3:6.5 4:6.5 5:22.0 6:1.54 
-0.16239797797470254 1:2.52E7 2:1.0 3:5.0 4:5.0 5:39.0 6:1.78 
-0.23532341805066478 1:6720000.0 2:2.0 3:10.5 4:10.5 5:22.0 6:1.54 
-0.14558468009189973 1:2.52E7 2:2.0 3:3.3333333333333335 4:3.3333333333333335 5:39.0 6:1.78 
-0.25862853877559455 1:2.99E7 2:0.0 3:0.0 4:0.0 5:43.0 6:2.12 
-0.20471893711073552 1:8.6E7 2:3.0 3:5.0 4:5.0 5:51.0 6:2.82 
-0.2104764415636286 1:6720000.0 2:1.0 3:8.0 4:8.0 5:22.0 6:1.54 
-0.20460257407022686 1:8.6E7 2:1.0 3:6.5 4:6.5 5:51.0 6:2.82 
-0.12152736243094012 1:2.52E7 2:0.0 3:3.5 4:3.5 5:39.0 6:1.78 
-0.2358658957653299 1:6720000.0 2:3.0 3:4.0 4:4.0 5:22.0 6:1.54 
-0.2586410502921265 1:8.6E7 2:12.0 3:5.0 4:5.0 5:51.0 6:2.82 
-0.2585643186838376 1:338000.0 2:0.0 3:7.5 4:7.5 5:56.0 6:2.38 
-0.2567367170894702 1:1.26E7 2:1.0 3:4.0 4:4.0 5:20.0 6:1.21875 
-0.25727208563080434 1:1.09E8 2:9.0 3:6.0 4:6.0 5:43.0 6:3.72 
-0.25847471504927777 1:1.09E8 2:13.0 3:2.0 4:2.0 5:43.0 6:3.72 
-0.19535502285247508 1:1.09E8 2:3.0 3:1.8571428571428572 4:1.8571428571428572 5:43.0 6:3.72 
-0.2585032326223051 1:5.04E7 2:1.0 3:7.333333333333333 4:7.333333333333333 5:73.0 6:1.64 
-0.24347105932852592 1:1.09E8 2:1.0 3:6.0 4:6.0 5:43.0 6:3.72 
-0.25850317117161564 1:3180000.0 2:0.0 3:7.333333333333333 4:7.333333333333333 5:92.0 6:2.56 
-1.0 1:1.28E7 2:0.0 3:0.0 4:0.0 5:70.0 6:2.04 
-0.14025073911152874 1:4.56E7 2:0.0 3:3.8333333333333335 4:3.8333333333333335 5:65.0 6:1.76 
-0.13955445450731158 1:4.56E7 2:1.0 3:3.5 4:3.5 5:65.0 6:1.76 
-0.2572818696156973 1:1.26E7 2:0.0 3:0.0 4:0.0 5:20.0 6:1.21875 
-0.19612604134726952 1:1.09E8 2:4.0 3:3.6666666666666665 4:3.6666666666666665 5:43.0 6:3.72 
-0.2585023372710306 1:2440000.0 2:0.0 3:6.0 4:6.0 5:54.0 6:2.48 
-0.1519484865174206 1:4360000.0 2:1.0 3:3.5 4:3.5 5:39.0 6:1.54 
-0.2585020402484167 1:8600000.0 2:2.0 3:1.5 4:1.5 5:44.0 6:1.7 
-0.2585025410859837 1:8540000.0 2:0.0 3:4.5 4:4.5 5:81.0 6:3.14 
-0.057319657559841065 1:1.88E7 2:3.0 3:4.0 4:4.0 5:51.0 6:1.56 
-0.27373032313282614 1:1.88E7 2:1.0 3:3.0 4:3.0 5:51.0 6:1.56 
-0.25763094979475315 1:8540000.0 2:15.0 3:2.5 4:2.5 5:81.0 6:3.14 
-0.25849998959785153 1:8650000.0 2:0.0 3:0.0 4:0.0 5:40.0 6:1.52 
-0.26136160211240617 1:4360000.0 2:0.0 3:1.0 4:1.0 5:39.0 6:1.54 
-0.16847794471840538 1:1.88E7 2:4.0 3:3.0 4:3.0 5:51.0 6:1.56 
-0.2579475488592873 1:8540000.0 2:9.0 3:3.6666666666666665 4:3.6666666666666665 5:81.0 6:3.14 
-0.19686650267559708 1:4360000.0 2:2.0 3:5.0 4:5.0 5:39.0 6:1.54 
-0.25835719985699473 1:2.88E7 2:0.0 3:1.0 4:1.0 5:61.0 6:1.66 
-0.1457317446393122 1:1220000.0 2:2.0 3:5.5 4:5.5 5:1.0 6:0.06 
-0.25839818672781756 1:288000.0 2:11.0 3:5.0 4:5.0 5:40.0 6:0.88 
-0.25831202819524685 1:5.33E7 2:0.0 3:5.5 4:5.5 5:141.0 6:3.94 
-0.17925111246108444 1:156000.0 2:3.0 3:6.666666666666667 4:6.666666666666667 5:66.0 6:1.42 
-0.25776236621984366 1:2.88E7 2:1.0 3:6.25 4:6.25 5:61.0 6:1.66 
-0.16894781406195103 1:156000.0 2:0.0 3:7.0 4:7.0 5:66.0 6:1.42 
-0.15099336062635482 1:156000.0 2:1.0 3:5.333333333333333 4:5.333333333333333 5:66.0 6:1.42 
-0.14486472264661943 1:1220000.0 2:3.0 3:6.0 4:6.0 5:1.0 6:0.06 
-0.1886332792114972 1:7480000.0 2:0.0 3:0.0 4:0.0 5:51.0 6:1.7 
-0.16818046453138663 1:5510000.0 2:2.0 3:4.666666666666667 4:4.666666666666667 5:62.0 6:3.6 
-0.16920195435012225 1:5510000.0 2:4.0 3:5.0 4:5.0 5:62.0 6:3.6 
-0.25842939280981564 1:148000.0 2:0.0 3:0.0 4:0.0 5:41.0 6:3.08 
-0.25835169284224396 1:3420000.0 2:1.0 3:4.5 4:4.5 5:49.0 6:2.02 
-0.18905197267139268 1:7480000.0 2:2.0 3:1.0 4:1.0 5:51.0 6:1.7 
-0.2585626298615063 1:3850000.0 2:0.0 3:0.0 4:0.0 5:53.0 6:2.1 
-0.2583178656211549 1:9670000.0 2:2.0 3:8.0 4:8.0 5:40.0 6:1.54 
-0.29660384016043007 1:1.02E7 2:4.0 3:0.0 4:0.0 5:48.0 6:1.6 
-0.1736247409932418 1:1.02E7 2:1.0 3:5.0 4:5.0 5:48.0 6:1.6 
-0.20053097134686632 1:5800000.0 2:0.0 3:7.0 4:7.0 5:87.0 6:4.56 
-0.25832358243113995 1:1.01E7 2:2.0 3:5.0 4:5.0 5:22.0 6:1.42 
-0.257196434371819 1:2.58E7 2:3.0 3:4.0 4:4.0 5:54.0 6:1.82 
-0.25502861171829777 1:1.01E7 2:3.0 3:0.0 4:0.0 5:22.0 6:1.42 
-0.25857170780572464 1:5800000.0 2:30.0 3:6.5 4:6.5 5:87.0 6:4.56 
-0.25858083847408525 1:1.01E7 2:1.0 3:10.0 4:10.0 5:22.0 6:1.42 
-0.20156195628228485 1:5800000.0 2:2.0 3:5.666666666666667 4:5.666666666666667 5:87.0 6:4.56 
-0.2189661501401331 1:1.03E7 2:3.0 3:0.0 4:0.0 5:33.0 6:1.28 
-0.06703746810201243 1:1.03E7 2:1.0 3:3.5 4:3.5 5:33.0 6:1.28 
-0.046146543207708064 1:1.02E7 2:3.0 3:4.0 4:4.0 5:48.0 6:1.6 
-0.25727974641801366 1:2.58E7 2:2.0 3:0.0 4:0.0 5:54.0 6:1.82 
-0.25778825118561666 1:1080000.0 2:0.0 3:3.5 4:3.5 5:132.0 6:5.44 
-0.25204780334631777 1:7710000.0 2:0.0 3:0.0 4:0.0 5:50.0 6:1.7 
-0.24472936958112562 1:3980000.0 2:1.0 3:0.0 4:0.0 5:55.0 6:1.5 
-0.16423502015748176 1:3980000.0 2:0.0 3:3.0 4:3.0 5:55.0 6:1.5 
-0.1636124497234429 1:3980000.0 2:2.0 3:3.0 4:3.0 5:55.0 6:1.5 
-0.25795314425850985 1:1080000.0 2:6.0 3:2.4 4:2.4 5:132.0 6:5.44 
-1.0 1:5.28E7 2:2.0 3:0.0 4:0.0 5:57.0 6:1.7333333333333334 
-0.2584616558798099 1:1.53E7 2:1.0 3:0.0 4:0.0 5:21.0 6:1.4473684210526316 
-0.2583502479953696 1:4.44E7 2:0.0 3:0.0 4:0.0 5:39.0 6:1.04 
-0.2583344053160974 1:2360000.0 2:38.0 3:3.6666666666666665 4:3.6666666666666665 5:151.0 6:5.44 
-0.2583406640193157 1:4810000.0 2:0.0 3:0.0 4:0.0 5:36.0 6:4.02 
-1.0 1:1.13E7 2:3.0 3:0.0 4:0.0 5:66.0 6:1.62 
-0.2522267148865455 1:7710000.0 2:2.0 3:3.0 4:3.0 5:50.0 6:1.7 
-0.25860129858834285 1:2820000.0 2:1.0 3:5.5 4:5.5 5:13.0 6:0.26 
-0.2498533734952611 1:9090000.0 2:0.0 3:0.0 4:0.0 5:63.0 6:1.74 
-0.25828447139465954 1:3.73E7 2:23.0 3:2.6666666666666665 4:2.6666666666666665 5:116.0 6:2.38 
-0.25828817101987794 1:3.73E7 2:45.0 3:4.0 4:4.0 5:116.0 6:2.38 
-0.20303469548739905 1:9090000.0 2:1.0 3:3.0 4:3.0 5:63.0 6:1.74 
-0.21664504357617415 1:9090000.0 2:4.0 3:3.5 4:3.5 5:63.0 6:1.74 
-0.25827614185807585 1:2820000.0 2:0.0 3:0.0 4:0.0 5:13.0 6:0.26 
-0.2582538069450823 1:192000.0 2:0.0 3:0.0 4:0.0 5:156.0 6:4.42 
-0.258253129596627 1:3.73E7 2:2.0 3:2.0 4:2.0 5:116.0 6:2.38 
-0.24513059899536938 1:2.06E7 2:1.0 3:3.0 4:3.0 5:68.0 6:1.42 
-0.2517272176966334 1:2.06E7 2:4.0 3:0.0 4:0.0 5:68.0 6:1.42 
-0.2685912627060452 1:8690000.0 2:2.0 3:4.5 4:4.5 5:65.0 6:1.94 
-0.25816057373568013 1:1.45E8 2:4.0 3:9.0 4:9.0 5:51.0 6:1.94 
-0.2581673928992191 1:1.45E8 2:3.0 3:4.0 4:4.0 5:51.0 6:1.94 
-0.25825416658497585 1:1.49E7 2:48.0 3:2.6 4:2.6 5:180.0 6:5.78 
-0.1376089096550105 1:9880000.0 2:3.0 3:2.0 4:2.0 5:32.0 6:1.34 
-0.25825471621176843 1:1.49E7 2:0.0 3:2.3333333333333335 4:2.3333333333333335 5:180.0 6:5.78 
-0.2495421442727883 1:9880000.0 2:0.0 3:0.0 4:0.0 5:32.0 6:1.34 
-0.25544904563475346 1:2.82E7 2:0.0 3:1.0 4:1.0 5:55.0 6:1.86 
-0.17399416156141495 1:9880000.0 2:4.0 3:3.0 4:3.0 5:32.0 6:1.34 
-0.25826389151371737 1:1.49E7 2:31.0 3:2.3333333333333335 4:2.3333333333333335 5:180.0 6:5.78 
-0.2554170368083705 1:2.82E7 2:3.0 3:4.0 4:4.0 5:55.0 6:1.86 
-0.17836507404179536 1:4.39E7 2:6.0 3:6.5 4:6.5 5:149.0 6:3.76 
-0.2577949074192933 1:2.51E7 2:1.0 3:3.0 4:3.0 5:52.0 6:1.74 
-0.17015184182336637 1:4.39E7 2:2.0 3:1.4 4:1.4 5:149.0 6:3.76 
-0.2582538030240321 1:8150000.0 2:0.0 3:0.0 4:0.0 5:46.0 6:1.8 
-0.21701748144514782 1:8.39E7 2:2.0 3:3.0 4:3.0 5:47.0 6:1.44 
-0.2105879516682843 1:1.4E7 2:1.0 3:2.0 4:2.0 5:39.0 6:1.1666666666666667 
-0.24883296413986022 1:1.67E7 2:3.0 3:0.0 4:0.0 5:57.0 6:1.24 
-0.18487890495320924 1:152000.0 2:2.0 3:9.0 4:9.0 5:48.0 6:1.14 
-0.25835545534680887 1:153.0 2:0.0 3:7.0 4:7.0 5:112.0 6:2.34 
-0.21179192154958998 1:1.67E7 2:4.0 3:3.0 4:3.0 5:57.0 6:1.24 
-0.2176221390069138 1:8.39E7 2:1.0 3:1.0 4:1.0 5:47.0 6:1.44 
-0.18432288761364868 1:152000.0 2:3.0 3:7.5 4:7.5 5:48.0 6:1.14 
-0.1477278984265048 1:5850000.0 2:1.0 3:4.333333333333333 4:4.333333333333333 5:25.0 6:0.92 
-0.25784930413241064 1:4690000.0 2:0.0 3:0.0 4:0.0 5:103.0 6:2.52 
-0.5109662197675686 1:1.4E7 2:0.0 3:0.0 4:0.0 5:39.0 6:1.1666666666666667 
-0.22382886821037778 1:1.67E7 2:1.0 3:4.0 4:4.0 5:57.0 6:1.24 
-0.14676655814489842 1:5850000.0 2:0.0 3:3.75 4:3.75 5:25.0 6:0.92 
-0.21205374671484956 1:4.74E7 2:4.0 3:0.0 4:0.0 5:135.0 6:3.74 
-0.2538675383204772 1:9320000.0 2:0.0 3:0.0 4:0.0 5:44.0 6:1.72 
-0.13530698510177733 1:9320000.0 2:1.0 3:3.5 4:3.5 5:44.0 6:1.72 
-0.21116633750977748 1:4.74E7 2:1.0 3:0.0 4:0.0 5:135.0 6:3.74 
-0.2581374547966984 1:3.54E7 2:12.0 3:3.5 4:3.5 5:113.0 6:3.26 
-0.20471980915005028 1:1.14E7 2:1.0 3:3.5 4:3.5 5:70.0 6:1.42 
-0.3542085457766004 1:1.2E7 2:0.0 3:0.0 4:0.0 5:45.0 6:2.96 
-0.215320241837534 1:1.14E7 2:2.0 3:1.0 4:1.0 5:70.0 6:1.42 
-0.17957833675074558 1:9320000.0 2:4.0 3:2.5 4:2.5 5:44.0 6:1.72 
-0.04452475611444044 1:9320000.0 2:2.0 3:4.0 4:4.0 5:44.0 6:1.72 
-0.25224328040203203 1:1.14E7 2:4.0 3:6.5 4:6.5 5:70.0 6:1.42 
-0.18671507121197484 1:7.0E7 2:1.0 3:2.5 4:2.5 5:161.0 6:3.5 
-0.25149714267443585 1:2.78E7 2:4.0 3:0.0 4:0.0 5:55.0 6:1.44 
-0.1898880070823452 1:2.78E7 2:1.0 3:2.5 4:2.5 5:55.0 6:1.44 
-0.17742071462663989 1:7.0E7 2:0.0 3:1.0 4:1.0 5:161.0 6:3.5 
-0.23236873896185783 1:1.18E7 2:0.0 3:0.0 4:0.0 5:56.0 6:1.511111111111111 
-0.19722467296539709 1:2.78E7 2:3.0 3:3.75 4:3.75 5:55.0 6:1.44 
-0.2445471499041485 1:7.0E7 2:4.0 3:0.0 4:0.0 5:161.0 6:3.5 
-0.20405714525677598 1:2.38E7 2:4.0 3:2.0 4:2.0 5:81.0 6:1.76 
-0.17988172743448597 1:165000.0 2:8.0 3:2.0 4:2.0 5:102.0 6:2.3 
-0.25489071774844774 1:165000.0 2:4.0 3:6.666666666666667 4:6.666666666666667 5:102.0 6:2.3 
-0.16643695742066072 1:1690000.0 2:1.0 3:5.666666666666667 4:5.666666666666667 5:15.0 6:0.42 
-0.23015039375918306 1:2.38E7 2:3.0 3:4.8 4:4.8 5:81.0 6:1.76 
-0.05038428915206411 1:2.46E7 2:0.0 3:1.0 4:1.0 5:46.0 6:1.5 
-0.1706299074171227 1:1690000.0 2:3.0 3:6.666666666666667 4:6.666666666666667 5:15.0 6:0.42 
-0.11726686834106242 1:1.65E7 2:2.0 3:4.666666666666667 4:4.666666666666667 5:46.0 6:1.62 
-0.18351933173739104 1:1.65E7 2:1.0 3:3.0 4:3.0 5:46.0 6:1.62 
-0.1713658250899865 1:2.38E7 2:1.0 3:2.5 4:2.5 5:81.0 6:1.76 
-0.2431168556431711 1:165000.0 2:2.0 3:3.3333333333333335 4:3.3333333333333335 5:102.0 6:2.3 
-0.23642534152894618 1:2.38E7 2:0.0 3:0.0 4:0.0 5:81.0 6:1.76 
-0.21387604594048665 1:1690000.0 2:0.0 3:8.0 4:8.0 5:15.0 6:0.42 
-0.2580436959337476 1:4920000.0 2:0.0 3:5.5 4:5.5 5:76.0 6:1.96 
-0.1588698889623597 1:1.65E7 2:0.0 3:5.0 4:5.0 5:46.0 6:1.62 
-1.0 1:9710000.0 2:1.0 3:4.0 4:4.0 5:69.0 6:1.46 
-0.15765422143457183 1:165000.0 2:6.0 3:2.5 4:2.5 5:102.0 6:2.3 
-0.25439431660381256 1:2.46E7 2:3.0 3:5.333333333333333 4:5.333333333333333 5:46.0 6:1.5 
-0.2095046855537295 1:2.46E7 2:1.0 3:3.0 4:3.0 5:46.0 6:1.5 
-0.25812014694410407 1:270000.0 2:24.0 3:11.0 4:11.0 5:0.0 6:0.0 
-1.0 1:30700.0 2:1.0 3:8.5 4:8.5 5:3.0 6:0.24 
-0.5085338008477135 1:8280000.0 2:1.0 3:2.0 4:2.0 5:52.0 6:1.3 
-0.21132314003860264 1:1.84E7 2:1.0 3:1.0 4:1.0 5:79.0 6:2.4 
-0.25811994688883544 1:1.84E7 2:32.0 3:6.75 4:6.75 5:79.0 6:2.4 
-0.2201510995171519 1:1.84E7 2:16.0 3:5.5 4:5.5 5:79.0 6:2.4 
-0.2601545040733186 1:6940000.0 2:1.0 3:4.0 4:4.0 5:27.0 6:1.2 
-0.36424499979793384 1:8280000.0 2:3.0 3:1.0 4:1.0 5:52.0 6:1.3 
-0.25811994212239514 1:3.72E7 2:0.0 3:0.0 4:0.0 5:125.0 6:3.48 
-0.2110770146623464 1:1.84E7 2:0.0 3:3.0 4:3.0 5:79.0 6:2.4 
-0.16660130831442566 1:1.84E7 2:13.0 3:5.5 4:5.5 5:79.0 6:2.4 
-0.06410768501016827 1:8280000.0 2:0.0 3:3.5 4:3.5 5:52.0 6:1.3 
-0.2068668133610469 1:1.84E7 2:10.0 3:5.0 4:5.0 5:79.0 6:2.4 
-0.24388654463683196 1:1.84E7 2:6.0 3:5.0 4:5.0 5:79.0 6:2.4 
-0.23562439449451622 1:8280000.0 2:4.0 3:4.5 4:4.5 5:52.0 6:1.3 
-0.2613048503962189 1:3.66E7 2:1.0 3:4.333333333333333 4:4.333333333333333 5:74.0 6:1.54 
-0.25321011790453196 1:1270000.0 2:0.0 3:0.0 4:0.0 5:65.0 6:1.46 
-0.2241222210042491 1:1410000.0 2:1.0 3:1.0 4:1.0 5:87.0 6:1.76 
-0.11525371927536195 1:4820000.0 2:2.0 3:3.0 4:3.0 5:56.0 6:1.68 
-0.14406776768742208 1:4820000.0 2:1.0 3:3.5 4:3.5 5:56.0 6:1.68 
-0.22680737216647895 1:3800000.0 2:4.0 3:5.0 4:5.0 5:49.0 6:1.46 
-0.25811954418839655 1:24000.0 2:0.0 3:4.5 4:4.5 5:78.0 6:2.12 
-0.23035657226207826 1:1270000.0 2:1.0 3:3.3333333333333335 4:3.3333333333333335 5:65.0 6:1.46 
-0.06370610534560862 1:1410000.0 2:2.0 3:4.5 4:4.5 5:87.0 6:1.76 
-0.25864309426508664 1:4360000.0 2:0.0 3:7.0 4:7.0 5:51.0 6:3.02 
-0.09079303933682192 1:1270000.0 2:3.0 3:5.0 4:5.0 5:65.0 6:1.46 
-0.6658533427747992 1:9490000.0 2:0.0 3:0.0 4:0.0 5:61.0 6:1.64 
-0.22772872959929719 1:4820000.0 2:0.0 3:1.0 4:1.0 5:56.0 6:1.68 
-0.035301302291717296 1:3800000.0 2:2.0 3:5.0 4:5.0 5:49.0 6:1.46 
-0.25811924895116933 1:1.53E7 2:1.0 3:0.0 4:0.0 5:59.0 6:1.725 
-0.258163083552651 1:314000.0 2:0.0 3:7.5 4:7.5 5:77.0 6:2.26 
-0.2582602673757799 1:1.94E7 2:0.0 3:0.0 4:0.0 5:69.0 6:1.56 
-0.308036646225877 1:3800000.0 2:0.0 3:4.0 4:4.0 5:49.0 6:1.46 
-0.1987974262611378 1:1270000.0 2:4.0 3:6.0 4:6.0 5:65.0 6:1.46 
-0.07339397882268825 1:48.0 2:1.0 3:1.5 4:1.5 5:75.0 6:3.0208333333333335 
-0.25845137618715464 1:8880000.0 2:33.0 3:1.4 4:1.4 5:126.0 6:3.92 
-0.2583750707761748 1:1870000.0 2:0.0 3:0.0 4:0.0 5:26.0 6:1.48 
-0.2584715682551774 1:8880000.0 2:39.0 3:7.0 4:7.0 5:126.0 6:3.92 
-0.17060667762279047 1:48.0 2:0.0 3:2.0 4:2.0 5:75.0 6:3.0208333333333335 
-0.16237473620633358 1:48.0 2:3.0 3:2.75 4:2.75 5:75.0 6:3.0208333333333335 
-0.17936582861571476 1:48.0 2:6.0 3:2.0 4:2.0 5:75.0 6:3.0208333333333335 
-0.21176447811222643 1:48.0 2:7.0 3:4.0 4:4.0 5:75.0 6:3.0208333333333335 
-0.25741650489645257 1:9.59E7 2:1.0 3:3.6666666666666665 4:3.6666666666666665 5:49.0 6:1.56 
-0.257609782010741 1:9.59E7 2:4.0 3:0.0 4:0.0 5:49.0 6:1.56 
-0.05622780577445422 1:738000.0 2:1.0 3:3.3333333333333335 4:3.3333333333333335 5:72.0 6:1.7 
-0.23651795632400868 1:738000.0 2:9.0 3:4.0 4:4.0 5:72.0 6:1.7 
-0.1817978341241964 1:738000.0 2:4.0 3:4.2 4:4.2 5:72.0 6:1.7 
-0.2586141775384557 1:738000.0 2:35.0 3:6.4 4:6.4 5:72.0 6:1.7 
-0.2072268579923641 1:6860000.0 2:2.0 3:5.5 4:5.5 5:71.0 6:1.46 
-0.25701321082471257 1:9390000.0 2:1.0 3:0.0 4:0.0 5:37.0 6:1.48 
-0.01895853945383713 1:9390000.0 2:3.0 3:5.0 4:5.0 5:37.0 6:1.48 
-0.20093889883865748 1:738000.0 2:0.0 3:3.3333333333333335 4:3.3333333333333335 5:72.0 6:1.7 
-0.04719548096314083 1:6860000.0 2:3.0 3:5.0 4:5.0 5:71.0 6:1.46 
-0.22007669934543617 1:6860000.0 2:4.0 3:3.0 4:3.0 5:71.0 6:1.46 
-0.24531497424116955 1:6860000.0 2:1.0 3:1.0 4:1.0 5:71.0 6:1.46 
-0.17990565790213 1:738000.0 2:6.0 3:5.5 4:5.5 5:72.0 6:1.7 
-0.25166757453398036 1:8990000.0 2:3.0 3:6.5 4:6.5 5:37.0 6:1.44 
-0.24975795445738064 1:8990000.0 2:0.0 3:4.0 4:4.0 5:37.0 6:1.44 
-0.2587171404990071 1:2730000.0 2:2.0 3:2.0 4:2.0 5:66.0 6:1.82 
-0.2555180634372727 1:9680000.0 2:0.0 3:0.0 4:0.0 5:61.0 6:1.5 
-0.13136056978674587 1:9680000.0 2:4.0 3:3.0 4:3.0 5:61.0 6:1.5 
-0.2587169917888392 1:9680000.0 2:1.0 3:16.0 4:16.0 5:61.0 6:1.5 
-0.2573346817130661 1:8990000.0 2:1.0 3:0.0 4:0.0 5:37.0 6:1.44 
-0.17796398447110917 1:9680000.0 2:2.0 3:4.0 4:4.0 5:61.0 6:1.5 
-0.07763248214625675 1:9680000.0 2:3.0 3:2.5 4:2.5 5:61.0 6:1.5 
-0.25864818228982656 1:2.67E7 2:6.0 3:9.0 4:9.0 5:29.0 6:3.16 
-0.22746014724813324 1:5.5E7 2:4.0 3:9.5 4:9.5 5:32.0 6:1.84 
-0.2587163900497591 1:2.67E7 2:40.0 3:5.0 4:5.0 5:29.0 6:3.16 
-0.1401711165208411 1:5.5E7 2:3.0 3:7.0 4:7.0 5:32.0 6:1.84 
-0.25872937436466403 1:2180000.0 2:42.0 3:4.428571428571429 4:4.428571428571429 5:26.0 6:3.34 
-0.2568666640897933 1:7550000.0 2:4.0 3:2.0 4:2.0 5:21.0 6:1.34 
-0.10881406383630522 1:5.5E7 2:2.0 3:7.5 4:7.5 5:32.0 6:1.84 
-0.25749708843118824 1:7550000.0 2:1.0 3:5.5 4:5.5 5:21.0 6:1.34 
-0.258315793317982 1:2.67E7 2:5.0 3:3.0 4:3.0 5:29.0 6:3.16 
-0.2583292345558378 1:2370000.0 2:0.0 3:0.0 4:0.0 5:128.0 6:2.66 
-0.2515214788291877 1:8750000.0 2:1.0 3:2.5 4:2.5 5:63.0 6:1.98 
-0.2585192178308722 1:5.13E7 2:8.0 3:1.0 4:1.0 5:99.0 6:5.72 
-0.25856262986150635 1:3290000.0 2:0.0 3:0.0 4:0.0 5:12.0 6:0.34 
-0.25097317990773843 1:8750000.0 2:4.0 3:0.0 4:0.0 5:63.0 6:1.98 
-0.25630788228028784 1:1.48E8 2:0.0 3:0.0 4:0.0 5:53.0 6:2.9 
-0.25336760670069003 1:685000.0 2:11.0 3:10.0 4:10.0 5:83.0 6:1.72 
-0.2586477831730401 1:1050000.0 2:34.0 3:2.5 4:2.5 5:69.0 6:1.48 
-0.23368857213045957 1:2490000.0 2:4.0 3:0.0 4:0.0 5:59.0 6:1.24 
-0.22515260033283907 1:685000.0 2:0.0 3:5.333333333333333 4:5.333333333333333 5:83.0 6:1.72 
-0.25380475952862586 1:685000.0 2:15.0 3:8.0 4:8.0 5:83.0 6:1.72 
-0.2335877295433365 1:2490000.0 2:1.0 3:1.5 4:1.5 5:59.0 6:1.24 
-0.1810485800603327 1:9630000.0 2:4.0 3:3.0 4:3.0 5:54.0 6:1.42 
-0.258622780908422 1:685000.0 2:22.0 3:4.0 4:4.0 5:83.0 6:1.72 
-0.21287058891483845 1:685000.0 2:5.0 3:5.0 4:5.0 5:83.0 6:1.72 
-0.25863700923926897 1:2660000.0 2:0.0 3:0.0 4:0.0 5:122.0 6:2.8 
-0.23365345379588637 1:2490000.0 2:3.0 3:9.0 4:9.0 5:59.0 6:1.24 
-0.1843703201444225 1:9630000.0 2:3.0 3:5.666666666666667 4:5.666666666666667 5:54.0 6:1.42 
-0.21039404160471187 1:9630000.0 2:0.0 3:0.0 4:0.0 5:54.0 6:1.42 
-0.2363298192947929 1:685000.0 2:2.0 3:8.0 4:8.0 5:83.0 6:1.72 
-0.180045234982886 1:9630000.0 2:1.0 3:4.0 4:4.0 5:54.0 6:1.42 
-0.08317377009620575 1:685000.0 2:3.0 3:5.5 4:5.5 5:83.0 6:1.72 
-0.23403851155680966 1:2490000.0 2:2.0 3:6.5 4:6.5 5:59.0 6:1.24 
-0.25260019129832595 1:1.2E7 2:0.0 3:0.0 4:0.0 5:71.0 6:1.74 
-0.25582389697859925 1:2.03E7 2:2.0 3:7.0 4:7.0 5:43.0 6:1.48 
-1.0 1:4060000.0 2:3.0 3:3.5 4:3.5 5:45.0 6:1.66 
-0.2585492478915778 1:3720000.0 2:0.0 3:0.0 4:0.0 5:47.0 6:2.42 
-1.0 1:4060000.0 2:2.0 3:4.5 4:4.5 5:45.0 6:1.66 
-1.0 1:2.03E7 2:0.0 3:0.0 4:0.0 5:43.0 6:1.48 
-0.1581808566601358 1:2.03E7 2:3.0 3:3.0 4:3.0 5:43.0 6:1.48 
-0.12656616936706042 1:2.03E7 2:4.0 3:2.5 4:2.5 5:43.0 6:1.48 
-1.0 1:2.03E7 2:1.0 3:0.0 4:0.0 5:43.0 6:1.48 
-0.23380775177981106 1:121.0 2:0.0 3:0.0 4:0.0 5:139.0 6:3.0 
-0.25860947653161726 1:1.02E7 2:0.0 3:0.0 4:0.0 5:86.0 6:1.74 
-0.21434723185064364 1:8340000.0 2:1.0 3:2.0 4:2.0 5:84.0 6:1.7 
-0.24187453942798215 1:1.87E7 2:2.0 3:0.0 4:0.0 5:95.0 6:1.92 
-0.2554335451750808 1:121.0 2:10.0 3:4.0 4:4.0 5:139.0 6:3.0 
-0.2556226120895587 1:121.0 2:13.0 3:1.0 4:1.0 5:139.0 6:3.0 
-0.2217381695453549 1:1.87E7 2:1.0 3:3.5 4:3.5 5:95.0 6:1.92 
-0.2586511018900791 1:1.94E7 2:0.0 3:0.0 4:0.0 5:94.0 6:1.94 
-0.2070006574073664 1:1.87E7 2:4.0 3:2.5 4:2.5 5:95.0 6:1.92 
-0.23380368266704438 1:121.0 2:1.0 3:2.5 4:2.5 5:139.0 6:3.0 
-0.2140680560535813 1:8340000.0 2:4.0 3:1.5 4:1.5 5:84.0 6:1.7 
-0.25839259020946515 1:1830000.0 2:0.0 3:4.0 4:4.0 5:137.0 6:3.18 
-0.28347867917458663 1:3580000.0 2:0.0 3:1.0 4:1.0 5:35.0 6:1.02 
-0.016971424082365058 1:2.15E7 2:2.0 3:3.6666666666666665 4:3.6666666666666665 5:55.0 6:1.94 
-0.2586453258310476 1:656000.0 2:0.0 3:0.0 4:0.0 5:79.0 6:3.44 
-0.2758067383221789 1:2.15E7 2:3.0 3:2.0 4:2.0 5:55.0 6:1.94 
-0.21905636570831344 1:2.15E7 2:1.0 3:3.0 4:3.0 5:55.0 6:1.94 
-0.2586471235687515 1:1830000.0 2:12.0 3:4.75 4:4.75 5:137.0 6:3.18 
-0.1757366368687041 1:1.25E7 2:1.0 3:4.0 4:4.0 5:66.0 6:1.32 
-0.25680267432822457 1:1.25E7 2:4.0 3:0.0 4:0.0 5:66.0 6:1.32 
-0.1419916494271018 1:8730000.0 2:1.0 3:3.0 4:3.0 5:54.0 6:1.74 
-0.1746492203647953 1:1.25E7 2:3.0 3:4.5 4:4.5 5:66.0 6:1.32 
-0.014028507717885455 1:2290000.0 2:26.0 3:4.333333333333333 4:4.333333333333333 5:144.0 6:3.28 
-0.25864599763790364 1:1.76E7 2:1.0 3:6.0 4:6.0 5:67.0 6:1.82 
-0.1470524808865594 1:8730000.0 2:3.0 3:3.0 4:3.0 5:54.0 6:1.74 
-0.2586451461268141 1:8740000.0 2:0.0 3:0.0 4:0.0 5:54.0 6:1.64 
-0.2585544711097422 1:3.72E7 2:0.0 3:0.0 4:0.0 5:34.0 6:1.62 
-0.23596924607375125 1:2290000.0 2:24.0 3:5.0 4:5.0 5:144.0 6:3.28 
-0.24585598857466456 1:7720000.0 2:4.0 3:1.0 4:1.0 5:28.0 6:1.78 
-1.0 1:1.73E7 2:0.0 3:0.0 4:0.0 5:66.0 6:1.88 
-0.23134751877837056 1:2290000.0 2:27.0 3:2.0 4:2.0 5:144.0 6:3.28 
-0.15083731645011628 1:7720000.0 2:3.0 3:3.6666666666666665 4:3.6666666666666665 5:28.0 6:1.78 
-0.18710100477225483 1:7720000.0 2:2.0 3:5.0 4:5.0 5:28.0 6:1.78 
-0.2120155331447504 1:2290000.0 2:28.0 3:4.5 4:4.5 5:144.0 6:3.28 
-0.25850437410350074 1:1210000.0 2:3.0 3:5.0 4:5.0 5:94.0 6:2.7 
-0.2585582093419952 1:1.51E7 2:3.0 3:0.0 4:0.0 5:56.0 6:1.68 
-0.7234144301974013 1:6670000.0 2:2.0 3:2.5 4:2.5 5:69.0 6:1.68 
-0.25846651320892305 1:2660000.0 2:0.0 3:5.0 4:5.0 5:62.0 6:2.8 
-0.25846034517874555 1:232.0 2:0.0 3:6.333333333333333 4:6.333333333333333 5:71.0 6:1.78 
