svm_type c_svc
kernel_type rbf
gamma 0.0625
nr_class 2
total_sv 3325
rho 5.8684273363939905
label 1 -1
probA -0.28383581570515004
probB 1.7296955047425204
nr_sv 698 2627
SV
3.2064597215116892 1:-0.2344841197951079 2:-1.112903139929533 3:-1.112903139929533 4:0.7311812016726003 5:0.0275010730311801 6:2.475898988719643 7:-1.137456302683168 8:-0.1018550944537944 9:2.583863694354762 10:2.236306516109794 11:-0.08426383447248573 12:-0.1505789176776565 13:-0.1646424438824993 14:-0.1409184537569941 15:-0.4250054252731292 16:-0.3602126396619472 17:0.4705850361594187 18:1.542187185285592 19:-0.2695410056464284 20:0.7309312619447557 
1.9153898567961447 1:-0.2665179720578023 2:-1.112903139929533 3:-1.112903139929533 4:-0.1029582353882517 5:-0.5214735308688122 6:4.43854793665025 7:-3.843748450360057 8:14.78418954454744 9:4.011271180819049 10:6.769362157087081 11:-0.09919864390959963 12:-0.17960295809258 13:-0.1790450777370082 14:9.385317765157236 15:3.092525456645329 16:4.642756320403064 17:7.242057508832016 18:3.265129215010367 19:-0.2695410056464284 20:-1.55167135301848 
8955.712315270936 1:-0.2698329904055932 2:2.163494811882489 3:2.163494811882489 4:-1.386249677020332 5:-1.688044564156296 6:-0.2718095383832057 7:0.3094721723123977 8:-0.1018550944537944 9:-0.4358345543179211 10:-0.3510046221816638 11:-0.1029323462688781 12:-0.181215404782298 13:-0.1818055825591224 14:-0.1409184537569941 15:-0.4250054252731292 16:-0.3602126396619472 17:-0.8769011510447279 18:-1.095449929518217 19:3.710010660965681 20:-1.55167135301848 
340.3282029498664 1:-0.2048770745220116 2:-1.112903139929533 3:-1.112903139929533 4:0.02537090877495632 5:-0.4871626181250627 6:3.260958567891886 7:-4.75477749017208 8:-0.1018550944537944 9:3.466304165168629 10:3.381346309661314 11:-0.03199200144258703 12:-0.07640636995062977 13:-0.01253142686707927 14:-0.1409184537569941 15:2.62066703972416 16:3.625086392842356 17:0.4705850361594187 18:1.318494752730289 19:-0.2695410056464284 20:0.7309312619447557 
8955.712315270936 1:-0.2465210824635143 2:-0.08902877998827634 3:-0.08902877998827634 4:-0.7659921468981595 5:-0.4700071617531879 6:-0.2718095383832057 7:0.3094721723123977 8:-0.1018550944537944 9:-0.4358345543179211 10:-0.3510046221816638 11:-0.06186162031681486 12:-0.1505789176776565 13:-0.1440786833235616 14:-0.1409184537569941 15:-0.4250054252731292 16:-0.3602126396619472 17:0.1931822544093162 18:-0.3717339443019622 19:-0.2695410056464284 20:0.7309312619447557 
1082.5325103165746 1:-0.264333845767164 2:-0.2938036519765277 3:-0.2938036519765277 4:0.04675909946882432 5:-0.3327635107781899 6:0.5132500407890369 7:-0.8695065850913972 8:-0.1018550944537944 9:2.908591116516869 10:1.775881690289701 11:-0.0543942155982579 12:-0.1602535978159643 13:-0.1459190198716377 14:1.223951693440419 15:0.07896831443355752 16:0.3565870306412421 17:3.100174217430836 18:1.04058162754555 19:-0.2695410056464284 20:-1.55167135301848 
173.8306899953304 1:-0.2657171257512349 2:-1.112903139929533 3:-1.112903139929533 4:-0.7659921468981595 5:-0.5729398999844363 6:2.737585515110391 7:-2.262845116568607 8:-0.1018550944537944 9:2.137826644150809 10:3.053943264861475 11:-0.09173123919104267 12:-0.1634784911954003 13:-0.1725638925024792 14:-0.1409184537569941 15:3.020901424099094 16:4.327794533540259 17:0.1931822544093162 18:-0.09771509459495341 19:-0.2695410056464284 20:-1.55167135301848 
64.84401236963865 1:-0.255573072534715 2:-1.112903139929533 3:-1.112903139929533 4:-0.8301567189797636 5:-0.2126753161750665 6:1.29830961996128 7:-1.753740653144241 8:-0.1018550944537944 9:2.145237128453914 10:3.009190959492112 11:-0.0879975368317642 12:-0.1747656180234261 13:-0.1707635632706656 14:8.003163118840249 15:2.582169473413033 16:3.916879212736543 17:0.7713656203338284 18:-0.2101888992567438 19:-0.2695410056464284 20:-1.55167135301848 
5.425939949733235 1:-0.2676343032730173 2:-1.112903139929533 3:-1.112903139929533 4:-0.6376630027349516 5:-0.6587171818438102 6:7.317099726948474 7:-7.996969073032513 8:17.82234073817864 9:6.367879294049803 10:9.196638872869766 11:-0.09919864390959963 12:-0.17960295809258 13:-0.1790450777370082 14:9.385317765157236 15:3.092525456645329 16:4.642756320403064 17:10.20209425885307 18:4.854923554396245 19:-0.2695410056464284 20:-1.55167135301848 
6236.68327896509 1:1.144670292393467 2:1.139620451941232 3:1.139620451941232 4:-0.6804393841226876 5:-0.7788053764469334 6:-0.2718095383832057 7:0.3094721723123977 8:-0.1018550944537944 9:-0.4358345543179211 10:-0.3510046221816638 11:-0.06186162031681486 12:-0.1505789176776565 13:-0.1316806265786276 14:-0.1409184537569941 15:-0.4250054252731292 16:-0.3602126396619472 17:0.1931822544093162 18:-0.3717339443019622 19:-0.2695410056464284 20:0.2744107389521085 
545.5374426418803 1:-0.2613003370301664 2:-1.112903139929533 3:-1.112903139929533 4:2.912776652447136 5:1.777357622962405 6:-0.2718095383832057 7:0.3094721723123977 8:-0.1018550944537944 9:-0.4358345543179211 10:-0.3510046221816638 11:-0.03199200144258703 12:0.05420181191652598 13:0.2036989158491265 14:-0.1409184537569941 15:-0.4250054252731292 16:-0.3602126396619472 17:0.4705850361594187 18:0.8176907489592513 19:-0.2695410056464284 20:0.7309312619447557 
166.198204125363 1:-0.2240488497398363 2:0.1157460919999751 3:0.1157460919999751 4:-0.1029582353882517 5:-0.6244062691000607 6:2.214212462328896 7:-3.843748450360057 8:-0.1018550944537944 9:2.60476126008952 10:2.43698160008427 11:-0.06186162031681486 12:0.05420181191652598 13:0.1278068267001078 14:-0.1409184537569941 15:2.834121408472475 16:3.055376202401914 17:0.1931822544093162 18:0.8176907489592513 19:-0.2695410056464284 20:0.2744107389521085 
8455.888086609024 1:-0.2696509798813733 2:-1.112903139929533 3:-1.112903139929533 4:0.5814638668155243 5:0.0961228985186792 6:-0.2718095383832057 7:0.3094721723123977 8:-0.1018550944537944 9:-0.4358345543179211 10:-0.3510046221816638 11:0.1434920094435014 12:-0.07479392326091179 13:3.877357004152115E-4 14:-0.07544603893616787 15:-0.4008299549453233 16:-0.325827972773388 17:0.3363605943692821 18:-0.4438240147254697 19:-0.2695410056464284 20:-1.55167135301848 
990.9628922916665 1:-0.2342414390961481 2:-1.112903139929533 3:-1.112903139929533 4:0.4745229133461843 5:-0.1440534906875674 6:2.868428778305765 7:-3.120284212862276 8:-0.1018550944537944 9:2.523838771499603 10:2.426611158814203 11:0.218166056629071 12:-0.04254498946655236 13:0.05559783214269933 14:7.361758768653138 15:2.345333061032199 16:3.580027807722514 17:3.329206402420118 18:1.163591610860977 19:-0.2695410056464284 20:-1.55167135301848 
8955.712315270936 1:-0.2701565104721835 2:-0.7033533959530307 3:-0.7033533959530307 4:-0.5948866213472156 5:-0.8645826583063073 6:-0.2718095383832057 7:0.3094721723123977 8:-0.1018550944537944 9:-0.4358345543179211 10:-0.3510046221816638 11:-0.03199200144258703 12:-0.1505789176776565 13:-0.1293559909389525 14:-0.1409184537569941 15:-0.4250054252731292 16:-0.3602126396619472 17:0.4705850361594187 18:-0.3717339443019622 19:-0.2695409963808127 20:0.7309312619447557 
99.00794237483998 1:-0.2613246051000624 2:-1.112903139929533 3:-1.112903139929533 4:-0.1671228074698557 5:-0.4871626181250627 6:3.522645094282634 7:-3.120284212862276 8:-0.1018550944537944 9:3.310535785117341 10:2.065112828858941 11:-0.09173123919104267 12:-0.1328420040907588 13:-0.1125236444626464 14:-0.1409184537569941 15:2.518234764595737 16:1.699558753927396 17:0.4705850361594187 18:1.846133435637987 19:-0.2695410056464284 20:0.7309312619447557 
10.835280564503819 1:-0.2658870022405068 2:-1.112903139929533 3:-1.112903139929533 4:-0.08157004469438367 5:-0.538628987240687 6:3.522645094282634 7:-2.905924438788859 8:-0.1018550944537944 9:4.182527473063829 10:6.613396324060561 11:-0.09919864390959963 12:-0.1505789176776565 13:-0.1769746991204225 14:-0.1409184537569941 15:3.092525456645329 16:4.434299280400356 17:0.4705850361594187 18:2.868385891255652 19:-0.2695410056464284 20:0.7309312619447557 
658.1069085676755 1:-0.1798809625291516 2:0.9348455799529809 3:0.9348455799529809 4:-0.6804393841226876 5:-0.6415617254719355 6:0.2515635143982895 7:-1.244636189719876 8:-0.1018550944537944 9:2.229272020451137 10:1.219864492796627 11:-0.06186162031681486 12:-0.1376793441599127 13:-0.120522375508187 14:-0.1409184537569941 15:1.409720051069096 16:0.9445484152537084 17:-0.7927375118526364 18:-0.3717339443019622 19:-0.2695410056464284 20:0.7309312619447557 
331.68334986231434 1:-0.2165257480720823 2:-1.112903139929533 3:-1.112903139929533 4:-0.7018275748165556 5:-0.2298307725469413 6:0.3824067775936633 7:-0.1996322911119689 8:-0.1018550944537944 9:1.607235968048416 10:0.003123376408921933 11:-0.09919864390959963 12:-0.123167323952451 13:-0.1593407846963999 14:-0.1409184537569941 15:1.669402193787326 16:-0.2423633303730228 17:-0.8557961296172232 18:-0.520723098626844 19:-0.2695410056464284 20:2.100492830922696 
1162.0492089098664 1:-0.2697237840910613 2:-1.112903139929533 3:-1.112903139929533 4:1.543932448039584 5:0.7137193279061702 6:-0.2718095383832057 7:0.3094721723123977 8:-0.1018550944537944 9:-0.4358345543179211 10:-0.3510046221816638 11:-0.09919864390959963 12:-0.1505789176776565 13:-0.1635862507331686 14:-0.1409184537569941 15:-0.4250054252731292 16:-0.3602126396619472 17:0.1931822544093162 18:3.01140298084034 19:-0.2695410056464284 20:0.2744107389521085 
8955.712315270936 1:-0.2692093010092665 2:0.1157460919999751 3:0.1157460919999751 4:-1.257920532857123 5:-0.7273390073313093 6:-0.2718095383832057 7:0.3094721723123977 8:-0.1018550944537944 9:-0.4358345543179211 10:-0.3510046221816638 11:-0.06186162031681486 12:-0.1634784911954003 13:-0.1514400295158661 14:-0.1409184537569941 15:-0.4250054252731292 16:-0.3602126396619472 17:0.1931822544093162 18:-0.520723098626844 19:-0.2695410056464284 20:-1.55167135301848 
1256.1469417381586 1:-0.2182245129648009 2:-1.112903139929533 3:-1.112903139929533 4:-0.1029582353882517 5:-0.534978890140288 6:-0.2718095383832057 7:0.3094721723123977 8:-0.1018550944537944 9:-0.4358345543179211 10:-0.3510046221816638 11:-0.06186162031681486 12:0.1219245728846808 13:-0.05758286556398311 14:-0.1409184537569941 15:0.6960619126836521 16:-0.2155521172386815 17:-0.6017727302533276 18:-0.1546951190291923 19:-0.2695410056464284 20:0.7309312619447557 
63.51662349701631 1:-0.2614944815893342 2:-1.112903139929533 3:-1.112903139929533 4:-0.4879456678778756 5:1.039672998971791 6:1.821682672742775 7:-0.9230965286097503 8:-0.1018550944537944 9:1.752926089447481 10:1.300997051950551 11:-0.02452459672403007 12:-0.07801881664034774 13:-0.02583706010966974 14:-0.1409184537569941 15:1.684022706423016 16:0.7057541282567587 17:-0.3436023023547268 18:-0.6366520530991637 19:-0.2695410056464284 20:-0.6386303070331856 
8955.712315270936 1:-0.1922576781761017 2:-1.112903139929533 3:-1.112903139929533 4:-1.065426816612312 5:-0.8398955381614143 6:-0.2718095383832057 7:0.3094721723123977 8:-0.1018550944537944 9:-0.4358345543179211 10:-0.3510046221816638 11:-0.06186162031681486 12:-0.1505789176776565 13:-0.1348770005831809 14:-0.1409184537569941 15:-0.4250054252731292 16:-0.3602126396619472 17:0.1931822544093162 18:-0.3717339443019622 19:-0.2695410056464284 20:0.2744107389521085 
5.696675905748218 1:-0.1175120228964816 2:-1.112903139929533 3:-1.112903139929533 4:0.2392528157136363 5:-0.384229879893814 6:7.1862564637531 7:-6.737605400351188 8:-0.1018550944537944 9:5.318999345788173 10:4.446008410730201 11:-0.03199200144258703 12:-0.0860810500889376 13:-0.02150370951681605 14:-0.1409184537569941 15:2.692117053492071 16:3.970153231057869 17:0.4705850361594187 18:1.752308351536924 19:-0.2695410056464284 20:0.2744107389521085 
5607.999218205247 1:-0.2662995594287384 2:-0.2938036519765277 3:-0.2938036519765277 4:-1.343473295632595 5:-1.567956369553172 6:-0.2718095383832057 7:0.3094721723123977 8:-0.1018550944537944 9:-0.4358345543179211 10:-0.3510046221816638 11:-0.03199200144258703 12:-0.1505789176776565 13:-0.1293559909389525 14:-0.1409184537569941 15:-0.4250054252731292 16:-0.3602126396619472 17:0.4705850361594187 18:-0.3717339443019622 19:-0.2695409982339358 20:0.2744107389521085 
2756.41324008807 1:-0.193228400971941 2:-0.7033533959530307 3:-0.7033533959530307 4:-0.3382283330207996 5:-0.1097425779438181 6:0.2515635143982895 7:-0.3604021216670306 8:-0.1018550944537944 9:1.192841685818726 10:0.1623778627994642 11:-0.03199200144258703 12:-0.06673168981232194 13:-0.05758286556398311 14:-0.1409184537569941 15:1.079800365179396 16:0.7099267440829998 17:-0.03463833582978187 18:-0.3717339443019622 19:-0.2695410037933053 20:0.7309312619447557 
1052.8893694462688 1:-0.2475888775389374 2:-1.112903139929533 3:-1.112903139929533 4:-0.2526755702453277 5:-0.4707219724353492 6:1.500026317387481 7:-2.316435060086963 8:-0.1018550944537944 9:1.521496664661479 10:2.065160971036575 11:-0.06186162031681486 12:1.134541094027567 13:1.702238958533823 14:-0.1409184537569941 15:2.431766510936136 16:3.025766001470538 17:-0.259393000329084 18:-0.3717339443019622 19:-0.2695410056464284 20:-0.1821097840405385 
1624.2116017025119 1:-0.2595044998578638 2:-1.112903139929533 3:-1.112903139929533 4:-0.1457346167759876 5:-0.2298307725469413 6:-0.2718095383832057 7:0.3094721723123977 8:-0.1018550944537944 9:-0.4358345543179211 10:-0.3510046221816638 11:-0.03199200144258703 12:-0.1022055169861173 13:-0.1260433851524154 14:-0.1409184537569941 15:1.557826175333299 16:-0.2474057272693589 17:-0.5912204729783617 18:-0.3717339443019622 19:-0.2695410056464284 20:0.7309312619447557 
418.69626764532507 1:-0.2699701050005055 2:-1.112903139929533 3:-1.112903139929533 4:-0.7873803375920275 5:0.233366549493677 6:-0.0101230119924581 7:0.3094721723123977 8:-0.1018550944537944 9:2.05823804273545 10:0.3555731726490372 11:-0.09173123919104267 12:-0.1425166842290666 13:-0.1629839587719801 14:-0.1409184537569941 15:-0.3774390858875634 16:-0.3479120217011972 17:-0.6516582538128564 18:0.7468629930357142 19:-0.2695410056464284 20:-1.55167135301848 
1164.5406495866002 1:-0.246885103511954 2:-1.112903139929533 3:-1.112903139929533 4:-0.9157094817552356 5:-0.7788053764469334 6:0.7749365671797845 7:-1.405406020274938 8:-0.1018550944537944 9:1.690603916458359 10:1.320326563567709 11:-0.06186162031681486 12:-0.1312295574010408 13:-0.1155534668283815 14:-0.1409184537569941 15:2.237494882072093 16:1.533218696262354 17:-0.8554121060125053 18:-0.3717339443019622 19:-0.2695410056464284 20:-0.6386303070331856 
8955.712315270936 1:-0.2451620705493394 2:-1.112903139929533 3:-1.112903139929533 4:0.003982718081088321 5:-0.3156080544063151 6:-0.2718095383832057 7:0.3094721723123977 8:-0.1018550944537944 9:-0.4358345543179211 10:-0.3510046221816638 11:-0.06186162031681486 12:-0.1505789176776565 13:-0.1309334222658749 14:-0.1409184537569941 15:-0.4250054252731292 16:-0.3602126396619472 17:0.1931822544093162 18:-0.3717339443019622 19:-0.2695410056464284 20:0.2744107389521085 
369.7561480370929 1:-0.2148269831793637 2:-1.112903139929533 3:-1.112903139929533 4:0.5386874854277883 5:-0.07543166520006853 6:1.429152883156654 7:-0.3871970934262072 8:-0.1018550944537944 9:1.323859048297641 10:1.69355548999543 11:-0.03199200144258703 12:-0.05383211629457816 13:-0.008813947039965481 14:-0.1409184537569941 15:2.947901175575851 16:2.847400487365748 17:-0.7227913629538443 18:-0.2203647332942259 19:-0.2695410056464284 20:0.7309312619447557 
8955.712315270936 1:-0.2677313755526013 2:-0.5668368146275298 3:-0.5668368146275298 4:1.47976787595798 5:3.046861394481137 6:-0.2718095383832057 7:0.3094721723123977 8:-0.1018550944537944 9:-0.4358345543179211 10:-0.3510046221816638 11:-0.1029323462688781 12:-0.181215404782298 13:-0.1818055825591224 14:-0.1409184537569941 15:-0.4250054252731292 16:-0.3602126396619472 17:-0.8769011510447279 18:-1.095449929518217 19:3.710010660965681 20:-1.55167135301848 
1020.423082945882 1:-0.240551137269103 2:-1.112903139929533 3:-1.112903139929533 4:0.3675819598768443 5:-0.2641416852906908 6:2.999272041501139 7:-4.218878054988538 8:-0.1018550944537944 9:2.414385918342727 10:3.118963898336425 11:0.9313032072512603 12:0.2654323282695803 13:0.5828542531665127 14:7.214302457150996 15:2.290885310890046 16:3.502587008181332 17:1.95347201321099 18:0.4247039114269752 19:-0.2695410056464284 20:-1.55167135301848 
7192.467070652381 1:-0.2490692298025922 2:-0.7033533959530307 3:-0.7033533959530307 4:-0.06018185400051567 5:-0.07543166520006853 6:-0.2718095383832057 7:0.3094721723123977 8:-0.1018550944537944 9:-0.4358345543179211 10:-0.3510046221816638 11:-0.08053013211320724 12:-0.07801881664034774 13:-0.09153707487598785 14:-0.1409184537569941 15:-0.4150266145765734 16:-0.3573740758028572 17:-0.5248375367009442 18:-0.08523541356890432 19:-0.2695410056464284 20:2.100492830922696 
679.7037970314937 1:0.0695947960015285 2:-1.112903139929533 3:-1.112903139929533 4:0.1109236715504283 5:0.8509629788811685 6:0.2515635143982895 7:-0.1460423475936134 8:-0.1018550944537944 9:1.69764387654631 10:0.7726064567409962 11:-0.03199200144258703 12:-0.1409042375393487 13:-0.1275156543908763 14:-0.1409184537569941 15:0.09458733843282166 16:-0.1902396012310409 17:-0.6342183841485015 18:-0.3717339443019622 19:-0.2695410056464284 20:0.2744107389521085 
981.1407441351853 1:-0.2471277842109138 2:-1.112903139929533 3:-1.112903139929533 4:0.2178646250197683 5:-0.384229879893814 6:6.008667094994736 7:-6.684015456832833 8:-0.1018550944537944 9:2.902143995173166 10:3.571504166287758 11:-0.03199200144258703 12:-0.07479392326091179 13:-0.003216256706233895 14:-0.1409184537569941 15:2.79818757905453 16:4.096778233731522 17:0.4705850361594187 18:1.113812804031458 19:-0.2695410056464284 20:0.2744107389521085 
528.9874073309737 1:-0.205605116618891 2:-1.112903139929533 3:-1.112903139929533 4:-0.4237810957962716 5:-0.2641416852906908 6:4.176861410259503 7:-4.888752348967967 8:-0.1018550944537944 9:2.538289215890659 10:3.075021085944647 11:-0.09546494155032116 12:-0.1505789176776565 13:-0.1479065833435599 14:-0.1409184537569941 15:3.050897858597342 16:4.089423387855721 17:0.1931822544093162 18:-0.0506594432406638 19:-0.2695410056464284 20:0.7309312619447557 
8955.712315270936 1:-0.2698087223356972 2:-1.112903139929533 3:-1.112903139929533 4:0.7953457737542042 5:0.1475892676343035 6:-0.2718095383832057 7:0.3094721723123977 8:-0.1018550944537944 9:-0.4358345543179211 10:-0.3510046221816638 11:-0.1029323462688781 12:-0.181215404782298 13:-0.1818055825591224 14:-0.1409184537569941 15:-0.4250054252731292 16:-0.3602126396619472 17:-0.8769011510447279 18:-1.095449929518217 19:3.710010660965681 20:-1.55167135301848 
3502.632503975 1:-0.1551275312352515 2:0.2522626733254761 3:0.2522626733254761 4:1.436991494570244 5:1.46855940826866 6:-0.2718095383832057 7:0.3094721723123977 8:-0.1018550944537944 9:-0.4358345543179211 10:-0.3510046221816638 11:-0.06186162031681486 12:-0.1586411511262464 13:-0.1472992722826948 14:-0.1409184537569941 15:-0.4250054252731292 16:-0.3602126396619472 17:0.1931822544093162 18:0.03396089300306506 19:-0.2695410056464284 20:-1.095150830025833 
8955.712315270936 1:-0.2533161420343888 2:-1.112903139929533 3:-1.112903139929533 4:-0.8729331003674996 5:-0.7101835509594345 6:-0.2718095383832057 7:0.3094721723123977 8:-0.1018550944537944 9:-0.4358345543179211 10:-0.3510046221816638 11:-0.06186162031681486 12:-0.1505789176776565 13:-0.1348770005831809 14:-0.1409184537569941 15:-0.4250054252731292 16:-0.3602126396619472 17:0.1931822544093162 18:-0.3717339443019622 19:-0.2695410056464284 20:0.7309312619447557 
112.54216893613864 1:-0.2528550487063652 2:-1.112903139929533 3:-1.112903139929533 4:0.1109236715504283 5:-0.4700071617531879 6:4.307704673454876 7:-3.495413817490755 8:-0.1018550944537944 9:2.217785769781323 10:3.308066087214609 11:-0.03199200144258703 12:-0.1360668974701947 13:-0.1065818261565103 14:-0.1409184537569941 15:2.887588153959475 16:3.958650921077626 17:0.4705850361594187 18:0.6706618108257155 19:-0.2695410056464284 20:0.7309312619447557 
5616.748378387011 1:-0.2637271440197645 2:-1.112903139929533 3:-1.112903139929533 4:-1.001262244530708 5:-1.001826309281306 6:-0.2718095383832057 7:0.3094721723123977 8:-0.1018550944537944 9:-0.4358345543179211 10:-0.3510046221816638 11:-0.03199200144258703 12:-0.1505789176776565 13:-0.1293559909389525 14:-0.1409184537569941 15:-0.4250054252731292 16:-0.3602126396619472 17:0.4705850361594187 18:-0.3717339443019622 19:-0.2695410000870589 20:-0.1821097840405385 
3.8943195518968174 1:-0.2484382599852967 2:-1.112903139929533 3:-1.112903139929533 4:-0.9798740538368396 5:-0.5214735308688122 6:6.79372667416698 7:-6.335680823963531 8:-0.1018550944537944 9:5.265125124904593 10:6.877455730977228 11:-0.09546494155032116 12:-0.1699282779542722 13:-0.162835959678953 14:7.186955691825012 15:2.754842436630606 16:4.145182859184538 17:0.7221290445210813 18:3.376238072570514 19:-0.2695410056464284 20:-1.095150830025833 
260.1756088294943 1:-0.2145843024804038 2:-1.112903139929533 3:-1.112903139929533 4:-0.3810047144085356 5:1.056828455343665 6:1.690839409547401 7:-1.191046246201521 8:-0.1018550944537944 9:1.841036747811412 10:0.8004736559666986 11:-0.08426383447248573 12:-0.1280046640216049 13:-0.1376375054052951 14:-0.1409184537569941 15:2.0965979574376 16:0.6660335406971103 17:-0.673372589804107 18:-0.6155688783600083 19:-0.2695410056464284 20:0.7309312619447557 
8955.712315270936 1:-0.02019706261359957 2:0.3205209639882265 3:0.3205209639882265 4:-0.8087685282858956 5:-0.538628987240687 6:-0.2718095383832057 7:0.3094721723123977 8:-0.1018550944537944 9:-0.4358345543179211 10:-0.3510046221816638 11:-0.09173123919104267 12:-0.1505789176776565 13:-0.1642255255340793 14:-0.1409184537569941 15:-0.4250054252731292 16:-0.3602126396619472 17:0.3496861555425531 18:-0.3717339443019622 19:-0.2695410056464284 20:0.2744107389521085 
8955.712315270936 1:-0.2676100352031214 2:1.651557631911861 3:1.651557631911861 4:0.02537090877495632 5:-0.4700071617531879 6:-0.2718095383832057 7:0.3094721723123977 8:-0.1018550944537944 9:-0.4358345543179211 10:-0.3510046221816638 11:-0.0693290250353718 12:-0.1667033845748362 13:-0.1569610391600945 14:-0.1409184537569941 15:-0.4250054252731292 16:-0.3602126396619472 17:0.1848358870584921 18:-0.5252058157987443 19:-0.2695410056464284 20:-1.55167135301848 
93.1309445831479 1:-0.2587764577609845 2:-1.112903139929533 3:-1.112903139929533 4:-0.5307220492656116 5:-0.4185407926375636 6:3.784331620673381 7:-2.530794834160377 8:-0.1018550944537944 9:1.894318129950744 10:2.614871592093694 11:-0.07679642975392877 12:-0.1634784911954003 13:-0.1619801388366658 14:-0.1409184537569941 15:2.997968265050179 16:4.286973459600865 17:0.1931822544093162 18:-0.2060406801321963 19:-0.2695410056464284 20:-1.55167135301848 
8955.712315270936 1:-0.2603053461644312 2:0.3205209639882265 3:0.3205209639882265 4:-0.4879456678778756 5:-0.3156080544063151 6:-0.2718095383832057 7:0.3094721723123977 8:-0.1018550944537944 9:-0.4358345543179211 10:-0.3510046221816638 11:-0.07679642975392877 12:-0.1634784911954003 13:-0.1613778468754773 14:-0.1409184537569941 15:-0.4250054252731292 16:-0.3602126396619472 17:0.1931822544093162 18:-0.2060406801321963 19:-0.2695410056464284 20:-1.55167135301848 
68.70929990322801 1:-0.2339987583971883 2:-1.112903139929533 3:-1.112903139929533 4:0.1964764343259003 5:-0.4185407926375636 6:4.569391199845624 7:-5.21029201007809 8:-0.1018550944537944 9:2.3902277395146 10:3.152073508049922 11:0.1733616283177293 12:-0.06189434974316802 13:0.02247177427732886 14:8.529213314230404 15:2.776411749712057 16:4.193149162220648 17:3.087382061713055 18:1.033711139620518 19:-0.2695410056464284 20:-1.55167135301848 
3441.9730542860407 1:-0.2543839371098119 2:-0.2938036519765277 3:-0.2938036519765277 4:1.58670882942732 5:0.8338075225092937 6:-0.2718095383832057 7:0.3094721723123977 8:-0.1018550944537944 9:-0.4358345543179211 10:-0.3510046221816638 11:0.06135055753937492 12:-0.09898062360668138 13:-0.05140263088760803 14:-0.1409184537569941 15:-0.4241165987489608 16:-0.3595333819252053 17:3.000722743078867 18:1.654379736718435 19:-0.2695410056464284 20:-1.55167135301848 
3653.4417314060065 1:-0.2179818322658411 2:-1.112903139929533 3:-1.112903139929533 4:-0.2740637609391957 5:-0.07543166520006853 6:-0.2718095383832057 7:0.3094721723123977 8:-0.1018550944537944 9:-0.4358345543179211 10:-0.3510046221816638 11:-0.1029323462688781 12:-0.181215404782298 13:-0.1818055825591224 14:-0.1409184537569941 15:-0.4250054252731292 16:-0.3602126396619472 17:-0.8769011510447279 18:-1.095449929518217 19:3.710010660965681 20:-1.55167135301848 
8955.712315270936 1:-0.2614702135194383 2:0.7300707079647294 3:0.7300707079647294 4:-0.7018275748165556 5:-0.8645826583063073 6:-0.2718095383832057 7:0.3094721723123977 8:-0.1018550944537944 9:-0.4358345543179211 10:-0.3510046221816638 11:-0.03199200144258703 12:-0.1505789176776565 13:-0.1293559909389525 14:-0.1409184537569941 15:-0.4250054252731292 16:-0.3602126396619472 17:0.4705850361594187 18:-0.3717339443019622 19:-0.2695409963808127 20:0.7309312619447557 
7.609056692609448 1:-0.2696922356001965 2:-1.112903139929533 3:-1.112903139929533 4:-0.08157004469438367 5:-0.6072508127281858 6:1.821682672742775 7:-3.039899297584744 8:-0.1018550944537944 9:2.973358749326015 10:4.113481870368185 11:-0.04692681087970094 12:-0.1570287044365284 13:-0.1403980102274093 14:2.670644382276211 15:0.6131547541443245 16:1.116358093490595 17:3.122952330806219 18:1.052815433664956 19:-0.2695410037933053 20:-1.095150830025833 
2083.976429347671 1:-0.2539713799215803 2:-0.7033533959530307 3:-0.7033533959530307 4:0.02537090877495632 5:-0.2984525980344404 6:-0.0101230119924581 7:-0.8695065850913972 8:-0.1018550944537944 9:1.546321787076884 10:1.069591847315664 11:-0.03199200144258703 12:-0.07801881664034774 13:-0.07966690414089676 14:-0.1409184537569941 15:2.739875144405341 16:1.440345738808182 17:-0.0421544660912645 18:-0.3717339443019622 19:-0.2695410037933053 20:0.7309312619447557 
251.88226502158045 1:-0.2665422401276982 2:-1.112903139929533 3:-1.112903139929533 4:0.3675819598768443 5:0.6965638715342954 6:0.1207202512029157 7:-0.4675820087037393 8:-0.1018550944537944 9:1.143191440987915 10:-0.09755214562027965 11:0.05014945046153949 12:-0.07156902988147586 13:-0.0600248505989303 14:-0.1409184537569941 15:0.2841741930893304 16:-0.2438284353540447 17:-0.09447979132199427 18:0.3472821327637334 19:-0.2695410056464284 20:-0.6386303070331856 
1163.4843881563877 1:-0.2669547973159299 2:0.9348455799529809 3:0.9348455799529809 4:-0.1243464260821197 5:1.211227562690538 6:-0.2718095383832057 7:0.3094721723123977 8:-0.1018550944537944 9:-0.4358345543179211 10:-0.3510046221816638 11:-0.03945940616114399 12:-0.1538038110570925 13:-0.1348770005831809 14:-0.1409184537569941 15:-0.4250054252731292 16:-0.3602126396619472 17:-0.6780132255213703 18:-0.9886300063645656 19:-0.2695409926745664 20:1.64397230793005 
27.370309399454392 1:-0.2451620705493394 2:-1.112903139929533 3:-1.112903139929533 4:-0.9584858631429716 5:-0.6415617254719355 6:-0.2718095383832057 7:0.3094721723123977 8:-0.1018550944537944 9:-0.4358345543179211 10:-0.3510046221816638 11:-0.06559532267609333 12:-0.1650909378851182 13:-0.1542005343379803 14:7.366747529089873 15:2.347175144148285 16:3.582647794571532 17:-0.7828186064882953 18:-1.044919510674677 19:-0.2695410056464284 20:-1.55167135301848 
8010.429696371439 1:-0.2646978668156037 2:-1.112903139929533 3:-1.112903139929533 4:-0.3810047144085356 5:0.3877656568405499 6:-0.2718095383832057 7:0.3094721723123977 8:-0.1018550944537944 9:-0.4358345543179211 10:-0.3510046221816638 11:-0.09173123919104267 12:-0.1667033845748362 13:-0.1614782288690087 14:-0.1409184537569941 15:-0.374026715889976 16:-0.307480423026874 17:-0.6590922724870829 18:-0.6172300634937805 19:-0.2695410056464284 20:-1.095150830025833 
469.2193117661728 1:-0.2635572675304926 2:-1.112903139929533 3:-1.112903139929533 4:-0.7659921468981595 5:0.6622529587905459 6:1.29830961996128 7:-0.9498915003689269 8:-0.1018550944537944 9:1.724766249095678 10:1.938664041968401 11:-0.0693290250353718 12:-0.09736817691696341 13:-0.1053001632033858 14:-0.1409184537569941 15:2.474787726838964 16:1.483681553283712 17:-0.8575374862372926 18:-0.3717339443019622 19:-0.2695410056464284 20:0.2744107389521085 
8955.712315270936 1:-0.2697262108980509 2:-0.4985785239647793 3:-0.4985785239647793 4:0.5600756761216563 5:0.3534547440968004 6:-0.2718095383832057 7:0.3094721723123977 8:-0.1018550944537944 9:-0.4358345543179211 10:-0.3510046221816638 11:-0.1029323462688781 12:-0.181215404782298 13:-0.1818055825591224 14:-0.1409184537569941 15:-0.4250054252731292 16:-0.3602126396619472 17:-0.8769011510447279 18:-1.095449929518217 19:3.710010660965681 20:-1.55167135301848 
8955.712315270936 1:-0.2637028759498685 2:-1.112903139929533 3:-1.112903139929533 4:-0.8301567189797636 5:-1.001826309281306 6:-0.2718095383832057 7:0.3094721723123977 8:-0.1018550944537944 9:-0.4358345543179211 10:-0.3510046221816638 11:-0.06186162031681486 12:-0.1505789176776565 13:-0.1403980102274093 14:-0.1409184537569941 15:-0.4250054252731292 16:-0.3602126396619472 17:0.1931822544093162 18:-0.3717339443019622 19:-0.2695410056464284 20:0.7309312619447557 
191.74333961319783 1:-0.2617614303581901 2:0.3205209639882265 3:0.3205209639882265 4:0.2820291971013723 5:-0.2126753161750665 6:-0.2718095383832057 7:0.3094721723123977 8:-0.1018550944537944 9:-0.4358345543179211 10:-0.3510046221816638 11:-0.06186162031681486 12:-0.1344544507804768 13:-0.1141732144173244 14:-0.1409184537569941 15:2.079476606262338 16:2.311372831531998 17:0.1931822544093162 18:-0.108667301038697 19:-0.2695410056464284 20:-1.55167135301848 
702.6427197975222 1:-0.250525313996351 2:-1.112903139929533 3:-1.112903139929533 4:-0.4879456678778756 5:-0.1097425779438181 6:1.429152883156654 7:-2.075280314254366 8:-0.1018550944537944 9:1.58656071684275 10:2.393839115923823 11:-0.06186162031681486 12:-0.1425166842290666 13:-0.1240859362785526 14:-0.1409184537569941 15:2.126443016564825 16:2.261657668850402 17:-0.6590984220857263 18:-0.3717339443019622 19:-0.2695410056464284 20:0.2744107389521085 
200.0519555282371 1:-0.08013919525667156 2:-1.112903139929533 3:-1.112903139929533 4:0.4745229133461843 5:-0.178364403431317 6:5.746980568603989 7:-5.344266868873978 8:-0.1018550944537944 9:3.168550905869828 10:3.674622780762749 11:-0.06186162031681486 12:0.1493361666098863 13:0.31309515403805 14:-0.1409184537569941 15:2.793505215950551 16:3.318465715635059 17:0.1931822544093162 18:1.894924486802162 19:-0.2695410056464284 20:0.2744107389521085 
63.57309505238726 1:-0.2649648155844595 2:-1.112903139929533 3:-1.112903139929533 4:-0.7659921468981595 5:-0.6415617254719355 6:0.2515635143982895 7:-0.3604021216670306 8:-0.1018550944537944 9:2.052161445606902 10:2.253982852797651 11:-0.09919864390959963 12:-0.1618660445056823 13:-0.1597215439822088 14:-0.1409184537569941 15:3.092525456645329 16:2.43214216804413 17:-0.6519469341330691 18:-0.520723098626844 19:-0.2695410056464284 20:-1.095150830025833 
13.861023451252132 1:-0.2625865447346534 2:-1.112903139929533 3:-1.112903139929533 4:-0.4879456678778756 5:-0.590095356356311 6:3.260958567891886 7:-4.486827772580309 8:-0.1018550944537944 9:2.833819329898529 10:2.125391331502565 11:-0.09919864390959963 12:-0.1715407246439901 13:-0.1663616772029699 14:8.910256153702715 15:3.092525456645329 16:4.413493520180901 17:-0.3919256834051568 18:1.025309896416627 19:-0.2695410056464284 20:-1.095150830025833 
2912.6640682034113 1:-0.24938471471124 2:-1.112903139929533 3:-1.112903139929533 4:0.08953548085656032 5:-0.2812971416625656 6:0.1207202512029157 7:-0.5747618957404479 8:-0.1018550944537944 9:1.725655507212051 10:1.83550301409832 11:-0.0693290250353718 12:0.01389064467357667 13:-0.02224840384092128 14:-0.1409184537569941 15:2.2362553651836 16:1.540420290435032 17:-0.2986271507670544 18:-0.3717339443019622 19:-0.2695410056464284 20:0.7309312619447557 
8955.712315270936 1:-0.2689205109775043 2:0.1157460919999751 3:0.1157460919999751 4:0.6670166295909963 5:-0.006809839712569442 6:-0.2718095383832057 7:0.3094721723123977 8:-0.1018550944537944 9:-0.4358345543179211 10:-0.3510046221816638 11:-0.1029323462688781 12:-0.181215404782298 13:-0.1818055825591224 14:-0.1409184537569941 15:-0.4250054252731292 16:-0.3602126396619472 17:-0.8769011510447279 18:-1.095449929518217 19:3.710010660965681 20:-1.55167135301848 
8955.712315270936 1:-0.1361984367163867 2:-0.8398699772785316 3:-0.8398699772785316 4:0.2178646250197683 5:0.0275010730311801 6:-0.2718095383832057 7:0.3094721723123977 8:-0.1018550944537944 9:-0.4358345543179211 10:-0.3510046221816638 11:-0.06186162031681486 12:-0.1634784911954003 13:-0.1514400295158661 14:-0.1409184537569941 15:-0.4250054252731292 16:-0.3602126396619472 17:0.1931822544093162 18:-0.520723098626844 19:-0.2695410056464284 20:-1.55167135301848 
954.5076381793648 1:-0.2463512059742424 2:-1.112903139929533 3:-1.112903139929533 4:-0.5521102399594796 5:0.07896744214680441 6:1.821682672742775 7:-2.236050144809431 8:-0.1018550944537944 9:1.408264464510019 10:1.959380072718391 11:-0.06186162031681486 12:-0.1505789176776565 13:-0.1394778419533712 14:-0.1409184537569941 15:2.971744683462695 16:3.263174601895338 17:-0.1622135344047934 18:-0.3717339443019622 19:-0.2695410056464284 20:0.7309312619447557 
2.111407224433567 1:-0.2467394950925781 2:-1.112903139929533 3:-1.112903139929533 4:0.06814729016269232 5:-0.5043180744969374 6:6.008667094994736 7:-6.44286071100024 8:10.41283666488505 9:3.460153463197051 10:4.626569620660002 11:0.05388315282081797 12:-0.1134926438141431 13:-0.06586438003032573 14:9.133709581427723 15:2.999619975816003 16:4.510617256834835 17:4.488202190870408 18:1.786072039131752 19:-0.2695410056464284 20:-1.55167135301848 
8955.712315270936 1:-0.2521755427492777 2:0.525295835976478 3:0.525295835976478 4:-0.3382283330207996 5:-0.1955198598031918 6:-0.2718095383832057 7:0.3094721723123977 8:-0.1018550944537944 9:-0.4358345543179211 10:-0.3510046221816638 11:-0.04319310852042246 12:-0.1247797706421689 13:-0.1284358226649144 14:-0.1409184537569941 15:-0.004729004673007834 16:0.03114870105059498 17:-0.7384224973943686 18:-0.3717339443019622 19:-0.2695410056464284 20:0.7309312619447557 
443.1363392561817 1:-0.2576843946156653 2:-1.112903139929533 3:-1.112903139929533 4:1.715037973590528 5:0.9024293479967926 6:-0.2718095383832057 7:0.3094721723123977 8:-0.1018550944537944 9:-0.4358345543179211 10:-0.3510046221816638 11:0.03521464102442558 12:-0.121554877262733 13:-0.07966690414089676 14:-0.1409184537569941 15:-0.4250054252731292 16:-0.3602126396619472 17:0.704849580327383 18:-0.2459137340513994 19:-0.2695410056464284 20:-1.55167135301848 
45.02476602754773 1:-0.2699320041307688 2:0.7300707079647294 3:0.7300707079647294 4:-1.4076378677142 5:-1.688044564156296 6:-0.2718095383832057 7:0.3094721723123977 8:-0.1018550944537944 9:-0.4358345543179211 10:-0.3510046221816638 11:-0.1029323462688781 12:-0.181215404782298 13:-0.1818055825591224 14:-0.1409184537569941 15:-0.4250054252731292 16:-0.3602126396619472 17:-0.8769011510447279 18:-1.095449929518217 19:3.710010660965681 20:-1.55167135301848 
947.1515188769243 1:-0.2029356289303332 2:-1.112903139929533 3:-1.112903139929533 4:3.982186187140536 5:3.235571414571759 6:-0.2718095383832057 7:0.3094721723123977 8:-0.1018550944537944 9:-0.4358345543179211 10:-0.3510046221816638 11:-0.06186162031681486 12:-0.1634784911954003 13:-0.1514400295158661 14:-0.1409184537569941 15:-0.4250054252731292 16:-0.3602126396619472 17:0.1931822544093162 18:-0.520723098626844 19:-0.2695410056464284 20:-1.55167135301848 
6.382054967269635 1:-0.2673673545041615 2:0.9348455799529809 3:0.9348455799529809 4:-0.08157004469438367 5:-0.6072508127281858 6:2.475898988719643 7:-1.807330596662596 8:7.138444570179751 9:2.295966379179092 10:3.468665714068316 11:-0.09173123919104267 12:-0.176378064713144 13:-0.1735240680927798 14:9.385317765157236 15:3.092525456645329 16:4.642756320403064 17:2.580874372874276 18:0.7616729439577157 19:-0.2695410056464284 20:-1.55167135301848 
8955.712315270936 1:-0.09324395300050105 2:-1.112903139929533 3:-1.112903139929533 4:-0.5948866213472156 5:-0.7616499200750588 6:-0.2718095383832057 7:0.3094721723123977 8:-0.1018550944537944 9:-0.4358345543179211 10:-0.3510046221816638 11:-0.06186162031681486 12:-0.1505789176776565 13:-0.1403980102274093 14:-0.1409184537569941 15:-0.4250054252731292 16:-0.3602126396619472 17:0.1931822544093162 18:-0.3717339443019622 19:-0.2695410056464284 20:0.7309312619447557 
637.0158780279638 1:-0.2646250626059158 2:-0.600965959958905 3:-0.600965959958905 4:2.934164843141004 5:1.914601273937403 6:-0.2718095383832057 7:0.3094721723123977 8:-0.1018550944537944 9:-0.4358345543179211 10:-0.3510046221816638 11:-0.06186162031681486 12:-0.09898062360668138 13:-0.05482236074186891 14:-0.1409184537569941 15:-0.4206493498354741 16:-0.3547914658138292 17:0.1931822544093162 18:-0.2039363349611361 19:-0.2695410056464284 20:-1.55167135301848 
41.27395009729139 1:-0.2654016408425872 2:-0.7033533959530307 3:-0.7033533959530307 4:-0.8515449096736316 5:-0.6072508127281858 6:4.307704673454876 7:-4.138493139711007 8:-0.1018550944537944 9:4.558313132074337 10:5.683421967472637 11:-0.09919864390959963 12:-0.1505789176776565 13:-0.1717757483721074 14:-0.1409184537569941 15:3.092525456645329 16:4.086870933409208 17:-0.2438156955129271 18:1.961248821698515 19:-0.2695410056464284 20:0.7309312619447557 
8955.712315270936 1:-0.2701142573356876 2:-1.112903139929533 3:-1.112903139929533 4:0.3248055784891083 5:-0.1955198598031918 6:-0.2718095383832057 7:0.3094721723123977 8:-0.1018550944537944 9:-0.4358345543179211 10:-0.3510046221816638 11:-0.1029323462688781 12:-0.181215404782298 13:-0.1818055825591224 14:-0.1409184537569941 15:-0.4250054252731292 16:-0.3602126396619472 17:-0.8769011510447279 18:-1.095449929518217 19:3.710010660965681 20:-1.55167135301848 
6567.351636186622 1:-0.2636058036702846 2:-1.112903139929533 3:-1.112903139929533 4:-0.3168401423269316 5:1.091139368087415 6:-0.2718095383832057 7:0.3094721723123977 8:-0.1018550944537944 9:-0.4358345543179211 10:-0.3510046221816638 11:-0.03199200144258703 12:-0.1505789176776565 13:-0.1293559909389525 14:-0.1409184537569941 15:-0.4250054252731292 16:-0.3602126396619472 17:0.4705850361594187 18:-0.3717339443019622 19:-0.2695409963808127 20:0.7309312619447557 
55.14359604687053 1:-0.2625622766647574 2:-1.112903139929533 3:-1.112903139929533 4:1.2658859690193 5:0.4735429386999238 6:0.5132500407890369 7:-1.244636189719876 8:-0.1018550944537944 9:2.093808367390359 10:1.616725857442972 11:-0.03199200144258703 12:-0.08285615670950165 13:-0.03273832216495526 14:-0.1409184537569941 15:0.1303941655917664 16:-0.001147896030496031 17:0.4705850361594187 18:0.5193933260689515 19:-0.2695410056464284 20:0.7309312619447557 
100.35292644059723 1:-0.1175120228964816 2:-1.112903139929533 3:-1.112903139929533 4:0.003982718081088321 5:0.9882066298561665 6:0.6440933039844108 7:-0.2800172063894986 8:-0.1018550944537944 9:1.969460440784239 10:1.022199922587677 11:-0.08426383447248573 12:-0.08124371001978369 13:-0.1352713584149115 14:-0.1409184537569941 15:-0.0867812959638204 16:-0.2199148193746172 17:-0.8642147083205747 18:-0.3717339443019622 19:-0.2695410056464284 20:0.7309312619447557 
8955.712315270936 1:-0.2624894724550695 2:0.9348455799529809 3:0.9348455799529809 4:0.4103583412645803 5:-0.2298307725469413 6:-0.2718095383832057 7:0.3094721723123977 8:-0.1018550944537944 9:-0.4358345543179211 10:-0.3510046221816638 11:0.1061549858507167 12:-0.09091839015809151 13:-0.02721731252072685 14:-0.100120868730963 15:-0.4099410533702126 16:-0.3387866486576941 17:1.113678034852787 18:-0.02633768899731692 19:-0.2695410056464284 20:-1.55167135301848 
170.81577766918116 1:-0.1864333414010664 2:-1.112903139929533 3:-1.112903139929533 4:-0.5521102399594796 5:-0.4528517053813131 6:-0.0101230119924581 7:-0.3604021216670306 8:-0.1018550944537944 9:1.935372212989951 10:0.3607535454685982 11:-0.09919864390959963 12:-0.1312295574010408 13:-0.1183139716504956 14:-0.1409184537569941 15:3.092525456645329 16:0.473615520348888 17:-0.1805910114999057 18:0.6896621865901013 19:-0.2695410056464284 20:0.7309312619447557 
4.554357885367103 1:-0.2695587612157686 2:-1.112903139929533 3:-1.112903139929533 4:-0.5307220492656116 5:-0.4185407926375636 6:4.700234463040998 7:-4.165288111470184 8:-0.1018550944537944 9:3.088369465710221 10:3.555529491997692 11:-0.09546494155032116 12:-0.1634784911954003 13:-0.1536986243703232 14:5.488220872052358 15:2.213142736165715 16:2.6684440662451 17:0.6780455847367108 18:3.367330183417629 19:-0.2695410056464284 20:-1.095150830025833 
66.61410710684524 1:-0.2696267118114773 2:-1.112903139929533 3:-1.112903139929533 4:0.1537000529381643 5:-0.3156080544063151 6:1.429152883156654 7:-3.388233930454046 8:-0.1018550944537944 9:3.41250404912808 10:3.455227323695686 11:-0.06186162031681486 12:-0.1505789176776565 13:-0.1472992722826948 14:-0.1409184537569941 15:1.821794421527759 16:1.592662402109512 17:0.1931822544093162 18:1.671832155713918 19:-0.2695410056464284 20:0.2744107389521085 
1338.3008426225717 1:-0.2444340284524599 2:-0.7033533959530307 3:-0.7033533959530307 4:-0.4023929051024036 5:-0.4013853362656888 6:0.5132500407890369 7:-1.2178412179607 8:-0.1018550944537944 9:1.938706930926349 10:0.8968125425247186 11:-0.08426383447248573 12:-0.1376793441599127 13:-0.1273842017802995 14:-0.1409184537569941 15:2.036843892523648 16:0.7051831671973959 17:-0.8551491977728491 18:-0.3717339443019622 19:-0.2695410056464284 20:0.2744107389521085 
1285.4562879181137 1:-0.236910926784706 2:-1.112903139929533 3:-1.112903139929533 4:-0.5521102399594796 5:-0.5214735308688122 6:0.6440933039844108 7:-0.7623266980546886 8:-0.1018550944537944 9:2.045343800048045 10:2.137772193830452 11:-0.07306272739465029 12:-0.1505789176776565 13:-0.14959969296779 14:-0.1409184537569941 15:2.938540642591467 16:2.829092043684093 17:-0.5101274491109378 18:-0.3717339443019622 19:-0.2695410056464284 20:0.7309312619447557 
420.02842880707453 1:-0.1277046122527934 2:-1.112903139929533 3:-1.112903139929533 4:0.7525693923664682 5:2.429264965093646 6:-0.2718095383832057 7:0.3094721723123977 8:-0.1018550944537944 9:-0.4358345543179211 10:-0.3510046221816638 11:-0.03199200144258703 12:-0.1505789176776565 13:-0.1293559909389525 14:-0.1409184537569941 15:-0.4250054252731292 16:-0.3602126396619472 17:0.4705850361594187 18:-0.3717339443019622 19:-0.2695410000870589 20:-0.1821097840405385 
126.23656081798993 1:-0.2566165995402422 2:-1.112903139929533 3:-1.112903139929533 4:-0.08157004469438367 5:-0.1268980343156929 6:2.083369199133522 7:-0.3871970934262072 8:-0.1018550944537944 9:1.973536207150947 10:2.280304674627725 11:-0.0879975368317642 12:-0.1328420040907588 13:-0.1156987565558611 14:-0.1409184537569941 15:2.23853165660078 16:3.224094823814344 17:0.2358897724515675 18:0.7718118923258276 19:-0.2695410056464284 20:0.7309312619447557 
1379.0683942426774 1:-0.2276890602242334 2:-1.112903139929533 3:-1.112903139929533 4:1.415603303876376 5:0.5593202205592976 6:-0.2718095383832057 7:0.3094721723123977 8:-0.1018550944537944 9:-0.4358345543179211 10:-0.3510046221816638 11:0.0986875811321597 12:0.06871383212398773 13:0.1240928580414081 14:-0.1409184537569941 15:-0.4093938655394225 16:-0.3477227468491576 17:2.302846478231194 18:0.8956468378235131 19:-0.2695410056464284 20:-1.095150830025833 
427.5891836233483 1:-0.2652074962834193 2:-1.112903139929533 3:-1.112903139929533 4:-0.6376630027349516 5:-0.7101835509594345 6:0.9057798303751582 7:-0.4407870369445627 8:-0.1018550944537944 9:1.387663318147384 10:2.235564339311091 11:-0.0693290250353718 12:-0.1634784911954003 13:-0.1560408708860564 14:-0.1409184537569941 15:2.490531813731324 16:3.095417364809055 17:-0.2369862566758063 18:-0.520723098626844 19:-0.2695410056464284 20:-1.55167135301848 
8955.712315270936 1:-0.2422499021618217 2:0.6276832719706037 3:0.6276832719706037 4:-0.3596165237146676 5:-0.538628987240687 6:-0.2718095383832057 7:0.3094721723123977 8:-0.1018550944537944 9:-0.4358345543179211 10:-0.3510046221816638 11:0.1061549858507167 12:-0.09091839015809151 13:-0.02721731252072685 14:-0.1409184537569941 15:-0.4250054252731292 16:-0.3602126396619472 17:0.1523512306752774 18:-0.5426528704120231 19:-0.2695410056464284 20:-1.55167135301848 
8955.712315270936 1:-0.245647431947259 2:-0.9081282679412821 3:-0.9081282679412821 4:0.3034173877952403 5:0.8166520661374188 6:-0.2718095383832057 7:0.3094721723123977 8:-0.1018550944537944 9:-0.4358345543179211 10:-0.3510046221816638 11:-0.03199200144258703 12:-0.1263922173318869 13:-0.0948496806625249 14:-0.1409184537569941 15:-0.4250054252731292 16:-0.3602126396619472 17:-0.5248375367009442 18:-0.3717339443019622 19:-0.2695410056464284 20:0.2744107389521085 
229.63384218594447 1:-0.2693718970775695 2:-1.112903139929533 3:-1.112903139929533 4:1.757814354978264 5:1.228383019062413 6:-0.2718095383832057 7:0.3094721723123977 8:-0.1018550944537944 9:-0.4358345543179211 10:-0.3510046221816638 11:0.1285572000063875 12:-0.08124371001978369 13:-0.01065428358804161 14:-0.1409184537569941 15:-0.4250054252731292 16:-0.3602126396619472 17:-0.7850864360779684 18:-1.046137530229444 19:-0.2695409963808127 20:0.7309312619447557 
4.448885925087585 1:-0.2676100352031214 2:-1.112903139929533 3:-1.112903139929533 4:-1.129591388693916 5:-1.173380873000053 6:0.2515635143982895 7:-0.1460423475936134 8:7.928543122482188 9:1.749591371511083 10:3.438186986868234 11:-0.0879975368317642 12:-0.1715407246439901 13:-0.1670828901745133 14:1.241922246486432 15:2.562486481956375 16:1.540311238626395 17:-0.7286682434064586 18:-1.002533415486099 19:-0.2695410056464284 20:-0.1821097840405385 
2192.4611912677315 1:0.05746076105353821 2:-1.112903139929533 3:-1.112903139929533 4:-0.2740637609391957 5:0.3877656568405499 6:-0.1409662751878319 7:-0.3604021216670306 8:-0.1018550944537944 9:1.107324696960882 10:0.06593219257778428 11:-0.0879975368317642 12:-0.1505789176776565 13:-0.1364544319101033 14:-0.1409184537569941 15:0.7036141180017207 16:0.07802122726212879 17:-0.7420124184655564 18:-0.3717339443019622 19:-0.2695410056464284 20:0.2744107389521085 
435.84947152021704 1:-0.1463910260726985 2:-1.112903139929533 3:-1.112903139929533 4:-0.4879456678778756 5:0.01034561665930533 6:0.2515635143982895 7:0.121907369998157 8:-0.1018550944537944 9:1.368470163802339 10:-0.1180694078659023 11:-0.0879975368317642 12:-0.1296171107113229 13:-0.1607686320181831 14:-0.1409184537569941 15:2.613084433535179 16:0.9832026802959288 17:-0.5087059012849192 18:0.3969204903137271 19:-0.2695410056464284 20:0.7309312619447557 
8955.712315270936 1:-0.2332707163003089 2:-1.112903139929533 3:-1.112903139929533 4:-0.5307220492656116 5:-0.1097425779438181 6:-0.2718095383832057 7:0.3094721723123977 8:-0.1018550944537944 9:-0.4358345543179211 10:-0.3510046221816638 11:-0.03199200144258703 12:-0.1505789176776565 13:-0.1293559909389525 14:-0.1409184537569941 15:-0.4250054252731292 16:-0.3602126396619472 17:0.4705850361594187 18:-0.3717339443019622 19:-0.2695409982339358 20:0.2744107389521085 
8955.712315270936 1:-0.26973106451203 2:-0.7033533959530307 3:-0.7033533959530307 4:-0.4879456678778756 5:-0.8645826583063073 6:-0.2718095383832057 7:0.3094721723123977 8:-0.1018550944537944 9:-0.4358345543179211 10:-0.3510046221816638 11:-0.03199200144258703 12:-0.1505789176776565 13:-0.1293559909389525 14:-0.1409184537569941 15:-0.4250054252731292 16:-0.3602126396619472 17:0.4705850361594187 18:-0.3717339443019622 19:-0.2695409963808127 20:0.7309312619447557 
8955.712315270936 1:-0.2472248564904977 2:0.525295835976478 3:0.525295835976478 4:-0.5734984306533476 5:-0.5214735308688122 6:-0.2718095383832057 7:0.3094721723123977 8:-0.1018550944537944 9:-0.4358345543179211 10:-0.3510046221816638 11:-0.03199200144258703 12:-0.1505789176776565 13:-0.1293559909389525 14:-0.1409184537569941 15:-0.4250054252731292 16:-0.3602126396619472 17:0.4705850361594187 18:-0.3717339443019622 19:-0.2695409963808127 20:0.7309312619447557 
7183.209159500557 1:-0.2701580830431127 2:2.368269683870741 3:2.368269683870741 4:-1.364861486326463 5:-1.530298050688081 6:-0.2718095383832057 7:0.3094721723123977 8:-0.1018550944537944 9:-0.4358345543179211 10:-0.3510046221816638 11:-0.06186162031681486 12:-0.1634784911954003 13:-0.1514400295158661 14:-0.1409184537569941 15:-0.4250054252731292 16:-0.3602126396619472 17:0.1931822544093162 18:-0.520723098626844 19:-0.2695410056464284 20:-1.55167135301848 
6.882852098570779 1:-0.2636543398100765 2:-1.112903139929533 3:-1.112903139929533 4:-0.7232157655104235 5:-0.07543166520006853 6:-0.1409662751878319 7:0.3094721723123977 8:7.979447838646864 9:1.234710922131275 10:2.808477048287779 11:-0.09919864390959963 12:-0.17960295809258 13:-0.1790450777370082 14:9.385317765157236 15:3.092525456645329 16:4.642756320403064 17:0.5572220676575832 18:-0.3252024063891312 19:-0.2695409741433348 20:6.20917753785652 
75.15457268651832 1:-0.2481713112164409 2:0.7300707079647294 3:0.7300707079647294 4:0.1323118622442963 5:-0.4528517053813131 6:-0.2718095383832057 7:0.3094721723123977 8:-0.1018550944537944 9:-0.4358345543179211 10:-0.3510046221816638 11:-0.03199200144258703 12:-0.08124371001978369 13:-0.0158152273859073 14:-0.1409184537569941 15:2.546410711079305 16:3.682270448447871 17:0.4705850361594187 18:0.4778414421885612 19:-0.2695410056464284 20:0.7309312619447557 
5.06569959999576 1:-0.2701576292302057 2:-1.112903139929533 3:-1.112903139929533 4:1.073392252774488 5:0.3877656568405499 6:3.260958567891886 7:-3.656183648045819 8:-0.1018550944537944 9:4.827239607434056 10:5.373908720379137 11:-0.09919864390959963 12:-0.01835828912078277 13:-0.1418382736128602 14:-0.1409184537569941 15:3.092525456645329 16:3.772674762130889 17:0.1931822544093162 18:1.354703889270376 19:-0.2695410056464284 20:-1.095150830025833 
6913.641411695225 1:-0.2624166682453815 2:-0.5668368146275298 3:-0.5668368146275298 4:1.351438731794772 5:0.7823411533936693 6:-0.2718095383832057 7:0.3094721723123977 8:-0.1018550944537944 9:-0.4358345543179211 10:-0.3510046221816638 11:-0.08426383447248573 12:-0.06834413650203991 13:-0.04838118282360242 14:-0.1409184537569941 15:-0.4250054252731292 16:-0.3602126396619472 17:-0.1037413345138931 18:-0.5156768996548304 19:-0.2695410056464284 20:-1.095150830025833 
1301.7078195739766 1:-0.2696825283722381 2:0.9348455799529809 3:0.9348455799529809 4:0.9022867272235443 5:0.181900180378053 6:-0.2718095383832057 7:0.3094721723123977 8:-0.1018550944537944 9:-0.4358345543179211 10:-0.3510046221816638 11:0.04268204574298253 12:0.03162755826047436 13:0.1674794687566221 14:-0.1409184537569941 15:-0.3892944525843229 16:-0.3572249007204371 17:1.890012777727561 18:2.063200102497734 19:-0.2695410056464284 20:-1.095150830025833 
1272.89010853291 1:-0.2582668282931688 2:-1.112903139929533 3:-1.112903139929533 4:-0.03879366330664768 5:-0.3327635107781899 6:0.6440933039844108 7:-1.566175850830002 8:-0.1018550944537944 9:2.262841514344208 10:1.125447162562684 11:-0.05066051323897942 12:-0.0925308368478095 13:-0.07491270139170007 14:-0.1409184537569941 15:1.452217533347524 16:1.267898359469927 17:-0.3049863310340838 18:-0.09335930491272457 19:-0.2695410056464284 20:0.2744107389521085 
2696.7931756621947 1:-0.2569320844488899 2:-1.112903139929533 3:-1.112903139929533 4:-0.2954519516330636 5:-0.538628987240687 6:-0.2718095383832057 7:0.3094721723123977 8:-0.1018550944537944 9:-0.4358345543179211 10:-0.3510046221816638 11:-0.05812791795753638 12:-0.1505789176776565 13:-0.135797168857219 14:-0.1409184537569941 15:2.62199105006767 16:1.084363996553533 17:-0.2119558218428985 18:-0.3717339443019622 19:-0.2695410056464284 20:0.2744107389521085 
791.2985822392413 1:-0.2598927889761996 2:-0.8398699772785316 3:-0.8398699772785316 4:1.37282692248864 5:1.554336690128033 6:-0.2718095383832057 7:0.3094721723123977 8:-0.1018550944537944 9:-0.4358345543179211 10:-0.3510046221816638 11:-0.08426383447248573 12:-0.1054304103655533 13:-0.07955423047468803 14:-0.1409184537569941 15:-0.4250054252731292 16:-0.3602126396619472 17:-0.2119558218428985 18:3.634891026290736 19:-0.2695410056464284 20:-1.095150830025833 
57.3404980468817 1:-0.2545538135990838 2:-1.112903139929533 3:-1.112903139929533 4:0.5600756761216563 5:-0.07543166520006853 6:2.868428778305765 7:-1.887715511940128 8:-0.1018550944537944 9:3.77791503011424 10:4.285745021402526 11:-0.06186162031681486 12:-0.1586411511262464 13:-0.1436185991865425 14:-0.1409184537569941 15:2.780845454658094 16:3.94614032152013 17:0.1931822544093162 18:1.911231499362733 19:-0.2695410056464284 20:-1.55167135301848 
328.7441109214829 1:-0.2697383449329989 2:-1.112903139929533 3:-1.112903139929533 4:0.02537090877495632 5:0.9195848043686674 6:-0.2718095383832057 7:0.3094721723123977 8:-0.1018550944537944 9:-0.4358345543179211 10:-0.3510046221816638 11:-0.08053013211320724 12:-0.1489664709879385 13:-0.1588013757081707 14:-0.1409184537569941 15:-0.4250054252731292 16:-0.3602126396619472 17:-0.07820729295180727 18:1.298012566132938 19:-0.2695410056464284 20:-1.55167135301848 
1172.93457125414 1:-0.248122775076649 2:-1.112903139929533 3:-1.112903139929533 4:-0.4879456678778756 5:-0.3156080544063151 6:0.3824067775936633 7:-0.4675820087037393 8:-0.1018550944537944 9:1.72491445878174 10:1.443614977241855 11:-0.03199200144258703 12:-0.1118801971244252 13:-0.096229933073582 14:-0.1409184537569941 15:1.32947873441698 16:0.8874849764380216 17:-0.2595059630907428 18:-0.3717339443019622 19:-0.2695410056464284 20:0.7309312619447557 
48.24953304352074 1:-0.2672945502944736 2:-1.112903139929533 3:-1.112903139929533 4:-0.6804393841226876 5:-0.7616499200750588 6:3.130115304696512 7:-3.62938867628664 8:7.516645102248295 9:2.348654922574176 10:3.594353089486368 11:-0.09919864390959963 12:-0.17960295809258 13:-0.1790450777370082 14:9.385317765157236 15:3.092525456645329 16:4.642756320403064 17:1.288626769758895 18:0.06762482968913956 19:-0.2695410056464284 20:-1.55167135301848 
6539.685592836676 1:-0.2592860872288 2:-1.112903139929533 3:-1.112903139929533 4:-0.08157004469438367 5:0.3534547440968004 6:-0.2718095383832057 7:0.3094721723123977 8:-0.1018550944537944 9:-0.4358345543179211 10:-0.3510046221816638 11:0.0650842598986534 12:-0.1086553037449892 13:-0.05758286556398311 14:-0.1250148879111439 15:-0.4191330867430043 16:-0.3518604379683588 17:-0.7315703586964833 18:-1.01739479354328 19:-0.2695410056464284 20:-1.55167135301848 
843.5158587072217 1:-0.1551275312352515 2:-1.112903139929533 3:-1.112903139929533 4:-0.3810047144085356 5:-0.384229879893814 6:0.2515635143982895 7:-0.8695065850913972 8:-0.1018550944537944 9:1.821621278937274 10:1.659862574519191 11:-0.0879975368317642 12:-0.1473540242982206 13:-0.1409501111918322 14:-0.1409184537569941 15:2.534187254699729 16:1.689911306087068 17:-0.8030939983056867 18:-0.520723098626844 19:-0.2695410056464284 20:-0.6386303070331856 
4460.434095433667 1:-0.2446767091514197 2:-1.112903139929533 3:-1.112903139929533 4:0.1537000529381643 5:0.233366549493677 6:-0.1409662751878319 7:0.3094721723123977 8:-0.1018550944537944 9:1.385588382542514 10:0.5102039567393808 11:-0.03199200144258703 12:0.1235370195743988 13:0.005908745344643623 14:-0.1409184537569941 15:-0.4066475858306193 16:-0.3520937956318355 17:-0.8087907450450166 18:-0.3717339443019622 19:-0.2695410056464284 20:0.7309312619447557 
721.1281157145719 1:0.2030691804294216 2:-1.112903139929533 3:-1.112903139929533 4:-0.4237810957962716 5:1.485714864640534 6:-0.0101230119924581 7:-0.06565743231608136 8:-0.1018550944537944 9:1.276802472972917 10:0.1043542895583539 11:-0.09173123919104267 12:-0.1280046640216049 13:-0.122454728883667 14:-0.1409184537569941 15:-0.04781382653592467 16:-0.3001617408409553 17:-0.8444389855803774 18:-0.3717339443019622 19:-0.2695410056464284 20:2.100492830922696 
29.83072275645193 1:-0.2504039736468712 2:-1.112903139929533 3:-1.112903139929533 4:-0.4451692864901396 5:-0.6244062691000607 6:0.3824067775936633 7:-0.8695065850913972 8:-0.1018550944537944 9:1.900246517393229 10:2.852648778158527 11:-0.09173123919104267 12:-0.123167323952451 13:-0.09761018548463911 14:7.117166419655735 15:2.309692128280903 16:3.516375436959759 17:-0.6423122258664397 18:-0.1606513566251968 19:-0.2695410056464284 20:-1.095150830025833 
0.3563679510003199 1:-0.2677823384993828 2:-1.112903139929533 3:-1.112903139929533 4:-0.3382283330207996 5:-0.4185407926375636 6:5.746980568603989 7:-4.781572461931258 8:-0.1018550944537944 9:2.653744561333052 10:2.928387761200788 11:-0.09919864390959963 12:-0.1650909378851182 13:-0.1565297102816392 14:-0.1409184537569941 15:3.092525456645329 16:3.08274211111876 17:0.009418461936308797 18:2.397160470285525 19:-0.2695410056464284 20:-1.095150830025833 
2169.2870126735565 1:-0.2649648155844595 2:-1.112903139929533 3:-1.112903139929533 4:3.062493987304212 5:2.600819528812393 6:-0.2718095383832057 7:0.3094721723123977 8:-0.1018550944537944 9:-0.4358345543179211 10:-0.3510046221816638 11:-0.01332348964619464 12:-0.1425166842290666 13:-0.1155534668283815 14:-0.1409184537569941 15:-0.4250054252731292 16:-0.3602126396619472 17:-0.8533259501153071 18:-1.082788018821598 19:-0.2695410037933053 20:-1.095150830025833 
149.4442891965174 1:-0.1296460578444719 2:-1.112903139929533 3:-1.112903139929533 4:0.08953548085656032 5:-0.3670744235219393 6:4.961920989431746 7:-5.826576360539166 8:-0.1018550944537944 9:3.636967618669162 10:3.621293717963856 11:-0.06186162031681486 12:-0.1086553037449892 13:-0.07475934001269373 14:-0.1409184537569941 15:2.796806540870412 16:3.2038523132246 17:0.1931822544093162 18:1.666423262437678 19:-0.2695410056464284 20:0.7309312619447557 
2962.225476525858 1:0.04047311212635183 2:-1.112903139929533 3:-1.112903139929533 4:-1.150979579387784 5:-1.070448134768804 6:-0.2718095383832057 7:0.3094721723123977 8:-0.1018550944537944 9:-0.4358345543179211 10:-0.3510046221816638 11:-0.06186162031681486 12:0.5911465595926106 13:0.115776837264789 14:-0.1409184537569941 15:-0.4116375603762378 16:-0.3564100283765552 17:-0.6281058894592706 18:-0.3717339443019622 19:-0.2695410056464284 20:-0.1821097840405385 
8955.712315270936 1:-0.2489721575230083 2:-1.112903139929533 3:-1.112903139929533 4:-0.08157004469438367 5:-0.6415617254719355 6:-0.2718095383832057 7:0.3094721723123977 8:-0.1018550944537944 9:-0.4358345543179211 10:-0.3510046221816638 11:-0.1029323462688781 12:-0.181215404782298 13:-0.1818055825591224 14:-0.1409184537569941 15:-0.4250054252731292 16:-0.3602126396619472 17:-0.8769011510447279 18:-1.095449929518217 19:3.710010660965681 20:-1.55167135301848 
900.412370626748 1:-0.2449193898503795 2:-1.112903139929533 3:-1.112903139929533 4:-0.4451692864901396 5:0.01034561665930533 6:1.821682672742775 7:-1.405406020274938 8:-0.1018550944537944 9:2.076690148650184 10:2.325313826739359 11:-0.03199200144258703 12:-0.1409042375393487 13:-0.1166151994522715 14:-0.1409184537569941 15:2.638177731708274 16:2.991135172596997 17:0.4705850361594187 18:-0.2836047700919262 19:-0.2695410056464284 20:0.7309312619447557 
27.41630703323857 1:-0.2699769000600764 2:-1.112903139929533 3:-1.112903139929533 4:-0.1885109981637237 5:-0.4356962490094383 6:8.363845832511466 7:-5.156702066559737 8:-0.1018550944537944 9:4.746020699472013 10:7.404724904524227 11:-0.09919864390959963 12:-0.1505789176776565 13:-0.1777374701896909 14:-0.1409184537569941 15:3.092525456645329 16:4.511099242506617 17:0.4705850361594187 18:4.854923554396245 19:-0.2695410056464284 20:0.7309312619447557 
6138.918483266774 1:-0.2427352635597413 2:-1.112903139929533 3:-1.112903139929533 4:-0.9157094817552356 5:-0.7914462390367358 6:-0.2718095383832057 7:0.3094721723123977 8:-0.1018550944537944 9:-0.4358345543179211 10:-0.3510046221816638 11:-0.06186162031681486 12:-0.02642052256937263 13:-0.1081921206360769 14:-0.1409184537569941 15:0.08329362455020486 16:-0.2798846907535948 17:-0.8111400774529527 18:-0.3717339443019622 19:-0.2695410056464284 20:0.7309312619447557 
8955.712315270936 1:-0.2407938179680628 2:-1.112903139929533 3:-1.112903139929533 4:-0.5948866213472156 5:0.4392320259561743 6:-0.2718095383832057 7:0.3094721723123977 8:-0.1018550944537944 9:-0.4358345543179211 10:-0.3510046221816638 11:-0.03199200144258703 12:-0.1392917908496307 13:-0.1245251075002526 14:-0.1409184537569941 15:-0.3240926564335351 16:-0.3243306909934999 17:-0.5163212093017054 18:-0.3717339443019622 19:-0.2695410056464284 20:0.2744107389521085 
12.319804877990506 1:-0.2446767091514197 2:-1.112903139929533 3:-1.112903139929533 4:0.04675909946882432 5:-0.5214735308688122 6:3.39180183108726 7:-4.031313252674298 8:-0.1018550944537944 9:2.060905817084568 10:2.040295393856557 11:-0.03199200144258703 12:0.2057718007500153 13:0.4400441370358045 14:-0.1409184537569941 15:1.976542402272101 16:2.827784376221048 17:0.4705850361594187 18:0.5714287201231563 19:-0.2695410056464284 20:0.7309312619447557 
4964.841210063024 1:-0.2579998795243131 2:-1.112903139929533 3:-1.112903139929533 4:-0.5948866213472156 5:-0.4013853362656888 6:-0.2718095383832057 7:0.3094721723123977 8:-0.1018550944537944 9:-0.4358345543179211 10:-0.3510046221816638 11:-0.1029323462688781 12:-0.181215404782298 13:-0.1818055825591224 14:-0.1409184537569941 15:-0.4250054252731292 16:-0.3602126396619472 17:-0.8769011510447279 18:-1.095449929518217 19:3.710010660965681 20:-1.55167135301848 
1.0250897549453535 1:-0.264285309627372 2:-1.112903139929533 3:-1.112903139929533 4:-0.1671228074698557 5:-0.4013853362656888 6:2.606742251915017 7:-2.155665229531898 8:-0.1018550944537944 9:3.421544839977869 10:2.116578973583483 11:-0.09546494155032116 12:-0.1602535978159643 13:-0.148087987946156 14:4.622199655700121 15:2.010208326720012 16:2.209993948024203 17:-0.08986866542372463 18:0.6428613655573735 19:-0.2695410056464284 20:-1.095150830025833 
53.79709708237669 1:-0.2257476146325549 2:-1.112903139929533 3:-1.112903139929533 4:-1.001262244530708 5:0.0961228985186792 6:0.6440933039844108 7:-1.271431161479053 8:7.239537034675798 9:1.684527319329812 10:3.186377760000613 11:0.001611319790919271 12:-0.008683608982474939 13:0.04087513975809025 14:1.549540991351979 15:1.698945131156039 16:1.94964181450876 17:-0.7415637969900211 18:-0.9797924194354838 19:-0.2695410056464284 20:-1.095150830025833 
5.909731726792331 1:-0.2623438640356936 2:0.1157460919999751 3:0.1157460919999751 4:-0.6590511934288196 5:-0.2984525980344404 6:8.23300256931609 7:-6.228500936926823 8:-0.1018550944537944 9:4.43277952797972 10:6.615222890546492 11:-0.09919864390959963 12:-0.1505789176776565 13:-0.1778331487907142 14:-0.1409184537569941 15:3.092525456645329 16:4.520732687230748 17:0.4705850361594187 18:4.854923554396245 19:-0.2695410019401821 20:0.7309312619447557 
8955.712315270936 1:-0.2691753257114121 2:-0.1572870706510268 3:-0.1572870706510268 4:1.287274159713168 5:0.5250093078155481 6:-0.2718095383832057 7:0.3094721723123977 8:-0.1018550944537944 9:-0.4358345543179211 10:-0.3510046221816638 11:-0.1029323462688781 12:-0.181215404782298 13:-0.1818055825591224 14:-0.1409184537569941 15:-0.4250054252731292 16:-0.3602126396619472 17:-0.8769011510447279 18:-1.095449929518217 19:3.710010660965681 20:-1.55167135301848 
216.8062282443365 1:-0.2479043624475852 2:-1.112903139929533 3:-1.112903139929533 4:-0.4023929051024036 5:-0.5043180744969374 6:0.2515635143982895 7:-0.65514681101798 8:-0.1018550944537944 9:1.465473403329997 10:1.869775230949913 11:-0.08426383447248573 12:-0.01835828912078277 13:-0.06678454830436381 14:-0.1409184537569941 15:0.909230408414805 16:0.7735804070465688 17:-0.8173104000374811 18:-0.3717339443019622 19:-0.2695410056464284 20:0.7309312619447557 
8955.712315270936 1:-0.1716298187645182 2:0.3205209639882265 3:0.3205209639882265 4:-0.3168401423269316 5:-0.5469975025440406 6:-0.2718095383832057 7:0.3094721723123977 8:-0.1018550944537944 9:-0.4358345543179211 10:-0.3510046221816638 11:-0.06186162031681486 12:-0.008683608982474939 13:0.1003180102609495 14:-0.1409184537569941 15:-0.4237787362090187 16:-0.3585551608390047 17:0.1931822544093162 18:0.6968313065690719 19:-0.2695410056464284 20:-1.55167135301848 
968.8538770884552 1:-0.269580602478675 2:-1.112903139929533 3:-1.112903139929533 4:-1.193755960775519 5:-1.310624523975051 6:-0.2718095383832057 7:0.3094721723123977 8:-0.1018550944537944 9:-0.4358345543179211 10:-0.3510046221816638 11:-0.06559532267609333 12:-0.1650909378851182 13:-0.1542005343379803 14:-0.06378293587474144 15:-0.3965233931243902 16:-0.3197027685213139 17:1.412451456065929 18:0.13412933689357 19:-0.2695410056464284 20:-1.55167135301848 
130.40416527052952 1:0.3462507928157069 2:-0.7033533959530307 3:-0.7033533959530307 4:-0.6376630027349516 5:-0.191335602151515 6:-0.1122445832668962 7:-0.3604021216670306 8:-0.1018550944537944 9:1.180392072189508 10:-0.0113658319539088 11:-0.06186162031681486 12:-0.08446860339921963 13:-0.1241417040527368 14:-0.1409184537569941 15:0.8764137165712309 16:-0.1545456600153003 17:-0.7738181116951877 18:-0.3717339443019622 19:-0.2695410056464284 20:0.2744107389521085 
8955.712315270936 1:-0.2603053461644312 2:0.3205209639882265 3:0.3205209639882265 4:0.1964764343259003 5:0.7480302406499197 6:-0.2718095383832057 7:0.3094721723123977 8:-0.1018550944537944 9:-0.4358345543179211 10:-0.3510046221816638 11:-0.06186162031681486 12:0.1058001059875011 13:-0.04598874531110344 14:-0.1409184537569941 15:-0.4250054252731292 16:-0.3602126396619472 17:-0.6558236988993715 18:-0.3717339443019622 19:-0.2695410037933053 20:-0.1821097840405385 
1129.1937373078904 1:-0.2250195725356755 2:-0.2938036519765277 3:-0.2938036519765277 4:4.36717361963016 5:3.458592347406131 6:-0.2718095383832057 7:0.3094721723123977 8:-0.1018550944537944 9:-0.4358345543179211 10:-0.3510046221816638 11:-0.08053013211320724 12:0.1719104202659379 13:0.4037776338996847 14:-0.1409184537569941 15:-0.4250054252731292 16:-0.3602126396619472 17:0.7200928257380353 18:1.112065522779998 19:-0.2695410056464284 20:-1.55167135301848 
36.60697458289874 1:-0.2677944725343308 2:-1.112903139929533 3:-1.112903139929533 4:0.9022867272235443 5:0.1647447240061783 6:2.34505572552427 7:-2.611179749437909 8:-0.1018550944537944 9:2.838932564067672 10:3.627895893124894 11:-0.09919864390959963 12:0.6782186808373811 13:-0.0991357276231759 14:-0.1409184537569941 15:3.092525456645329 16:4.116128008817274 17:0.357618312343137 18:0.5799558711407634 19:-0.2695410056464284 20:0.7309312619447557 
83.07311476969089 1:-0.2602325419547433 2:-1.112903139929533 3:-1.112903139929533 4:-0.5948866213472156 5:-0.8474272019344324 6:0.3824067775936633 7:-0.3604021216670306 8:-0.1018550944537944 9:1.404040488457248 10:1.79806332682342 11:-0.04319310852042246 12:-0.1505789176776565 13:-0.1364544319101033 14:-0.1409184537569941 15:1.54203491467573 16:2.037827047262482 17:-0.6720408921542415 18:-0.3717339443019622 19:-0.2695410056464284 20:0.7309312619447557 
3.2131290260340593 1:-0.2007515026396949 2:-1.112903139929533 3:-1.112903139929533 4:-0.08157004469438367 5:-0.05827620882819375 6:1.690839409547401 7:-1.137456302683168 8:-0.1018550944537944 9:1.787236631770862 10:2.571874482523202 11:-0.07306272739465029 12:-0.1457415776085026 13:-0.1268255281853478 14:-0.1409184537569941 15:2.307485234713873 16:3.078445239001812 17:-0.7306136111558541 18:-0.520723098626844 19:-0.2695410056464284 20:-1.095150830025833 
1604.8685399248823 1:-0.2595773040675518 2:-1.112903139929533 3:-1.112903139929533 4:-0.5093338585717436 5:-0.3499189671500645 6:0.5132500407890369 7:-0.5211719522220923 8:-0.1018550944537944 9:1.529722302237927 10:1.210193897256442 11:-0.08426383447248573 12:-0.1505789176776565 13:-0.1602736449466316 14:-0.1409184537569941 15:1.791520814951265 16:2.16183190835105 17:0.4705850361594187 18:-0.2296241003158197 19:-0.2695410056464284 20:0.7309312619447557 
708.8455299435607 1:-0.2670033334557219 2:1.480911905254985 3:1.480911905254985 4:-0.2740637609391957 5:-0.7101835509594345 6:-0.2718095383832057 7:0.3094721723123977 8:-0.1018550944537944 9:-0.4358345543179211 10:-0.3510046221816638 11:-0.07679642975392877 12:-0.1699282779542722 13:-0.162482048804323 14:0.8618432609682922 15:-0.05473901389143392 16:0.1664156758475302 17:1.599580193353711 18:0.2346335645098072 19:-0.2695410056464284 20:-1.55167135301848 
8955.712315270936 1:-0.2687190859973677 2:-1.112903139929533 3:-1.112903139929533 4:0.08953548085656032 5:-0.3670744235219393 6:-0.2718095383832057 7:0.3094721723123977 8:-0.1018550944537944 9:-0.4358345543179211 10:-0.3510046221816638 11:-0.06186162031681486 12:-0.1634784911954003 13:-0.1514400295158661 14:-0.1409184537569941 15:-0.4250054252731292 16:-0.3602126396619472 17:0.1931822544093162 18:-0.520723098626844 19:-0.2695410056464284 20:-1.55167135301848 
840.4562756827527 1:-0.2635087313907006 2:-1.112903139929533 3:-1.112903139929533 4:0.02537090877495632 5:0.9367402607405422 6:-0.2718095383832057 7:0.3094721723123977 8:-0.1018550944537944 9:-0.4358345543179211 10:-0.3510046221816638 11:-0.06559532267609333 12:0.8185015428428447 13:0.4071021128252416 14:-0.1409184537569941 15:-0.4250054252731292 16:-0.3602126396619472 17:-0.422543338149206 18:-0.7319411923714336 19:-0.2695410056464284 20:-0.1821097840405385 
2544.9461377032912 1:-0.2631447103422609 2:-1.112903139929533 3:-1.112903139929533 4:1.287274159713168 5:0.4906983950717986 6:-0.2718095383832057 7:0.3094721723123977 8:-0.1018550944537944 9:-0.4358345543179211 10:-0.3510046221816638 11:-0.1029323462688781 12:-0.181215404782298 13:-0.1818055825591224 14:-0.1409184537569941 15:-0.4250054252731292 16:-0.3602126396619472 17:-0.8769011510447279 18:-1.095449929518217 19:3.710010660965681 20:-1.55167135301848 
247.73636846668126 1:-0.2625865447346534 2:-1.112903139929533 3:-1.112903139929533 4:4.131903521997612 5:3.149794132712386 6:-0.2718095383832057 7:0.3094721723123977 8:-0.1018550944537944 9:-0.4358345543179211 10:-0.3510046221816638 11:0.4421881981857797 12:0.05420181191652598 13:0.2212281214695517 14:-0.1409184537569941 15:-0.4250054252731292 16:-0.3602126396619472 17:2.685173877125946 18:0.8176907489592513 19:-0.2695410056464284 20:-1.55167135301848 
2013.2398918548827 1:-0.2701576777663455 2:-1.112903139929533 3:-1.112903139929533 4:1.180333206243828 5:0.4049211132124247 6:-0.2718095383832057 7:0.3094721723123977 8:-0.1018550944537944 9:-0.4358345543179211 10:-0.3510046221816638 11:0.4421881981857797 12:0.05420181191652598 13:0.2212281214695517 14:-0.1409184537569941 15:-0.4250054252731292 16:-0.3602126396619472 17:2.685173877125946 18:0.8176907489592513 19:-0.2695410056464284 20:-1.55167135301848 
314.02893222218245 1:-0.2531948016849089 2:-1.112903139929533 3:-1.112903139929533 4:-0.4665574771840076 5:0.7823411533936693 6:0.1207202512029157 7:-0.4139920651853838 8:-0.1018550944537944 9:1.516828059550522 10:0.3110387423570624 11:-0.09919864390959963 12:-0.1457415776085026 13:-0.1699354118240313 14:-0.1409184537569941 15:1.758289518126805 16:0.009379282208938664 17:-0.8469297819728798 18:-1.003968365558819 19:-0.2695410056464284 20:-1.095150830025833 
2245.7570205549837 1:-0.2689569130823483 2:-1.112903139929533 3:-1.112903139929533 4:2.741671126896192 5:1.743046710218656 6:-0.2718095383832057 7:0.3094721723123977 8:-0.1018550944537944 9:-0.4358345543179211 10:-0.3510046221816638 11:-0.1029323462688781 12:-0.181215404782298 13:-0.1818055825591224 14:-0.1409184537569941 15:-0.4250054252731292 16:-0.3602126396619472 17:-0.8769011510447279 18:-1.095449929518217 19:3.710010660965681 20:-1.55167135301848 
8955.712315270936 1:-0.2579513433845211 2:1.480911905254985 3:1.480911905254985 4:-0.5521102399594796 5:-0.5729398999844363 6:-0.2718095383832057 7:0.3094721723123977 8:-0.1018550944537944 9:-0.4358345543179211 10:-0.3510046221816638 11:-0.03199200144258703 12:-0.1505789176776565 13:-0.1293559909389525 14:-0.1409184537569941 15:-0.4250054252731292 16:-0.3602126396619472 17:0.4705850361594187 18:-0.3717339443019622 19:-0.2695409982339358 20:0.2744107389521085 
141.44239523946993 1:-0.2697165036700925 2:0.2795659895905762 3:0.2795659895905762 4:-0.7018275748165556 5:-1.139069960256303 6:-0.2718095383832057 7:0.3094721723123977 8:-0.1018550944537944 9:-0.4358345543179211 10:-0.3510046221816638 11:0.6662103397424883 12:0.1509486132996043 13:0.3868584107964041 14:-0.1409184537569941 15:-0.4250054252731292 16:-0.3602126396619472 17:1.484184997160374 18:0.1726564185506614 19:-0.2695410056464284 20:-1.55167135301848 
9.270377495535806 1:-0.2087599657053685 2:-1.112903139929533 3:-1.112903139929533 4:0.06814729016269232 5:-0.5043180744969374 6:5.485294042213241 7:-4.031313252674298 8:-0.1018550944537944 9:3.641932643152243 10:4.585397451753196 11:0.2331008660661849 12:-0.03609520270768046 13:0.06663985143115615 14:8.74221396584798 15:2.855061528356637 16:4.305012402227289 17:4.733849353220101 18:1.918005694410515 19:-0.2695410056464284 20:-1.55167135301848 
555.645543925904 1:-0.2686365745597213 2:-1.112903139929533 3:-1.112903139929533 4:1.650873401508924 5:1.657269428359282 6:-0.2718095383832057 7:0.3094721723123977 8:-0.1018550944537944 9:-0.4358345543179211 10:-0.3510046221816638 11:0.1360246047249445 12:-0.07801881664034774 13:-0.0051332739438132 14:-0.1409184537569941 15:-0.4250054252731292 16:-0.3602126396619472 17:-0.5881147812097538 18:-0.940346809243723 19:-0.2695410019401821 20:-0.6386303070331856 
61.214126030441584 1:-0.240551137269103 2:-1.112903139929533 3:-1.112903139929533 4:-0.5093338585717436 5:-0.2469862289188161 6:-0.0101230119924581 7:0.3094721723123977 8:-0.1018550944537944 9:1.096208970506223 10:1.07456729864431 11:-0.06186162031681486 12:1.329647143483442 13:0.4876168368035726 14:-0.1409184537569941 15:2.50478604828782 16:2.076604669519089 17:-0.6944877939248351 18:-0.520723098626844 19:-0.2695410056464284 20:-1.095150830025833 
8955.712315270936 1:-0.2679328005327379 2:-1.112903139929533 3:-1.112903139929533 4:-1.257920532857123 5:-0.8131162891906829 6:-0.2718095383832057 7:0.3094721723123977 8:-0.1018550944537944 9:-0.4358345543179211 10:-0.3510046221816638 11:-0.1029323462688781 12:-0.181215404782298 13:-0.1818055825591224 14:-0.1409184537569941 15:-0.4250054252731292 16:-0.3602126396619472 17:-0.8769011510447279 18:-1.095449929518217 19:3.710010660965681 20:-1.55167135301848 
1421.342426841566 1:-0.2465696186033062 2:-1.112903139929533 3:-1.112903139929533 4:0.3034173877952403 5:-0.3156080544063151 6:1.167466356765906 7:-2.825539523511327 8:-0.1018550944537944 9:1.543061173983518 10:2.545982174349843 11:-0.03199200144258703 12:0.1509486132996043 13:0.3399298288204625 14:-0.1409184537569941 15:2.012247072021722 16:2.791145256527686 17:0.4705850361594187 18:0.1726564185506614 19:-0.2695410056464284 20:0.7309312619447557 
4246.4108468653185 1:-0.1978393342521773 2:-1.112903139929533 3:-1.112903139929533 4:2.848612080365532 5:2.755218636159267 6:-0.2718095383832057 7:0.3094721723123977 8:-0.1018550944537944 9:-0.4358345543179211 10:-0.3510046221816638 11:-0.06186162031681486 12:-0.1505789176776565 13:-0.1403980102274093 14:-0.1409184537569941 15:-0.4250054252731292 16:-0.3602126396619472 17:0.1931822544093162 18:-0.3717339443019622 19:-0.2695410056464284 20:0.7309312619447557 
159.65652424593566 1:-0.07916847246083233 2:-0.7033533959530307 3:-0.7033533959530307 4:-0.3382283330207996 5:-0.2298307725469413 6:0.7749365671797845 7:-0.9230965286097503 8:-0.1018550944537944 9:2.045343800048045 10:2.141019084603605 11:-0.07306272739465029 12:-0.1505789176776565 13:-0.1532803660639423 14:-0.1409184537569941 15:2.938540642591467 16:2.829092043684093 17:-0.5101274491109378 18:-0.3717339443019622 19:-0.2695410056464284 20:0.2744107389521085 
956.9998052791616 1:-0.1713871380655584 2:-1.112903139929533 3:-1.112903139929533 4:-0.5521102399594796 5:-0.4871626181250627 6:1.036623093570532 7:-0.7087367545363331 8:-0.1018550944537944 9:1.31333616058723 10:0.9345422141862444 11:-0.09546494155032116 12:-0.1505789176776565 13:-0.1461490619401472 14:-0.1409184537569941 15:2.936190760100561 16:1.468418826327363 17:-0.77654414829251 18:-0.3717339443019622 19:-0.2695410056464284 20:0.7309312619447557 
8955.712315270936 1:-0.2616643580786061 2:1.480911905254985 3:1.480911905254985 4:-1.300696914244859 5:-1.567956369553172 6:-0.2718095383832057 7:0.3094721723123977 8:-0.1018550944537944 9:-0.4358345543179211 10:-0.3510046221816638 11:-0.1029323462688781 12:-0.181215404782298 13:-0.1818055825591224 14:-0.1409184537569941 15:-0.4250054252731292 16:-0.3602126396619472 17:-0.8769011510447279 18:-1.095449929518217 19:3.710010660965681 20:-1.55167135301848 
5830.894469505599 1:-0.2150696638783235 2:-1.112903139929533 3:-1.112903139929533 4:0.6884048202848643 5:1.297004844549912 6:-0.2718095383832057 7:0.3094721723123977 8:-0.1018550944537944 9:-0.4358345543179211 10:-0.3510046221816638 11:-0.1029323462688781 12:-0.181215404782298 13:-0.1818055825591224 14:-0.1409184537569941 15:-0.4250054252731292 16:-0.3602126396619472 17:-0.8769011510447279 18:-1.095449929518217 19:3.710010660965681 20:-1.55167135301848 
332.67677844423827 1:-0.269333068165736 2:-1.112903139929533 3:-1.112903139929533 4:1.030615871386752 5:0.3191438313530509 6:-0.2718095383832057 7:0.3094721723123977 8:-0.1018550944537944 9:-0.4358345543179211 10:-0.3510046221816638 11:-0.06186162031681486 12:-0.1409042375393487 13:-0.1238349812947241 14:-0.1409184537569941 15:-0.4250054252731292 16:-0.3602126396619472 17:0.1931822544093162 18:1.18997656856724 19:-0.2695410056464284 20:0.7309312619447557 
2766.627408261768 1:-0.2701576947539944 2:-1.112903139929533 3:-1.112903139929533 4:2.057249024692416 5:1.46855940826866 6:-0.2718095383832057 7:0.3094721723123977 8:-0.1018550944537944 9:-0.4358345543179211 10:-0.3510046221816638 11:-0.06186162031681486 12:-0.04254498946655236 13:-0.01341478841015582 14:-0.1409184537569941 15:-0.4229479885954389 16:-0.3582617841364239 17:0.1931822544093162 18:1.163591610860977 19:-0.2695410056464284 20:-1.55167135301848 
8955.712315270936 1:-0.2542625967603321 2:-1.112903139929533 3:-1.112903139929533 4:-0.6162748120410836 5:-0.3499189671500645 6:-0.2718095383832057 7:0.3094721723123977 8:-0.1018550944537944 9:-0.4358345543179211 10:-0.3510046221816638 11:-0.03199200144258703 12:0.1219245728846808 13:0.1816608856859147 14:-0.1409184537569941 15:-0.4250054252731292 16:-0.3602126396619472 17:-0.5105213536039123 18:-0.3717339443019622 19:-0.2695410056464284 20:0.2744107389521085 
2157.3431831078606 1:-0.1488178330622965 2:0.1157460919999751 3:0.1157460919999751 4:-0.2954519516330636 5:0.5078538514436733 6:-0.2718095383832057 7:0.3094721723123977 8:-0.1018550944537944 9:-0.4358345543179211 10:-0.3510046221816638 11:-0.09546494155032116 12:-0.1505789176776565 13:-0.1558568372312489 14:-0.1409184537569941 15:2.559566321059396 16:1.617090961277746 17:-0.851035108541784 18:-0.3717339443019622 19:-0.2695410056464284 20:0.2744107389521085 
45.57034651157508 1:-0.266857725036346 2:0.9348455799529809 3:0.9348455799529809 4:-0.7232157655104235 5:-0.3327635107781899 6:0.5132500407890369 7:-0.5747618957404479 8:-0.1018550944537944 9:1.97235052966245 10:0.2275609469900109 11:-0.09173123919104267 12:-0.1731531713337081 13:-0.169107260377397 14:2.836030364653703 15:1.040632407249365 16:1.307443670419717 17:0.2264013131969723 18:0.1016666671513089 19:-0.2695410056464284 20:-1.095150830025833 
520.0330897061685 1:-0.2167684287710421 2:-1.112903139929533 3:-1.112903139929533 4:0.6884048202848643 5:-0.02396529608444421 6:0.6440933039844108 7:-0.06565743231608136 8:-0.1018550944537944 9:2.231717480271162 10:0.8482368207753782 11:-0.06186162031681486 12:-0.08769349677865558 13:-0.0484386933407298 14:-0.1409184537569941 15:2.67037644722762 16:2.673015509855886 17:0.1931822544093162 18:0.09811917016614263 19:-0.2695410056464284 20:0.7309312619447557 
833.8558495302159 1:-0.2417645407639021 2:-1.112903139929533 3:-1.112903139929533 4:-0.06018185400051567 5:-0.2641416852906908 6:1.690839409547401 7:-1.941305455458481 8:-0.1018550944537944 9:1.512011244753503 10:2.158304690158525 11:-0.03199200144258703 12:0.1654606335070661 13:0.2494702092650278 14:-0.1409184537569941 15:2.094668026287637 16:2.43815205639598 17:-0.1600030632360246 18:-0.3717339443019622 19:-0.2695410056464284 20:0.7309312619447557 
8955.712315270936 1:-0.1985673763490567 2:-0.7033533959530307 3:-0.7033533959530307 4:-0.2312873795514597 5:-0.4013853362656888 6:-0.2718095383832057 7:0.3094721723123977 8:-0.1018550944537944 9:-0.4358345543179211 10:-0.3510046221816638 11:-0.03199200144258703 12:-0.08285615670950165 13:-0.1164736351024195 14:-0.1409184537569941 15:-0.3897124743872302 16:-0.3546351939504653 17:-0.783781524263805 18:-0.3717339443019622 19:-0.2695410056464284 20:0.2744107389521085 
783.832853482201 1:-0.135713075318467 2:-0.7033533959530307 3:-0.7033533959530307 4:-0.6162748120410836 5:0.1065653502232983 6:0.4392951528959997 7:0.3094721723123977 8:-0.1018550944537944 9:1.584411676394849 10:1.290438817206194 11:-0.0693290250353718 12:-0.1312295574010408 13:-0.1341868743776523 14:-0.1409184537569941 15:2.205285683493812 16:1.908078138073613 17:-0.7744951659968432 18:-0.3717339443019622 19:-0.2695410056464284 20:0.7309312619447557 
1474.227955545811 1:-0.1709017766676388 2:-1.112903139929533 3:-1.112903139929533 4:-0.08157004469438367 5:0.01034561665930533 6:1.167466356765906 7:-1.673355737866711 8:-0.1018550944537944 9:1.628726372527424 10:1.475713735831574 11:-0.03945940616114399 12:-0.06511924312260396 13:-0.08603729988423724 14:-0.1409184537569941 15:2.574914148324008 16:1.913303118610288 17:-0.3723022728613946 18:-0.3672344246436541 19:-0.2695410056464284 20:0.2744107389521085 
12.882725544002584 1:-0.2642367734875801 2:-1.112903139929533 3:-1.112903139929533 4:-0.6162748120410836 5:-0.4871626181250627 6:6.270353621385484 7:-4.058108224433474 8:-0.1018550944537944 9:3.513805369551539 10:4.199501116930339 11:-0.09173123919104267 12:-0.176378064713144 13:-0.1735240680927798 14:8.898180582543135 15:2.912651680245194 16:4.386922626181525 17:2.858254784943407 18:0.9106500838398098 19:-0.2695410056464284 20:-1.55167135301848 
243.27916857947167 1:-0.2410364986670226 2:-1.112903139929533 3:-1.112903139929533 4:-0.4023929051024036 5:-0.2641416852906908 6:0.6440933039844108 7:-1.057071387405635 8:-0.1018550944537944 9:2.045343800048045 10:2.790116932117282 11:-0.07306272739465029 12:-0.1505789176776565 13:-0.1536484333735575 14:-0.1409184537569941 15:2.938540642591467 16:3.466952980353301 17:-0.5101274491109378 18:-0.3717339443019622 19:-0.2695410056464284 20:0.7309312619447557 
6.604072405091096 1:1.26601064187337 2:-1.112903139929533 3:-1.112903139929533 4:-0.06018185400051567 5:-0.04112075245631899 6:4.700234463040998 7:-5.746191445261633 8:-0.1018550944537944 9:2.893918357596719 10:3.014285767399654 11:-0.07679642975392877 12:-0.1118801971244252 13:-0.1378156024905928 14:-0.1409184537569941 15:3.065565125675882 16:3.292527079744161 17:-0.2595059630907428 18:1.016484645349927 19:-0.2695410056464284 20:2.100492830922696 
3179.1016983666827 1:-0.2471277842109138 2:-1.112903139929533 3:-1.112903139929533 4:-0.2098991888575917 5:-0.1268980343156929 6:0.5132500407890369 7:-1.164251274442344 8:-0.1018550944537944 9:1.480516686465303 10:1.32356177487765 11:-0.03199200144258703 12:0.28155679516676 13:0.1397932292171826 14:-0.1409184537569941 15:2.517955286244526 16:1.252167827419142 17:-0.7575582942926731 18:-0.3717339443019622 19:-0.2695410056464284 20:0.2744107389521085 
3040.0929840844606 1:-0.2477102178884173 2:-1.112903139929533 3:-1.112903139929533 4:-0.5948866213472156 5:-0.2469862289188161 6:-0.2718095383832057 7:0.3094721723123977 8:-0.1018550944537944 9:-0.4358345543179211 10:-0.3510046221816638 11:-0.03199200144258703 12:-0.1505789176776565 13:-0.1293559909389525 14:-0.1409184537569941 15:-0.4250054252731292 16:-0.3602126396619472 17:0.4705850361594187 18:-0.3717339443019622 19:-0.2695409963808127 20:0.7309312619447557 
1722.980066051938 1:-0.2592375510890081 2:-1.112903139929533 3:-1.112903139929533 4:1.565320638733452 5:0.7651856970217945 6:-0.2718095383832057 7:0.3094721723123977 8:-0.1018550944537944 9:-0.4358345543179211 10:-0.3510046221816638 11:0.04268204574298253 12:-0.1183299838832971 13:-0.07414589449666835 14:-0.1383952816843846 15:-0.4240737524191456 16:-0.3588875253912025 17:2.253544691909342 18:0.5858687503417631 19:-0.2695410056464284 20:-1.55167135301848 
3134.340290753556 1:-0.2114294533939264 2:-1.112903139929533 3:-1.112903139929533 4:-0.08157004469438367 5:-0.1268980343156929 6:-0.1409662751878319 7:0.3094721723123977 8:-0.1018550944537944 9:1.118885052473727 10:-0.1876478633788601 11:-0.1029323462688781 12:-0.1505789176776565 13:-0.1334967481721238 14:-0.1409184537569941 15:-0.4250054252731292 16:-0.3602126396619472 17:-0.8769011510447279 18:-0.3717339443019622 19:-0.2695410056464284 20:0.7309312619447557 
354.7906874484705 1:-0.2272036988263137 2:-1.112903139929533 3:-1.112903139929533 4:-0.7232157655104235 5:0.5764756769311724 6:1.036623093570532 7:-0.9498915003689269 8:-0.1018550944537944 9:1.700163441209366 10:1.36506852605414 11:-0.0693290250353718 12:-0.1280046640216049 13:-0.1314669652146869 14:-0.1409184537569941 15:2.192304301953223 16:1.366696993183127 17:-0.7734379922085682 18:-0.3717339443019622 19:-0.2695410056464284 20:-0.1821097840405385 
68.30766942453114 1:-0.2698621120894684 2:-1.112903139929533 3:-1.112903139929533 4:0.1750882436320323 5:0.1647447240061783 6:1.690839409547401 7:-2.745154608233794 8:-0.1018550944537944 9:1.762263299669395 10:2.160079968566869 11:-0.08426383447248573 12:0.1041876592977831 13:0.2672365351714551 14:-0.1409184537569941 15:2.306465023418303 16:3.200999415462321 17:-0.351537348228499 18:0.4020646225112678 19:-0.2695410056464284 20:-1.095150830025833 
1579.9514971854137 1:-0.2191952357606402 2:-1.112903139929533 3:-1.112903139929533 4:-0.5734984306533476 5:-0.2984525980344404 6:1.29830961996128 7:-1.405406020274938 8:-0.1018550944537944 9:1.669780455566631 10:2.268155047158992 11:-0.0879975368317642 12:-0.1473540242982206 13:-0.1317221379293361 14:-0.1409184537569941 15:2.352430301592482 16:2.629866287491547 17:-0.588938208340866 18:-0.3717339443019622 19:-0.2695410056464284 20:0.7309312619447557 
8955.712315270936 1:-0.2465453505334102 2:-1.112903139929533 3:-1.112903139929533 4:0.04675909946882432 5:-0.2984525980344404 6:-0.2718095383832057 7:0.3094721723123977 8:-0.1018550944537944 9:-0.4358345543179211 10:-0.3510046221816638 11:-0.03199200144258703 12:-0.1296171107113229 13:-0.1221786784014555 14:-0.1409184537569941 15:-0.4250054252731292 16:-0.3602126396619472 17:-0.1397590797714363 18:-0.3717339443019622 19:-0.2695410037933053 20:0.7309312619447557 
7515.315898498286 1:-0.2510349434641667 2:0.525295835976478 3:0.525295835976478 4:-0.4879456678778756 5:-0.02396529608444421 6:-0.2718095383832057 7:0.3094721723123977 8:-0.1018550944537944 9:-0.4358345543179211 10:-0.3510046221816638 11:-0.07679642975392877 12:-0.1505789176776565 13:-0.1345319374804166 14:-0.1409184537569941 15:1.142046253202236 16:0.4252684419567722 17:-0.3934621750715918 18:-0.3717339443019622 19:-0.2695410056464284 20:0.7309312619447557 
148.39369514592713 1:-0.2661296829394665 2:-1.112903139929533 3:-1.112903139929533 4:-0.3596165237146676 5:-0.2984525980344404 6:1.690839409547401 7:-3.441823873972402 8:-0.1018550944537944 9:2.407123643725682 10:2.29827429716633 11:-0.09546494155032116 12:-0.1505789176776565 13:-0.1646291081104118 14:-0.1409184537569941 15:3.009760029062805 16:1.99680916532919 17:0.1931822544093162 18:0.9752133053586887 19:-0.2695410056464284 20:0.7309312619447557 
1805.8639448382082 1:-0.2534860185236607 2:0.1157460919999751 3:0.1157460919999751 4:-0.4023929051024036 5:-0.2984525980344404 6:-0.0101230119924581 7:-0.2264272628711455 8:-0.1018550944537944 9:1.148823409058276 10:0.2994791882999298 11:-0.06186162031681486 12:-0.1376793441599127 13:-0.1391711191953585 14:-0.1409184537569941 15:2.165139341673362 16:0.4584432935994997 17:-0.8092330466729528 18:-0.3717339443019622 19:-0.2695410056464284 20:-0.1821097840405385 
8955.712315270936 1:-0.2609605840516227 2:0.525295835976478 3:0.525295835976478 4:-0.5307220492656116 5:-0.6072508127281858 6:-0.2718095383832057 7:0.3094721723123977 8:-0.1018550944537944 9:-0.4358345543179211 10:-0.3510046221816638 11:-0.03199200144258703 12:-0.1409042375393487 13:-0.1252152337057812 14:-0.1409184537569941 15:-0.4250054252731292 16:-0.3602126396619472 17:-0.5398944162547203 18:-0.3717339443019622 19:-0.2695410056464284 20:0.7309312619447557 
8258.464803875626 1:-0.2698499780545204 2:2.163494811882489 3:2.163494811882489 4:-1.129591388693916 5:-1.430712718578175 6:-0.2718095383832057 7:0.3094721723123977 8:-0.1018550944537944 9:-0.4358345543179211 10:-0.3510046221816638 11:-0.03199200144258703 12:-0.1505789176776565 13:-0.1293559909389525 14:-0.1409184537569941 15:-0.4250054252731292 16:-0.3602126396619472 17:0.4705850361594187 18:-0.3717339443019622 19:-0.2695409963808127 20:0.7309312619447557 
1283.4488230857582 1:-0.2700950855604698 2:-0.08902877998827634 3:-0.08902877998827634 4:-0.4237810957962716 5:-0.7273390073313093 6:-0.2718095383832057 7:0.3094721723123977 8:-0.1018550944537944 9:-0.4358345543179211 10:-0.3510046221816638 11:-0.09919864390959963 12:-0.1505789176776565 13:-0.1757324719504711 14:-0.1409184537569941 15:-0.4250054252731292 16:-0.3602126396619472 17:0.4705850361594187 18:3.949431798494954 19:-0.2695410000870589 20:-0.1821097840405385 
8955.712315270936 1:-0.2636786078799725 2:-1.112903139929533 3:-1.112903139929533 4:-0.2740637609391957 5:0.1990556367499274 6:-0.2718095383832057 7:0.3094721723123977 8:-0.1018550944537944 9:-0.4358345543179211 10:-0.3510046221816638 11:-0.09546494155032116 12:-0.01190850236191088 13:-0.096229933073582 14:-0.1409184537569941 15:-0.4250054252731292 16:-0.3602126396619472 17:-0.8077158653653455 18:-0.3717339443019622 19:-0.2695410019401821 20:0.7309312619447557 
988.1341174543196 1:-0.2582182921533769 2:-1.112903139929533 3:-1.112903139929533 4:1.116168634162224 5:0.3362992877249256 6:1.559996146352027 7:-2.745154608233794 8:-0.1018550944537944 9:2.118188860747578 10:0.979608590939092 11:-0.06186162031681486 12:0.2299585010957849 13:0.2290495517988753 14:-0.1409184537569941 15:0.8876295413259594 16:0.3870473743113733 17:0.1931822544093162 18:0.7779350907762166 19:-0.2695410056464284 20:-1.095150830025833 
110.62358633684956 1:-0.2691995937813081 2:-1.112903139929533 3:-1.112903139929533 4:0.4745229133461843 5:1.262693931806163 6:2.34505572552427 7:-1.164251274442344 8:-0.1018550944537944 9:2.112186368462062 10:2.029533075860272 11:-0.0543942155982579 12:-0.1473540242982206 13:-0.1378884603891237 14:-0.1409184537569941 15:0.9631389100053334 16:0.8961929776551948 17:0.9877902201095826 18:1.033731355804692 19:-0.2695410056464284 20:-1.55167135301848 
6071.982921106696 1:-0.2595530359976558 2:0.1157460919999751 3:0.1157460919999751 4:0.1537000529381643 5:-0.3499189671500645 6:-0.2718095383832057 7:0.3094721723123977 8:-0.1018550944537944 9:-0.4358345543179211 10:-0.3510046221816638 11:-0.03199200144258703 12:-0.1086553037449892 13:-0.08150724068897289 14:-0.1409184537569941 15:0.05656130011259804 16:0.0964075408344611 17:0.4705850361594187 18:0.4796490173226461 19:-0.2695410037933053 20:0.2744107389521085 
6.724854326210413 1:-0.2697674666168741 2:-1.112903139929533 3:-1.112903139929533 4:1.201721396937696 5:0.5764756769311724 6:1.821682672742775 7:-2.79874455175215 8:-0.1018550944537944 9:2.461516598510481 10:3.905094551833053 11:-0.0543942155982579 12:-0.1602535978159643 13:-0.1459190198716377 14:0.02620849869722032 15:-0.3632943567095134 16:-0.272441253743701 17:3.100174217430836 18:1.04058162754555 19:-0.2695410037933053 20:-1.095150830025833 
8955.712315270936 1:-0.1556128926331711 2:0.525295835976478 3:0.525295835976478 4:0.7739575830603362 5:1.262693931806163 6:-0.2718095383832057 7:0.3094721723123977 8:-0.1018550944537944 9:-0.4358345543179211 10:-0.3510046221816638 11:-0.1029323462688781 12:-0.181215404782298 13:-0.1818055825591224 14:-0.1409184537569941 15:-0.4250054252731292 16:-0.3602126396619472 17:-0.8769011510447279 18:-1.095449929518217 19:3.710010660965681 20:-1.55167135301848 
8.001394285201568 1:-0.2517144494212541 2:-1.112903139929533 3:-1.112903139929533 4:-0.4023929051024036 5:0.7480302406499197 6:-0.0101230119924581 7:-0.5211719522220923 8:7.843582434235511 9:1.289103876916073 10:2.833354304931008 11:0.06881796225793188 12:0.5040744383478402 13:0.4682933030487731 14:1.236368659115431 15:1.549830326961095 16:1.405847928245285 17:-0.8646131553652316 18:-0.6747071134560343 19:-0.2695410056464284 20:-1.095150830025833 
27.117077325464404 1:-0.2534132143139727 2:-1.112903139929533 3:-1.112903139929533 4:-0.5734984306533476 5:0.730874784278045 6:0.2515635143982895 7:0.3094721723123977 8:-0.1018550944537944 9:1.909954251830298 10:1.604744851725421 11:-0.0879975368317642 12:-0.1296171107113229 13:-0.1275156543908763 14:2.554489334399809 15:1.55833690996462 16:2.212640861640169 17:-0.8165670621423933 18:-0.9186669689021425 19:-0.2695410056464284 20:-1.095150830025833 
39.706575007417605 1:-0.2497001996198877 2:-1.112903139929533 3:-1.112903139929533 4:-0.1243464260821197 5:-0.5214735308688122 6:0.5132500407890369 7:-1.083866359164812 8:7.429533510501702 9:1.390923931240751 10:2.915274059905474 11:0.5056611382935138 12:0.0816134056417315 13:0.2681567034454932 14:6.619008085200403 15:2.071074853848164 16:3.1899515458088 17:-0.326036737370448 18:-0.7995883573190677 19:-0.2695410056464284 20:-1.55167135301848 
934.8486718020685 1:-0.2516173771416702 2:-1.112903139929533 3:-1.112903139929533 4:0.1323118622442963 5:0.0961228985186792 6:0.7749365671797845 7:-1.405406020274938 8:-0.1018550944537944 9:1.874161612646295 10:2.935228422804516 11:-0.03199200144258703 12:-0.02964541594880858 13:-0.01997098736267706 14:-0.1409184537569941 15:2.100892447360978 16:1.831575849073128 17:-0.738543621787784 18:-0.3717339443019622 19:-0.2695410056464284 20:0.2744107389521085 
8955.712315270936 1:-0.1687176503770006 2:-1.112903139929533 3:-1.112903139929533 4:-0.2526755702453277 5:-0.2812971416625656 6:-0.2718095383832057 7:0.3094721723123977 8:-0.1018550944537944 9:-0.4358345543179211 10:-0.3510046221816638 11:-0.06186162031681486 12:-0.1505789176776565 13:-0.1348770005831809 14:-0.1409184537569941 15:-0.4250054252731292 16:-0.3602126396619472 17:0.1931822544093162 18:-0.3717339443019622 19:-0.2695410056464284 20:0.7309312619447557 
8955.712315270936 1:-0.2458901126462188 2:0.3205209639882265 3:0.3205209639882265 4:0.2392528157136363 5:-0.3156080544063151 6:-0.2718095383832057 7:0.3094721723123977 8:-0.1018550944537944 9:-0.4358345543179211 10:-0.3510046221816638 11:-0.03199200144258703 12:-0.1505789176776565 13:-0.1293559909389525 14:-0.1409184537569941 15:-0.4250054252731292 16:-0.3602126396619472 17:0.4705850361594187 18:-0.3717339443019622 19:-0.2695409963808127 20:0.7309312619447557 
2709.936930936957 1:-0.2694616889361847 2:-1.112903139929533 3:-1.112903139929533 4:0.4317465319584483 5:1.914601273937403 6:-0.2718095383832057 7:0.3094721723123977 8:-0.1018550944537944 9:-0.4358345543179211 10:-0.3510046221816638 11:-0.09919864390959963 12:-0.1586411511262464 13:-0.1521301557213947 14:-0.1409184537569941 15:-0.4250054252731292 16:-0.3602126396619472 17:-0.8323042100917469 18:-0.8668394889920825 19:-0.2695410056464284 20:-1.095150830025833 
5.14243691802571 1:-0.2692772516049752 2:-1.112903139929533 3:-1.112903139929533 4:-1.08681500730618 5:-0.4528517053813131 6:9.018062148488333 7:-6.844785287387896 8:-0.1018550944537944 9:5.659955728574083 10:8.575256696241675 11:-0.09919864390959963 12:-0.177990511402862 13:-0.1763420834320214 14:9.242281270550103 15:3.092525456645329 16:4.569201702982842 17:0.9695981389682048 18:3.908273066196263 19:-0.2695410056464284 20:-0.6386303070331856 
8955.712315270936 1:-0.2569806205886819 2:-0.7033533959530307 3:-0.7033533959530307 4:0.4317465319584483 5:-0.2126753161750665 6:-0.2718095383832057 7:0.3094721723123977 8:-0.1018550944537944 9:-0.4358345543179211 10:-0.3510046221816638 11:-0.03199200144258703 12:0.2767194550976061 13:0.2364108979911798 14:-0.1409184537569941 15:-0.3875848851610446 16:-0.3336011034829783 17:0.04206829076094049 18:-0.3717339443019622 19:-0.2695410037933053 20:0.7309312619447557 
19.97687603533168 1:-0.2437059863555805 2:0.525295835976478 3:0.525295835976478 4:0.04675909946882432 5:-0.3670744235219393 6:1.690839409547401 7:-1.700150709625887 8:-0.1018550944537944 9:2.118188860747578 10:1.166749408628409 11:-0.06186162031681486 12:0.2299585010957849 13:0.4123163997114573 14:-0.1409184537569941 15:0.8876295413259594 16:1.195583223554834 17:0.1931822544093162 18:0.2223396418427254 19:-0.2695410056464284 20:0.7309312619447557 
939.898554549323 1:-0.2686050260688566 2:1.098665477543582 3:1.098665477543582 4:5.800182396119316 5:4.831028857156112 6:-0.2718095383832057 7:0.3094721723123977 8:-0.1018550944537944 9:-0.4358345543179211 10:-0.3510046221816638 11:0.1845627353955647 12:-0.0570570096740141 13:0.03075328874367148 14:-0.1409184537569941 15:-0.4250054252731292 16:-0.3602126396619472 17:-0.6733311935125673 18:-0.9861153524554999 19:-0.2695409963808127 20:0.7309312619447557 
154.63280778173197 1:-0.2498458080392636 2:-1.112903139929533 3:-1.112903139929533 4:0.3889701505707123 5:-0.2469862289188161 6:1.559996146352027 7:-2.021690370736013 8:-0.1018550944537944 9:1.662073551891401 10:2.546845392858207 11:-0.03199200144258703 12:0.3831409366189923 13:0.6320832558275493 14:-0.1409184537569941 15:2.888807543374813 16:3.567472237920048 17:0.4705850361594187 18:-0.1513350650850079 19:-0.2695410056464284 20:0.7309312619447557 
5416.542739320747 1:-0.2342414390961481 2:-1.112903139929533 3:-1.112903139929533 4:1.886143499141472 5:1.983223099424902 6:-0.2718095383832057 7:0.3094721723123977 8:-0.1018550944537944 9:-0.4358345543179211 10:-0.3510046221816638 11:-0.03199200144258703 12:-0.08124371001978369 13:-0.1017509427178104 14:-0.1409184537569941 15:-0.4250054252731292 16:-0.3602126396619472 17:-0.7054240399808689 18:-0.3717339443019622 19:-0.2695410056464284 20:0.2744107389521085 
3.754112142370612 1:-0.2673673545041615 2:-1.112903139929533 3:-1.112903139929533 4:-0.3382283330207996 5:-0.4871626181250627 6:7.84047277972997 7:-5.906961275816696 8:7.49836242249901 9:3.572718719761232 10:3.754865846386664 11:-0.08426383447248573 12:-0.1731531713337081 13:-0.1680030584485514 14:8.655831074852937 15:2.823164934595802 16:4.259646014873718 17:2.719758229357399 18:0.8362655208462895 19:-0.2695410056464284 20:-1.55167135301848 
5872.7279957697965 1:-0.2489721575230083 2:-1.112903139929533 3:-1.112903139929533 4:-0.5307220492656116 5:-0.2812971416625656 6:1.036623093570532 7:-1.968100427217658 8:-0.1018550944537944 9:1.914252332726099 10:2.743496762049381 11:-0.09173123919104267 12:-0.1392917908496307 13:-0.1193177915858099 14:-0.1409184537569941 15:2.877699065143581 16:3.468797321405037 17:-0.65483672958957 18:-0.3717339443019622 19:-0.2695410056464284 20:0.7309312619447557 
47.72064180808937 1:-0.2652317643533152 2:-1.112903139929533 3:-1.112903139929533 4:-0.9157094817552356 5:-0.6415617254719355 6:2.083369199133522 7:-2.637974721197086 8:-0.1018550944537944 9:2.011700201311944 10:2.964508002831592 11:-0.09919864390959963 12:-0.1505789176776565 13:-0.1754958572514328 14:-0.1409184537569941 15:3.092525456645329 16:4.285401394684135 17:-0.469397873118279 18:0.2894196009563194 19:-0.2695410056464284 20:0.7309312619447557 
40.26385714819713 1:-0.2697747470378428 2:-1.112903139929533 3:-1.112903139929533 4:-0.9584858631429716 5:-0.5729398999844363 6:7.055413200557727 7:-6.925170202665429 8:-0.1018550944537944 9:4.263672276182841 10:5.834060274458384 11:-0.09919864390959963 12:-0.1505789176776565 13:-0.1734136478998952 14:-0.1409184537569941 15:3.092525456645329 16:4.346476565780804 17:0.1931822544093162 18:3.088830966226793 19:-0.2695410056464284 20:0.7309312619447557 
