svm_type c_svc
kernel_type rbf
gamma 0.001953125
nr_class 2
total_sv 2045
rho -1.6034867470024754
label 1 -1
probA -1.2946924877175228
probB 1.4703769899948589
nr_sv 459 1586
SV
122.16492450638792 1:-0.1178665313181199 2:-0.9670870539037507 3:-0.9670870539037507 4:0.1551897957096747 5:-0.4752000375854381 6:1.657371135707807 7:-0.6976383544441513 8:-0.1350389724527743 9:2.006801361420989 10:1.540059882613735 11:-0.06917219670647136 12:-0.1648728022122864 13:-0.1473853819430284 14:-0.1741516315108161 15:-0.4896561654499069 16:-0.4329743035711364 17:0.3596450012176413 18:1.01409354242818 19:-0.341840815627631 20:0.8471839754584307 
122.16492450638792 1:-0.3051776615239156 2:2.052887243994625 3:2.052887243994625 4:-1.473458300067712 5:-1.835135213896853 6:-0.3449963571655104 7:0.3768454992111689 8:-0.1350389724527743 9:-0.5073962239982714 10:-0.4335033060743624 11:-0.08638205934838095 12:-0.2106653475519771 13:-0.1665774674443452 14:-0.1741516315108161 15:-0.4896561654499069 16:-0.4329743035711364 17:-0.7429585924838237 18:-1.072353565156356 19:2.925338217477786 20:-1.165715056619452 
122.16492450638792 1:-0.2679366184732507 2:-0.9670870539037507 3:-0.9670870539037507 4:-0.5686538024136082 5:0.8303377316735199 6:-0.3449963571655104 7:0.3768454992111689 8:-0.1350389724527743 9:-0.5073962239982714 10:-0.4335033060743624 11:-0.05196233406456176 12:-0.1841538739342614 13:-0.1351946050220288 14:-0.1741516315108161 15:-0.4896561654499069 16:-0.4329743035711364 17:-0.5994126719073665 18:-0.6177280492981125 19:-0.341840815627631 20:0.8471839754584307 
122.16492450638792 1:-0.1816495332280984 2:-0.02334508581050809 3:-0.02334508581050809 4:-0.9963795649410025 5:-0.8695812387157483 6:-0.3449963571655104 7:0.3768454992111689 8:-0.1350389724527743 9:-0.5073962239982714 10:-0.4335033060743624 11:-0.04852036153617985 12:-0.1648728022122864 13:-0.1243906687782805 14:-0.1741516315108161 15:-0.4896561654499069 16:-0.4329743035711364 17:0.1326554357846362 18:-0.4998733268429587 19:-0.341840815627631 20:0.8471839754584307 
122.16492450638792 1:-0.2760380884739133 2:-0.2120934794291566 3:-0.2120934794291566 4:-0.3712419120163492 5:-0.7607864246108352 6:0.2271086407982945 7:-0.4986598630265001 8:-0.1350389724527743 9:2.277169071531842 10:1.188854542850573 11:-0.04163641647941602 12:-0.1793336060037677 13:-0.1264485613961374 14:0.8705202976231347 15:-0.05422712173891679 16:0.1346502538198545 17:2.511351273802307 18:0.6173090646768175 19:-0.341840815627631 20:-1.165715056619452 
122.16492450638792 1:1.23623631164977 2:-0.9670870539037507 3:-0.9670870539037507 4:-0.5357518206807317 5:-0.271209761138726 6:-0.3449963571655104 7:0.3768454992111689 8:-0.1350389724527743 9:-0.5073962239982714 10:-0.4335033060743624 11:-0.04852036153617985 12:-0.1648728022122864 13:-0.1165706768304247 14:-0.1741516315108161 15:-0.4896561654499069 16:-0.4329743035711364 17:0.1326554357846362 18:-0.4998733268429587 19:-0.341840815627631 20:0.4446041690428541 
122.16492450638792 1:7.190173788327194 2:1.109145275901383 3:1.109145275901383 4:-0.9305756014752495 5:-1.114369570451803 6:-0.3449963571655104 7:0.3768454992111689 8:-0.1350389724527743 9:-0.5073962239982714 10:-0.4335033060743624 11:-0.04852036153617985 12:-0.1648728022122864 13:-0.1105269711421926 14:-0.1741516315108161 15:-0.4896561654499069 16:-0.4329743035711364 17:0.1326554357846362 18:-0.4998733268429587 19:-0.341840815627631 20:0.4446041690428541 
122.16492450638792 1:-0.2599637432345034 2:-0.9670870539037507 3:-0.9670870539037507 4:1.833190864086376 5:0.9119338422522045 6:-0.3449963571655104 7:0.3768454992111689 8:-0.1350389724527743 9:-0.5073962239982714 10:-0.4335033060743624 11:-0.02098458130912452 12:0.1412142113740675 13:0.2644995886812105 14:-0.1741516315108161 15:-0.4896561654499069 16:-0.4329743035711364 17:0.3596450012176413 18:0.4409959447547277 19:-0.341840815627631 20:0.8471839754584307 
122.16492450638792 1:-0.06257078369454988 2:0.1654033078081404 3:0.1654033078081404 4:-0.4863988480814169 5:-0.9919754045837755 6:1.466669469719872 7:-2.707321117762435 8:-0.1350389724527743 9:2.024200652669565 10:1.693131908918406 11:-0.04852036153617985 12:0.1412142113740675 13:0.1796358879756179 14:-0.1741516315108161 15:2.326201822263111 16:2.271787131218658 17:0.1326554357846362 18:0.4409959447547277 19:-0.341840815627631 20:0.4446041690428541 
122.16492450638792 1:-0.2906978913322552 2:-0.9670870539037507 3:-0.9670870539037507 4:-0.4863988480814169 5:0.2183669023333834 6:-0.3449963571655104 7:0.3768454992111689 8:-0.1350389724527743 9:-0.5073962239982714 10:-0.4335033060743624 11:-0.08638205934838095 12:-0.2106653475519771 13:-0.1665774674443452 14:-0.1741516315108161 15:-0.4896561654499069 16:-0.4329743035711364 17:-0.7429585924838237 18:-1.072353565156356 19:2.925338217477786 20:-1.165715056619452 
122.16492450638792 1:-0.2600923379964187 2:-0.9670870539037507 3:-0.9670870539037507 4:-0.5357518206807317 5:-0.8831805904788624 6:2.420177799659546 7:-2.170079190934776 8:-0.1350389724527743 9:2.61182777980233 10:1.409475835610724 11:-0.07605614176323519 12:-0.1383613285945706 13:-0.08910533925746739 14:-0.1741516315108161 15:2.05327843672248 16:1.198132509184848 17:0.3596450012176413 18:1.254523801522441 19:-0.341840815627631 20:0.8471839754584307 
43.037269732359135 1:-0.2842681532364912 2:-0.9670870539037507 3:-0.9670870539037507 4:-0.4699478572149787 5:-0.9239786457682049 6:2.420177799659546 7:-2.010896397800654 8:-0.1350389724527743 9:3.337847141937067 10:4.878840128524915 11:-0.08294008681999902 12:-0.1648728022122864 13:-0.161175499322471 14:-0.1741516315108161 15:2.549460731849233 16:3.363738807890079 17:0.3596450012176413 18:2.063155006806081 19:-0.341840815627631 20:0.8471839754584307 
122.16492450638792 1:-0.3023099983332049 2:-0.9670870539037507 3:-0.9670870539037507 4:0.9448373572987105 5:0.3815591234907529 6:-0.3449963571655104 7:0.3768454992111689 8:-0.1350389724527743 9:-0.5073962239982714 10:-0.4335033060743624 11:-0.08638205934838095 12:-0.2106653475519771 13:-0.1665774674443452 14:-0.1741516315108161 15:-0.4896561654499069 16:-0.4329743035711364 17:-0.7429585924838237 18:-1.072353565156356 19:2.925338217477786 20:-1.165715056619452 
122.16492450638792 1:-0.3045989850952968 2:-0.9670870539037507 3:-0.9670870539037507 4:0.7803274486343281 5:0.06877403293912764 6:-0.3449963571655104 7:0.3768454992111689 8:-0.1350389724527743 9:-0.5073962239982714 10:-0.4335033060743624 11:-0.08294008681999902 12:-0.1648728022122864 13:-0.1462043305275627 14:-0.1741516315108161 15:-0.4896561654499069 16:-0.4329743035711364 17:0.1326554357846362 18:2.176285653635535 19:-0.341840815627631 20:0.4446041690428541 
81.50555359921592 1:-0.1925800879908972 2:-0.9670870539037507 3:-0.9670870539037507 4:-0.7002617293451141 5:-0.02642142940267116 6:-0.3449963571655104 7:0.3768454992111689 8:-0.1350389724527743 9:-0.5073962239982714 10:-0.4335033060743624 11:-0.02098458130912452 12:-0.1648728022122864 13:-0.107927527835426 14:-0.1741516315108161 15:-0.4896561654499069 16:-0.4329743035711364 17:0.3596450012176413 18:-0.4998733268429587 19:-0.3418408095420358 20:0.4446041690428541 
122.16492450638792 1:-0.3018727761426929 2:0.1654033078081404 3:0.1654033078081404 4:-1.374752354869082 5:-1.073571515162461 6:-0.3449963571655104 7:0.3768454992111689 8:-0.1350389724527743 9:-0.5073962239982714 10:-0.4335033060743624 11:-0.04852036153617985 12:-0.1841538739342614 13:-0.1326222392497078 14:-0.1741516315108161 15:-0.4896561654499069 16:-0.4329743035711364 17:0.1326554357846362 18:-0.6177280492981125 19:-0.341840815627631 20:-1.165715056619452 
122.16492450638792 1:-0.03170804083488288 2:-0.9670870539037507 3:-0.9670870539037507 4:-0.4863988480814169 5:-0.9210851666696699 6:-0.3449963571655104 7:0.3768454992111689 8:-0.1350389724527743 9:-0.5073962239982714 10:-0.4335033060743624 11:-0.04852036153617985 12:0.2424398379144365 13:-0.02766971573901037 14:-0.1741516315108161 15:0.4789365219116364 16:-0.3184194726827183 17:-0.5178300617614174 18:-0.3281893500432922 19:-0.341840815627631 20:0.8471839754584307 
122.16492450638792 1:-0.286454264189051 2:-0.2120934794291566 3:-0.2120934794291566 4:-1.440556318334835 5:-1.739939751555053 6:-0.3449963571655104 7:0.3768454992111689 8:-0.1350389724527743 9:-0.5073962239982714 10:-0.4335033060743624 11:-0.02098458130912452 12:-0.1648728022122864 13:-0.107927527835426 14:-0.1741516315108161 15:-0.4896561654499069 16:-0.4329743035711364 17:0.3596450012176413 18:-0.4998733268429587 19:-0.3418408095420358 20:0.4446041690428541 
122.16492450638792 1:0.1007445639378547 2:-0.5895902666664535 3:-0.5895902666664535 4:-0.6673597476122376 5:-0.5839948516903513 6:0.03640697481035953 7:-0.1206007293329608 8:-0.1350389724527743 9:0.848637900332252 10:-0.04190263652943836 11:-0.02098458130912452 12:-0.03954583601944854 13:-0.02766971573901037 14:-0.1741516315108161 15:0.8104832955641763 16:0.4144554863839311 17:-0.05376265436144249 18:-0.4998733268429587 19:-0.3418408141062322 20:0.8471839754584307 
122.16492450638792 1:-0.3059042219287369 2:-0.9670870539037507 3:-0.9670870539037507 4:-1.012830555807441 5:-0.3120078164280685 6:-0.1542946911775754 7:0.3768454992111689 8:-0.1350389724527743 9:1.569165996789248 10:0.105463927198993 11:-0.07605614176323519 12:-0.1528221323860519 13:-0.1455308383980823 14:-0.1741516315108161 15:-0.4485592509885629 16:-0.4232336003943993 17:-0.5586497436793014 18:0.3849691449899089 19:-0.341840815627631 20:-1.165715056619452 
119.43785842278258 1:-0.1835784546568276 2:-0.9670870539037507 3:-0.9670870539037507 4:-1.11153650100607 5:-1.114369570451803 6:0.4178103067862295 7:-0.8966168458618025 8:-0.1350389724527743 9:1.263074209965891 10:0.8413637385129207 11:-0.04852036153617985 12:-0.1359511946293238 13:-0.09249333320149994 14:-0.1741516315108161 15:1.810721555385862 16:1.066409929613104 17:-0.7253748142583096 18:-0.4998733268429587 19:-0.341840815627631 20:-0.3605554437882991 
122.16492450638792 1:-0.1744482265608428 2:-0.9670870539037507 3:-0.9670870539037507 4:-0.4041438937492257 5:-0.747187072847721 6:-0.3449963571655104 7:0.3768454992111689 8:-0.1350389724527743 9:-0.5073962239982714 10:-0.4335033060743624 11:-0.04852036153617985 12:-0.1648728022122864 13:-0.109691435793589 14:-0.1741516315108161 15:-0.4896561654499069 16:-0.4329743035711364 17:0.1326554357846362 18:-0.4998733268429587 19:-0.341840815627631 20:0.4446041690428541 
122.16492450638792 1:-0.2378454441850754 2:-0.9670870539037507 3:-0.9670870539037507 4:0.911935375565834 5:0.2047675505702692 6:-0.3449963571655104 7:0.3768454992111689 8:-0.1350389724527743 9:-0.5073962239982714 10:-0.4335033060743624 11:-0.08638205934838095 12:-0.2106653475519771 13:-0.1665774674443452 14:-0.1741516315108161 15:-0.4896561654499069 16:-0.4329743035711364 17:-0.7429585924838237 18:-1.072353565156356 19:2.925338217477786 20:-1.165715056619452 
46.56805801486958 1:-0.1820353175138442 2:-0.9670870539037507 3:-0.9670870539037507 4:-0.4534968663485404 5:0.4359565305432096 6:-0.3449963571655104 7:0.3768454992111689 8:-0.1350389724527743 9:-0.5073962239982714 10:-0.4335033060743624 11:-0.04852036153617985 12:0.03998858483369853 13:-0.04372127815829351 14:-0.1741516315108161 15:-0.4881667672982176 16:-0.4325859881939964 17:-0.6784225423947651 18:-0.9190808653749816 19:-0.3418408125848334 20:0.04202436262727747 
122.16492450638792 1:-0.2688367818066577 2:-0.9670870539037507 3:-0.9670870539037507 4:-0.7660656928108671 5:0.04157532941289933 6:-0.3449963571655104 7:0.3768454992111689 8:-0.1350389724527743 9:-0.5073962239982714 10:-0.4335033060743624 11:-0.04852036153617985 12:-0.0829282473938924 13:-0.06085323420195146 14:-0.1741516315108161 15:-0.4780417057967138 16:-0.4254040086916393 17:-0.6412387059978591 18:-0.6177280492981125 19:-0.341840815627631 20:0.04202436262727747 
122.16492450638792 1:-0.2940413551420524 2:-0.4637580042540212 3:-0.4637580042540212 4:0.7309744760350134 5:1.918285872722651 6:-0.3449963571655104 7:0.3768454992111689 8:-0.1350389724527743 9:-0.5073962239982714 10:-0.4335033060743624 11:-0.08638205934838095 12:-0.2106653475519771 13:-0.1665774674443452 14:-0.1741516315108161 15:-0.4896561654499069 16:-0.4329743035711364 17:-0.7429585924838237 18:-1.072353565156356 19:2.925338217477786 20:-1.165715056619452 
56.17183225822356 1:-0.1500152217969397 2:-0.9670870539037507 3:-0.9670870539037507 4:-0.1244770490197755 5:-0.7063890175583786 6:2.038774467683677 7:-2.985891005747149 8:-0.1350389724527743 9:1.865694343387323 10:2.21333805623788 11:0.8670443310134102 12:0.456941760821409 13:0.6884769152751602 14:5.455536169912868 15:1.856850433801335 16:2.625927689882195 17:1.573042604455895 18:0.1301320105592157 19:-0.341840815627631 20:-1.165715056619452 
122.16492450638792 1:-0.1951519832292027 2:-0.5895902666664535 3:-0.5895902666664535 4:-0.4534968663485404 5:-0.556796148164123 6:-0.3449963571655104 7:0.3768454992111689 8:-0.1350389724527743 9:-0.5073962239982714 10:-0.4335033060743624 11:-0.06573022417808944 12:-0.05641677377617671 13:-0.06563783453846854 14:-0.1741516315108161 15:-0.4810345575036215 16:-0.4307264808936224 17:-0.4548765252439229 18:-0.2732447176911381 19:-0.341840815627631 20:2.05492339470516 
122.16492450638792 1:-0.2681938079970813 2:-0.9670870539037507 3:-0.9670870539037507 4:1.685131946288432 5:0.7759403246210632 6:-0.3449963571655104 7:0.3768454992111689 8:-0.1350389724527743 9:-0.5073962239982714 10:-0.4335033060743624 11:0.416145929795379 12:0.1412142113740675 13:0.2841010158662966 14:-0.1741516315108161 15:-0.4896561654499069 16:-0.4329743035711364 17:2.171770155307192 18:0.4409959447547277 19:-0.341840815627631 20:-1.165715056619452 
122.16492450638792 1:1.493425835480328 2:-0.9670870539037507 3:-0.9670870539037507 4:-0.3218889394170344 5:0.1775688470440409 6:0.03640697481035953 7:0.03858206380116087 8:-0.1350389724527743 9:1.268935673329773 10:0.4235708319932476 11:-0.02098458130912452 12:-0.1504119984208051 13:-0.1058696352175692 14:-0.1741516315108161 15:-0.04073241725757463 16:-0.2983748126604667 17:-0.544379272376363 18:-0.4998733268429587 19:-0.341840815627631 20:0.4446041690428541 
122.16492450638792 1:0.03516123536106228 2:-0.9670870539037507 3:-0.9670870539037507 4:-0.7331637110779906 5:-0.7063890175583786 6:2.896931964629384 7:-3.483337234291279 8:-0.1350389724527743 9:1.968856098591647 10:2.179819120049514 11:-0.07949811429161711 12:-0.1648728022122864 13:-0.1286710854234227 14:-0.1741516315108161 15:2.513494839617288 16:3.090635967625559 17:0.1326554357846362 18:-0.2458941269376212 19:-0.341840815627631 20:0.8471839754584307 
7.174879501403928 1:-0.3050490667620003 2:-0.9670870539037507 3:-0.9670870539037507 4:0.2045427683089895 5:-0.380004575243639 6:-0.3449963571655104 7:0.3768454992111689 8:-0.1350389724527743 9:-0.5073962239982714 10:-0.4335033060743624 11:-0.08638205934838095 12:-0.2106653475519771 13:-0.1665774674443452 14:-0.1741516315108161 15:-0.4896561654499069 16:-0.4329743035711364 17:-0.7429585924838237 18:-1.072353565156356 19:2.925338217477786 20:-1.165715056619452 
122.16492450638792 1:0.3026383401448429 2:0.2912355702205728 3:0.2912355702205728 4:0.6980724943021369 5:0.6671455105161502 6:-0.3449963571655104 7:0.3768454992111689 8:-0.1350389724527743 9:-0.5073962239982714 10:-0.4335033060743624 11:-0.04852036153617985 12:-0.1769234720385208 13:-0.12799198085953 14:-0.1741516315108161 15:-0.4896561654499069 16:-0.4329743035711364 17:0.1326554357846362 18:-0.1789569979415078 19:-0.341840815627631 20:-0.7631352502038756 
122.16492450638792 1:0.289778863953315 2:-0.9670870539037507 3:-0.9670870539037507 4:-1.144438482738947 5:-0.712830815761959 6:-0.2195347348050269 7:-0.1206007293329608 8:-0.1350389724527743 9:0.7900232666934314 10:-0.05882959239747363 11:-0.08638205934838095 12:-0.1648728022122864 13:-0.1218183030059595 14:-0.1741516315108161 15:-0.4896561654499069 16:-0.4329743035711364 17:-0.7429585924838237 18:-0.4998733268429587 19:-0.341840815627631 20:0.4446041690428541 
122.16492450638792 1:-0.293398381332476 2:1.581016259948004 3:1.581016259948004 4:-0.3876929028827874 5:-0.8695812387157483 6:-0.3449963571655104 7:0.3768454992111689 8:-0.1350389724527743 9:-0.5073962239982714 10:-0.4335033060743624 11:-0.05540430659294369 12:-0.1889741418647552 13:-0.1387959171032782 14:-0.1741516315108161 15:-0.4896561654499069 16:-0.4329743035711364 17:0.1258258781069685 18:-0.6212740079991549 19:-0.341840815627631 20:-1.165715056619452 
122.16492450638792 1:-0.254691357995977 2:0.3541517014267889 3:0.3541517014267889 4:-0.7825166836773053 5:-0.747187072847721 6:-0.3449963571655104 7:0.3768454992111689 8:-0.1350389724527743 9:-0.5073962239982714 10:-0.4335033060743624 11:-0.06228825164970753 12:-0.1841538739342614 13:-0.1437348593861346 14:-0.1741516315108161 15:-0.4896561654499069 16:-0.4329743035711364 17:0.1326554357846362 18:-0.3688051712453063 19:-0.341840815627631 20:-1.165715056619452 
122.16492450638792 1:-0.2233142360886489 2:-0.2120934794291566 3:-0.2120934794291566 4:0.8132294303672046 5:0.1639694952809267 6:-0.3449963571655104 7:0.3768454992111689 8:-0.1350389724527743 9:-0.5073962239982714 10:-0.4335033060743624 11:0.06506473190042342 12:-0.08774851532438616 13:-0.02075888232083452 14:-0.1741516315108161 15:-0.4888882268591603 16:-0.432436407994246 17:2.429973405842926 18:1.102841089661187 19:-0.341840815627631 20:-1.165715056619452 
122.16492450638792 1:0.289778863953315 2:-0.9670870539037507 3:-0.9670870539037507 4:1.059994293363778 5:0.3679597717276388 6:-0.3449963571655104 7:0.3768454992111689 8:-0.1350389724527743 9:-0.5073962239982714 10:-0.4335033060743624 11:-0.02098458130912452 12:-0.1648728022122864 13:-0.107927527835426 14:-0.1741516315108161 15:-0.4896561654499069 16:-0.4329743035711364 17:0.3596450012176413 18:-0.4998733268429587 19:-0.3418408095420358 20:0.4446041690428541 
122.16492450638792 1:-0.2877402118082037 2:-0.9670870539037507 3:-0.9670870539037507 4:-0.1244770490197755 5:0.05517468117601348 6:-0.05894385818360797 7:-0.2001921259000216 8:-0.1350389724527743 9:0.807299158713294 10:-0.2401734547006722 11:0.05473881431527767 12:-0.04677623791518918 13:-0.03040038094347423 14:-0.1741516315108161 15:0.1230690198397297 16:-0.3408111299613704 17:-0.1027289476745801 18:0.06888914843487597 19:-0.341840815627631 20:-0.3605554437882991 
122.16492450638792 1:-0.2899263227607635 2:0.9203968822827344 3:0.9203968822827344 4:-0.5028498389478552 5:0.4631552340694379 6:-0.3449963571655104 7:0.3768454992111689 8:-0.1350389724527743 9:-0.5073962239982714 10:-0.4335033060743624 11:-0.02786852636588835 12:-0.1696930701427801 13:-0.1141012056889965 14:-0.1741516315108161 15:-0.4896561654499069 16:-0.4329743035711364 17:-0.580215149539232 18:-0.9878559220023944 19:-0.3418408049778394 20:1.652343588289584 
122.16492450638792 1:-0.2779670099026425 2:-0.9670870539037507 3:-0.9670870539037507 4:-0.7002617293451141 5:-0.189613650560041 6:-0.3449963571655104 7:0.3768454992111689 8:-0.1350389724527743 9:-0.5073962239982714 10:-0.4335033060743624 11:-0.07605614176323519 12:-0.1889741418647552 13:-0.1438471080743813 14:-0.1741516315108161 15:-0.4456109922048764 16:-0.3912163307820742 17:-0.564732756465394 18:-0.6940678447075198 19:-0.341840815627631 20:-0.7631352502038756 
122.16492450638792 1:-0.3046118445714884 2:-0.4008418730478051 3:-0.4008418730478051 4:0.02358186877816876 5:-0.2168123540862694 6:-0.3449963571655104 7:0.3768454992111689 8:-0.1350389724527743 9:-0.5073962239982714 10:-0.4335033060743624 11:-0.08638205934838095 12:-0.2106653475519771 13:-0.1665774674443452 14:-0.1741516315108161 15:-0.4896561654499069 16:-0.4329743035711364 17:-0.7429585924838237 18:-1.072353565156356 19:2.925338217477786 20:-1.165715056619452 
122.16492450638792 1:-0.2624070437108937 2:0.3541517014267889 3:0.3541517014267889 4:-0.1902810124855285 5:-0.6655909622690361 6:-0.3449963571655104 7:0.3768454992111689 8:-0.1350389724527743 9:-0.5073962239982714 10:-0.4335033060743624 11:-0.04852036153617985 12:-0.1407714625598175 13:-0.09094991373810733 14:-0.1741516315108161 15:1.674195103105341 16:1.682620308766282 17:0.1326554357846362 18:-0.2917800171689178 19:-0.341840815627631 20:-1.165715056619452 
122.16492450638792 1:-0.2698655399019799 2:-0.9670870539037507 3:-0.9670870539037507 4:-0.2889869576841579 5:-0.05362013292889948 6:-0.3449963571655104 7:0.3768454992111689 8:-0.1350389724527743 9:-0.5073962239982714 10:-0.4335033060743624 11:-0.02098458130912452 12:-0.13113092669883 13:-0.1007249036729272 14:-0.1741516315108161 15:-0.3004741856412066 16:-0.3918714192986226 17:-0.500327568294715 18:-0.4998733268429587 19:-0.341840815627631 20:0.4446041690428541 
17.671100845778966 1:-0.2793815522837106 2:-0.9670870539037507 3:-0.9670870539037507 4:-0.9963795649410025 5:-1.00557475634689 6:0.03640697481035953 7:-0.1206007293329608 8:-0.1350389724527743 9:1.564106628412002 10:1.553543134350149 11:-0.08294008681999902 12:-0.1817437399690145 13:-0.1418827560300635 14:-0.1741516315108161 15:2.549460731849233 16:1.778256012888616 17:-0.5588859612832517 18:-0.6177280492981125 19:-0.341840815627631 20:-0.7631352502038756 
122.16492450638792 1:0.6999961544630556 2:-0.9670870539037507 3:-0.9670870539037507 4:-0.04222209468758423 5:-0.6383922587428078 6:4.041141960556994 7:-3.821600669701287 8:-0.1350389724527743 9:2.493611318694982 10:2.637186544962093 11:-0.04852036153617985 12:0.2834121153236335 13:0.3868281438716372 14:-0.1741516315108161 15:2.291109775841614 16:2.480124376184201 17:0.1326554357846362 18:1.293118931612985 19:-0.341840815627631 20:0.4446041690428541 
122.16492450638792 1:0.9790467878192113 2:-0.9670870539037507 3:-0.9670870539037507 4:0.5006606039048779 5:-0.08081883645512779 6:-0.3449963571655104 7:0.3768454992111689 8:-0.1350389724527743 9:-0.5073962239982714 10:-0.4335033060743624 11:-0.08638205934838095 12:-0.2106653475519771 13:-0.1665774674443452 14:-0.1741516315108161 15:-0.4896561654499069 16:-0.4329743035711364 17:-0.7429585924838237 18:-1.072353565156356 19:2.925338217477786 20:-1.165715056619452 
118.02622560809496 1:-0.2667792656160132 2:-0.9670870539037507 3:-0.9670870539037507 4:-0.7825166836773053 5:-0.9647767010575472 6:2.229476133671612 7:-3.1848694971648 8:-0.1350389724527743 9:2.214914160645979 10:1.455455397993489 11:-0.08294008681999902 12:-0.1962045437604958 13:-0.1493078550701684 14:6.753619524975276 15:2.549460731849233 16:3.347262990552222 17:-0.3461191305625519 18:0.6052286844520642 19:-0.341840815627631 20:-0.7631352502038756 
122.16492450638792 1:-0.3003424984759011 2:0.1654033078081404 3:0.1654033078081404 4:0.10583682311036 5:-0.5023987411116664 6:-0.3449963571655104 7:0.3768454992111689 8:-0.1350389724527743 9:-0.5073962239982714 10:-0.4335033060743624 11:-0.08638205934838095 12:-0.2106653475519771 13:-0.1665774674443452 14:-0.1741516315108161 15:-0.4896561654499069 16:-0.4329743035711364 17:-0.7429585924838237 18:-1.072353565156356 19:2.925338217477786 20:-1.165715056619452 
122.16492450638792 1:0.4029422544387607 2:-0.7154225290788859 3:-0.7154225290788859 4:-0.2396339850848432 5:-0.4752000375854381 6:-0.3449963571655104 7:0.3768454992111689 8:-0.1350389724527743 9:-0.5073962239982714 10:-0.4335033060743624 11:-0.04852036153617985 12:-0.1841538739342614 13:-0.1326222392497078 14:-0.1741516315108161 15:-0.4896561654499069 16:-0.4329743035711364 17:0.1326554357846362 18:-0.6177280492981125 19:-0.341840815627631 20:-1.165715056619452 
122.16492450638792 1:1.081922597351435 2:-0.9670870539037507 3:-0.9670870539037507 4:-0.3712419120163492 5:-0.8967799422419767 6:4.517896125526831 7:-4.358842596528946 8:-0.1350389724527743 9:1.83182125510552 10:2.676373152223154 11:-0.04852036153617985 12:0.435250555134187 13:0.6216468525102602 14:-0.1741516315108161 15:2.404437288393201 16:3.151124213826811 17:0.1326554357846362 18:1.001624173904079 19:-0.341840815627631 20:0.8471839754584307 
122.16492450638792 1:-0.2116121127543585 2:0.5429000950454375 3:0.5429000950454375 4:-0.6673597476122376 5:-0.6519916105059219 6:-0.3449963571655104 7:0.3768454992111689 8:-0.1350389724527743 9:-0.5073962239982714 10:-0.4335033060743624 11:-0.03131049889427026 12:-0.1263106587683362 13:-0.1068985815264976 14:-0.1741516315108161 15:-0.1265408967402808 16:-0.1230602271487255 17:-0.629646068306762 18:-0.4998733268429587 19:-0.341840815627631 20:0.8471839754584307 
122.16492450638792 1:-0.2921124337133232 2:0.9203968822827344 3:0.9203968822827344 4:-0.4699478572149787 5:-0.9783760528206614 6:1.657371135707807 7:-1.195084582988281 8:5.085204460244526 9:1.767098359645391 10:2.480085499300177 11:-0.07605614176323519 12:-0.2034349456562365 13:-0.1573169506639895 14:7.117231793230048 15:2.549460731849233 16:3.528813290997087 17:2.086425304056594 18:0.3966842437391837 19:-0.341840815627631 20:-1.165715056619452 
122.16492450638792 1:0.6305549830288049 2:-0.9670870539037507 3:-0.9670870539037507 4:-0.8647716380094966 5:-1.100770218688689 6:-0.3449963571655104 7:0.3768454992111689 8:-0.1350389724527743 9:-0.5073962239982714 10:-0.4335033060743624 11:-0.04852036153617985 12:-0.1648728022122864 13:-0.1202748835425669 14:-0.1741516315108161 15:-0.4896561654499069 16:-0.4329743035711364 17:0.1326554357846362 18:-0.4998733268429587 19:-0.341840815627631 20:0.8471839754584307 
122.16492450638792 1:-0.2775812256168967 2:-0.4952160698571293 3:-0.4952160698571293 4:1.849641854952814 5:1.020728656357118 6:-0.3449963571655104 7:0.3768454992111689 8:-0.1350389724527743 9:-0.5073962239982714 10:-0.4335033060743624 11:-0.04852036153617985 12:-0.08774851532438616 13:-0.02458287681222516 14:-0.1741516315108161 15:-0.4858925531568239 16:-0.4286813448358512 17:0.1326554357846362 18:-0.3671405734616022 19:-0.341840815627631 20:-1.165715056619452 
122.16492450638792 1:0.01587202107377041 2:-0.9670870539037507 3:-0.9670870539037507 4:1.60287699195624 5:0.7487416210948349 6:-0.3449963571655104 7:0.3768454992111689 8:-0.1350389724527743 9:-0.5073962239982714 10:-0.4335033060743624 11:0.2612571660181927 12:0.03275818293795789 13:0.1451932641609618 14:-0.172322995070539 15:-0.4888939726559021 16:-0.4319807103471834 17:1.9381517724121 18:0.3196994894573181 19:-0.341840815627631 20:-1.165715056619452 
49.700005014032484 1:-0.2721802456164549 2:-0.9670870539037507 3:-0.9670870539037507 4:-0.6509087567457994 5:0.3679597717276388 6:-0.3449963571655104 7:0.3768454992111689 8:-0.1350389724527743 9:-0.5073962239982714 10:-0.4335033060743624 11:-0.02098458130912452 12:-0.1648728022122864 13:-0.107927527835426 14:-0.1741516315108161 15:-0.4896561654499069 16:-0.4329743035711364 17:0.3596450012176413 18:-0.4998733268429587 19:-0.341840808020637 20:0.8471839754584307 
122.16492450638792 1:-0.2666506708540979 2:-0.9670870539037507 3:-0.9670870539037507 4:0.5664645673706309 5:-0.1216168917444703 6:0.2271086407982945 7:-0.7772297510112122 8:-0.1350389724527743 9:1.598781811680441 10:1.067452795560635 11:-0.02098458130912452 12:-0.06364717567191736 13:1.118346020565869E-4 14:-0.1741516315108161 15:-0.009795621786409414 16:-0.1486354922930793 17:0.3596450012176413 18:0.2050340712671836 19:-0.341840815627631 20:0.8471839754584307 
122.16492450638792 1:0.5019602211135257 2:-0.9670870539037507 3:-0.9670870539037507 4:-0.4041438937492257 5:0.2863636611489542 6:0.322459473792262 7:-0.06090718190766473 8:-0.1350389724527743 9:1.495249858789977 10:0.6139570862948359 11:-0.06917219670647136 12:-0.06123704170667047 13:-0.1145421826785372 14:-0.1741516315108161 15:-0.1974333816381007 16:-0.3218742411090091 17:-0.7325776939842534 18:-0.4998733268429587 19:-0.341840815627631 20:0.8471839754584307 
122.16492450638792 1:-0.2662648865683521 2:0.9203968822827344 3:0.9203968822827344 4:-0.09157506728689897 5:-0.6791903140321502 6:-0.3449963571655104 7:0.3768454992111689 8:-0.1350389724527743 9:-0.5073962239982714 10:-0.4335033060743624 11:0.1063684022410064 12:-0.07569784549815176 13:0.006285512455627022 14:-0.1429251504124749 15:-0.4766406756832946 16:-0.4160073333501423 17:0.8858668342701925 18:-0.2266549171511045 19:-0.341840815627631 20:-1.165715056619452 
122.16492450638792 1:-0.3068979636703896 2:-0.9670870539037507 3:-0.9670870539037507 4:0.5171115947713162 5:-0.09441818821824195 6:-0.3449963571655104 7:0.3768454992111689 8:-0.1350389724527743 9:-0.5073962239982714 10:-0.4335033060743624 11:-0.04852036153617985 12:1.577654054661209 13:0.6087064987987633 14:-0.1741516315108161 15:-0.3916201394264747 16:-0.399342830935332 17:0.03690816172057615 18:0.4615416249797501 19:-0.341840815627631 20:0.4446041690428541 
122.16492450638792 1:0.1367510972741328 2:-0.9670870539037507 3:-0.9670870539037507 4:-0.8318696562766201 5:-0.8559818869526341 6:-0.1542946911775754 7:-0.1206007293329608 8:-0.1350389724527743 9:1.466868036185916 10:0.1094154400066553 11:-0.08294008681999902 12:-0.1359511946293238 13:-0.09558017212828517 14:-0.1741516315108161 15:2.549460731849233 16:0.2273236288569009 17:-0.1731909247455174 18:0.3397216556783137 19:-0.341840815627631 20:0.8471839754584307 
68.86183459747289 1:-0.3040846060476357 2:-0.9670870539037507 3:-0.9670870539037507 4:-0.2889869576841579 5:-0.747187072847721 6:0.8945644717560669 7:-2.369057682352427 8:-0.1350389724527743 9:2.696726449157084 10:2.46983489118346 11:-0.04852036153617985 12:-0.1648728022122864 13:-0.12799198085953 14:-0.1741516315108161 15:1.451559877417513 16:1.113482645490473 17:0.1326554357846362 18:1.116646456945833 19:-0.341840815627631 20:0.4446041690428541 
122.16492450638792 1:1.043344168776851 2:-0.9670870539037507 3:-0.9670870539037507 4:-0.897673619742373 5:-0.6383922587428078 6:0.03640697481035953 7:0.1181734603682217 8:-0.1350389724527743 9:1.021088322459097 10:1.180579934108346 11:-0.05196233406456176 12:-0.1648728022122864 13:-0.1192459372336385 14:-0.1741516315108161 15:2.140348911499534 16:1.84473614265102 17:-0.7005839379845853 18:-0.4998733268429587 19:-0.341840815627631 20:0.8471839754584307 
122.16492450638792 1:0.4479504211091084 2:-0.9670870539037507 3:-0.9670870539037507 4:0.171640786576113 5:1.428709209250542 6:-0.3449963571655104 7:0.3768454992111689 8:-0.1350389724527743 9:-0.5073962239982714 10:-0.4335033060743624 11:-0.02098458130912452 12:-0.1648728022122864 13:-0.107927527835426 14:-0.1741516315108161 15:-0.4896561654499069 16:-0.4329743035711364 17:0.3596450012176413 18:-0.4998733268429587 19:-0.3418408110634346 20:0.04202436262727747 
122.16492450638792 1:-0.08185999798184176 2:-0.9670870539037507 3:-0.9670870539037507 4:0.6816215034356986 5:-0.05362013292889948 6:-0.3449963571655104 7:0.3768454992111689 8:-0.1350389724527743 9:-0.5073962239982714 10:-0.4335033060743624 11:0.09948445718424259 12:0.1629054170612894 13:0.1754828711300418 14:-0.1741516315108161 15:-0.4761679100308027 16:-0.4230837160423755 17:1.858924229319217 18:0.5026614616738511 19:-0.341840815627631 20:-0.7631352502038756 
122.16492450638792 1:-0.1770201217991484 2:-0.7783386602851021 3:-0.7783386602851021 4:-0.1738300216190902 5:0.1503701435178126 6:-0.3449963571655104 7:0.3768454992111689 8:-0.1350389724527743 9:-0.5073962239982714 10:-0.4335033060743624 11:-0.02098458130912452 12:-0.1287207927335831 13:-0.06934204125061082 14:-0.1741516315108161 15:-0.4896561654499069 16:-0.4329743035711364 17:-0.4548765252439229 18:-0.4998733268429587 19:-0.341840815627631 20:0.4446041690428541 
122.16492450638792 1:-0.293398381332476 2:-0.9670870539037507 3:-0.9670870539037507 4:-1.276046409670453 5:-1.427154661003428 6:0.03640697481035953 7:0.03858206380116087 8:5.65486413869503 9:1.312187102993787 10:2.456836770861637 11:-0.07261416923485328 12:-0.1962045437604958 13:-0.1501143265014907 14:0.8842749631176734 15:2.091511545820834 16:1.072026423854044 17:-0.6216644833353704 18:-0.9988539200152281 19:-0.341840815627631 20:0.04202436262727747 
122.16492450638792 1:1.429128454522688 2:-0.9670870539037507 3:-0.9670870539037507 4:-0.6180067750129229 5:-0.189613650560041 6:-0.2496455241715429 7:-0.1206007293329608 8:-0.1350389724527743 9:0.7774365453646742 10:-0.1154699866795066 11:-0.07261416923485328 12:-0.1648728022122864 13:-0.1158651136471595 14:-0.1741516315108161 15:0.4854615633581799 16:-0.085942468802986 17:-0.6325835825549853 18:-0.4998733268429587 19:-0.341840815627631 20:0.4446041690428541 
122.16492450638792 1:-0.3046375635238714 2:-0.5895902666664535 3:-0.5895902666664535 4:-0.7825166836773053 5:-1.182366329267374 6:-0.3449963571655104 7:0.3768454992111689 8:-0.1350389724527743 9:-0.5073962239982714 10:-0.4335033060743624 11:-0.02098458130912452 12:-0.1648728022122864 13:-0.107927527835426 14:-0.1741516315108161 15:-0.4896561654499069 16:-0.4329743035711364 17:0.3596450012176413 18:-0.4998733268429587 19:-0.341840808020637 20:0.8471839754584307 
122.16492450638792 1:-0.3069003040950565 2:2.241635637613274 3:2.241635637613274 4:-1.457007309201273 5:-1.710087515977486 6:-0.3449963571655104 7:0.3768454992111689 8:-0.1350389724527743 9:-0.5073962239982714 10:-0.4335033060743624 11:-0.04852036153617985 12:-0.1841538739342614 13:-0.1326222392497078 14:-0.1741516315108161 15:-0.4896561654499069 16:-0.4329743035711364 17:0.1326554357846362 18:-0.6177280492981125 19:-0.341840815627631 20:-1.165715056619452 
100.58352243186116 1:-0.3035316485714 2:-0.9670870539037507 3:-0.9670870539037507 4:-0.3712419120163492 5:0.1639694952809267 6:2.038774467683677 7:-1.016003940712395 8:-0.1350389724527743 9:1.551519907083245 10:1.744293890919452 11:-0.08294008681999902 12:-0.1986146777257427 13:-0.1548088940359765 14:-0.1741516315108161 15:2.549460731849233 16:1.909924871715892 17:-0.6759249072360338 18:-0.5686613064949216 19:-0.341840815627631 20:-0.3605554437882991 
122.16492450638792 1:-0.2658791022826063 2:-0.4637580042540212 3:-0.4637580042540212 4:0.6322685308363839 5:0.1231714399915843 6:-0.3449963571655104 7:0.3768454992111689 8:-0.1350389724527743 9:-0.5073962239982714 10:-0.4335033060743624 11:-0.06917219670647136 12:-0.04195596998469542 13:-0.01738025264972631 14:-0.1741516315108161 15:-0.4896561654499069 16:-0.4329743035711364 17:-0.1103073636194568 18:-0.6137363602252065 19:-0.341840815627631 20:-0.7631352502038756 
122.16492450638792 1:-0.3043803740000409 2:0.9203968822827344 3:0.9203968822827344 4:0.2867977226411807 5:-0.3528058717174106 6:-0.3449963571655104 7:0.3768454992111689 8:-0.1350389724527743 9:-0.5073962239982714 10:-0.4335033060743624 11:0.04785486925851383 12:0.1074723358606112 13:0.2239984461741845 14:-0.1741516315108161 15:-0.4588021874292939 16:-0.4306083510399958 17:1.521116000857267 18:1.426229801821205 19:-0.341840815627631 20:-0.7631352502038756 
122.16492450638792 1:-0.2525052470434173 2:-0.7154225290788859 3:-0.7154225290788859 4:0.6487195217028221 5:0.7351422693317208 6:-0.3449963571655104 7:0.3768454992111689 8:-0.1350389724527743 9:-0.5073962239982714 10:-0.4335033060743624 11:-0.06917219670647136 12:-0.09738905118537368 13:-0.05223843372770905 14:-0.1741516315108161 15:-0.4896561654499069 16:-0.4329743035711364 17:-0.198855716658304 18:2.669482697968252 19:-0.341840815627631 20:-0.7631352502038756 
122.16492450638792 1:-0.2490331884717047 2:-0.9670870539037507 3:-0.9670870539037507 4:0.7967784395007663 5:0.1095720882284701 6:-0.3449963571655104 7:0.3768454992111689 8:-0.1350389724527743 9:-0.5073962239982714 10:-0.4335033060743624 11:0.04785486925851383 12:-0.1166701229073487 13:-0.04619074929972168 14:-0.1722203950177019 15:-0.4888512079930011 16:-0.4319249624056949 17:1.818582200368875 18:0.2576180510424982 19:-0.341840815627631 20:-1.165715056619452 
122.16492450638792 1:-0.272694624664116 2:-0.9670870539037507 3:-0.9670870539037507 4:0.1880917774425512 5:0.6807448622792641 6:-0.3449963571655104 7:0.3768454992111689 8:-0.1350389724527743 9:-0.5073962239982714 10:-0.4335033060743624 11:-0.05196233406456176 12:-0.02508503222796725 13:-0.0965623481504441 14:-0.1741516315108161 15:-0.4896561654499069 16:-0.4329743035711364 17:-0.5994126719073665 18:0.1871714704513306 19:-0.341840815627631 20:0.8471839754584307 
122.16492450638792 1:-0.304676141952446 2:-0.9670870539037507 3:-0.9670870539037507 4:-0.3876929028827874 5:0.2319662540964975 6:-0.3449963571655104 7:0.3768454992111689 8:-0.1350389724527743 9:-0.5073962239982714 10:-0.4335033060743624 11:-0.06573022417808944 12:-0.1624626682470395 13:-0.140853809721135 14:-0.1741516315108161 15:-0.4896561654499069 16:-0.4329743035711364 17:-0.08941369787695738 18:0.8209443692469003 19:-0.341840815627631 20:-1.165715056619452 
34.69783701821302 1:-0.2492903779955352 2:-0.9670870539037507 3:-0.9670870539037507 4:-0.4699478572149787 5:-0.2168123540862694 6:-0.3449963571655104 7:0.3768454992111689 8:-0.1350389724527743 9:-0.5073962239982714 10:-0.4335033060743624 11:0.06850670442880533 12:-0.1022093191158674 13:-0.02766971573901037 14:-0.1619790385015779 15:-0.4845825146838815 16:-0.4263603011015787 17:-0.6240391887523933 18:-1.010609699113155 19:-0.341840815627631 20:-1.165715056619452 
122.16492450638792 1:0.3026383401448429 2:-0.9670870539037507 3:-0.9670870539037507 4:-0.7002617293451141 5:-0.8015844799001776 6:0.03640697481035953 7:-0.4986598630265001 8:-0.1350389724527743 9:1.372159128148454 10:1.100356854002829 11:-0.07261416923485328 12:-0.1600525342817926 13:-0.1208922513279239 14:-0.1741516315108161 15:2.067061253094684 16:1.190492817738 17:-0.6825646288026135 18:-0.6177280492981125 19:-0.341840815627631 20:-0.3605554437882991 
122.16492450638792 1:-0.1268681646521895 2:-0.9670870539037507 3:-0.9670870539037507 4:2.178661672281579 5:1.415109857487428 6:-0.3449963571655104 7:0.3768454992111689 8:-0.1350389724527743 9:-0.5073962239982714 10:-0.4335033060743624 11:-0.04852036153617985 12:0.1412142113740675 13:0.2621682129654543 14:-0.1741516315108161 15:-0.4896561654499069 16:-0.4329743035711364 17:0.1326554357846362 18:0.4409959447547277 19:-0.341840815627631 20:-1.165715056619452 
122.16492450638792 1:-0.2311585165654809 2:-0.9670870539037507 3:-0.9670870539037507 4:1.438367083291858 5:0.5719500481743511 6:-0.3449963571655104 7:0.3768454992111689 8:-0.1350389724527743 9:-0.5073962239982714 10:-0.4335033060743624 11:0.209627578092464 12:-0.003393826540745325 13:0.09889068025918354 14:-0.1741516315108161 15:-0.4896561654499069 16:-0.4329743035711364 17:2.698760772052119 18:0.7146135128330926 19:-0.341840815627631 20:-1.165715056619452 
122.16492450638792 1:-0.1718763313225372 2:-0.9670870539037507 3:-0.9670870539037507 4:-0.2889869576841579 5:-0.3120078164280685 6:-0.2496455241715429 7:0.3768454992111689 8:-0.1350389724527743 9:1.009118597273907 10:0.2234140333158019 11:-0.02098458130912452 12:0.2448499718796834 13:0.04332757957704964 14:-0.1741516315108161 15:-0.4737951476165089 16:-0.4265450940722406 17:-0.6872260891476913 18:-0.4998733268429587 19:-0.341840815627631 20:0.8471839754584307 
122.16492450638792 1:2.200697026014364 2:-0.9670870539037507 3:-0.9670870539037507 4:-0.7331637110779906 5:0.6807448622792641 6:-0.1542946911775754 7:0.09827561122645694 8:-0.1350389724527743 9:0.91854356339834 10:-0.08616217166227987 11:-0.07605614176323519 12:-0.13113092669883 13:-0.100210430518463 14:-0.1741516315108161 15:-0.1637658180092874 16:-0.3854207592875864 17:-0.716395870995309 18:-0.4998733268429587 19:-0.341840815627631 20:2.05492339470516 
122.16492450638792 1:-0.2022246951345431 2:-0.9670870539037507 3:-0.9670870539037507 4:-0.7496147019444288 5:-0.9919754045837755 6:0.131757807804327 7:-0.4986598630265001 8:-0.1350389724527743 9:1.437622418980863 10:2.010196767973175 11:-0.07605614176323519 12:-0.1239005248030894 13:-0.07242888017739603 14:5.381188224148966 15:1.873099364780386 16:2.636846571554059 17:-0.5510021966406673 18:-0.3329009059410012 19:-0.341840815627631 20:-0.7631352502038756 
74.49139376581444 1:-0.2943114041420745 2:-0.9670870539037507 3:-0.9670870539037507 4:-0.6673597476122376 5:-0.8287831834264058 6:4.041141960556994 7:-3.403745837724218 8:-0.1350389724527743 9:2.064984097759313 10:2.067969359243194 11:-0.08294008681999902 12:-0.1865640078995083 13:-0.138313598520968 14:-0.1741516315108161 15:2.549460731849233 16:2.293457846854495 17:-0.01771242690444616 18:1.69040209432799 19:-0.341840815627631 20:-0.7631352502038756 
122.16492450638792 1:-0.2793815522837106 2:-0.9670870539037507 3:-0.9670870539037507 4:1.948347800151444 5:1.564702726881683 6:-0.3449963571655104 7:0.3768454992111689 8:-0.1350389724527743 9:-0.5073962239982714 10:-0.4335033060743624 11:-0.003774718667214928 12:-0.1528221323860519 13:-0.09249333320149994 14:-0.1741516315108161 15:-0.4896561654499069 16:-0.4329743035711364 17:-0.723667781554661 18:-1.062337628240251 19:-0.3418408141062322 20:-0.7631352502038756 
122.16492450638792 1:-0.2733375984736924 2:-0.9670870539037507 3:-0.9670870539037507 4:-0.4699478572149787 5:0.2047675505702692 6:-0.3449963571655104 7:0.3768454992111689 8:-0.1350389724527743 9:-0.5073962239982714 10:-0.4335033060743624 11:-0.06917219670647136 12:-0.1648728022122864 13:-0.123642344189969 14:-0.1741516315108161 15:-0.4740975459421506 16:-0.4200674555126066 17:-0.1281921550741093 18:-0.4998733268429587 19:-0.341840815627631 20:0.4446041690428541 
122.16492450638792 1:1.339112121181993 2:-0.9670870539037507 3:-0.9670870539037507 4:-1.292497400536891 5:-1.345558550424743 6:-0.3449963571655104 7:0.3768454992111689 8:-0.1350389724527743 9:-0.5073962239982714 10:-0.4335033060743624 11:-0.04852036153617985 12:0.9437888218012789 13:0.1661837688631013 14:-0.1741516315108161 15:-0.4781064433713342 16:-0.4299630639776699 17:-0.5393776191684655 18:-0.4998733268429587 19:-0.341840815627631 20:0.04202436262727747 
122.16492450638792 1:-0.2732090037117772 2:-0.9670870539037507 3:-0.9670870539037507 4:-0.7496147019444288 5:0.3951584752538671 6:-0.3449963571655104 7:0.3768454992111689 8:-0.1350389724527743 9:-0.5073962239982714 10:-0.4335033060743624 11:-0.04852036153617985 12:-0.1648728022122864 13:-0.1202748835425669 14:-0.1741516315108161 15:-0.4896561654499069 16:-0.4329743035711364 17:0.1326554357846362 18:-0.4998733268429587 19:-0.341840815627631 20:0.8471839754584307 
20.381662363227434 1:-0.3059402284620732 2:-0.9670870539037507 3:-0.9670870539037507 4:-0.5522028115471699 5:-0.84238253518952 6:5.948158620436343 7:-3.68231572570893 8:-0.1350389724527743 9:3.807011009505058 10:5.482454024606698 11:-0.08294008681999902 12:-0.1648728022122864 13:-0.1620284416575038 14:-0.1741516315108161 15:2.549460731849233 16:3.424555722718976 17:0.3596450012176413 18:3.634563650589792 19:-0.341840815627631 20:0.8471839754584307 
122.16492450638792 1:-0.1513011694160925 2:-0.9670870539037507 3:-0.9670870539037507 4:-0.8647716380094966 5:-0.1488155952706986 6:-0.3449963571655104 7:0.3768454992111689 8:-0.1350389724527743 9:-0.5073962239982714 10:-0.4335033060743624 11:-0.02098458130912452 12:-0.1480018644555582 13:-0.1025255597135519 14:-0.1741516315108161 15:-0.4024683876509565 16:-0.4045598440295483 17:-0.4479078948529709 18:-0.4998733268429587 19:-0.341840815627631 20:0.4446041690428541 
122.16492450638792 1:-0.2424748556140255 2:-0.9670870539037507 3:-0.9670870539037507 4:-0.8647716380094966 5:-0.8151838316632917 6:-0.3449963571655104 7:0.3768454992111689 8:-0.1350389724527743 9:-0.5073962239982714 10:-0.4335033060743624 11:-0.08638205934838095 12:-0.2106653475519771 13:-0.1665774674443452 14:-0.1741516315108161 15:-0.4896561654499069 16:-0.4329743035711364 17:-0.7429585924838237 18:-1.072353565156356 19:2.925338217477786 20:-1.165715056619452 
122.16492450638792 1:-0.07157241702861943 2:-0.9670870539037507 3:-0.9670870539037507 4:-1.177340464471823 5:-0.4208026305329814 6:0.322459473792262 7:-0.7971276001529769 8:5.158091950862967 9:1.258014841588645 10:2.264760366380142 11:0.009993171446312742 12:0.04721898672943917 13:0.08242753931632907 14:1.119726422215324 15:1.345419130762213 16:1.39617010944412 17:-0.6322164903681902 18:-0.9808651355963648 19:-0.341840815627631 20:-0.7631352502038756 
122.16492450638792 1:-0.2347591698991087 2:-0.9670870539037507 3:-0.9670870539037507 4:0.171640786576113 5:-0.4344019822960956 6:0.2271086407982945 7:-1.195084582988281 8:-0.1350389724527743 9:1.07081821163056 10:0.2768408513898055 11:0.209627578092464 12:0.2014675605052395 13:0.2777870271524178 14:-0.1741516315108161 15:-0.3052810282158216 16:-0.2690985441157032 17:1.025139882507212 18:0.7146135128330926 19:-0.341840815627631 20:-0.7631352502038756 
7.260303244056131 1:-0.2824678265696773 2:-0.9670870539037507 3:-0.9670870539037507 4:-1.325399382269767 5:-1.671942992739483 6:-0.3449963571655104 7:0.3768454992111689 8:-0.1350389724527743 9:-0.5073962239982714 10:-0.4335033060743624 11:-0.04852036153617985 12:-0.1648728022122864 13:-0.1161590983068533 14:-0.1741516315108161 15:-0.4896561654499069 16:-0.4329743035711364 17:0.1326554357846362 18:-0.4998733268429587 19:-0.341840815627631 20:0.4446041690428541 
122.16492450638792 1:-0.3016927434760115 2:-0.0862612170167242 3:-0.0862612170167242 4:0.5829155582370692 5:-0.08081883645512779 6:-0.3449963571655104 7:0.3768454992111689 8:-0.1350389724527743 9:-0.5073962239982714 10:-0.4335033060743624 11:-0.08638205934838095 12:-0.2106653475519771 13:-0.1665774674443452 14:-0.1741516315108161 15:-0.4896561654499069 16:-0.4329743035711364 17:-0.7429585924838237 18:-1.072353565156356 19:2.925338217477786 20:-1.165715056619452 
122.16492450638792 1:0.234483116329745 2:-0.9670870539037507 3:-0.9670870539037507 4:-0.7989676745437436 5:-0.7063890175583786 6:2.134125300677644 7:-2.090487794367715 8:-0.1350389724527743 9:1.432871548675401 10:2.095389839892857 11:-0.03475247142265218 12:-0.1359511946293238 13:-0.0784310669794784 14:-0.1741516315108161 15:2.129486884896744 16:2.760715208018131 17:-0.6496749874829666 18:-0.4998733268429587 19:-0.341840815627631 20:0.8471839754584307 
122.16492450638792 1:0.2151939020424531 2:0.3541517014267889 3:0.3541517014267889 4:-0.6509087567457994 5:-0.9306124758965533 6:-0.3449963571655104 7:0.3768454992111689 8:-0.1350389724527743 9:-0.5073962239982714 10:-0.4335033060743624 11:-0.04852036153617985 12:0.04721898672943917 13:0.1488974708731041 14:-0.1741516315108161 15:-0.4885963164855001 16:-0.4316617671369891 17:0.1326554357846362 18:0.345392636557411 19:-0.341840815627631 20:-1.165715056619452 
122.16492450638792 1:-0.3038402759999967 2:-0.9670870539037507 3:-0.9670870539037507 4:-1.325399382269767 5:-1.535949475108341 6:-0.3449963571655104 7:0.3768454992111689 8:-0.1350389724527743 9:-0.5073962239982714 10:-0.4335033060743624 11:-0.05196233406456176 12:-0.1865640078995083 13:-0.135709078176493 14:-0.1151120881254892 15:-0.4650479308448875 16:-0.4008950509866004 17:1.130343290548837 18:-0.09972086691590487 19:-0.341840815627631 20:-1.165715056619452 
122.16492450638792 1:-0.254691357995977 2:0.3541517014267889 3:0.3541517014267889 4:-0.2560849759512814 5:0.09597273646535595 6:-0.3449963571655104 7:0.3768454992111689 8:-0.1350389724527743 9:-0.5073962239982714 10:-0.4335033060743624 11:-0.04852036153617985 12:0.2183384982619677 13:-0.01470499224651245 14:-0.1741516315108161 15:-0.4896561654499069 16:-0.4329743035711364 17:-0.562058190285561 18:-0.4998733268429587 19:-0.3418408141062322 20:0.04202436262727747 
122.16492450638792 1:-0.06771457417116106 2:-0.2120934794291566 3:-0.2120934794291566 4:2.951858243004177 5:2.244670315037391 6:-0.3449963571655104 7:0.3768454992111689 8:-0.1350389724527743 9:-0.5073962239982714 10:-0.4335033060743624 11:-0.06573022417808944 12:0.3171539908370898 13:0.4882306868311255 14:-0.1741516315108161 15:-0.4896561654499069 16:-0.4329743035711364 17:0.5638090127365306 18:0.6738548895796049 19:-0.341840815627631 20:-1.165715056619452 
62.092827889142995 1:-0.2943757015230321 2:-0.9670870539037507 3:-0.9670870539037507 4:0.2867977226411807 5:-0.3664052234805248 6:1.562020302713839 7:-1.792020057241236 8:-0.1350389724527743 9:2.219171434036589 10:2.601543956794312 11:-0.08294008681999902 12:1.07393605592461 13:-0.07413476484746155 14:-0.1741516315108161 15:2.549460731849233 16:3.111783017884643 17:0.2672080494838701 18:0.2529407928870145 19:-0.341840815627631 20:0.8471839754584307 
83.7774272236529 1:-0.2543055737102312 2:-0.9670870539037507 3:-0.9670870539037507 4:-0.8647716380094966 5:-1.16876697750426 6:0.131757807804327 7:-0.1206007293329608 8:-0.1350389724527743 9:1.024481801248713 10:1.205774371579296 11:-0.03131049889427026 12:-0.1648728022122864 13:-0.1158651136471595 14:-0.1741516315108161 15:1.209850032359845 16:1.46600287553493 17:-0.5753281857277196 18:-0.4998733268429587 19:-0.341840815627631 20:0.8471839754584307 
41.98426154079016 1:0.06088018774411812 2:-0.9670870539037507 3:-0.9670870539037507 4:-0.4699478572149787 5:-0.5431967964010088 6:1.085266137744002 7:-0.6976383544441513 8:-0.1350389724527743 9:1.343530507086967 10:1.796026231621824 11:-0.05884627912132561 12:-0.1576424003165457 13:-0.1050979254858729 14:-0.1741516315108161 15:1.871192627425335 16:2.290055208384368 17:-0.6232563137317954 18:-0.6177280492981125 19:-0.341840815627631 20:-0.7631352502038756 
122.16492450638792 1:-0.2716658665687938 2:-0.9670870539037507 3:-0.9670870539037507 4:-0.3876929028827874 5:0.2455656058596117 6:-0.3449963571655104 7:0.3768454992111689 8:-0.1350389724527743 9:-0.5073962239982714 10:-0.4335033060743624 11:-0.05196233406456176 12:1.283617710901089 13:0.4919481702698347 14:-0.1741516315108161 15:-0.4896561654499069 16:-0.4329743035711364 17:-0.371172549641782 18:-0.7848076594118404 19:-0.341840815627631 20:0.04202436262727747 
122.16492450638792 1:-0.2992751619520043 2:-0.9670870539037507 3:-0.9670870539037507 4:-0.3383399302834727 5:-0.7879851281370633 6:-0.3449963571655104 7:0.3768454992111689 8:-0.1350389724527743 9:-0.5073962239982714 10:-0.4335033060743624 11:-0.04852036153617985 12:-0.1841538739342614 13:-0.1326222392497078 14:-0.1741516315108161 15:-0.4896561654499069 16:-0.4329743035711364 17:0.1326554357846362 18:-0.6177280492981125 19:-0.341840815627631 20:-1.165715056619452 
122.16492450638792 1:-0.2697369451400646 2:-0.9670870539037507 3:-0.9670870539037507 4:0.5829155582370692 5:-0.1080175399813561 6:-0.3449963571655104 7:0.3768454992111689 8:-0.1350389724527743 9:-0.5073962239982714 10:-0.4335033060743624 11:-0.08638205934838095 12:-0.2106653475519771 13:-0.1665774674443452 14:-0.1741516315108161 15:-0.4896561654499069 16:-0.4329743035711364 17:-0.7429585924838237 18:-1.072353565156356 19:2.925338217477786 20:-1.165715056619452 
122.16492450638792 1:-0.3068981565625325 2:-0.9670870539037507 3:-0.9670870539037507 4:0.5006606039048779 5:-0.1760142987969269 6:-0.3449963571655104 7:0.3768454992111689 8:-0.1350389724527743 9:-0.5073962239982714 10:-0.4335033060743624 11:0.416145929795379 12:0.1412142113740675 13:0.2841010158662966 14:-0.1741516315108161 15:-0.4896561654499069 16:-0.4329743035711364 17:2.171770155307192 18:0.4409959447547277 19:-0.341840815627631 20:-1.165715056619452 
122.16492450638792 1:-0.2411889079948727 2:-0.9670870539037507 3:-0.9670870539037507 4:-0.5686538024136082 5:7.772741235568544E-4 6:-0.3449963571655104 7:0.3768454992111689 8:-0.1350389724527743 9:-0.5073962239982714 10:-0.4335033060743624 11:-0.07605614176323519 12:-0.1480018644555582 13:-0.1094709472988186 14:-0.1741516315108161 15:-0.4861868540670913 16:-0.430713009375716 17:-0.5612505857860164 18:-0.4998733268429587 19:-0.341840815627631 20:0.8471839754584307 
122.16492450638792 1:-0.2689653765685729 2:-0.9670870539037507 3:-0.9670870539037507 4:-0.6344577658793611 5:-0.05362013292889948 6:-0.3449963571655104 7:0.3768454992111689 8:-0.1350389724527743 9:-0.5073962239982714 10:-0.4335033060743624 11:-0.02098458130912452 12:-0.1648728022122864 13:-0.107927527835426 14:-0.1741516315108161 15:-0.4896561654499069 16:-0.4329743035711364 17:0.3596450012176413 18:-0.4998733268429587 19:-0.3418408110634346 20:0.04202436262727747 
122.16492450638792 1:-0.3045604066667222 2:0.3164020227030592 3:0.3164020227030592 4:-0.9470265923416878 5:-1.3999559574772 6:-0.3449963571655104 7:0.3768454992111689 8:-0.1350389724527743 9:-0.5073962239982714 10:-0.4335033060743624 11:0.622664281498294 12:0.2858222492888804 13:0.4693113514734097 14:-0.1741516315108161 15:-0.4896561654499069 16:-0.4329743035711364 17:1.189040486075402 18:-0.06924483303089841 19:-0.341840815627631 20:-1.165715056619452 
122.16492450638792 1:-0.1500152217969397 2:-0.9670870539037507 3:-0.9670870539037507 4:-0.7989676745437436 5:-0.6927896657952645 6:-0.1542946911775754 7:0.3768454992111689 8:-0.1350389724527743 9:0.7681816032111762 10:0.6539021567365014 11:-0.04852036153617985 12:2.04763017788435 13:0.5819809723010702 14:-0.1741516315108161 15:2.041658859709389 16:1.496710382223335 17:-0.593695746593834 18:-0.6177280492981125 19:-0.341840815627631 20:-0.7631352502038756 
122.16492450638792 1:-0.3028886747618236 2:-0.9670870539037507 3:-0.9670870539037507 4:0.6158175399699456 5:0.5039532893587804 6:-0.3449963571655104 7:0.3768454992111689 8:-0.1350389724527743 9:-0.5073962239982714 10:-0.4335033060743624 11:-0.08638205934838095 12:-0.2106653475519771 13:-0.1665774674443452 14:-0.1741516315108161 15:-0.4896561654499069 16:-0.4329743035711364 17:-0.7429585924838237 18:-1.072353565156356 19:2.925338217477786 20:-1.165715056619452 
122.16492450638792 1:0.07631155917395162 2:-0.9670870539037507 3:-0.9670870539037507 4:1.783837891487061 5:1.687096892749711 6:-0.3449963571655104 7:0.3768454992111689 8:-0.1350389724527743 9:-0.5073962239982714 10:-0.4335033060743624 11:-0.04852036153617985 12:-0.1648728022122864 13:-0.1202748835425669 14:-0.1741516315108161 15:-0.4896561654499069 16:-0.4329743035711364 17:0.1326554357846362 18:-0.4998733268429587 19:-0.341840815627631 20:0.8471839754584307 
122.16492450638792 1:-0.2618926646632326 2:1.423725931932464 3:1.423725931932464 4:-1.407654336601959 5:-1.739939751555053 6:-0.3449963571655104 7:0.3768454992111689 8:-0.1350389724527743 9:-0.5073962239982714 10:-0.4335033060743624 11:-0.08638205934838095 12:-0.2106653475519771 13:-0.1665774674443452 14:-0.1741516315108161 15:-0.4896561654499069 16:-0.4329743035711364 17:-0.7429585924838237 18:-1.072353565156356 19:2.925338217477786 20:-1.165715056619452 
122.16492450638792 1:-0.01499072178589659 2:-0.9670870539037507 3:-0.9670870539037507 4:0.1222878139767982 5:0.5311519928850087 6:-0.3449963571655104 7:0.3768454992111689 8:-0.1350389724527743 9:-0.5073962239982714 10:-0.4335033060743624 11:-0.08638205934838095 12:-0.2106653475519771 13:-0.1665774674443452 14:-0.1741516315108161 15:-0.4896561654499069 16:-0.4329743035711364 17:-0.7429585924838237 18:-1.072353565156356 19:2.925338217477786 20:-1.165715056619452 
122.16492450638792 1:-0.3025286094284608 2:-0.9670870539037507 3:-0.9670870539037507 4:0.3855036678398102 5:-0.2440110576124977 6:-0.3449963571655104 7:0.3768454992111689 8:-0.1350389724527743 9:-0.5073962239982714 10:-0.4335033060743624 11:-0.04852036153617985 12:-0.1504119984208051 13:-0.1017538499818556 14:-0.1741516315108161 15:-0.4896561654499069 16:-0.4329743035711364 17:0.1326554357846362 18:0.7354847761243921 19:-0.341840815627631 20:0.8471839754584307 
122.16492450638792 1:-0.3068982465788658 2:-0.9670870539037507 3:-0.9670870539037507 4:1.175151229428846 5:0.6671455105161502 6:-0.3449963571655104 7:0.3768454992111689 8:-0.1350389724527743 9:-0.5073962239982714 10:-0.4335033060743624 11:-0.04852036153617985 12:-0.003393826540745325 13:0.02171970708955311 14:-0.1741516315108161 15:-0.4878785575817191 16:-0.431429445851349 17:0.1326554357846362 18:0.7146135128330926 19:-0.341840815627631 20:-1.165715056619452 
122.16492450638792 1:-0.2226712622790725 2:-0.9670870539037507 3:-0.9670870539037507 4:-0.8812226288759348 5:-0.7743857763739492 6:-0.3449963571655104 7:0.3768454992111689 8:-0.1350389724527743 9:-0.5073962239982714 10:-0.4335033060743624 11:-0.02098458130912452 12:0.2424398379144365 13:0.2398563245823751 14:-0.1741516315108161 15:-0.4896561654499069 16:-0.4329743035711364 17:-0.4431620638410737 18:-0.4998733268429587 19:-0.341840815627631 20:0.4446041690428541 
122.16492450638792 1:0.3360729782428155 2:0.1654033078081404 3:0.1654033078081404 4:-0.6344577658793611 5:-0.09441818821824195 6:-0.3449963571655104 7:0.3768454992111689 8:-0.1350389724527743 9:-0.5073962239982714 10:-0.4335033060743624 11:-0.07949811429161711 12:-0.1648728022122864 13:-0.1375611815325641 14:-0.1741516315108161 15:2.088988551532295 16:1.132827311315588 17:-0.7217932612994232 18:-0.4998733268429587 19:-0.341840815627631 20:0.4446041690428541 
122.16492450638792 1:1.377690549756577 2:-0.9670870539037507 3:-0.9670870539037507 4:-0.05867308555402248 5:0.4223571787800954 6:-0.2496455241715429 7:0.1380713095099865 8:-0.1350389724527743 9:0.7906402628369978 10:-0.2728524951487723 11:-0.04507838900779793 12:0.2617209096364116 13:-0.05919957049117367 14:-0.1741516315108161 15:-0.2432412929007155 16:-0.3870848740252384 17:-0.6908368125913031 18:-0.4998733268429587 19:-0.341840815627631 20:0.04202436262727747 
122.16492450638792 1:0.5816889735009988 2:-0.9670870539037507 3:-0.9670870539037507 4:0.977739339031587 5:0.2591649576227258 6:-0.3449963571655104 7:0.3768454992111689 8:-0.1350389724527743 9:-0.5073962239982714 10:-0.4335033060743624 11:0.1786498253370267 12:-0.02508503222796725 13:0.07110912991811659 14:-0.1741516315108161 15:-0.4896561654499069 16:-0.4329743035711364 17:2.15233212630291 18:0.4309035710854588 19:-0.341840815627631 20:-1.165715056619452 
34.27519338949979 1:7.83314759790359 2:-0.9670870539037507 3:-0.9670870539037507 4:-0.4534968663485404 5:-0.5295974446378947 6:3.278335296605253 7:-4.120068406827764 8:-0.1350389724527743 9:2.264952547889226 10:2.133491105161905 11:-0.06228825164970753 12:-0.1070295870463612 13:-0.117387195514284 14:-0.1741516315108161 15:2.526167234178123 16:2.459583899776518 17:-0.237764432100997 18:0.5982476560693212 19:-0.341840815627631 20:2.05492339470516 
122.16492450638792 1:-0.2490331884717047 2:-0.9670870539037507 3:-0.9670870539037507 4:0.7967784395007663 5:0.1095720882284701 6:-0.3449963571655104 7:0.3768454992111689 8:-0.1350389724527743 9:-0.5073962239982714 10:-0.4335033060743624 11:0.04785486925851383 12:-0.1166701229073487 13:-0.04619074929972168 14:-0.1722203950177019 15:-0.4888512079930011 16:-0.4319249624056949 17:1.818582200368875 18:0.2576180510424982 19:-0.341840815627631 20:-1.165715056619452 
122.16492450638792 1:-0.285554100855644 2:-0.9670870539037507 3:-0.9670870539037507 4:-0.6838107384786759 5:-0.7335877210846069 6:1.085266137744002 7:-2.408853380635958 8:-0.1350389724527743 9:1.859647781180371 10:1.587328001924126 11:-0.07949811429161711 12:-0.1648728022122864 13:-0.1473704696776816 14:-0.1741516315108161 15:2.477952103233852 16:1.433521335654126 17:0.1326554357846362 18:0.5656008346140268 19:-0.341840815627631 20:0.8471839754584307 
122.16492450638792 1:-0.2581634165676895 2:0.5429000950454375 3:0.5429000950454375 4:-0.8154186654101818 5:-0.9783760528206614 6:-0.3449963571655104 7:0.3768454992111689 8:-0.1350389724527743 9:-0.5073962239982714 10:-0.4335033060743624 11:-0.02098458130912452 12:-0.1504119984208051 13:-0.1032972694452482 14:-0.1741516315108161 15:-0.4896561654499069 16:-0.4329743035711364 17:-0.4671970741768735 18:-0.4998733268429587 19:-0.341840815627631 20:0.8471839754584307 
122.16492450638792 1:-0.306898529487342 2:-0.9670870539037507 3:-0.9670870539037507 4:1.60287699195624 5:0.7487416210948349 6:-0.3449963571655104 7:0.3768454992111689 8:-0.1350389724527743 9:-0.5073962239982714 10:-0.4335033060743624 11:-0.04852036153617985 12:0.1870067567137582 13:0.2899317116168909 14:-0.1741516315108161 15:-0.4896561654499069 16:-0.4329743035711364 17:0.1326554357846362 18:0.286665503304512 19:-0.341840815627631 20:-1.165715056619452 
122.16492450638792 1:-0.3052676778572563 2:2.052887243994625 3:2.052887243994625 4:-1.276046409670453 5:-1.631144937450141 6:-0.3449963571655104 7:0.3768454992111689 8:-0.1350389724527743 9:-0.5073962239982714 10:-0.4335033060743624 11:-0.02098458130912452 12:-0.1648728022122864 13:-0.107927527835426 14:-0.1741516315108161 15:-0.4896561654499069 16:-0.4329743035711364 17:0.3596450012176413 18:-0.4998733268429587 19:-0.341840808020637 20:0.8471839754584307 
122.16492450638792 1:-0.3065664849526006 2:-0.02334508581050809 3:-0.02334508581050809 4:-0.7331637110779906 5:-1.073571515162461 6:-0.3449963571655104 7:0.3768454992111689 8:-0.1350389724527743 9:-0.5073962239982714 10:-0.4335033060743624 11:-0.08294008681999902 12:-0.1648728022122864 13:-0.1597864218054177 14:-0.1741516315108161 15:-0.4896561654499069 16:-0.4329743035711364 17:0.3596450012176413 18:2.918293529715937 19:-0.3418408110634346 20:0.04202436262727747 
122.16492450638792 1:-0.2725660299022008 2:-0.9670870539037507 3:-0.9670870539037507 4:-0.6180067750129229 5:-0.3392065199542968 6:-0.3449963571655104 7:0.3768454992111689 8:-0.1350389724527743 9:-0.5073962239982714 10:-0.4335033060743624 11:-0.07949811429161711 12:0.04239871879894541 13:-0.07088546071400342 14:-0.1741516315108161 15:-0.4896561654499069 16:-0.4329743035711364 17:-0.686346550486103 18:-0.4998733268429587 19:-0.3418408125848334 20:0.8471839754584307 
122.16492450638792 1:-0.3018213382379268 2:-0.9670870539037507 3:-0.9670870539037507 4:-0.04222209468758423 5:0.5039532893587804 6:1.562020302713839 7:-0.7175362035859161 8:-0.1350389724527743 9:1.614083316040891 10:1.382336119114487 11:-0.04163641647941602 12:-0.1600525342817926 13:-0.1174686663363985 14:-0.1741516315108161 15:0.7096887861241826 16:0.5619573516450901 17:0.7828569791361064 18:0.6118903019593601 19:-0.341840815627631 20:-1.165715056619452 
122.16492450638792 1:-0.2507049203766033 2:0.1654033078081404 3:0.1654033078081404 4:-0.2889869576841579 5:-0.7743857763739492 6:-0.3449963571655104 7:0.3768454992111689 8:-0.1350389724527743 9:-0.5073962239982714 10:-0.4335033060743624 11:-0.02098458130912452 12:-0.1022093191158674 13:-0.05442231977114892 14:-0.1741516315108161 15:-0.07358659238092331 16:-0.07138258054420277 17:0.3596450012176413 18:0.1735951756127131 19:-0.3418408141062322 20:0.4446041690428541 
122.16492450638792 1:0.3000664449065374 2:0.5429000950454375 3:0.5429000950454375 4:0.1880917774425512 5:0.5039532893587804 6:-0.3449963571655104 7:0.3768454992111689 8:-0.1350389724527743 9:-0.5073962239982714 10:-0.4335033060743624 11:-0.08638205934838095 12:-0.2106653475519771 13:-0.1665774674443452 14:-0.1741516315108161 15:-0.4896561654499069 16:-0.4329743035711364 17:-0.7429585924838237 18:-1.072353565156356 19:2.925338217477786 20:-1.165715056619452 
122.16492450638792 1:-0.2723088403783702 2:-0.9670870539037507 3:-0.9670870539037507 4:-0.6180067750129229 5:0.1095720882284701 6:-0.3449963571655104 7:0.3768454992111689 8:-0.1350389724527743 9:-0.5073962239982714 10:-0.4335033060743624 11:-0.04852036153617985 12:-0.1817437399690145 13:-0.1315932929407794 14:-0.1741516315108161 15:-0.4896561654499069 16:-0.4329743035711364 17:-0.1743763862272333 18:-0.6177280492981125 19:-0.341840815627631 20:-1.165715056619452 
122.16492450638792 1:-0.2091688122779682 2:-0.9670870539037507 3:-0.9670870539037507 4:-0.7167127202115524 5:0.09597273646535595 6:-0.1542946911775754 7:-0.2399878241835512 8:5.593607630622087 9:0.9287856993815444 10:1.995479225292125 11:0.07194867695718725 12:0.8136415876779474 13:0.5603730998135736 14:0.8800242460480753 15:1.216585202566778 16:0.9655466357033031 17:-0.7329037300857812 18:-0.7395338506160529 19:-0.341840815627631 20:-0.7631352502038756 
122.16492450638792 1:-0.2181704456120377 2:-0.9670870539037507 3:-0.9670870539037507 4:-0.8483206471430583 5:0.0823733847022418 6:0.03640697481035953 7:0.3768454992111689 8:-0.1350389724527743 9:1.445705068461584 10:1.058313859196286 11:-0.07261416923485328 12:-0.1335410606640769 13:-0.1058696352175692 14:1.888914118471601 15:1.223934818252367 16:1.604435715452385 17:-0.693589193466497 18:-0.9325131395051293 19:-0.341840815627631 20:-0.7631352502038756 
105.786601775535 1:-0.198495447039 2:-0.9670870539037507 3:-0.9670870539037507 4:-0.5028498389478552 5:-0.9103792940050908 6:0.2271086407982945 7:-0.65784265616062 8:5.295079078621028 9:1.013560969507586 10:2.057966419217598 11:0.4746594627778716 12:0.1821864887832645 13:0.3365772776216453 14:4.999897718720148 15:1.666936060161299 16:2.378355636899979 17:-0.2922043747951407 18:-0.838318519889622 19:-0.341840815627631 20:-1.165715056619452 
122.16492450638792 1:-0.1783060694183012 2:0.3541517014267889 3:0.3541517014267889 4:-0.223182994218405 5:-0.747187072847721 6:-0.3449963571655104 7:0.3768454992111689 8:-0.1350389724527743 9:-0.5073962239982714 10:-0.4335033060743624 11:-0.02098458130912452 12:-0.1648728022122864 13:-0.107927527835426 14:-0.1741516315108161 15:-0.4896561654499069 16:-0.4329743035711364 17:0.3596450012176413 18:-0.4998733268429587 19:-0.341840808020637 20:0.8471839754584307 
122.16492450638792 1:-0.3032101616666118 2:-0.9670870539037507 3:-0.9670870539037507 4:-0.07512407642046073 5:1.020728656357118 6:-0.3449963571655104 7:0.3768454992111689 8:-0.1350389724527743 9:-0.5073962239982714 10:-0.4335033060743624 11:-0.08294008681999902 12:-0.1769234720385208 13:-0.1333939489814041 14:-0.1741516315108161 15:-0.4896561654499069 16:-0.4329743035711364 17:-0.7064663836361207 18:-0.8915161066135203 19:-0.341840815627631 20:-0.7631352502038756 
10.875348050611207 1:-0.3022328414760557 2:-0.9670870539037507 3:-0.9670870539037507 4:-1.243144427937576 5:-0.8559818869526341 6:6.42491278540618 7:-4.935880221640137 8:-0.1350389724527743 9:4.567952353365661 10:6.375318597843983 11:-0.08294008681999902 12:-0.2058450796214834 13:-0.1604680987350828 14:7.007751626882636 15:2.549460731849233 16:3.470566323417488 17:0.7679709979409961 18:2.885735784196483 19:-0.341840815627631 20:-0.3605554437882991 
122.16492450638792 1:-0.2370738756135837 2:-0.5895902666664535 3:-0.5895902666664535 4:-0.07512407642046073 5:-0.6655909622690361 6:-0.3449963571655104 7:0.3768454992111689 8:-0.1350389724527743 9:-0.5073962239982714 10:-0.4335033060743624 11:-0.02098458130912452 12:0.4738126985781371 13:0.3010786299636153 14:-0.1741516315108161 15:-0.4573251356513366 16:-0.411900965969443 17:0.009003853334738632 18:-0.4998733268429587 19:-0.3418408141062322 20:0.8471839754584307 
122.16492450638792 1:-0.2986707665710024 2:1.071395597177653 3:1.071395597177653 4:4.054074631055539 5:3.332618456086523 6:-0.3449963571655104 7:0.3768454992111689 8:-0.1350389724527743 9:-0.5073962239982714 10:-0.4335033060743624 11:0.1786498253370267 12:-0.02508503222796725 13:0.07110912991811659 14:-0.1741516315108161 15:-0.4896561654499069 16:-0.4329743035711364 17:-0.5763839968582218 18:-0.9858667581611293 19:-0.341840808020637 20:0.8471839754584307 
122.16492450638792 1:-0.1165805836989671 2:-0.9670870539037507 3:-0.9670870539037507 4:1.04354330249734 5:1.075126063409574 6:-0.3449963571655104 7:0.3768454992111689 8:-0.1350389724527743 9:-0.5073962239982714 10:-0.4335033060743624 11:-0.02098458130912452 12:-0.06123704170667047 13:-0.07705913856757386 14:-0.1741516315108161 15:-0.4896561654499069 16:-0.4329743035711364 17:-0.6026445167686183 18:-0.4998733268429587 19:-0.341840815627631 20:0.4446041690428541 
36.526391175085976 1:-0.2807960946647787 2:-0.9670870539037507 3:-0.9670870539037507 4:-1.11153650100607 5:-1.00557475634689 6:1.371318636725904 7:-1.811917906383001 8:-0.1350389724527743 9:1.530418638973269 10:2.095521352582559 11:-0.08294008681999902 12:-0.1648728022122864 13:-0.1595218356116933 14:-0.1741516315108161 15:2.549460731849233 16:3.245828462813643 17:-0.4095120733628397 18:0.02311821525778619 19:-0.341840815627631 20:0.8471839754584307 
122.16492450638792 1:-0.2705085137115563 2:-0.9670870539037507 3:-0.9670870539037507 4:0.6158175399699456 5:-0.06721948469201364 6:0.7992136387620994 7:-0.7772297510112122 8:-0.1350389724527743 9:1.3429135109434 10:0.1835822334810727 11:-0.02098458130912452 12:-0.05159650584568295 13:-0.001335121144873984 14:-0.1741516315108161 15:2.226636113207688 16:0.4522641897532514 17:0.3596450012176413 18:1.29731517971493 19:-0.341840815627631 20:0.8471839754584307 
122.16492450638792 1:0.0788834544122572 2:-0.9670870539037507 3:-0.9670870539037507 4:-0.5686538024136082 5:-0.6927896657952645 6:-0.3449963571655104 7:0.3768454992111689 8:-0.1350389724527743 9:-0.5073962239982714 10:-0.4335033060743624 11:-0.04852036153617985 12:-0.1648728022122864 13:-0.1161590983068533 14:-0.1741516315108161 15:-0.4896561654499069 16:-0.4329743035711364 17:0.1326554357846362 18:-0.4998733268429587 19:-0.341840815627631 20:0.8471839754584307 
122.16492450638792 1:-0.1838356441806581 2:0.1654033078081404 3:0.1654033078081404 4:-0.5193008298142934 5:-0.8151838316632917 6:-0.3449963571655104 7:0.3768454992111689 8:-0.1350389724527743 9:-0.5073962239982714 10:-0.4335033060743624 11:-0.04852036153617985 12:0.3171539908370898 13:0.04024074065026442 14:-0.1741516315108161 15:-0.4886902932231004 16:-0.4326595262250016 17:-0.4511057229608338 18:-0.4998733268429587 19:-0.341840815627631 20:0.4446041690428541 
122.16492450638792 1:-0.1127227408415088 2:-0.9670870539037507 3:-0.9670870539037507 4:-0.7496147019444288 5:-0.7063890175583786 6:-0.3449963571655104 7:0.3768454992111689 8:-0.1350389724527743 9:-0.5073962239982714 10:-0.4335033060743624 11:-0.04852036153617985 12:-0.1648728022122864 13:-0.1147871698949487 14:-0.1741516315108161 15:-0.4896561654499069 16:-0.4329743035711364 17:0.1326554357846362 18:-0.4998733268429587 19:-0.341840815627631 20:0.8471839754584307 
122.16492450638792 1:-0.01241882654759101 2:-0.3379257418415889 3:-0.3379257418415889 4:1.076445284230217 5:0.9663312493046611 6:-0.3449963571655104 7:0.3768454992111689 8:-0.1350389724527743 9:-0.5073962239982714 10:-0.4335033060743624 11:-0.04852036153617985 12:0.03757845086845165 13:-0.03719481871309048 14:-0.1741516315108161 15:-0.4896561654499069 16:-0.4329743035711364 17:-0.5097931077483965 18:0.06888914843487597 19:-0.341840815627631 20:2.860083007536313 
122.16492450638792 1:-0.304650423000063 2:-0.9670870539037507 3:-0.9670870539037507 4:0.9941903298980254 5:0.2047675505702692 6:-0.3449963571655104 7:0.3768454992111689 8:-0.1350389724527743 9:-0.5073962239982714 10:-0.4335033060743624 11:-0.07261416923485328 12:-0.2010248116909896 13:-0.1542301117372043 14:-0.1741516315108161 15:-0.4896561654499069 16:-0.4329743035711364 17:3.511114817518397 18:1.136393960674898 19:-0.3418408141062322 20:-0.7631352502038756 
12.592586576695197 1:0.5276791734965816 2:-0.9670870539037507 3:-0.9670870539037507 4:0.00713087791173051 5:-0.6111935552165795 6:6.329561952412212 7:-4.597616786230128 8:-0.1350389724527743 9:2.698515737973427 10:2.785232604208787 11:0.3645163418696502 12:0.293052651184621 13:0.4222206384839416 14:4.337028797441141 15:2.265065584009716 16:2.891293083445542 17:2.343468151865653 18:1.164221283031492 19:-0.341840815627631 20:0.04202436262727747 
122.16492450638792 1:0.2306252734722866 2:-0.9670870539037507 3:-0.9670870539037507 4:-0.4041438937492257 5:0.4087578270169813 6:-0.3449963571655104 7:0.3768454992111689 8:-0.1350389724527743 9:-0.5073962239982714 10:-0.4335033060743624 11:-0.04852036153617985 12:-0.1648728022122864 13:-0.1141012056889965 14:-0.1741516315108161 15:-0.4896561654499069 16:-0.4329743035711364 17:0.1326554357846362 18:-0.4998733268429587 19:-0.341840815627631 20:0.4446041690428541 
122.16492450638792 1:0.4646677401580948 2:-0.9670870539037507 3:-0.9670870539037507 4:-0.3054379485505962 5:0.1639694952809267 6:-0.3449963571655104 7:0.3768454992111689 8:-0.1350389724527743 9:-0.5073962239982714 10:-0.4335033060743624 11:-0.05196233406456176 12:-0.08051811342864551 13:-0.09341938487953551 14:-0.1741516315108161 15:-0.4896561654499069 16:-0.4329743035711364 17:-0.7213803068628369 18:-0.4998733268429587 19:-0.341840815627631 20:1.652343588289584 
122.16492450638792 1:-0.2915980546656621 2:-0.9670870539037507 3:-0.9670870539037507 4:-0.3712419120163492 5:7.772741235568544E-4 6:-0.3449963571655104 7:0.3768454992111689 8:-0.1350389724527743 9:-0.5073962239982714 10:-0.4335033060743624 11:-0.02098458130912452 12:-0.1648728022122864 13:-0.107927527835426 14:-0.1741516315108161 15:-0.4896561654499069 16:-0.4329743035711364 17:0.3596450012176413 18:-0.4998733268429587 19:-0.3418408095420358 20:0.4446041690428541 
122.16492450638792 1:-0.3046247040476799 2:1.864138850375977 3:1.864138850375977 4:-1.243144427937576 5:-1.617545585687026 6:-0.3449963571655104 7:0.3768454992111689 8:-0.1350389724527743 9:-0.5073962239982714 10:-0.4335033060743624 11:-0.02098458130912452 12:-0.1648728022122864 13:-0.107927527835426 14:-0.1741516315108161 15:-0.4896561654499069 16:-0.4329743035711364 17:0.3596450012176413 18:-0.4998733268429587 19:-0.341840808020637 20:0.8471839754584307 
122.16492450638792 1:-0.2970890509994445 2:-0.9670870539037507 3:-0.9670870539037507 4:0.5500135765041927 5:0.02797597764978517 6:0.131757807804327 7:0.03858206380116087 8:-0.1350389724527743 9:1.05403591652555 10:1.469870518817209 11:-0.05884627912132561 12:-0.1094397210116081 13:-0.06316836339704038 14:-0.1741516315108161 15:0.1952866971623121 16:0.2366934554652244 17:-0.4445997339247341 18:-0.1594177355144195 19:-0.341840815627631 20:0.04202436262727747 
122.16492450638792 1:-0.2873544275224579 2:-0.287592836876616 3:-0.287592836876616 4:0.3032487135076189 5:0.7895396763841773 6:-0.3449963571655104 7:0.3768454992111689 8:-0.1350389724527743 9:-0.5073962239982714 10:-0.4335033060743624 11:-0.05884627912132561 12:-0.06123704170667047 13:-0.00559881741249607 14:-0.1741516315108161 15:-0.4896561654499069 16:-0.4329743035711364 17:-0.723667781554661 18:0.1404360623185372 19:-0.341840815627631 20:0.04202436262727747 
122.16492450638792 1:-0.3042903576667002 2:0.7316484886640859 3:0.7316484886640859 4:-0.4370458754821022 5:-0.8695812387157483 6:0.2271086407982945 7:-1.035901789854159 8:-0.1350389724527743 9:2.314805836289401 10:0.5613157576493221 11:-0.07605614176323519 12:-0.2034349456562365 13:-0.1573169506639895 14:0.4193330772221696 15:-0.2422861806979149 16:-0.1105032141142214 17:4.906603789257481 18:1.860942532499354 19:-0.341840815627631 20:-1.165715056619452 
122.16492450638792 1:-0.2631786122823854 2:-0.4008418730478051 3:-0.4008418730478051 4:2.129308699682265 5:1.673497540986597 6:-0.3449963571655104 7:0.3768454992111689 8:-0.1350389724527743 9:-0.5073962239982714 10:-0.4335033060743624 11:-0.01065866372397876 12:0.7871301140602317 13:0.2770453840336447 14:-0.1741516315108161 15:-0.4896561654499069 16:-0.4329743035711364 17:-0.1612103407150138 18:0.4462336097821533 19:-0.341840815627631 20:0.4446041690428541 
122.16492450638792 1:-0.2586777956153506 2:-0.2120934794291566 3:-0.2120934794291566 4:3.11636815166856 5:2.33986577737919 6:-0.3449963571655104 7:0.3768454992111689 8:-0.1350389724527743 9:-0.5073962239982714 10:-0.4335033060743624 11:0.05129684178689575 12:-0.06605730963716423 13:-0.001946058015800218 14:-0.1741516315108161 15:-0.4896561654499069 16:-0.4329743035711364 17:-0.6511954156248843 18:-0.9989829924490318 19:-0.341840815627631 20:0.04202436262727747 
122.16492450638792 1:-0.3067542333049969 2:-0.9670870539037507 3:-0.9670870539037507 4:0.3361506952404955 5:0.04157532941289933 6:-0.3449963571655104 7:0.3768454992111689 8:-0.1350389724527743 9:-0.5073962239982714 10:-0.4335033060743624 11:-0.04852036153617985 12:-0.1841538739342614 13:-0.1326222392497078 14:-0.1741516315108161 15:-0.4896561654499069 16:-0.4329743035711364 17:0.1326554357846362 18:-0.6177280492981125 19:-0.341840815627631 20:-1.165715056619452 
122.16492450638792 1:-0.2431178294236019 2:-0.9670870539037507 3:-0.9670870539037507 4:-0.1244770490197755 5:-0.5975942034534655 6:-0.3449963571655104 7:0.3768454992111689 8:-0.1350389724527743 9:-0.5073962239982714 10:-0.4335033060743624 11:-0.04852036153617985 12:0.1870067567137582 13:0.105064358112754 14:-0.1741516315108161 15:-0.4896561654499069 16:-0.4329743035711364 17:0.1326554357846362 18:0.4322328365469159 19:-0.341840815627631 20:0.8471839754584307 
93.8137854214382 1:-0.1320119551288007 2:-0.9670870539037507 3:-0.9670870539037507 4:-0.8154186654101818 5:-0.6247929069796936 6:0.131757807804327 7:-0.2200899750417864 8:-0.1350389724527743 9:1.051814730408711 10:0.802342650775029 11:-0.08294008681999902 12:1.196852888152201 13:0.4554205763028762 14:-0.1741516315108161 15:2.549460731849233 16:0.7963450976701825 17:-0.7276862712256367 18:-0.4998733268429587 19:-0.341840815627631 20:0.4446041690428541 
42.020707414501175 1:-0.2995709299044094 2:-0.9670870539037507 3:-0.9670870539037507 4:-0.4041438937492257 5:-0.9239786457682049 6:5.852807787442376 7:-5.095063014774259 8:12.57917574744686 9:4.65056813698922 10:6.33424757722517 11:-0.07949811429161711 12:-0.2058450796214834 13:-0.1604037895907748 14:7.117231793230048 15:2.549460731849233 16:3.528813290997087 17:6.457699929803545 18:2.666283539239465 19:-0.341840815627631 20:-1.165715056619452 
122.16492450638792 1:-0.3041489034285934 2:-0.9670870539037507 3:-0.9670870539037507 4:0.05648385051104525 5:-0.06721948469201364 6:-0.1542946911775754 7:0.0783777620846904 8:-0.1350389724527743 9:2.071524256881118 10:-0.0786203624257659 11:-0.06573022417808944 12:-0.04195596998469542 13:-0.1098918798797439 14:-0.1741516315108161 15:1.789681507524448 16:1.592939807287614 17:-0.6276371717440657 18:0.4068370768231726 19:-0.341840815627631 20:0.4446041690428541 
122.16492450638792 1:-0.2134124394211724 2:-0.8412547914913183 3:-0.8412547914913183 4:1.948347800151444 5:1.156722173988259 6:-0.3449963571655104 7:0.3768454992111689 8:-0.1350389724527743 9:-0.5073962239982714 10:-0.4335033060743624 11:0.1958596879789363 12:0.4039188135859776 13:0.3287866841397589 14:-0.1741516315108161 15:-0.4896561654499069 16:-0.4329743035711364 17:-0.3612539431689005 18:0.4095480713681409 19:-0.341840815627631 20:-0.7631352502038756 
122.16492450638792 1:1.467706883097272 2:1.109145275901383 3:1.109145275901383 4:-0.2067320033519667 5:0.3951584752538671 6:-0.3449963571655104 7:0.3768454992111689 8:-0.1350389724527743 9:-0.5073962239982714 10:-0.4335033060743624 11:-0.02098458130912452 12:0.2978729191151148 13:0.4263762282190335 14:-0.1741516315108161 15:-0.4896561654499069 16:-0.4329743035711364 17:-0.6535105220689182 18:1.953629761083672 19:-0.341840815627631 20:0.04202436262727747 
18.02041584059222 1:0.9919062640107392 2:-0.9670870539037507 3:-0.9670870539037507 4:-0.1738300216190902 5:-0.7335877210846069 6:4.041141960556994 7:-4.159864105111295 8:-0.1350389724527743 9:2.88133169531219 10:3.633373050062536 11:-0.04852036153617985 12:0.2978729191151148 13:0.43467015907282 14:-0.1741516315108161 15:2.4324777034488 16:3.058873688503687 17:0.1326554357846362 18:1.953629761083672 19:-0.341840815627631 20:0.4446041690428541 
122.16492450638792 1:-0.2851683165698982 2:-0.9670870539037507 3:-0.9670870539037507 4:-0.354790921149911 5:-0.4887993893485522 6:-0.3449963571655104 7:0.3768454992111689 8:-0.1350389724527743 9:-0.5073962239982714 10:-0.4335033060743624 11:-0.07261416923485328 12:-0.1528221323860519 13:-0.1072844363923458 14:-0.1741516315108161 15:-0.4896561654499069 16:-0.4329743035711364 17:-0.4338015043604966 18:0.3721935516344063 19:-0.3418408125848334 20:0.8471839754584307 
122.16492450638792 1:-0.2890261594273565 2:-0.9670870539037507 3:-0.9670870539037507 4:-0.4534968663485404 5:-0.8831805904788624 6:4.994650290496669 7:-5.035369467348963 8:-0.1350389724527743 9:4.752804397978195 10:5.76106764554352 11:-0.08294008681999902 12:-0.1648728022122864 13:-0.1619472090541673 14:-0.1741516315108161 15:2.549460731849233 16:3.418763635592414 17:0.3596450012176413 18:2.075216870458344 19:-0.341840815627631 20:0.8471839754584307 
122.16492450638792 1:0.02744554964614553 2:-0.9670870539037507 3:-0.9670870539037507 4:-0.05867308555402248 5:0.1503701435178126 6:-0.3449963571655104 7:0.3768454992111689 8:-0.1350389724527743 9:-0.5073962239982714 10:-0.4335033060743624 11:-0.04852036153617985 12:-0.1022093191158674 13:-0.100210430518463 14:-0.1741516315108161 15:-0.4896561654499069 16:-0.4329743035711364 17:-0.6872260891476913 18:-0.4998733268429587 19:-0.341840815627631 20:0.8471839754584307 
122.16492450638792 1:-0.2834965846649995 2:-0.9670870539037507 3:-0.9670870539037507 4:-0.7331637110779906 5:-0.2440110576124977 6:-0.3449963571655104 7:0.3768454992111689 8:-0.1350389724527743 9:-0.5073962239982714 10:-0.4335033060743624 11:-0.04852036153617985 12:-0.1022093191158674 13:-0.08014597749435907 14:-0.1741516315108161 15:-0.4896561654499069 16:-0.4329743035711364 17:-0.3698607474557444 18:-0.6177280492981125 19:-0.341840815627631 20:0.4446041690428541 
122.16492450638792 1:0.4595239496814836 2:0.3541517014267889 3:0.3541517014267889 4:-0.5851047932800464 5:0.7895396763841773 6:-0.3449963571655104 7:0.3768454992111689 8:-0.1350389724527743 9:-0.5073962239982714 10:-0.4335033060743624 11:-0.08638205934838095 12:-0.2106653475519771 13:-0.1665774674443452 14:-0.1741516315108161 15:-0.4896561654499069 16:-0.4329743035711364 17:-0.7429585924838237 18:-1.072353565156356 19:2.925338217477786 20:-1.165715056619452 
122.16492450638792 1:-0.3010883480950097 2:-0.9670870539037507 3:-0.9670870539037507 4:2.820250316072671 5:1.999881983301336 6:-0.3449963571655104 7:0.3768454992111689 8:-0.1350389724527743 9:-0.5073962239982714 10:-0.4335033060743624 11:-0.07949811429161711 12:-0.1648728022122864 13:-0.1398248634122066 14:-0.1741516315108161 15:-0.4896561654499069 16:-0.4329743035711364 17:-0.6360898241611218 18:-0.4998733268429587 19:-0.3418408095420358 20:1.652343588289584 
0.8863223765453965 1:4.862608597660643 2:-0.9670870539037507 3:-0.9670870539037507 4:-0.8483206471430583 5:-0.7665124674584621 6:-0.3449963571655104 7:0.3768454992111689 8:-0.1350389724527743 9:-0.5073962239982714 10:-0.4335033060743624 11:-0.04852036153617985 12:-0.1648728022122864 13:-0.1158651136471595 14:-0.1741516315108161 15:-0.4896561654499069 16:-0.4329743035711364 17:0.1326554357846362 18:-0.3508816901835403 19:-0.341840815627631 20:0.8471839754584307 
107.30366123358563 1:0.1676138401337998 2:-0.9670870539037507 3:-0.9670870539037507 4:-0.6015557841464846 5:-0.6247929069796936 6:-0.2496455241715429 7:0.3768454992111689 8:-0.1350389724527743 9:0.8602374278313026 10:-0.3087821192253202 11:-0.05884627912132561 12:-0.1287207927335831 13:-0.08908156386136891 14:-0.1741516315108161 15:2.360298293109521 16:1.283487598877657 17:-0.6609801587011459 18:-0.4192406675035593 19:-0.341840815627631 20:0.4446041690428541 
122.16492450638792 1:0.289778863953315 2:-0.9670870539037507 3:-0.9670870539037507 4:-1.144438482738947 5:-0.712830815761959 6:-0.2195347348050269 7:-0.1206007293329608 8:-0.1350389724527743 9:0.7900232666934314 10:-0.05882959239747363 11:-0.08638205934838095 12:-0.1648728022122864 13:-0.1218183030059595 14:-0.1741516315108161 15:-0.4896561654499069 16:-0.4329743035711364 17:-0.7429585924838237 18:-0.4998733268429587 19:-0.341840815627631 20:0.4446041690428541 
122.16492450638792 1:-0.1435854837011758 2:-0.9670870539037507 3:-0.9670870539037507 4:1.224504202028161 5:1.238318284566944 6:-0.3449963571655104 7:0.3768454992111689 8:-0.1350389724527743 9:-0.5073962239982714 10:-0.4335033060743624 11:-0.04852036153617985 12:0.1701358189570301 13:0.1445758963756048 14:-0.1741516315108161 15:-0.4896561654499069 16:-0.4329743035711364 17:-0.1706728913549202 18:-0.4998733268429587 19:-0.341840815627631 20:0.4446041690428541 
122.16492450638792 1:-0.1435854837011758 2:-0.7783386602851021 3:-0.7783386602851021 4:-0.8318696562766201 5:-1.291161143372287 6:-0.3449963571655104 7:0.3768454992111689 8:-0.1350389724527743 9:-0.5073962239982714 10:-0.4335033060743624 11:-0.02098458130912452 12:-0.1648728022122864 13:-0.107927527835426 14:-0.1741516315108161 15:-0.4896561654499069 16:-0.4329743035711364 17:0.3596450012176413 18:-0.4998733268429587 19:-0.3418408095420358 20:0.4446041690428541 
122.16492450638792 1:0.3412167687194267 2:0.1654033078081404 3:0.1654033078081404 4:0.237444750041866 5:-0.02642142940267116 6:-0.3449963571655104 7:0.3768454992111689 8:-0.1350389724527743 9:-0.5073962239982714 10:-0.4335033060743624 11:0.1993016605073182 12:-0.01062422843648597 13:0.0896301634788279 14:-0.1741516315108161 15:-0.4896561654499069 16:-0.4329743035711364 17:2.794410377760954 18:0.7642755213587078 19:-0.341840808020637 20:0.8471839754584307 
122.16492450638792 1:-0.2531482208529937 2:-0.9670870539037507 3:-0.9670870539037507 4:-0.6015557841464846 5:-0.02642142940267116 6:-0.3449963571655104 7:0.3768454992111689 8:-0.1350389724527743 9:-0.5073962239982714 10:-0.4335033060743624 11:-0.02098458130912452 12:-0.1648728022122864 13:-0.107927527835426 14:-0.1741516315108161 15:-0.4896561654499069 16:-0.4329743035711364 17:0.3596450012176413 18:-0.4998733268429587 19:-0.3418408095420358 20:0.4446041690428541 
25.74540551653436 1:1.532004264054912 2:-0.9670870539037507 3:-0.9670870539037507 4:-1.078634519273194 5:-0.6655909622690361 6:-0.2496455241715429 7:0.3171519517858729 8:-0.1350389724527743 9:1.075322283478596 10:0.4806235821926674 11:-0.02098458130912452 12:0.172545952922277 13:0.03612495541455081 14:-0.1741516315108161 15:2.070144168071467 16:0.6793428100975551 17:-0.5543133970405398 18:-0.4998733268429587 19:-0.341840815627631 20:0.4446041690428541 
122.16492450638792 1:-0.3059337987239774 2:1.297893669520031 3:1.297893669520031 4:-1.276046409670453 5:-1.671942992739483 6:-0.3449963571655104 7:0.3768454992111689 8:-0.1350389724527743 9:-0.5073962239982714 10:-0.4335033060743624 11:-0.08638205934838095 12:-0.2106653475519771 13:-0.1665774674443452 14:-0.1741516315108161 15:-0.4896561654499069 16:-0.4329743035711364 17:-0.7429585924838237 18:-1.072353565156356 19:2.925338217477786 20:-1.165715056619452 
122.16492450638792 1:2.817951883207704 2:-0.0862612170167242 3:-0.0862612170167242 4:-0.2560849759512814 5:0.4359565305432096 6:-0.3449963571655104 7:0.3768454992111689 8:-0.1350389724527743 9:-0.5073962239982714 10:-0.4335033060743624 11:-0.02098458130912452 12:-0.1648728022122864 13:-0.107927527835426 14:-0.1741516315108161 15:-0.4896561654499069 16:-0.4329743035711364 17:0.3596450012176413 18:-0.4998733268429587 19:-0.3418408095420358 20:0.4446041690428541 
122.16492450638792 1:-0.1320119551288007 2:-0.9670870539037507 3:-0.9670870539037507 4:-0.8154186654101818 5:-0.6247929069796936 6:0.131757807804327 7:-0.2200899750417864 8:-0.1350389724527743 9:1.051814730408711 10:0.802342650775029 11:-0.08294008681999902 12:1.196852888152201 13:0.4554205763028762 14:-0.1741516315108161 15:2.549460731849233 16:0.7963450976701825 17:-0.7276862712256367 18:-0.4998733268429587 19:-0.341840815627631 20:0.4446041690428541 
122.16492450638792 1:-0.3050104883334257 2:-0.9670870539037507 3:-0.9670870539037507 4:-0.5851047932800464 5:0.5311519928850087 6:-0.3449963571655104 7:0.3768454992111689 8:-0.1350389724527743 9:-0.5073962239982714 10:-0.4335033060743624 11:-0.08638205934838095 12:-0.2106653475519771 13:-0.1665774674443452 14:-0.1741516315108161 15:-0.4896561654499069 16:-0.4329743035711364 17:-0.7429585924838237 18:-1.072353565156356 19:2.925338217477786 20:-1.165715056619452 
122.16492450638792 1:-0.2231856413267336 2:-0.9670870539037507 3:-0.9670870539037507 4:-0.3876929028827874 5:-0.1624149470338127 6:-0.3449963571655104 7:0.3768454992111689 8:-0.1350389724527743 9:-0.5073962239982714 10:-0.4335033060743624 11:-0.02098458130912452 12:0.4955039042653591 13:-0.03744470567383022 14:-0.1741516315108161 15:-0.4896561654499069 16:-0.4329743035711364 17:-0.312746407441303 18:-0.4998733268429587 19:-0.341840815627631 20:0.04202436262727747 
122.16492450638792 1:-0.3024257336189286 2:0.7945646198703021 3:0.7945646198703021 4:-0.5851047932800464 5:-1.059972163399346 6:-0.3449963571655104 7:0.3768454992111689 8:-0.1350389724527743 9:-0.5073962239982714 10:-0.4335033060743624 11:-0.02098458130912452 12:-0.1648728022122864 13:-0.107927527835426 14:-0.1741516315108161 15:-0.4896561654499069 16:-0.4329743035711364 17:0.3596450012176413 18:-0.4998733268429587 19:-0.341840808020637 20:0.8471839754584307 
122.16492450638792 1:-0.2649789389491993 2:-0.9670870539037507 3:-0.9670870539037507 4:-0.8812226288759348 5:-0.9239786457682049 6:-0.3449963571655104 7:0.3768454992111689 8:-0.1350389724527743 9:-0.5073962239982714 10:-0.4335033060743624 11:-0.08294008681999902 12:-0.2082552135867302 13:-0.16349062851756 14:-0.1741516315108161 15:-0.4896561654499069 16:-0.4329743035711364 17:0.1723160151942666 18:-0.5971359724340677 19:-0.3418408141062322 20:-0.7631352502038756 
9.665839022987912 1:-0.04456751702641081 2:-0.9670870539037507 3:-0.9670870539037507 4:1.389014110692543 5:0.558350696411237 6:0.2271086407982945 7:-0.8966168458618025 8:5.236924165893549 9:1.080936948385051 10:2.08584244285501 11:-0.07949811429161711 12:-0.2058450796214834 13:-0.1604037895907748 14:5.294385937044832 15:1.789681507524448 16:2.538366392355031 17:1.004622503353206 18:-0.1649960633925361 19:-0.3418408141062322 20:-0.7631352502038756 
122.16492450638792 1:-0.30689759074558 2:0.5429000950454375 3:0.5429000950454375 4:-0.2725359668177197 5:-0.4616006858223239 6:-0.3449963571655104 7:0.3768454992111689 8:-0.1350389724527743 9:-0.5073962239982714 10:-0.4335033060743624 11:-0.02098458130912452 12:-0.1648728022122864 13:-0.107927527835426 14:-0.1741516315108161 15:-0.4896561654499069 16:-0.4329743035711364 17:0.3596450012176413 18:-0.4998733268429587 19:-0.341840808020637 20:0.8471839754584307 
122.16492450638792 1:-0.1500152217969397 2:-0.9670870539037507 3:-0.9670870539037507 4:-0.7331637110779906 5:-0.5431967964010088 6:-0.3449963571655104 7:0.3768454992111689 8:-0.1350389724527743 9:-0.5073962239982714 10:-0.4335033060743624 11:-0.03131049889427026 12:-0.1648728022122864 13:-0.1097796311914972 14:-0.1741516315108161 15:-0.4896561654499069 16:-0.4329743035711364 17:0.3596450012176413 18:-0.2757673201387302 19:-0.3418408141062322 20:0.04202436262727747 
122.16492450638792 1:-0.2816962579981856 2:1.297893669520031 3:1.297893669520031 4:0.7803274486343281 5:2.217471611511162 6:-0.05894385818360797 7:-0.3394770698923785 8:5.044883720753474 9:0.9627821868920601 10:1.848535430509298 11:-0.02786852636588835 12:-0.1696930701427801 13:-0.1141012056889965 14:0.3952007536864753 15:-0.2523447591536247 16:-0.1236155598026143 17:-0.621219318942423 18:-1.00914560109094 19:-0.341840815627631 20:-1.165715056619452 
122.16492450638792 1:0.487814797302845 2:-0.9670870539037507 3:-0.9670870539037507 4:-0.3712419120163492 5:0.7351422693317208 6:-0.2496455241715429 7:0.3768454992111689 8:-0.1350389724527743 9:1.056257102642389 10:0.9211698809686362 11:-0.02098458130912452 12:-0.0443661039499423 13:-0.03075655466579559 14:-0.1741516315108161 15:-0.280790872161798 16:-0.2968360838435464 17:-0.2612046684955616 18:-0.4998733268429587 19:-0.341840815627631 20:0.8471839754584307 
122.16492450638792 1:-0.2158557398975627 2:-0.9670870539037507 3:-0.9670870539037507 4:2.705093380007603 5:2.135875500932478 6:-0.3449963571655104 7:0.3768454992111689 8:-0.1350389724527743 9:-0.5073962239982714 10:-0.4335033060743624 11:-0.08638205934838095 12:-0.2106653475519771 13:-0.1665774674443452 14:-0.1741516315108161 15:-0.4896561654499069 16:-0.4329743035711364 17:-0.7429585924838237 18:-1.072353565156356 19:2.925338217477786 20:-1.165715056619452 
17.528608800843056 1:-0.3039560112857204 2:-0.9670870539037507 3:-0.9670870539037507 4:1.553524019356926 5:0.6671455105161502 6:1.180616970737969 7:-1.831815755524768 8:5.733696353725614 9:2.405442569779325 10:3.264056569435812 11:-0.06917219670647136 12:-0.1986146777257427 13:-0.1511432728104191 14:6.88437337693543 15:2.452403163152735 16:3.402289210280593 17:1.647963013609626 18:0.1690312613251966 19:-0.3418408141062322 20:-0.7631352502038756 
122.16492450638792 1:-0.2274292684699378 2:-0.9670870539037507 3:-0.9670870539037507 4:-0.7167127202115524 5:-0.9919754045837755 6:-0.3449963571655104 7:0.3768454992111689 8:-0.1350389724527743 9:-0.5073962239982714 10:-0.4335033060743624 11:0.1373461549964437 12:-0.05400663981092983 13:0.03406706279669398 14:0.8012519603871535 15:-0.08309881341643503 16:0.09701316588031428 17:1.401228162361883 18:0.04092463510938066 19:-0.341840815627631 20:-1.165715056619452 
13.461395374751199 1:4.862608597660643 2:-0.9670870539037507 3:-0.9670870539037507 4:-0.8483206471430583 5:-0.7665124674584621 6:-0.3449963571655104 7:0.3768454992111689 8:-0.1350389724527743 9:-0.5073962239982714 10:-0.4335033060743624 11:-0.04852036153617985 12:-0.1648728022122864 13:-0.1158651136471595 14:-0.1741516315108161 15:-0.4896561654499069 16:-0.4329743035711364 17:0.1326554357846362 18:-0.3508816901835403 19:-0.341840815627631 20:0.8471839754584307 
122.16492450638792 1:-0.1140086884606616 2:-0.9670870539037507 3:-0.9670870539037507 4:0.4019546587062484 5:-0.271209761138726 6:0.7038628057681319 7:-1.573143716681821 8:-0.1350389724527743 9:1.982183215292684 10:0.9949892264015517 11:-0.04852036153617985 12:-0.03954583601944854 13:0.006542749032859131 14:-0.1741516315108161 15:-0.4196304277239156 16:-0.3797244682080773 17:0.1326554357846362 18:0.6891202605496498 19:-0.341840815627631 20:-0.7631352502038756 
122.16492450638792 1:-0.3047275798572121 2:-0.9670870539037507 3:-0.9670870539037507 4:-0.5851047932800464 5:0.6671455105161502 6:-0.3449963571655104 7:0.3768454992111689 8:-0.1350389724527743 9:-0.5073962239982714 10:-0.4335033060743624 11:-0.07949811429161711 12:-0.2058450796214834 13:-0.1604037895907748 14:-0.1741516315108161 15:-0.4896561654499069 16:-0.4329743035711364 17:3.513180847704867 18:1.137466659385721 19:-0.3418408141062322 20:-0.7631352502038756 
122.16492450638792 1:-0.2465898879953144 2:0.9203968822827344 3:0.9203968822827344 4:-1.045732537540317 5:-1.182366329267374 6:-0.3449963571655104 7:0.3768454992111689 8:-0.1350389724527743 9:-0.5073962239982714 10:-0.4335033060743624 11:-0.08294008681999902 12:-0.1648728022122864 13:-0.1213038298514953 14:-0.1741516315108161 15:-0.4896561654499069 16:-0.4329743035711364 17:-0.7320122076740463 18:-0.4998733268429587 19:-0.341840815627631 20:0.8471839754584307 
13.882445718390214 1:0.2923507591916206 2:-0.9670870539037507 3:-0.9670870539037507 4:-0.1409280398862137 5:-0.6655909622690361 6:6.520263618400147 7:-6.010364075295457 8:-0.1350389724527743 9:4.744721748497472 10:4.675205046413451 11:-0.02098458130912452 12:0.003836575354995318 13:0.1032403169287445 14:-0.1741516315108161 15:2.410908348485783 16:3.26226093749966 17:0.3596450012176413 18:1.794432687441146 19:-0.341840815627631 20:0.8471839754584307 
122.16492450638792 1:0.7578637973249313 2:-0.9670870539037507 3:-0.9670870539037507 4:-0.4370458754821022 5:0.9799306010677755 6:-0.3449963571655104 7:0.3768454992111689 8:-0.1350389724527743 9:-0.5073962239982714 10:-0.4335033060743624 11:0.082274594542333 12:0.001426441389748437 13:0.01907384515230865 14:-0.1741516315108161 15:-0.4896561654499069 16:-0.4329743035711364 17:-0.4158787870542127 18:-0.5952760739075698 19:-0.341840815627631 20:0.04202436262727747 
122.16492450638792 1:-0.303994589714295 2:-0.9670870539037507 3:-0.9670870539037507 4:-0.4699478572149787 5:-0.9647767010575472 6:-0.3449963571655104 7:0.3768454992111689 8:-0.1350389724527743 9:-0.5073962239982714 10:-0.4335033060743624 11:-0.04852036153617985 12:-0.1648728022122864 13:-0.1233617224693521 14:-0.1741516315108161 15:-0.4896561654499069 16:-0.4329743035711364 17:0.1326554357846362 18:-0.4998733268429587 19:-0.341840815627631 20:0.8471839754584307 
122.16492450638792 1:-0.2706371084734716 2:-0.9670870539037507 3:-0.9670870539037507 4:-0.963477583208126 5:-0.3664052234805248 6:-0.3449963571655104 7:0.3768454992111689 8:-0.1350389724527743 9:-0.5073962239982714 10:-0.4335033060743624 11:-0.02098458130912452 12:0.1870067567137582 13:0.305194415199329 14:-0.1741516315108161 15:-0.4895805438942138 16:-0.432883938451244 17:0.3596450012176413 18:0.4322328365469159 19:-0.341840815627631 20:0.8471839754584307 
122.16492450638792 1:-0.2773240360930661 2:-0.9670870539037507 3:-0.9670870539037507 4:0.5500135765041927 5:-0.1488155952706986 6:-0.3449963571655104 7:0.3768454992111689 8:-0.1350389724527743 9:-0.5073962239982714 10:-0.4335033060743624 11:-0.04852036153617985 12:-0.1648728022122864 13:-0.1202748835425669 14:-0.1741516315108161 15:-0.4896561654499069 16:-0.4329743035711364 17:0.1326554357846362 18:-0.4998733268429587 19:-0.341840815627631 20:0.8471839754584307 
122.16492450638792 1:0.9790467878192113 2:-0.9670870539037507 3:-0.9670870539037507 4:0.5006606039048779 5:-0.08081883645512779 6:-0.3449963571655104 7:0.3768454992111689 8:-0.1350389724527743 9:-0.5073962239982714 10:-0.4335033060743624 11:-0.08638205934838095 12:-0.2106653475519771 13:-0.1665774674443452 14:-0.1741516315108161 15:-0.4896561654499069 16:-0.4329743035711364 17:-0.7429585924838237 18:-1.072353565156356 19:2.925338217477786 20:-1.165715056619452 
122.16492450638792 1:0.5469683877838735 2:-0.05030914204174367 3:-0.05030914204174367 4:-0.4370458754821022 5:-0.6519916105059219 6:-0.3449963571655104 7:0.3768454992111689 8:-0.1350389724527743 9:-0.5073962239982714 10:-0.4335033060743624 11:-0.05540430659294369 12:-0.1889741418647552 13:-0.1387959171032782 14:-0.1741516315108161 15:-0.4896561654499069 16:-0.4329743035711364 17:-0.7118419551775282 18:-1.056197568529483 19:-0.3418408110634346 20:0.04202436262727747 
122.16492450638792 1:-0.2280722422795142 2:-0.9670870539037507 3:-0.9670870539037507 4:-1.11153650100607 5:-1.100770218688689 6:1.848072801695742 7:-2.965993156605382 8:-0.1350389724527743 9:1.691516332058491 10:2.131470982664196 11:-0.08294008681999902 12:-0.1648728022122864 13:-0.1552590580461327 14:-0.1741516315108161 15:2.549460731849233 16:2.615808761890085 17:-0.3339851883020765 18:-0.2894782108205589 19:-0.341840815627631 20:0.8471839754584307 
47.253451011225266 1:0.7128556306545836 2:-0.9670870539037507 3:-0.9670870539037507 4:-0.6838107384786759 5:-0.9647767010575472 6:0.7038628057681319 7:-0.9563103932870985 8:-0.1350389724527743 9:1.483526932062213 10:1.637726528200511 11:-0.04852036153617985 12:-0.1335410606640769 13:-0.07946001328840681 14:-0.1741516315108161 15:2.505286594341832 16:2.603627457622012 17:0.1326554357846362 18:-0.4998733268429587 19:-0.341840815627631 20:0.8471839754584307 
122.16492450638792 1:-0.2890261594273565 2:-0.9670870539037507 3:-0.9670870539037507 4:-0.5522028115471699 5:0.3815591234907529 6:-0.3449963571655104 7:0.3768454992111689 8:-0.1350389724527743 9:-0.5073962239982714 10:-0.4335033060743624 11:-0.04852036153617985 12:0.1870067567137582 13:0.2239076567939849 14:-0.1741516315108161 15:-0.4829738500984631 16:-0.4264410124152737 17:-0.3251888560727965 18:-0.6177280492981125 19:-0.341840815627631 20:-1.165715056619452 
122.16492450638792 1:-0.2152127660879863 2:-0.9670870539037507 3:-0.9670870539037507 4:0.2867977226411807 5:-0.2576104093756119 6:-0.3449963571655104 7:0.3768454992111689 8:-0.1350389724527743 9:-0.5073962239982714 10:-0.4335033060743624 11:-0.02098458130912452 12:0.1870067567137582 13:0.3260591597970438 14:-0.1741516315108161 15:-0.489549109055379 16:-0.4328399138727054 17:0.3596450012176413 18:0.286665503304512 19:-0.341840815627631 20:0.8471839754584307 
122.16492450638792 1:-0.08700378845845293 2:-0.9670870539037507 3:-0.9670870539037507 4:0.10583682311036 5:0.4495558823063238 6:-0.3449963571655104 7:0.3768454992111689 8:-0.1350389724527743 9:-0.5073962239982714 10:-0.4335033060743624 11:-0.08294008681999902 12:-0.06123704170667047 13:-0.1126312823905273 14:-0.1741516315108161 15:-0.4896561654499069 16:-0.4329743035711364 17:-0.6305108824168708 18:3.634563650589792 19:-0.341840815627631 20:0.8471839754584307 
122.16492450638792 1:-0.1973380941817625 2:-0.9670870539037507 3:-0.9670870539037507 4:-1.029281546673879 5:-0.7607864246108352 6:2.610879465647482 7:-2.468546928061253 8:-0.1350389724527743 9:3.725135621253779 10:2.378898613094744 11:-0.08294008681999902 12:-0.1648728022122864 13:-0.1606296558537103 14:-0.1741516315108161 15:-0.4896561654499069 16:-0.4329743035711364 17:0.3596450012176413 18:2.139950246774056 19:-0.341840815627631 20:1.249763781874007 
