svm_type c_svc
kernel_type rbf
gamma 0.16666666666666666
nr_class 2
total_sv 8580
rho 0.7414921818059905
label 1 -1
probA -1.2978216188912655
probB 1.2749575798615451
nr_sv 953 7627
SV
1.7412734405798622 1:1.47E7 2:4.0 3:0.0 4:0.0 5:102.0 6:2.06 
1.7412837777953896 1:1500000.0 2:0.0 3:0.0 4:0.0 5:63.0 6:1.42 
1.752784085464299 1:134000.0 2:0.0 3:8.0 4:8.0 5:3.0 6:0.06 
1.7413230207028745 1:3030000.0 2:0.0 3:0.0 4:0.0 5:58.0 6:3.98 
1.7412048139158043 1:2.69E7 2:0.0 3:0.0 4:0.0 5:69.0 6:1.46 
1.7413204226534376 1:1.45E7 2:0.0 3:0.0 4:0.0 5:43.0 6:1.96 
2.221423744036442 1:9740000.0 2:4.0 3:2.5 4:2.5 5:32.0 6:1.48 
1.741286905955583 1:1830000.0 2:0.0 3:0.0 4:0.0 5:32.0 6:1.36 
2.76268263124806 1:2400000.0 2:4.0 3:2.0 4:2.0 5:70.0 6:1.64 
1.7412880233998238 1:1910000.0 2:0.0 3:9.0 4:9.0 5:133.0 6:2.68 
1.7412870796734525 1:1240000.0 2:0.0 3:0.0 4:0.0 5:33.0 6:1.6 
1.7411976626135128 1:6010000.0 2:2.0 3:0.0 4:0.0 5:29.0 6:1.78 
0.9483244439152847 1:1040000.0 2:0.0 3:0.0 4:0.0 5:38.0 6:1.26 
1.7412959778227663 1:1.2E8 2:0.0 3:0.0 4:0.0 5:60.0 6:2.36 
1.7413097797720134 1:5.83E8 2:0.0 3:6.0 4:6.0 5:36.0 6:1.12 
1.9641435500595341 1:1.46E7 2:2.0 3:6.0 4:6.0 5:65.0 6:1.4 
1.7413111427275714 1:3650000.0 2:0.0 3:6.333333333333333 4:6.333333333333333 5:204.0 6:4.1 
2.3483552749683576 1:1.9E7 2:1.0 3:3.0 4:3.0 5:63.0 6:1.3 
1.7413128627282817 1:209000.0 2:0.0 3:0.0 4:0.0 5:95.0 6:2.14 
1.752631803293871 1:2.47E7 2:0.0 3:0.0 4:0.0 5:46.0 6:1.62 
1.7413166735963628 1:1260000.0 2:0.0 3:0.0 4:0.0 5:63.0 6:3.08 
3.741325864952384 1:7.28E8 2:0.0 3:0.0 4:0.0 5:40.0 6:1.6 
2.996630774230348 1:1.48E7 2:0.0 3:0.0 4:0.0 5:90.0 6:1.86 
1.7412027535483965 1:689.0 2:0.0 3:1.0 4:1.0 5:40.0 6:1.02 
1.7413264668984172 1:3640000.0 2:0.0 3:0.0 4:0.0 5:60.0 6:1.46 
1.741326787826678 1:357000.0 2:0.0 3:0.0 4:0.0 5:150.0 6:3.32 
1.758222890865418 1:1760000.0 2:0.0 3:0.0 4:0.0 5:64.0 6:1.4 
1.7679106522888433 1:3.72E7 2:0.0 3:5.0 4:5.0 5:36.0 6:1.28 
1.7413131546408798 1:1.9E7 2:0.0 3:0.0 4:0.0 5:49.0 6:1.54 
1.7413276787030623 1:2.21E7 2:0.0 3:11.0 4:11.0 5:35.0 6:1.76 
1.7413280116108418 1:179000.0 2:0.0 3:0.0 4:0.0 5:140.0 6:2.86 
1.7413377778727088 1:1180000.0 2:0.0 3:0.0 4:0.0 5:76.0 6:1.62 
1.7678716301131439 1:1.07E8 2:1.0 3:8.6 4:8.6 5:108.0 6:2.58 
1.0492650589862682 1:8890000.0 2:0.0 3:0.0 4:0.0 5:50.0 6:2.72 
3.595058234707096 1:2.03E7 2:0.0 3:0.0 4:0.0 5:43.0 6:1.54 
1.8878409171659878 1:391000.0 2:1.0 3:3.0 4:3.0 5:9.0 6:1.18 
3.624054910843275 1:2.14E7 2:0.0 3:0.0 4:0.0 5:63.0 6:1.4042553191489362 
1.7414540237383451 1:3570000.0 2:0.0 3:5.5 4:5.5 5:45.0 6:3.24 
1.7413145351279584 1:6.29E7 2:0.0 3:0.0 4:0.0 5:79.0 6:1.58 
1.7450227268831358 1:1590000.0 2:0.0 3:3.0 4:3.0 5:5.0 6:0.2 
1.7579320944475647 1:3.17E7 2:0.0 3:1.0 4:1.0 5:52.0 6:1.9 
3.1746292723975365 1:9300000.0 2:0.0 3:0.0 4:0.0 5:56.0 6:1.4791666666666667 
2.610129247481069 1:4390000.0 2:0.0 3:0.0 4:0.0 5:61.0 6:1.76 
1.7413463119967754 1:77500.0 2:0.0 3:0.0 4:0.0 5:31.0 6:2.3 
2.7413474578639723 1:9590000.0 2:0.0 3:0.0 4:0.0 5:25.0 6:1.12 
2.246635557692023 1:1.03E7 2:0.0 3:0.0 4:0.0 5:68.0 6:1.66 
1.753615032623744 1:1.88E7 2:0.0 3:0.0 4:0.0 5:51.0 6:1.56 
1.741579711247245 1:5370000.0 2:0.0 3:0.0 4:0.0 5:148.0 6:3.06 
1.7413525972099084 1:2.28E7 2:0.0 3:0.0 4:0.0 5:93.0 6:1.94 
1.7413550829186917 1:2960000.0 2:0.0 3:0.0 4:0.0 5:46.0 6:2.82 
1.7387621791508105 1:9710000.0 2:0.0 3:0.0 4:0.0 5:65.0 6:3.4 
1.7413541467629274 1:1000000.0 2:0.0 3:1.3333333333333333 4:1.3333333333333333 5:137.0 6:5.58 
2.7411999155101685 1:1.22E7 2:0.0 3:0.0 4:0.0 5:85.0 6:1.72 
1.1000277015863098 1:8690000.0 2:0.0 3:1.0 4:1.0 5:65.0 6:1.94 
1.7413529652645705 1:1.4E8 2:0.0 3:0.0 4:0.0 5:73.0 6:3.02 
1.741350872537764 1:3010000.0 2:0.0 3:5.0 4:5.0 5:195.0 6:3.9 
2.7420790038795007 1:9490000.0 2:0.0 3:0.0 4:0.0 5:78.0 6:1.58 
1.7412473991028132 1:2.66E7 2:0.0 3:0.0 4:0.0 5:48.0 6:1.72 
1.7413509559127094 1:144000.0 2:0.0 3:0.0 4:0.0 5:105.0 6:2.2 
1.7421029173763076 1:4.74E7 2:9.0 3:3.3333333333333335 4:3.3333333333333335 5:135.0 6:3.74 
1.7413561415457655 1:1290000.0 2:0.0 3:5.0 4:5.0 5:141.0 6:3.98 
2.5800085521320484 1:30700.0 2:0.0 3:8.333333333333334 4:8.333333333333334 5:3.0 6:0.24 
1.7423330516994233 1:6940000.0 2:4.0 3:0.0 4:0.0 5:27.0 6:1.2 
1.742000004635927 1:3.66E7 2:0.0 3:0.0 4:0.0 5:74.0 6:1.54 
1.7547466594238061 1:3800000.0 2:1.0 3:1.0 4:1.0 5:49.0 6:1.46 
1.741355370144114 1:7130000.0 2:0.0 3:0.0 4:0.0 5:73.0 6:1.48 
1.7413542797965849 1:2650000.0 2:0.0 3:0.0 4:0.0 5:21.0 6:0.86 
1.741351624810062 1:8950000.0 2:0.0 3:0.0 4:0.0 5:22.0 6:1.42 
1.7413526101603716 1:2.29E7 2:0.0 3:9.0 4:9.0 5:50.0 6:3.26 
4.744028331435011 1:1.03E8 2:1.0 3:3.5 4:3.5 5:30.0 6:1.4 
1.741322753025441 1:1050000.0 2:21.0 3:6.75 4:6.75 5:69.0 6:1.48 
1.7412716591755253 1:4690000.0 2:0.0 3:0.0 4:0.0 5:43.0 6:1.54 
2.861860890201908 1:4060000.0 2:1.0 3:3.5 4:3.5 5:45.0 6:1.66 
1.7415980436334737 1:1.49E7 2:0.0 3:0.0 4:0.0 5:77.0 6:1.54 
1.7413532049042535 1:6500000.0 2:6.0 3:2.0 4:2.0 5:142.0 6:3.0 
1.7457479299692888 1:3580000.0 2:1.0 3:4.5 4:4.5 5:35.0 6:1.02 
1.7667761392679013 1:2.15E7 2:0.0 3:0.0 4:0.0 5:55.0 6:1.94 
1.7413533163757693 1:192000.0 2:0.0 3:8.666666666666666 4:8.666666666666666 5:64.0 6:1.32 
1.7413659699613566 1:1490000.0 2:0.0 3:5.0 4:5.0 5:85.0 6:2.84 
1.917028346181112 1:6670000.0 2:0.0 3:1.0 4:1.0 5:69.0 6:1.68 
1.7412660486243317 1:1320000.0 2:3.0 3:5.0 4:5.0 5:62.0 6:3.44 
1.7670120316818352 1:1.03E7 2:2.0 3:0.0 4:0.0 5:23.0 6:1.28 
2.5067558297244568 1:2720000.0 2:0.0 3:5.0 4:5.0 5:32.0 6:2.8 
1.7413719952101747 1:2250000.0 2:0.0 3:0.0 4:0.0 5:50.0 6:2.48 
1.7585846802626286 1:178000.0 2:5.0 3:1.5 4:1.5 5:94.0 6:2.44 
1.7413338107273528 1:2660000.0 2:0.0 3:9.0 4:9.0 5:29.0 6:0.86 
1.7412651553003908 1:5400000.0 2:0.0 3:0.0 4:0.0 5:28.0 6:1.44 
1.8260375068325851 1:3460000.0 2:0.0 3:3.5 4:3.5 5:81.0 6:1.78 
1.7413757737117082 1:2880000.0 2:0.0 3:7.0 4:7.0 5:75.0 6:2.68 
1.7415801407690217 1:8090000.0 2:0.0 3:0.0 4:0.0 5:45.0 6:1.9 
1.7413850919257625 1:7.83E7 2:0.0 3:0.0 4:0.0 5:90.0 6:1.82 
1.7413869223623557 1:2140000.0 2:0.0 3:0.0 4:0.0 5:32.0 6:1.28 
1.7421476843783414 1:247.0 2:0.0 3:0.0 4:0.0 5:109.0 6:2.48 
1.7413940768935614 1:37300.0 2:0.0 3:9.5 4:9.5 5:102.0 6:2.24 
1.7412477709532876 1:3120000.0 2:0.0 3:0.0 4:0.0 5:45.0 6:1.34 
1.753028752954169 1:8560000.0 2:0.0 3:0.0 4:0.0 5:72.0 6:1.7 
2.3483995521711085 1:510000.0 2:0.0 3:3.0 4:3.0 5:99.0 6:2.02 
1.819148766639351 1:5.52E7 2:3.0 3:0.6666666666666666 4:0.6666666666666666 5:78.0 6:2.06 
1.7418935256520476 1:1.08E8 2:0.0 3:0.0 4:0.0 5:70.0 6:1.44 
2.741958890919523 1:9810000.0 2:0.0 3:0.0 4:0.0 5:42.0 6:2.12 
1.6566423148717606 1:9650000.0 2:0.0 3:0.0 4:0.0 5:71.0 6:1.44 
2.4597009465051256 1:7410000.0 2:4.0 3:4.0 4:4.0 5:52.0 6:1.8 
1.7413947817839457 1:5140000.0 2:1.0 3:0.0 4:0.0 5:148.0 6:3.08 
2.520498036647042 1:93200.0 2:0.0 3:4.5 4:4.5 5:2.0 6:0.06 
1.7414005543346847 1:2.77E7 2:0.0 3:0.0 4:0.0 5:254.0 6:5.8 
2.724453441353933 1:1150000.0 2:4.0 3:5.0 4:5.0 5:64.0 6:1.32 
1.7412032924757619 1:7.29E7 2:0.0 3:0.0 4:0.0 5:40.0 6:1.14 
1.742195120500431 1:2280000.0 2:8.0 3:1.25 4:1.25 5:205.0 6:4.26 
1.7414009921495543 1:8.01E7 2:0.0 3:0.0 4:0.0 5:82.0 6:1.74 
1.7421868151894084 1:1960000.0 2:0.0 3:1.0 4:1.0 5:28.0 6:1.32 
1.741405362505452 1:18100.0 2:0.0 3:0.0 4:0.0 5:83.0 6:1.8 
2.735043148273648 1:2700000.0 2:0.0 3:0.0 4:0.0 5:53.0 6:3.3 
1.7414063297325497 1:3130000.0 2:0.0 3:10.0 4:10.0 5:127.0 6:2.58 
1.7414076376817014 1:2740000.0 2:0.0 3:0.0 4:0.0 5:32.0 6:1.14 
1.7413200198917476 1:6.29E7 2:0.0 3:0.0 4:0.0 5:68.0 6:3.18 
2.7292723046682754 1:3160000.0 2:2.0 3:5.0 4:5.0 5:87.0 6:1.76 
1.740578912027675 1:223.0 2:0.0 3:6.0 4:6.0 5:124.0 6:2.62 
1.7421339668320786 1:3.45E7 2:0.0 3:0.0 4:0.0 5:42.0 6:1.5 
1.7414322593070761 1:247000.0 2:0.0 3:0.0 4:0.0 5:43.0 6:1.54 
1.7414518388942386 1:219000.0 2:0.0 3:6.0 4:6.0 5:75.0 6:1.66 
1.7433261078616664 1:1.05E8 2:0.0 3:0.0 4:0.0 5:38.0 6:1.82 
1.7414812231970354 1:5.87E7 2:0.0 3:0.0 4:0.0 5:103.0 6:4.86 
2.4630999222551404 1:1.06E7 2:1.0 3:4.0 4:4.0 5:49.0 6:1.56 
1.775733166719067 1:1.37E7 2:3.0 3:0.0 4:0.0 5:42.0 6:1.42 
1.7414805392555082 1:9.76E7 2:0.0 3:0.0 4:0.0 5:53.0 6:1.74 
2.1210123160499625 1:1.18E7 2:0.0 3:0.0 4:0.0 5:46.0 6:1.44 
1.7411989499319387 1:5580000.0 2:0.0 3:0.0 4:0.0 5:64.0 6:1.88 
1.7414860255008402 1:1.75E7 2:0.0 3:10.0 4:10.0 5:134.0 6:2.68 
1.7415249883288229 1:2040000.0 2:0.0 3:0.0 4:0.0 5:38.0 6:1.2 
2.709693247015045 1:1.15E7 2:1.0 3:4.25 4:4.25 5:51.0 6:1.4 
1.8538910988274069 1:1.01E7 2:0.0 3:0.5 4:0.5 5:82.0 6:2.98 
1.7415345897248262 1:1050000.0 2:0.0 3:0.0 4:0.0 5:15.0 6:0.66 
1.741535157943995 1:324000.0 2:0.0 3:0.0 4:0.0 5:150.0 6:3.46 
1.7482022140615439 1:9940000.0 2:3.0 3:0.0 4:0.0 5:41.0 6:1.9 
1.74170830433306 1:1.35E8 2:0.0 3:0.0 4:0.0 5:55.0 6:2.48 
1.762603311575501 1:5.1E7 2:4.0 3:0.0 4:0.0 5:45.0 6:2.04 
1.633233040729694 1:1.52E7 2:0.0 3:0.0 4:0.0 5:43.0 6:1.9 
2.365499284309437 1:176000.0 2:0.0 3:1.0 4:1.0 5:45.0 6:1.02 
1.762007460434471 1:9450000.0 2:0.0 3:10.0 4:10.0 5:41.0 6:1.42 
1.741541170591121 1:2680000.0 2:0.0 3:0.0 4:0.0 5:34.0 6:1.94 
1.7513017021276136 1:41.0 2:3.0 3:6.0 4:6.0 5:4.0 6:0.24390243902439024 
1.7420562584125392 1:9060000.0 2:4.0 3:4.5 4:4.5 5:74.0 6:1.5 
1.741545611871987 1:262000.0 2:0.0 3:9.5 4:9.5 5:70.0 6:3.0 
1.741234075367202 1:228.0 2:0.0 3:7.5 4:7.5 5:118.0 6:2.48 
1.7415600209702045 1:3190000.0 2:0.0 3:1.3333333333333333 4:1.3333333333333333 5:131.0 6:2.94 
1.7437344039170701 1:196000.0 2:1.0 3:8.0 4:8.0 5:110.0 6:2.24 
1.7416420431622681 1:9100000.0 2:0.0 3:0.0 4:0.0 5:43.0 6:1.96 
1.7420357194094607 1:4900000.0 2:0.0 3:0.0 4:0.0 5:66.0 6:1.64 
1.7418379736010916 1:1.13E8 2:0.0 3:0.0 4:0.0 5:66.0 6:2.5 
1.7413633303317746 1:1.55E7 2:0.0 3:0.0 4:0.0 5:75.0 6:1.56 
1.781875167934673 1:4230000.0 2:7.0 3:0.6666666666666666 4:0.6666666666666666 5:132.0 6:3.84 
1.741561611776871 1:5450000.0 2:0.0 3:0.0 4:0.0 5:54.0 6:1.4 
1.8041753906626987 1:6430000.0 2:0.0 3:0.0 4:0.0 5:94.0 6:1.94 
1.741571933704761 1:3830000.0 2:0.0 3:2.0 4:2.0 5:12.0 6:0.68 
1.778055111256646 1:2660000.0 2:0.0 3:0.0 4:0.0 5:104.0 6:3.76 
1.750534150305772 1:215000.0 2:0.0 3:6.0 4:6.0 5:19.0 6:0.9 
1.743107016908764 1:3.96E7 2:0.0 3:0.0 4:0.0 5:47.0 6:1.62 
1.7413225852440146 1:173000.0 2:0.0 3:0.0 4:0.0 5:69.0 6:3.1 
1.6584694974897256 1:9080000.0 2:0.0 3:0.0 4:0.0 5:45.0 6:1.66 
1.7419158960860597 1:1180000.0 2:0.0 3:0.0 4:0.0 5:36.0 6:1.14 
1.7415902207753833 1:4480000.0 2:0.0 3:0.0 4:0.0 5:64.0 6:2.44 
2.741357885143728 1:4.74E7 2:0.0 3:0.0 4:0.0 5:50.0 6:1.58 
1.7415967824050598 1:5890000.0 2:0.0 3:6.666666666666667 4:6.666666666666667 5:180.0 6:3.6 
2.7510194902808904 1:1.05E7 2:0.0 3:0.0 4:0.0 5:75.0 6:2.3 
1.7411337884447189 1:1.95E8 2:0.0 3:10.0 4:10.0 5:48.0 6:3.76 
1.8525850926533138 1:8140000.0 2:0.0 3:0.0 4:0.0 5:47.0 6:1.3 
1.741270842678706 1:979000.0 2:0.0 3:0.0 4:0.0 5:52.0 6:1.54 
1.7415976919755374 1:2140000.0 2:0.0 3:0.0 4:0.0 5:211.0 6:5.06 
1.7415978777523193 1:2610000.0 2:0.0 3:0.0 4:0.0 5:64.0 6:3.06 
1.7418087392361226 1:1.42E7 2:0.0 3:0.0 4:0.0 5:47.0 6:1.7 
1.7415942357249294 1:5.79E7 2:0.0 3:0.0 4:0.0 5:72.0 6:1.6 
2.7414095536124643 1:1.28E8 2:0.0 3:0.0 4:0.0 5:14.0 6:0.78 
1.7843846728516994 1:8730000.0 2:4.0 3:0.0 4:0.0 5:64.0 6:1.28 
1.766686507618811 1:1.04E7 2:3.0 3:0.0 4:0.0 5:47.0 6:2.04 
2.7428589112305874 1:1.66E8 2:3.0 3:0.0 4:0.0 5:77.0 6:1.88 
1.7415996890746142 1:2620000.0 2:0.0 3:0.0 4:0.0 5:47.0 6:3.34 
1.749093846730632 1:5710000.0 2:3.0 3:0.0 4:0.0 5:73.0 6:1.66 
1.7416032595249638 1:74700.0 2:0.0 3:0.0 4:0.0 5:59.0 6:1.52 
2.473885592330799 1:1.21E7 2:0.0 3:0.0 4:0.0 5:40.0 6:2.54 
2.1093837176675336 1:1.13E7 2:0.0 3:0.0 4:0.0 5:25.0 6:1.105263157894737 
2.128892365515795 1:1.05E7 2:4.0 3:0.0 4:0.0 5:70.0 6:1.42 
2.5334978737760188 1:1.04E7 2:1.0 3:3.0 4:3.0 5:66.0 6:1.8 
1.7413870205995319 1:5010000.0 2:0.0 3:8.0 4:8.0 5:40.0 6:1.56 
1.7412641842217575 1:2420000.0 2:0.0 3:0.0 4:0.0 5:60.0 6:1.56 
1.7416071006440008 1:1.83E7 2:0.0 3:0.0 4:0.0 5:21.0 6:2.14 
1.7416072481748206 1:3220000.0 2:0.0 3:10.0 4:10.0 5:37.0 6:1.68 
1.741608668464841 1:5610000.0 2:0.0 3:6.0 4:6.0 5:103.0 6:2.12 
1.7416081859358448 1:1900000.0 2:0.0 3:0.0 4:0.0 5:12.0 6:0.3 
1.7416107026620737 1:405000.0 2:14.0 3:2.3333333333333335 4:2.3333333333333335 5:128.0 6:2.64 
3.106974257127696 1:1.05E7 2:2.0 3:6.0 4:6.0 5:3.0 6:0.08 
2.587781405385111 1:9170000.0 2:0.0 3:0.0 4:0.0 5:49.0 6:1.44 
2.28927838684009 1:4.06E7 2:3.0 3:3.5 4:3.5 5:53.0 6:1.3902439024390243 
1.741611072418788 1:238000.0 2:0.0 3:0.0 4:0.0 5:12.0 6:0.5 
1.7419997946058334 1:2.54E8 2:4.0 3:1.0 4:1.0 5:38.0 6:1.8048780487804879 
2.2181625980991293 1:4060000.0 2:1.0 3:4.5 4:4.5 5:77.0 6:2.9 
1.741613544279065 1:1.86E7 2:31.0 3:2.0 4:2.0 5:272.0 6:6.06 
1.7416136766549746 1:290000.0 2:0.0 3:5.0 4:5.0 5:164.0 6:5.4 
1.7416080555546054 1:974000.0 2:0.0 3:10.0 4:10.0 5:110.0 6:2.22 
1.7416077471743439 1:9.31E7 2:0.0 3:0.0 4:0.0 5:54.0 6:1.8 
1.741425597307051 1:4090000.0 2:0.0 3:0.0 4:0.0 5:40.0 6:1.04 
1.7416070149051568 1:2.86E7 2:0.0 3:0.0 4:0.0 5:64.0 6:1.96 
1.7450006498824955 1:4360000.0 2:0.0 3:0.0 4:0.0 5:44.0 6:1.62 
1.7457656555055225 1:1300000.0 2:2.0 3:6.333333333333333 4:6.333333333333333 5:55.0 6:1.2 
1.7415796006615782 1:593000.0 2:0.0 3:8.0 4:8.0 5:72.0 6:1.6 
1.741198221022953 1:2740000.0 2:0.0 3:0.0 4:0.0 5:69.0 6:3.12 
1.7416062025829417 1:2890000.0 2:0.0 3:0.0 4:0.0 5:128.0 6:2.6 
2.182117113250812 1:3120000.0 2:1.0 3:0.0 4:0.0 5:261.0 6:5.7 
1.741223571437914 1:208.0 2:0.0 3:7.5 4:7.5 5:123.0 6:2.5 
1.745191885295744 1:6990000.0 2:0.0 3:0.0 4:0.0 5:46.0 6:2.94 
1.7416060239645983 1:495000.0 2:0.0 3:0.0 4:0.0 5:196.0 6:4.06 
1.7457150377647395 1:2.16E7 2:2.0 3:0.0 4:0.0 5:54.0 6:2.04 
1.7415204995066693 1:195.0 2:0.0 3:10.0 4:10.0 5:121.0 6:2.46 
1.7416060556635342 1:5110000.0 2:0.0 3:0.0 4:0.0 5:58.0 6:2.76 
1.7416059355037454 1:230.0 2:0.0 3:10.5 4:10.5 5:147.0 6:2.94 
1.7416050837631467 1:135000.0 2:0.0 3:0.0 4:0.0 5:46.0 6:2.7 
2.741201198078238 1:5030000.0 2:1.0 3:6.333333333333333 4:6.333333333333333 5:42.0 6:1.36 
1.7416052419369332 1:182000.0 2:4.0 3:3.4 4:3.4 5:35.0 6:0.7 
1.7416051759744893 1:2.53E7 2:0.0 3:0.0 4:0.0 5:71.0 6:1.44 
1.7416050353118178 1:627000.0 2:0.0 3:5.0 4:5.0 5:145.0 6:3.96 
1.7416031629788455 1:278000.0 2:0.0 3:0.0 4:0.0 5:113.0 6:2.34 
1.7682917056799967 1:1.22E7 2:0.0 3:6.0 4:6.0 5:44.0 6:1.74 
1.7416031888298498 1:917000.0 2:0.0 3:9.0 4:9.0 5:9.0 6:1.08 
1.7414963897353557 1:312000.0 2:0.0 3:7.0 4:7.0 5:130.0 6:3.5 
2.803368380774329 1:9720000.0 2:0.0 3:0.0 4:0.0 5:82.0 6:1.66 
2.7416266336309048 1:2.98E7 2:0.0 3:7.0 4:7.0 5:201.0 6:5.24 
2.4578968729432926 1:7.87E7 2:3.0 3:1.0 4:1.0 5:52.0 6:1.76 
1.7416522651138873 1:2130000.0 2:0.0 3:0.0 4:0.0 5:161.0 6:3.22 
1.7426311378162513 1:4.07E7 2:3.0 3:0.0 4:0.0 5:42.0 6:1.46 
3.4230034302821064 1:3500000.0 2:2.0 3:6.333333333333333 4:6.333333333333333 5:7.0 6:0.2 
1.741664807791904 1:340000.0 2:0.0 3:0.0 4:0.0 5:116.0 6:2.4 
1.7416698894419245 1:2.27E7 2:0.0 3:0.0 4:0.0 5:100.0 6:3.54 
1.7416842874157679 1:6550000.0 2:0.0 3:0.0 4:0.0 5:39.0 6:1.62 
1.7414713774338448 1:201.0 2:0.0 3:0.0 4:0.0 5:164.0 6:3.74 
3.7416938272387252 1:5.0E7 2:0.0 3:3.0 4:3.0 5:54.0 6:2.62 
1.7425142178656767 1:2070000.0 2:0.0 3:0.0 4:0.0 5:41.0 6:1.52 
2.520902376801574 1:1360000.0 2:2.0 3:5.0 4:5.0 5:34.0 6:1.64 
1.7650723217692748 1:2.2E7 2:0.0 3:0.0 4:0.0 5:100.0 6:2.0 
1.450909281845258 1:1.17E7 2:2.0 3:0.0 4:0.0 5:65.0 6:1.72 
3.7417026398883566 1:5.8E8 2:2.0 3:5.5 4:5.5 5:49.0 6:1.2 
1.6288569095174035 1:9080000.0 2:0.0 3:0.0 4:0.0 5:49.0 6:1.42 
2.468177265683591 1:1.16E7 2:0.0 3:0.0 4:0.0 5:41.0 6:1.434782608695652 
1.7678827981690013 1:5.54E7 2:4.0 3:1.0 4:1.0 5:39.0 6:2.152173913043478 
1.7416088339675933 1:970000.0 2:2.0 3:5.0 4:5.0 5:279.0 6:8.34 
1.7417119082409793 1:4.09E7 2:0.0 3:0.0 4:0.0 5:64.0 6:2.04 
1.7415661399404732 1:5890000.0 2:0.0 3:0.0 4:0.0 5:45.0 6:1.58 
1.7439432181899994 1:2440000.0 2:3.0 3:0.0 4:0.0 5:39.0 6:1.46 
1.741320986727328 1:179.0 2:0.0 3:7.0 4:7.0 5:12.0 6:0.36 
1.6474581461381228 1:9650000.0 2:4.0 3:0.0 4:0.0 5:72.0 6:1.52 
1.7417416626864588 1:6.91E7 2:0.0 3:6.333333333333333 4:6.333333333333333 5:152.0 6:3.14 
3.7865160463492336 1:1.2E7 2:0.0 3:0.0 4:0.0 5:49.0 6:1.72 
1.7417500558759815 1:6.33E8 2:0.0 3:0.0 4:0.0 5:65.0 6:1.98 
5.227524397088076 1:8850000.0 2:0.0 3:0.0 4:0.0 5:60.0 6:1.68 
1.741766162980821 1:4500000.0 2:0.0 3:0.0 4:0.0 5:141.0 6:2.92 
5.2234370151972005 1:9490000.0 2:0.0 3:0.0 4:0.0 5:58.0 6:1.88 
1.7412641061114231 1:1.56E7 2:0.0 3:0.0 4:0.0 5:74.0 6:1.68 
1.741800434156822 1:1.77E7 2:0.0 3:0.0 4:0.0 5:34.0 6:2.7 
3.6032596569371504 1:2.42E7 2:0.0 3:0.0 4:0.0 5:64.0 6:1.88 
1.741783465496825 1:122000.0 2:0.0 3:7.5 4:7.5 5:76.0 6:2.22 
1.963257653270499 1:2.1E7 2:3.0 3:0.0 4:0.0 5:41.0 6:1.68 
2.3492857723577747 1:9730000.0 2:0.0 3:0.0 4:0.0 5:70.0 6:1.68 
4.47555104261286 1:7880000.0 2:3.0 3:4.0 4:4.0 5:45.0 6:2.0 
2.575711260720901 1:1.07E7 2:3.0 3:0.0 4:0.0 5:36.0 6:1.96 
1.7418220217254972 1:1660000.0 2:0.0 3:0.0 4:0.0 5:51.0 6:1.68 
1.8093659185726865 1:6870000.0 2:0.0 3:3.0 4:3.0 5:49.0 6:1.68 
2.741619080937346 1:1.2E7 2:0.0 3:0.0 4:0.0 5:37.0 6:1.68 
1.8887126826767582 1:3790000.0 2:2.0 3:4.0 4:4.0 5:43.0 6:1.32 
1.6948111531803174 1:179.0 2:0.0 3:6.333333333333333 4:6.333333333333333 5:190.0 6:3.86 
2.712516438269112 1:127000.0 2:2.0 3:8.0 4:8.0 5:15.0 6:0.36 
1.7418248749814405 1:26000.0 2:15.0 3:2.5 4:2.5 5:48.0 6:1.18 
1.7409463477013227 1:2670000.0 2:0.0 3:8.5 4:8.5 5:55.0 6:2.26 
2.587951618244899 1:1.29E7 2:1.0 3:5.0 4:5.0 5:282.0 6:6.26 
2.7418477836860577 1:4920000.0 2:0.0 3:7.5 4:7.5 5:120.0 6:2.42 
1.7426320996944795 1:3110000.0 2:0.0 3:0.0 4:0.0 5:62.0 6:1.56 
1.7660779488955884 1:5910000.0 2:0.0 3:0.0 4:0.0 5:40.0 6:1.5 
1.7456036805233397 1:395000.0 2:0.0 3:0.0 4:0.0 5:90.0 6:3.5 
2.3307258354814 1:4370000.0 2:1.0 3:4.5 4:4.5 5:75.0 6:1.62 
1.7418496074551622 1:161000.0 2:0.0 3:7.0 4:7.0 5:124.0 6:2.7 
1.741849779532685 1:3760000.0 2:0.0 3:5.5 4:5.5 5:267.0 6:5.4 
1.7418552661973974 1:4.72E7 2:25.0 3:4.0 4:4.0 5:104.0 6:3.5 
1.7411968621835563 1:2690000.0 2:0.0 3:0.0 4:0.0 5:55.0 6:2.92 
1.7418629782287884 1:7600000.0 2:0.0 3:0.0 4:0.0 5:49.0 6:2.9 
1.7418694804260912 1:6900000.0 2:0.0 3:0.0 4:0.0 5:41.0 6:2.88 
1.7418697447950073 1:8430000.0 2:0.0 3:0.0 4:0.0 5:62.0 6:1.42 
1.7707812266460918 1:7640000.0 2:2.0 3:0.0 4:0.0 5:74.0 6:2.14 
2.67858544459228 1:1.0E7 2:1.0 3:3.5 4:3.5 5:79.0 6:1.66 
1.7418714945948968 1:287000.0 2:0.0 3:0.0 4:0.0 5:88.0 6:4.26 
1.7425162854428144 1:363000.0 2:0.0 3:0.0 4:0.0 5:17.0 6:1.5 
1.0082185371889099 1:1.26E7 2:0.0 3:0.0 4:0.0 5:49.0 6:2.16 
2.476704977013848 1:1.09E7 2:2.0 3:4.0 4:4.0 5:70.0 6:1.6 
2.6979987396836793 1:5430000.0 2:5.0 3:4.0 4:4.0 5:88.0 6:1.78 
2.5813058095941686 1:640000.0 2:0.0 3:5.4 4:5.4 5:339.0 6:7.66 
2.0591595297486553 1:8560000.0 2:0.0 3:6.166666666666667 4:6.166666666666667 5:90.0 6:3.06 
1.7418774038302667 1:8370000.0 2:0.0 3:0.0 4:0.0 5:86.0 6:1.74 
1.7419661682345124 1:2740000.0 2:0.0 3:2.5 4:2.5 5:59.0 6:1.48 
1.7418831202770446 1:1.48E7 2:0.0 3:0.0 4:0.0 5:156.0 6:4.34 
1.7420010475015655 1:1150000.0 2:0.0 3:0.0 4:0.0 5:52.0 6:1.46 
3.513207790097834 1:8730000.0 2:0.0 3:0.0 4:0.0 5:43.0 6:1.7 
1.7412161441544183 1:1.06E7 2:0.0 3:0.0 4:0.0 5:28.0 6:1.46 
1.7418842894159046 1:2030000.0 2:0.0 3:0.0 4:0.0 5:25.0 6:1.28 
1.7418918647381085 1:158000.0 2:0.0 3:0.0 4:0.0 5:23.0 6:1.36 
1.741909764388661 1:2830000.0 2:0.0 3:8.0 4:8.0 5:130.0 6:2.66 
2.741913114943644 1:3.0E7 2:0.0 3:0.0 4:0.0 5:58.0 6:1.74 
4.780028433021247 1:1.06E7 2:0.0 3:0.0 4:0.0 5:64.0 6:1.7708333333333333 
4.585991732910484 1:9570000.0 2:4.0 3:3.0 4:3.0 5:61.0 6:1.56 
1.7419456583793829 1:3890000.0 2:0.0 3:0.0 4:0.0 5:49.0 6:1.74 
2.742252771770416 1:1.51E7 2:0.0 3:0.0 4:0.0 5:47.0 6:1.72 
1.7419299074554597 1:5.95E7 2:0.0 3:0.0 4:0.0 5:71.0 6:1.44 
1.7416135143178344 1:1.21E7 2:0.0 3:8.5 4:8.5 5:41.0 6:2.64 
1.7419845554815123 1:1260000.0 2:0.0 3:0.0 4:0.0 5:264.0 6:5.68 
1.747460326526307 1:2.29E7 2:0.0 3:1.6666666666666667 4:1.6666666666666667 5:158.0 6:4.18 
1.7419976048096673 1:175000.0 2:0.0 3:0.0 4:0.0 5:153.0 6:3.06 
1.9110824970790152 1:1.56E7 2:1.0 3:6.0 4:6.0 5:54.0 6:1.38 
1.7467509114587254 1:8300000.0 2:0.0 3:0.0 4:0.0 5:68.0 6:1.44 
1.7420083851604464 1:622000.0 2:0.0 3:10.5 4:10.5 5:142.0 6:2.84 
1.7411973433435053 1:4.48E7 2:0.0 3:0.0 4:0.0 5:44.0 6:1.44 
1.7420141769774464 1:1190000.0 2:0.0 3:0.0 4:0.0 5:70.0 6:2.76 
1.7420144032281308 1:6.0E7 2:0.0 3:0.0 4:0.0 5:74.0 6:3.0 
1.741197782433988 1:8390000.0 2:0.0 3:0.0 4:0.0 5:28.0 6:1.42 
1.7447914886597948 1:177000.0 2:0.0 3:7.5 4:7.5 5:17.0 6:0.38 
1.7418757434937926 1:3400000.0 2:0.0 3:0.0 4:0.0 5:61.0 6:1.26 
1.7413152813069568 1:763000.0 2:0.0 3:0.0 4:0.0 5:126.0 6:2.8 
1.7412031350347825 1:4750000.0 2:0.0 3:0.0 4:0.0 5:38.0 6:1.68 
1.7420325594743984 1:128000.0 2:0.0 3:0.0 4:0.0 5:122.0 6:2.58 
2.223379830054424 1:1520000.0 2:3.0 3:1.8 4:1.8 5:111.0 6:3.92 
1.7420451674420159 1:1920000.0 2:0.0 3:0.0 4:0.0 5:128.0 6:2.6 
2.806210596209244 1:203000.0 2:2.0 3:4.5 4:4.5 5:66.0 6:1.48 
1.742051326700568 1:477000.0 2:0.0 3:0.0 4:0.0 5:51.0 6:1.64 
2.616876519461177 1:3400000.0 2:0.0 3:1.5 4:1.5 5:222.0 6:5.22 
1.9452705135470214 1:7.02E7 2:4.0 3:2.0 4:2.0 5:77.0 6:1.62 
1.7459698666848444 1:1.78E7 2:0.0 3:0.0 4:0.0 5:32.0 6:1.52 
1.7415622915302067 1:1360000.0 2:0.0 3:0.0 4:0.0 5:89.0 6:1.82 
1.7419581601629452 1:3750000.0 2:0.0 3:2.0 4:2.0 5:282.0 6:6.2 
1.7420773284977598 1:11400.0 2:0.0 3:0.0 4:0.0 5:113.0 6:2.82 
2.103287385897432 1:4960000.0 2:0.0 3:0.0 4:0.0 5:85.0 6:1.88 
1.741948367307687 1:9180000.0 2:0.0 3:0.0 4:0.0 5:39.0 6:1.58 
1.7842681431858147 1:570000.0 2:0.0 3:0.0 4:0.0 5:68.0 6:1.4 
1.8564196535722264 1:1.34E7 2:0.0 3:0.0 4:0.0 5:78.0 6:1.56 
1.747632596203227 1:1550000.0 2:0.0 3:0.0 4:0.0 5:61.0 6:1.24 
1.7417172826896972 1:7270000.0 2:2.0 3:7.666666666666667 4:7.666666666666667 5:211.0 6:4.46 
1.7428594182157682 1:1.38E8 2:0.0 3:5.5 4:5.5 5:80.0 6:3.34 
1.788774563060862 1:2.42E7 2:0.0 3:0.0 4:0.0 5:29.0 6:1.697674418604651 
2.8093622991201217 1:1.01E8 2:0.0 3:0.0 4:0.0 5:82.0 6:1.68 
1.741913197070452 1:6320000.0 2:0.0 3:0.8 4:0.8 5:209.0 6:4.46 
1.7415806198629145 1:1690000.0 2:0.0 3:8.0 4:8.0 5:71.0 6:2.04 
1.741932717696867 1:1280000.0 2:0.0 3:0.0 4:0.0 5:21.0 6:0.96 
1.7392300583741775 1:1390000.0 2:0.0 3:0.0 4:0.0 5:65.0 6:1.46 
2.74158061126611 1:2.6E7 2:0.0 3:0.0 4:0.0 5:89.0 6:2.98 
1.7410047085410754 1:221.0 2:0.0 3:10.0 4:10.0 5:121.0 6:2.44 
1.7415798695738964 1:1820000.0 2:0.0 3:0.0 4:0.0 5:48.0 6:2.4 
1.7423412836013974 1:9370000.0 2:0.0 3:0.0 4:0.0 5:26.0 6:0.88 
1.7422798943564979 1:5.96E7 2:0.0 3:3.5 4:3.5 5:57.0 6:3.92 
1.7415761671377523 1:452000.0 2:0.0 3:0.0 4:0.0 5:264.0 6:5.7 
2.135817762236229 1:2.26E7 2:4.0 3:1.0 4:1.0 5:57.0 6:2.22 
2.733849264318076 1:1.43E7 2:0.0 3:0.0 4:0.0 5:56.0 6:2.16 
3.656616834007486 1:3330000.0 2:1.0 3:5.0 4:5.0 5:46.0 6:1.02 
2.349182399725609 1:1.47E7 2:2.0 3:4.0 4:4.0 5:48.0 6:2.06 
1.8038422610609262 1:5.68E7 2:0.0 3:4.5 4:4.5 5:39.0 6:2.22 
1.7415733843671823 1:3.69E7 2:0.0 3:0.0 4:0.0 5:56.0 6:1.84 
1.7414565769202905 1:4.64E7 2:0.0 3:0.0 4:0.0 5:23.0 6:1.7105263157894737 
2.913633758209689 1:1.25E7 2:0.0 3:0.0 4:0.0 5:55.0 6:1.54 
2.587893457138162 1:1.27E7 2:0.0 3:0.0 4:0.0 5:167.0 6:4.58 
2.0668177486821557 1:1.27E7 2:9.0 3:0.5 4:0.5 5:42.0 6:0.86 
1.7415976571058915 1:1.76E7 2:0.0 3:0.0 4:0.0 5:35.0 6:1.48 
1.7412081965570891 1:5.04E7 2:2.0 3:6.0 4:6.0 5:107.0 6:2.72 
1.7423526371070865 1:4180000.0 2:0.0 3:0.0 4:0.0 5:56.0 6:2.72 
1.7416935351083236 1:8.21E7 2:0.0 3:0.0 4:0.0 5:27.0 6:1.8333333333333333 
1.7415741866022112 1:171000.0 2:0.0 3:0.0 4:0.0 5:53.0 6:3.04 
2.7415710196739944 1:1.43E8 2:0.0 3:0.0 4:0.0 5:27.0 6:1.78 
2.3484137280240724 1:75200.0 2:2.0 3:6.0 4:6.0 5:15.0 6:0.3 
2.7414161170957865 1:2.43E8 2:0.0 3:2.3333333333333335 4:2.3333333333333335 5:77.0 6:3.4 
1.7953147924046304 1:3.68E7 2:0.0 3:0.0 4:0.0 5:42.0 6:1.74 
1.7420270541541798 1:147000.0 2:0.0 3:0.0 4:0.0 5:57.0 6:3.54 
1.741312637386223 1:1.36E7 2:0.0 3:0.0 4:0.0 5:43.0 6:1.84 
1.7415684036935022 1:4.29E7 2:0.0 3:0.0 4:0.0 5:89.0 6:1.82 
1.7415687553972892 1:1240000.0 2:0.0 3:0.0 4:0.0 5:144.0 6:2.9 
1.741568993320211 1:6510000.0 2:0.0 3:0.0 4:0.0 5:69.0 6:2.52 
2.282567867332986 1:348000.0 2:0.0 3:4.666666666666667 4:4.666666666666667 5:57.0 6:1.2 
1.7419541581732505 1:3260000.0 2:0.0 3:0.0 4:0.0 5:39.0 6:1.4 
1.7415687088863503 1:2.38E7 2:0.0 3:0.0 4:0.0 5:54.0 6:1.66 
1.7415658277981145 1:2.04E7 2:0.0 3:7.0 4:7.0 5:177.0 6:3.58 
2.3483040865012867 1:252.0 2:2.0 3:4.0 4:4.0 5:76.0 6:2.08 
1.7415661427506426 1:8720000.0 2:0.0 3:7.5 4:7.5 5:36.0 6:2.12 
1.4653488940432984 1:1.22E7 2:0.0 3:0.0 4:0.0 5:48.0 6:1.96 
2.2139068770634633 1:1960000.0 2:1.0 3:6.0 4:6.0 5:140.0 6:6.02 
1.7413448186973828 1:6.18E7 2:0.0 3:7.333333333333333 4:7.333333333333333 5:70.0 6:3.84 
1.7415630873193921 1:7080000.0 2:0.0 3:0.0 4:0.0 5:257.0 6:5.9 
1.7415625822423475 1:229000.0 2:0.0 3:7.666666666666667 4:7.666666666666667 5:187.0 6:3.74 
1.7415555522820014 1:6180000.0 2:0.0 3:0.0 4:0.0 5:49.0 6:1.3 
2.1436766150999955 1:1.22E7 2:4.0 3:1.5 4:1.5 5:57.0 6:1.3 
1.8277462497554176 1:2.95E7 2:0.0 3:1.0 4:1.0 5:57.0 6:1.56 
1.559242469090656 1:1.17E7 2:0.0 3:0.0 4:0.0 5:76.0 6:1.88 
1.7415523302623503 1:1.5E7 2:0.0 3:9.5 4:9.5 5:117.0 6:2.36 
1.577183252305556 1:1.02E7 2:2.0 3:0.0 4:0.0 5:44.0 6:1.4210526315789473 
2.352106795672224 1:3550000.0 2:0.0 3:0.0 4:0.0 5:42.0 6:1.46 
1.7415482705987184 1:169000.0 2:0.0 3:0.0 4:0.0 5:57.0 6:3.74 
1.8080609181621816 1:4690000.0 2:2.0 3:5.0 4:5.0 5:29.0 6:1.02 
1.7421986776742076 1:4.66E7 2:0.0 3:0.0 4:0.0 5:84.0 6:1.78 
1.7415095774927458 1:8.28E7 2:0.0 3:0.0 4:0.0 5:66.0 6:4.2 
1.7549919355138268 1:226000.0 2:3.0 3:0.0 4:0.0 5:64.0 6:1.34 
1.4703622862816745 1:8600000.0 2:0.0 3:0.0 4:0.0 5:63.0 6:1.32 
1.6609855086590686 1:3.68E7 2:4.0 3:0.0 4:0.0 5:42.0 6:1.74 
1.1839775578389455 1:2820000.0 2:0.0 3:0.0 4:0.0 5:34.0 6:2.22 
1.7414465844019489 1:3.07E7 2:0.0 3:0.0 4:0.0 5:57.0 6:1.64 
1.8093657349859846 1:2300000.0 2:2.0 3:0.0 4:0.0 5:126.0 6:2.54 
1.7741582778866447 1:2.06E7 2:4.0 3:0.0 4:0.0 5:78.0 6:1.58 
1.7418713074241932 1:326000.0 2:0.0 3:0.0 4:0.0 5:33.0 6:1.18 
1.7655458964104735 1:6.64E7 2:6.0 3:2.4285714285714284 4:2.4285714285714284 5:66.0 6:1.8 
1.7412081033748088 1:195.0 2:0.0 3:6.666666666666667 4:6.666666666666667 5:177.0 6:3.58 
1.7420849909272151 1:9300000.0 2:0.0 3:0.0 4:0.0 5:75.0 6:2.26 
1.762626053638079 1:2.88E7 2:1.0 3:2.0 4:2.0 5:88.0 6:1.84 
1.7656800753274648 1:6130000.0 2:0.0 3:0.0 4:0.0 5:25.0 6:1.14 
0.9133193143176652 1:1.26E7 2:0.0 3:0.0 4:0.0 5:48.0 6:1.82 
1.7393874053377232 1:1390000.0 2:0.0 3:0.0 4:0.0 5:59.0 6:3.32 
1.741544062802188 1:1.98E7 2:0.0 3:9.5 4:9.5 5:53.0 6:2.34 
2.769149694588943 1:8640000.0 2:1.0 3:3.5 4:3.5 5:42.0 6:1.68 
1.7418839832768425 1:7130000.0 2:0.0 3:0.0 4:0.0 5:110.0 6:2.38 
1.7413116322580142 1:1.71E7 2:0.0 3:0.0 4:0.0 5:99.0 6:3.42 
2.8318697924285847 1:1.16E8 2:0.0 3:0.0 4:0.0 5:36.0 6:1.56 
1.7415428652873226 1:2690000.0 2:0.0 3:0.0 4:0.0 5:147.0 6:3.0 
2.2487427275649505 1:8180000.0 2:0.0 3:0.0 4:0.0 5:56.0 6:2.04 
1.741308572895674 1:8520000.0 2:0.0 3:0.0 4:0.0 5:30.0 6:1.64 
1.741514441568994 1:3210000.0 2:0.0 3:0.0 4:0.0 5:86.0 6:3.02 
2.741542060249709 1:6.93E7 2:0.0 3:0.0 4:0.0 5:52.0 6:3.02 
9.032660902977906 1:2.81E8 2:3.0 3:4.0 4:4.0 5:44.0 6:1.7 
1.7418239589426745 1:2930000.0 2:0.0 3:0.0 4:0.0 5:27.0 6:1.6 
1.7603823081376975 1:112000.0 2:0.0 3:0.0 4:0.0 5:56.0 6:1.3 
1.74113028900571 1:2660000.0 2:0.0 3:0.0 4:0.0 5:32.0 6:4.6 
1.741540066184494 1:8030000.0 2:0.0 3:0.0 4:0.0 5:53.0 6:4.32 
5.814928350331008 1:1.18E7 2:0.0 3:0.0 4:0.0 5:57.0 6:2.36 
1.74153795249642 1:5400000.0 2:0.0 3:9.5 4:9.5 5:111.0 6:2.26 
1.8296001152075418 1:205000.0 2:3.0 3:4.0 4:4.0 5:45.0 6:1.22 
1.7415396200694593 1:430000.0 2:0.0 3:0.0 4:0.0 5:48.0 6:3.0 
1.7415359669391717 1:624000.0 2:0.0 3:0.0 4:0.0 5:115.0 6:4.0 
1.7412023224020254 1:8910000.0 2:0.0 3:0.0 4:0.0 5:22.0 6:1.4 
1.7415382000486015 1:242000.0 2:0.0 3:12.0 4:12.0 5:3.0 6:0.06 
1.774212986346969 1:8760000.0 2:0.0 3:0.0 4:0.0 5:47.0 6:1.78 
1.7415360135819054 1:423000.0 2:0.0 3:0.0 4:0.0 5:73.0 6:1.6 
1.7415411522266073 1:2200000.0 2:17.0 3:1.0 4:1.0 5:352.0 6:8.88 
1.741541124858346 1:4220000.0 2:0.0 3:0.0 4:0.0 5:139.0 6:2.82 
1.7415417996740006 1:4.28E7 2:0.0 3:0.0 4:0.0 5:120.0 6:2.78 
2.178515577375922 1:8530000.0 2:1.0 3:0.0 4:0.0 5:66.0 6:1.56 
1.7412386530993336 1:565000.0 2:0.0 3:7.333333333333333 4:7.333333333333333 5:52.0 6:3.48 
1.741540865527588 1:8460000.0 2:0.0 3:0.0 4:0.0 5:58.0 6:1.18 
1.7419005026766992 1:6340000.0 2:0.0 3:0.0 4:0.0 5:60.0 6:1.74 
1.741196624637104 1:8790000.0 2:0.0 3:0.0 4:0.0 5:59.0 6:1.62 
1.7413044155596755 1:6910000.0 2:0.0 3:0.0 4:0.0 5:43.0 6:1.6 
1.744248375622984 1:8320000.0 2:0.0 3:0.0 4:0.0 5:59.0 6:1.68 
2.741531924933714 1:1.73E7 2:0.0 3:0.0 4:0.0 5:66.0 6:1.88 
1.741531788725213 1:3.33E7 2:0.0 3:0.0 4:0.0 5:26.0 6:1.52 
1.741530906785769 1:280000.0 2:0.0 3:9.0 4:9.0 5:113.0 6:2.26 
3.214836046909431 1:1.21E7 2:3.0 3:0.0 4:0.0 5:78.0 6:1.66 
1.7415240074304852 1:253000.0 2:0.0 3:0.0 4:0.0 5:28.0 6:1.36 
2.7439866453605526 1:2.15E7 2:0.0 3:0.0 4:0.0 5:47.0 6:1.6 
1.6953540307853974 1:182.0 2:0.0 3:5.0 4:5.0 5:187.0 6:3.92 
2.534338453655818 1:1.07E7 2:0.0 3:0.0 4:0.0 5:28.0 6:1.44 
1.7415200994094824 1:1.4E7 2:0.0 3:4.0 4:4.0 5:225.0 6:4.84 
2.1633567079682967 1:9090000.0 2:0.0 3:0.0 4:0.0 5:50.0 6:1.6041666666666667 
1.753778778344841 1:7170000.0 2:0.0 3:0.0 4:0.0 5:37.0 6:1.434782608695652 
1.7415217397576368 1:9510000.0 2:0.0 3:0.0 4:0.0 5:34.0 6:2.0 
2.5221068219958607 1:7230000.0 2:4.0 3:4.0 4:4.0 5:82.0 6:1.66 
9.032660902977906 1:5.28E7 2:2.0 3:0.0 4:0.0 5:57.0 6:1.7333333333333334 
2.094686923009901 1:8690000.0 2:0.0 3:0.0 4:0.0 5:64.0 6:2.38 
1.6304753274737536 1:1.52E7 2:0.0 3:0.0 4:0.0 5:47.0 6:2.2 
4.7415154758741975 1:8.4E8 2:3.0 3:0.0 4:0.0 5:60.0 6:1.56 
1.74134647150254 1:208.0 2:0.0 3:8.5 4:8.5 5:92.0 6:1.98 
1.7424064207085959 1:1.14E7 2:0.0 3:0.0 4:0.0 5:43.0 6:1.72 
1.4868818182373134 1:241.0 2:0.0 3:6.0 4:6.0 5:87.0 6:1.88 
1.74151250616802 1:243000.0 2:0.0 3:0.0 4:0.0 5:290.0 6:6.44 
1.7415336124784615 1:250000.0 2:20.0 3:4.0 4:4.0 5:106.0 6:4.7 
1.7413893955342723 1:2770000.0 2:0.0 3:0.0 4:0.0 5:68.0 6:3.1 
2.4665071667721743 1:1.19E7 2:0.0 3:0.0 4:0.0 5:73.0 6:1.82 
1.7416635677792605 1:3340000.0 2:0.0 3:0.0 4:0.0 5:77.0 6:2.8 
6.453428264097971 1:1.14E7 2:2.0 3:0.0 4:0.0 5:65.0 6:2.0 
1.7412581023002187 1:1.94E7 2:0.0 3:9.5 4:9.5 5:100.0 6:2.0 
1.7887456361319112 1:2.33E7 2:2.0 3:0.0 4:0.0 5:73.0 6:1.56 
5.8434942203674956 1:1.2E7 2:4.0 3:3.0 4:3.0 5:67.0 6:1.84 
1.9111682478184802 1:177000.0 2:3.0 3:1.0 4:1.0 5:156.0 6:3.52 
1.741493939637774 1:2950000.0 2:0.0 3:0.0 4:0.0 5:54.0 6:2.68 
1.7414567433070844 1:1.77E7 2:0.0 3:10.0 4:10.0 5:49.0 6:2.9 
1.7469446390571395 1:9250000.0 2:0.0 3:0.0 4:0.0 5:52.0 6:1.34 
1.7414473978545388 1:8280000.0 2:0.0 3:0.0 4:0.0 5:27.0 6:1.16 
1.7414292114958627 1:7810000.0 2:0.0 3:0.0 4:0.0 5:48.0 6:2.98 
1.792520798946462 1:3180000.0 2:0.0 3:3.0 4:3.0 5:67.0 6:1.64 
1.7414217383135815 1:6080000.0 2:0.0 3:8.5 4:8.5 5:129.0 6:2.64 
1.7414144192945806 1:438000.0 2:1.0 3:4.0 4:4.0 5:74.0 6:1.5 
1.7373396992629477 1:238000.0 2:0.0 3:0.0 4:0.0 5:123.0 6:2.88 
1.990340461866145 1:1.94E7 2:1.0 3:4.5 4:4.5 5:39.0 6:1.84 
1.7414120325441993 1:608000.0 2:0.0 3:0.0 4:0.0 5:24.0 6:1.12 
1.7420414009249385 1:288000.0 2:0.0 3:0.0 4:0.0 5:29.0 6:2.76 
1.7414591512324487 1:107000.0 2:0.0 3:0.0 4:0.0 5:146.0 6:3.6 
1.741430672414274 1:182000.0 2:0.0 3:0.0 4:0.0 5:157.0 6:3.56 
1.7414339617911465 1:2540000.0 2:0.0 3:0.0 4:0.0 5:40.0 6:1.66 
1.7414347587811592 1:1.42E8 2:0.0 3:0.0 4:0.0 5:50.0 6:3.0 
5.741442062468081 1:7.93E7 2:0.0 3:0.0 4:0.0 5:51.0 6:1.34 
1.7456947331926083 1:8080000.0 2:2.0 3:3.5 4:3.5 5:58.0 6:2.04 
1.9150525701747088 1:1.99E7 2:2.0 3:0.0 4:0.0 5:65.0 6:1.86 
1.741443348175559 1:1.02E9 2:0.0 3:0.0 4:0.0 5:45.0 6:1.76 
3.8353093289935796 1:4.0E7 2:2.0 3:7.333333333333333 4:7.333333333333333 5:28.0 6:0.62 
1.7420561947795437 1:248.0 2:0.0 3:7.333333333333333 4:7.333333333333333 5:182.0 6:3.72 
1.7418997388239266 1:9620000.0 2:0.0 3:0.0 4:0.0 5:86.0 6:1.78 
1.7417170094453227 1:129000.0 2:0.0 3:0.0 4:0.0 5:155.0 6:3.54 
1.7414521896425637 1:3580000.0 2:0.0 3:0.0 4:0.0 5:78.0 6:1.62 
1.742050095415385 1:2390000.0 2:0.0 3:0.0 4:0.0 5:54.0 6:1.64 
1.7414454068570708 1:2100000.0 2:0.0 3:0.0 4:0.0 5:31.0 6:1.44 
1.7425962473019956 1:6360000.0 2:0.0 3:0.0 4:0.0 5:40.0 6:2.06 
1.2139496181006544 1:4.99E7 2:0.0 3:0.0 4:0.0 5:42.0 6:3.4 
1.7414473023875676 1:189000.0 2:0.0 3:0.0 4:0.0 5:90.0 6:2.82 
1.742488796537412 1:8470000.0 2:0.0 3:0.0 4:0.0 5:57.0 6:1.78 
1.7414525896584563 1:4200000.0 2:0.0 3:0.0 4:0.0 5:181.0 6:3.86 
1.7423039115682524 1:2460000.0 2:0.0 3:0.0 4:0.0 5:56.0 6:1.38 
1.741462729001567 1:2.68E7 2:0.0 3:0.0 4:0.0 5:46.0 6:2.24 
1.7415670869199893 1:5430000.0 2:0.0 3:6.5 4:6.5 5:99.0 6:2.66 
2.521137110879086 1:9410000.0 2:0.0 3:0.0 4:0.0 5:53.0 6:2.54 
1.7500470957273029 1:4.19E7 2:3.0 3:6.666666666666667 4:6.666666666666667 5:53.0 6:1.32 
1.7414641774991493 1:150000.0 2:6.0 3:4.6 4:4.6 5:66.0 6:1.74 
1.8888024495785072 1:9570000.0 2:0.0 3:0.0 4:0.0 5:55.0 6:1.72 
1.7414672911440499 1:2320000.0 2:0.0 3:0.0 4:0.0 5:29.0 6:1.04 
2.6160266820741445 1:1.04E7 2:0.0 3:3.0 4:3.0 5:42.0 6:1.5 
1.7594924198927768 1:9800000.0 2:1.0 3:4.666666666666667 4:4.666666666666667 5:19.0 6:1.36 
2.22279670854237 1:4790000.0 2:1.0 3:0.0 4:0.0 5:35.0 6:1.76 
1.7414697497513947 1:239000.0 2:0.0 3:0.0 4:0.0 5:88.0 6:4.26 
2.3481233137542445 1:7560000.0 2:0.0 3:0.0 4:0.0 5:59.0 6:1.58 
1.7436239197182746 1:6720000.0 2:0.0 3:0.0 4:0.0 5:37.0 6:1.78 
1.741473234356957 1:8320000.0 2:0.0 3:0.0 4:0.0 5:89.0 6:1.78 
1.7414822051822605 1:343000.0 2:0.0 3:0.0 4:0.0 5:75.0 6:2.04 
3.154372553864688 1:9710000.0 2:0.0 3:3.25 4:3.25 5:69.0 6:1.46 
1.7366407121908898 1:2.26E7 2:0.0 3:0.0 4:0.0 5:53.0 6:1.44 
1.7412681233402045 1:3640000.0 2:0.0 3:0.0 4:0.0 5:136.0 6:2.88 
1.7501250579970151 1:113000.0 2:1.0 3:2.5 4:2.5 5:56.0 6:1.18 
1.7414830735605542 1:7.95E7 2:0.0 3:0.0 4:0.0 5:35.0 6:1.78 
1.741552296557826 1:4160000.0 2:0.0 3:0.0 4:0.0 5:70.0 6:1.52 
1.4127965673595215 1:2.83E7 2:0.0 3:0.0 4:0.0 5:56.0 6:1.5 
1.7413470631001147 1:1.0E7 2:0.0 3:0.0 4:0.0 5:54.0 6:1.62 
1.7415988549092734 1:1.35E7 2:0.0 3:0.0 4:0.0 5:162.0 6:3.26 
1.7414339043767357 1:3680000.0 2:0.0 3:8.0 4:8.0 5:120.0 6:2.48 
2.936877445947002 1:2340000.0 2:0.0 3:7.75 4:7.75 5:4.0 6:0.16 
1.741459197795125 1:6310000.0 2:0.0 3:0.0 4:0.0 5:38.0 6:1.8 
1.7530198321485528 1:1550000.0 2:0.0 3:0.0 4:0.0 5:52.0 6:1.76 
0.9476681277654789 1:1040000.0 2:0.0 3:0.0 4:0.0 5:39.0 6:1.0 
1.7968454597133754 1:1.55E7 2:0.0 3:4.0 4:4.0 5:33.0 6:1.0 
2.7414467753068994 1:224.0 2:0.0 3:0.0 4:0.0 5:26.0 6:0.54 
2.606248837388111 1:1.17E7 2:3.0 3:0.0 4:0.0 5:74.0 6:1.9 
2.7431062058728166 1:4.16E7 2:3.0 3:0.0 4:0.0 5:65.0 6:1.64 
1.7414474728452696 1:6.95E7 2:0.0 3:0.0 4:0.0 5:27.0 6:1.12 
1.7868153501256079 1:4100000.0 2:0.0 3:0.0 4:0.0 5:40.0 6:1.7 
1.7414285386515047 1:9110000.0 2:0.0 3:0.0 4:0.0 5:49.0 6:1.82 
2.742864611041718 1:7.4E7 2:0.0 3:0.0 4:0.0 5:29.0 6:1.18 
1.741382584642877 1:1.05E7 2:0.0 3:0.0 4:0.0 5:139.0 6:2.78 
2.613962132834116 1:4620000.0 2:0.0 3:0.0 4:0.0 5:56.0 6:1.5 
1.741414861008179 1:9650000.0 2:0.0 3:0.0 4:0.0 5:49.0 6:1.44 
1.7413737160797993 1:2850000.0 2:0.0 3:0.0 4:0.0 5:28.0 6:1.54 
1.7650967850865227 1:3.52E7 2:4.0 3:0.0 4:0.0 5:56.0 6:1.24 
1.7413754985578187 1:7890000.0 2:0.0 3:0.0 4:0.0 5:62.0 6:1.46 
1.7416098136662472 1:5.49E7 2:0.0 3:0.0 4:0.0 5:49.0 6:1.46 
1.7886766771958733 1:81100.0 2:0.0 3:3.0 4:3.0 5:76.0 6:1.52 
1.7417691012247798 1:774000.0 2:1.0 3:0.0 4:0.0 5:67.0 6:1.52 
2.741912026020599 1:1.46E8 2:1.0 3:0.0 4:0.0 5:74.0 6:1.98 
2.744066342532154 1:1.03E8 2:0.0 3:0.0 4:0.0 5:30.0 6:1.4 
1.7413896962460114 1:184000.0 2:0.0 3:0.0 4:0.0 5:110.0 6:2.7 
1.7415724754156399 1:4550000.0 2:0.0 3:0.0 4:0.0 5:52.0 6:1.5 
1.7411962617747427 1:3810000.0 2:7.0 3:10.0 4:10.0 5:108.0 6:3.38 
1.7412009786975378 1:4310.0 2:1.0 3:10.0 4:10.0 5:53.0 6:1.28 
1.7412210339518093 1:9060000.0 2:0.0 3:0.0 4:0.0 5:63.0 6:1.98 
2.3481305099196876 1:48600.0 2:0.0 3:3.5 4:3.5 5:44.0 6:1.04 
1.741196569297264 1:2.2E7 2:0.0 3:0.0 4:0.0 5:52.0 6:2.6 
2.7428645639170766 1:3.63E8 2:3.0 3:1.0 4:1.0 5:76.0 6:1.6 
1.7413615394656228 1:293000.0 2:3.0 3:3.0 4:3.0 5:251.0 6:5.68 
3.741375561356515 1:7540000.0 2:0.0 3:0.0 4:0.0 5:77.0 6:1.54 
1.79143125495486 1:1.05E7 2:0.0 3:4.0 4:4.0 5:30.0 6:2.4 
1.7413823863561848 1:4.45E7 2:0.0 3:6.666666666666667 4:6.666666666666667 5:79.0 6:4.12 
1.745392724738935 1:9250000.0 2:0.0 3:0.0 4:0.0 5:40.0 6:1.74 
1.7911896851273097 1:2660000.0 2:1.0 3:2.5 4:2.5 5:38.0 6:1.94 
1.7413648117194782 1:309000.0 2:0.0 3:0.0 4:0.0 5:191.0 6:4.02 
1.7468564068319699 1:1310000.0 2:0.0 3:0.0 4:0.0 5:199.0 6:4.28 
2.5215769051559267 1:7060000.0 2:2.0 3:4.0 4:4.0 5:42.0 6:1.44 
1.7413681969000414 1:2730000.0 2:0.0 3:5.0 4:5.0 5:218.0 6:4.4 
1.7416101525361398 1:133000.0 2:0.0 3:0.0 4:0.0 5:132.0 6:2.7 
1.741199101822493 1:176000.0 2:0.0 3:0.0 4:0.0 5:59.0 6:1.38 
2.7579808704130553 1:97100.0 2:0.0 3:6.5 4:6.5 5:5.0 6:0.18 
1.7413999893498702 1:1910000.0 2:0.0 3:0.0 4:0.0 5:76.0 6:1.52 
4.74133496698907 1:4.21E8 2:0.0 3:0.0 4:0.0 5:59.0 6:2.16 
1.7413126369347327 1:7880000.0 2:0.0 3:0.0 4:0.0 5:107.0 6:2.26 
1.7413294708927942 1:2430000.0 2:0.0 3:0.0 4:0.0 5:104.0 6:3.5 
2.726520384227148 1:2.47E7 2:1.0 3:4.0 4:4.0 5:43.0 6:1.84 
1.741295515846515 1:752000.0 2:0.0 3:0.0 4:0.0 5:33.0 6:1.34 
1.7424123664929123 1:1.91E7 2:0.0 3:0.0 4:0.0 5:24.0 6:1.52 
1.741322585243932 1:778000.0 2:0.0 3:16.0 4:16.0 5:1.0 6:0.04 
3.2023955155375377 1:1.16E7 2:0.0 3:0.0 4:0.0 5:49.0 6:2.0 
1.745700998408116 1:4090000.0 2:0.0 3:0.0 4:0.0 5:30.0 6:1.66 
1.7413314951856997 1:1.6E7 2:0.0 3:0.0 4:0.0 5:40.0 6:1.8 
2.1415197195790685 1:216.0 2:0.0 3:3.5 4:3.5 5:93.0 6:1.86 
1.7416587740429152 1:9780000.0 2:0.0 3:0.0 4:0.0 5:76.0 6:1.62 
2.179419774750199 1:1.22E7 2:0.0 3:1.0 4:1.0 5:45.0 6:1.56 
1.741315786321183 1:73000.0 2:0.0 3:0.0 4:0.0 5:56.0 6:1.18 
1.7415803750443386 1:339000.0 2:0.0 3:5.75 4:5.75 5:264.0 6:5.36 
1.7412245408121463 1:412000.0 2:0.0 3:6.5 4:6.5 5:60.0 6:3.26 
1.741234060012547 1:83400.0 2:0.0 3:0.0 4:0.0 5:89.0 6:4.16 
1.7412331307521132 1:925000.0 2:0.0 3:7.333333333333333 4:7.333333333333333 5:186.0 6:3.92 
2.2616272645312074 1:9620000.0 2:0.0 3:7.0 4:7.0 5:39.0 6:1.46 
1.741232827416914 1:9530000.0 2:0.0 3:9.5 4:9.5 5:118.0 6:2.38 
1.7418931040698935 1:1.31E7 2:0.0 3:0.0 4:0.0 5:76.0 6:1.58 
2.4155190604859533 1:149.0 2:0.0 3:2.5 4:2.5 5:116.0 6:2.56 
1.8408597098346737 1:1.25E7 2:0.0 3:3.0 4:3.0 5:75.0 6:1.56 
1.7412565562586075 1:2660000.0 2:0.0 3:0.0 4:0.0 5:210.0 6:4.24 
1.7412548301879731 1:8.33E7 2:0.0 3:0.0 4:0.0 5:43.0 6:2.3 
1.7412493279527976 1:2450000.0 2:0.0 3:0.0 4:0.0 5:131.0 6:3.38 
1.7412401911665996 1:9.56E7 2:0.0 3:0.0 4:0.0 5:40.0 6:1.52 
1.7412068088212436 1:248000.0 2:0.0 3:10.5 4:10.5 5:128.0 6:2.56 
2.1098540191907595 1:1.52E7 2:2.0 3:6.0 4:6.0 5:79.0 6:1.62 
1.741206226230477 1:214000.0 2:0.0 3:0.0 4:0.0 5:138.0 6:2.8 
1.9783393654461678 1:4320000.0 2:0.0 3:3.5 4:3.5 5:55.0 6:1.52 
2.823861113411141 1:9180000.0 2:3.0 3:6.5 4:6.5 5:32.0 6:1.38 
1.7411998171613874 1:7.71E7 2:0.0 3:0.0 4:0.0 5:82.0 6:2.54 
2.5442048983345718 1:1.01E7 2:1.0 3:0.0 4:0.0 5:60.0 6:1.26 
1.7651145902148417 1:8700000.0 2:0.0 3:0.0 4:0.0 5:56.0 6:1.64 
2.741198663282374 1:5.2E7 2:0.0 3:0.0 4:0.0 5:158.0 6:3.18 
1.8933855656501215 1:212000.0 2:0.0 3:0.0 4:0.0 5:110.0 6:2.94 
1.7411198683849594 1:1.07E8 2:0.0 3:7.333333333333333 4:7.333333333333333 5:133.0 6:2.82 
1.741199182510899 1:3.44E7 2:0.0 3:0.0 4:0.0 5:76.0 6:1.6 
1.7412033358177552 1:2.9E7 2:0.0 3:5.0 4:5.0 5:115.0 6:2.68 
1.8045195349292125 1:1840000.0 2:0.0 3:1.0 4:1.0 5:38.0 6:0.9 
1.7418488970307515 1:7000000.0 2:0.0 3:10.0 4:10.0 5:19.0 6:1.28 
1.7412875104304142 1:1.54E7 2:0.0 3:0.0 4:0.0 5:47.0 6:1.58 
1.754766111757286 1:3.21E7 2:0.0 3:0.0 4:0.0 5:18.0 6:1.048780487804878 
1.741785122258475 1:1850000.0 2:0.0 3:0.0 4:0.0 5:152.0 6:4.76 
2.854704843763159 1:216000.0 2:3.0 3:8.5 4:8.5 5:57.0 6:1.16 
1.7412041523247388 1:1.65E7 2:0.0 3:0.0 4:0.0 5:55.0 6:3.1 
1.9387724934533597 1:1.13E8 2:0.0 3:0.0 4:0.0 5:47.0 6:1.64 
1.741205812930868 1:901000.0 2:0.0 3:0.0 4:0.0 5:253.0 6:5.48 
1.7569247898734057 1:7.11E7 2:0.0 3:0.0 4:0.0 5:61.0 6:2.54 
1.7412076298552466 1:2.17E7 2:0.0 3:7.0 4:7.0 5:125.0 6:2.5 
1.741202235443879 1:3740000.0 2:0.0 3:0.0 4:0.0 5:152.0 6:3.6 
1.7413888129575454 1:6070000.0 2:0.0 3:0.0 4:0.0 5:41.0 6:1.78 
6.765632913448443 1:1.25E8 2:0.0 3:0.0 4:0.0 5:54.0 6:1.44 
2.5085845076025044 1:2.52E7 2:3.0 3:0.0 4:0.0 5:68.0 6:1.5 
1.7855590318403258 1:2550000.0 2:0.0 3:0.0 4:0.0 5:45.0 6:1.54 
1.7415802089855132 1:3.48E7 2:2.0 3:6.0 4:6.0 5:59.0 6:4.04 
1.741443088592145 1:3750000.0 2:0.0 3:0.0 4:0.0 5:33.0 6:1.58 
1.7412074461244622 1:4.96E7 2:0.0 3:0.0 4:0.0 5:158.0 6:3.26 
2.741212317997839 1:4.13E7 2:0.0 3:0.0 4:0.0 5:39.0 6:1.68 
1.7412112779008768 1:222.0 2:0.0 3:0.0 4:0.0 5:178.0 6:3.58 
2.5953020517757466 1:1.11E7 2:0.0 3:0.0 4:0.0 5:27.0 6:1.3191489361702127 
1.7543645551688856 1:3060000.0 2:4.0 3:4.0 4:4.0 5:70.0 6:1.42 
2.521265366634141 1:2.79E7 2:1.0 3:3.5 4:3.5 5:58.0 6:1.86 
1.7412153853234802 1:5220000.0 2:0.0 3:0.0 4:0.0 5:131.0 6:2.62 
1.741323305566787 1:4.18E7 2:0.0 3:0.0 4:0.0 5:68.0 6:3.36 
1.7415526168641242 1:215000.0 2:0.0 3:7.666666666666667 4:7.666666666666667 5:181.0 6:3.9 
1.804403940385252 1:1.06E7 2:0.0 3:0.0 4:0.0 5:51.0 6:2.32 
1.7414814670666603 1:3600000.0 2:0.0 3:0.0 4:0.0 5:70.0 6:1.42 
1.741204144859044 1:2180000.0 2:0.0 3:0.0 4:0.0 5:101.0 6:2.64 
1.7429662967185715 1:9520000.0 2:1.0 3:0.0 4:0.0 5:79.0 6:1.66 
1.7412089830727608 1:236000.0 2:0.0 3:0.0 4:0.0 5:28.0 6:1.22 
1.741233498817145 1:2.4E7 2:0.0 3:0.0 4:0.0 5:59.0 6:1.3 
1.7445692759973739 1:2.64E7 2:4.0 3:0.0 4:0.0 5:65.0 6:1.96 
1.7411973707611617 1:1.24E7 2:0.0 3:0.0 4:0.0 5:66.0 6:2.26 
1.741204566369336 1:1.27E7 2:0.0 3:0.0 4:0.0 5:126.0 6:3.64 
3.0338398616691955 1:2390000.0 2:4.0 3:4.0 4:4.0 5:40.0 6:1.12 
2.224791580101841 1:8550000.0 2:3.0 3:3.0 4:3.0 5:78.0 6:1.56 
1.7412017044267603 1:179000.0 2:0.0 3:0.0 4:0.0 5:239.0 6:5.0 
3.3760079055416305 1:1.05E7 2:0.0 3:0.0 4:0.0 5:67.0 6:2.02 
1.7415734461922139 1:4550000.0 2:0.0 3:0.0 4:0.0 5:39.0 6:1.26 
2.7417483972752046 1:2.5E7 2:0.0 3:0.0 4:0.0 5:48.0 6:1.78 
2.8568865111816755 1:3070000.0 2:1.0 3:5.5 4:5.5 5:77.0 6:1.6 
1.7412028964553474 1:227000.0 2:0.0 3:0.0 4:0.0 5:96.0 6:2.52 
1.7412009643743867 1:2.28E7 2:0.0 3:0.0 4:0.0 5:34.0 6:1.76 
2.7416698222623954 1:1.02E8 2:0.0 3:0.0 4:0.0 5:40.0 6:2.8 
1.7412030565255214 1:2190000.0 2:0.0 3:0.0 4:0.0 5:96.0 6:2.96 
1.7412033885788434 1:263000.0 2:0.0 3:12.0 4:12.0 5:2.0 6:0.06 
1.7412086057703537 1:2.42E7 2:0.0 3:0.0 4:0.0 5:197.0 6:4.02 
1.7412144432784409 1:3630000.0 2:0.0 3:8.0 4:8.0 5:30.0 6:2.28 
1.7412188358815472 1:303000.0 2:0.0 3:4.75 4:4.75 5:234.0 6:4.7 
1.8675530173492207 1:3770000.0 2:0.0 3:0.0 4:0.0 5:53.0 6:2.84 
1.7681169847402203 1:1780000.0 2:3.0 3:5.333333333333333 4:5.333333333333333 5:157.0 6:3.94 
2.8468847925788365 1:1610000.0 2:0.0 3:7.0 4:7.0 5:4.0 6:0.12 
1.7420375616255837 1:208000.0 2:0.0 3:6.5 4:6.5 5:0.0 6:0.0 
2.867793958192701 1:986.0 2:0.0 3:5.0 4:5.0 5:25.0 6:0.68 
1.742086849060866 1:355000.0 2:2.0 3:0.0 4:0.0 5:57.0 6:1.16 
1.8093637751589788 1:1.1E7 2:1.0 3:2.0 4:2.0 5:53.0 6:1.36 
1.741227161105586 1:2160000.0 2:0.0 3:0.0 4:0.0 5:65.0 6:3.6 
2.427067188456635 1:5.24E7 2:1.0 3:3.0 4:3.0 5:37.0 6:1.7142857142857142 
3.7476121307614205 1:9770000.0 2:4.0 3:0.0 4:0.0 5:32.0 6:1.28 
1.7412207094182222 1:6800000.0 2:0.0 3:0.0 4:0.0 5:43.0 6:1.58 
1.7626277247750604 1:7080000.0 2:0.0 3:1.0 4:1.0 5:51.0 6:1.7 
1.7412283302019902 1:2490000.0 2:0.0 3:10.0 4:10.0 5:127.0 6:2.54 
1.74123202694856 1:254000.0 2:0.0 3:0.0 4:0.0 5:104.0 6:2.48 
1.742275168674269 1:5070000.0 2:0.0 3:0.0 4:0.0 5:48.0 6:1.22 
1.7412970714861202 1:217.0 2:0.0 3:10.0 4:10.0 5:128.0 6:2.6 
1.7412398988272009 1:204.0 2:0.0 3:0.0 4:0.0 5:35.0 6:0.92 
1.7678722717616153 1:1.47E7 2:0.0 3:0.0 4:0.0 5:69.0 6:1.48 
1.7412369959606993 1:91900.0 2:0.0 3:0.0 4:0.0 5:289.0 6:6.42 
1.7412423752310828 1:7.18E8 2:0.0 3:0.0 4:0.0 5:45.0 6:1.7272727272727273 
1.7412431670873827 1:169000.0 2:0.0 3:0.0 4:0.0 5:182.0 6:3.66 
1.7411991244613034 1:214000.0 2:0.0 3:7.5 4:7.5 5:96.0 6:2.66 
2.5386447082965855 1:346000.0 2:1.0 3:8.0 4:8.0 5:7.0 6:0.14 
2.7417142457397503 1:3040000.0 2:0.0 3:2.0 4:2.0 5:10.0 6:0.28 
1.7412076397633065 1:9000000.0 2:0.0 3:0.0 4:0.0 5:69.0 6:1.38 
1.7418588634107903 1:5040000.0 2:0.0 3:0.0 4:0.0 5:33.0 6:1.46 
1.7415511336243301 1:2670000.0 2:0.0 3:9.0 4:9.0 5:48.0 6:2.26 
1.7424350252669947 1:6690000.0 2:1.0 3:0.0 4:0.0 5:88.0 6:2.6 
2.5643502803024547 1:1.02E7 2:0.0 3:0.0 4:0.0 5:41.0 6:1.565217391304348 
2.7947516601585174 1:8580000.0 2:2.0 3:4.0 4:4.0 5:58.0 6:1.2 
1.7415730109561296 1:1.37E7 2:0.0 3:7.0 4:7.0 5:34.0 6:0.86 
1.7412565925974433 1:2.01E7 2:0.0 3:0.0 4:0.0 5:59.0 6:2.06 
2.860454824317358 1:1.07E7 2:3.0 3:0.0 4:0.0 5:41.0 6:1.6 
1.741502916238173 1:2610000.0 2:0.0 3:0.0 4:0.0 5:125.0 6:2.72 
1.7420058394431504 1:1.82E7 2:0.0 3:0.0 4:0.0 5:76.0 6:1.56 
1.7412641061114231 1:54400.0 2:0.0 3:0.0 4:0.0 5:263.0 6:6.28 
1.7372410129903582 1:1.45E7 2:0.0 3:0.0 4:0.0 5:37.0 6:1.92 
1.7412630745665783 1:559.0 2:0.0 3:0.0 4:0.0 5:46.0 6:2.08 
1.7431865925082966 1:1.18E7 2:0.0 3:0.0 4:0.0 5:36.0 6:1.52 
1.7413272718531079 1:6230000.0 2:0.0 3:0.0 4:0.0 5:29.0 6:0.82 
1.7412016884088586 1:2.89E7 2:0.0 3:0.0 4:0.0 5:60.0 6:1.24 
1.7413554961606366 1:250.0 2:0.0 3:9.0 4:9.0 5:126.0 6:2.54 
1.7431284522835853 1:9830000.0 2:0.0 3:0.0 4:0.0 5:39.0 6:1.64 
1.7415423281966638 1:179000.0 2:0.0 3:0.0 4:0.0 5:95.0 6:6.78 
1.8095392680445535 1:9.62E7 2:0.0 3:1.2 4:1.2 5:141.0 6:3.14 
1.7426291118578199 1:6.12E7 2:0.0 3:0.0 4:0.0 5:27.0 6:1.75 
1.7416092498574374 1:8940000.0 2:0.0 3:0.0 4:0.0 5:35.0 6:2.02 
1.7413105145118464 1:2190000.0 2:0.0 3:0.0 4:0.0 5:17.0 6:1.06 
4.742785998029673 1:1.9E8 2:0.0 3:1.0 4:1.0 5:47.0 6:1.44 
2.3845349292737814 1:1.12E7 2:0.0 3:0.0 4:0.0 5:35.0 6:1.48 
1.7413072483542877 1:2.51E7 2:0.0 3:8.0 4:8.0 5:190.0 6:3.86 
2.2771557109923553 1:1.19E7 2:0.0 3:1.0 4:1.0 5:49.0 6:1.9 
1.742123740041459 1:1.5E7 2:0.0 3:0.0 4:0.0 5:80.0 6:1.64 
1.749697845093837 1:1.16E7 2:0.0 3:0.0 4:0.0 5:60.0 6:3.06 
2.164001174550699 1:3430000.0 2:0.0 3:4.8 4:4.8 5:54.0 6:2.06 
1.7592735093002552 1:2.27E7 2:0.0 3:0.0 4:0.0 5:47.0 6:1.54 
1.7412933954148888 1:142000.0 2:0.0 3:0.0 4:0.0 5:40.0 6:1.38 
1.7412996184152287 1:2270000.0 2:0.0 3:0.0 4:0.0 5:13.0 6:1.68 
2.347438202316111 1:4310000.0 2:7.0 3:5.6 4:5.6 5:284.0 6:5.92 
1.8975322847771843 1:2.56E7 2:1.0 3:4.0 4:4.0 5:68.0 6:1.38 
1.7412047022782338 1:4940000.0 2:0.0 3:0.0 4:0.0 5:42.0 6:1.88 
1.7413576138330904 1:249000.0 2:0.0 3:0.0 4:0.0 5:110.0 6:2.42 
1.742585442931429 1:9160000.0 2:0.0 3:0.0 4:0.0 5:28.0 6:1.62 
1.7412951103048242 1:1820000.0 2:0.0 3:0.0 4:0.0 5:70.0 6:2.0 
1.7416387138788596 1:9380000.0 2:0.0 3:0.0 4:0.0 5:73.0 6:2.06 
1.7413362943574524 1:6600000.0 2:4.0 3:0.0 4:0.0 5:46.0 6:1.64 
2.621180299973645 1:3050000.0 2:0.0 3:0.0 4:0.0 5:42.0 6:1.92 
1.7408438935716601 1:182.0 2:0.0 3:6.0 4:6.0 5:129.0 6:2.66 
1.741240191166944 1:3090000.0 2:0.0 3:0.0 4:0.0 5:27.0 6:1.32 
1.74152487852912 1:1.63E7 2:0.0 3:7.0 4:7.0 5:48.0 6:2.1 
0.9826115357655953 1:1.01E7 2:0.0 3:0.0 4:0.0 5:39.0 6:1.64 
1.7427154369257827 1:3220000.0 2:13.0 3:2.0 4:2.0 5:97.0 6:2.86 
1.7413341573787582 1:2.08E7 2:12.0 3:3.0 4:3.0 5:159.0 6:5.96 
1.7412096052096135 1:1.58E7 2:0.0 3:0.0 4:0.0 5:62.0 6:2.74 
1.8961331200429994 1:4190000.0 2:2.0 3:4.5 4:4.5 5:112.0 6:2.74 
1.7435530913489448 1:2.46E7 2:0.0 3:7.5 4:7.5 5:43.0 6:2.78 
1.7413288725515295 1:9640000.0 2:0.0 3:0.0 4:0.0 5:68.0 6:1.5 
2.3482353780368284 1:2.37E7 2:2.0 3:4.5 4:4.5 5:24.0 6:1.28 
1.741327474609699 1:28000.0 2:0.0 3:0.0 4:0.0 5:61.0 6:1.36 
2.7909690832810585 1:4840000.0 2:3.0 3:1.0 4:1.0 5:147.0 6:4.18 
1.7412141056361494 1:4660000.0 2:0.0 3:7.0 4:7.0 5:106.0 6:3.18 
1.7415631099673439 1:3240000.0 2:44.0 3:2.8 4:2.8 5:189.0 6:4.52 
3.124223259881971 1:4.18E7 2:3.0 3:0.0 4:0.0 5:56.0 6:1.7 
1.6294974448102166 1:1.04E7 2:4.0 3:0.0 4:0.0 5:90.0 6:1.96 
1.7413944373444097 1:3950000.0 2:0.0 3:0.0 4:0.0 5:170.0 6:3.46 
1.7412795461774764 1:9800000.0 2:0.0 3:0.0 4:0.0 5:71.0 6:1.58 
1.7412778863787288 1:1340000.0 2:0.0 3:7.666666666666667 4:7.666666666666667 5:158.0 6:3.18 
1.7417800831549677 1:2030000.0 2:0.0 3:0.0 4:0.0 5:64.0 6:1.32 
1.741275616992374 1:9490000.0 2:0.0 3:0.0 4:0.0 5:35.0 6:1.82 
1.7412751403146731 1:1910000.0 2:0.0 3:0.0 4:0.0 5:50.0 6:1.78 
2.7417838623874706 1:7.5E7 2:0.0 3:0.0 4:0.0 5:45.0 6:1.28 
1.7412007460121113 1:2.13E7 2:0.0 3:0.0 4:0.0 5:31.0 6:1.62 
1.1845615538817742 1:2820000.0 2:0.0 3:0.0 4:0.0 5:36.0 6:2.94 
1.741271659175524 1:4600000.0 2:0.0 3:7.5 4:7.5 5:115.0 6:2.32 
3.767865454320044 1:8.19E7 2:4.0 3:1.0 4:1.0 5:52.0 6:2.02 
1.7412738838624553 1:2650000.0 2:0.0 3:0.0 4:0.0 5:60.0 6:3.04 
1.7412368687767539 1:4.36E7 2:0.0 3:0.0 4:0.0 5:33.0 6:1.54 
1.893145188648211 1:3370000.0 2:0.0 3:0.0 4:0.0 5:63.0 6:1.34 
1.88826759071816 1:2.37E7 2:0.0 3:0.0 4:0.0 5:21.0 6:1.62 
1.7421912630415037 1:3780000.0 2:3.0 3:4.5 4:4.5 5:80.0 6:1.6 
2.1096288499428555 1:144000.0 2:1.0 3:4.0 4:4.0 5:57.0 6:1.14 
2.5787501298959383 1:1.02E7 2:0.0 3:0.0 4:0.0 5:35.0 6:1.9130434782608696 
1.7528708551818943 1:9060000.0 2:0.0 3:0.0 4:0.0 5:32.0 6:1.6046511627906976 
1.7460992533939157 1:1.0E7 2:0.0 3:0.0 4:0.0 5:44.0 6:1.82 
1.6294272112610981 1:1.04E7 2:0.0 3:0.0 4:0.0 5:90.0 6:1.96 
3.741265155300388 1:5.96E7 2:0.0 3:0.0 4:0.0 5:24.0 6:1.46 
1.74126452139675 1:1920000.0 2:0.0 3:0.0 4:0.0 5:56.0 6:2.58 
1.7412762285526322 1:1990000.0 2:0.0 3:0.0 4:0.0 5:62.0 6:1.72 
1.9237118982945416 1:1.17E7 2:0.0 3:0.0 4:0.0 5:64.0 6:2.12 
4.91721236216145 1:1.13E7 2:3.0 3:0.0 4:0.0 5:66.0 6:1.62 
1.8928860875718845 1:9830000.0 2:0.0 3:0.0 4:0.0 5:23.0 6:1.34 
1.7421829362368326 1:142000.0 2:0.0 3:2.6666666666666665 4:2.6666666666666665 5:147.0 6:3.86 
3.970982288411829 1:1.1E7 2:0.0 3:0.0 4:0.0 5:63.0 6:1.62 
1.741153997772993 1:187000.0 2:0.0 3:4.333333333333333 4:4.333333333333333 5:106.0 6:3.48 
1.7416873127476835 1:2.02E7 2:0.0 3:0.0 4:0.0 5:29.0 6:1.66 
2.243671406304565 1:8270000.0 2:0.0 3:0.0 4:0.0 5:41.0 6:1.72 
1.7412924538071999 1:3900000.0 2:0.0 3:0.0 4:0.0 5:116.0 6:2.62 
1.741726307565511 1:5050000.0 2:0.0 3:0.0 4:0.0 5:157.0 6:3.2 
2.8912848497616066 1:1.28E7 2:0.0 3:0.0 4:0.0 5:70.0 6:2.04 
2.7530218756690217 1:4.25E7 2:4.0 3:1.0 4:1.0 5:57.0 6:1.58 
1.7420086052216202 1:9470000.0 2:0.0 3:0.0 4:0.0 5:66.0 6:2.9 
1.7413093923790033 1:228000.0 2:0.0 3:0.0 4:0.0 5:110.0 6:2.46 
1.979432128444896 1:1910000.0 2:0.0 3:0.0 4:0.0 5:266.0 6:5.94 
3.7485748971985866 1:6430000.0 2:1.0 3:3.0 4:3.0 5:32.0 6:1.76 
1.7413227530254405 1:3970000.0 2:0.0 3:0.0 4:0.0 5:197.0 6:4.34 
1.7421715801262885 1:1230000.0 2:0.0 3:0.0 4:0.0 5:70.0 6:1.4 
1.7887825302999492 1:6380000.0 2:1.0 3:2.5 4:2.5 5:43.0 6:1.48 
1.741605766855881 1:1.82E7 2:0.0 3:0.0 4:0.0 5:39.0 6:1.86 
1.7424293955719579 1:2.12E7 2:0.0 3:1.0 4:1.0 5:53.0 6:1.38 
2.1555337679539774 1:21.0 2:0.0 3:6.0 4:6.0 5:3.0 6:0.2857142857142857 
1.7413203657325016 1:2.39E7 2:0.0 3:0.0 4:0.0 5:30.0 6:1.358974358974359 
1.7413237896572427 1:230000.0 2:0.0 3:0.0 4:0.0 5:7.0 6:0.18 
1.7478140912101332 1:1.63E7 2:0.0 3:0.0 4:0.0 5:43.0 6:1.26 
1.7413362141909177 1:9700000.0 2:0.0 3:0.0 4:0.0 5:36.0 6:1.4 
2.7412025052816182 1:1.57E7 2:0.0 3:0.0 4:0.0 5:58.0 6:1.72 
3.7413320848164693 1:7.98E7 2:0.0 3:0.0 4:0.0 5:27.0 6:1.56 
1.7413388202991325 1:2.29E7 2:0.0 3:0.0 4:0.0 5:40.0 6:1.28 
1.7432580764223133 1:6.49E7 2:0.0 3:0.0 4:0.0 5:93.0 6:1.86 
1.742291817715822 1:6200000.0 2:0.0 3:0.0 4:0.0 5:106.0 6:2.34 
1.765184671786154 1:8920000.0 2:2.0 3:5.5 4:5.5 5:88.0 6:3.2 
1.7417614909460364 1:346000.0 2:0.0 3:8.4 4:8.4 5:341.0 6:7.3 
1.7413473887456392 1:4820000.0 2:0.0 3:0.0 4:0.0 5:72.0 6:1.52 
1.7419973266143365 1:3250000.0 2:0.0 3:0.0 4:0.0 5:39.0 6:1.32 
1.7413473906211743 1:2820000.0 2:0.0 3:8.333333333333334 4:8.333333333333334 5:189.0 6:3.98 
1.7412024255389178 1:357000.0 2:0.0 3:0.0 4:0.0 5:83.0 6:1.74 
1.7554956722083175 1:1.14E7 2:0.0 3:0.0 4:0.0 5:62.0 6:1.6 
1.7413496094654053 1:9210000.0 2:0.0 3:0.0 4:0.0 5:47.0 6:1.62 
1.741991479377099 1:3.42E7 2:0.0 3:0.0 4:0.0 5:34.0 6:1.74 
2.7413509935108005 1:3.58E8 2:0.0 3:0.0 4:0.0 5:39.0 6:1.54 
1.7415961748020035 1:3.28E7 2:0.0 3:0.0 4:0.0 5:52.0 6:1.54 
1.7673547453024836 1:2.34E7 2:0.0 3:0.0 4:0.0 5:48.0 6:1.28 
3.169927180743687 1:1210000.0 2:1.0 3:2.5 4:2.5 5:118.0 6:3.1 
1.7413507936790267 1:1.19E7 2:0.0 3:0.0 4:0.0 5:125.0 6:3.9 
1.7781816151761687 1:5470000.0 2:0.0 3:0.0 4:0.0 5:301.0 6:7.46 
1.7413530638991923 1:1.31E8 2:0.0 3:0.0 4:0.0 5:89.0 6:3.38 
1.7413552680398825 1:3390000.0 2:0.0 3:0.0 4:0.0 5:44.0 6:2.28 
2.509626540122558 1:3690000.0 2:1.0 3:5.0 4:5.0 5:157.0 6:6.06 
1.8516048860421517 1:7.38E7 2:1.0 3:0.0 4:0.0 5:51.0 6:3.12 
3.7413054238022254 1:2.89E7 2:2.0 3:11.0 4:11.0 5:68.0 6:1.6 
1.7413457145837392 1:230000.0 2:0.0 3:12.0 4:12.0 5:128.0 6:2.58 
2.1174122876015473 1:1.82E7 2:0.0 3:0.0 4:0.0 5:48.0 6:1.72 
1.7495662217412753 1:1.09E7 2:1.0 3:0.0 4:0.0 5:41.0 6:1.84 
1.741347848108302 1:2470000.0 2:0.0 3:0.0 4:0.0 5:50.0 6:4.7 
1.788738396675662 1:3.24E7 2:1.0 3:0.0 4:0.0 5:44.0 6:1.7234042553191489 
1.7431542781923 1:4.57E7 2:0.0 3:0.0 4:0.0 5:33.0 6:1.7 
1.7413489787790275 1:190000.0 2:5.0 3:6.666666666666667 4:6.666666666666667 5:140.0 6:3.44 
2.185201880494735 1:1.04E7 2:3.0 3:0.0 4:0.0 5:54.0 6:1.6 
2.2759900419470114 1:4.37E7 2:6.0 3:2.25 4:2.25 5:167.0 6:4.7 
1.776284324803049 1:1.22E7 2:0.0 3:0.0 4:0.0 5:40.0 6:1.54 
1.7408739294828215 1:187.0 2:0.0 3:9.0 4:9.0 5:127.0 6:2.6 
2.589382514457665 1:3620000.0 2:3.0 3:4.5 4:4.5 5:40.0 6:1.24 
1.7413573658892352 1:5730000.0 2:0.0 3:0.0 4:0.0 5:40.0 6:1.6 
1.7416171836712036 1:3.54E8 2:0.0 3:0.0 4:0.0 5:52.0 6:1.7 
2.7413625780581907 1:2.56E8 2:0.0 3:0.0 4:0.0 5:20.0 6:1.7073170731707317 
1.4238187840966332 1:1.43E7 2:0.0 3:0.0 4:0.0 5:59.0 6:2.14 
1.741350247889325 1:1900000.0 2:0.0 3:8.5 4:8.5 5:137.0 6:2.74 
2.8647431808699118 1:2.31E7 2:0.0 3:0.0 4:0.0 5:77.0 6:2.46 
1.7414086634594805 1:255000.0 2:0.0 3:5.666666666666667 4:5.666666666666667 5:194.0 6:4.48 
3.1155578537086672 1:1.18E7 2:0.0 3:0.0 4:0.0 5:50.0 6:1.74 
2.2550837048324466 1:8.55E7 2:0.0 3:4.0 4:4.0 5:178.0 6:4.64 
1.898461647723611 1:1.1E7 2:0.0 3:0.0 4:0.0 5:75.0 6:1.5 
1.7419077550721977 1:255000.0 2:0.0 3:0.0 4:0.0 5:47.0 6:1.16 
1.741415675561103 1:1.56E7 2:0.0 3:0.0 4:0.0 5:33.0 6:1.86 
2.1763985803203525 1:2.05E7 2:0.0 3:0.0 4:0.0 5:48.0 6:2.76 
1.7496129145858565 1:1.01E7 2:0.0 3:0.0 4:0.0 5:67.0 6:1.74 
1.6886663380882447 1:2660000.0 2:2.0 3:1.5 4:1.5 5:101.0 6:3.94 
2.7414232785773556 1:4.21E7 2:0.0 3:0.0 4:0.0 5:44.0 6:1.72 
1.7422074400618612 1:7.48E7 2:0.0 3:1.0 4:1.0 5:47.0 6:1.88 
1.7416110595266483 1:1.87E7 2:0.0 3:0.0 4:0.0 5:87.0 6:2.94 
1.7414380099329325 1:3000000.0 2:0.0 3:0.0 4:0.0 5:205.0 6:6.32 
1.423771692942679 1:8600000.0 2:0.0 3:0.0 4:0.0 5:66.0 6:1.32 
1.7414548174860642 1:5950000.0 2:0.0 3:0.0 4:0.0 5:45.0 6:2.94 
1.7427030135430401 1:2.43E7 2:0.0 3:0.0 4:0.0 5:44.0 6:3.52 
1.7415631588614242 1:8.18E7 2:0.0 3:0.0 4:0.0 5:43.0 6:1.84 
1.7414362291743442 1:5330000.0 2:0.0 3:0.0 4:0.0 5:144.0 6:3.978723404255319 
1.7414071689694435 1:385000.0 2:0.0 3:0.0 4:0.0 5:46.0 6:2.92 
1.7414404268969061 1:1270000.0 2:0.0 3:7.333333333333333 4:7.333333333333333 5:178.0 6:3.8 
1.741193709872181 1:5510000.0 2:0.0 3:0.0 4:0.0 5:69.0 6:3.88 
1.7414540237383451 1:227000.0 2:0.0 3:0.0 4:0.0 5:44.0 6:3.24 
4.290476058361588 1:2.59E7 2:2.0 3:3.0 4:3.0 5:81.0 6:2.0 
1.7414604022127362 1:3.62E7 2:0.0 3:10.666666666666666 4:10.666666666666666 5:81.0 6:3.56 
1.7416115946131538 1:8800000.0 2:0.0 3:0.0 4:0.0 5:57.0 6:3.16 
1.7414638141322951 1:9000000.0 2:0.0 3:0.0 4:0.0 5:36.0 6:1.78 
1.785903552771464 1:9300000.0 2:2.0 3:0.0 4:0.0 5:42.0 6:2.02 
4.4997124586077355 1:3.91E7 2:1.0 3:3.0 4:3.0 5:50.0 6:2.02 
1.741647385482795 1:1.13E7 2:0.0 3:0.0 4:0.0 5:85.0 6:1.7 
1.7476910346242318 1:2180000.0 2:0.0 3:0.0 4:0.0 5:85.0 6:2.0 
1.7395265817066037 1:1.13E8 2:2.0 3:0.0 4:0.0 5:53.0 6:1.8 
2.377004745974762 1:9830000.0 2:0.0 3:0.0 4:0.0 5:46.0 6:2.1739130434782608 
1.7414713646260442 1:1.92E8 2:0.0 3:0.0 4:0.0 5:49.0 6:1.34 
1.7414765489066064 1:1520000.0 2:0.0 3:5.5 4:5.5 5:49.0 6:2.26 
1.7414755641233937 1:4420000.0 2:0.0 3:0.0 4:0.0 5:46.0 6:1.4 
1.74148855060957 1:4.64E7 2:0.0 3:0.0 4:0.0 5:157.0 6:3.3 
1.9876603131047292 1:2.0E7 2:1.0 3:3.0 4:3.0 5:96.0 6:2.9 
2.741488786054268 1:1.0E8 2:0.0 3:0.0 4:0.0 5:123.0 6:2.64 
1.7414907142973886 1:2.85E7 2:0.0 3:9.0 4:9.0 5:65.0 6:2.78 
1.7414910295698194 1:9350000.0 2:0.0 3:0.0 4:0.0 5:52.0 6:1.8604651162790697 
4.4369766314871 1:1.06E7 2:0.0 3:0.0 4:0.0 5:46.0 6:1.82 
1.7412036397825261 1:1.85E7 2:0.0 3:0.0 4:0.0 5:93.0 6:2.7 
1.7422519294516603 1:4.46E7 2:0.0 3:0.0 4:0.0 5:14.0 6:1.8 
2.038690042184816 1:2.92E7 2:2.0 3:1.0 4:1.0 5:42.0 6:1.68 
2.946649035369295 1:1.75E7 2:0.0 3:0.0 4:0.0 5:42.0 6:1.5 
1.74149538642421 1:4670000.0 2:0.0 3:8.0 4:8.0 5:126.0 6:2.54 
1.7530218983895822 1:9950000.0 2:0.0 3:0.0 4:0.0 5:61.0 6:1.48 
2.446448785744512 1:1330000.0 2:1.0 3:2.5 4:2.5 5:75.0 6:1.52 
1.7415121288193556 1:128000.0 2:0.0 3:0.0 4:0.0 5:142.0 6:2.9 
5.013543624276722 1:8930000.0 2:3.0 3:2.5 4:2.5 5:70.0 6:1.42 
1.7413452260048956 1:5.4E7 2:0.0 3:0.0 4:0.0 5:101.0 6:2.38 
1.741507244660569 1:4.12E7 2:0.0 3:0.0 4:0.0 5:53.0 6:1.7 
1.741504802384664 1:153000.0 2:0.0 3:0.0 4:0.0 5:24.0 6:0.78 
1.7416120011095115 1:356000.0 2:0.0 3:10.5 4:10.5 5:111.0 6:2.28 
1.7425225468996377 1:4950000.0 2:2.0 3:0.0 4:0.0 5:50.0 6:1.7 
1.7420273130952957 1:5220000.0 2:0.0 3:0.0 4:0.0 5:85.0 6:3.8 
3.741431095861557 1:8.32E8 2:0.0 3:0.0 4:0.0 5:62.0 6:1.6 
1.741233982958616 1:2.31E8 2:0.0 3:0.0 4:0.0 5:44.0 6:1.44 
1.7414791247932597 1:5970000.0 2:0.0 3:0.0 4:0.0 5:88.0 6:1.8 
2.2795827261779764 1:1.13E8 2:0.0 3:0.0 4:0.0 5:26.0 6:1.68 
1.2140181589733288 1:4.99E7 2:0.0 3:1.0 4:1.0 5:42.0 6:1.66 
1.7414747231763517 1:1.6E7 2:0.0 3:0.0 4:0.0 5:81.0 6:3.34 
1.7446178185619858 1:3.6E8 2:0.0 3:0.0 4:0.0 5:68.0 6:2.02 
1.7414703942839245 1:2780000.0 2:0.0 3:0.0 4:0.0 5:181.0 6:4.18 
1.7420623269385298 1:2600000.0 2:0.0 3:0.0 4:0.0 5:116.0 6:2.48 
1.7418438380830057 1:258000.0 2:0.0 3:6.5 4:6.5 5:105.0 6:2.94 
2.761924254457987 1:1.7E7 2:3.0 3:0.0 4:0.0 5:32.0 6:1.72 
1.7414669553762314 1:297000.0 2:0.0 3:0.0 4:0.0 5:166.0 6:4.18 
1.9421962021893469 1:240.0 2:0.0 3:6.8 4:6.8 5:90.0 6:1.84 
1.7968872181661788 1:4570000.0 2:3.0 3:4.5 4:4.5 5:7.0 6:0.2 
1.7414695127278215 1:5.76E8 2:0.0 3:0.0 4:0.0 5:40.0 6:1.56 
1.7414525572301744 1:197000.0 2:0.0 3:0.0 4:0.0 5:88.0 6:4.12 
3.916849902369846 1:1.14E7 2:0.0 3:0.0 4:0.0 5:56.0 6:1.88 
2.166183616443583 1:6150000.0 2:0.0 3:0.0 4:0.0 5:53.0 6:1.38 
1.0497038796092706 1:8890000.0 2:0.0 3:0.0 4:0.0 5:49.0 6:1.48 
1.7414495179147533 1:376000.0 2:0.0 3:6.666666666666667 4:6.666666666666667 5:199.0 6:4.1 
1.7417553203436187 1:7320000.0 2:0.0 3:0.0 4:0.0 5:62.0 6:3.1 
1.7651013627443553 1:585000.0 2:0.0 3:4.5 4:4.5 5:6.0 6:0.2 
2.349540851755174 1:19900.0 2:0.0 3:1.0 4:1.0 5:15.0 6:0.88 
1.741415932190917 1:4040000.0 2:0.0 3:0.0 4:0.0 5:93.0 6:2.52 
0.9152254307813403 1:1.01E7 2:0.0 3:0.0 4:0.0 5:40.0 6:1.64 
1.7419030039911556 1:2.1E7 2:0.0 3:0.0 4:0.0 5:98.0 6:2.06 
1.748912474796914 1:9.6E7 2:0.0 3:3.0 4:3.0 5:32.0 6:1.46 
1.7414163023655325 1:3190000.0 2:0.0 3:0.0 4:0.0 5:81.0 6:1.64 
1.4128927438702243 1:2.83E7 2:0.0 3:0.0 4:0.0 5:59.0 6:1.56 
1.9202100982022456 1:1.85E7 2:4.0 3:3.6666666666666665 4:3.6666666666666665 5:79.0 6:1.66 
1.7462284435035118 1:2.18E7 2:0.0 3:0.0 4:0.0 5:44.0 6:1.6938775510204083 
1.7412136770524183 1:2780000.0 2:0.0 3:8.0 4:8.0 5:48.0 6:2.8 
1.7413829202586246 1:1.24E7 2:0.0 3:7.0 4:7.0 5:120.0 6:2.42 
1.7413989699710732 1:323000.0 2:0.0 3:0.0 4:0.0 5:32.0 6:0.88 
1.7419059548421791 1:3.19E7 2:0.0 3:0.0 4:0.0 5:49.0 6:2.26 
2.7372764372394776 1:238000.0 2:0.0 3:0.0 4:0.0 5:129.0 6:2.82 
1.7413681716954832 1:1.05E8 2:0.0 3:0.0 4:0.0 5:75.0 6:1.52 
1.7415689571361879 1:9320000.0 2:0.0 3:0.0 4:0.0 5:61.0 6:1.64 
3.856519969125144 1:3.85E7 2:0.0 3:0.0 4:0.0 5:45.0 6:1.76 
2.7414085465117903 1:4.79E8 2:0.0 3:0.0 4:0.0 5:30.0 6:1.7 
1.7414121926412738 1:503000.0 2:0.0 3:0.0 4:0.0 5:124.0 6:2.64 
2.0151307564630896 1:5020000.0 2:7.0 3:6.0 4:6.0 5:98.0 6:2.78 
4.3828423482586185 1:1.4E7 2:0.0 3:0.0 4:0.0 5:41.0 6:1.92 
2.7414417257860064 1:8.14E7 2:0.0 3:0.0 4:0.0 5:54.0 6:2.16 
2.3280836621275403 1:4120000.0 2:0.0 3:4.0 4:4.0 5:40.0 6:1.08 
1.9103212209134142 1:8280000.0 2:0.0 3:0.0 4:0.0 5:52.0 6:1.6808510638297873 
1.7413954411954111 1:588000.0 2:1.0 3:5.25 4:5.25 5:327.0 6:8.36 
1.741956303594208 1:3.19E7 2:0.0 3:0.0 4:0.0 5:37.0 6:1.5 
1.7413893785392904 1:4.02E8 2:0.0 3:0.0 4:0.0 5:41.0 6:1.631578947368421 
-0.2582384707828007 1:86900.0 2:32.0 3:4.0 4:4.0 5:93.0 6:1.98 
-0.23335939184307308 1:86900.0 2:48.0 3:6.0 4:6.0 5:93.0 6:1.98 
-0.22843882856930503 1:86900.0 2:12.0 3:6.0 4:6.0 5:93.0 6:1.98 
-0.2356476892874793 1:86900.0 2:39.0 3:6.0 4:6.0 5:93.0 6:1.98 
-0.25384544976807616 1:86900.0 2:35.0 3:8.0 4:8.0 5:93.0 6:1.98 
-0.24374415422633666 1:86900.0 2:42.0 3:8.0 4:8.0 5:93.0 6:1.98 
-0.2299543422824749 1:1420000.0 2:1.0 3:2.5 4:2.5 5:63.0 6:1.46 
-0.2584202576042461 1:3410000.0 2:0.0 3:0.0 4:0.0 5:121.0 6:2.82 
-0.20839128894126402 1:86900.0 2:5.0 3:3.5 4:3.5 5:93.0 6:1.98 
-0.21238184998652115 1:86900.0 2:2.0 3:3.3333333333333335 4:3.3333333333333335 5:93.0 6:1.98 
-0.21233091102749885 1:86900.0 2:43.0 3:4.0 4:4.0 5:93.0 6:1.98 
-0.22429379521531823 1:86900.0 2:10.0 3:4.0 4:4.0 5:93.0 6:1.98 
-0.25869395578058313 1:1420000.0 2:2.0 3:9.0 4:9.0 5:63.0 6:1.46 
-0.1794283029886531 1:86900.0 2:46.0 3:4.0 4:4.0 5:93.0 6:1.98 
-0.30864023382183536 1:134000.0 2:4.0 3:6.5 4:6.5 5:3.0 6:0.06 
-0.2585609809713634 1:118000.0 2:11.0 3:5.0 4:5.0 5:19.0 6:0.48 
-0.2587734404793725 1:118000.0 2:3.0 3:4.5 4:4.5 5:19.0 6:0.48 
-0.25667352203584326 1:134000.0 2:1.0 3:4.0 4:4.0 5:3.0 6:0.06 
-0.25876997153359055 1:118000.0 2:17.0 3:8.0 4:8.0 5:19.0 6:0.48 
-0.2587908216972599 1:3940000.0 2:20.0 3:4.0 4:4.0 5:169.0 6:6.36 
-0.19807319094412063 1:5670000.0 2:1.0 3:3.0 4:3.0 5:38.0 6:2.2 
-0.20798187338038732 1:5670000.0 2:2.0 3:0.0 4:0.0 5:38.0 6:2.2 
-0.20969924581810478 1:3940000.0 2:46.0 3:1.6666666666666667 4:1.6666666666666667 5:169.0 6:6.36 
-0.061889971748951625 1:5670000.0 2:3.0 3:1.0 4:1.0 5:38.0 6:2.2 
-0.20902982716597662 1:3940000.0 2:44.0 3:3.2 4:3.2 5:169.0 6:6.36 
-0.13584501809242902 1:1.74E7 2:2.0 3:0.0 4:0.0 5:59.0 6:1.44 
-0.1425783792672024 1:1.74E7 2:3.0 3:0.0 4:0.0 5:59.0 6:1.44 
-0.2224165803119153 1:5.04E7 2:4.0 3:0.0 4:0.0 5:55.0 6:1.54 
-0.25879744970035773 1:3940000.0 2:0.0 3:1.5 4:1.5 5:169.0 6:6.36 
-0.25830212402891184 1:3940000.0 2:35.0 3:3.0 4:3.0 5:169.0 6:6.36 
-0.19512532398807902 1:5670000.0 2:4.0 3:3.0 4:3.0 5:38.0 6:2.2 
-0.25867876776457543 1:1.54E8 2:2.0 3:1.0 4:1.0 5:41.0 6:1.84 
-0.2573859175596744 1:1.0E7 2:1.0 3:9.0 4:9.0 5:28.0 6:1.08 
-0.18698149655162694 1:1.0E7 2:4.0 3:0.0 4:0.0 5:28.0 6:1.08 
-0.06848324848481177 1:1.27E7 2:2.0 3:2.0 4:2.0 5:30.0 6:1.58 
-1.0 1:9740000.0 2:2.0 3:3.0 4:3.0 5:32.0 6:1.48 
-0.2777391963607758 1:9740000.0 2:1.0 3:0.0 4:0.0 5:32.0 6:1.48 
-0.184207484501531 1:1.27E7 2:3.0 3:2.0 4:2.0 5:30.0 6:1.58 
-0.2545663275553762 1:1.0E7 2:2.0 3:5.0 4:5.0 5:28.0 6:1.08 
-0.17953293220820332 1:1.0E7 2:3.0 3:1.5 4:1.5 5:28.0 6:1.08 
-0.2348270205347759 1:1.27E7 2:0.0 3:0.0 4:0.0 5:30.0 6:1.58 
-0.2837075087040909 1:1.45E7 2:1.0 3:3.5 4:3.5 5:43.0 6:1.96 
-0.25869112238343306 1:5150000.0 2:0.0 3:5.5 4:5.5 5:50.0 6:2.4 
-0.2586827807061787 1:1.45E7 2:4.0 3:15.0 4:15.0 5:43.0 6:1.96 
-0.1903519741373355 1:270000.0 2:2.0 3:1.0 4:1.0 5:229.0 6:5.1 
-0.25865718606392624 1:270000.0 2:23.0 3:3.0 4:3.0 5:229.0 6:5.1 
-0.2563473266631528 1:270000.0 2:9.0 3:3.3333333333333335 4:3.3333333333333335 5:229.0 6:5.1 
-0.25862760439291066 1:2010000.0 2:46.0 3:3.0 4:3.0 5:161.0 6:3.5 
-0.25712911249337916 1:1840000.0 2:1.0 3:5.333333333333333 4:5.333333333333333 5:33.0 6:1.38 
-0.18619664280361942 1:270000.0 2:4.0 3:2.0 4:2.0 5:229.0 6:5.1 
-0.2586151305093296 1:1370000.0 2:0.0 3:6.333333333333333 4:6.333333333333333 5:187.0 6:4.54 
-0.2575501017227387 1:1.39E7 2:1.0 3:3.6666666666666665 4:3.6666666666666665 5:118.0 6:2.42 
-0.25778796273684557 1:1.39E7 2:4.0 3:0.0 4:0.0 5:118.0 6:2.42 
-0.24790733385556601 1:2310000.0 2:1.0 3:0.0 4:0.0 5:68.0 6:1.42 
-0.24800622716462206 1:2310000.0 2:2.0 3:3.0 4:3.0 5:68.0 6:1.42 
-0.25857940976611615 1:1900000.0 2:1.0 3:4.0 4:4.0 5:44.0 6:1.78 
-0.14933372415037072 1:9300000.0 2:2.0 3:5.666666666666667 4:5.666666666666667 5:44.0 6:2.56 
-0.07304043895912957 1:9300000.0 2:3.0 3:4.0 4:4.0 5:44.0 6:2.56 
-0.25845373791239573 1:9300000.0 2:38.0 3:4.0 4:4.0 5:44.0 6:2.56 
-0.07098596439679353 1:9300000.0 2:1.0 3:4.5 4:4.5 5:44.0 6:2.56 
-0.2586600470179655 1:1.38E7 2:0.0 3:0.0 4:0.0 5:23.0 6:1.558139534883721 
-0.193572220048736 1:1.38E7 2:3.0 3:4.333333333333333 4:4.333333333333333 5:23.0 6:1.558139534883721 
-0.19373678916996054 1:1.38E7 2:2.0 3:6.0 4:6.0 5:23.0 6:1.558139534883721 
-0.2584581327905997 1:178000.0 2:0.0 3:0.0 4:0.0 5:44.0 6:3.28 
-0.2575626479093154 1:2670000.0 2:0.0 3:0.0 4:0.0 5:49.0 6:3.86 
-0.2584527142268634 1:1100000.0 2:1.0 3:11.0 4:11.0 5:51.0 6:1.1 
-0.25820067417276926 1:130000.0 2:3.0 3:3.5 4:3.5 5:31.0 6:1.68 
-0.17684466007219513 1:130000.0 2:14.0 3:6.5 4:6.5 5:31.0 6:1.68 
-0.1716314535874518 1:130000.0 2:12.0 3:6.0 4:6.0 5:31.0 6:1.68 
-0.256292111423569 1:130000.0 2:7.0 3:7.0 4:7.0 5:31.0 6:1.68 
-0.22676820356672944 1:746000.0 2:25.0 3:4.333333333333333 4:4.333333333333333 5:146.0 6:3.18 
-0.2266521522945683 1:746000.0 2:22.0 3:5.5 4:5.5 5:146.0 6:3.18 
-0.2630694421367813 1:1.18E7 2:1.0 3:4.0 4:4.0 5:48.0 6:1.88 
-0.258451468447485 1:746000.0 2:14.0 3:3.5 4:3.5 5:146.0 6:3.18 
-0.2584538164016117 1:2.8E7 2:0.0 3:0.0 4:0.0 5:72.0 6:1.52 
-0.25845369369576576 1:3970000.0 2:0.0 3:0.0 4:0.0 5:35.0 6:0.96 
-0.016687401570287856 1:2.59E7 2:1.0 3:0.5 4:0.5 5:83.0 6:1.74 
-0.13967430615430798 1:8180000.0 2:2.0 3:2.6666666666666665 4:2.6666666666666665 5:101.0 6:2.24 
-0.14030203701373822 1:8180000.0 2:3.0 3:2.6666666666666665 4:2.6666666666666665 5:101.0 6:2.24 
-1.0 1:1.18E7 2:0.0 3:0.0 4:0.0 5:48.0 6:1.88 
-0.2584471071328903 1:1.29E9 2:4.0 3:5.0 4:5.0 5:47.0 6:1.48 
-0.2583457759132062 1:4380000.0 2:0.0 3:0.0 4:0.0 5:41.0 6:1.22 
-0.5232408299520868 1:1.46E7 2:4.0 3:8.0 4:8.0 5:65.0 6:1.4 
-0.211177243411863 1:78400.0 2:0.0 3:7.0 4:7.0 5:7.0 6:0.24 
-0.25843139474149485 1:193000.0 2:0.0 3:10.5 4:10.5 5:52.0 6:1.66 
-0.25842707627834 1:9.02E7 2:0.0 3:0.0 4:0.0 5:143.0 6:3.74 
-0.17929656781253453 1:1.46E7 2:1.0 3:0.0 4:0.0 5:65.0 6:1.4 
-0.1181446775558185 1:2.42E7 2:2.0 3:2.5 4:2.5 5:65.0 6:1.84 
-0.16489346644885577 1:2.42E7 2:3.0 3:4.666666666666667 4:4.666666666666667 5:65.0 6:1.84 
-0.2573958288455797 1:29700.0 2:47.0 3:4.6 4:4.6 5:94.0 6:7.24 
-0.21129937524392606 1:78400.0 2:1.0 3:5.0 4:5.0 5:7.0 6:0.24 
-0.2575890042644445 1:1.36E7 2:0.0 3:4.0 4:4.0 5:25.0 6:0.7 
-1.0 1:2.42E7 2:0.0 3:0.0 4:0.0 5:65.0 6:1.84 
-0.25778223795744076 1:1.36E7 2:2.0 3:0.0 4:0.0 5:25.0 6:0.7 
-0.2582081600989024 1:29700.0 2:45.0 3:9.0 4:9.0 5:94.0 6:7.24 
-0.25835451336971815 1:4410000.0 2:0.0 3:7.5 4:7.5 5:35.0 6:1.34 
-0.11218827335145756 1:2.42E7 2:4.0 3:3.0 4:3.0 5:65.0 6:1.84 
-0.25767314432122645 1:29700.0 2:41.0 3:4.0 4:4.0 5:94.0 6:7.24 
-0.17511097940370315 1:8860000.0 2:3.0 3:6.5 4:6.5 5:73.0 6:1.54 
-0.17814022619101177 1:5330000.0 2:2.0 3:6.0 4:6.0 5:67.0 6:2.02 
-0.2580295747004893 1:2740000.0 2:31.0 3:4.333333333333333 4:4.333333333333333 5:274.0 6:5.84 
-0.10694008359933407 1:1.33E7 2:3.0 3:3.0 4:3.0 5:66.0 6:1.84 
-0.18896014069129208 1:2.06E7 2:3.0 3:0.0 4:0.0 5:61.0 6:1.54 
-0.2580270940114659 1:5510000.0 2:0.0 3:5.666666666666667 4:5.666666666666667 5:135.0 6:3.42 
-0.2533889923599868 1:1.33E7 2:0.0 3:0.0 4:0.0 5:66.0 6:1.84 
-1.0 1:1.9E7 2:2.0 3:4.0 4:4.0 5:63.0 6:1.3 
-0.1499638894441237 1:5330000.0 2:4.0 3:6.5 4:6.5 5:67.0 6:2.02 
-0.18867206418162025 1:2.06E7 2:1.0 3:1.0 4:1.0 5:61.0 6:1.54 
-0.25802771297271027 1:2740000.0 2:0.0 3:6.285714285714286 4:6.285714285714286 5:274.0 6:5.84 
-0.23502789297066035 1:5330000.0 2:3.0 3:9.0 4:9.0 5:67.0 6:2.02 
-0.1735404673637867 1:8860000.0 2:1.0 3:6.0 4:6.0 5:73.0 6:1.54 
-0.2580291206245369 1:1140000.0 2:38.0 3:5.666666666666667 4:5.666666666666667 5:296.0 6:6.28 
-1.0 1:1.17E7 2:0.0 3:0.0 4:0.0 5:65.0 6:1.46 
-0.1491667094891242 1:9490000.0 2:3.0 3:4.0 4:4.0 5:79.0 6:1.62 
-0.2580295662249531 1:320000.0 2:7.0 3:4.0 4:4.0 5:99.0 6:2.28 
-0.1522156285127439 1:9490000.0 2:4.0 3:3.3333333333333335 4:3.3333333333333335 5:79.0 6:1.62 
-0.14681445433266577 1:1.17E7 2:3.0 3:4.0 4:4.0 5:65.0 6:1.46 
-0.25768073166573136 1:174.0 2:39.0 3:5.0 4:5.0 5:90.0 6:1.88 
-0.2576544982346093 1:174.0 2:45.0 3:4.6 4:4.6 5:90.0 6:1.88 
-0.6674592507671664 1:2.47E7 2:1.0 3:3.5 4:3.5 5:46.0 6:1.62 
-0.25246646217710367 1:1.17E7 2:1.0 3:3.0 4:3.0 5:65.0 6:1.46 
-0.0408019437536007 1:1.17E7 2:2.0 3:3.0 4:3.0 5:65.0 6:1.46 
-0.18911882453259432 1:271000.0 2:23.0 3:7.0 4:7.0 5:61.0 6:1.7 
-0.25758186389111276 1:271000.0 2:3.0 3:3.0 4:3.0 5:61.0 6:1.7 
-0.14908023449772817 1:271000.0 2:37.0 3:6.333333333333333 4:6.333333333333333 5:61.0 6:1.7 
-0.2549427673824475 1:549000.0 2:0.0 3:3.5 4:3.5 5:70.0 6:1.5 
-0.25766860379288964 1:271000.0 2:1.0 3:7.0 4:7.0 5:61.0 6:1.7 
-0.14991286447098445 1:271000.0 2:38.0 3:7.0 4:7.0 5:61.0 6:1.7 
-0.25809527340889643 1:209000.0 2:0.0 3:8.666666666666666 4:8.666666666666666 5:80.0 6:3.7 
-0.2564162475772055 1:2.54E7 2:0.0 3:1.0 4:1.0 5:28.0 6:1.7 
-0.2545661484386387 1:549000.0 2:1.0 3:0.0 4:0.0 5:70.0 6:1.5 
-0.18862712706586238 1:271000.0 2:25.0 3:8.0 4:8.0 5:61.0 6:1.7 
-0.2564989725673678 1:2.54E7 2:4.0 3:3.5 4:3.5 5:28.0 6:1.7 
-0.2433709929934807 1:165000.0 2:13.0 3:3.5 4:3.5 5:98.0 6:2.28 
-0.2390136208055963 1:165000.0 2:9.0 3:4.0 4:4.0 5:98.0 6:2.28 
-0.25826234036505247 1:87100.0 2:0.0 3:0.0 4:0.0 5:177.0 6:3.54 
-1.0 1:1.48E7 2:1.0 3:1.0 4:1.0 5:90.0 6:1.86 
-0.133374064403306 1:419000.0 2:1.0 3:3.5 4:3.5 5:82.0 6:1.7 
-0.2552891344893109 1:419000.0 2:0.0 3:0.0 4:0.0 5:82.0 6:1.7 
-0.25884458821936396 1:243.0 2:0.0 3:3.2 4:3.2 5:106.0 6:2.7 
-0.1436280752282392 1:419000.0 2:2.0 3:3.5 4:3.5 5:82.0 6:1.7 
-0.15012232212559806 1:689.0 2:1.0 3:8.666666666666666 4:8.666666666666666 5:40.0 6:1.02 
-0.25836591958323296 1:36100.0 2:0.0 3:5.0 4:5.0 5:11.0 6:0.68 
-0.14847136718309573 1:689.0 2:2.0 3:8.0 4:8.0 5:40.0 6:1.02 
-0.22252178979104079 1:7850000.0 2:4.0 3:3.0 4:3.0 5:39.0 6:1.76 
-0.22793270260894893 1:171000.0 2:0.0 3:6.0 4:6.0 5:3.0 6:0.06 
-0.22307700409991743 1:7850000.0 2:1.0 3:4.0 4:4.0 5:39.0 6:1.76 
-0.25839295540212626 1:3680000.0 2:0.0 3:0.0 4:0.0 5:51.0 6:1.3 
-0.2583997833746548 1:678000.0 2:0.0 3:4.0 4:4.0 5:8.0 6:0.16 
-0.2584003728892094 1:9570000.0 2:0.0 3:0.0 4:0.0 5:36.0 6:1.72 
-0.2643715696554335 1:36.0 2:3.0 3:5.5 4:5.5 5:2.0 6:0.08333333333333333 
-0.22805688187995443 1:171000.0 2:2.0 3:8.0 4:8.0 5:3.0 6:0.06 
-0.25840042903804494 1:171000.0 2:4.0 3:1.0 4:1.0 5:3.0 6:0.06 
-0.24588506596892717 1:155000.0 2:47.0 3:6.0 4:6.0 5:87.0 6:2.0 
-0.1770630777272479 1:3450000.0 2:1.0 3:4.0 4:4.0 5:61.0 6:1.4 
-0.24940546110997258 1:155000.0 2:33.0 3:9.5 4:9.5 5:87.0 6:2.0 
-0.1724071874888314 1:3450000.0 2:4.0 3:3.5 4:3.5 5:61.0 6:1.4 
-0.25880020097814943 1:155000.0 2:3.0 3:9.5 4:9.5 5:87.0 6:2.0 
-0.12439296510621231 1:3450000.0 2:3.0 3:5.0 4:5.0 5:61.0 6:1.4 
-0.14985352086412054 1:155000.0 2:41.0 3:6.0 4:6.0 5:87.0 6:2.0 
-0.14121463369642875 1:8210000.0 2:4.0 3:4.0 4:4.0 5:70.0 6:1.42 
-0.25876003800455977 1:155000.0 2:1.0 3:3.0 4:3.0 5:87.0 6:2.0 
-0.16622774414064379 1:155000.0 2:31.0 3:6.0 4:6.0 5:87.0 6:2.0 
-0.1273932076615583 1:155000.0 2:42.0 3:6.0 4:6.0 5:87.0 6:2.0 
-0.24750527315331344 1:155000.0 2:46.0 3:9.0 4:9.0 5:87.0 6:2.0 
-0.13825571270481743 1:8210000.0 2:3.0 3:4.0 4:4.0 5:70.0 6:1.42 
-0.2585677396870136 1:155000.0 2:10.0 3:6.5 4:6.5 5:87.0 6:2.0 
-0.12268773208989087 1:155000.0 2:32.0 3:6.666666666666667 4:6.666666666666667 5:87.0 6:2.0 
-0.25879857853147387 1:593000.0 2:0.0 3:9.0 4:9.0 5:86.0 6:2.36 
-0.25819336273947613 1:8210000.0 2:1.0 3:0.0 4:0.0 5:70.0 6:1.42 
-0.2562797871408057 1:484000.0 2:28.0 3:4.0 4:4.0 5:220.0 6:5.7 
-0.2586450062193499 1:484000.0 2:6.0 3:4.0 4:4.0 5:220.0 6:5.7 
-0.1309457515845814 1:484000.0 2:33.0 3:5.0 4:5.0 5:220.0 6:5.7 
-0.17958691457813702 1:2.49E7 2:0.0 3:2.0 4:2.0 5:30.0 6:1.52 
-0.24479110893120676 1:1.52E8 2:2.0 3:4.0 4:4.0 5:46.0 6:1.76 
-0.1386355754065866 1:1.16E7 2:3.0 3:3.5 4:3.5 5:71.0 6:1.74 
-0.16347734284555437 1:1.16E7 2:4.0 3:4.333333333333333 4:4.333333333333333 5:71.0 6:1.74 
-0.18647250128127582 1:1.52E8 2:1.0 3:2.0 4:2.0 5:46.0 6:1.76 
-0.1472873323223399 1:484000.0 2:34.0 3:5.0 4:5.0 5:220.0 6:5.7 
-0.19519896300428446 1:1690000.0 2:1.0 3:3.5 4:3.5 5:61.0 6:1.42 
-0.05311470033760958 1:1690000.0 2:3.0 3:3.0 4:3.0 5:61.0 6:1.42 
-0.25446615025862634 1:2.49E7 2:4.0 3:0.0 4:0.0 5:30.0 6:1.52 
-0.18570963116017553 1:2.49E7 2:1.0 3:3.5 4:3.5 5:30.0 6:1.52 
-0.1861807379987053 1:1690000.0 2:4.0 3:4.0 4:4.0 5:61.0 6:1.42 
-0.12537620979247227 1:1.16E7 2:1.0 3:1.0 4:1.0 5:71.0 6:1.74 
-0.2518547662610036 1:3350000.0 2:0.0 3:0.0 4:0.0 5:44.0 6:2.86 
-0.17028590346400613 1:1.16E7 2:0.0 3:0.0 4:0.0 5:71.0 6:1.74 
-0.20848249203676325 1:1.52E8 2:0.0 3:0.0 4:0.0 5:46.0 6:1.76 
-0.25866088937859283 1:2750000.0 2:0.0 3:0.0 4:0.0 5:38.0 6:3.3 
-0.18380283284355303 1:1.68E7 2:7.0 3:5.5 4:5.5 5:57.0 6:2.74 
-0.18452717564205268 1:2.11E7 2:4.0 3:1.0 4:1.0 5:44.0 6:1.48 
-0.20756088325377137 1:1.68E7 2:9.0 3:7.0 4:7.0 5:57.0 6:2.74 
-0.38163900059305056 1:3.72E7 2:4.0 3:5.0 4:5.0 5:36.0 6:1.28 
-0.25841897611543835 1:2.11E7 2:3.0 3:9.5 4:9.5 5:44.0 6:1.48 
-0.2586366242983668 1:2.12E7 2:3.0 3:0.0 4:0.0 5:31.0 6:1.48 
-0.244789939088913 1:1.68E7 2:3.0 3:5.666666666666667 4:5.666666666666667 5:57.0 6:2.74 
-0.1782839676093268 1:2.11E7 2:2.0 3:2.0 4:2.0 5:44.0 6:1.48 
-0.25769763982821525 1:2.12E7 2:4.0 3:5.333333333333333 4:5.333333333333333 5:31.0 6:1.48 
-0.2426602452070153 1:1.68E7 2:15.0 3:4.0 4:4.0 5:57.0 6:2.74 
-0.23022965476245594 1:1.68E7 2:11.0 3:4.0 4:4.0 5:57.0 6:2.74 
-0.16372985172953433 1:9970000.0 2:4.0 3:2.5 4:2.5 5:41.0 6:1.2391304347826086 
-0.16907167605932266 1:2.66E7 2:1.0 3:4.0 4:4.0 5:70.0 6:1.46 
-0.19401329373081905 1:9970000.0 2:1.0 3:3.0 4:3.0 5:41.0 6:1.2391304347826086 
-0.258711265156115 1:179000.0 2:25.0 3:5.5 4:5.5 5:140.0 6:2.86 
-0.25874127026984806 1:1090000.0 2:2.0 3:3.0 4:3.0 5:75.0 6:1.62 
-0.2587418610422406 1:177000.0 2:0.0 3:0.5 4:0.5 5:115.0 6:2.32 
-0.08703861259530801 1:9970000.0 2:3.0 3:1.5 4:1.5 5:41.0 6:1.2391304347826086 
-0.25880039968875723 1:80500.0 2:42.0 3:5.0 4:5.0 5:105.0 6:2.2 
-0.17649649885832586 1:2.66E7 2:0.0 3:1.0 4:1.0 5:70.0 6:1.46 
-0.19047121029876296 1:2.66E7 2:2.0 3:0.0 4:0.0 5:70.0 6:1.46 
-0.23941877246011523 1:9970000.0 2:0.0 3:0.0 4:0.0 5:41.0 6:1.2391304347826086 
-0.17119320402119398 1:2.66E7 2:3.0 3:3.5 4:3.5 5:70.0 6:1.46 
-0.2588004807185399 1:2.86E7 2:0.0 3:9.0 4:9.0 5:108.0 6:2.24 
-0.16047294388646594 1:1.11E7 2:4.0 3:9.0 4:9.0 5:73.0 6:1.52 
-0.2588006098928136 1:3.87E7 2:1.0 3:5.6 4:5.6 5:146.0 6:3.4 
-0.2585002105717244 1:6.54E7 2:2.0 3:0.0 4:0.0 5:59.0 6:1.5 
-0.2587678779297365 1:6.54E7 2:0.0 3:5.0 4:5.0 5:59.0 6:1.5 
-0.2567992587701337 1:229000.0 2:0.0 3:6.5 4:6.5 5:63.0 6:1.54 
-0.25880128215616943 1:1.07E8 2:28.0 3:1.0 4:1.0 5:108.0 6:2.58 
-0.16055160561972168 1:1.11E7 2:3.0 3:10.0 4:10.0 5:73.0 6:1.52 
-0.3816403839202858 1:1.07E8 2:0.0 3:5.5 4:5.5 5:108.0 6:2.58 
-0.258658206484107 1:4740000.0 2:27.0 3:4.0 4:4.0 5:59.0 6:3.2 
-0.2555469097188219 1:1.71E7 2:1.0 3:4.0 4:4.0 5:44.0 6:2.04 
-1.0 1:1.75E7 2:0.0 3:0.0 4:0.0 5:42.0 6:1.5 
-0.25870442561486906 1:4740000.0 2:8.0 3:7.0 4:7.0 5:59.0 6:3.2 
-0.25855956422767623 1:9180000.0 2:0.0 3:0.0 4:0.0 5:22.0 6:1.12 
-0.2552769529443143 1:1.71E7 2:4.0 3:0.0 4:0.0 5:44.0 6:2.04 
-0.25879809927408054 1:4740000.0 2:2.0 3:2.25 4:2.25 5:59.0 6:3.2 
-0.25879911066228733 1:4740000.0 2:18.0 3:2.0 4:2.0 5:59.0 6:3.2 
-0.16452506140979378 1:8.71E7 2:3.0 3:2.3333333333333335 4:2.3333333333333335 5:57.0 6:1.92 
-0.25879946674442433 1:1.22E7 2:41.0 3:2.3333333333333335 4:2.3333333333333335 5:91.0 6:2.82 
-0.2587986737323433 1:1.93E7 2:0.0 3:0.0 4:0.0 5:52.0 6:1.52 
-0.25530242858505636 1:8.71E7 2:13.0 3:2.0 4:2.0 5:57.0 6:1.92 
-0.24020873433738554 1:8.71E7 2:2.0 3:5.0 4:5.0 5:57.0 6:1.92 
-0.07872468397877322 1:8.71E7 2:0.0 3:2.0 4:2.0 5:57.0 6:1.92 
-0.15797925041955976 1:8.71E7 2:1.0 3:1.0 4:1.0 5:57.0 6:1.92 
-0.254641014542454 1:7260000.0 2:0.0 3:0.0 4:0.0 5:51.0 6:1.74 
-0.13214835135584313 1:1.07E7 2:4.0 3:2.0 4:2.0 5:59.0 6:1.7916666666666667 
-0.25526886762378703 1:8.71E7 2:18.0 3:3.0 4:3.0 5:57.0 6:1.92 
-0.25843434544713945 1:385000.0 2:0.0 3:0.0 4:0.0 5:9.0 6:1.24 
-0.6434618657479263 1:391000.0 2:4.0 3:2.5 4:2.5 5:9.0 6:1.18 
-0.33245568744951626 1:391000.0 2:2.0 3:6.0 4:6.0 5:9.0 6:1.18 
-0.25841975434343356 1:10300.0 2:28.0 3:7.0 4:7.0 5:97.0 6:3.0816326530612246 
-0.14352798595293817 1:2.92E7 2:3.0 3:4.5 4:4.5 5:55.0 6:1.86 
-0.2586956031046847 1:2.15E7 2:0.0 3:0.0 4:0.0 5:65.0 6:1.3877551020408163 
-0.3885197589543958 1:1.05E7 2:2.0 3:2.0 4:2.0 5:31.0 6:1.22 
-0.2423329928756104 1:1750000.0 2:37.0 3:7.6 4:7.6 5:64.0 6:4.78 
-0.13559748933566923 1:1750000.0 2:1.0 3:7.0 4:7.0 5:64.0 6:4.78 
-0.25820541474968195 1:117000.0 2:0.0 3:4.5 4:4.5 5:23.0 6:1.78 
-0.13471875740989092 1:2.92E7 2:2.0 3:4.5 4:4.5 5:55.0 6:1.86 
-0.17607933372589113 1:1750000.0 2:2.0 3:8.75 4:8.75 5:64.0 6:4.78 
-0.25699473919509347 1:2.92E7 2:0.0 3:1.0 4:1.0 5:55.0 6:1.86 
-0.13559748933566906 1:1750000.0 2:3.0 3:7.0 4:7.0 5:64.0 6:4.78 
-0.25723344237519635 1:9.58E7 2:0.0 3:4.0 4:4.0 5:32.0 6:1.5 
-0.25752246783032007 1:9.58E7 2:1.0 3:0.0 4:0.0 5:32.0 6:1.5 
-0.15589532368442735 1:1.05E7 2:0.0 3:0.0 4:0.0 5:31.0 6:1.22 
-0.24197452019275295 1:1750000.0 2:33.0 3:7.333333333333333 4:7.333333333333333 5:64.0 6:4.78 
-0.2589181793348976 1:2.08E8 2:1.0 3:1.0 4:1.0 5:66.0 6:1.66 
-0.25891849864274263 1:9740000.0 2:1.0 3:3.5 4:3.5 5:81.0 6:1.7 
-0.255972110767136 1:2.78E7 2:1.0 3:9.0 4:9.0 5:19.0 6:1.1612903225806452 
-0.2587135828255595 1:3370000.0 2:0.0 3:0.0 4:0.0 5:52.0 6:1.96 
-0.25891849864274263 1:534000.0 2:0.0 3:0.0 4:0.0 5:80.0 6:2.04 
-0.25879313308988666 1:2.78E7 2:0.0 3:1.0 4:1.0 5:19.0 6:1.1612903225806452 
-0.25592000919595315 1:2.78E7 2:4.0 3:6.0 4:6.0 5:19.0 6:1.1612903225806452 
-0.12248834823633009 1:9090000.0 2:2.0 3:6.0 4:6.0 5:35.0 6:1.12 
-0.24697551422752473 1:9090000.0 2:3.0 3:3.0 4:3.0 5:35.0 6:1.12 
-0.2589590616584438 1:9370000.0 2:0.0 3:0.0 4:0.0 5:33.0 6:0.9 
-0.27818496495763334 1:1590000.0 2:3.0 3:0.0 4:0.0 5:5.0 6:0.2 
-0.25568750736442714 1:9090000.0 2:0.0 3:0.0 4:0.0 5:35.0 6:1.12 
-0.25873599389681196 1:999000.0 2:1.0 3:2.5555555555555554 4:2.5555555555555554 5:45.0 6:1.06 
-0.14845614692226744 1:9090000.0 2:1.0 3:6.0 4:6.0 5:35.0 6:1.12 
-0.22572778285054418 1:3.17E7 2:4.0 3:5.5 4:5.5 5:52.0 6:1.9 
-0.22469499908573448 1:2.42E7 2:1.0 3:0.0 4:0.0 5:45.0 6:1.26 
-0.22661003904797955 1:2.42E7 2:3.0 3:2.0 4:2.0 5:45.0 6:1.26 
-0.3056628490988368 1:3.17E7 2:1.0 3:4.0 4:4.0 5:52.0 6:1.9 
-0.2587937735563171 1:3.4E7 2:13.0 3:6.0 4:6.0 5:92.0 6:3.52 
-0.21074204924613243 1:6720000.0 2:4.0 3:6.5 4:6.5 5:22.0 6:1.54 
-0.16298187933267344 1:2.52E7 2:1.0 3:5.0 4:5.0 5:39.0 6:1.78 
-0.23570611509669387 1:6720000.0 2:2.0 3:10.5 4:10.5 5:22.0 6:1.54 
-0.14531610869542755 1:2.52E7 2:2.0 3:3.3333333333333335 4:3.3333333333333335 5:39.0 6:1.78 
-0.25879751317630245 1:2.99E7 2:0.0 3:0.0 4:0.0 5:43.0 6:2.12 
-0.2046692841629013 1:8.6E7 2:3.0 3:5.0 4:5.0 5:51.0 6:2.82 
-0.21081958435658782 1:6720000.0 2:1.0 3:8.0 4:8.0 5:22.0 6:1.54 
-0.20447120548481318 1:8.6E7 2:1.0 3:6.5 4:6.5 5:51.0 6:2.82 
-0.12151081651539129 1:2.52E7 2:0.0 3:3.5 4:3.5 5:39.0 6:1.78 
-0.23605448806868262 1:6720000.0 2:3.0 3:4.0 4:4.0 5:22.0 6:1.54 
-0.25874160959550374 1:8.6E7 2:12.0 3:5.0 4:5.0 5:51.0 6:2.82 
-0.25874859944285494 1:338000.0 2:0.0 3:7.5 4:7.5 5:56.0 6:2.38 
-0.2569464108847237 1:1.26E7 2:1.0 3:4.0 4:4.0 5:20.0 6:1.21875 
-0.2573863896640093 1:1.09E8 2:9.0 3:6.0 4:6.0 5:43.0 6:3.72 
-0.25865811485403856 1:1.09E8 2:13.0 3:2.0 4:2.0 5:43.0 6:3.72 
-0.1955198333128057 1:1.09E8 2:3.0 3:1.8571428571428572 4:1.8571428571428572 5:43.0 6:3.72 
-0.25874818253005183 1:5.04E7 2:1.0 3:7.333333333333333 4:7.333333333333333 5:73.0 6:1.64 
-0.24355257185551887 1:1.09E8 2:1.0 3:6.0 4:6.0 5:43.0 6:3.72 
-0.2587477715785938 1:3180000.0 2:0.0 3:7.333333333333333 4:7.333333333333333 5:92.0 6:2.56 
-1.0 1:1.28E7 2:0.0 3:0.0 4:0.0 5:70.0 6:2.04 
-0.14035249501022945 1:4.56E7 2:0.0 3:3.8333333333333335 4:3.8333333333333335 5:65.0 6:1.76 
-0.13964810852853365 1:4.56E7 2:1.0 3:3.5 4:3.5 5:65.0 6:1.76 
-0.2572639136452807 1:1.26E7 2:0.0 3:0.0 4:0.0 5:20.0 6:1.21875 
-0.19621198657411693 1:1.09E8 2:4.0 3:3.6666666666666665 4:3.6666666666666665 5:43.0 6:3.72 
-0.2587460549162803 1:2440000.0 2:0.0 3:6.0 4:6.0 5:54.0 6:2.48 
-0.1525029572562255 1:4360000.0 2:1.0 3:3.5 4:3.5 5:39.0 6:1.54 
-0.25874546625545863 1:8600000.0 2:2.0 3:1.5 4:1.5 5:44.0 6:1.7 
-0.2586917849209675 1:8540000.0 2:0.0 3:4.5 4:4.5 5:81.0 6:3.14 
-0.05733406343140526 1:1.88E7 2:3.0 3:4.0 4:4.0 5:51.0 6:1.56 
-0.273864628705704 1:1.88E7 2:1.0 3:3.0 4:3.0 5:51.0 6:1.56 
-0.25784981707829535 1:8540000.0 2:15.0 3:2.5 4:2.5 5:81.0 6:3.14 
-0.25866818449558987 1:8650000.0 2:0.0 3:0.0 4:0.0 5:40.0 6:1.52 
-0.26146891696347846 1:4360000.0 2:0.0 3:1.0 4:1.0 5:39.0 6:1.54 
-0.16860908271573474 1:1.88E7 2:4.0 3:3.0 4:3.0 5:51.0 6:1.56 
-0.2579955501163509 1:8540000.0 2:9.0 3:3.6666666666666665 4:3.6666666666666665 5:81.0 6:3.14 
-0.19683489392900888 1:4360000.0 2:2.0 3:5.0 4:5.0 5:39.0 6:1.54 
-0.2585942771815861 1:2.88E7 2:0.0 3:1.0 4:1.0 5:61.0 6:1.66 
-0.14495840247816286 1:1220000.0 2:2.0 3:5.5 4:5.5 5:1.0 6:0.06 
-0.2583886483589966 1:288000.0 2:11.0 3:5.0 4:5.0 5:40.0 6:0.9 
-0.25794311312708534 1:5.33E7 2:0.0 3:5.5 4:5.5 5:141.0 6:3.94 
-0.17951368066507917 1:156000.0 2:3.0 3:6.666666666666667 4:6.666666666666667 5:66.0 6:1.42 
-0.25839659288289935 1:2.88E7 2:1.0 3:6.25 4:6.25 5:61.0 6:1.66 
-0.16909882065153697 1:156000.0 2:0.0 3:7.0 4:7.0 5:66.0 6:1.42 
-0.1507663869378285 1:156000.0 2:1.0 3:5.333333333333333 4:5.333333333333333 5:66.0 6:1.42 
-0.1458490153949847 1:1220000.0 2:3.0 3:6.0 4:6.0 5:1.0 6:0.06 
-0.18869787663477083 1:7480000.0 2:0.0 3:0.0 4:0.0 5:51.0 6:1.7 
-0.16821996473837375 1:5510000.0 2:2.0 3:4.666666666666667 4:4.666666666666667 5:62.0 6:3.6 
-0.1695598952812401 1:5510000.0 2:4.0 3:5.0 4:5.0 5:62.0 6:3.6 
-0.25854530994974295 1:148000.0 2:0.0 3:0.0 4:0.0 5:41.0 6:3.08 
-0.2585647630377118 1:3420000.0 2:1.0 3:4.5 4:4.5 5:49.0 6:2.02 
-0.18923400411451263 1:7480000.0 2:2.0 3:1.0 4:1.0 5:51.0 6:1.7 
-0.2586132644024989 1:3850000.0 2:0.0 3:0.0 4:0.0 5:53.0 6:2.1 
-0.25853513217962326 1:9670000.0 2:2.0 3:8.0 4:8.0 5:40.0 6:1.54 
-0.29681001909128607 1:1.02E7 2:4.0 3:0.0 4:0.0 5:48.0 6:1.6 
-0.1733708487873175 1:1.02E7 2:1.0 3:5.0 4:5.0 5:48.0 6:1.6 
-0.20127925645900085 1:5800000.0 2:0.0 3:7.0 4:7.0 5:87.0 6:4.56 
-0.258513597383905 1:1.01E7 2:2.0 3:5.0 4:5.0 5:22.0 6:1.42 
-0.25736735217819867 1:2.58E7 2:3.0 3:4.0 4:4.0 5:54.0 6:1.82 
-0.2552129270428717 1:1.01E7 2:3.0 3:0.0 4:0.0 5:22.0 6:1.42 
-0.2586963421255407 1:5800000.0 2:30.0 3:6.5 4:6.5 5:87.0 6:4.56 
-0.25868321645969816 1:1.01E7 2:1.0 3:10.0 4:10.0 5:22.0 6:1.42 
-0.20127925645900085 1:5800000.0 2:2.0 3:5.666666666666667 4:5.666666666666667 5:87.0 6:4.56 
-0.21959881132498404 1:1.03E7 2:3.0 3:0.0 4:0.0 5:33.0 6:1.28 
-0.06780321519819514 1:1.03E7 2:1.0 3:3.5 4:3.5 5:33.0 6:1.28 
-0.047403238284650706 1:1.02E7 2:3.0 3:4.0 4:4.0 5:48.0 6:1.6 
-0.2576586695767172 1:2.58E7 2:2.0 3:0.0 4:0.0 5:54.0 6:1.82 
-0.25793109275762194 1:1080000.0 2:0.0 3:3.5 4:3.5 5:132.0 6:5.44 
-0.25224342742514205 1:7710000.0 2:0.0 3:0.0 4:0.0 5:50.0 6:1.7 
-0.24472936835641007 1:3980000.0 2:1.0 3:0.0 4:0.0 5:55.0 6:1.5 
-0.16436917367788298 1:3980000.0 2:0.0 3:3.0 4:3.0 5:55.0 6:1.5 
-0.16372862076578776 1:3980000.0 2:2.0 3:3.0 4:3.0 5:55.0 6:1.5 
-0.25813003303822973 1:1080000.0 2:6.0 3:2.4 4:2.4 5:132.0 6:5.44 
-1.0 1:5.28E7 2:2.0 3:0.0 4:0.0 5:57.0 6:1.7333333333333334 
-0.25856215933660626 1:1.53E7 2:1.0 3:0.0 4:0.0 5:21.0 6:1.4473684210526316 
-0.25848764142250114 1:4.44E7 2:0.0 3:0.0 4:0.0 5:39.0 6:1.04 
-0.2586089545852773 1:2360000.0 2:38.0 3:3.6666666666666665 4:3.6666666666666665 5:151.0 6:5.44 
-0.2586089075948197 1:4810000.0 2:0.0 3:0.0 4:0.0 5:36.0 6:4.02 
-1.0 1:1.13E7 2:3.0 3:0.0 4:0.0 5:66.0 6:1.62 
-0.2523772167148806 1:7710000.0 2:2.0 3:3.0 4:3.0 5:50.0 6:1.7 
-0.25878782993681815 1:2820000.0 2:1.0 3:5.5 4:5.5 5:13.0 6:0.26 
-0.24985335775965 1:9090000.0 2:0.0 3:0.0 4:0.0 5:63.0 6:1.74 
-0.25846956571172464 1:3.73E7 2:23.0 3:2.6666666666666665 4:2.6666666666666665 5:116.0 6:2.38 
-0.2584483645471335 1:3.73E7 2:45.0 3:4.0 4:4.0 5:116.0 6:2.38 
-0.2032274236446565 1:9090000.0 2:1.0 3:3.0 4:3.0 5:63.0 6:1.74 
-0.2166715213918658 1:9090000.0 2:4.0 3:3.5 4:3.5 5:63.0 6:1.74 
-0.2584419916874978 1:2820000.0 2:0.0 3:0.0 4:0.0 5:13.0 6:0.26 
-0.2584485206379083 1:192000.0 2:0.0 3:0.0 4:0.0 5:156.0 6:4.42 
-0.25844990276253804 1:3.73E7 2:2.0 3:2.0 4:2.0 5:116.0 6:2.38 
-0.24518364942832255 1:2.06E7 2:1.0 3:3.0 4:3.0 5:68.0 6:1.42 
-0.2521512770180115 1:2.06E7 2:4.0 3:0.0 4:0.0 5:68.0 6:1.42 
-0.26873257516977317 1:8690000.0 2:2.0 3:4.5 4:4.5 5:65.0 6:1.94 
-0.2584069247716767 1:1.45E8 2:4.0 3:9.0 4:9.0 5:51.0 6:1.94 
-0.25835840672558186 1:1.45E8 2:3.0 3:4.0 4:4.0 5:51.0 6:1.94 
-0.25845022323846323 1:1.49E7 2:48.0 3:2.6 4:2.6 5:180.0 6:5.78 
-0.13785665047999024 1:9880000.0 2:3.0 3:2.0 4:2.0 5:32.0 6:1.34 
-0.258451060413927 1:1.49E7 2:0.0 3:2.3333333333333335 4:2.3333333333333335 5:180.0 6:5.78 
-0.2495420437363438 1:9880000.0 2:0.0 3:0.0 4:0.0 5:32.0 6:1.34 
-0.25565527971959284 1:2.82E7 2:0.0 3:1.0 4:1.0 5:55.0 6:1.86 
-0.17404671409946293 1:9880000.0 2:4.0 3:3.0 4:3.0 5:32.0 6:1.34 
-0.2584339025720457 1:1.49E7 2:31.0 3:2.3333333333333335 4:2.3333333333333335 5:180.0 6:5.78 
-0.25559664164822027 1:2.82E7 2:3.0 3:4.0 4:4.0 5:55.0 6:1.86 
-0.17848183334368262 1:4.39E7 2:6.0 3:6.5 4:6.5 5:149.0 6:3.76 
-0.25838851249139655 1:2.51E7 2:1.0 3:3.0 4:3.0 5:52.0 6:1.74 
-0.1702600024021353 1:4.39E7 2:2.0 3:1.4 4:1.4 5:149.0 6:3.76 
-0.25843684121076343 1:8150000.0 2:0.0 3:0.0 4:0.0 5:46.0 6:1.8 
-0.21739681492702467 1:8.39E7 2:2.0 3:3.0 4:3.0 5:47.0 6:1.44 
-0.21056813692684778 1:1.4E7 2:1.0 3:2.0 4:2.0 5:39.0 6:1.1666666666666667 
-0.24894514831073605 1:1.67E7 2:3.0 3:0.0 4:0.0 5:57.0 6:1.24 
-0.1850976408289461 1:152000.0 2:2.0 3:9.0 4:9.0 5:48.0 6:1.14 
-0.25856443409725716 1:153.0 2:0.0 3:7.0 4:7.0 5:112.0 6:2.34 
-0.2118371653545123 1:1.67E7 2:4.0 3:3.0 4:3.0 5:57.0 6:1.24 
-0.21779031589326436 1:8.39E7 2:1.0 3:1.0 4:1.0 5:47.0 6:1.44 
-0.18399116768859275 1:152000.0 2:3.0 3:7.5 4:7.5 5:48.0 6:1.14 
-0.14770304353440292 1:5850000.0 2:1.0 3:4.333333333333333 4:4.333333333333333 5:25.0 6:0.92 
-0.25800062922048944 1:4690000.0 2:0.0 3:0.0 4:0.0 5:103.0 6:2.52 
-0.5109662197675686 1:1.4E7 2:0.0 3:0.0 4:0.0 5:39.0 6:1.1666666666666667 
-0.22406563228869053 1:1.67E7 2:1.0 3:4.0 4:4.0 5:57.0 6:1.24 
-0.14686868289347924 1:5850000.0 2:0.0 3:3.75 4:3.75 5:25.0 6:0.92 
-0.21233695663585542 1:4.74E7 2:4.0 3:0.0 4:0.0 5:135.0 6:3.74 
-0.2535655623880412 1:9320000.0 2:0.0 3:0.0 4:0.0 5:44.0 6:1.72 
-0.13489114204796035 1:9320000.0 2:1.0 3:3.5 4:3.5 5:44.0 6:1.72 
-0.21144959903510255 1:4.74E7 2:1.0 3:0.0 4:0.0 5:135.0 6:3.74 
-0.258314860119827 1:3.54E7 2:12.0 3:3.5 4:3.5 5:113.0 6:3.26 
-0.2048254205271316 1:1.14E7 2:1.0 3:3.5 4:3.5 5:70.0 6:1.42 
-0.3544260900732642 1:1.2E7 2:0.0 3:0.0 4:0.0 5:45.0 6:2.96 
-0.2153902932868357 1:1.14E7 2:2.0 3:1.0 4:1.0 5:70.0 6:1.42 
-0.18035726284744957 1:9320000.0 2:4.0 3:2.5 4:2.5 5:44.0 6:1.72 
-0.04491061317089081 1:9320000.0 2:2.0 3:4.0 4:4.0 5:44.0 6:1.72 
-0.2524230430671194 1:1.14E7 2:4.0 3:6.5 4:6.5 5:70.0 6:1.42 
-0.187241362072342 1:7.0E7 2:1.0 3:2.5 4:2.5 5:161.0 6:3.5 
-0.2516905061876122 1:2.78E7 2:4.0 3:0.0 4:0.0 5:55.0 6:1.44 
-0.19003458889796554 1:2.78E7 2:1.0 3:2.5 4:2.5 5:55.0 6:1.44 
-0.17737721850484228 1:7.0E7 2:0.0 3:1.0 4:1.0 5:161.0 6:3.5 
-0.23632962832923096 1:1.18E7 2:0.0 3:0.0 4:0.0 5:56.0 6:1.511111111111111 
-0.197218423275683 1:2.78E7 2:3.0 3:3.75 4:3.75 5:55.0 6:1.44 
-0.24487461123934723 1:7.0E7 2:4.0 3:0.0 4:0.0 5:161.0 6:3.5 
-0.20416904482139892 1:2.38E7 2:4.0 3:2.0 4:2.0 5:81.0 6:1.76 
-0.17983041016872836 1:165000.0 2:8.0 3:2.0 4:2.0 5:102.0 6:2.3 
-0.25518603812738694 1:165000.0 2:4.0 3:6.666666666666667 4:6.666666666666667 5:102.0 6:2.3 
-0.16656895051068876 1:1690000.0 2:1.0 3:5.666666666666667 4:5.666666666666667 5:15.0 6:0.42 
-0.230451503116664 1:2.38E7 2:3.0 3:4.8 4:4.8 5:81.0 6:1.76 
-0.050604422805461166 1:2.46E7 2:0.0 3:1.0 4:1.0 5:46.0 6:1.5 
-0.17075256698763608 1:1690000.0 2:3.0 3:6.666666666666667 4:6.666666666666667 5:15.0 6:0.42 
-0.11738631388228299 1:1.65E7 2:2.0 3:4.666666666666667 4:4.666666666666667 5:46.0 6:1.62 
-0.18362020097132026 1:1.65E7 2:1.0 3:3.0 4:3.0 5:46.0 6:1.62 
-0.17097794372208464 1:2.38E7 2:1.0 3:2.5 4:2.5 5:81.0 6:1.76 
-0.24353422386012136 1:165000.0 2:2.0 3:3.3333333333333335 4:3.3333333333333335 5:102.0 6:2.3 
-0.23695830121130845 1:2.38E7 2:0.0 3:0.0 4:0.0 5:81.0 6:1.76 
-0.21398007042765177 1:1690000.0 2:0.0 3:8.0 4:8.0 5:15.0 6:0.42 
-0.2581776343456198 1:4920000.0 2:0.0 3:5.5 4:5.5 5:76.0 6:1.96 
-0.1590139661417752 1:1.65E7 2:0.0 3:5.0 4:5.0 5:46.0 6:1.62 
-1.0 1:9710000.0 2:1.0 3:4.0 4:4.0 5:69.0 6:1.46 
-0.1575775045980805 1:165000.0 2:6.0 3:2.5 4:2.5 5:102.0 6:2.3 
-0.2545884504279342 1:2.46E7 2:3.0 3:5.333333333333333 4:5.333333333333333 5:46.0 6:1.5 
-0.20943891819608149 1:2.46E7 2:1.0 3:3.0 4:3.0 5:46.0 6:1.5 
-0.25817604734199917 1:270000.0 2:24.0 3:11.0 4:11.0 5:0.0 6:0.0 
-1.0 1:30700.0 2:1.0 3:8.5 4:8.5 5:3.0 6:0.24 
-0.5081612158784732 1:8280000.0 2:1.0 3:2.0 4:2.0 5:52.0 6:1.3 
-0.2115621283791706 1:1.84E7 2:1.0 3:1.0 4:1.0 5:79.0 6:2.4 
-0.2581760356855481 1:1.84E7 2:32.0 3:6.75 4:6.75 5:79.0 6:2.4 
-0.22018217695398073 1:1.84E7 2:16.0 3:5.5 4:5.5 5:79.0 6:2.4 
-0.26019892497098457 1:6940000.0 2:1.0 3:4.0 4:4.0 5:27.0 6:1.2 
-0.36431047033318936 1:8280000.0 2:3.0 3:1.0 4:1.0 5:52.0 6:1.3 
-0.2581750102031909 1:3.72E7 2:0.0 3:0.0 4:0.0 5:125.0 6:3.48 
-0.21113560154924627 1:1.84E7 2:0.0 3:3.0 4:3.0 5:79.0 6:2.4 
-0.16707386869453167 1:1.84E7 2:13.0 3:5.5 4:5.5 5:79.0 6:2.4 
-0.06512180752598809 1:8280000.0 2:0.0 3:3.5 4:3.5 5:52.0 6:1.3 
-0.20681339084261469 1:1.84E7 2:10.0 3:5.0 4:5.0 5:79.0 6:2.4 
-0.24409158026605549 1:1.84E7 2:6.0 3:5.0 4:5.0 5:79.0 6:2.4 
-0.236128367715212 1:8280000.0 2:4.0 3:4.5 4:4.5 5:52.0 6:1.3 
-0.26132581370547925 1:3.66E7 2:1.0 3:4.333333333333333 4:4.333333333333333 5:74.0 6:1.54 
-0.25340030111869805 1:1270000.0 2:0.0 3:0.0 4:0.0 5:65.0 6:1.46 
-0.2249762383730494 1:1410000.0 2:1.0 3:1.0 4:1.0 5:87.0 6:1.76 
-0.11463821325420909 1:4820000.0 2:2.0 3:3.0 4:3.0 5:56.0 6:1.68 
-0.14547038676406704 1:4820000.0 2:1.0 3:3.5 4:3.5 5:56.0 6:1.68 
-0.22701827816930858 1:3800000.0 2:4.0 3:5.0 4:5.0 5:49.0 6:1.46 
-0.2581712352629931 1:24000.0 2:0.0 3:4.5 4:4.5 5:78.0 6:2.12 
-0.23083870469308854 1:1270000.0 2:1.0 3:3.3333333333333335 4:3.3333333333333335 5:65.0 6:1.46 
-0.0646398535861962 1:1410000.0 2:2.0 3:4.5 4:4.5 5:87.0 6:1.76 
-0.258799983456882 1:4360000.0 2:0.0 3:7.0 4:7.0 5:51.0 6:3.02 
-0.09120164131553397 1:1270000.0 2:3.0 3:5.0 4:5.0 5:65.0 6:1.46 
-0.6662248830654232 1:9490000.0 2:0.0 3:0.0 4:0.0 5:61.0 6:1.64 
-0.22782064473205776 1:4820000.0 2:0.0 3:1.0 4:1.0 5:56.0 6:1.68 
-0.03514747436928106 1:3800000.0 2:2.0 3:5.0 4:5.0 5:49.0 6:1.46 
-0.2583062127946946 1:1.53E7 2:1.0 3:0.0 4:0.0 5:59.0 6:1.725 
-0.25835967260306336 1:314000.0 2:0.0 3:7.5 4:7.5 5:77.0 6:2.26 
-0.258404104414507 1:1.94E7 2:0.0 3:0.0 4:0.0 5:69.0 6:1.56 
-0.30826150456730345 1:3800000.0 2:0.0 3:4.0 4:4.0 5:49.0 6:1.46 
-0.19833912449313373 1:1270000.0 2:4.0 3:6.0 4:6.0 5:65.0 6:1.46 
-0.07327335709195587 1:48.0 2:1.0 3:1.5 4:1.5 5:75.0 6:3.0208333333333335 
-0.2586410486227795 1:8880000.0 2:33.0 3:1.4 4:1.4 5:126.0 6:3.92 
-0.2585101504636432 1:1870000.0 2:0.0 3:0.0 4:0.0 5:26.0 6:1.48 
-0.25863622715834034 1:8880000.0 2:39.0 3:7.0 4:7.0 5:126.0 6:3.92 
-0.17077505517929595 1:48.0 2:0.0 3:2.0 4:2.0 5:75.0 6:3.0208333333333335 
-0.16251955004024743 1:48.0 2:3.0 3:2.75 4:2.75 5:75.0 6:3.0208333333333335 
-0.1795462080138963 1:48.0 2:6.0 3:2.0 4:2.0 5:75.0 6:3.0208333333333335 
-0.21202424583227736 1:48.0 2:7.0 3:4.0 4:4.0 5:75.0 6:3.0208333333333335 
-0.25761905186180145 1:9.59E7 2:1.0 3:3.6666666666666665 4:3.6666666666666665 5:49.0 6:1.56 
-0.257789251799754 1:9.59E7 2:4.0 3:0.0 4:0.0 5:49.0 6:1.56 
-0.05623990325951865 1:738000.0 2:1.0 3:3.3333333333333335 4:3.3333333333333335 5:72.0 6:1.7 
-0.2367846584035438 1:738000.0 2:9.0 3:4.0 4:4.0 5:72.0 6:1.7 
-0.18190133632758482 1:738000.0 2:4.0 3:4.2 4:4.2 5:72.0 6:1.7 
-0.25873100840544005 1:738000.0 2:35.0 3:6.4 4:6.4 5:72.0 6:1.7 
-0.2073760665739069 1:6860000.0 2:2.0 3:5.5 4:5.5 5:71.0 6:1.46 
-0.2574049344777854 1:9390000.0 2:1.0 3:0.0 4:0.0 5:37.0 6:1.48 
-0.020028063609301015 1:9390000.0 2:3.0 3:5.0 4:5.0 5:37.0 6:1.48 
-0.20105193140184469 1:738000.0 2:0.0 3:3.3333333333333335 4:3.3333333333333335 5:72.0 6:1.7 
-0.04715118772819486 1:6860000.0 2:3.0 3:5.0 4:5.0 5:71.0 6:1.46 
-0.22046470892237463 1:6860000.0 2:4.0 3:3.0 4:3.0 5:71.0 6:1.46 
-0.2452578655190194 1:6860000.0 2:1.0 3:1.0 4:1.0 5:71.0 6:1.46 
-0.1800250421139315 1:738000.0 2:6.0 3:5.5 4:5.5 5:72.0 6:1.7 
-0.25179857045797027 1:8990000.0 2:3.0 3:6.5 4:6.5 5:37.0 6:1.44 
-0.24991314652757374 1:8990000.0 2:0.0 3:4.0 4:4.0 5:37.0 6:1.44 
-0.2587307192653716 1:2730000.0 2:2.0 3:2.0 4:2.0 5:66.0 6:1.82 
-0.25570490414477676 1:9680000.0 2:0.0 3:0.0 4:0.0 5:61.0 6:1.5 
-0.13150834194285513 1:9680000.0 2:4.0 3:3.0 4:3.0 5:61.0 6:1.5 
-0.2587299654868681 1:9680000.0 2:1.0 3:16.0 4:16.0 5:61.0 6:1.5 
-0.25744805675680066 1:8990000.0 2:1.0 3:0.0 4:0.0 5:37.0 6:1.44 
-0.17813327784313118 1:9680000.0 2:2.0 3:4.0 4:4.0 5:61.0 6:1.5 
-0.07770644560478591 1:9680000.0 2:3.0 3:2.5 4:2.5 5:61.0 6:1.5 
-0.25880069481270324 1:2.67E7 2:6.0 3:9.0 4:9.0 5:29.0 6:3.16 
-0.2279712316627494 1:5.5E7 2:4.0 3:9.5 4:9.5 5:32.0 6:1.84 
-0.25878930022637064 1:2.67E7 2:40.0 3:5.0 4:5.0 5:29.0 6:3.16 
-0.14030531237218297 1:5.5E7 2:3.0 3:7.0 4:7.0 5:32.0 6:1.84 
-0.25842707627834 1:2180000.0 2:42.0 3:4.428571428571429 4:4.428571428571429 5:26.0 6:3.34 
-0.2570777536907244 1:7550000.0 2:4.0 3:2.0 4:2.0 5:21.0 6:1.34 
-0.10881925033278611 1:5.5E7 2:2.0 3:7.5 4:7.5 5:32.0 6:1.84 
-0.2576700224422275 1:7550000.0 2:1.0 3:5.5 4:5.5 5:21.0 6:1.34 
-0.2586250884531272 1:2.67E7 2:5.0 3:3.0 4:3.0 5:29.0 6:3.16 
-0.25869553323323136 1:2370000.0 2:0.0 3:0.0 4:0.0 5:128.0 6:2.66 
-0.2510189097192572 1:8750000.0 2:1.0 3:2.5 4:2.5 5:63.0 6:1.98 
-0.2587322356773662 1:5.13E7 2:8.0 3:1.0 4:1.0 5:99.0 6:5.72 
-0.25874344374139246 1:3290000.0 2:0.0 3:0.0 4:0.0 5:12.0 6:0.34 
-0.2510395064245384 1:8750000.0 2:4.0 3:0.0 4:0.0 5:63.0 6:1.98 
-0.2564805310016121 1:1.48E8 2:0.0 3:0.0 4:0.0 5:53.0 6:2.9 
-0.25351026610858624 1:685000.0 2:11.0 3:10.0 4:10.0 5:83.0 6:1.72 
-0.25879905225580185 1:1050000.0 2:34.0 3:2.5 4:2.5 5:69.0 6:1.48 
-0.2338558860847546 1:2490000.0 2:4.0 3:0.0 4:0.0 5:59.0 6:1.24 
-0.225505376503027 1:685000.0 2:0.0 3:5.333333333333333 4:5.333333333333333 5:83.0 6:1.72 
-0.25398438592687483 1:685000.0 2:15.0 3:8.0 4:8.0 5:83.0 6:1.72 
-0.23372228677380047 1:2490000.0 2:1.0 3:1.5 4:1.5 5:59.0 6:1.24 
-0.18117540223992568 1:9630000.0 2:4.0 3:3.0 4:3.0 5:54.0 6:1.42 
-0.25878627284648464 1:685000.0 2:22.0 3:4.0 4:4.0 5:83.0 6:1.72 
-0.21300998144435798 1:685000.0 2:5.0 3:5.0 4:5.0 5:83.0 6:1.72 
-0.25879249909104285 1:2660000.0 2:0.0 3:0.0 4:0.0 5:122.0 6:2.8 
-0.23415647606400308 1:2490000.0 2:3.0 3:9.0 4:9.0 5:59.0 6:1.24 
-0.18455593319862895 1:9630000.0 2:3.0 3:5.666666666666667 4:5.666666666666667 5:54.0 6:1.42 
-0.21063426742533292 1:9630000.0 2:0.0 3:0.0 4:0.0 5:54.0 6:1.42 
-0.23645488588154634 1:685000.0 2:2.0 3:8.0 4:8.0 5:83.0 6:1.72 
-0.18018745654007173 1:9630000.0 2:1.0 3:4.0 4:4.0 5:54.0 6:1.42 
-0.08308649522160791 1:685000.0 2:3.0 3:5.5 4:5.5 5:83.0 6:1.72 
-0.23381700629481927 1:2490000.0 2:2.0 3:6.5 4:6.5 5:59.0 6:1.24 
-0.25266940670139854 1:1.2E7 2:0.0 3:0.0 4:0.0 5:71.0 6:1.74 
-0.25614757053867243 1:2.03E7 2:2.0 3:7.0 4:7.0 5:43.0 6:1.48 
-1.0 1:4060000.0 2:3.0 3:3.5 4:3.5 5:45.0 6:1.66 
-0.2587553329531725 1:3720000.0 2:0.0 3:0.0 4:0.0 5:47.0 6:2.42 
-1.0 1:4060000.0 2:2.0 3:4.5 4:4.5 5:45.0 6:1.66 
-1.0 1:2.03E7 2:0.0 3:0.0 4:0.0 5:43.0 6:1.48 
-0.15826400016161782 1:2.03E7 2:3.0 3:3.0 4:3.0 5:43.0 6:1.48 
-0.1266780654705766 1:2.03E7 2:4.0 3:2.5 4:2.5 5:43.0 6:1.48 
-1.0 1:2.03E7 2:1.0 3:0.0 4:0.0 5:43.0 6:1.48 
-0.2339962178583323 1:121.0 2:0.0 3:0.0 4:0.0 5:139.0 6:3.0 
-0.258796925072444 1:1.02E7 2:0.0 3:0.0 4:0.0 5:86.0 6:1.74 
-0.2144256525016242 1:8340000.0 2:1.0 3:2.0 4:2.0 5:84.0 6:1.7 
-0.24246439956815574 1:1.87E7 2:2.0 3:0.0 4:0.0 5:95.0 6:1.92 
-0.25561609469101937 1:121.0 2:10.0 3:4.0 4:4.0 5:139.0 6:3.0 
-0.2557248377804332 1:121.0 2:13.0 3:1.0 4:1.0 5:139.0 6:3.0 
-0.2221376712951016 1:1.87E7 2:1.0 3:3.5 4:3.5 5:95.0 6:1.92 
-0.25880588907780827 1:1.94E7 2:0.0 3:0.0 4:0.0 5:94.0 6:1.94 
-0.20709942786002428 1:1.87E7 2:4.0 3:2.5 4:2.5 5:95.0 6:1.92 
-0.2340681782995518 1:121.0 2:1.0 3:2.5 4:2.5 5:139.0 6:3.0 
-0.2144693665093989 1:8340000.0 2:4.0 3:1.5 4:1.5 5:84.0 6:1.7 
-0.2585312094244455 1:1830000.0 2:0.0 3:4.0 4:4.0 5:137.0 6:3.18 
-0.28370130717114167 1:3580000.0 2:0.0 3:1.0 4:1.0 5:35.0 6:1.02 
-0.01709965055737039 1:2.15E7 2:2.0 3:3.6666666666666665 4:3.6666666666666665 5:55.0 6:1.94 
-0.25880078014013747 1:656000.0 2:0.0 3:0.0 4:0.0 5:79.0 6:3.44 
-0.2758882243373727 1:2.15E7 2:3.0 3:2.0 4:2.0 5:55.0 6:1.94 
-0.2191516819479659 1:2.15E7 2:1.0 3:3.0 4:3.0 5:55.0 6:1.94 
-0.2588019140133615 1:1830000.0 2:12.0 3:4.75 4:4.75 5:137.0 6:3.18 
-0.17582256431360965 1:1.25E7 2:1.0 3:4.0 4:4.0 5:66.0 6:1.32 
-0.2570108561559175 1:1.25E7 2:4.0 3:0.0 4:0.0 5:66.0 6:1.32 
-0.14258074072390525 1:8730000.0 2:1.0 3:3.0 4:3.0 5:54.0 6:1.74 
-0.17481591711128724 1:1.25E7 2:3.0 3:4.5 4:4.5 5:66.0 6:1.32 
-0.013644076600224948 1:2290000.0 2:26.0 3:4.333333333333333 4:4.333333333333333 5:144.0 6:3.28 
-0.2588013025686726 1:1.76E7 2:1.0 3:6.0 4:6.0 5:67.0 6:1.82 
-0.14684719592949858 1:8730000.0 2:3.0 3:3.0 4:3.0 5:54.0 6:1.74 
-0.25875503492058866 1:8740000.0 2:0.0 3:0.0 4:0.0 5:54.0 6:1.64 
-0.25874705003623677 1:3.72E7 2:0.0 3:0.0 4:0.0 5:34.0 6:1.62 
-0.23661037706637342 1:2290000.0 2:24.0 3:5.0 4:5.0 5:144.0 6:3.28 
-0.24551618588007723 1:7720000.0 2:4.0 3:1.0 4:1.0 5:28.0 6:1.78 
-1.0 1:1.73E7 2:0.0 3:0.0 4:0.0 5:66.0 6:1.88 
-0.23173890536155445 1:2290000.0 2:27.0 3:2.0 4:2.0 5:144.0 6:3.28 
-0.1517694760403805 1:7720000.0 2:3.0 3:3.6666666666666665 4:3.6666666666666665 5:28.0 6:1.78 
-0.18668261934796943 1:7720000.0 2:2.0 3:5.0 4:5.0 5:28.0 6:1.78 
-0.2123423155476487 1:2290000.0 2:28.0 3:4.5 4:4.5 5:144.0 6:3.28 
-0.2586448727799436 1:1210000.0 2:3.0 3:5.0 4:5.0 5:94.0 6:2.7 
-0.2587873538746984 1:1.51E7 2:3.0 3:0.0 4:0.0 5:56.0 6:1.68 
-0.7234656596618645 1:6670000.0 2:2.0 3:2.5 4:2.5 5:69.0 6:1.68 
-0.2586537971479065 1:2660000.0 2:0.0 3:5.0 4:5.0 5:62.0 6:2.8 
-0.2586437736332281 1:232.0 2:0.0 3:6.333333333333333 4:6.333333333333333 5:71.0 6:1.78 
