svm_type c_svc
kernel_type rbf
gamma 0.16666666666666666
nr_class 2
total_sv 6007
rho 0.7415843529037518
label 1 -1
probA -1.2299396037371113
probB 1.290804564469938
nr_sv 669 5338
SV
1.7418325966957597 1:1.47E7 2:4.0 3:0.0 4:0.0 5:102.0 6:2.06 
1.7419056983284422 1:1500000.0 2:0.0 3:0.0 4:0.0 5:63.0 6:1.42 
1.7526513213810575 1:134000.0 2:0.0 3:8.0 4:8.0 5:3.0 6:0.06 
1.741232596201666 1:1.45E7 2:0.0 3:0.0 4:0.0 5:43.0 6:1.96 
2.22157693672188 1:9740000.0 2:4.0 3:2.5 4:2.5 5:32.0 6:1.48 
1.741937505990899 1:1830000.0 2:0.0 3:0.0 4:0.0 5:32.0 6:1.36 
1.762628317992243 1:2400000.0 2:4.0 3:2.0 4:2.0 5:70.0 6:1.64 
1.741942774397534 1:1910000.0 2:0.0 3:9.0 4:9.0 5:133.0 6:2.68 
1.7419519388520204 1:1240000.0 2:0.0 3:0.0 4:0.0 5:33.0 6:1.6 
1.7419606159714602 1:6010000.0 2:2.0 3:0.0 4:0.0 5:29.0 6:1.78 
0.9474960993125371 1:1040000.0 2:0.0 3:0.0 4:0.0 5:38.0 6:1.26 
1.7419764815054417 1:5.83E8 2:0.0 3:6.0 4:6.0 5:36.0 6:1.12 
1.9643909055200326 1:1.46E7 2:2.0 3:6.0 4:6.0 5:65.0 6:1.4 
1.7419915195798532 1:3650000.0 2:0.0 3:6.333333333333333 4:6.333333333333333 5:204.0 6:4.1 
2.3479895298857603 1:1.9E7 2:1.0 3:3.0 4:3.0 5:63.0 6:1.3 
1.741992243725316 1:209000.0 2:0.0 3:0.0 4:0.0 5:95.0 6:2.14 
1.7458715286314295 1:2.47E7 2:0.0 3:0.0 4:0.0 5:46.0 6:1.62 
3.741994093153427 1:7.28E8 2:0.0 3:0.0 4:0.0 5:40.0 6:1.6 
2.9972841899890286 1:1.48E7 2:0.0 3:0.0 4:0.0 5:90.0 6:1.86 
1.7413156540063641 1:689.0 2:0.0 3:1.0 4:1.0 5:40.0 6:1.02 
1.7420058439967974 1:3640000.0 2:0.0 3:0.0 4:0.0 5:60.0 6:1.46 
1.7420060433004534 1:357000.0 2:0.0 3:0.0 4:0.0 5:150.0 6:3.32 
1.7582158737729947 1:1760000.0 2:0.0 3:0.0 4:0.0 5:64.0 6:1.4 
1.7677979095177976 1:3.72E7 2:0.0 3:5.0 4:5.0 5:36.0 6:1.28 
1.7413712905634118 1:1.9E7 2:0.0 3:0.0 4:0.0 5:49.0 6:1.54 
1.742007466834675 1:2.21E7 2:0.0 3:11.0 4:11.0 5:35.0 6:1.76 
1.7679021810583333 1:1.07E8 2:1.0 3:8.6 4:8.6 5:108.0 6:2.58 
3.5915041559690417 1:2.03E7 2:0.0 3:0.0 4:0.0 5:43.0 6:1.54 
3.6242753843994056 1:2.14E7 2:0.0 3:0.0 4:0.0 5:63.0 6:1.4042553191489362 
1.7420086639861718 1:3570000.0 2:0.0 3:5.5 4:5.5 5:45.0 6:3.24 
1.741759678821567 1:6.29E7 2:0.0 3:0.0 4:0.0 5:79.0 6:1.58 
1.7458738070946178 1:2.16E7 2:2.0 3:0.0 4:0.0 5:54.0 6:2.04 
1.7543767172375264 1:3.17E7 2:0.0 3:1.0 4:1.0 5:52.0 6:1.9 
2.7413115168330084 1:9300000.0 2:0.0 3:0.0 4:0.0 5:56.0 6:1.4791666666666667 
2.6107275990679115 1:4390000.0 2:0.0 3:0.0 4:0.0 5:61.0 6:1.76 
1.7420088433910892 1:77500.0 2:0.0 3:0.0 4:0.0 5:31.0 6:2.3 
1.7536693920329967 1:1.88E7 2:0.0 3:0.0 4:0.0 5:51.0 6:1.56 
1.7420734492022378 1:5370000.0 2:0.0 3:0.0 4:0.0 5:148.0 6:3.06 
1.7421214503936346 1:2.28E7 2:0.0 3:0.0 4:0.0 5:93.0 6:1.94 
1.7416399673768175 1:2960000.0 2:0.0 3:0.0 4:0.0 5:46.0 6:2.82 
1.7384637385665729 1:9710000.0 2:0.0 3:0.0 4:0.0 5:65.0 6:3.4 
1.7416098802122728 1:1000000.0 2:0.0 3:1.3333333333333333 4:1.3333333333333333 5:137.0 6:5.58 
2.7413588471011954 1:1.22E7 2:0.0 3:0.0 4:0.0 5:85.0 6:1.72 
1.0994087123879104 1:8690000.0 2:0.0 3:1.0 4:1.0 5:65.0 6:1.94 
1.7416091373511078 1:1.4E8 2:0.0 3:0.0 4:0.0 5:73.0 6:3.02 
1.741608764154521 1:3010000.0 2:0.0 3:5.0 4:5.0 5:195.0 6:3.9 
1.742616471935333 1:9490000.0 2:0.0 3:0.0 4:0.0 5:78.0 6:1.58 
1.7413364184320694 1:2.66E7 2:0.0 3:0.0 4:0.0 5:48.0 6:1.72 
1.7415864655406843 1:144000.0 2:0.0 3:0.0 4:0.0 5:105.0 6:2.2 
1.7421439430353325 1:4.74E7 2:9.0 3:3.3333333333333335 4:3.3333333333333335 5:135.0 6:3.74 
1.7415389616270822 1:1290000.0 2:0.0 3:5.0 4:5.0 5:141.0 6:3.98 
2.5807519255188964 1:30700.0 2:0.0 3:8.333333333333334 4:8.333333333333334 5:3.0 6:0.24 
1.7421892529932417 1:6940000.0 2:4.0 3:0.0 4:0.0 5:27.0 6:1.2 
1.7419336960544114 1:3.66E7 2:0.0 3:0.0 4:0.0 5:74.0 6:1.54 
1.7546921471255705 1:3800000.0 2:1.0 3:1.0 4:1.0 5:49.0 6:1.46 
1.7413644159291677 1:1050000.0 2:21.0 3:6.75 4:6.75 5:69.0 6:1.48 
1.7413326345413096 1:4690000.0 2:0.0 3:0.0 4:0.0 5:43.0 6:1.54 
2.8615950742465626 1:4060000.0 2:1.0 3:3.5 4:3.5 5:45.0 6:1.66 
1.7413760375719698 1:1.49E7 2:0.0 3:0.0 4:0.0 5:77.0 6:1.54 
1.7413640741608627 1:6500000.0 2:6.0 3:2.0 4:2.0 5:142.0 6:3.0 
1.7413424394116774 1:192000.0 2:0.0 3:8.666666666666666 4:8.666666666666666 5:64.0 6:1.32 
1.7413344421662906 1:1490000.0 2:0.0 3:5.0 4:5.0 5:85.0 6:2.84 
1.916991249242794 1:6670000.0 2:0.0 3:1.0 4:1.0 5:69.0 6:1.68 
1.741338249589422 1:5400000.0 2:0.0 3:0.0 4:0.0 5:28.0 6:1.44 
1.8261768076556324 1:3460000.0 2:0.0 3:3.5 4:3.5 5:81.0 6:1.78 
1.741334526589696 1:8090000.0 2:0.0 3:0.0 4:0.0 5:45.0 6:1.9 
1.7413311400551357 1:7.83E7 2:0.0 3:0.0 4:0.0 5:90.0 6:1.82 
1.7413297575782904 1:2140000.0 2:0.0 3:0.0 4:0.0 5:32.0 6:1.28 
1.7421660073871696 1:247.0 2:0.0 3:0.0 4:0.0 5:109.0 6:2.48 
2.3479522567794584 1:510000.0 2:0.0 3:3.0 4:3.0 5:99.0 6:2.02 
1.8188472627493357 1:5.52E7 2:3.0 3:0.6666666666666666 4:0.6666666666666666 5:78.0 6:2.06 
1.7420074990113794 1:1.08E8 2:0.0 3:0.0 4:0.0 5:70.0 6:1.44 
2.7420548843198334 1:9810000.0 2:0.0 3:0.0 4:0.0 5:42.0 6:2.12 
1.65636718365272 1:9650000.0 2:0.0 3:0.0 4:0.0 5:71.0 6:1.44 
2.4595835947130986 1:7410000.0 2:4.0 3:4.0 4:4.0 5:52.0 6:1.8 
2.2573233491151945 1:1150000.0 2:4.0 3:5.0 4:5.0 5:64.0 6:1.32 
1.7413252149210103 1:7.29E7 2:0.0 3:0.0 4:0.0 5:40.0 6:1.14 
1.742754588531219 1:2280000.0 2:8.0 3:1.25 4:1.25 5:205.0 6:4.26 
1.7413213877289953 1:8.01E7 2:0.0 3:0.0 4:0.0 5:82.0 6:1.74 
1.7413214090973106 1:18100.0 2:0.0 3:0.0 4:0.0 5:83.0 6:1.8 
1.7413185710830992 1:3130000.0 2:0.0 3:10.0 4:10.0 5:127.0 6:2.58 
1.741318523546369 1:2740000.0 2:0.0 3:0.0 4:0.0 5:32.0 6:1.14 
1.7414488906967744 1:6.29E7 2:0.0 3:0.0 4:0.0 5:68.0 6:3.18 
2.7289228893365105 1:3160000.0 2:2.0 3:5.0 4:5.0 5:87.0 6:1.76 
1.7415882329397876 1:223.0 2:0.0 3:6.0 4:6.0 5:124.0 6:2.62 
1.7421817473254888 1:3.45E7 2:0.0 3:0.0 4:0.0 5:42.0 6:1.5 
1.7413161099648597 1:219000.0 2:0.0 3:6.0 4:6.0 5:75.0 6:1.66 
1.7439182033454714 1:1.05E8 2:0.0 3:0.0 4:0.0 5:38.0 6:1.82 
1.7413162219323384 1:2040000.0 2:0.0 3:0.0 4:0.0 5:38.0 6:1.2 
2.7103605686889845 1:1.15E7 2:1.0 3:4.25 4:4.25 5:51.0 6:1.4 
1.850289134202356 1:1.01E7 2:0.0 3:0.5 4:0.5 5:82.0 6:2.98 
1.741315952608205 1:1050000.0 2:0.0 3:0.0 4:0.0 5:15.0 6:0.66 
1.7413156474076334 1:324000.0 2:0.0 3:0.0 4:0.0 5:150.0 6:3.46 
1.7481188609045901 1:9940000.0 2:3.0 3:0.0 4:0.0 5:41.0 6:1.9 
1.7419291124489475 1:1.35E8 2:0.0 3:0.0 4:0.0 5:55.0 6:2.48 
1.7626300962019947 1:5.1E7 2:4.0 3:0.0 4:0.0 5:45.0 6:2.04 
1.7620493295341162 1:9450000.0 2:0.0 3:10.0 4:10.0 5:41.0 6:1.42 
1.7413167500917188 1:2680000.0 2:0.0 3:0.0 4:0.0 5:34.0 6:1.94 
1.7510009422715942 1:41.0 2:3.0 3:6.0 4:6.0 5:4.0 6:0.24390243902439024 
1.7416225857781034 1:9060000.0 2:4.0 3:4.5 4:4.5 5:74.0 6:1.5 
1.7413155172669066 1:262000.0 2:0.0 3:9.5 4:9.5 5:70.0 6:3.0 
1.7415747559861448 1:228.0 2:0.0 3:7.5 4:7.5 5:118.0 6:2.48 
1.743592623782193 1:196000.0 2:1.0 3:8.0 4:8.0 5:110.0 6:2.24 
1.741874670442706 1:9100000.0 2:0.0 3:0.0 4:0.0 5:43.0 6:1.96 
1.7413154991689321 1:4900000.0 2:0.0 3:0.0 4:0.0 5:66.0 6:1.64 
1.7419256753329095 1:1.13E8 2:0.0 3:0.0 4:0.0 5:66.0 6:2.5 
1.7413157228556035 1:1.55E7 2:0.0 3:0.0 4:0.0 5:75.0 6:1.56 
1.7825342676368032 1:4230000.0 2:7.0 3:0.6666666666666666 4:0.6666666666666666 5:132.0 6:3.84 
1.7411909443148847 1:5450000.0 2:0.0 3:0.0 4:0.0 5:54.0 6:1.4 
1.804258610505864 1:6430000.0 2:0.0 3:0.0 4:0.0 5:94.0 6:1.94 
1.7413290556906007 1:3830000.0 2:0.0 3:2.0 4:2.0 5:12.0 6:0.68 
1.8716078609929117 1:2660000.0 2:0.0 3:0.0 4:0.0 5:104.0 6:3.76 
1.7470504283998536 1:215000.0 2:0.0 3:6.0 4:6.0 5:19.0 6:0.82 
1.7711761993630026 1:9080000.0 2:0.0 3:0.0 4:0.0 5:45.0 6:1.66 
1.741326457446711 1:1180000.0 2:0.0 3:0.0 4:0.0 5:36.0 6:1.14 
1.741324417088077 1:4480000.0 2:0.0 3:0.0 4:0.0 5:64.0 6:2.44 
1.741330694259187 1:4.74E7 2:0.0 3:0.0 4:0.0 5:50.0 6:1.58 
1.7413521219941681 1:1.95E8 2:0.0 3:10.0 4:10.0 5:48.0 6:3.76 
1.7420704639502556 1:8140000.0 2:0.0 3:0.0 4:0.0 5:47.0 6:1.3 
1.7414871617909176 1:979000.0 2:0.0 3:0.0 4:0.0 5:52.0 6:1.54 
1.741353328613968 1:2610000.0 2:0.0 3:0.0 4:0.0 5:64.0 6:3.06 
1.7413718675987058 1:1.42E7 2:0.0 3:0.0 4:0.0 5:47.0 6:1.7 
1.7413596341534539 1:5.79E7 2:0.0 3:0.0 4:0.0 5:72.0 6:1.6 
1.7413642733509955 1:1.28E8 2:0.0 3:0.0 4:0.0 5:14.0 6:0.78 
1.7845174567082178 1:8730000.0 2:4.0 3:0.0 4:0.0 5:64.0 6:1.28 
1.785127981159798 1:1.04E7 2:3.0 3:0.0 4:0.0 5:47.0 6:2.04 
2.7429232564832473 1:1.66E8 2:3.0 3:0.0 4:0.0 5:77.0 6:1.88 
1.741363461917326 1:2620000.0 2:0.0 3:0.0 4:0.0 5:47.0 6:3.34 
1.7487679690938602 1:5710000.0 2:3.0 3:0.0 4:0.0 5:73.0 6:1.66 
1.7413624450967524 1:74700.0 2:0.0 3:0.0 4:0.0 5:59.0 6:1.52 
1.7413409114059522 1:2420000.0 2:0.0 3:0.0 4:0.0 5:60.0 6:1.56 
1.7413655055298136 1:1.83E7 2:0.0 3:0.0 4:0.0 5:21.0 6:2.14 
1.7413685099044824 1:3220000.0 2:0.0 3:10.0 4:10.0 5:37.0 6:1.68 
1.7413762319486004 1:5610000.0 2:0.0 3:6.0 4:6.0 5:103.0 6:2.12 
1.7413797391784755 1:1900000.0 2:0.0 3:0.0 4:0.0 5:12.0 6:0.3 
1.7413848981491657 1:405000.0 2:14.0 3:2.3333333333333335 4:2.3333333333333335 5:128.0 6:2.64 
3.1069112498658455 1:1.05E7 2:2.0 3:6.0 4:6.0 5:3.0 6:0.08 
2.5882066502434644 1:9170000.0 2:0.0 3:0.0 4:0.0 5:49.0 6:1.44 
2.7413846682206233 1:4.21E7 2:0.0 3:0.0 4:0.0 5:44.0 6:1.72 
2.2894225742865317 1:4.06E7 2:3.0 3:3.5 4:3.5 5:53.0 6:1.3902439024390243 
1.7413893811501044 1:238000.0 2:0.0 3:0.0 4:0.0 5:12.0 6:0.5 
1.742088224194044 1:2.54E8 2:4.0 3:1.0 4:1.0 5:38.0 6:1.8048780487804879 
1.741425881508494 1:1.86E7 2:31.0 3:2.0 4:2.0 5:272.0 6:6.06 
1.7414512068782402 1:290000.0 2:0.0 3:5.0 4:5.0 5:164.0 6:5.4 
1.7414585061868948 1:974000.0 2:0.0 3:10.0 4:10.0 5:110.0 6:2.22 
1.7414580974900493 1:9.31E7 2:0.0 3:0.0 4:0.0 5:54.0 6:1.8 
1.7413882021943607 1:4090000.0 2:0.0 3:0.0 4:0.0 5:40.0 6:1.04 
1.7414603450196828 1:2.86E7 2:0.0 3:0.0 4:0.0 5:64.0 6:1.96 
1.744847263769016 1:4360000.0 2:0.0 3:0.0 4:0.0 5:44.0 6:1.62 
1.7421620555147255 1:1300000.0 2:2.0 3:6.333333333333333 4:6.333333333333333 5:55.0 6:1.2 
1.7414915853034345 1:593000.0 2:0.0 3:8.0 4:8.0 5:72.0 6:1.6 
1.7414404555024114 1:2740000.0 2:0.0 3:0.0 4:0.0 5:69.0 6:3.12 
2.1818157858290954 1:3120000.0 2:1.0 3:0.0 4:0.0 5:261.0 6:5.7 
1.7415203822271321 1:208.0 2:0.0 3:7.5 4:7.5 5:123.0 6:2.5 
1.7414666200670241 1:6990000.0 2:0.0 3:0.0 4:0.0 5:46.0 6:2.94 
1.7414730292850304 1:495000.0 2:0.0 3:0.0 4:0.0 5:196.0 6:4.06 
1.7414729253177752 1:5110000.0 2:0.0 3:0.0 4:0.0 5:58.0 6:2.76 
1.741475786693945 1:230.0 2:0.0 3:10.5 4:10.5 5:147.0 6:2.94 
1.7414761256760825 1:135000.0 2:0.0 3:0.0 4:0.0 5:46.0 6:2.7 
1.7414833341301201 1:182000.0 2:4.0 3:3.4 4:3.4 5:35.0 6:0.7 
1.7697834728200685 1:1.22E7 2:0.0 3:6.0 4:6.0 5:44.0 6:1.74 
1.741497665514479 1:917000.0 2:0.0 3:9.0 4:9.0 5:9.0 6:1.08 
1.7415017927674747 1:312000.0 2:0.0 3:7.0 4:7.0 5:130.0 6:3.5 
1.8033849861827658 1:9720000.0 2:0.0 3:0.0 4:0.0 5:82.0 6:1.66 
1.7415034644853127 1:2.98E7 2:0.0 3:7.0 4:7.0 5:201.0 6:5.24 
2.4583156060742533 1:7.87E7 2:3.0 3:1.0 4:1.0 5:52.0 6:1.76 
1.74150186680694 1:2130000.0 2:0.0 3:0.0 4:0.0 5:161.0 6:3.22 
1.7426438546006415 1:4.07E7 2:3.0 3:0.0 4:0.0 5:42.0 6:1.46 
3.4225918720827977 1:3500000.0 2:2.0 3:6.333333333333333 4:6.333333333333333 5:7.0 6:0.2 
1.7415040504189472 1:6550000.0 2:0.0 3:0.0 4:0.0 5:39.0 6:1.62 
1.7415048948543448 1:201.0 2:0.0 3:0.0 4:0.0 5:164.0 6:3.74 
1.7650729486947383 1:2.2E7 2:0.0 3:0.0 4:0.0 5:100.0 6:2.0 
2.2661740706905324 1:1.17E7 2:2.0 3:0.0 4:0.0 5:65.0 6:1.72 
3.741502104269129 1:5.8E8 2:2.0 3:5.5 4:5.5 5:49.0 6:1.2 
1.7418684434133884 1:970000.0 2:2.0 3:5.0 4:5.0 5:279.0 6:8.34 
1.7415028237569308 1:1.31E8 2:0.0 3:0.0 4:0.0 5:89.0 6:3.38 
1.741468275383639 1:4.09E7 2:0.0 3:0.0 4:0.0 5:64.0 6:2.04 
1.741511092659513 1:5890000.0 2:0.0 3:0.0 4:0.0 5:45.0 6:1.58 
1.744206541473595 1:2440000.0 2:3.0 3:0.0 4:0.0 5:39.0 6:1.46 
1.7413643056265244 1:179.0 2:0.0 3:7.0 4:7.0 5:12.0 6:0.36 
1.6481946238927954 1:9650000.0 2:4.0 3:0.0 4:0.0 5:72.0 6:1.52 
1.741511771087283 1:4500000.0 2:0.0 3:0.0 4:0.0 5:141.0 6:2.92 
4.223382345670471 1:9490000.0 2:0.0 3:0.0 4:0.0 5:58.0 6:1.88 
1.7415133955569821 1:1.56E7 2:0.0 3:0.0 4:0.0 5:74.0 6:1.68 
1.7415142283879663 1:1.77E7 2:0.0 3:0.0 4:0.0 5:34.0 6:2.7 
2.603864450015439 1:2.42E7 2:0.0 3:0.0 4:0.0 5:64.0 6:1.88 
1.7415232670255458 1:122000.0 2:0.0 3:7.5 4:7.5 5:76.0 6:2.22 
2.3486644114224813 1:9730000.0 2:0.0 3:0.0 4:0.0 5:70.0 6:1.68 
4.475137906677313 1:7880000.0 2:3.0 3:4.0 4:4.0 5:45.0 6:2.0 
1.8020147445745196 1:1.07E7 2:3.0 3:0.0 4:0.0 5:36.0 6:1.96 
1.7415324662537943 1:1660000.0 2:0.0 3:0.0 4:0.0 5:51.0 6:1.68 
1.8094807922960199 1:6870000.0 2:0.0 3:3.0 4:3.0 5:49.0 6:1.68 
2.7418626460740723 1:1.2E7 2:0.0 3:0.0 4:0.0 5:37.0 6:1.68 
1.8890302970687278 1:3790000.0 2:2.0 3:4.0 4:4.0 5:43.0 6:1.32 
1.6948607365075514 1:179.0 2:0.0 3:6.333333333333333 4:6.333333333333333 5:190.0 6:3.86 
1.7413452070127615 1:2670000.0 2:0.0 3:8.5 4:8.5 5:55.0 6:2.26 
2.5884703032378105 1:1.29E7 2:1.0 3:5.0 4:5.0 5:282.0 6:6.26 
1.741557303094465 1:4920000.0 2:0.0 3:7.5 4:7.5 5:120.0 6:2.42 
1.7415700936452434 1:7600000.0 2:0.0 3:0.0 4:0.0 5:49.0 6:2.9 
1.7415817161376543 1:6900000.0 2:0.0 3:0.0 4:0.0 5:41.0 6:2.88 
1.7415840728604528 1:8430000.0 2:0.0 3:0.0 4:0.0 5:62.0 6:1.42 
1.7709993819934735 1:7640000.0 2:2.0 3:0.0 4:0.0 5:74.0 6:2.14 
2.678071563232003 1:1.0E7 2:1.0 3:3.5 4:3.5 5:79.0 6:1.66 
1.7415920867999475 1:287000.0 2:0.0 3:0.0 4:0.0 5:88.0 6:4.26 
1.742441643318739 1:363000.0 2:0.0 3:0.0 4:0.0 5:17.0 6:1.5 
0.9539335521274075 1:1.26E7 2:0.0 3:0.0 4:0.0 5:49.0 6:2.16 
2.4706949458519194 1:1.09E7 2:2.0 3:4.0 4:4.0 5:70.0 6:1.6 
2.6978347870649495 1:5430000.0 2:5.0 3:4.0 4:4.0 5:88.0 6:1.78 
2.05939954231491 1:8560000.0 2:0.0 3:6.166666666666667 4:6.166666666666667 5:90.0 6:3.06 
1.7424857296734941 1:2740000.0 2:0.0 3:2.5 4:2.5 5:59.0 6:1.48 
1.7415086552937498 1:1.48E7 2:0.0 3:0.0 4:0.0 5:156.0 6:4.34 
1.741229301762008 1:1150000.0 2:0.0 3:0.0 4:0.0 5:52.0 6:1.46 
3.5035836520927965 1:8730000.0 2:0.0 3:0.0 4:0.0 5:43.0 6:1.7 
1.7416639518204715 1:2030000.0 2:0.0 3:0.0 4:0.0 5:25.0 6:1.28 
1.7416805121251817 1:158000.0 2:0.0 3:0.0 4:0.0 5:23.0 6:1.36 
2.780167164278932 1:1.06E7 2:0.0 3:0.0 4:0.0 5:64.0 6:1.7708333333333333 
2.855708450903599 1:9570000.0 2:4.0 3:3.0 4:3.0 5:61.0 6:1.56 
1.7418568550731877 1:1.21E7 2:0.0 3:8.5 4:8.5 5:41.0 6:2.64 
1.7478178087518932 1:2.29E7 2:0.0 3:1.6666666666666667 4:1.6666666666666667 5:158.0 6:4.18 
1.7416852388161328 1:175000.0 2:0.0 3:0.0 4:0.0 5:153.0 6:3.06 
1.9031283967536403 1:1.56E7 2:1.0 3:6.0 4:6.0 5:54.0 6:1.38 
1.7466792478479882 1:8300000.0 2:0.0 3:0.0 4:0.0 5:68.0 6:1.44 
1.7448593551472316 1:177000.0 2:0.0 3:7.5 4:7.5 5:17.0 6:0.38 
1.7417468145597534 1:3400000.0 2:0.0 3:0.0 4:0.0 5:61.0 6:1.26 
2.2236435649353674 1:1520000.0 2:3.0 3:1.8 4:1.8 5:111.0 6:3.92 
1.7414571771450547 1:1920000.0 2:0.0 3:0.0 4:0.0 5:128.0 6:2.6 
2.8063314564328468 1:203000.0 2:2.0 3:4.5 4:4.5 5:66.0 6:1.48 
1.7417795602911421 1:477000.0 2:0.0 3:0.0 4:0.0 5:51.0 6:1.64 
2.616476128897828 1:3400000.0 2:0.0 3:1.5 4:1.5 5:222.0 6:5.22 
1.9453264920270328 1:7.02E7 2:4.0 3:2.0 4:2.0 5:77.0 6:1.62 
1.7423830423570896 1:3750000.0 2:0.0 3:2.0 4:2.0 5:282.0 6:6.2 
1.741722432120837 1:11400.0 2:0.0 3:0.0 4:0.0 5:113.0 6:2.82 
2.1031614095618796 1:4960000.0 2:0.0 3:0.0 4:0.0 5:85.0 6:1.88 
1.7420541202671227 1:9180000.0 2:0.0 3:0.0 4:0.0 5:39.0 6:1.58 
1.7842546937116754 1:570000.0 2:0.0 3:0.0 4:0.0 5:68.0 6:1.4 
1.741362102405612 1:1.36E7 2:0.0 3:0.0 4:0.0 5:43.0 6:1.84 
1.8566615491999323 1:1.34E7 2:0.0 3:0.0 4:0.0 5:78.0 6:1.56 
1.747573750852549 1:1550000.0 2:0.0 3:0.0 4:0.0 5:61.0 6:1.24 
1.743424509296423 1:1.38E8 2:0.0 3:5.5 4:5.5 5:80.0 6:3.34 
1.7890672362808935 1:2.42E7 2:0.0 3:0.0 4:0.0 5:29.0 6:1.697674418604651 
1.8093203051864863 1:1.01E8 2:0.0 3:0.0 4:0.0 5:82.0 6:1.68 
1.741787089139307 1:1690000.0 2:0.0 3:8.0 4:8.0 5:71.0 6:2.04 
1.741786921147701 1:452000.0 2:0.0 3:0.0 4:0.0 5:264.0 6:5.7 
2.1361830886568014 1:2.26E7 2:4.0 3:1.0 4:1.0 5:57.0 6:2.22 
2.7337093039864975 1:1.43E7 2:0.0 3:0.0 4:0.0 5:56.0 6:2.16 
3.1028205775327367 1:3330000.0 2:1.0 3:5.0 4:5.0 5:46.0 6:1.02 
2.349100524912304 1:1.47E7 2:2.0 3:4.0 4:4.0 5:48.0 6:2.06 
1.8043248643628869 1:5.68E7 2:0.0 3:4.5 4:4.5 5:39.0 6:2.22 
1.7417885150118047 1:3.69E7 2:0.0 3:0.0 4:0.0 5:56.0 6:1.84 
1.7417874239292765 1:4.64E7 2:0.0 3:0.0 4:0.0 5:23.0 6:1.7105263157894737 
1.9142830132925392 1:1.25E7 2:0.0 3:0.0 4:0.0 5:55.0 6:1.54 
2.58847081780816 1:1.27E7 2:0.0 3:0.0 4:0.0 5:167.0 6:4.58 
2.0667792623000905 1:1.27E7 2:9.0 3:0.5 4:0.5 5:42.0 6:0.86 
1.7418508672919932 1:1.76E7 2:0.0 3:0.0 4:0.0 5:35.0 6:1.48 
1.7413267317632797 1:5.04E7 2:2.0 3:6.0 4:6.0 5:107.0 6:2.72 
1.7423914775312452 1:4180000.0 2:0.0 3:0.0 4:0.0 5:56.0 6:2.72 
1.7419157520199477 1:8.21E7 2:0.0 3:0.0 4:0.0 5:27.0 6:1.8333333333333333 
1.7417994654791407 1:171000.0 2:0.0 3:0.0 4:0.0 5:53.0 6:3.04 
2.741797303088622 1:1.43E8 2:0.0 3:0.0 4:0.0 5:27.0 6:1.78 
2.3480164390570377 1:75200.0 2:2.0 3:6.0 4:6.0 5:15.0 6:0.3 
1.7952647528441719 1:3.68E7 2:0.0 3:0.0 4:0.0 5:42.0 6:1.74 
1.7417988668583961 1:4.29E7 2:0.0 3:0.0 4:0.0 5:89.0 6:1.82 
1.7417997692324945 1:1240000.0 2:0.0 3:0.0 4:0.0 5:144.0 6:2.9 
1.7412345427586318 1:6510000.0 2:0.0 3:0.0 4:0.0 5:69.0 6:2.52 
2.2141871503409702 1:1960000.0 2:1.0 3:6.0 4:6.0 5:140.0 6:6.02 
1.741799247565639 1:6.18E7 2:0.0 3:7.333333333333333 4:7.333333333333333 5:70.0 6:3.84 
1.741800388715033 1:229000.0 2:0.0 3:7.666666666666667 4:7.666666666666667 5:187.0 6:3.74 
1.7418100798263123 1:6180000.0 2:0.0 3:0.0 4:0.0 5:49.0 6:1.3 
2.1435468686299277 1:1.22E7 2:4.0 3:1.5 4:1.5 5:57.0 6:1.3 
1.8277608400145657 1:2.95E7 2:0.0 3:1.0 4:1.0 5:57.0 6:1.56 
1.7442684190255786 1:1.17E7 2:0.0 3:0.0 4:0.0 5:76.0 6:1.88 
2.3518924780056714 1:3550000.0 2:0.0 3:0.0 4:0.0 5:42.0 6:1.46 
1.7415938746249702 1:9060000.0 2:0.0 3:0.0 4:0.0 5:63.0 6:1.98 
1.7418109333655893 1:169000.0 2:0.0 3:0.0 4:0.0 5:57.0 6:3.74 
1.808141091062931 1:4690000.0 2:2.0 3:5.0 4:5.0 5:29.0 6:1.02 
1.7421854596495112 1:4.66E7 2:0.0 3:0.0 4:0.0 5:84.0 6:1.78 
1.7418139512519524 1:8.28E7 2:0.0 3:0.0 4:0.0 5:66.0 6:4.2 
1.7551893359042712 1:226000.0 2:3.0 3:0.0 4:0.0 5:64.0 6:1.34 
1.4239730139854174 1:8600000.0 2:0.0 3:0.0 4:0.0 5:63.0 6:1.32 
1.661417947246465 1:3.68E7 2:4.0 3:0.0 4:0.0 5:42.0 6:1.74 
1.1839105790548283 1:2820000.0 2:0.0 3:0.0 4:0.0 5:34.0 6:2.22 
1.741814342763988 1:3.07E7 2:0.0 3:0.0 4:0.0 5:57.0 6:1.64 
1.8094801282383652 1:2300000.0 2:2.0 3:0.0 4:0.0 5:126.0 6:2.54 
1.7742489116367224 1:2.06E7 2:4.0 3:0.0 4:0.0 5:78.0 6:1.58 
1.7419247360027685 1:326000.0 2:0.0 3:0.0 4:0.0 5:33.0 6:1.18 
2.741815035348378 1:1.0E8 2:0.0 3:0.0 4:0.0 5:123.0 6:2.64 
1.7658465747480108 1:6.64E7 2:6.0 3:2.4285714285714284 4:2.4285714285714284 5:66.0 6:1.8 
1.741330284765208 1:195.0 2:0.0 3:6.666666666666667 4:6.666666666666667 5:177.0 6:3.58 
2.5950394700139507 1:1.11E7 2:0.0 3:0.0 4:0.0 5:27.0 6:1.3191489361702127 
0.9534284391483621 1:1.26E7 2:0.0 3:0.0 4:0.0 5:48.0 6:1.82 
1.7414940110580672 1:1390000.0 2:0.0 3:0.0 4:0.0 5:59.0 6:3.32 
1.7416347293689087 1:1.98E7 2:0.0 3:9.5 4:9.5 5:53.0 6:2.34 
2.7691874476383056 1:8640000.0 2:1.0 3:3.5 4:3.5 5:42.0 6:1.68 
1.7418161812812172 1:7130000.0 2:0.0 3:0.0 4:0.0 5:110.0 6:2.38 
1.832256194737996 1:1.16E8 2:0.0 3:0.0 4:0.0 5:36.0 6:1.56 
1.741816143895854 1:2690000.0 2:0.0 3:0.0 4:0.0 5:147.0 6:3.0 
2.2489081382519345 1:8180000.0 2:0.0 3:0.0 4:0.0 5:56.0 6:2.04 
1.7413575670057684 1:8520000.0 2:0.0 3:0.0 4:0.0 5:30.0 6:1.64 
1.7418175227844 1:1.05E8 2:0.0 3:0.0 4:0.0 5:75.0 6:1.52 
2.7413268817065433 1:6.93E7 2:0.0 3:0.0 4:0.0 5:52.0 6:3.02 
8.992997198879552 1:2.81E8 2:3.0 3:4.0 4:4.0 5:44.0 6:1.7 
1.7422900198390647 1:2930000.0 2:0.0 3:0.0 4:0.0 5:27.0 6:1.6 
1.7605922912805603 1:112000.0 2:0.0 3:0.0 4:0.0 5:56.0 6:1.3 
1.7418453297460261 1:2660000.0 2:0.0 3:0.0 4:0.0 5:32.0 6:4.6 
1.741817819935607 1:430000.0 2:0.0 3:0.0 4:0.0 5:48.0 6:3.0 
1.741819980972642 1:624000.0 2:0.0 3:0.0 4:0.0 5:115.0 6:4.0 
1.741820608716901 1:8910000.0 2:0.0 3:0.0 4:0.0 5:22.0 6:1.4 
1.7418201744469712 1:224.0 2:0.0 3:0.0 4:0.0 5:26.0 6:0.54 
1.7418201456193638 1:242000.0 2:0.0 3:12.0 4:12.0 5:3.0 6:0.06 
1.7780781707197115 1:8760000.0 2:0.0 3:0.0 4:0.0 5:47.0 6:1.78 
1.7418196284437435 1:423000.0 2:0.0 3:0.0 4:0.0 5:73.0 6:1.6 
1.7418195010240796 1:4.28E7 2:0.0 3:0.0 4:0.0 5:120.0 6:2.78 
1.7477170622432874 1:8530000.0 2:1.0 3:0.0 4:0.0 5:66.0 6:1.56 
1.741818087785195 1:565000.0 2:0.0 3:7.333333333333333 4:7.333333333333333 5:52.0 6:3.48 
1.741817461675941 1:8460000.0 2:0.0 3:0.0 4:0.0 5:58.0 6:1.18 
1.7418163586312714 1:6340000.0 2:0.0 3:0.0 4:0.0 5:60.0 6:1.74 
1.7413687901106025 1:8790000.0 2:0.0 3:0.0 4:0.0 5:59.0 6:1.62 
1.7418148097293997 1:6910000.0 2:0.0 3:0.0 4:0.0 5:43.0 6:1.6 
1.7413400018853882 1:280000.0 2:0.0 3:9.0 4:9.0 5:113.0 6:2.26 
3.214936503352203 1:1.21E7 2:3.0 3:0.0 4:0.0 5:78.0 6:1.66 
2.7440588918851763 1:2.15E7 2:0.0 3:0.0 4:0.0 5:47.0 6:1.6 
1.694792223777768 1:182.0 2:0.0 3:5.0 4:5.0 5:187.0 6:3.92 
2.5344204615578314 1:1.07E7 2:0.0 3:0.0 4:0.0 5:28.0 6:1.44 
1.7418350663816395 1:1.4E7 2:0.0 3:4.0 4:4.0 5:225.0 6:4.84 
2.163077240377329 1:9090000.0 2:0.0 3:0.0 4:0.0 5:50.0 6:1.6041666666666667 
1.7540121321295148 1:7170000.0 2:0.0 3:0.0 4:0.0 5:37.0 6:1.434782608695652 
1.7417914274939734 1:9510000.0 2:0.0 3:0.0 4:0.0 5:34.0 6:2.0 
2.522005198919949 1:7230000.0 2:4.0 3:4.0 4:4.0 5:82.0 6:1.66 
7.79475707415577 1:5.28E7 2:2.0 3:0.0 4:0.0 5:57.0 6:1.7333333333333334 
2.0958408545643734 1:8690000.0 2:0.0 3:0.0 4:0.0 5:64.0 6:2.38 
1.7419621231014817 1:1.52E7 2:0.0 3:0.0 4:0.0 5:47.0 6:2.2 
4.741857653900621 1:8.4E8 2:3.0 3:0.0 4:0.0 5:60.0 6:1.56 
1.7413415304413493 1:208.0 2:0.0 3:8.5 4:8.5 5:92.0 6:1.98 
1.742484705510499 1:1.14E7 2:0.0 3:0.0 4:0.0 5:43.0 6:1.72 
1.7418586863416596 1:241.0 2:0.0 3:6.0 4:6.0 5:87.0 6:1.88 
1.7418774980091614 1:243000.0 2:0.0 3:0.0 4:0.0 5:290.0 6:6.44 
1.7418790208442987 1:250000.0 2:20.0 3:4.0 4:4.0 5:106.0 6:4.7 
1.741884276434507 1:2770000.0 2:0.0 3:0.0 4:0.0 5:68.0 6:3.1 
1.7554567948011275 1:1.19E7 2:0.0 3:0.0 4:0.0 5:73.0 6:1.82 
1.7418910195447543 1:3340000.0 2:0.0 3:0.0 4:0.0 5:77.0 6:2.8 
5.613659233980462 1:1.14E7 2:2.0 3:0.0 4:0.0 5:65.0 6:2.0 
1.7413439074768073 1:1.94E7 2:0.0 3:9.5 4:9.5 5:100.0 6:2.0 
1.789075227075898 1:2.33E7 2:2.0 3:0.0 4:0.0 5:73.0 6:1.56 
4.843633792327688 1:1.2E7 2:4.0 3:3.0 4:3.0 5:67.0 6:1.84 
1.9107267865822173 1:177000.0 2:3.0 3:1.0 4:1.0 5:156.0 6:3.52 
1.7419069335089605 1:2950000.0 2:0.0 3:0.0 4:0.0 5:54.0 6:2.68 
1.7419058295359673 1:1.77E7 2:0.0 3:10.0 4:10.0 5:49.0 6:2.9 
1.7470043017355066 1:9250000.0 2:0.0 3:0.0 4:0.0 5:52.0 6:1.34 
1.7417151692519857 1:8280000.0 2:0.0 3:0.0 4:0.0 5:27.0 6:1.16 
1.7419444669808641 1:7810000.0 2:0.0 3:0.0 4:0.0 5:48.0 6:2.98 
1.7929173121407491 1:3180000.0 2:0.0 3:3.0 4:3.0 5:67.0 6:1.64 
1.7419556986831928 1:6080000.0 2:0.0 3:8.5 4:8.5 5:129.0 6:2.64 
1.7370451105857658 1:238000.0 2:0.0 3:0.0 4:0.0 5:123.0 6:2.88 
1.9902132953926988 1:1.94E7 2:1.0 3:4.5 4:4.5 5:39.0 6:1.84 
1.7419733905916566 1:608000.0 2:0.0 3:0.0 4:0.0 5:24.0 6:1.12 
1.7419009441612656 1:288000.0 2:0.0 3:0.0 4:0.0 5:29.0 6:2.76 
1.7412019589620575 1:107000.0 2:0.0 3:0.0 4:0.0 5:146.0 6:3.6 
1.742043780174026 1:182000.0 2:0.0 3:0.0 4:0.0 5:157.0 6:3.56 
1.7420789122450637 1:2540000.0 2:0.0 3:0.0 4:0.0 5:40.0 6:1.66 
1.7420868315686144 1:1.42E8 2:0.0 3:0.0 4:0.0 5:50.0 6:3.0 
4.74208806285154 1:7.93E7 2:0.0 3:0.0 4:0.0 5:51.0 6:1.34 
1.7458710264895914 1:8080000.0 2:2.0 3:3.5 4:3.5 5:58.0 6:2.04 
1.9171306836326045 1:1.99E7 2:2.0 3:0.0 4:0.0 5:65.0 6:1.86 
1.741857196083287 1:1.02E9 2:0.0 3:0.0 4:0.0 5:45.0 6:1.76 
3.8352493408791117 1:4.0E7 2:2.0 3:7.333333333333333 4:7.333333333333333 5:28.0 6:0.62 
1.7415299820136632 1:248.0 2:0.0 3:7.333333333333333 4:7.333333333333333 5:182.0 6:3.72 
1.7420212083109097 1:9620000.0 2:0.0 3:0.0 4:0.0 5:86.0 6:1.78 
1.7421328186756708 1:129000.0 2:0.0 3:0.0 4:0.0 5:155.0 6:3.54 
1.7421404296659944 1:3580000.0 2:0.0 3:0.0 4:0.0 5:78.0 6:1.62 
1.7425425808709352 1:2390000.0 2:0.0 3:0.0 4:0.0 5:54.0 6:1.64 
1.7413141590396501 1:3.19E7 2:0.0 3:0.0 4:0.0 5:37.0 6:1.5 
1.7418368657704297 1:2100000.0 2:0.0 3:0.0 4:0.0 5:31.0 6:1.44 
1.7427185832509582 1:6360000.0 2:0.0 3:0.0 4:0.0 5:40.0 6:2.06 
1.2138852105069078 1:4.99E7 2:0.0 3:0.0 4:0.0 5:42.0 6:3.4 
1.7416382722990775 1:189000.0 2:0.0 3:0.0 4:0.0 5:90.0 6:2.82 
1.7424481282256876 1:8470000.0 2:0.0 3:0.0 4:0.0 5:57.0 6:1.78 
1.7416339363692095 1:2.68E7 2:0.0 3:0.0 4:0.0 5:46.0 6:2.24 
1.741327357466224 1:5430000.0 2:0.0 3:6.5 4:6.5 5:99.0 6:2.66 
1.7610091970244808 1:9410000.0 2:0.0 3:0.0 4:0.0 5:53.0 6:2.54 
1.7499254073452841 1:4.19E7 2:3.0 3:6.666666666666667 4:6.666666666666667 5:53.0 6:1.32 
1.74169011523093 1:150000.0 2:6.0 3:4.6 4:4.6 5:66.0 6:1.74 
1.8889024561538892 1:9570000.0 2:0.0 3:0.0 4:0.0 5:55.0 6:1.72 
1.742082580687497 1:2320000.0 2:0.0 3:0.0 4:0.0 5:29.0 6:1.04 
2.5591474899794395 1:1.04E7 2:0.0 3:3.0 4:3.0 5:42.0 6:1.5 
1.7596655527652556 1:9800000.0 2:1.0 3:4.666666666666667 4:4.666666666666667 5:19.0 6:1.36 
2.2228715268929276 1:4790000.0 2:1.0 3:0.0 4:0.0 5:35.0 6:1.76 
1.741587416151948 1:239000.0 2:0.0 3:0.0 4:0.0 5:88.0 6:4.26 
2.348193974501571 1:7560000.0 2:0.0 3:0.0 4:0.0 5:59.0 6:1.58 
1.7435164073706986 1:6720000.0 2:0.0 3:0.0 4:0.0 5:37.0 6:1.78 
1.7415879416023943 1:343000.0 2:0.0 3:0.0 4:0.0 5:75.0 6:2.04 
3.154303854427798 1:9710000.0 2:0.0 3:3.25 4:3.25 5:69.0 6:1.46 
1.7366541473877655 1:2.26E7 2:0.0 3:0.0 4:0.0 5:53.0 6:1.44 
1.7415685052519105 1:3640000.0 2:0.0 3:0.0 4:0.0 5:136.0 6:2.88 
1.7420204226972638 1:7.95E7 2:0.0 3:0.0 4:0.0 5:35.0 6:1.78 
1.7415803389836066 1:4160000.0 2:0.0 3:0.0 4:0.0 5:70.0 6:1.52 
1.741367862757163 1:1.0E7 2:0.0 3:0.0 4:0.0 5:54.0 6:1.62 
1.7418524431718094 1:1.35E7 2:0.0 3:0.0 4:0.0 5:162.0 6:3.26 
1.7415798640279594 1:3680000.0 2:0.0 3:8.0 4:8.0 5:120.0 6:2.48 
2.937148952560263 1:2340000.0 2:0.0 3:7.75 4:7.75 5:4.0 6:0.16 
1.7413620268668915 1:6310000.0 2:0.0 3:0.0 4:0.0 5:38.0 6:1.8 
1.752891479861516 1:1550000.0 2:0.0 3:0.0 4:0.0 5:52.0 6:1.76 
0.9484794719231298 1:1040000.0 2:0.0 3:0.0 4:0.0 5:39.0 6:1.0 
1.742620597096765 1:1.55E7 2:0.0 3:4.0 4:4.0 5:33.0 6:1.0 
1.7415312241718937 1:6.95E7 2:0.0 3:0.0 4:0.0 5:27.0 6:1.12 
1.7868690067173087 1:4100000.0 2:0.0 3:0.0 4:0.0 5:40.0 6:1.7 
1.7415313278221312 1:9110000.0 2:0.0 3:0.0 4:0.0 5:49.0 6:1.82 
2.743384669138908 1:7.4E7 2:0.0 3:0.0 4:0.0 5:29.0 6:1.18 
1.7415394405140077 1:1.05E7 2:0.0 3:0.0 4:0.0 5:139.0 6:2.78 
2.585641303664174 1:4620000.0 2:0.0 3:0.0 4:0.0 5:56.0 6:1.5 
1.7416164126388558 1:9650000.0 2:0.0 3:0.0 4:0.0 5:49.0 6:1.44 
1.741513687197934 1:2850000.0 2:0.0 3:0.0 4:0.0 5:28.0 6:1.54 
1.7889648725945622 1:81100.0 2:0.0 3:3.0 4:3.0 5:76.0 6:1.52 
1.7422247718897392 1:774000.0 2:1.0 3:0.0 4:0.0 5:67.0 6:1.52 
2.7714033844570123 1:1.03E8 2:0.0 3:0.0 4:0.0 5:30.0 6:1.4 
1.7415121984594846 1:184000.0 2:0.0 3:0.0 4:0.0 5:110.0 6:2.7 
1.741508684514283 1:4550000.0 2:0.0 3:0.0 4:0.0 5:52.0 6:1.5 
1.7414955784417698 1:3930000.0 2:5.0 3:10.0 4:10.0 5:112.0 6:3.6 
1.7413267025473425 1:4310.0 2:1.0 3:10.0 4:10.0 5:53.0 6:1.28 
2.7433716346013313 1:3.63E8 2:3.0 3:1.0 4:1.0 5:76.0 6:1.6 
2.7414680541376013 1:7540000.0 2:0.0 3:0.0 4:0.0 5:77.0 6:1.54 
1.7918660351967255 1:1.05E7 2:0.0 3:4.0 4:4.0 5:30.0 6:2.4 
1.7414295118158618 1:4.45E7 2:0.0 3:6.666666666666667 4:6.666666666666667 5:79.0 6:4.12 
1.7451762945719411 1:9250000.0 2:0.0 3:0.0 4:0.0 5:40.0 6:1.74 
1.7921809297563889 1:2660000.0 2:1.0 3:2.5 4:2.5 5:38.0 6:1.94 
1.7418661322157636 1:133000.0 2:0.0 3:0.0 4:0.0 5:132.0 6:2.7 
1.7414226883555242 1:1910000.0 2:0.0 3:0.0 4:0.0 5:76.0 6:1.52 
4.741433532069977 1:4.21E8 2:0.0 3:0.0 4:0.0 5:59.0 6:2.16 
1.7414425561163895 1:7880000.0 2:0.0 3:0.0 4:0.0 5:107.0 6:2.26 
1.7424874979960112 1:1.91E7 2:0.0 3:0.0 4:0.0 5:24.0 6:1.52 
1.7413732316265924 1:778000.0 2:0.0 3:16.0 4:16.0 5:1.0 6:0.04 
1.7458580739451548 1:4090000.0 2:0.0 3:0.0 4:0.0 5:30.0 6:1.66 
1.7413732077938913 1:1.6E7 2:0.0 3:0.0 4:0.0 5:40.0 6:1.8 
2.4174960675802546 1:1.22E7 2:0.0 3:1.0 4:1.0 5:45.0 6:1.56 
1.7413643056265156 1:73000.0 2:0.0 3:0.0 4:0.0 5:56.0 6:1.18 
1.7413664766029653 1:83400.0 2:0.0 3:0.0 4:0.0 5:89.0 6:4.16 
1.7413624455934729 1:925000.0 2:0.0 3:7.333333333333333 4:7.333333333333333 5:186.0 6:3.92 
2.2624465757743897 1:9620000.0 2:0.0 3:7.0 4:7.0 5:39.0 6:1.46 
1.741337746444915 1:9530000.0 2:0.0 3:9.5 4:9.5 5:118.0 6:2.38 
1.742010657929933 1:1.31E7 2:0.0 3:0.0 4:0.0 5:76.0 6:1.58 
1.742080424517081 1:2660000.0 2:0.0 3:0.0 4:0.0 5:210.0 6:4.24 
1.7413491674215438 1:8.33E7 2:0.0 3:0.0 4:0.0 5:43.0 6:2.3 
1.7413543742602964 1:2450000.0 2:0.0 3:0.0 4:0.0 5:131.0 6:3.38 
1.7413483449289318 1:9.56E7 2:0.0 3:0.0 4:0.0 5:40.0 6:1.52 
1.7412635182064118 1:214000.0 2:0.0 3:0.0 4:0.0 5:138.0 6:2.8 
1.9785423411800938 1:4320000.0 2:0.0 3:3.5 4:3.5 5:55.0 6:1.52 
2.8242898600973545 1:9180000.0 2:3.0 3:6.5 4:6.5 5:32.0 6:1.38 
1.765115170507876 1:8700000.0 2:0.0 3:0.0 4:0.0 5:56.0 6:1.64 
2.7416862995017315 1:5.2E7 2:0.0 3:0.0 4:0.0 5:158.0 6:3.18 
1.7413608665749196 1:2.9E7 2:0.0 3:5.0 4:5.0 5:115.0 6:2.68 
1.804594353820523 1:1840000.0 2:0.0 3:1.0 4:1.0 5:38.0 6:0.9 
1.7413623512600613 1:7000000.0 2:0.0 3:10.0 4:10.0 5:19.0 6:1.28 
1.7413897301507901 1:1.54E7 2:0.0 3:0.0 4:0.0 5:47.0 6:1.58 
1.754786830430305 1:3.21E7 2:0.0 3:0.0 4:0.0 5:18.0 6:1.048780487804878 
1.7413640416407938 1:1850000.0 2:0.0 3:0.0 4:0.0 5:152.0 6:4.76 
2.854819996307161 1:216000.0 2:3.0 3:8.5 4:8.5 5:57.0 6:1.16 
1.7413159600673356 1:1.65E7 2:0.0 3:0.0 4:0.0 5:55.0 6:3.1 
1.9437569924998446 1:1.13E8 2:0.0 3:0.0 4:0.0 5:47.0 6:1.64 
1.7413634177116484 1:901000.0 2:0.0 3:0.0 4:0.0 5:253.0 6:5.48 
1.7568296763356257 1:7.11E7 2:0.0 3:0.0 4:0.0 5:61.0 6:2.54 
1.7413798383719412 1:6070000.0 2:0.0 3:0.0 4:0.0 5:41.0 6:1.78 
6.765968344318495 1:1.25E8 2:0.0 3:0.0 4:0.0 5:54.0 6:1.44 
2.739638470171139 1:1.02E7 2:0.0 3:0.0 4:0.0 5:41.0 6:1.565217391304348 
2.508360653347753 1:2.52E7 2:3.0 3:0.0 4:0.0 5:68.0 6:1.5 
1.7857650211624625 1:2550000.0 2:0.0 3:0.0 4:0.0 5:45.0 6:1.54 
1.74138288187278 1:3.48E7 2:2.0 3:6.0 4:6.0 5:59.0 6:4.04 
1.7633825857629202 1:1.06E7 2:0.0 3:0.0 4:0.0 5:51.0 6:2.32 
1.7413890941876156 1:3600000.0 2:0.0 3:0.0 4:0.0 5:70.0 6:1.42 
1.7414216657188524 1:2180000.0 2:0.0 3:0.0 4:0.0 5:101.0 6:2.64 
1.7435061608675082 1:9520000.0 2:1.0 3:0.0 4:0.0 5:79.0 6:1.66 
3.033892486774939 1:2390000.0 2:4.0 3:4.0 4:4.0 5:40.0 6:1.12 
2.2242713723777907 1:8550000.0 2:3.0 3:3.0 4:3.0 5:78.0 6:1.56 
1.7414250011169818 1:179000.0 2:0.0 3:0.0 4:0.0 5:239.0 6:5.0 
3.3395154800227944 1:1.05E7 2:0.0 3:0.0 4:0.0 5:67.0 6:2.02 
2.856547991995947 1:3070000.0 2:1.0 3:5.5 4:5.5 5:77.0 6:1.6 
1.7414596726094205 1:227000.0 2:0.0 3:0.0 4:0.0 5:96.0 6:2.52 
1.7414563745073857 1:2190000.0 2:0.0 3:0.0 4:0.0 5:96.0 6:2.96 
1.7414607427093962 1:263000.0 2:0.0 3:12.0 4:12.0 5:2.0 6:0.06 
1.7414417656205528 1:2.42E7 2:0.0 3:0.0 4:0.0 5:197.0 6:4.02 
1.7414555880942442 1:3630000.0 2:0.0 3:8.0 4:8.0 5:30.0 6:2.28 
1.7681449007272028 1:1780000.0 2:3.0 3:5.333333333333333 4:5.333333333333333 5:157.0 6:3.94 
2.846823766610394 1:1610000.0 2:0.0 3:7.0 4:7.0 5:4.0 6:0.12 
1.7425518256990946 1:208000.0 2:0.0 3:6.5 4:6.5 5:0.0 6:0.0 
1.7421138035277455 1:355000.0 2:2.0 3:0.0 4:0.0 5:57.0 6:1.16 
1.7414778821185748 1:2160000.0 2:0.0 3:0.0 4:0.0 5:65.0 6:3.6 
1.7414394811782328 1:6800000.0 2:0.0 3:0.0 4:0.0 5:43.0 6:1.58 
1.7626386231227502 1:7080000.0 2:0.0 3:1.0 4:1.0 5:51.0 6:1.7 
1.7414175160869656 1:2490000.0 2:0.0 3:10.0 4:10.0 5:127.0 6:2.54 
1.7413862175530144 1:254000.0 2:0.0 3:0.0 4:0.0 5:104.0 6:2.48 
1.742329846743748 1:5070000.0 2:0.0 3:0.0 4:0.0 5:48.0 6:1.22 
1.7415231851650397 1:217.0 2:0.0 3:10.0 4:10.0 5:128.0 6:2.6 
1.7414015316780302 1:7.18E8 2:0.0 3:0.0 4:0.0 5:45.0 6:1.7272727272727273 
1.7414256164192348 1:169000.0 2:0.0 3:0.0 4:0.0 5:182.0 6:3.66 
1.7413145244677584 1:214000.0 2:0.0 3:7.5 4:7.5 5:96.0 6:2.66 
2.5384193715859844 1:346000.0 2:1.0 3:8.0 4:8.0 5:7.0 6:0.14 
1.7414275144477698 1:2610000.0 2:0.0 3:0.0 4:0.0 5:125.0 6:2.72 
1.7414186831370397 1:1.82E7 2:0.0 3:0.0 4:0.0 5:76.0 6:1.56 
1.7414575475147096 1:54400.0 2:0.0 3:0.0 4:0.0 5:263.0 6:6.28 
1.73704043875486 1:1.45E7 2:0.0 3:0.0 4:0.0 5:37.0 6:1.92 
1.7414727805831474 1:559.0 2:0.0 3:0.0 4:0.0 5:46.0 6:2.08 
1.7424384088923086 1:1.18E7 2:0.0 3:0.0 4:0.0 5:36.0 6:1.52 
1.7414834586715708 1:6230000.0 2:0.0 3:0.0 4:0.0 5:29.0 6:0.82 
1.7413305514274955 1:2.89E7 2:0.0 3:0.0 4:0.0 5:60.0 6:1.24 
1.741486786582731 1:179000.0 2:0.0 3:0.0 4:0.0 5:95.0 6:6.78 
1.749324044259494 1:1.09E7 2:1.0 3:0.0 4:0.0 5:41.0 6:1.84 
1.8093217590565291 1:9.62E7 2:0.0 3:1.2 4:1.2 5:141.0 6:3.14 
2.7428177130645794 1:1.9E8 2:0.0 3:1.0 4:1.0 5:47.0 6:1.44 
2.3850506459207295 1:1.12E7 2:0.0 3:0.0 4:0.0 5:35.0 6:1.48 
1.7414935728027818 1:2.51E7 2:0.0 3:8.0 4:8.0 5:190.0 6:3.86 
2.271667521588738 1:1.19E7 2:0.0 3:1.0 4:1.0 5:49.0 6:1.9 
1.7425410136666268 1:1.5E7 2:0.0 3:0.0 4:0.0 5:80.0 6:1.64 
2.1634984275424958 1:3430000.0 2:0.0 3:4.8 4:4.8 5:54.0 6:2.06 
1.7414940917774722 1:142000.0 2:0.0 3:0.0 4:0.0 5:40.0 6:1.38 
1.7414968013032261 1:2270000.0 2:0.0 3:0.0 4:0.0 5:13.0 6:1.68 
2.347126723625151 1:4310000.0 2:7.0 3:5.6 4:5.6 5:284.0 6:5.92 
1.874340856076946 1:2.56E7 2:1.0 3:4.0 4:4.0 5:68.0 6:1.38 
1.7416084906553637 1:4940000.0 2:0.0 3:0.0 4:0.0 5:42.0 6:1.88 
1.7415006905915575 1:249000.0 2:0.0 3:0.0 4:0.0 5:110.0 6:2.42 
1.7426038613546289 1:9160000.0 2:0.0 3:0.0 4:0.0 5:28.0 6:1.62 
1.741480010516069 1:1820000.0 2:0.0 3:0.0 4:0.0 5:70.0 6:2.0 
1.7418748950918852 1:9380000.0 2:0.0 3:0.0 4:0.0 5:73.0 6:2.06 
1.7416371763138487 1:6600000.0 2:4.0 3:0.0 4:0.0 5:46.0 6:1.64 
1.7427098710333913 1:3050000.0 2:0.0 3:0.0 4:0.0 5:42.0 6:1.92 
1.741553086609629 1:3090000.0 2:0.0 3:0.0 4:0.0 5:27.0 6:1.32 
1.7427110179406164 1:3220000.0 2:13.0 3:2.0 4:2.0 5:97.0 6:2.86 
1.741478095569626 1:2.08E7 2:12.0 3:3.0 4:3.0 5:159.0 6:5.96 
1.7421104336277564 1:1.58E7 2:0.0 3:0.0 4:0.0 5:62.0 6:2.74 
1.8959632927647787 1:4190000.0 2:2.0 3:4.5 4:4.5 5:112.0 6:2.74 
1.7441053474468793 1:2.46E7 2:0.0 3:7.5 4:7.5 5:43.0 6:2.78 
1.7416196560059511 1:9640000.0 2:0.0 3:0.0 4:0.0 5:68.0 6:1.5 
2.3481556107465567 1:2.37E7 2:2.0 3:4.5 4:4.5 5:24.0 6:1.28 
2.79093535916121 1:4840000.0 2:3.0 3:1.0 4:1.0 5:147.0 6:4.18 
1.7414737993536786 1:3240000.0 2:44.0 3:2.8 4:2.8 5:189.0 6:4.52 
3.124017331281289 1:4.18E7 2:3.0 3:0.0 4:0.0 5:56.0 6:1.7 
1.62925663750779 1:1.04E7 2:4.0 3:0.0 4:0.0 5:90.0 6:1.96 
1.7414350568611743 1:3950000.0 2:0.0 3:0.0 4:0.0 5:170.0 6:3.46 
1.7422451495344107 1:2030000.0 2:0.0 3:0.0 4:0.0 5:64.0 6:1.32 
1.7417747643383965 1:9490000.0 2:0.0 3:0.0 4:0.0 5:35.0 6:1.82 
1.7414079444207817 1:1910000.0 2:0.0 3:0.0 4:0.0 5:50.0 6:1.78 
2.741384944080837 1:7.5E7 2:0.0 3:0.0 4:0.0 5:45.0 6:1.28 
1.741341909638097 1:2.13E7 2:0.0 3:0.0 4:0.0 5:31.0 6:1.62 
1.18455220969884 1:2820000.0 2:0.0 3:0.0 4:0.0 5:36.0 6:2.94 
1.7413856068939815 1:4600000.0 2:0.0 3:7.5 4:7.5 5:115.0 6:2.32 
2.767907456535421 1:8.19E7 2:4.0 3:1.0 4:1.0 5:52.0 6:2.02 
1.7413887768610952 1:2650000.0 2:0.0 3:0.0 4:0.0 5:60.0 6:3.04 
1.7414217675616204 1:4.36E7 2:0.0 3:0.0 4:0.0 5:33.0 6:1.54 
1.893578455903448 1:3370000.0 2:0.0 3:0.0 4:0.0 5:63.0 6:1.34 
1.888264150777939 1:2.37E7 2:0.0 3:0.0 4:0.0 5:21.0 6:1.62 
2.1095579259502766 1:144000.0 2:1.0 3:4.0 4:4.0 5:57.0 6:1.14 
1.752887266888793 1:9060000.0 2:0.0 3:0.0 4:0.0 5:32.0 6:1.6046511627906976 
1.7413663213554502 1:1.0E7 2:0.0 3:0.0 4:0.0 5:44.0 6:1.82 
1.6295830300482483 1:1.04E7 2:0.0 3:0.0 4:0.0 5:90.0 6:1.96 
2.7414457680942306 1:5.96E7 2:0.0 3:0.0 4:0.0 5:24.0 6:1.46 
1.7414323284635569 1:1920000.0 2:0.0 3:0.0 4:0.0 5:56.0 6:2.58 
1.741423747215865 1:1990000.0 2:0.0 3:0.0 4:0.0 5:62.0 6:1.72 
1.893005218094324 1:9830000.0 2:0.0 3:0.0 4:0.0 5:23.0 6:1.34 
1.742746070428859 1:142000.0 2:0.0 3:2.6666666666666665 4:2.6666666666666665 5:147.0 6:3.86 
3.9678988114995155 1:1.1E7 2:0.0 3:0.0 4:0.0 5:63.0 6:1.62 
1.7414177632587404 1:4.02E8 2:0.0 3:0.0 4:0.0 5:41.0 6:1.631578947368421 
1.7413709522117986 1:187000.0 2:0.0 3:4.333333333333333 4:4.333333333333333 5:106.0 6:3.48 
1.7419037546562168 1:2.02E7 2:0.0 3:0.0 4:0.0 5:29.0 6:1.66 
1.7414880360389624 1:5050000.0 2:0.0 3:0.0 4:0.0 5:157.0 6:3.2 
1.7422453165510228 1:1.28E7 2:0.0 3:0.0 4:0.0 5:70.0 6:2.04 
1.752891957633512 1:4.25E7 2:4.0 3:1.0 4:1.0 5:57.0 6:1.58 
1.741487662685551 1:9470000.0 2:0.0 3:0.0 4:0.0 5:66.0 6:2.9 
1.7413755032379346 1:228000.0 2:0.0 3:0.0 4:0.0 5:110.0 6:2.46 
1.9798177985192003 1:1910000.0 2:0.0 3:0.0 4:0.0 5:266.0 6:5.94 
3.7486206540829152 1:6430000.0 2:1.0 3:3.0 4:3.0 5:32.0 6:1.76 
1.7413826027500163 1:3970000.0 2:0.0 3:0.0 4:0.0 5:197.0 6:4.34 
1.7425010427369803 1:2.12E7 2:0.0 3:1.0 4:1.0 5:53.0 6:1.38 
2.043210765661544 1:21.0 2:0.0 3:6.0 4:6.0 5:3.0 6:0.2857142857142857 
1.741391680373791 1:2.39E7 2:0.0 3:0.0 4:0.0 5:30.0 6:1.358974358974359 
1.7420189660695282 1:230000.0 2:0.0 3:0.0 4:0.0 5:7.0 6:0.18 
1.7476213296701388 1:1.63E7 2:0.0 3:0.0 4:0.0 5:43.0 6:1.26 
1.7413813362606223 1:9700000.0 2:0.0 3:0.0 4:0.0 5:36.0 6:1.4 
2.741346868470751 1:1.57E7 2:0.0 3:0.0 4:0.0 5:58.0 6:1.72 
2.7413803913176817 1:7.98E7 2:0.0 3:0.0 4:0.0 5:27.0 6:1.56 
1.741387753190561 1:2.29E7 2:0.0 3:0.0 4:0.0 5:40.0 6:1.28 
1.7431379744851228 1:6.49E7 2:0.0 3:0.0 4:0.0 5:93.0 6:1.86 
1.7421792623730605 1:6200000.0 2:0.0 3:0.0 4:0.0 5:106.0 6:2.34 
2.2731988310960314 1:8920000.0 2:2.0 3:5.5 4:5.5 5:93.0 6:3.24 
1.7413799149934799 1:346000.0 2:0.0 3:8.4 4:8.4 5:341.0 6:7.3 
1.7413856190888444 1:3250000.0 2:0.0 3:0.0 4:0.0 5:39.0 6:1.32 
1.7413745296079446 1:2820000.0 2:0.0 3:8.333333333333334 4:8.333333333333334 5:189.0 6:3.98 
1.7418468710197927 1:3.28E7 2:0.0 3:0.0 4:0.0 5:52.0 6:1.54 
1.7673733540450849 1:2.34E7 2:0.0 3:0.0 4:0.0 5:48.0 6:1.28 
1.7413707807270593 1:3390000.0 2:0.0 3:0.0 4:0.0 5:44.0 6:2.28 
2.7413347306447977 1:2.89E7 2:2.0 3:11.0 4:11.0 5:68.0 6:1.6 
1.7413656032712914 1:230000.0 2:0.0 3:12.0 4:12.0 5:128.0 6:2.58 
2.1172658768158623 1:1.82E7 2:0.0 3:0.0 4:0.0 5:48.0 6:1.72 
1.789015044579797 1:3.24E7 2:1.0 3:0.0 4:0.0 5:44.0 6:1.7234042553191489 
1.7434137032020476 1:4.57E7 2:0.0 3:0.0 4:0.0 5:33.0 6:1.7 
1.7413641155275197 1:190000.0 2:5.0 3:6.666666666666667 4:6.666666666666667 5:140.0 6:3.44 
1.8858411513475923 1:1.04E7 2:3.0 3:0.0 4:0.0 5:54.0 6:1.6 
1.7738282645458041 1:1.22E7 2:0.0 3:0.0 4:0.0 5:40.0 6:1.54 
1.7413665470896664 1:187.0 2:0.0 3:9.0 4:9.0 5:127.0 6:2.6 
2.4593886342826865 1:3620000.0 2:3.0 3:4.5 4:4.5 5:40.0 6:1.24 
1.7414030673225374 1:5730000.0 2:0.0 3:0.0 4:0.0 5:40.0 6:1.6 
1.7418720217249897 1:3.54E8 2:0.0 3:0.0 4:0.0 5:52.0 6:1.7 
2.74141753420183 1:2.56E8 2:0.0 3:0.0 4:0.0 5:20.0 6:1.7073170731707317 
1.424058091614888 1:1.43E7 2:0.0 3:0.0 4:0.0 5:59.0 6:2.14 
1.7413944725185573 1:1900000.0 2:0.0 3:8.5 4:8.5 5:137.0 6:2.74 
2.864766050353758 1:2.31E7 2:0.0 3:0.0 4:0.0 5:77.0 6:2.46 
1.7413345056944947 1:255000.0 2:0.0 3:5.666666666666667 4:5.666666666666667 5:194.0 6:4.48 
2.741888561921317 1:1.18E7 2:0.0 3:0.0 4:0.0 5:50.0 6:1.74 
2.2549514506756814 1:8.55E7 2:0.0 3:4.0 4:4.0 5:178.0 6:4.64 
1.746212833122412 1:1.1E7 2:0.0 3:0.0 4:0.0 5:75.0 6:1.5 
1.7420365863547462 1:255000.0 2:0.0 3:0.0 4:0.0 5:47.0 6:1.16 
2.17616588270644 1:2.05E7 2:0.0 3:0.0 4:0.0 5:48.0 6:2.76 
1.7482701535700835 1:1.01E7 2:0.0 3:0.0 4:0.0 5:67.0 6:1.74 
1.742262268001841 1:7.48E7 2:0.0 3:1.0 4:1.0 5:47.0 6:1.88 
1.741855931973865 1:1.87E7 2:0.0 3:0.0 4:0.0 5:87.0 6:2.94 
1.4234754641752434 1:8600000.0 2:0.0 3:0.0 4:0.0 5:66.0 6:1.32 
1.7413323565900445 1:5950000.0 2:0.0 3:0.0 4:0.0 5:45.0 6:2.94 
1.7426479708647402 1:2.43E7 2:0.0 3:0.0 4:0.0 5:44.0 6:3.52 
1.7414085768380971 1:8.18E7 2:0.0 3:0.0 4:0.0 5:43.0 6:1.84 
1.741401244754369 1:5330000.0 2:0.0 3:0.0 4:0.0 5:144.0 6:3.978723404255319 
1.741429093762756 1:385000.0 2:0.0 3:0.0 4:0.0 5:46.0 6:2.92 
1.741440205285454 1:1270000.0 2:0.0 3:7.333333333333333 4:7.333333333333333 5:178.0 6:3.8 
1.7413442956721483 1:5510000.0 2:0.0 3:0.0 4:0.0 5:69.0 6:3.88 
1.7414442912555108 1:227000.0 2:0.0 3:0.0 4:0.0 5:44.0 6:3.24 
2.596143977285113 1:2.59E7 2:2.0 3:3.0 4:3.0 5:81.0 6:2.0 
1.7414508167858804 1:3.62E7 2:0.0 3:10.666666666666666 4:10.666666666666666 5:81.0 6:3.56 
1.7414687002639422 1:9000000.0 2:0.0 3:0.0 4:0.0 5:36.0 6:1.78 
1.7861137994775609 1:9300000.0 2:2.0 3:0.0 4:0.0 5:42.0 6:2.02 
4.499143135903384 1:3.91E7 2:1.0 3:3.0 4:3.0 5:50.0 6:2.02 
1.7414691301287033 1:1.13E7 2:0.0 3:0.0 4:0.0 5:85.0 6:1.7 
1.7475846803820716 1:2180000.0 2:0.0 3:0.0 4:0.0 5:85.0 6:2.0 
1.7414713477766006 1:1.92E8 2:0.0 3:0.0 4:0.0 5:49.0 6:1.34 
1.7414749473572635 1:1520000.0 2:0.0 3:5.5 4:5.5 5:49.0 6:2.26 
1.987145332477755 1:2.0E7 2:1.0 3:3.0 4:3.0 5:96.0 6:2.9 
1.7414834154901617 1:1.85E7 2:0.0 3:0.0 4:0.0 5:93.0 6:2.7 
1.7423375234754996 1:4.46E7 2:0.0 3:0.0 4:0.0 5:14.0 6:1.8 
2.038639021360069 1:2.92E7 2:2.0 3:1.0 4:1.0 5:42.0 6:1.68 
1.7416415061710486 1:1.75E7 2:0.0 3:0.0 4:0.0 5:42.0 6:1.5 
1.7528869306430956 1:9950000.0 2:0.0 3:0.0 4:0.0 5:61.0 6:1.48 
2.4460707849333394 1:1330000.0 2:1.0 3:2.5 4:2.5 5:75.0 6:1.52 
1.7414850468283118 1:4.12E7 2:0.0 3:0.0 4:0.0 5:53.0 6:1.7 
1.7414865176853564 1:153000.0 2:0.0 3:0.0 4:0.0 5:24.0 6:0.78 
1.741493481399682 1:356000.0 2:0.0 3:10.5 4:10.5 5:111.0 6:2.28 
1.742472703007801 1:4950000.0 2:2.0 3:0.0 4:0.0 5:50.0 6:1.7 
1.741494075347612 1:5970000.0 2:0.0 3:0.0 4:0.0 5:88.0 6:1.8 
2.2795864708276694 1:1.13E8 2:0.0 3:0.0 4:0.0 5:26.0 6:1.68 
1.2142804400005474 1:4.99E7 2:0.0 3:1.0 4:1.0 5:42.0 6:1.66 
1.7414946110804828 1:1.6E7 2:0.0 3:0.0 4:0.0 5:81.0 6:3.34 
1.7444070470942805 1:3.6E8 2:0.0 3:0.0 4:0.0 5:68.0 6:2.02 
1.7415025823145842 1:2780000.0 2:0.0 3:0.0 4:0.0 5:181.0 6:4.18 
1.7651135087026177 1:1.7E7 2:3.0 3:0.0 4:0.0 5:32.0 6:1.72 
1.741492981295984 1:297000.0 2:0.0 3:0.0 4:0.0 5:166.0 6:4.18 
1.7414931012062769 1:197000.0 2:0.0 3:0.0 4:0.0 5:88.0 6:4.12 
3.9164190438884705 1:1.14E7 2:0.0 3:0.0 4:0.0 5:56.0 6:1.88 
1.7415156362617386 1:376000.0 2:0.0 3:6.666666666666667 4:6.666666666666667 5:199.0 6:4.1 
1.7420836392869297 1:7320000.0 2:0.0 3:0.0 4:0.0 5:62.0 6:3.1 
1.7650798477867302 1:585000.0 2:0.0 3:4.5 4:4.5 5:6.0 6:0.2 
2.3497544743919843 1:19900.0 2:0.0 3:1.0 4:1.0 5:15.0 6:0.88 
1.7415375514890261 1:4040000.0 2:0.0 3:0.0 4:0.0 5:93.0 6:2.52 
1.7413616904260283 1:1.01E7 2:0.0 3:0.0 4:0.0 5:40.0 6:1.64 
1.7419986380271604 1:2.1E7 2:0.0 3:0.0 4:0.0 5:98.0 6:2.06 
1.7488883648846867 1:9.6E7 2:0.0 3:3.0 4:3.0 5:32.0 6:1.46 
1.7420332140782842 1:3190000.0 2:0.0 3:0.0 4:0.0 5:81.0 6:1.64 
1.7415291589344823 1:2.83E7 2:0.0 3:0.0 4:0.0 5:59.0 6:1.56 
1.741534482236403 1:2780000.0 2:0.0 3:8.0 4:8.0 5:48.0 6:2.8 
1.7415375629960477 1:1.24E7 2:0.0 3:7.0 4:7.0 5:120.0 6:2.42 
1.7415373331336457 1:323000.0 2:0.0 3:0.0 4:0.0 5:32.0 6:0.88 
1.741358168080886 1:3.19E7 2:0.0 3:0.0 4:0.0 5:49.0 6:2.26 
1.737090867259288 1:238000.0 2:0.0 3:0.0 4:0.0 5:129.0 6:2.82 
2.7415407033242936 1:4.79E8 2:0.0 3:0.0 4:0.0 5:30.0 6:1.7 
1.7415410113043883 1:503000.0 2:0.0 3:0.0 4:0.0 5:124.0 6:2.64 
4.236983776987715 1:1.4E7 2:0.0 3:0.0 4:0.0 5:41.0 6:1.92 
1.7415445434707946 1:8.14E7 2:0.0 3:0.0 4:0.0 5:54.0 6:2.16 
-0.2580744228974245 1:86900.0 2:32.0 3:4.0 4:4.0 5:93.0 6:1.98 
-0.23276553445327258 1:86900.0 2:48.0 3:6.0 4:6.0 5:93.0 6:1.98 
-0.22827376822667583 1:86900.0 2:12.0 3:6.0 4:6.0 5:93.0 6:1.98 
-0.2355241025143544 1:86900.0 2:39.0 3:6.0 4:6.0 5:93.0 6:1.98 
-0.254019876715324 1:86900.0 2:35.0 3:8.0 4:8.0 5:93.0 6:1.98 
-0.24369844839215132 1:86900.0 2:42.0 3:8.0 4:8.0 5:93.0 6:1.98 
-0.2584762199065527 1:1420000.0 2:1.0 3:2.5 4:2.5 5:63.0 6:1.46 
-0.25836963368140625 1:3410000.0 2:0.0 3:0.0 4:0.0 5:121.0 6:2.82 
-0.20859657071643017 1:86900.0 2:5.0 3:3.5 4:3.5 5:93.0 6:1.98 
-0.2122627939430176 1:86900.0 2:2.0 3:3.3333333333333335 4:3.3333333333333335 5:93.0 6:1.98 
-0.2124997089373572 1:86900.0 2:43.0 3:4.0 4:4.0 5:93.0 6:1.98 
-0.22452332784975382 1:86900.0 2:10.0 3:4.0 4:4.0 5:93.0 6:1.98 
-0.2583860539936407 1:1420000.0 2:2.0 3:9.0 4:9.0 5:63.0 6:1.46 
-0.1793488138735141 1:86900.0 2:46.0 3:4.0 4:4.0 5:93.0 6:1.98 
-0.3087797076188331 1:134000.0 2:4.0 3:6.5 4:6.5 5:3.0 6:0.06 
-0.25848472170931514 1:118000.0 2:11.0 3:5.0 4:5.0 5:19.0 6:0.48 
-0.25837322623977593 1:118000.0 2:3.0 3:4.5 4:4.5 5:19.0 6:0.48 
-0.25677345981541944 1:134000.0 2:1.0 3:4.0 4:4.0 5:3.0 6:0.06 
-0.25834551467339933 1:118000.0 2:17.0 3:8.0 4:8.0 5:19.0 6:0.48 
-0.256849238507551 1:1.0E7 2:1.0 3:9.0 4:9.0 5:28.0 6:1.08 
-0.18631022977914397 1:1.0E7 2:4.0 3:0.0 4:0.0 5:28.0 6:1.08 
-0.06839249358297511 1:1.27E7 2:2.0 3:2.0 4:2.0 5:30.0 6:1.58 
-1.0 1:9740000.0 2:2.0 3:3.0 4:3.0 5:32.0 6:1.48 
-0.2777643038264653 1:9740000.0 2:1.0 3:0.0 4:0.0 5:32.0 6:1.48 
-0.18418762894140606 1:1.27E7 2:3.0 3:2.0 4:2.0 5:30.0 6:1.58 
-0.2547192364811111 1:1.0E7 2:2.0 3:5.0 4:5.0 5:28.0 6:1.08 
-0.18059909443076216 1:1.0E7 2:3.0 3:1.5 4:1.5 5:28.0 6:1.08 
-0.23460810863593767 1:1.27E7 2:0.0 3:0.0 4:0.0 5:30.0 6:1.58 
-0.2835212682504885 1:1.45E7 2:1.0 3:3.5 4:3.5 5:43.0 6:1.96 
-0.25837679759021187 1:5150000.0 2:0.0 3:5.5 4:5.5 5:50.0 6:2.4 
-0.25849229443987326 1:1.45E7 2:4.0 3:15.0 4:15.0 5:43.0 6:1.96 
-0.1899839304649415 1:270000.0 2:2.0 3:1.0 4:1.0 5:229.0 6:5.1 
-0.2583931941865611 1:270000.0 2:23.0 3:3.0 4:3.0 5:229.0 6:5.1 
-0.25637792627814027 1:270000.0 2:9.0 3:3.3333333333333335 4:3.3333333333333335 5:229.0 6:5.1 
-0.25839291755555827 1:2010000.0 2:46.0 3:3.0 4:3.0 5:161.0 6:3.5 
-0.25666533478296294 1:1840000.0 2:1.0 3:5.333333333333333 4:5.333333333333333 5:33.0 6:1.38 
-0.18619147379755152 1:270000.0 2:4.0 3:2.0 4:2.0 5:229.0 6:5.1 
-0.258390780087956 1:1370000.0 2:0.0 3:6.333333333333333 4:6.333333333333333 5:187.0 6:4.54 
-0.2576276522882806 1:1.39E7 2:1.0 3:3.6666666666666665 4:3.6666666666666665 5:118.0 6:2.42 
-0.25789367745599173 1:1.39E7 2:4.0 3:0.0 4:0.0 5:118.0 6:2.42 
-0.24771845126765124 1:2310000.0 2:1.0 3:0.0 4:0.0 5:68.0 6:1.42 
-0.36213729749167256 1:2400000.0 2:1.0 3:0.0 4:0.0 5:70.0 6:1.64 
-0.24798149887838222 1:2310000.0 2:2.0 3:3.0 4:3.0 5:68.0 6:1.42 
-0.2584066686409245 1:1900000.0 2:1.0 3:4.0 4:4.0 5:44.0 6:1.78 
-0.14912548530503164 1:9300000.0 2:2.0 3:5.666666666666667 4:5.666666666666667 5:44.0 6:2.56 
-0.0721385909437954 1:9300000.0 2:3.0 3:4.0 4:4.0 5:44.0 6:2.56 
-0.25841610007860105 1:9300000.0 2:38.0 3:4.0 4:4.0 5:44.0 6:2.56 
-0.07192482161107852 1:9300000.0 2:1.0 3:4.5 4:4.5 5:44.0 6:2.56 
-0.25858723270349426 1:1.38E7 2:0.0 3:0.0 4:0.0 5:23.0 6:1.558139534883721 
-0.19353785487207692 1:1.38E7 2:3.0 3:4.333333333333333 4:4.333333333333333 5:23.0 6:1.558139534883721 
-0.19370237766613224 1:1.38E7 2:2.0 3:6.0 4:6.0 5:23.0 6:1.558139534883721 
-0.25842192640197487 1:178000.0 2:0.0 3:0.0 4:0.0 5:44.0 6:3.28 
-0.25768605361332275 1:2670000.0 2:0.0 3:0.0 4:0.0 5:49.0 6:3.86 
-0.25842674557502004 1:1100000.0 2:1.0 3:11.0 4:11.0 5:51.0 6:1.1 
-0.2582406670309768 1:130000.0 2:3.0 3:3.5 4:3.5 5:31.0 6:1.68 
-0.17740010082305674 1:130000.0 2:14.0 3:6.5 4:6.5 5:31.0 6:1.68 
-0.17214744566289603 1:130000.0 2:12.0 3:6.0 4:6.0 5:31.0 6:1.68 
-0.25616040108614624 1:130000.0 2:7.0 3:7.0 4:7.0 5:31.0 6:1.68 
-0.2583795363377023 1:4380000.0 2:0.0 3:0.0 4:0.0 5:41.0 6:1.22 
-0.5231896940232641 1:1.46E7 2:4.0 3:8.0 4:8.0 5:65.0 6:1.4 
-0.211626496981626 1:78400.0 2:0.0 3:7.0 4:7.0 5:7.0 6:0.24 
-0.2584240345260406 1:193000.0 2:0.0 3:10.5 4:10.5 5:52.0 6:1.66 
-0.25842761505143463 1:9.02E7 2:0.0 3:0.0 4:0.0 5:143.0 6:3.74 
-0.17976505118002628 1:1.46E7 2:1.0 3:0.0 4:0.0 5:65.0 6:1.4 
-0.11879173845728636 1:2.42E7 2:2.0 3:2.5 4:2.5 5:65.0 6:1.84 
-0.16435431622446703 1:2.42E7 2:3.0 3:4.666666666666667 4:4.666666666666667 5:65.0 6:1.84 
-0.25742056625639176 1:29700.0 2:47.0 3:4.6 4:4.6 5:94.0 6:7.24 
-0.2106439943836847 1:78400.0 2:1.0 3:5.0 4:5.0 5:7.0 6:0.24 
-0.25769003346115266 1:1.36E7 2:0.0 3:4.0 4:4.0 5:25.0 6:0.7 
-1.0 1:2.42E7 2:0.0 3:0.0 4:0.0 5:65.0 6:1.84 
-0.2579691872150676 1:1.36E7 2:2.0 3:0.0 4:0.0 5:25.0 6:0.7 
-0.2582705912653869 1:29700.0 2:45.0 3:9.0 4:9.0 5:94.0 6:7.24 
-0.258395063145085 1:4410000.0 2:0.0 3:7.5 4:7.5 5:35.0 6:1.34 
-0.112604918069162 1:2.42E7 2:4.0 3:3.0 4:3.0 5:65.0 6:1.84 
-0.2580503461648602 1:29700.0 2:41.0 3:4.0 4:4.0 5:94.0 6:7.24 
-0.17523360525649773 1:8860000.0 2:3.0 3:6.5 4:6.5 5:73.0 6:1.54 
-0.17835491951706328 1:5330000.0 2:2.0 3:6.0 4:6.0 5:67.0 6:2.02 
-0.25846072080643856 1:2740000.0 2:31.0 3:4.333333333333333 4:4.333333333333333 5:274.0 6:5.84 
-0.10737758471471032 1:1.33E7 2:3.0 3:3.0 4:3.0 5:66.0 6:1.84 
-0.1890242151165888 1:2.06E7 2:3.0 3:0.0 4:0.0 5:61.0 6:1.54 
-0.258471492920185 1:5510000.0 2:0.0 3:5.666666666666667 4:5.666666666666667 5:135.0 6:3.42 
-0.25315243060075393 1:1.33E7 2:0.0 3:0.0 4:0.0 5:66.0 6:1.84 
-1.0 1:1.9E7 2:2.0 3:4.0 4:4.0 5:63.0 6:1.3 
-0.14900289977102782 1:5330000.0 2:4.0 3:6.5 4:6.5 5:67.0 6:2.02 
-0.18867034580963982 1:2.06E7 2:1.0 3:1.0 4:1.0 5:61.0 6:1.54 
-0.2584802683344786 1:2740000.0 2:0.0 3:6.285714285714286 4:6.285714285714286 5:274.0 6:5.84 
-0.23483402414683274 1:5330000.0 2:3.0 3:9.0 4:9.0 5:67.0 6:2.02 
-0.17563038664262898 1:8860000.0 2:1.0 3:6.0 4:6.0 5:73.0 6:1.54 
-0.25806984874230876 1:1140000.0 2:38.0 3:5.666666666666667 4:5.666666666666667 5:296.0 6:6.28 
-1.0 1:1.17E7 2:0.0 3:0.0 4:0.0 5:65.0 6:1.46 
-0.14854935863480603 1:9490000.0 2:3.0 3:4.0 4:4.0 5:79.0 6:1.62 
-0.25861035801573284 1:320000.0 2:7.0 3:4.0 4:4.0 5:99.0 6:2.28 
-0.15279495630090398 1:9490000.0 2:4.0 3:3.3333333333333335 4:3.3333333333333335 5:79.0 6:1.62 
-0.11937108156802057 1:1.17E7 2:3.0 3:4.0 4:4.0 5:65.0 6:1.46 
-0.25752417320929694 1:174.0 2:39.0 3:5.0 4:5.0 5:90.0 6:1.88 
-0.2577439880232208 1:174.0 2:45.0 3:4.6 4:4.6 5:90.0 6:1.88 
-0.28347427267778047 1:2.47E7 2:1.0 3:3.5 4:3.5 5:46.0 6:1.62 
-0.1286992247396655 1:1.17E7 2:1.0 3:3.0 4:3.0 5:65.0 6:1.46 
-0.1639066481403884 1:1.17E7 2:2.0 3:3.0 4:3.0 5:65.0 6:1.46 
-0.24304821762112647 1:165000.0 2:13.0 3:3.5 4:3.5 5:98.0 6:2.28 
-0.2390574106477867 1:165000.0 2:9.0 3:4.0 4:4.0 5:98.0 6:2.28 
-0.25858206972130043 1:87100.0 2:0.0 3:0.0 4:0.0 5:177.0 6:3.54 
-1.0 1:1.48E7 2:1.0 3:1.0 4:1.0 5:90.0 6:1.86 
-0.13342762843657094 1:419000.0 2:1.0 3:3.5 4:3.5 5:82.0 6:1.7 
-0.2552854756621062 1:419000.0 2:0.0 3:0.0 4:0.0 5:82.0 6:1.7 
-0.25953982192431263 1:243.0 2:0.0 3:3.2 4:3.2 5:106.0 6:2.7 
-0.1433273414367245 1:419000.0 2:2.0 3:3.5 4:3.5 5:82.0 6:1.7 
-0.1490773749565431 1:689.0 2:1.0 3:8.666666666666666 4:8.666666666666666 5:40.0 6:1.02 
-0.25852025855767774 1:36100.0 2:0.0 3:5.0 4:5.0 5:11.0 6:0.68 
-0.14989771760467901 1:689.0 2:2.0 3:8.0 4:8.0 5:40.0 6:1.02 
-0.22311730198210042 1:7850000.0 2:4.0 3:3.0 4:3.0 5:39.0 6:1.76 
-0.22776273683827908 1:171000.0 2:0.0 3:6.0 4:6.0 5:3.0 6:0.06 
-0.2222023989151251 1:7850000.0 2:1.0 3:4.0 4:4.0 5:39.0 6:1.76 
-0.25852206431634145 1:3680000.0 2:0.0 3:0.0 4:0.0 5:51.0 6:1.3 
-0.25853009216382217 1:834000.0 2:0.0 3:4.0 4:4.0 5:10.0 6:0.2 
-0.2586375312743974 1:9570000.0 2:0.0 3:0.0 4:0.0 5:36.0 6:1.72 
-0.2649523714011051 1:36.0 2:3.0 3:5.5 4:5.5 5:2.0 6:0.08333333333333333 
-0.22798491558919687 1:171000.0 2:2.0 3:8.0 4:8.0 5:3.0 6:0.06 
-0.258659352629675 1:171000.0 2:4.0 3:1.0 4:1.0 5:3.0 6:0.06 
-0.24565424875763403 1:155000.0 2:47.0 3:6.0 4:6.0 5:87.0 6:2.0 
-0.17759266126291565 1:3450000.0 2:1.0 3:4.0 4:4.0 5:61.0 6:1.4 
-0.2501523290292337 1:155000.0 2:33.0 3:9.5 4:9.5 5:87.0 6:2.0 
-0.1717766365480029 1:3450000.0 2:4.0 3:3.5 4:3.5 5:61.0 6:1.4 
-0.2586808844601838 1:155000.0 2:3.0 3:9.5 4:9.5 5:87.0 6:2.0 
-0.12415263090440923 1:3450000.0 2:3.0 3:5.0 4:5.0 5:61.0 6:1.4 
-0.15133248480933648 1:155000.0 2:41.0 3:6.0 4:6.0 5:87.0 6:2.0 
-0.141175022115393 1:8210000.0 2:4.0 3:4.0 4:4.0 5:70.0 6:1.42 
-0.25860765883562375 1:155000.0 2:1.0 3:3.0 4:3.0 5:87.0 6:2.0 
-0.1678032732580995 1:155000.0 2:31.0 3:6.0 4:6.0 5:87.0 6:2.0 
-0.12561026803824127 1:155000.0 2:42.0 3:6.0 4:6.0 5:87.0 6:2.0 
-0.24732200408852112 1:155000.0 2:46.0 3:9.0 4:9.0 5:87.0 6:2.0 
-0.1382471117651824 1:8210000.0 2:3.0 3:4.0 4:4.0 5:70.0 6:1.42 
-0.25864475191377095 1:155000.0 2:10.0 3:6.5 4:6.5 5:87.0 6:2.0 
-0.12117950321934255 1:155000.0 2:32.0 3:6.666666666666667 4:6.666666666666667 5:87.0 6:2.0 
-0.258721015004246 1:593000.0 2:0.0 3:9.0 4:9.0 5:86.0 6:2.36 
-0.257500567020702 1:8210000.0 2:1.0 3:0.0 4:0.0 5:70.0 6:1.42 
-0.25671368762264807 1:484000.0 2:28.0 3:4.0 4:4.0 5:220.0 6:5.7 
-0.25852839099076785 1:484000.0 2:6.0 3:4.0 4:4.0 5:220.0 6:5.7 
-0.13099000225492263 1:484000.0 2:33.0 3:5.0 4:5.0 5:220.0 6:5.7 
-0.17914134373914609 1:2.49E7 2:0.0 3:2.0 4:2.0 5:30.0 6:1.52 
-0.24390511706371393 1:1.52E8 2:2.0 3:4.0 4:4.0 5:46.0 6:1.76 
-0.13851947677157245 1:1.16E7 2:3.0 3:3.5 4:3.5 5:71.0 6:1.74 
-0.1634680660342236 1:1.16E7 2:4.0 3:4.333333333333333 4:4.333333333333333 5:71.0 6:1.74 
-0.18687089428994896 1:1.52E8 2:1.0 3:2.0 4:2.0 5:46.0 6:1.76 
-0.1471380226587578 1:484000.0 2:34.0 3:5.0 4:5.0 5:220.0 6:5.7 
-0.19493490693674453 1:1690000.0 2:1.0 3:3.5 4:3.5 5:61.0 6:1.42 
-0.053710665932158286 1:1690000.0 2:3.0 3:3.0 4:3.0 5:61.0 6:1.42 
-0.25459627240723653 1:2.49E7 2:4.0 3:0.0 4:0.0 5:30.0 6:1.52 
-0.1859061971814397 1:2.49E7 2:1.0 3:3.5 4:3.5 5:30.0 6:1.52 
-0.18602747507418088 1:1690000.0 2:4.0 3:4.0 4:4.0 5:61.0 6:1.42 
-0.1253974587787145 1:1.16E7 2:1.0 3:1.0 4:1.0 5:71.0 6:1.74 
-0.2583941185310635 1:3350000.0 2:0.0 3:0.0 4:0.0 5:44.0 6:2.86 
-0.1701795797761148 1:1.16E7 2:0.0 3:0.0 4:0.0 5:71.0 6:1.74 
-0.20828554148337936 1:1.52E8 2:0.0 3:0.0 4:0.0 5:46.0 6:1.76 
-0.2583940793795153 1:2750000.0 2:0.0 3:0.0 4:0.0 5:38.0 6:3.3 
-0.1837772131637163 1:1.68E7 2:7.0 3:5.5 4:5.5 5:57.0 6:2.74 
-0.1842228571580588 1:2.11E7 2:4.0 3:1.0 4:1.0 5:44.0 6:1.48 
-0.20729004192681388 1:1.68E7 2:9.0 3:7.0 4:7.0 5:57.0 6:2.74 
-0.3812474369132503 1:3.72E7 2:4.0 3:5.0 4:5.0 5:36.0 6:1.28 
-0.2583912897321003 1:2.11E7 2:3.0 3:9.5 4:9.5 5:44.0 6:1.48 
-0.2586247950111541 1:2.12E7 2:3.0 3:0.0 4:0.0 5:31.0 6:1.48 
-0.24457180495060238 1:1.68E7 2:3.0 3:5.666666666666667 4:5.666666666666667 5:57.0 6:2.74 
-0.17885202185653398 1:2.11E7 2:2.0 3:2.0 4:2.0 5:44.0 6:1.48 
-0.25837469845801364 1:2.12E7 2:4.0 3:5.333333333333333 4:5.333333333333333 5:31.0 6:1.48 
-0.24267819953732495 1:1.68E7 2:15.0 3:4.0 4:4.0 5:57.0 6:2.74 
-0.22977572988697847 1:1.68E7 2:11.0 3:4.0 4:4.0 5:57.0 6:2.74 
-0.2583941429398942 1:2.86E7 2:0.0 3:9.0 4:9.0 5:108.0 6:2.24 
-0.16033916341111568 1:1.11E7 2:4.0 3:9.0 4:9.0 5:73.0 6:1.52 
-0.25787300358980586 1:3.87E7 2:1.0 3:5.6 4:5.6 5:146.0 6:3.4 
-0.2585117994835552 1:6.54E7 2:2.0 3:0.0 4:0.0 5:59.0 6:1.5 
-0.25788882738021646 1:6.54E7 2:0.0 3:5.0 4:5.0 5:59.0 6:1.5 
-0.2567184138257482 1:229000.0 2:0.0 3:6.5 4:6.5 5:63.0 6:1.54 
-0.25791312010488565 1:1.07E8 2:28.0 3:1.0 4:1.0 5:108.0 6:2.58 
-0.16062114701992405 1:1.11E7 2:3.0 3:10.0 4:10.0 5:73.0 6:1.52 
-0.3815078468635201 1:1.07E8 2:0.0 3:5.5 4:5.5 5:108.0 6:2.58 
-0.1643597472123557 1:8.71E7 2:3.0 3:2.3333333333333335 4:2.3333333333333335 5:57.0 6:1.92 
-0.25791316374673096 1:1.22E7 2:41.0 3:2.3333333333333335 4:2.3333333333333335 5:91.0 6:2.82 
-0.2579654389982344 1:1.93E7 2:0.0 3:0.0 4:0.0 5:52.0 6:1.52 
-0.2550635542979556 1:8.71E7 2:13.0 3:2.0 4:2.0 5:57.0 6:1.92 
-0.24013797942995935 1:8.71E7 2:2.0 3:5.0 4:5.0 5:57.0 6:1.92 
-0.07855212048028484 1:8.71E7 2:0.0 3:2.0 4:2.0 5:57.0 6:1.92 
-0.15815999947392304 1:8.71E7 2:1.0 3:1.0 4:1.0 5:57.0 6:1.92 
-0.2585971380846141 1:7260000.0 2:0.0 3:0.0 4:0.0 5:51.0 6:1.74 
-0.14127216464102677 1:1.07E7 2:4.0 3:2.0 4:2.0 5:59.0 6:1.7916666666666667 
-0.25485435228112174 1:8.71E7 2:18.0 3:3.0 4:3.0 5:57.0 6:1.92 
-0.14345571172984894 1:2.92E7 2:3.0 3:4.5 4:4.5 5:55.0 6:1.86 
-0.25822211081064916 1:2.15E7 2:0.0 3:0.0 4:0.0 5:65.0 6:1.3877551020408163 
-0.38820059191327716 1:1.05E7 2:2.0 3:2.0 4:2.0 5:31.0 6:1.22 
-0.24159796108144568 1:1750000.0 2:37.0 3:7.6 4:7.6 5:64.0 6:4.78 
-0.13573532225820106 1:1750000.0 2:1.0 3:7.0 4:7.0 5:64.0 6:4.78 
-0.2581401854402837 1:117000.0 2:0.0 3:4.5 4:4.5 5:23.0 6:1.78 
-0.13473109459761368 1:2.92E7 2:2.0 3:4.5 4:4.5 5:55.0 6:1.86 
-0.17580449362953132 1:1750000.0 2:2.0 3:8.75 4:8.75 5:64.0 6:4.78 
-0.2567758603279054 1:2.92E7 2:0.0 3:1.0 4:1.0 5:55.0 6:1.86 
-0.1349703491052578 1:1750000.0 2:3.0 3:7.0 4:7.0 5:64.0 6:4.78 
-0.2566675064756224 1:9.58E7 2:0.0 3:4.0 4:4.0 5:32.0 6:1.5 
-0.2572898482972461 1:9.58E7 2:1.0 3:0.0 4:0.0 5:32.0 6:1.5 
-0.15643050745838427 1:1.05E7 2:0.0 3:0.0 4:0.0 5:31.0 6:1.22 
-0.24209025179570587 1:1750000.0 2:33.0 3:7.333333333333333 4:7.333333333333333 5:64.0 6:4.78 
-0.25818916712562257 1:2.08E8 2:1.0 3:1.0 4:1.0 5:66.0 6:1.66 
-0.25819430396381315 1:9740000.0 2:1.0 3:3.5 4:3.5 5:81.0 6:1.7 
-0.25554943627387466 1:2.78E7 2:1.0 3:9.0 4:9.0 5:19.0 6:1.1612903225806452 
-0.28347290172836265 1:2.16E7 2:1.0 3:3.5 4:3.5 5:54.0 6:2.04 
-0.2584189912830593 1:3370000.0 2:0.0 3:0.0 4:0.0 5:52.0 6:1.96 
-0.258194905667901 1:534000.0 2:0.0 3:0.0 4:0.0 5:80.0 6:2.04 
-0.2586714715633247 1:2.78E7 2:0.0 3:1.0 4:1.0 5:19.0 6:1.1612903225806452 
-0.2558131842158202 1:2.78E7 2:4.0 3:6.0 4:6.0 5:19.0 6:1.1612903225806452 
-0.2263036157249384 1:3.17E7 2:4.0 3:5.5 4:5.5 5:52.0 6:1.9 
-0.22430201337563654 1:2.42E7 2:1.0 3:0.0 4:0.0 5:45.0 6:1.26 
-0.22698625746312734 1:2.42E7 2:3.0 3:2.0 4:2.0 5:45.0 6:1.26 
-0.3084558593784905 1:3.17E7 2:1.0 3:4.0 4:4.0 5:52.0 6:1.9 
-0.2586654731972463 1:3.4E7 2:13.0 3:6.0 4:6.0 5:92.0 6:3.52 
-0.21074817812417485 1:6720000.0 2:4.0 3:6.5 4:6.5 5:22.0 6:1.54 
-0.16262029717146428 1:2.52E7 2:1.0 3:5.0 4:5.0 5:39.0 6:1.78 
-0.23543526930449732 1:6720000.0 2:2.0 3:10.5 4:10.5 5:22.0 6:1.54 
-0.14590162961218484 1:2.52E7 2:2.0 3:3.3333333333333335 4:3.3333333333333335 5:39.0 6:1.78 
-0.2584378820002284 1:2.99E7 2:0.0 3:0.0 4:0.0 5:43.0 6:2.12 
-0.20428249528235798 1:8.6E7 2:3.0 3:5.0 4:5.0 5:51.0 6:2.82 
-0.21098808087743742 1:6720000.0 2:1.0 3:8.0 4:8.0 5:22.0 6:1.54 
-0.20477568260792867 1:8.6E7 2:1.0 3:6.5 4:6.5 5:51.0 6:2.82 
-0.12191283451931181 1:2.52E7 2:0.0 3:3.5 4:3.5 5:39.0 6:1.78 
-0.2358637359831942 1:6720000.0 2:3.0 3:4.0 4:4.0 5:22.0 6:1.54 
-0.25851689421224894 1:8.6E7 2:12.0 3:5.0 4:5.0 5:51.0 6:2.82 
-0.2585181058134552 1:338000.0 2:0.0 3:7.5 4:7.5 5:56.0 6:2.38 
-0.2585163886926961 1:2440000.0 2:0.0 3:6.0 4:6.0 5:54.0 6:2.48 
-0.15210960668793005 1:4360000.0 2:1.0 3:3.5 4:3.5 5:39.0 6:1.54 
-0.2585177008488345 1:8600000.0 2:2.0 3:1.5 4:1.5 5:44.0 6:1.7 
-0.25852656541701496 1:8540000.0 2:0.0 3:4.5 4:4.5 5:81.0 6:3.14 
-0.05739755587288007 1:1.88E7 2:3.0 3:4.0 4:4.0 5:51.0 6:1.56 
-0.27348832153786623 1:1.88E7 2:1.0 3:3.0 4:3.0 5:51.0 6:1.56 
-0.25794170035474717 1:8540000.0 2:15.0 3:2.5 4:2.5 5:81.0 6:3.14 
-0.2586136682781026 1:8650000.0 2:0.0 3:0.0 4:0.0 5:40.0 6:1.52 
-0.2614653528144181 1:4360000.0 2:0.0 3:1.0 4:1.0 5:39.0 6:1.54 
-0.16882200088563046 1:1.88E7 2:4.0 3:3.0 4:3.0 5:51.0 6:1.56 
-0.25827510959860617 1:8540000.0 2:9.0 3:3.6666666666666665 4:3.6666666666666665 5:81.0 6:3.14 
-0.19718155141259358 1:4360000.0 2:2.0 3:5.0 4:5.0 5:39.0 6:1.54 
-0.2585826553159814 1:2.88E7 2:0.0 3:1.0 4:1.0 5:61.0 6:1.66 
-0.2586726426048592 1:288000.0 2:39.0 3:5.0 4:5.0 5:40.0 6:0.92 
-0.14566996396333182 1:1220000.0 2:2.0 3:5.5 4:5.5 5:1.0 6:0.06 
-0.2586733406837855 1:288000.0 2:21.0 3:5.0 4:5.0 5:40.0 6:0.92 
-0.25867334105309786 1:5.33E7 2:0.0 3:5.5 4:5.5 5:141.0 6:3.94 
-0.17783841200269168 1:168000.0 2:2.0 3:6.666666666666667 4:6.666666666666667 5:62.0 6:1.4 
-0.10032166749302363 1:168000.0 2:0.0 3:5.714285714285714 4:5.714285714285714 5:62.0 6:1.4 
-0.25865593066333536 1:2.88E7 2:1.0 3:6.25 4:6.25 5:61.0 6:1.66 
-0.12700178223494304 1:168000.0 2:1.0 3:5.0 4:5.0 5:62.0 6:1.4 
-0.14498018909711058 1:1220000.0 2:3.0 3:6.0 4:6.0 5:1.0 6:0.06 
-0.2571439421090433 1:1.02E7 2:4.0 3:0.0 4:0.0 5:48.0 6:1.6 
-0.18894643297732472 1:1.02E7 2:1.0 3:5.0 4:5.0 5:48.0 6:1.6 
-0.20130621095033996 1:5800000.0 2:0.0 3:7.0 4:7.0 5:87.0 6:4.56 
-0.2586555297726117 1:1.01E7 2:2.0 3:5.0 4:5.0 5:22.0 6:1.42 
-0.2569889192087119 1:2.58E7 2:3.0 3:4.0 4:4.0 5:54.0 6:1.82 
-0.25830755533515254 1:1.01E7 2:3.0 3:0.0 4:0.0 5:22.0 6:1.42 
-0.25867384021162093 1:5800000.0 2:30.0 3:6.5 4:6.5 5:87.0 6:4.56 
-0.25862068495329704 1:1.01E7 2:1.0 3:10.0 4:10.0 5:22.0 6:1.42 
-0.20117826724389498 1:5800000.0 2:2.0 3:5.666666666666667 4:5.666666666666667 5:87.0 6:4.56 
-0.21864638687140822 1:1.03E7 2:3.0 3:0.0 4:0.0 5:33.0 6:1.28 
-0.043278143512126666 1:1.03E7 2:1.0 3:3.5 4:3.5 5:33.0 6:1.28 
-0.18759327180075974 1:1.02E7 2:3.0 3:4.0 4:4.0 5:48.0 6:1.6 
-0.2571782084162172 1:2.58E7 2:2.0 3:0.0 4:0.0 5:54.0 6:1.82 
-0.25804440028631553 1:1080000.0 2:0.0 3:3.5 4:3.5 5:132.0 6:5.44 
-0.2520840414880241 1:7710000.0 2:0.0 3:0.0 4:0.0 5:50.0 6:1.7 
-0.24457788163286187 1:3980000.0 2:1.0 3:0.0 4:0.0 5:55.0 6:1.5 
-0.1635640367340312 1:3980000.0 2:0.0 3:3.0 4:3.0 5:55.0 6:1.5 
-0.16414250084282628 1:3980000.0 2:2.0 3:3.0 4:3.0 5:55.0 6:1.5 
-0.25781635171484923 1:1080000.0 2:6.0 3:2.4 4:2.4 5:132.0 6:5.44 
-1.0 1:5.28E7 2:2.0 3:0.0 4:0.0 5:57.0 6:1.7333333333333334 
-0.257930109031101 1:1.53E7 2:1.0 3:0.0 4:0.0 5:21.0 6:1.4473684210526316 
-0.25820541474968195 1:4.44E7 2:0.0 3:0.0 4:0.0 5:39.0 6:1.04 
-0.2586903117276199 1:2360000.0 2:38.0 3:3.6666666666666665 4:3.6666666666666665 5:151.0 6:5.44 
-0.2587334402120105 1:4810000.0 2:0.0 3:0.0 4:0.0 5:36.0 6:4.02 
-0.25164388936476656 1:7710000.0 2:2.0 3:3.0 4:3.0 5:50.0 6:1.7 
-0.2586645956892157 1:2820000.0 2:1.0 3:5.5 4:5.5 5:13.0 6:0.26 
-0.24985341776937087 1:9090000.0 2:0.0 3:0.0 4:0.0 5:63.0 6:1.74 
-0.258371350923629 1:3.73E7 2:23.0 3:2.6666666666666665 4:2.6666666666666665 5:116.0 6:2.38 
-0.2583712831115178 1:3.73E7 2:45.0 3:4.0 4:4.0 5:116.0 6:2.38 
-0.20367607904441687 1:9090000.0 2:1.0 3:3.0 4:3.0 5:63.0 6:1.74 
-0.2163409435159609 1:9090000.0 2:4.0 3:3.5 4:3.5 5:63.0 6:1.74 
-0.2586399683523614 1:2820000.0 2:0.0 3:0.0 4:0.0 5:13.0 6:0.26 
-0.25867526005461616 1:192000.0 2:0.0 3:0.0 4:0.0 5:156.0 6:4.42 
-0.25856725374121814 1:3.73E7 2:2.0 3:2.0 4:2.0 5:116.0 6:2.38 
-0.24530038568703427 1:2.06E7 2:1.0 3:3.0 4:3.0 5:68.0 6:1.42 
-0.2520233833161384 1:2.06E7 2:4.0 3:0.0 4:0.0 5:68.0 6:1.42 
-0.2680190423496958 1:8690000.0 2:2.0 3:4.5 4:4.5 5:65.0 6:1.94 
-0.2584362044090671 1:1.45E8 2:4.0 3:9.0 4:9.0 5:51.0 6:1.94 
-0.2587057014375892 1:1.45E8 2:3.0 3:4.0 4:4.0 5:51.0 6:1.94 
-0.258565707722089 1:1.49E7 2:48.0 3:2.6 4:2.6 5:180.0 6:5.78 
-0.13795894598245362 1:9880000.0 2:3.0 3:2.0 4:2.0 5:32.0 6:1.34 
-0.25856345775679973 1:1.49E7 2:0.0 3:2.3333333333333335 4:2.3333333333333335 5:180.0 6:5.78 
-0.24954935388614397 1:9880000.0 2:0.0 3:0.0 4:0.0 5:32.0 6:1.34 
-0.25562912636957774 1:2.82E7 2:0.0 3:1.0 4:1.0 5:55.0 6:1.86 
-0.17396008448097228 1:9880000.0 2:4.0 3:3.0 4:3.0 5:32.0 6:1.34 
-0.258563258393057 1:1.49E7 2:31.0 3:2.3333333333333335 4:2.3333333333333335 5:180.0 6:5.78 
-0.2555735407935728 1:2.82E7 2:3.0 3:4.0 4:4.0 5:55.0 6:1.86 
-0.1788011886328587 1:4.39E7 2:6.0 3:6.5 4:6.5 5:149.0 6:3.76 
-0.1742331577496949 1:1.85E7 2:1.0 3:2.0 4:2.0 5:36.0 6:1.36 
-0.1972627725450208 1:1.85E7 2:2.0 3:5.0 4:5.0 5:36.0 6:1.36 
-0.2138138506699354 1:9430000.0 2:4.0 3:3.5 4:3.5 5:80.0 6:1.62 
-0.21007848312433852 1:1.85E7 2:3.0 3:0.0 4:0.0 5:36.0 6:1.36 
-0.21476676540644002 1:9430000.0 2:1.0 3:4.0 4:4.0 5:80.0 6:1.62 
-0.25833938442732335 1:2.51E7 2:1.0 3:3.0 4:3.0 5:52.0 6:1.74 
-0.17004966268673238 1:4.39E7 2:2.0 3:1.4 4:1.4 5:149.0 6:3.76 
-0.25838565611592174 1:8150000.0 2:0.0 3:0.0 4:0.0 5:46.0 6:1.8 
-0.21703223518112685 1:8.39E7 2:2.0 3:3.0 4:3.0 5:47.0 6:1.44 
-0.26805019257649704 1:1.4E7 2:1.0 3:2.0 4:2.0 5:39.0 6:1.1666666666666667 
-0.2489637864956526 1:1.67E7 2:3.0 3:0.0 4:0.0 5:57.0 6:1.24 
-0.18489018230810556 1:152000.0 2:2.0 3:9.0 4:9.0 5:48.0 6:1.14 
-0.25769599588085074 1:1.4E7 2:2.0 3:6.333333333333333 4:6.333333333333333 5:39.0 6:1.1666666666666667 
-0.2586279870781663 1:153.0 2:0.0 3:7.0 4:7.0 5:112.0 6:2.34 
-0.212321489382495 1:1.67E7 2:4.0 3:3.0 4:3.0 5:57.0 6:1.24 
-0.21764471025334253 1:8.39E7 2:1.0 3:1.0 4:1.0 5:47.0 6:1.44 
-0.18488511559091553 1:152000.0 2:3.0 3:7.5 4:7.5 5:48.0 6:1.14 
-0.14687017457366483 1:5850000.0 2:1.0 3:4.333333333333333 4:4.333333333333333 5:25.0 6:0.92 
-0.2585612252005793 1:4690000.0 2:0.0 3:0.0 4:0.0 5:103.0 6:2.52 
-1.0 1:1.4E7 2:0.0 3:0.0 4:0.0 5:39.0 6:1.1666666666666667 
-0.2236251152766307 1:1.67E7 2:1.0 3:4.0 4:4.0 5:57.0 6:1.24 
-0.14765160310777023 1:5850000.0 2:0.0 3:3.75 4:3.75 5:25.0 6:0.92 
-0.21222554974852892 1:4.74E7 2:4.0 3:0.0 4:0.0 5:135.0 6:3.74 
-0.2542772537584075 1:9320000.0 2:0.0 3:0.0 4:0.0 5:44.0 6:1.72 
-0.13516157518317568 1:9320000.0 2:1.0 3:3.5 4:3.5 5:44.0 6:1.72 
-0.13749954782806528 1:7600000.0 2:1.0 3:3.0 4:3.0 5:33.0 6:1.2 
-0.20111591761094086 1:7600000.0 2:2.0 3:5.25 4:5.25 5:33.0 6:1.2 
-0.21098690451630325 1:4.74E7 2:1.0 3:0.0 4:0.0 5:135.0 6:3.74 
-0.2582486834626142 1:3.54E7 2:12.0 3:3.5 4:3.5 5:113.0 6:3.26 
-0.2046502428232267 1:1.14E7 2:1.0 3:3.5 4:3.5 5:70.0 6:1.42 
-0.2464301225842312 1:1.2E7 2:0.0 3:0.0 4:0.0 5:45.0 6:2.96 
-0.19114834508468448 1:7600000.0 2:4.0 3:3.5 4:3.5 5:33.0 6:1.2 
-0.21808143233756383 1:1.14E7 2:2.0 3:1.0 4:1.0 5:70.0 6:1.42 
-0.17992827019506435 1:9320000.0 2:4.0 3:2.5 4:2.5 5:44.0 6:1.72 
-0.22605950232847694 1:7600000.0 2:0.0 3:1.0 4:1.0 5:33.0 6:1.2 
-0.04450042481635864 1:9320000.0 2:2.0 3:4.0 4:4.0 5:44.0 6:1.72 
-0.25226880881976754 1:1.14E7 2:4.0 3:6.5 4:6.5 5:70.0 6:1.42 
-0.18691515356524357 1:7.0E7 2:1.0 3:2.5 4:2.5 5:161.0 6:3.5 
-0.25160227950495206 1:2.78E7 2:4.0 3:0.0 4:0.0 5:55.0 6:1.44 
-0.19002317258407964 1:2.78E7 2:1.0 3:2.5 4:2.5 5:55.0 6:1.44 
-0.17746691439362655 1:7.0E7 2:0.0 3:1.0 4:1.0 5:161.0 6:3.5 
-0.19713527221011373 1:2.78E7 2:3.0 3:3.75 4:3.75 5:55.0 6:1.44 
-0.24495516317716792 1:7.0E7 2:4.0 3:0.0 4:0.0 5:161.0 6:3.5 
-0.2042581292164077 1:2.38E7 2:4.0 3:2.0 4:2.0 5:81.0 6:1.76 
-0.17894872385358257 1:165000.0 2:8.0 3:2.0 4:2.0 5:102.0 6:2.3 
-0.2549586198786807 1:165000.0 2:4.0 3:6.666666666666667 4:6.666666666666667 5:102.0 6:2.3 
-0.16559502856796843 1:1690000.0 2:1.0 3:5.666666666666667 4:5.666666666666667 5:15.0 6:0.42 
-0.2301815600245432 1:2.38E7 2:3.0 3:4.8 4:4.8 5:81.0 6:1.76 
-0.06426348327714075 1:2.46E7 2:0.0 3:1.0 4:1.0 5:46.0 6:1.5 
-0.17146799393405876 1:1690000.0 2:3.0 3:6.666666666666667 4:6.666666666666667 5:15.0 6:0.42 
-0.1174568789680655 1:1.65E7 2:2.0 3:4.666666666666667 4:4.666666666666667 5:46.0 6:1.62 
-0.18398561080344156 1:1.65E7 2:1.0 3:3.0 4:3.0 5:46.0 6:1.62 
-0.17128243900742568 1:2.38E7 2:1.0 3:2.5 4:2.5 5:81.0 6:1.76 
-0.24566976087576392 1:165000.0 2:2.0 3:3.3333333333333335 4:3.3333333333333335 5:102.0 6:2.3 
-0.23690207377225408 1:2.38E7 2:0.0 3:0.0 4:0.0 5:81.0 6:1.76 
-0.2140267094402873 1:1690000.0 2:0.0 3:8.0 4:8.0 5:15.0 6:0.42 
-0.25840836364713426 1:4920000.0 2:0.0 3:5.5 4:5.5 5:76.0 6:1.96 
-0.15892048085192162 1:1.65E7 2:0.0 3:5.0 4:5.0 5:46.0 6:1.62 
-1.0 1:9710000.0 2:1.0 3:4.0 4:4.0 5:69.0 6:1.46 
-0.1582174972187781 1:165000.0 2:6.0 3:2.5 4:2.5 5:102.0 6:2.3 
-0.2542277911337424 1:2.46E7 2:3.0 3:5.333333333333333 4:5.333333333333333 5:46.0 6:1.5 
-0.21523943390519884 1:2.46E7 2:1.0 3:3.0 4:3.0 5:46.0 6:1.5 
-0.25786290521501204 1:270000.0 2:24.0 3:11.0 4:11.0 5:0.0 6:0.0 
-1.0 1:30700.0 2:1.0 3:8.5 4:8.5 5:3.0 6:0.24 
-0.09029737313506167 1:8280000.0 2:1.0 3:2.0 4:2.0 5:52.0 6:1.3 
-0.21157279720331534 1:1.84E7 2:1.0 3:1.0 4:1.0 5:79.0 6:2.4 
-0.257862905215007 1:1.84E7 2:32.0 3:6.75 4:6.75 5:79.0 6:2.4 
-0.22016296614335024 1:1.84E7 2:16.0 3:5.5 4:5.5 5:79.0 6:2.4 
-0.2602767002474105 1:6940000.0 2:1.0 3:4.0 4:4.0 5:27.0 6:1.2 
-0.21609972216642856 1:8280000.0 2:3.0 3:1.0 4:1.0 5:52.0 6:1.3 
-0.25786290521500677 1:3.72E7 2:0.0 3:0.0 4:0.0 5:125.0 6:3.48 
-0.21099297690460384 1:1.84E7 2:0.0 3:3.0 4:3.0 5:79.0 6:2.4 
-0.16698854321346052 1:1.84E7 2:13.0 3:5.5 4:5.5 5:79.0 6:2.4 
-0.20463621601166787 1:8280000.0 2:0.0 3:3.5 4:3.5 5:52.0 6:1.3 
-0.2069288046450547 1:1.84E7 2:10.0 3:5.0 4:5.0 5:79.0 6:2.4 
-0.2440363199131219 1:1.84E7 2:6.0 3:5.0 4:5.0 5:79.0 6:2.4 
-0.24271811808983096 1:8280000.0 2:4.0 3:4.5 4:4.5 5:52.0 6:1.3 
-0.26148102303602444 1:3.66E7 2:1.0 3:4.333333333333333 4:4.333333333333333 5:74.0 6:1.54 
-0.25317073632641973 1:1270000.0 2:0.0 3:0.0 4:0.0 5:65.0 6:1.46 
-0.25477601735499206 1:1410000.0 2:1.0 3:1.0 4:1.0 5:87.0 6:1.76 
-0.11466375855812247 1:4820000.0 2:2.0 3:3.0 4:3.0 5:56.0 6:1.68 
-0.1454865772816269 1:4820000.0 2:1.0 3:3.5 4:3.5 5:56.0 6:1.68 
-0.22711296281723342 1:3800000.0 2:4.0 3:5.0 4:5.0 5:49.0 6:1.46 
-0.25791792403403146 1:24000.0 2:0.0 3:4.5 4:4.5 5:78.0 6:2.12 
-0.23032732519788068 1:1270000.0 2:1.0 3:3.3333333333333335 4:3.3333333333333335 5:65.0 6:1.46 
-0.2549109388838644 1:1410000.0 2:2.0 3:4.5 4:4.5 5:87.0 6:1.76 
-0.2586299003511499 1:4360000.0 2:0.0 3:7.0 4:7.0 5:51.0 6:3.02 
-0.09158830265977035 1:1270000.0 2:3.0 3:5.0 4:5.0 5:65.0 6:1.46 
-0.6662459699759814 1:9490000.0 2:0.0 3:0.0 4:0.0 5:61.0 6:1.64 
-0.22775152169545493 1:4820000.0 2:0.0 3:1.0 4:1.0 5:56.0 6:1.68 
-0.035295859277110146 1:3800000.0 2:2.0 3:5.0 4:5.0 5:49.0 6:1.46 
-0.2580985397258838 1:1.53E7 2:1.0 3:0.0 4:0.0 5:59.0 6:1.725 
-0.2580977334430973 1:314000.0 2:0.0 3:7.5 4:7.5 5:77.0 6:2.26 
-0.25809744078927166 1:1.94E7 2:0.0 3:0.0 4:0.0 5:69.0 6:1.56 
-0.3079472481050773 1:3800000.0 2:0.0 3:4.0 4:4.0 5:49.0 6:1.46 
-0.19805792873637892 1:1270000.0 2:4.0 3:6.0 4:6.0 5:65.0 6:1.46 
-0.25330362710904786 1:685000.0 2:11.0 3:10.0 4:10.0 5:83.0 6:1.72 
-0.25868549657301854 1:1050000.0 2:34.0 3:2.5 4:2.5 5:69.0 6:1.48 
-0.23340236120107724 1:2490000.0 2:4.0 3:0.0 4:0.0 5:59.0 6:1.24 
-0.22562949532291693 1:685000.0 2:0.0 3:5.333333333333333 4:5.333333333333333 5:83.0 6:1.72 
-0.25380069421967444 1:685000.0 2:15.0 3:8.0 4:8.0 5:83.0 6:1.72 
-0.23362233919001169 1:2490000.0 2:1.0 3:1.5 4:1.5 5:59.0 6:1.24 
-0.18108139172439724 1:9630000.0 2:4.0 3:3.0 4:3.0 5:54.0 6:1.42 
-0.25818109101056513 1:685000.0 2:22.0 3:4.0 4:4.0 5:83.0 6:1.72 
-0.21300773761701625 1:685000.0 2:5.0 3:5.0 4:5.0 5:83.0 6:1.72 
-0.25818531073176837 1:2660000.0 2:0.0 3:0.0 4:0.0 5:122.0 6:2.8 
-0.2339460312772148 1:2490000.0 2:3.0 3:9.0 4:9.0 5:59.0 6:1.24 
-0.18431311641763476 1:9630000.0 2:3.0 3:5.666666666666667 4:5.666666666666667 5:54.0 6:1.42 
-0.2104391373490181 1:9630000.0 2:0.0 3:0.0 4:0.0 5:54.0 6:1.42 
-0.23597557553570114 1:685000.0 2:2.0 3:8.0 4:8.0 5:83.0 6:1.72 
-0.1807914932922418 1:9630000.0 2:1.0 3:4.0 4:4.0 5:54.0 6:1.42 
-0.0832339862326536 1:685000.0 2:3.0 3:5.5 4:5.5 5:83.0 6:1.72 
-0.2339479668071459 1:2490000.0 2:2.0 3:6.5 4:6.5 5:59.0 6:1.24 
-0.2525974692025029 1:1.2E7 2:0.0 3:0.0 4:0.0 5:71.0 6:1.74 
-0.25766318700014734 1:2.03E7 2:2.0 3:7.0 4:7.0 5:43.0 6:1.48 
-1.0 1:4060000.0 2:3.0 3:3.5 4:3.5 5:45.0 6:1.66 
-0.2586474166955856 1:3720000.0 2:0.0 3:0.0 4:0.0 5:47.0 6:2.42 
-1.0 1:4060000.0 2:2.0 3:4.5 4:4.5 5:45.0 6:1.66 
-1.0 1:2.03E7 2:0.0 3:0.0 4:0.0 5:43.0 6:1.48 
-0.16209942950676312 1:2.03E7 2:3.0 3:3.0 4:3.0 5:43.0 6:1.48 
-0.12665603912443144 1:2.03E7 2:4.0 3:2.5 4:2.5 5:43.0 6:1.48 
-1.0 1:2.03E7 2:1.0 3:0.0 4:0.0 5:43.0 6:1.48 
-0.2338052171442072 1:121.0 2:0.0 3:0.0 4:0.0 5:139.0 6:3.0 
-0.2587054889917299 1:1.02E7 2:0.0 3:0.0 4:0.0 5:86.0 6:1.74 
-0.2137763680239842 1:8340000.0 2:1.0 3:2.0 4:2.0 5:84.0 6:1.7 
-0.24241682800596542 1:1.87E7 2:2.0 3:0.0 4:0.0 5:95.0 6:1.92 
-0.25504018157932407 1:121.0 2:10.0 3:4.0 4:4.0 5:139.0 6:3.0 
-0.25591916606659304 1:121.0 2:13.0 3:1.0 4:1.0 5:139.0 6:3.0 
-0.22177712501222246 1:1.87E7 2:1.0 3:3.5 4:3.5 5:95.0 6:1.92 
-0.25820541404224384 1:1.94E7 2:0.0 3:0.0 4:0.0 5:94.0 6:1.94 
-0.2074581263665211 1:1.87E7 2:4.0 3:2.5 4:2.5 5:95.0 6:1.92 
-0.23375014122393323 1:121.0 2:1.0 3:2.5 4:2.5 5:139.0 6:3.0 
-0.21477388782362727 1:8340000.0 2:4.0 3:1.5 4:1.5 5:84.0 6:1.7 
-0.1756103155719416 1:1.25E7 2:1.0 3:4.0 4:4.0 5:66.0 6:1.32 
-0.25732355203315005 1:1.25E7 2:4.0 3:0.0 4:0.0 5:66.0 6:1.32 
-0.17370209280338086 1:8730000.0 2:1.0 3:3.0 4:3.0 5:54.0 6:1.74 
-0.17517042920738338 1:1.25E7 2:3.0 3:4.5 4:4.5 5:66.0 6:1.32 
-0.014198496377614365 1:2290000.0 2:26.0 3:4.333333333333333 4:4.333333333333333 5:144.0 6:3.28 
-0.25822324773310357 1:1.76E7 2:1.0 3:6.0 4:6.0 5:67.0 6:1.82 
-0.15642028022580423 1:8730000.0 2:3.0 3:3.0 4:3.0 5:54.0 6:1.74 
-0.2583181455858536 1:8740000.0 2:0.0 3:0.0 4:0.0 5:54.0 6:1.64 
-0.2584476677770782 1:3.72E7 2:0.0 3:0.0 4:0.0 5:34.0 6:1.62 
-0.23596325144678187 1:2290000.0 2:24.0 3:5.0 4:5.0 5:144.0 6:3.28 
-0.24558416017464196 1:7720000.0 2:4.0 3:1.0 4:1.0 5:28.0 6:1.78 
-0.2583876572746528 1:1.73E7 2:0.0 3:0.0 4:0.0 5:66.0 6:1.88 
-0.23145532261074137 1:2290000.0 2:27.0 3:2.0 4:2.0 5:144.0 6:3.28 
-0.1511968059230167 1:7720000.0 2:3.0 3:3.6666666666666665 4:3.6666666666666665 5:28.0 6:1.78 
-0.1870333657348266 1:7720000.0 2:2.0 3:5.0 4:5.0 5:28.0 6:1.78 
-0.21196992516278476 1:2290000.0 2:28.0 3:4.5 4:4.5 5:144.0 6:3.28 
-0.25863072200448106 1:1210000.0 2:3.0 3:5.0 4:5.0 5:94.0 6:2.7 
-0.2582011050231466 1:1.51E7 2:3.0 3:0.0 4:0.0 5:56.0 6:1.68 
-0.7235483141343966 1:6670000.0 2:2.0 3:2.5 4:2.5 5:69.0 6:1.68 
-0.258451606966955 1:2660000.0 2:0.0 3:5.0 4:5.0 5:62.0 6:2.8 
-0.1614018778811826 1:5.67E7 2:1.0 3:3.0 4:3.0 5:61.0 6:1.6938775510204083 
-0.20930298534446 1:8950000.0 2:1.0 3:3.75 4:3.75 5:64.0 6:1.3 
-0.25846522999358407 1:232.0 2:0.0 3:6.333333333333333 4:6.333333333333333 5:71.0 6:1.78 
-0.1682290288660323 1:5.67E7 2:3.0 3:2.5 4:2.5 5:61.0 6:1.6938775510204083 
-0.11318003334423174 1:9880000.0 2:3.0 3:2.0 4:2.0 5:66.0 6:1.32 
-0.38137760443950186 1:1.34E7 2:4.0 3:0.0 4:0.0 5:78.0 6:1.56 
-0.25869304279857297 1:2650000.0 2:0.0 3:6.666666666666667 4:6.666666666666667 5:182.0 6:3.66 
-0.22546261610691448 1:9880000.0 2:4.0 3:0.0 4:0.0 5:66.0 6:1.32 
-1.0 1:1.14E7 2:2.0 3:0.0 4:0.0 5:65.0 6:2.0 
-0.21111496161818677 1:8950000.0 2:4.0 3:3.5 4:3.5 5:64.0 6:1.3 
-0.18961318665686047 1:9880000.0 2:1.0 3:2.5 4:2.5 5:66.0 6:1.32 
-0.2587237631599481 1:4100000.0 2:38.0 3:3.4 4:3.4 5:301.0 6:6.42 
-0.0016772582909732603 1:8950000.0 2:3.0 3:3.0 4:3.0 5:64.0 6:1.3 
-0.2567217539341243 1:8950000.0 2:0.0 3:0.0 4:0.0 5:64.0 6:1.3 
-0.24631287499627286 1:5.67E7 2:0.0 3:0.0 4:0.0 5:61.0 6:1.6938775510204083 
-0.25872376316342094 1:1.31E7 2:37.0 3:7.0 4:7.0 5:85.0 6:2.28 
-0.20451291104525343 1:3460000.0 2:4.0 3:0.0 4:0.0 5:81.0 6:1.78 
-0.24449201359706335 1:1.31E7 2:1.0 3:2.6666666666666665 4:2.6666666666666665 5:85.0 6:2.28 
-0.17369960631480336 1:5800000.0 2:1.0 3:3.5 4:3.5 5:26.0 6:1.3 
-0.12764874064991238 1:5800000.0 2:3.0 3:4.5 4:4.5 5:26.0 6:1.3 
-0.529231128573932 1:3460000.0 2:3.0 3:2.5 4:2.5 5:81.0 6:1.78 
-0.2518245463164703 1:5800000.0 2:2.0 3:0.0 4:0.0 5:26.0 6:1.3 
-0.16556533695556225 1:5800000.0 2:4.0 3:3.0 4:3.0 5:26.0 6:1.3 
-0.2436333076028454 1:1.31E7 2:4.0 3:4.666666666666667 4:4.666666666666667 5:85.0 6:2.28 
-0.19717394566774155 1:2.33E7 2:4.0 3:3.5 4:3.5 5:31.0 6:1.46 
-0.2588497416162744 1:303000.0 2:0.0 3:6.0 4:6.0 5:115.0 6:3.54 
-0.051914228735036705 1:8390000.0 2:1.0 3:5.333333333333333 4:5.333333333333333 5:36.0 6:1.5 
-0.2584938748254975 1:9450000.0 2:4.0 3:0.0 4:0.0 5:35.0 6:1.88 
-0.2587237631511782 1:205000.0 2:0.0 3:0.0 4:0.0 5:86.0 6:3.56 
-0.15005661185709424 1:8390000.0 2:0.0 3:5.0 4:5.0 5:36.0 6:1.5 
-0.17890796719868274 1:8390000.0 2:2.0 3:4.0 4:4.0 5:36.0 6:1.5 
-0.1268632448733951 1:4510000.0 2:1.0 3:5.0 4:5.0 5:61.0 6:3.26 
-0.2555538364830549 1:4510000.0 2:5.0 3:3.0 4:3.0 5:61.0 6:3.26 
-0.21073850978528702 1:4510000.0 2:17.0 3:6.0 4:6.0 5:61.0 6:3.26 
-0.25861241130943663 1:3010000.0 2:0.0 3:0.0 4:0.0 5:65.0 6:2.98 
-0.2586615792961749 1:689000.0 2:0.0 3:0.0 4:0.0 5:53.0 6:2.82 
-0.24781853961242095 1:1.68E7 2:4.0 3:3.0 4:3.0 5:43.0 6:1.74 
-0.14995975772898237 1:4510000.0 2:0.0 3:5.0 4:5.0 5:61.0 6:3.26 
-0.2575475599617176 1:9450000.0 2:1.0 3:6.333333333333333 4:6.333333333333333 5:35.0 6:1.88 
-0.24094985212587772 1:2.33E7 2:1.0 3:0.0 4:0.0 5:31.0 6:1.46 
-0.21104824106443898 1:4510000.0 2:18.0 3:4.0 4:4.0 5:61.0 6:3.26 
-0.24770748065227477 1:1.68E7 2:3.0 3:0.0 4:0.0 5:43.0 6:1.74 
-0.1581423026196967 1:2.33E7 2:2.0 3:2.5 4:2.5 5:31.0 6:1.46 
-0.25493013743258686 1:2.33E7 2:0.0 3:6.0 4:6.0 5:31.0 6:1.46 
-0.2580671926897201 1:4510000.0 2:12.0 3:3.0 4:3.0 5:61.0 6:3.26 
-0.15411408146527722 1:1.06E7 2:3.0 3:6.0 4:6.0 5:74.0 6:2.0 
-0.20900784370660946 1:1.06E7 2:0.0 3:5.5 4:5.5 5:74.0 6:2.0 
-0.2576864384826521 1:7770000.0 2:1.0 3:6.0 4:6.0 5:46.0 6:2.06 
-0.08727467141095972 1:1.06E7 2:1.0 3:2.0 4:2.0 5:74.0 6:2.0 
-0.258669652804251 1:2.32E7 2:24.0 3:6.0 4:6.0 5:82.0 6:3.72 
-0.2580083681380462 1:7770000.0 2:3.0 3:2.0 4:2.0 5:46.0 6:2.06 
-0.25867371985938675 1:2.32E7 2:5.0 3:5.0 4:5.0 5:82.0 6:3.72 
-0.04343005116005604 1:1.11E7 2:2.0 3:3.25 4:3.25 5:28.0 6:1.24 
-0.2586828899980868 1:7.52E7 2:2.0 3:3.5 4:3.5 5:55.0 6:1.78 
-0.2583612953709042 1:4.51E7 2:0.0 3:0.0 4:0.0 5:74.0 6:1.52 
-0.17089858859399107 1:4.51E7 2:1.0 3:5.0 4:5.0 5:74.0 6:1.52 
-0.25769511980583654 1:6.76E7 2:4.0 3:0.0 4:0.0 5:35.0 6:1.06 
-0.0187763875170376 1:3.26E7 2:2.0 3:3.0 4:3.0 5:49.0 6:1.62 
-0.232805543259075 1:1.51E7 2:3.0 3:0.0 4:0.0 5:72.0 6:1.46 
-0.2149526151748841 1:3.26E7 2:4.0 3:3.0 4:3.0 5:49.0 6:1.62 
-0.21334825746874359 1:1.51E7 2:1.0 3:3.0 4:3.0 5:72.0 6:1.46 
-0.17099799006340585 1:4.51E7 2:3.0 3:5.333333333333333 4:5.333333333333333 5:74.0 6:1.52 
-0.2586404553995364 1:6.76E7 2:1.0 3:10.0 4:10.0 5:35.0 6:1.06 
-0.21279412053342195 1:3.26E7 2:1.0 3:2.0 4:2.0 5:49.0 6:1.62 
-0.25800000390497324 1:6.76E7 2:2.0 3:4.0 4:4.0 5:35.0 6:1.06 
-0.19029554861175013 1:1.51E7 2:4.0 3:2.5 4:2.5 5:72.0 6:1.46 
-0.1802452119283274 1:9170000.0 2:2.0 3:4.0 4:4.0 5:62.0 6:1.24 
-0.25859628242546123 1:3100000.0 2:0.0 3:0.0 4:0.0 5:137.0 6:2.74 
-0.2584624866509439 1:510000.0 2:26.0 3:2.5 4:2.5 5:99.0 6:2.02 
-0.24589222977660186 1:510000.0 2:47.0 3:4.0 4:4.0 5:99.0 6:2.02 
-0.2584612272567957 1:3280000.0 2:4.0 3:6.0 4:6.0 5:66.0 6:1.38 
-0.1790228902876939 1:9170000.0 2:1.0 3:6.0 4:6.0 5:62.0 6:1.24 
-0.2576354482402506 1:9170000.0 2:0.0 3:0.0 4:0.0 5:62.0 6:1.24 
-0.18297029284804395 1:9170000.0 2:4.0 3:5.666666666666667 4:5.666666666666667 5:62.0 6:1.24 
-0.25814875933321424 1:3280000.0 2:0.0 3:0.0 4:0.0 5:66.0 6:1.38 
-1.0 1:510000.0 2:1.0 3:4.0 4:4.0 5:99.0 6:2.02 
-0.25814642242083496 1:480000.0 2:0.0 3:0.0 4:0.0 5:106.0 6:2.2 
-0.24642545643127167 1:510000.0 2:43.0 3:5.0 4:5.0 5:99.0 6:2.02 
-0.25812097915570154 1:5.52E7 2:44.0 3:6.0 4:6.0 5:78.0 6:2.06 
-0.19531884929145732 1:3.7E7 2:1.0 3:2.0 4:2.0 5:39.0 6:1.46 
-0.25509829958871627 1:2780000.0 2:0.0 3:0.0 4:0.0 5:80.0 6:2.04 
-0.2453075707003869 1:2.41E7 2:2.0 3:2.5 4:2.5 5:74.0 6:1.92 
-0.2581804989759204 1:1050000.0 2:0.0 3:0.0 4:0.0 5:57.0 6:4.22 
-0.15604596395756207 1:5.52E7 2:2.0 3:3.0 4:3.0 5:78.0 6:2.06 
-0.236178225969584 1:5.52E7 2:7.0 3:6.0 4:6.0 5:78.0 6:2.06 
-0.3376688666783632 1:5.52E7 2:0.0 3:2.25 4:2.25 5:78.0 6:2.06 
-0.25815104517274406 1:5.52E7 2:18.0 3:4.5 4:4.5 5:78.0 6:2.06 
-0.24281718411567504 1:2.41E7 2:0.0 3:0.0 4:0.0 5:75.0 6:1.92 
-0.25762970156945375 1:1.18E7 2:2.0 3:0.0 4:0.0 5:65.0 6:1.74 
-0.28844151842697846 1:5.52E7 2:4.0 3:3.25 4:3.25 5:78.0 6:2.06 
-0.14101636859676175 1:3.7E7 2:0.0 3:0.0 4:0.0 5:39.0 6:1.46 
-0.14285343853262028 1:3.7E7 2:2.0 3:0.0 4:0.0 5:39.0 6:1.46 
-0.24165078150146302 1:5.52E7 2:11.0 3:5.5 4:5.5 5:78.0 6:2.06 
-0.2581800164056678 1:6460000.0 2:11.0 3:1.0 4:1.0 5:74.0 6:1.9 
-0.2206581208430306 1:4.81E7 2:0.0 3:3.0 4:3.0 5:48.0 6:1.56 
-0.25818262468832964 1:3.53E7 2:31.0 3:6.4 4:6.4 5:171.0 6:6.02 
-0.14032388738919935 1:1.79E7 2:3.0 3:8.0 4:8.0 5:7.0 6:0.18 
-0.1641424048809309 1:8070000.0 2:2.0 3:4.5 4:4.5 5:42.0 6:1.46 
-0.25821327747112127 1:2.26E7 2:25.0 3:5.666666666666667 4:5.666666666666667 5:157.0 6:5.66 
-0.1396424432018092 1:1.79E7 2:2.0 3:8.0 4:8.0 5:7.0 6:0.18 
-0.24980875801645858 1:8070000.0 2:1.0 3:7.666666666666667 4:7.666666666666667 5:42.0 6:1.46 
-1.0 1:2.05E7 2:0.0 3:0.0 4:0.0 5:50.0 6:3.72 
-0.16986259456638747 1:8070000.0 2:0.0 3:4.333333333333333 4:4.333333333333333 5:42.0 6:1.46 
-0.25835662111176555 1:2.26E7 2:1.0 3:4.5 4:4.5 5:157.0 6:5.66 
-0.2138404895980721 1:7410000.0 2:1.0 3:3.0 4:3.0 5:52.0 6:1.8 
-0.14450312868056875 1:7410000.0 2:0.0 3:1.0 4:1.0 5:52.0 6:1.8 
-0.25843498800415066 1:649000.0 2:0.0 3:9.0 4:9.0 5:17.0 6:1.8 
-0.2583527666051907 1:6750000.0 2:6.0 3:2.5 4:2.5 5:66.0 6:2.78 
-0.257009507841383 1:3.29E7 2:9.0 3:3.5 4:3.5 5:51.0 6:2.48 
-0.25726442204832545 1:3.29E7 2:4.0 3:5.5 4:5.5 5:51.0 6:2.48 
-0.5196265116037122 1:1150000.0 2:1.0 3:5.0 4:5.0 5:64.0 6:1.32 
-0.2583503942246875 1:3360000.0 2:2.0 3:1.6666666666666667 4:1.6666666666666667 5:183.0 6:5.58 
-0.2583504390842436 1:7.36E7 2:1.0 3:6.0 4:6.0 5:40.0 6:1.12 
-0.2583541510207836 1:3360000.0 2:38.0 3:0.0 4:0.0 5:183.0 6:5.58 
-0.2583974298891647 1:3360000.0 2:16.0 3:16.0 4:16.0 5:183.0 6:5.58 
-0.25841688721661243 1:3360000.0 2:22.0 3:1.25 4:1.25 5:183.0 6:5.58 
-1.0 1:1150000.0 2:3.0 3:3.5 4:3.5 5:64.0 6:1.32 
-0.1352621343754719 1:3.47E7 2:2.0 3:3.5 4:3.5 5:69.0 6:1.38 
-0.2627777049671826 1:2280000.0 2:2.0 3:1.5 4:1.5 5:205.0 6:4.26 
-0.2582890390032312 1:2630000.0 2:0.0 3:0.0 4:0.0 5:156.0 6:3.12 
-0.14290451912075436 1:3.47E7 2:3.0 3:3.5 4:3.5 5:69.0 6:1.38 
-0.2583565419155247 1:8570000.0 2:0.0 3:4.0 4:4.0 5:62.0 6:1.42 
-0.25839406429328626 1:2.15E7 2:4.0 3:0.0 4:0.0 5:74.0 6:1.54 
-0.2567768593937424 1:3.47E7 2:0.0 3:0.0 4:0.0 5:69.0 6:1.38 
-0.15432369887289418 1:2.41E7 2:2.0 3:0.0 4:0.0 5:81.0 6:1.66 
-0.25821984174169854 1:1.57E8 2:0.0 3:3.2 4:3.2 5:92.0 6:2.58 
-1.0 1:7.28E8 2:0.0 3:0.0 4:0.0 5:40.0 6:1.6 
-1.0 1:7.28E8 2:1.0 3:5.0 4:5.0 5:45.0 6:1.673913043478261 
-1.0 1:7.93E7 2:0.0 3:0.0 4:0.0 5:51.0 6:1.34 
-0.2306191304338437 1:2.41E7 2:1.0 3:4.0 4:4.0 5:81.0 6:1.66 
-0.2582223962276528 1:1.57E8 2:19.0 3:6.0 4:6.0 5:92.0 6:2.58 
-0.21369242938501648 1:2.46E7 2:19.0 3:7.5 4:7.5 5:184.0 6:3.76 
-0.17786200973142077 1:1.42E7 2:1.0 3:7.0 4:7.0 5:57.0 6:1.82 
-0.15081094621452384 1:2.46E7 2:23.0 3:7.6 4:7.6 5:184.0 6:3.76 
-0.2416208339548397 1:2.46E7 2:20.0 3:11.0 4:11.0 5:184.0 6:3.76 
-0.10641837365888497 1:2.46E7 2:36.0 3:7.0 4:7.0 5:184.0 6:3.76 
-0.2581848210246315 1:2.46E7 2:2.0 3:4.0 4:4.0 5:184.0 6:3.76 
-0.22751680703909072 1:2.46E7 2:5.0 3:8.0 4:8.0 5:184.0 6:3.76 
-0.09346908749052285 1:2.46E7 2:21.0 3:8.666666666666666 4:8.666666666666666 5:184.0 6:3.76 
-0.09081230620555905 1:1.42E7 2:3.0 3:7.333333333333333 4:7.333333333333333 5:57.0 6:1.82 
-0.006867753749252632 1:2.46E7 2:26.0 3:8.4 4:8.4 5:184.0 6:3.76 
-0.16883729197416164 1:2.46E7 2:37.0 3:7.666666666666667 4:7.666666666666667 5:184.0 6:3.76 
-0.19074044862705744 1:2.46E7 2:33.0 3:8.0 4:8.0 5:184.0 6:3.76 
-0.16250389977093446 1:1.42E7 2:4.0 3:6.0 4:6.0 5:57.0 6:1.82 
-0.18722972339360205 1:2.46E7 2:13.0 3:6.8 4:6.8 5:184.0 6:3.76 
-0.2585838340804153 1:2.46E7 2:29.0 3:1.0 4:1.0 5:184.0 6:3.76 
-0.050500720039317284 1:2.46E7 2:12.0 3:7.333333333333333 4:7.333333333333333 5:184.0 6:3.76 
-0.21448857245047334 1:2.46E7 2:30.0 3:7.2 4:7.2 5:184.0 6:3.76 
-0.1515826098375856 1:2.46E7 2:10.0 3:6.2 4:6.2 5:184.0 6:3.76 
-0.11181371084413505 1:2.46E7 2:25.0 3:8.2 4:8.2 5:184.0 6:3.76 
-0.1577825134956598 1:2.46E7 2:8.0 3:7.333333333333333 4:7.333333333333333 5:184.0 6:3.76 
-0.21089810716427948 1:2.46E7 2:27.0 3:9.5 4:9.5 5:184.0 6:3.76 
-0.17574622569013137 1:8970000.0 2:3.0 3:1.0 4:1.0 5:62.0 6:1.54 
-0.09244687888696504 1:1.06E7 2:2.0 3:2.0 4:2.0 5:73.0 6:1.5 
-0.25869816959181535 1:18200.0 2:7.0 3:4.666666666666667 4:4.666666666666667 5:88.0 6:1.98 
-0.11167851173323795 1:8970000.0 2:2.0 3:3.0 4:3.0 5:62.0 6:1.54 
-0.18121928167882123 1:1.06E7 2:4.0 3:4.5 4:4.5 5:73.0 6:1.5 
-0.19105696649011011 1:8970000.0 2:0.0 3:1.0 4:1.0 5:62.0 6:1.54 
-0.19733472666083815 1:8970000.0 2:4.0 3:4.0 4:4.0 5:62.0 6:1.54 
-0.22571968150194166 1:1.06E7 2:0.0 3:0.0 4:0.0 5:73.0 6:1.5 
-0.25836074874143333 1:18200.0 2:1.0 3:2.3333333333333335 4:2.3333333333333335 5:88.0 6:1.98 
-0.1020610286325643 1:1.06E7 2:1.0 3:3.0 4:3.0 5:73.0 6:1.5 
-0.15737348436709764 1:1.18E7 2:1.0 3:7.0 4:7.0 5:57.0 6:1.48 
-0.2571155503810261 1:2.98E8 2:0.0 3:5.0 4:5.0 5:37.0 6:1.62 
-1.0 1:2.15E7 2:0.0 3:0.0 4:0.0 5:47.0 6:1.6 
-0.2390218254717652 1:1.16E7 2:3.0 3:0.0 4:0.0 5:74.0 6:1.64 
-0.10232376638311799 1:2.15E7 2:1.0 3:4.5 4:4.5 5:49.0 6:1.64 
-0.028303318652701664 1:2.15E7 2:3.0 3:5.0 4:5.0 5:49.0 6:1.64 
-0.006022363996679771 1:1.18E7 2:2.0 3:8.0 4:8.0 5:57.0 6:1.48 
-0.20741639362970188 1:1.16E7 2:2.0 3:7.5 4:7.5 5:74.0 6:1.64 
-0.21429706484133065 1:1.18E7 2:4.0 3:7.0 4:7.0 5:57.0 6:1.48 
-0.20842352725289875 1:1.16E7 2:4.0 3:9.0 4:9.0 5:74.0 6:1.64 
-0.17500320942249564 1:2.15E7 2:4.0 3:7.0 4:7.0 5:49.0 6:1.64 
-0.2559229758260329 1:2.98E8 2:1.0 3:4.0 4:4.0 5:37.0 6:1.62 
-0.25849659110942735 1:1100000.0 2:42.0 3:8.5 4:8.5 5:267.0 6:5.9 
-0.2563416036623453 1:9470000.0 2:3.0 3:0.0 4:0.0 5:54.0 6:1.66 
-0.2556821514617287 1:9470000.0 2:1.0 3:3.5 4:3.5 5:54.0 6:1.66 
-0.21772945458345694 1:7.02E7 2:9.0 3:3.0 4:3.0 5:101.0 6:3.78 
-0.2585039471290195 1:3.88E8 2:0.0 3:1.0 4:1.0 5:47.0 6:1.78 
-0.2585079529135864 1:3.27E8 2:49.0 3:2.0 4:2.0 5:66.0 6:3.32 
-0.21681585756083754 1:7.02E7 2:12.0 3:4.5 4:4.5 5:101.0 6:3.78 
-0.8608768524914947 1:3160000.0 2:4.0 3:6.5 4:6.5 5:87.0 6:1.76 
-0.2583633457362328 1:2870000.0 2:0.0 3:0.0 4:0.0 5:84.0 6:1.7 
-0.2585925555522564 1:1.14E7 2:0.0 3:4.0 4:4.0 5:15.0 6:0.62 
-1.0 1:3160000.0 2:1.0 3:4.5 4:4.5 5:87.0 6:1.76 
-1.0 1:1.9E8 2:0.0 3:1.0 4:1.0 5:47.0 6:1.44 
-0.25851758216094284 1:7210000.0 2:33.0 3:2.5 4:2.5 5:122.0 6:2.74 
-0.15834728872628218 1:2.07E7 2:1.0 3:3.0 4:3.0 5:62.0 6:1.26 
-0.22283749895688304 1:1.07E7 2:0.0 3:0.0 4:0.0 5:64.0 6:1.96 
-0.2494879239048659 1:7.0E7 2:5.0 3:3.0 4:3.0 5:139.0 6:3.06 
-0.1741745446070268 1:2.07E7 2:3.0 3:3.0 4:3.0 5:62.0 6:1.26 
-0.2963976239068545 1:9720000.0 2:4.0 3:0.0 4:0.0 5:80.0 6:1.64 
-0.2500046101021701 1:2.07E7 2:0.0 3:0.0 4:0.0 5:62.0 6:1.26 
-0.24958195870565786 1:7.0E7 2:1.0 3:1.6 4:1.6 5:139.0 6:3.06 
-0.44796723865749394 1:9720000.0 2:1.0 3:2.0 4:2.0 5:80.0 6:1.64 
-0.19335721357142166 1:1.16E7 2:4.0 3:2.0 4:2.0 5:59.0 6:1.44 
-0.2457562406079703 1:1.16E7 2:13.0 3:4.0 4:4.0 5:59.0 6:1.44 
-0.1355187419120099 1:2.17E7 2:4.0 3:1.0 4:1.0 5:60.0 6:1.34 
-0.11839052166026297 1:2.17E7 2:1.0 3:2.5 4:2.5 5:60.0 6:1.34 
-0.25860667432403917 1:1.0E8 2:0.0 3:4.0 4:4.0 5:91.0 6:2.78 
-0.24617798416057368 1:1.16E7 2:17.0 3:5.0 4:5.0 5:59.0 6:1.44 
-0.16134152021282655 1:2.17E7 2:3.0 3:0.0 4:0.0 5:60.0 6:1.34 
-0.25863661474252825 1:183000.0 2:0.0 3:0.0 4:0.0 5:152.0 6:3.1 
-0.2270307171061271 1:1.16E7 2:1.0 3:3.0 4:3.0 5:59.0 6:1.44 
-1.0 1:1.25E8 2:0.0 3:0.0 4:0.0 5:54.0 6:1.44 
-0.2333675401026738 1:1.16E7 2:7.0 3:3.3333333333333335 4:3.3333333333333335 5:59.0 6:1.44 
-0.255363958119302 1:3.45E7 2:4.0 3:7.5 4:7.5 5:45.0 6:1.5 
-0.1600369575877113 1:6690000.0 2:0.0 3:0.0 4:0.0 5:49.0 6:1.4 
-0.1320141785507599 1:3.45E7 2:3.0 3:4.0 4:4.0 5:45.0 6:1.5 
-0.13994369222513883 1:53100.0 2:14.0 3:4.0 4:4.0 5:50.0 6:1.56 
-0.1615449313280029 1:6690000.0 2:1.0 3:1.0 4:1.0 5:49.0 6:1.4 
-0.25866790132923095 1:53100.0 2:0.0 3:3.5 4:3.5 5:50.0 6:1.56 
-0.13994369222514944 1:53100.0 2:15.0 3:4.0 4:4.0 5:50.0 6:1.56 
-0.14548954123430843 1:3.45E7 2:2.0 3:4.0 4:4.0 5:45.0 6:1.5 
-0.2584624370039525 1:3.46E7 2:0.0 3:8.0 4:8.0 5:99.0 6:3.6 
-0.1493949768702236 1:1.89E7 2:1.0 3:4.666666666666667 4:4.666666666666667 5:53.0 6:1.26 
-0.25844691339071446 1:2050000.0 2:47.0 3:0.0 4:0.0 5:115.0 6:4.64 
-0.2584976399168665 1:7830000.0 2:0.0 3:0.0 4:0.0 5:63.0 6:3.14 
-0.2544594854197541 1:1.89E7 2:0.0 3:0.0 4:0.0 5:50.0 6:1.28 
-0.25403451781596303 1:1.89E7 2:4.0 3:0.0 4:0.0 5:53.0 6:1.26 
-0.2585906776315726 1:1.67E7 2:3.0 3:9.0 4:9.0 5:44.0 6:2.2 
-0.2171104705151965 1:2.26E7 2:1.0 3:3.5 4:3.5 5:43.0 6:1.62 
-0.2585493374771267 1:2050000.0 2:0.0 3:5.0 4:5.0 5:115.0 6:4.64 
-0.25469277335627066 1:1.67E7 2:0.0 3:4.5 4:4.5 5:44.0 6:2.2 
-0.14603189405434072 1:1.89E7 2:2.0 3:4.0 4:4.0 5:53.0 6:1.26 
-0.21866381432241805 1:2.26E7 2:4.0 3:5.0 4:5.0 5:43.0 6:1.62 
-0.2547706554955021 1:1.67E7 2:1.0 3:1.0 4:1.0 5:44.0 6:2.2 
-0.03465354082361422 1:2.26E7 2:2.0 3:4.666666666666667 4:4.666666666666667 5:43.0 6:1.62 
-0.2583721896298793 1:2.54E7 2:0.0 3:0.0 4:0.0 5:49.0 6:1.62 
-0.2583743572353943 1:2050000.0 2:2.0 3:10.0 4:10.0 5:115.0 6:4.64 
-0.25802941850451167 1:3250000.0 2:3.0 3:4.5 4:4.5 5:103.0 6:2.2 
-0.2101123823477884 1:1260000.0 2:4.0 3:4.25 4:4.25 5:90.0 6:2.0 
-0.2578778556891859 1:1.59E7 2:0.0 3:0.0 4:0.0 5:57.0 6:1.24 
-0.14621402621700536 1:3250000.0 2:2.0 3:0.0 4:0.0 5:103.0 6:2.2 
-0.1706177058246277 1:1260000.0 2:1.0 3:3.0 4:3.0 5:90.0 6:2.0 
-0.11264536224706016 1:1.59E7 2:3.0 3:5.0 4:5.0 5:57.0 6:1.24 
-0.22221444253395256 1:1.59E7 2:4.0 3:7.0 4:7.0 5:57.0 6:1.24 
-0.14388207016648885 1:3250000.0 2:1.0 3:0.5 4:0.5 5:103.0 6:2.2 
-0.18760532985859837 1:1.59E7 2:1.0 3:5.0 4:5.0 5:57.0 6:1.24 
-0.1628569249914562 1:1260000.0 2:3.0 3:2.0 4:2.0 5:90.0 6:2.0 
-0.2583710330411397 1:1420000.0 2:0.0 3:8.0 4:8.0 5:114.0 6:3.46 
-0.258363077668366 1:1260000.0 2:14.0 3:4.0 4:4.0 5:90.0 6:2.0 
-0.2583101958913888 1:1.09E8 2:0.0 3:0.0 4:0.0 5:41.0 6:1.88 
-0.18844392095377538 1:720000.0 2:1.0 3:4.0 4:4.0 5:69.0 6:1.46 
-0.2585670033742419 1:495000.0 2:48.0 3:7.0 4:7.0 5:73.0 6:1.64 
-0.16344997319319027 1:720000.0 2:4.0 3:4.0 4:4.0 5:69.0 6:1.46 
-0.23394050155884732 1:495000.0 2:29.0 3:8.0 4:8.0 5:73.0 6:1.64 
-0.258552611843278 1:495000.0 2:1.0 3:5.0 4:5.0 5:73.0 6:1.64 
-0.23396798929823298 1:495000.0 2:28.0 3:5.5 4:5.5 5:73.0 6:1.64 
-0.1739256166856889 1:720000.0 2:3.0 3:5.75 4:5.75 5:69.0 6:1.46 
-0.258499474269743 1:495000.0 2:21.0 3:6.333333333333333 4:6.333333333333333 5:73.0 6:1.64 
-0.2582590459021181 1:1.09E8 2:4.0 3:4.0 4:4.0 5:41.0 6:1.88 
-0.25715816097374017 1:720000.0 2:0.0 3:0.0 4:0.0 5:69.0 6:1.46 
-0.2581448105950334 1:95000.0 2:4.0 3:8.0 4:8.0 5:22.0 6:1.24 
-0.17084748704692837 1:95000.0 2:0.0 3:4.0 4:4.0 5:22.0 6:1.24 
-0.25742639322249156 1:104000.0 2:2.0 3:8.11111111111111 4:8.11111111111111 5:24.0 6:0.58 
-0.2576333844811385 1:104000.0 2:3.0 3:4.0 4:4.0 5:24.0 6:0.58 
-0.26686127118015324 1:1.05E8 2:1.0 3:3.5 4:3.5 5:35.0 6:1.8 
-0.17008081766417582 1:95000.0 2:2.0 3:4.0 4:4.0 5:22.0 6:1.24 
-0.2586699234581825 1:95900.0 2:0.0 3:2.0 4:2.0 5:70.0 6:2.18 
-0.12817573008013922 1:1430000.0 2:2.0 3:3.3333333333333335 4:3.3333333333333335 5:34.0 6:0.92 
-0.21354042200744555 1:1430000.0 2:4.0 3:5.5 4:5.5 5:34.0 6:0.92 
-0.19088799507738785 1:1430000.0 2:0.0 3:3.0 4:3.0 5:34.0 6:0.92 
-0.17475325065513925 1:1.63E7 2:1.0 3:2.5 4:2.5 5:48.0 6:1.44 
-0.21423616077692853 1:95900.0 2:10.0 3:4.333333333333333 4:4.333333333333333 5:70.0 6:2.18 
-0.1847393026081397 1:64100.0 2:1.0 3:3.5 4:3.5 5:18.0 6:0.46 
-0.03803341394010629 1:1430000.0 2:3.0 3:5.0 4:5.0 5:34.0 6:0.92 
-0.23549497544600848 1:95900.0 2:6.0 3:6.5 4:6.5 5:70.0 6:2.18 
-0.187791213650136 1:95900.0 2:7.0 3:4.0 4:4.0 5:70.0 6:2.18 
-0.18473930260813964 1:64100.0 2:0.0 3:5.0 4:5.0 5:18.0 6:0.46 
-0.25869424079051967 1:11200.0 2:10.0 3:4.5 4:4.5 5:62.0 6:2.44 
-0.17131640921335822 1:1.63E7 2:0.0 3:1.0 4:1.0 5:48.0 6:1.44 
-0.2254455783338469 1:1.63E7 2:3.0 3:0.0 4:0.0 5:48.0 6:1.44 
-0.2255318336176254 1:1.15E7 2:0.0 3:0.0 4:0.0 5:51.0 6:1.4 
-0.2551434893371636 1:137000.0 2:0.0 3:5.666666666666667 4:5.666666666666667 5:44.0 6:1.2 
-0.255174550638119 1:137000.0 2:2.0 3:9.0 4:9.0 5:44.0 6:1.2 
-0.2586385403025592 1:43900.0 2:0.0 3:0.0 4:0.0 5:70.0 6:1.48 
-0.1761288489124126 1:225000.0 2:1.0 3:4.0 4:4.0 5:30.0 6:0.7 
-0.25875292922688 1:1.01E7 2:47.0 3:8.0 4:8.0 5:82.0 6:2.98 
-0.25837468179831663 1:1.1E8 2:0.0 3:9.0 4:9.0 5:61.0 6:2.0 
-0.25871963325425423 1:1.76E7 2:0.0 3:5.0 4:5.0 5:52.0 6:2.66 
-0.2586484561802989 1:1.1E8 2:3.0 3:1.0 4:1.0 5:61.0 6:2.0 
-0.11950243394175901 1:225000.0 2:2.0 3:3.0 4:3.0 5:30.0 6:0.7 
-0.1486226243811603 1:1.01E7 2:4.0 3:1.3333333333333333 4:1.3333333333333333 5:82.0 6:2.98 
-0.23506365765674314 1:225000.0 2:0.0 3:1.0 4:1.0 5:30.0 6:0.7 
-0.541911997317952 1:1.01E7 2:2.0 3:2.25 4:2.25 5:82.0 6:2.98 
-0.23190033572966037 1:1.6E7 2:4.0 3:6.5 4:6.5 5:69.0 6:1.38 
-0.17501626483643082 1:3100000.0 2:1.0 3:4.0 4:4.0 5:47.0 6:1.04 
-0.23208685837492546 1:1.6E7 2:0.0 3:6.5 4:6.5 5:69.0 6:1.38 
-0.21806545978782227 1:9940000.0 2:1.0 3:3.0 4:3.0 5:41.0 6:1.9 
-0.2583394885738899 1:2.32E7 2:3.0 3:5.75 4:5.75 5:45.0 6:1.9 
-0.2584981923719452 1:5.07E7 2:0.0 3:0.0 4:0.0 5:201.0 6:4.86 
-0.2586268273992979 1:642000.0 2:1.0 3:8.0 4:8.0 5:58.0 6:2.48 
-0.25862570508500915 1:642000.0 2:34.0 3:5.5 4:5.5 5:58.0 6:2.48 
-0.10031184336895492 1:3100000.0 2:2.0 3:5.0 4:5.0 5:47.0 6:1.04 
-0.25850348752474395 1:2390000.0 2:0.0 3:0.0 4:0.0 5:153.0 6:3.06 
-0.11566749900975225 1:9940000.0 2:2.0 3:3.6666666666666665 4:3.6666666666666665 5:41.0 6:1.9 
-0.25838569900109315 1:2.32E7 2:1.0 3:1.0 4:1.0 5:45.0 6:1.9 
-0.21559158454737176 1:3100000.0 2:0.0 3:6.5 4:6.5 5:47.0 6:1.04 
-0.020243976609265035 1:1.6E7 2:2.0 3:6.5 4:6.5 5:69.0 6:1.38 
-0.17485432087786723 1:2.08E7 2:1.0 3:3.5 4:3.5 5:42.0 6:1.62 
-0.2584666311807128 1:1.16E8 2:0.0 3:0.0 4:0.0 5:23.0 6:1.28 
-0.1957017960564037 1:5.26E7 2:2.0 3:2.75 4:2.75 5:179.0 6:4.76 
-0.2342514744916891 1:5.26E7 2:7.0 3:2.0 4:2.0 5:179.0 6:4.76 
-0.1359880603778656 1:5.26E7 2:4.0 3:3.0 4:3.0 5:179.0 6:4.76 
-0.12929043035592463 1:2.08E7 2:0.0 3:0.0 4:0.0 5:42.0 6:1.62 
-0.25865579581530795 1:7.22E7 2:4.0 3:0.0 4:0.0 5:39.0 6:1.3111111111111111 
-0.2585015800371346 1:1.42E8 2:43.0 3:4.0 4:4.0 5:183.0 6:5.52 
-0.2583607049073808 1:3000000.0 2:0.0 3:0.0 4:0.0 5:136.0 6:2.88 
-0.2457256626439155 1:2.08E7 2:4.0 3:5.5 4:5.5 5:42.0 6:1.62 
-0.25405170835926516 1:1.41E8 2:2.0 3:0.0 4:0.0 5:28.0 6:1.76 
-0.25817917673834 1:1.46E8 2:1.0 3:0.0 4:0.0 5:74.0 6:1.98 
-0.258491135138149 1:7.22E7 2:0.0 3:5.0 4:5.0 5:39.0 6:1.3111111111111111 
-0.17329066662779102 1:2.08E7 2:3.0 3:2.0 4:2.0 5:42.0 6:1.62 
-0.25826189555621976 1:2370000.0 2:0.0 3:9.0 4:9.0 5:59.0 6:1.66 
-0.2581606754833842 1:199000.0 2:27.0 3:4.5 4:4.5 5:84.0 6:2.12 
-0.24545744712095197 1:199000.0 2:14.0 3:7.0 4:7.0 5:84.0 6:2.12 
-0.02425941429694133 1:2.63E7 2:2.0 3:5.5 4:5.5 5:68.0 6:1.36 
-0.36228106918402225 1:5.1E7 2:1.0 3:2.0 4:2.0 5:45.0 6:2.04 
-0.19877427094551114 1:199000.0 2:3.0 3:5.571428571428571 4:5.571428571428571 5:84.0 6:2.12 
-0.233645759590291 1:199000.0 2:4.0 3:8.0 4:8.0 5:84.0 6:2.12 
-0.2581497673747705 1:125000.0 2:0.0 3:0.0 4:0.0 5:51.0 6:1.16 
-0.2531615208561796 1:199000.0 2:7.0 3:3.3333333333333335 4:3.3333333333333335 5:84.0 6:2.12 
-0.24559856347298847 1:199000.0 2:10.0 3:8.0 4:8.0 5:84.0 6:2.12 
-0.25856646793357835 1:207.0 2:0.0 3:0.0 4:0.0 5:96.0 6:2.04 
-0.20344266815121925 1:199000.0 2:1.0 3:2.0 4:2.0 5:84.0 6:2.12 
-0.18858941700129295 1:199000.0 2:21.0 3:6.0 4:6.0 5:84.0 6:2.12 
-0.13317845750780127 1:199000.0 2:2.0 3:3.5 4:3.5 5:84.0 6:2.12 
-0.18800402110427172 1:199000.0 2:19.0 3:5.0 4:5.0 5:84.0 6:2.12 
-0.2584448519684127 1:199000.0 2:34.0 3:5.5 4:5.5 5:84.0 6:2.12 
-0.258366738194887 1:514000.0 2:14.0 3:7.4 4:7.4 5:159.0 6:5.66 
-0.01612058080213 1:9450000.0 2:2.0 3:6.0 4:6.0 5:41.0 6:1.42 
-0.25849308618483724 1:1.07E9 2:0.0 3:1.0 4:1.0 5:51.0 6:1.14 
-1.0 1:7.5E7 2:0.0 3:0.0 4:0.0 5:45.0 6:1.28 
-0.2585656252963837 1:514000.0 2:27.0 3:3.3333333333333335 4:3.3333333333333335 5:159.0 6:5.66 
-0.2494003923415314 1:1.58E7 2:0.0 3:0.0 4:0.0 5:29.0 6:1.72 
-0.2107953259962096 1:2.13E7 2:1.0 3:5.0 4:5.0 5:68.0 6:1.36 
-0.05053289788010491 1:1.58E7 2:3.0 3:4.333333333333333 4:4.333333333333333 5:29.0 6:1.72 
-0.2570561779305433 1:2.58E7 2:0.0 3:4.8 4:4.8 5:119.0 6:4.92 
-0.2557792647991598 1:2.58E7 2:10.0 3:6.333333333333333 4:6.333333333333333 5:119.0 6:4.92 
-0.0799606822459884 1:1.02E7 2:2.0 3:4.0 4:4.0 5:66.0 6:1.5 
-0.022106241958707334 1:1.58E7 2:2.0 3:3.5 4:3.5 5:29.0 6:1.72 
-0.1821210939324307 1:2.13E7 2:4.0 3:4.0 4:4.0 5:68.0 6:1.36 
-0.2578681710942649 1:237000.0 2:0.0 3:7.333333333333333 4:7.333333333333333 5:205.0 6:4.64 
-0.1407339150533803 1:1.02E7 2:1.0 3:4.0 4:4.0 5:66.0 6:1.5 
-0.20833062145131703 1:1.58E7 2:1.0 3:3.0 4:3.0 5:29.0 6:1.72 
-0.34735109146332327 1:9450000.0 2:3.0 3:8.0 4:8.0 5:41.0 6:1.42 
-0.2249004580167645 1:2.58E7 2:5.0 3:7.5 4:7.5 5:119.0 6:4.92 
-0.24739624026243262 1:2.13E7 2:0.0 3:0.0 4:0.0 5:68.0 6:1.36 
-0.19954879491963218 1:1.02E7 2:0.0 3:0.0 4:0.0 5:66.0 6:1.5 
-0.21477842003838413 1:1.58E7 2:4.0 3:5.285714285714286 4:5.285714285714286 5:29.0 6:1.72 
-0.23040729188856288 1:9450000.0 2:1.0 3:5.333333333333333 4:5.333333333333333 5:41.0 6:1.42 
-0.2270609652644242 1:2.58E7 2:2.0 3:8.75 4:8.75 5:119.0 6:4.92 
-0.25789096670111383 1:1300000.0 2:0.0 3:0.0 4:0.0 5:134.0 6:2.68 
-0.2583874703159287 1:2.58E7 2:33.0 3:4.0 4:4.0 5:119.0 6:4.92 
-0.17651264740908829 1:2.13E7 2:2.0 3:2.5 4:2.5 5:68.0 6:1.36 
-0.25032363394956725 1:8640000.0 2:0.0 3:0.0 4:0.0 5:38.0 6:1.38 
-0.18845006501439998 1:1390000.0 2:2.0 3:0.0 4:0.0 5:30.0 6:1.76 
-0.22048996825950395 1:353000.0 2:3.0 3:6.5 4:6.5 5:20.0 6:0.7 
-0.18908482294878437 1:1390000.0 2:0.0 3:1.0 4:1.0 5:30.0 6:1.76 
-0.2586383409255213 1:1.08E7 2:0.0 3:6.0 4:6.0 5:78.0 6:1.64 
-0.2234594342115301 1:353000.0 2:0.0 3:5.5 4:5.5 5:20.0 6:0.7 
-0.19713214229282555 1:353000.0 2:12.0 3:8.0 4:8.0 5:20.0 6:0.7 
-0.21848562552407919 1:353000.0 2:14.0 3:6.333333333333333 4:6.333333333333333 5:20.0 6:0.7 
-0.24273534787747902 1:353000.0 2:8.0 3:8.0 4:8.0 5:20.0 6:0.7 
-1.0 1:203000.0 2:1.0 3:5.0 4:5.0 5:67.0 6:1.5 
-0.33437117495161334 1:2.06E7 2:4.0 3:2.5 4:2.5 5:76.0 6:1.6 
-0.2085241313892478 1:8930000.0 2:2.0 3:4.0 4:4.0 5:70.0 6:1.42 
-0.2583868480746161 1:4880000.0 2:0.0 3:0.0 4:0.0 5:40.0 6:1.74 
-0.20307076147603892 1:8930000.0 2:4.0 3:2.5 4:2.5 5:70.0 6:1.42 
-0.18419391877511337 1:1.44E7 2:2.0 3:5.5 4:5.5 5:42.0 6:1.78 
-0.12356888368655503 1:8930000.0 2:1.0 3:0.0 4:0.0 5:70.0 6:1.42 
-0.30247022766631704 1:2.06E7 2:0.0 3:0.0 4:0.0 5:76.0 6:1.6 
-0.14771598809615585 1:8930000.0 2:0.0 3:0.0 4:0.0 5:70.0 6:1.42 
-0.21084111846832337 1:402000.0 2:4.0 3:4.0 4:4.0 5:81.0 6:2.0 
-0.19194146138052837 1:2.06E7 2:1.0 3:3.5 4:3.5 5:76.0 6:1.6 
-0.25792829662027644 1:148000.0 2:0.0 3:5.0 4:5.0 5:131.0 6:3.36 
-0.18519199775616468 1:1.44E7 2:1.0 3:4.0 4:4.0 5:42.0 6:1.78 
-0.21157513380435217 1:402000.0 2:3.0 3:6.0 4:6.0 5:81.0 6:2.0 
-0.1887227681503148 1:196000.0 2:3.0 3:4.5 4:4.5 5:110.0 6:2.24 
-0.2413525933309467 1:196000.0 2:14.0 3:9.0 4:9.0 5:110.0 6:2.24 
-0.25840779877903025 1:234000.0 2:0.0 3:6.0 4:6.0 5:121.0 6:2.64 
-0.25425414102127986 1:8930000.0 2:0.0 3:0.0 4:0.0 5:75.0 6:1.54 
-0.1576330757108741 1:196000.0 2:2.0 3:3.3333333333333335 4:3.3333333333333335 5:110.0 6:2.24 
-0.24171062980750868 1:196000.0 2:10.0 3:9.0 4:9.0 5:110.0 6:2.24 
-0.17055965013910496 1:3680000.0 2:0.0 3:4.5 4:4.5 5:72.0 6:1.5 
-0.2584807129623797 1:196000.0 2:49.0 3:1.0 4:1.0 5:110.0 6:2.24 
-0.25843437895200166 1:1.08E7 2:2.0 3:5.75 4:5.75 5:86.0 6:1.78 
-0.17079765952084225 1:3680000.0 2:2.0 3:4.5 4:4.5 5:72.0 6:1.5 
-0.0917847832206561 1:184000.0 2:1.0 3:2.5714285714285716 4:2.5714285714285716 5:63.0 6:2.66 
-0.2527194661880108 1:184000.0 2:6.0 3:7.0 4:7.0 5:63.0 6:2.66 
-0.24252928549238506 1:1.32E7 2:4.0 3:3.5 4:3.5 5:33.0 6:1.66 
-0.25818556849439234 1:267000.0 2:5.0 3:5.0 4:5.0 5:64.0 6:2.52 
-0.217534251374543 1:184000.0 2:4.0 3:4.0 4:4.0 5:63.0 6:2.66 
-0.2580930664910395 1:113.0 2:0.0 3:7.0 4:7.0 5:12.0 6:0.32 
-0.25568138035336185 1:8940000.0 2:2.0 3:3.5 4:3.5 5:43.0 6:1.1 
-0.25812249801479037 1:267000.0 2:15.0 3:7.0 4:7.0 5:64.0 6:2.52 
-0.2094271398467593 1:184000.0 2:0.0 3:1.0 4:1.0 5:63.0 6:2.66 
-0.2561028921485311 1:8940000.0 2:0.0 3:0.0 4:0.0 5:43.0 6:1.1 
-0.23945148893866952 1:1.32E7 2:2.0 3:1.0 4:1.0 5:33.0 6:1.66 
-0.07638881933585963 1:184000.0 2:2.0 3:2.75 4:2.75 5:63.0 6:2.66 
-0.2108897916295605 1:4050000.0 2:2.0 3:4.0 4:4.0 5:74.0 6:1.92 
-0.21159849746357023 1:4050000.0 2:3.0 3:2.0 4:2.0 5:74.0 6:1.92 
-0.19587738364452198 1:4230000.0 2:0.0 3:2.0 4:2.0 5:132.0 6:3.84 
-0.3608233794863799 1:4230000.0 2:8.0 3:3.5 4:3.5 5:132.0 6:3.84 
-0.25825203010387493 1:1.13E8 2:1.0 3:5.333333333333333 4:5.333333333333333 5:66.0 6:2.5 
