svm_type c_svc
kernel_type rbf
gamma 0.16666666666666666
nr_class 2
total_sv 2586
rho 0.8333642844927148
label 1 -1
nr_sv 392 2194
SV
1.0 1:86900.0 2:0.0 3:0.0 4:0.0 5:93.0 6:1.98 
1.0 1:117000.0 2:0.0 3:7.0 4:7.0 5:16.0 6:0.44 
1.0 1:3940000.0 2:5.0 3:0.0 4:0.0 5:169.0 6:6.36 
1.0 1:243.0 2:12.0 3:0.0 4:0.0 5:226.0 6:5.48 
1.0 1:270000.0 2:0.0 3:0.0 4:0.0 5:229.0 6:5.1 
1.0 1:9300000.0 2:0.0 3:5.0 4:5.0 5:44.0 6:2.56 
1.0 1:320000.0 2:1.0 3:0.0 4:0.0 5:99.0 6:2.28 
1.0 1:484000.0 2:1.0 3:0.0 4:0.0 5:220.0 6:5.7 
1.0 1:1.68E7 2:1.0 3:3.0 4:3.0 5:57.0 6:2.74 
1.0 1:1.68E7 2:0.0 3:0.0 4:0.0 5:57.0 6:2.74 
1.0 1:180000.0 2:0.0 3:0.0 4:0.0 5:140.0 6:2.86 
1.0 1:4740000.0 2:0.0 3:0.0 4:0.0 5:59.0 6:3.2 
1.0 1:10300.0 2:1.0 3:0.0 4:0.0 5:97.0 6:3.0816326530612246 
1.0 1:1750000.0 2:0.0 3:7.5 4:7.5 5:64.0 6:4.78 
1.0 1:8.35E7 2:1.0 3:0.0 4:0.0 5:129.0 6:3.98 
1.0 1:8.35E7 2:0.0 3:0.0 4:0.0 5:129.0 6:3.98 
1.0 1:3.4E7 2:6.0 3:1.0 4:1.0 5:92.0 6:3.52 
1.0 1:8.6E7 2:0.0 3:8.0 4:8.0 5:51.0 6:2.82 
1.0 1:5800000.0 2:1.0 3:1.5 4:1.5 5:87.0 6:4.56 
1.0 1:1080000.0 2:5.0 3:2.6666666666666665 4:2.6666666666666665 5:132.0 6:5.44 
1.0 1:8690000.0 2:0.0 3:1.0 4:1.0 5:65.0 6:1.94 
1.0 1:1.49E7 2:13.0 3:0.0 4:0.0 5:180.0 6:5.78 
1.0 1:4.0 2:0.0 3:7.5 4:7.5 5:11.0 6:6.5 
1.0 1:4.74E7 2:0.0 3:3.3333333333333335 4:3.3333333333333335 5:135.0 6:3.74 
1.0 1:43.0 2:0.0 3:0.0 4:0.0 5:68.0 6:3.3255813953488373 
1.0 1:2660000.0 2:0.0 3:1.6666666666666667 4:1.6666666666666667 5:57.0 6:1.68 
1.0 1:2.67E7 2:0.0 3:4.0 4:4.0 5:29.0 6:3.16 
1.0 1:5.13E7 2:0.0 3:0.0 4:0.0 5:99.0 6:5.72 
1.0 1:1050000.0 2:21.0 3:6.75 4:6.75 5:69.0 6:1.48 
1.0 1:3210000.0 2:1.0 3:0.5 4:0.5 5:213.0 6:5.46 
1.0 1:3210000.0 2:2.0 3:0.0 4:0.0 5:213.0 6:5.46 
1.0 1:6500000.0 2:6.0 3:2.0 4:2.0 5:142.0 6:3.0 
1.0 1:1930000.0 2:2.0 3:0.0 4:0.0 5:113.0 6:2.76 
1.0 1:1210000.0 2:0.0 3:2.5 4:2.5 5:94.0 6:2.7 
1.0 1:1320000.0 2:3.0 3:5.0 4:5.0 5:62.0 6:3.44 
1.0 1:1.31E7 2:0.0 3:1.5 4:1.5 5:85.0 6:2.28 
1.0 1:2600000.0 2:0.0 3:5.0 4:5.0 5:38.0 6:1.56 
0.992524542021569 1:2.32E7 2:0.0 3:1.0 4:1.0 5:82.0 6:3.72 
0.9931178523255428 1:2.32E7 2:1.0 3:1.0 4:1.0 5:82.0 6:3.72 
1.0 1:1450000.0 2:0.0 3:0.6 4:0.6 5:173.0 6:3.92 
1.0 1:510000.0 2:0.0 3:3.0 4:3.0 5:99.0 6:2.02 
1.0 1:5.52E7 2:3.0 3:0.6666666666666666 4:0.6666666666666666 5:78.0 6:2.06 
1.0 1:3.29E7 2:0.0 3:4.0 4:4.0 5:51.0 6:2.48 
1.0 1:4620000.0 2:0.0 3:0.0 4:0.0 5:147.0 6:3.0 
1.0 1:8.82E7 2:0.0 3:1.25 4:1.25 5:230.0 6:5.2 
1.0 1:3360000.0 2:0.0 3:0.0 4:0.0 5:183.0 6:5.58 
1.0 1:2280000.0 2:0.0 3:1.25 4:1.25 5:205.0 6:4.26 
1.0 1:1.57E8 2:1.0 3:1.0 4:1.0 5:92.0 6:2.58 
1.0 1:2.46E7 2:0.0 3:8.0 4:8.0 5:184.0 6:3.76 
1.0 1:18200.0 2:0.0 3:0.0 4:0.0 5:88.0 6:1.98 
1.0 1:6.03E7 2:0.0 3:6.5 4:6.5 5:82.0 6:3.78 
1.0 1:1100000.0 2:34.0 3:10.0 4:10.0 5:267.0 6:5.9 
1.0 1:7.02E7 2:6.0 3:1.5 4:1.5 5:101.0 6:3.78 
1.0 1:3.28E7 2:0.0 3:4.5 4:4.5 5:122.0 6:3.36 
1.0 1:1.92E7 2:0.0 3:5.5 4:5.5 5:132.0 6:2.64 
1.0 1:1.01E7 2:0.0 3:0.5 4:0.5 5:82.0 6:2.98 
1.0 1:74200.0 2:37.0 3:8.333333333333334 4:8.333333333333334 5:92.0 6:3.06 
1.0 1:642000.0 2:0.0 3:10.333333333333334 4:10.333333333333334 5:58.0 6:2.48 
1.0 1:1.97E7 2:6.0 3:0.0 4:0.0 5:113.0 6:3.14 
1.0 1:2.58E7 2:1.0 3:6.0 4:6.0 5:119.0 6:4.92 
1.0 1:3930000.0 2:0.0 3:4.0 4:4.0 5:240.0 6:5.16 
1.0 1:196000.0 2:1.0 3:8.0 4:8.0 5:110.0 6:2.24 
1.0 1:4230000.0 2:7.0 3:0.6666666666666666 4:0.6666666666666666 5:132.0 6:3.84 
1.0 1:485000.0 2:0.0 3:1.0 4:1.0 5:174.0 6:3.5 
1.0 1:1420000.0 2:0.0 3:0.0 4:0.0 5:60.0 6:3.32 
1.0 1:2.0E7 2:2.0 3:1.5 4:1.5 5:131.0 6:6.46 
1.0 1:9040000.0 2:11.0 3:2.3333333333333335 4:2.3333333333333335 5:241.0 6:6.1 
1.0 1:2530000.0 2:0.0 3:5.0 4:5.0 5:63.0 6:3.16 
1.0 1:2530000.0 2:6.0 3:0.0 4:0.0 5:63.0 6:3.16 
1.0 1:1.23E7 2:0.0 3:1.6666666666666667 4:1.6666666666666667 5:261.0 6:6.52 
1.0 1:309000.0 2:2.0 3:0.0 4:0.0 5:75.0 6:1.68 
1.0 1:4690.0 2:0.0 3:0.0 4:0.0 5:44.0 6:1.3 
1.0 1:3120000.0 2:1.0 3:4.0 4:4.0 5:143.0 6:5.64 
1.0 1:188000.0 2:0.0 3:1.6666666666666667 4:1.6666666666666667 5:150.0 6:3.28 
1.0 1:405000.0 2:14.0 3:2.3333333333333335 4:2.3333333333333335 5:128.0 6:2.64 
1.0 1:248000.0 2:3.0 3:0.5 4:0.5 5:132.0 6:3.98 
1.0 1:248000.0 2:0.0 3:0.0 4:0.0 5:132.0 6:3.98 
1.0 1:4060000.0 2:1.0 3:4.5 4:4.5 5:77.0 6:2.9 
1.0 1:1.86E7 2:31.0 3:2.0 4:2.0 5:272.0 6:6.06 
1.0 1:5.37E7 2:0.0 3:4.0 4:4.0 5:89.0 6:2.1 
1.0 1:6.03E7 2:11.0 3:0.0 4:0.0 5:74.0 6:3.48 
1.0 1:5450000.0 2:0.0 3:8.0 4:8.0 5:154.0 6:3.34 
1.0 1:3120000.0 2:1.0 3:0.0 4:0.0 5:261.0 6:5.7 
1.0 1:3120000.0 2:0.0 3:0.5 4:0.5 5:261.0 6:5.7 
1.0 1:605000.0 2:38.0 3:7.5 4:7.5 5:182.0 6:4.76 
1.0 1:495000.0 2:0.0 3:0.0 4:0.0 5:196.0 6:4.06 
1.0 1:1610000.0 2:4.0 3:1.5 4:1.5 5:149.0 6:4.42 
1.0 1:3130000.0 2:0.0 3:0.5 4:0.5 5:57.0 6:2.84 
1.0 1:182000.0 2:4.0 3:3.4 4:3.4 5:35.0 6:0.7 
1.0 1:92400.0 2:0.0 3:0.0 4:0.0 5:280.0 6:5.82 
1.0 1:1530000.0 2:0.0 3:5.0 4:5.0 5:88.0 6:3.54 
1.0 1:368000.0 2:2.0 3:0.0 4:0.0 5:235.0 6:6.8 
1.0 1:2.66E7 2:1.0 3:3.6666666666666665 4:3.6666666666666665 5:18.0 6:2.12 
1.0 1:5.01E7 2:0.0 3:0.0 4:0.0 5:89.0 6:2.3 
1.0 1:262000.0 2:1.0 3:0.0 4:0.0 5:211.0 6:4.66 
1.0 1:248.0 2:9.0 3:1.0 4:1.0 5:126.0 6:2.94 
1.0 1:248.0 2:18.0 3:5.0 4:5.0 5:126.0 6:2.94 
1.0 1:185000.0 2:0.0 3:0.0 4:0.0 5:44.0 6:2.36 
1.0 1:5.31E7 2:2.0 3:0.0 4:0.0 5:77.0 6:2.14 
1.0 1:6.64E7 2:0.0 3:0.0 4:0.0 5:163.0 6:4.44 
1.0 1:4.38E7 2:0.0 3:0.0 4:0.0 5:79.0 6:4.0 
1.0 1:1.72E7 2:0.0 3:3.0 4:3.0 5:69.0 6:4.04 
1.0 1:4490000.0 2:32.0 3:0.0 4:0.0 5:262.0 6:5.34 
1.0 1:4490000.0 2:34.0 3:2.6666666666666665 4:2.6666666666666665 5:262.0 6:5.34 
1.0 1:35300.0 2:0.0 3:3.0 4:3.0 5:48.0 6:1.14 
1.0 1:35300.0 2:1.0 3:2.5 4:2.5 5:48.0 6:1.14 
1.0 1:2.05E7 2:4.0 3:1.0 4:1.0 5:76.0 6:2.32 
1.0 1:4150000.0 2:7.0 3:0.0 4:0.0 5:65.0 6:2.98 
1.0 1:1970000.0 2:0.0 3:4.5 4:4.5 5:84.0 6:1.78 
1.0 1:870000.0 2:1.0 3:0.3333333333333333 4:0.3333333333333333 5:178.0 6:4.62 
1.0 1:2.84E7 2:2.0 3:4.0 4:4.0 5:97.0 6:4.04 
1.0 1:6060000.0 2:2.0 3:0.0 4:0.0 5:143.0 6:3.58 
1.0 1:4.47E7 2:0.0 3:3.5 4:3.5 5:109.0 6:2.4 
1.0 1:398000.0 2:3.0 3:1.3333333333333333 4:1.3333333333333333 5:107.0 6:3.38 
1.0 1:5430000.0 2:5.0 3:4.0 4:4.0 5:88.0 6:1.78 
1.0 1:876000.0 2:0.0 3:5.4 4:5.4 5:327.0 6:7.28 
1.0 1:7.65E7 2:0.0 3:2.0 4:2.0 5:75.0 6:2.52 
1.0 1:1400000.0 2:0.0 3:0.0 4:0.0 5:43.0 6:2.54 
1.0 1:247.0 2:1.0 3:3.0 4:3.0 5:123.0 6:3.24 
1.0 1:5440000.0 2:1.0 3:3.0 4:3.0 5:53.0 6:1.28 
1.0 1:3.39E7 2:0.0 3:0.0 4:0.0 5:62.0 6:3.8 
1.0 1:2.29E7 2:0.0 3:1.6666666666666667 4:1.6666666666666667 5:158.0 6:4.18 
1.0 1:143000.0 2:0.0 3:6.0 4:6.0 5:205.0 6:4.44 
1.0 1:2.19E7 2:0.0 3:0.0 4:0.0 5:225.0 6:6.04 
1.0 1:3.2E7 2:0.0 3:2.0 4:2.0 5:145.0 6:5.18 
1.0 1:1240000.0 2:0.0 3:6.5 4:6.5 5:47.0 6:1.74 
1.0 1:1240000.0 2:1.0 3:0.0 4:0.0 5:47.0 6:1.74 
1.0 1:9910000.0 2:16.0 3:4.5 4:4.5 5:56.0 6:1.42 
1.0 1:155000.0 2:0.0 3:4.5 4:4.5 5:325.0 6:6.76 
1.0 1:1520000.0 2:3.0 3:1.8 4:1.8 5:111.0 6:3.92 
1.0 1:758000.0 2:1.0 3:0.0 4:0.0 5:242.0 6:5.88 
1.0 1:203000.0 2:2.0 3:4.5 4:4.5 5:66.0 6:1.48 
1.0 1:3400000.0 2:0.0 3:1.5 4:1.5 5:221.0 6:5.18 
1.0 1:2.05E7 2:0.0 3:0.0 4:0.0 5:128.0 6:3.44 
1.0 1:3750000.0 2:0.0 3:2.0 4:2.0 5:282.0 6:6.2 
1.0 1:74.0 2:0.0 3:0.5 4:0.5 5:76.0 6:1.9 
1.0 1:4960000.0 2:0.0 3:0.0 4:0.0 5:85.0 6:1.88 
1.0 1:3.79E7 2:0.0 3:0.0 4:0.0 5:196.0 6:6.2 
1.0 1:7270000.0 2:2.0 3:7.666666666666667 4:7.666666666666667 5:197.0 6:4.16 
1.0 1:1.38E8 2:0.0 3:5.5 4:5.5 5:80.0 6:3.34 
1.0 1:1.38E8 2:1.0 3:0.0 4:0.0 5:80.0 6:3.34 
1.0 1:1680000.0 2:0.0 3:1.0 4:1.0 5:55.0 6:1.7 
1.0 1:2040000.0 2:0.0 3:0.0 4:0.0 5:95.0 6:2.36 
1.0 1:1.57E7 2:1.0 3:3.3333333333333335 4:3.3333333333333335 5:162.0 6:3.34 
1.0 1:3.13E7 2:4.0 3:6.5 4:6.5 5:41.0 6:2.5918367346938775 
1.0 1:5.96E7 2:0.0 3:3.5 4:3.5 5:57.0 6:3.92 
1.0 1:2.32E7 2:1.0 3:0.0 4:0.0 5:57.0 6:3.56 
1.0 1:1.27E7 2:0.0 3:0.0 4:0.0 5:167.0 6:4.58 
1.0 1:1.27E7 2:0.0 3:0.5 4:0.5 5:42.0 6:0.86 
1.0 1:5.04E7 2:2.0 3:6.0 4:6.0 5:107.0 6:2.72 
1.0 1:2.52E7 2:0.0 3:0.0 4:0.0 5:140.0 6:6.68 
1.0 1:336000.0 2:0.0 3:0.0 4:0.0 5:116.0 6:5.52 
1.0 1:3.66E7 2:3.0 3:5.5 4:5.5 5:35.0 6:1.94 
1.0 1:2.43E8 2:0.0 3:2.3333333333333335 4:2.3333333333333335 5:77.0 6:3.4 
1.0 1:505000.0 2:0.0 3:0.0 4:0.0 5:109.0 6:4.94 
1.0 1:75700.0 2:0.0 3:2.0 4:2.0 5:219.0 6:5.94 
1.0 1:242.0 2:2.0 3:4.0 4:4.0 5:75.0 6:2.1 
1.0 1:1960000.0 2:1.0 3:6.0 4:6.0 5:140.0 6:6.02 
1.0 1:189000.0 2:0.0 3:5.75 4:5.75 5:242.0 6:5.5 
1.0 1:1330000.0 2:0.0 3:1.5 4:1.5 5:296.0 6:7.02 
1.0 1:113000.0 2:1.0 3:0.0 4:0.0 5:159.0 6:6.18 
1.0 1:113000.0 2:0.0 3:0.0 4:0.0 5:159.0 6:6.18 
1.0 1:1.81E7 2:0.0 3:2.0 4:2.0 5:49.0 6:2.42 
1.0 1:226000.0 2:3.0 3:0.0 4:0.0 5:64.0 6:1.34 
1.0 1:2300000.0 2:2.0 3:0.0 4:0.0 5:126.0 6:2.54 
1.0 1:108000.0 2:5.0 3:0.0 4:0.0 5:62.0 6:1.92 
1.0 1:6.64E7 2:6.0 3:2.4285714285714284 4:2.4285714285714284 5:66.0 6:1.8 
1.0 1:1740000.0 2:6.0 3:6.666666666666667 4:6.666666666666667 5:158.0 6:3.26 
1.0 1:5.24E7 2:0.0 3:2.0 4:2.0 5:197.0 6:6.24 
1.0 1:63900.0 2:0.0 3:8.666666666666666 4:8.666666666666666 5:109.0 6:2.9 
1.0 1:3890000.0 2:0.0 3:0.0 4:0.0 5:105.0 6:3.14 
1.0 1:1.63E7 2:0.0 3:0.0 4:0.0 5:98.0 6:4.12 
1.0 1:1.86E7 2:0.0 3:4.0 4:4.0 5:47.0 6:2.04 
1.0 1:484000.0 2:36.0 3:0.0 4:0.0 5:78.0 6:2.28 
1.0 1:484000.0 2:2.0 3:0.0 4:0.0 5:78.0 6:2.28 
1.0 1:484000.0 2:15.0 3:3.5 4:3.5 5:78.0 6:2.28 
1.0 1:182000.0 2:11.0 3:6.333333333333333 4:6.333333333333333 5:77.0 6:1.88 
1.0 1:5.86E7 2:0.0 3:1.0 4:1.0 5:128.0 6:4.38 
1.0 1:213.0 2:1.0 3:5.0 4:5.0 5:134.0 6:3.68 
1.0 1:294000.0 2:0.0 3:0.0 4:0.0 5:54.0 6:1.46 
1.0 1:2200000.0 2:2.0 3:1.0 4:1.0 5:355.0 6:8.98 
1.0 1:2200000.0 2:1.0 3:0.0 4:0.0 5:355.0 6:8.98 
1.0 1:2.26E7 2:0.0 3:4.0 4:4.0 5:139.0 6:4.32 
1.0 1:2.26E7 2:3.0 3:0.0 4:0.0 5:139.0 6:4.32 
1.0 1:4.09E7 2:1.0 3:0.0 4:0.0 5:75.0 6:2.36 
1.0 1:2.54E7 2:0.0 3:0.0 4:0.0 5:120.0 6:3.34 
1.0 1:3.68E7 2:1.0 3:3.6666666666666665 4:3.6666666666666665 5:42.0 6:1.28 
1.0 1:3.02E7 2:1.0 3:0.0 4:0.0 5:92.0 6:4.46 
1.0 1:1.93E7 2:0.0 3:3.25 4:3.25 5:248.0 6:5.46 
1.0 1:272000.0 2:7.0 3:4.0 4:4.0 5:105.0 6:4.12 
1.0 1:2.79E7 2:1.0 3:0.5 4:0.5 5:220.0 6:4.86 
1.0 1:177000.0 2:3.0 3:1.0 4:1.0 5:156.0 6:3.52 
1.0 1:1.12E7 2:42.0 3:4.0 4:4.0 5:124.0 6:4.06 
1.0 1:129000.0 2:0.0 3:0.0 4:0.0 5:162.0 6:3.36 
0.9925245229383394 1:1670000.0 2:0.0 3:7.0 4:7.0 5:58.0 6:3.4 
0.9931181629657886 1:1670000.0 2:1.0 3:7.0 4:7.0 5:58.0 6:3.4 
1.0 1:349000.0 2:0.0 3:3.5 4:3.5 5:153.0 6:3.52 
1.0 1:169000.0 2:1.0 3:0.0 4:0.0 5:141.0 6:3.04 
1.0 1:4.94E7 2:8.0 3:1.5 4:1.5 5:79.0 6:4.94 
1.0 1:1.28E7 2:0.0 3:8.0 4:8.0 5:141.0 6:2.82 
1.0 1:1.28E7 2:1.0 3:7.333333333333333 4:7.333333333333333 5:141.0 6:2.82 
1.0 1:109000.0 2:2.0 3:3.0 4:3.0 5:114.0 6:3.58 
1.0 1:92600.0 2:5.0 3:0.0 4:0.0 5:113.0 6:3.62 
1.0 1:1670000.0 2:0.0 3:0.0 4:0.0 5:55.0 6:2.12 
1.0 1:9.59E7 2:1.0 3:0.0 4:0.0 5:124.0 6:5.4 
1.0 1:2830000.0 2:2.0 3:0.0 4:0.0 5:154.0 6:3.6 
1.0 1:3110000.0 2:0.0 3:3.5 4:3.5 5:158.0 6:5.22 
1.0 1:150000.0 2:6.0 3:4.6 4:4.6 5:66.0 6:1.74 
1.0 1:4.29E7 2:1.0 3:3.3333333333333335 4:3.3333333333333335 5:97.0 6:3.44 
1.0 1:4.29E7 2:0.0 3:0.0 4:0.0 5:97.0 6:3.44 
1.0 1:59300.0 2:11.0 3:4.0 4:4.0 5:59.0 6:1.78 
1.0 1:4.3E7 2:0.0 3:0.0 4:0.0 5:76.0 6:2.98 
1.0 1:1.06E8 2:0.0 3:0.0 4:0.0 5:109.0 6:3.16 
1.0 1:217000.0 2:2.0 3:1.0 4:1.0 5:187.0 6:5.62 
1.0 1:4770000.0 2:9.0 3:0.0 4:0.0 5:118.0 6:3.7 
1.0 1:113000.0 2:1.0 3:2.5 4:2.5 5:56.0 6:1.18 
1.0 1:275000.0 2:4.0 3:4.5 4:4.5 5:76.0 6:1.62 
1.0 1:4.29E7 2:0.0 3:8.0 4:8.0 5:165.0 6:4.26 
1.0 1:2340000.0 2:0.0 3:7.75 4:7.75 5:4.0 6:0.16 
1.0 1:8520000.0 2:0.0 3:0.0 4:0.0 5:37.0 6:2.64 
1.0 1:2560000.0 2:0.0 3:3.0 4:3.0 5:58.0 6:2.22 
1.0 1:2120000.0 2:0.0 3:0.0 4:0.0 5:24.0 6:1.5 
1.0 1:5.22E7 2:0.0 3:0.0 4:0.0 5:210.0 6:5.18 
1.0 1:1.94E7 2:0.0 3:0.0 4:0.0 5:92.0 6:4.22 
1.0 1:258000.0 2:0.0 3:0.0 4:0.0 5:182.0 6:3.68 
1.0 1:5.06E7 2:39.0 3:5.0 4:5.0 5:41.0 6:2.62 
1.0 1:183000.0 2:0.0 3:0.0 4:0.0 5:122.0 6:2.94 
1.0 1:4460000.0 2:6.0 3:8.0 4:8.0 5:107.0 6:3.52 
1.0 1:4460000.0 2:5.0 3:10.0 4:10.0 5:107.0 6:3.52 
1.0 1:3930.0 2:13.0 3:7.0 4:7.0 5:62.0 6:2.26 
1.0 1:2820000.0 2:0.0 3:3.5 4:3.5 5:38.0 6:2.42 
1.0 1:293000.0 2:1.0 3:3.0 4:3.0 5:246.0 6:5.6 
1.0 1:211.0 2:9.0 3:0.0 4:0.0 5:178.0 6:6.3 
1.0 1:211.0 2:1.0 3:1.6666666666666667 4:1.6666666666666667 5:178.0 6:6.3 
1.0 1:2660000.0 2:1.0 3:2.5 4:2.5 5:38.0 6:1.94 
1.0 1:1310000.0 2:0.0 3:1.3333333333333333 4:1.3333333333333333 5:195.0 6:4.3 
1.0 1:1200000.0 2:11.0 3:0.0 4:0.0 5:280.0 6:5.78 
1.0 1:253000.0 2:0.0 3:0.0 4:0.0 5:128.0 6:2.64 
1.0 1:2.47E7 2:0.0 3:0.0 4:0.0 5:136.0 6:3.26 
1.0 1:97100.0 2:0.0 3:6.5 4:6.5 5:3.0 6:0.14 
1.0 1:1350000.0 2:0.0 3:0.0 4:0.0 5:103.0 6:2.98 
1.0 1:4840000.0 2:0.0 3:0.0 4:0.0 5:162.0 6:4.54 
1.0 1:473000.0 2:1.0 3:4.0 4:4.0 5:54.0 6:2.3 
1.0 1:596000.0 2:0.0 3:1.0 4:1.0 5:128.0 6:4.64 
1.0 1:234.0 2:0.0 3:3.5 4:3.5 5:88.0 6:1.76 
1.0 1:3.36E7 2:0.0 3:9.0 4:9.0 5:74.0 6:3.32 
1.0 1:588000.0 2:19.0 3:2.5 4:2.5 5:174.0 6:4.06 
1.0 1:914000.0 2:3.0 3:7.333333333333333 4:7.333333333333333 5:207.0 6:4.54 
1.0 1:232.0 2:1.0 3:0.5 4:0.5 5:132.0 6:2.68 
1.0 1:232.0 2:2.0 3:0.0 4:0.0 5:132.0 6:2.68 
1.0 1:149.0 2:0.0 3:2.5 4:2.5 5:124.0 6:2.66 
1.0 1:1.25E7 2:0.0 3:3.0 4:3.0 5:75.0 6:1.56 
1.0 1:449000.0 2:0.0 3:0.0 4:0.0 5:219.0 6:5.6 
1.0 1:4070000.0 2:0.0 3:0.0 4:0.0 5:256.0 6:6.4 
1.0 1:274000.0 2:3.0 3:10.5 4:10.5 5:161.0 6:3.32 
1.0 1:331000.0 2:0.0 3:0.0 4:0.0 5:127.0 6:2.76 
1.0 1:2.84E7 2:0.0 3:3.5 4:3.5 5:147.0 6:4.08 
1.0 1:1690000.0 2:16.0 3:4.333333333333333 4:4.333333333333333 5:95.0 6:2.08 
1.0 1:239000.0 2:0.0 3:1.0 4:1.0 5:33.0 6:2.68 
1.0 1:2370000.0 2:0.0 3:0.0 4:0.0 5:210.0 6:7.12 
1.0 1:5.47E7 2:0.0 3:2.25 4:2.25 5:168.0 6:4.56 
1.0 1:5.47E7 2:6.0 3:0.0 4:0.0 5:168.0 6:4.56 
1.0 1:183000.0 2:1.0 3:0.0 4:0.0 5:227.0 6:6.16 
1.0 1:8.07E7 2:0.0 3:0.0 4:0.0 5:78.0 6:2.96 
1.0 1:3.92E7 2:3.0 3:6.0 4:6.0 5:57.0 6:4.06 
1.0 1:181000.0 2:37.0 3:0.0 4:0.0 5:97.0 6:4.52 
1.0 1:130000.0 2:0.0 3:0.0 4:0.0 5:69.0 6:3.82 
1.0 1:1.96E7 2:8.0 3:0.0 4:0.0 5:273.0 6:7.14 
1.0 1:1670000.0 2:7.0 3:2.5 4:2.5 5:114.0 6:3.08 
1.0 1:2.85E7 2:1.0 3:0.0 4:0.0 5:258.0 6:6.4 
1.0 1:2.85E7 2:0.0 3:0.3333333333333333 4:0.3333333333333333 5:258.0 6:6.4 
1.0 1:1.46E7 2:13.0 3:0.0 4:0.0 5:234.0 6:5.2 
1.0 1:8.29E7 2:1.0 3:2.0 4:2.0 5:168.0 6:5.0 
1.0 1:8.29E7 2:0.0 3:0.0 4:0.0 5:168.0 6:5.0 
1.0 1:254000.0 2:0.0 3:0.0 4:0.0 5:278.0 6:5.9 
1.0 1:1.81E7 2:2.0 3:0.0 4:0.0 5:71.0 6:2.22 
1.0 1:3.54E7 2:0.0 3:4.5 4:4.5 5:109.0 6:3.06 
1.0 1:246000.0 2:0.0 3:0.0 4:0.0 5:98.0 6:2.46 
1.0 1:214000.0 2:0.0 3:0.0 4:0.0 5:104.0 6:4.08 
1.0 1:7450000.0 2:0.0 3:1.0 4:1.0 5:22.0 6:1.72 
1.0 1:4520000.0 2:0.0 3:3.5 4:3.5 5:65.0 6:3.48 
1.0 1:5100000.0 2:0.0 3:1.75 4:1.75 5:244.0 6:6.6938775510204085 
1.0 1:254.0 2:0.0 3:6.5 4:6.5 5:1.0 6:0.02 
1.0 1:355000.0 2:0.0 3:0.0 4:0.0 5:57.0 6:1.16 
1.0 1:156000.0 2:47.0 3:2.0 4:2.0 5:76.0 6:2.32 
1.0 1:4.19E7 2:0.0 3:0.5 4:0.5 5:73.0 6:2.54 
1.0 1:4.19E7 2:8.0 3:0.0 4:0.0 5:73.0 6:2.54 
1.0 1:3040000.0 2:0.0 3:0.0 4:0.0 5:49.0 6:3.28 
1.0 1:1820000.0 2:6.0 3:0.0 4:0.0 5:249.0 6:5.34 
1.0 1:332000.0 2:0.0 3:0.0 4:0.0 5:220.0 6:5.4 
1.0 1:1110000.0 2:0.0 3:5.5 4:5.5 5:71.0 6:1.54 
1.0 1:2.31E8 2:0.0 3:2.5 4:2.5 5:50.0 6:2.62 
1.0 1:292000.0 2:9.0 3:4.5 4:4.5 5:104.0 6:2.76 
1.0 1:6690000.0 2:1.0 3:0.0 4:0.0 5:88.0 6:2.6 
1.0 1:221000.0 2:0.0 3:5.0 4:5.0 5:270.0 6:6.02 
1.0 1:3070000.0 2:0.0 3:4.0 4:4.0 5:140.0 6:3.36 
1.0 1:628000.0 2:0.0 3:5.25 4:5.25 5:59.0 6:1.46 
1.0 1:9.62E7 2:0.0 3:1.2 4:1.2 5:141.0 6:3.14 
1.0 1:3.96E7 2:2.0 3:0.0 4:0.0 5:41.0 6:2.58 
1.0 1:353000.0 2:3.0 3:0.3333333333333333 4:0.3333333333333333 5:175.0 6:4.82 
1.0 1:3.85E7 2:0.0 3:1.0 4:1.0 5:100.0 6:2.86 
1.0 1:3430000.0 2:0.0 3:4.8 4:4.8 5:54.0 6:2.06 
1.0 1:91100.0 2:11.0 3:9.0 4:9.0 5:13.0 6:0.96 
1.0 1:4310000.0 2:0.0 3:5.6 4:5.6 5:284.0 6:5.92 
1.0 1:4.57E7 2:1.0 3:9.5 4:9.5 5:181.0 6:4.18 
1.0 1:334000.0 2:0.0 3:0.3333333333333333 4:0.3333333333333333 5:102.0 6:3.74 
1.0 1:9160000.0 2:1.0 3:7.0 4:7.0 5:94.0 6:2.7 
1.0 1:7780000.0 2:0.0 3:2.0 4:2.0 5:56.0 6:2.4 
1.0 1:1.68E7 2:0.0 3:0.5 4:0.5 5:131.0 6:2.7 
1.0 1:3220000.0 2:13.0 3:2.0 4:2.0 5:97.0 6:2.86 
1.0 1:2.08E7 2:12.0 3:3.0 4:3.0 5:159.0 6:5.96 
1.0 1:4190000.0 2:2.0 3:4.5 4:4.5 5:112.0 6:2.74 
1.0 1:5.32E7 2:0.0 3:3.0 4:3.0 5:162.0 6:5.3 
1.0 1:213.0 2:0.0 3:0.0 4:0.0 5:62.0 6:1.46 
1.0 1:4840000.0 2:0.0 3:1.0 4:1.0 5:147.0 6:4.18 
1.0 1:4660000.0 2:0.0 3:7.0 4:7.0 5:106.0 6:3.18 
1.0 1:3240000.0 2:44.0 3:2.8 4:2.8 5:189.0 6:4.52 
1.0 1:3950000.0 2:0.0 3:0.0 4:0.0 5:223.0 6:5.4 
1.0 1:198000.0 2:5.0 3:1.6666666666666667 4:1.6666666666666667 5:216.0 6:4.6 
1.0 1:249000.0 2:0.0 3:0.0 4:0.0 5:84.0 6:2.04 
1.0 1:5.95E7 2:1.0 3:0.0 4:0.0 5:112.0 6:4.0 
1.0 1:5.95E7 2:3.0 3:3.5 4:3.5 5:112.0 6:4.0 
1.0 1:2770000.0 2:1.0 3:3.5 4:3.5 5:110.0 6:2.4 
1.0 1:4.84E7 2:0.0 3:1.0 4:1.0 5:63.0 6:2.5 
1.0 1:357000.0 2:0.0 3:0.0 4:0.0 5:94.0 6:2.78 
1.0 1:83200.0 2:1.0 3:3.0 4:3.0 5:152.0 6:3.72 
1.0 1:1.1E8 2:0.0 3:1.0 4:1.0 5:110.0 6:3.22 
1.0 1:1830000.0 2:0.0 3:0.0 4:0.0 5:60.0 6:2.92 
1.0 1:243000.0 2:5.0 3:2.6666666666666665 4:2.6666666666666665 5:76.0 6:2.58 
1.0 1:5.76E7 2:0.0 3:0.0 4:0.0 5:125.0 6:4.08 
0.9926780178741178 1:529000.0 2:1.0 3:0.0 4:0.0 5:139.0 6:4.42 
0.993001090501625 1:529000.0 2:0.0 3:0.0 4:0.0 5:139.0 6:4.42 
1.0 1:1.61E7 2:0.0 3:0.0 4:0.0 5:69.0 6:2.76 
1.0 1:1910000.0 2:0.0 3:0.0 4:0.0 5:266.0 6:5.94 
1.0 1:3.31E7 2:7.0 3:0.0 4:0.0 5:166.0 6:4.7 
1.0 1:127000.0 2:0.0 3:7.0 4:7.0 5:13.0 6:0.56 
1.0 1:2.1E8 2:1.0 3:0.0 4:0.0 5:64.0 6:3.16 
1.0 1:1.7E7 2:2.0 3:1.0 4:1.0 5:68.0 6:2.92 
1.0 1:6200000.0 2:0.0 3:0.0 4:0.0 5:103.0 6:2.3 
1.0 1:7320000.0 2:0.0 3:5.5 4:5.5 5:83.0 6:3.1 
1.0 1:703000.0 2:0.0 3:2.0 4:2.0 5:240.0 6:5.42 
1.0 1:236000.0 2:0.0 3:0.0 4:0.0 5:78.0 6:1.56 
1.0 1:219000.0 2:0.0 3:3.0 4:3.0 5:143.0 6:2.88 
1.0 1:358000.0 2:0.0 3:2.0 4:2.0 5:84.0 6:5.1 
1.0 1:3240000.0 2:1.0 3:0.0 4:0.0 5:58.0 6:1.74 
1.0 1:1170000.0 2:2.0 3:2.5 4:2.5 5:108.0 6:3.06 
1.0 1:3000000.0 2:28.0 3:0.0 4:0.0 5:154.0 6:4.76 
1.0 1:3380000.0 2:1.0 3:5.0 4:5.0 5:152.0 6:5.9 
1.0 1:7.38E7 2:1.0 3:0.0 4:0.0 5:49.0 6:3.06 
1.0 1:2810000.0 2:1.0 3:12.0 4:12.0 5:247.0 6:5.4 
1.0 1:809000.0 2:1.0 3:0.0 4:0.0 5:140.0 6:6.08 
1.0 1:190000.0 2:5.0 3:6.666666666666667 4:6.666666666666667 5:140.0 6:3.44 
1.0 1:7.9E7 2:5.0 3:0.5 4:0.5 5:84.0 6:3.64 
1.0 1:4.37E7 2:6.0 3:2.25 4:2.25 5:167.0 6:4.7 
1.0 1:165.0 2:0.0 3:0.5 4:0.5 5:118.0 6:2.84 
1.0 1:369000.0 2:0.0 3:0.5 4:0.5 5:49.0 6:2.06 
1.0 1:288000.0 2:4.0 3:5.666666666666667 4:5.666666666666667 5:212.0 6:4.8 
1.0 1:1.55E8 2:4.0 3:0.0 4:0.0 5:265.0 6:6.24 
1.0 1:8.55E7 2:0.0 3:4.0 4:4.0 5:178.0 6:4.64 
1.0 1:7.84E7 2:1.0 3:0.0 4:0.0 5:57.0 6:2.2 
1.0 1:2.94E7 2:25.0 3:0.0 4:0.0 5:150.0 6:3.48 
1.0 1:2660000.0 2:2.0 3:1.5 4:1.5 5:101.0 6:3.94 
1.0 1:7170000.0 2:0.0 3:3.3333333333333335 4:3.3333333333333335 5:132.0 6:5.8 
1.0 1:7170000.0 2:1.0 3:1.0 4:1.0 5:132.0 6:5.8 
1.0 1:270000.0 2:0.0 3:7.333333333333333 4:7.333333333333333 5:78.0 6:1.58 
1.0 1:7760000.0 2:0.0 3:5.0 4:5.0 5:124.0 6:4.58 
1.0 1:5.41E7 2:0.0 3:3.5 4:3.5 5:86.0 6:4.86 
1.0 1:2180000.0 2:0.0 3:0.0 4:0.0 5:85.0 6:2.0 
1.0 1:5.21E7 2:5.0 3:0.0 4:0.0 5:53.0 6:2.6 
1.0 1:3100000.0 2:0.0 3:2.25 4:2.25 5:54.0 6:2.16 
1.0 1:1.39E7 2:3.0 3:7.0 4:7.0 5:160.0 6:5.22 
1.0 1:254000.0 2:3.0 3:0.0 4:0.0 5:145.0 6:3.44 
1.0 1:2210000.0 2:6.0 3:2.0 4:2.0 5:107.0 6:2.34 
1.0 1:164000.0 2:0.0 3:3.6666666666666665 4:3.6666666666666665 5:220.0 6:4.86 
1.0 1:3.4E7 2:0.0 3:5.0 4:5.0 5:103.0 6:3.9 
1.0 1:2.29E7 2:9.0 3:0.0 4:0.0 5:114.0 6:2.78 
1.0 1:4.12E8 2:0.0 3:4.0 4:4.0 5:124.0 6:3.82 
1.0 1:4420000.0 2:0.0 3:5.666666666666667 4:5.666666666666667 5:282.0 6:6.74 
1.0 1:1620000.0 2:1.0 3:0.0 4:0.0 5:242.0 6:5.68 
1.0 1:648000.0 2:0.0 3:0.0 4:0.0 5:243.0 6:6.36 
1.0 1:240.0 2:0.0 3:6.8 4:6.8 5:90.0 6:1.84 
1.0 1:4.42E7 2:0.0 3:4.5 4:4.5 5:90.0 6:3.14 
1.0 1:391000.0 2:0.0 3:0.0 4:0.0 5:128.0 6:5.3 
1.0 1:1260000.0 2:0.0 3:6.666666666666667 4:6.666666666666667 5:296.0 6:6.68 
1.0 1:19900.0 2:0.0 3:1.0 4:1.0 5:15.0 6:0.88 
1.0 1:1700000.0 2:0.0 3:0.0 4:0.0 5:107.0 6:2.46 
1.0 1:1.71E7 2:0.0 3:0.0 4:0.0 5:181.0 6:5.26 
1.0 1:403000.0 2:19.0 3:0.0 4:0.0 5:236.0 6:4.74 
1.0 1:161.0 2:0.0 3:0.0 4:0.0 5:181.0 6:5.58 
1.0 1:1.06E7 2:0.0 3:0.0 4:0.0 5:167.0 6:3.82 
1.0 1:2850000.0 2:0.0 3:6.0 4:6.0 5:95.0 6:2.58 
1.0 1:5.4E7 2:1.0 3:0.0 4:0.0 5:163.0 6:4.8 
-0.13266778676759156 1:86900.0 2:1.0 3:5.0 4:5.0 5:93.0 6:1.98 
-0.12064058936312971 1:86900.0 2:4.0 3:3.25 4:3.25 5:93.0 6:1.98 
-0.07305422469374429 1:86900.0 2:2.0 3:3.3333333333333335 4:3.3333333333333335 5:93.0 6:1.98 
-0.36693602707614287 1:117000.0 2:3.0 3:6.5 4:6.5 5:16.0 6:0.44 
-0.1661532811166001 1:117000.0 2:11.0 3:8.0 4:8.0 5:16.0 6:0.44 
-0.1540942079213859 1:117000.0 2:7.0 3:5.0 4:5.0 5:16.0 6:0.44 
-0.13514723921077854 1:3940000.0 2:44.0 3:3.2 4:3.2 5:169.0 6:6.36 
-0.16646545394549533 1:3940000.0 2:20.0 3:4.0 4:4.0 5:169.0 6:6.36 
-0.17447021998660822 1:3940000.0 2:0.0 3:1.5 4:1.5 5:169.0 6:6.36 
-0.16717537571995494 1:3940000.0 2:35.0 3:3.0 4:3.0 5:169.0 6:6.36 
-0.13463111138823664 1:3940000.0 2:46.0 3:1.6666666666666667 4:1.6666666666666667 5:169.0 6:6.36 
-0.16652509601211118 1:243.0 2:29.0 3:4.0 4:4.0 5:226.0 6:5.48 
-0.12226892137029899 1:2010000.0 2:20.0 3:2.0 4:2.0 5:161.0 6:3.5 
-0.5344047182760309 1:270000.0 2:2.0 3:1.0 4:1.0 5:229.0 6:5.1 
-0.12179162965421847 1:2010000.0 2:18.0 3:3.0 4:3.0 5:161.0 6:3.5 
-0.16652730364497564 1:270000.0 2:9.0 3:3.3333333333333335 4:3.3333333333333335 5:229.0 6:5.1 
-0.1666973835403459 1:2010000.0 2:46.0 3:3.0 4:3.0 5:161.0 6:3.5 
-0.13921544436984068 1:9300000.0 2:2.0 3:5.666666666666667 4:5.666666666666667 5:44.0 6:2.56 
-0.8706105695772886 1:9300000.0 2:1.0 3:4.5 4:4.5 5:44.0 6:2.56 
-0.16649279419187824 1:130000.0 2:3.0 3:3.5 4:3.5 5:31.0 6:1.68 
-0.11435011847313778 1:130000.0 2:14.0 3:6.5 4:6.5 5:31.0 6:1.68 
-0.11096431909325324 1:130000.0 2:12.0 3:6.0 4:6.0 5:31.0 6:1.68 
-0.16526176443067392 1:130000.0 2:7.0 3:7.0 4:7.0 5:31.0 6:1.68 
-0.16558659925213187 1:812000.0 2:25.0 3:4.333333333333333 4:4.333333333333333 5:151.0 6:3.28 
-0.16608803864898042 1:812000.0 2:14.0 3:2.5 4:2.5 5:151.0 6:3.28 
-0.16528400691363293 1:812000.0 2:20.0 3:2.6666666666666665 4:2.6666666666666665 5:151.0 6:3.28 
-0.16702310497415568 1:29700.0 2:45.0 3:9.0 4:9.0 5:94.0 6:7.24 
-0.16630598872091723 1:29700.0 2:41.0 3:2.147483647E9 4:2.147483647E9 5:94.0 6:7.24 
-0.16611212400728126 1:29700.0 2:47.0 3:4.6 4:4.6 5:94.0 6:7.24 
-0.1668560490798066 1:3220000.0 2:15.0 3:4.2 4:4.2 5:272.0 6:5.76 
-0.09641585158629483 1:3220000.0 2:0.0 3:6.285714285714286 4:6.285714285714286 5:272.0 6:5.76 
-0.09479685357445007 1:3220000.0 2:1.0 3:5.666666666666667 4:5.666666666666667 5:272.0 6:5.76 
-0.16407807721806744 1:320000.0 2:7.0 3:4.0 4:4.0 5:99.0 6:2.28 
-0.18556719263030236 1:320000.0 2:2.0 3:3.3333333333333335 4:3.3333333333333335 5:99.0 6:2.28 
-0.1659171592275746 1:174.0 2:39.0 3:5.0 4:5.0 5:90.0 6:1.88 
-0.16630012754653895 1:174.0 2:45.0 3:4.6 4:4.6 5:90.0 6:1.88 
-0.16661392238881578 1:271000.0 2:16.0 3:7.0 4:7.0 5:65.0 6:1.76 
-0.16668997142568504 1:271000.0 2:37.0 3:7.0 4:7.0 5:65.0 6:1.76 
-0.12509740022713733 1:271000.0 2:2.0 3:4.666666666666667 4:4.666666666666667 5:65.0 6:1.76 
-0.16672794156658138 1:271000.0 2:39.0 3:2.147483647E9 4:2.147483647E9 5:65.0 6:1.76 
-0.12425594215544311 1:271000.0 2:3.0 3:3.0 4:3.0 5:65.0 6:1.76 
-0.15663367591989524 1:165000.0 2:13.0 3:3.5 4:3.5 5:98.0 6:2.28 
-0.15376549470254652 1:165000.0 2:9.0 3:4.0 4:4.0 5:98.0 6:2.28 
-0.1636884072148157 1:243.0 2:2.0 3:0.0 4:0.0 5:106.0 6:2.7 
-0.16350068981237348 1:243.0 2:0.0 3:3.2 4:3.2 5:106.0 6:2.7 
-0.1632538992045418 1:36.0 2:3.0 3:5.5 4:5.5 5:2.0 6:0.08333333333333333 
-0.16328022158260286 1:155000.0 2:42.0 3:6.0 4:6.0 5:87.0 6:2.0 
-0.1574743507518181 1:155000.0 2:47.0 3:6.0 4:6.0 5:87.0 6:2.0 
-0.15948357485538922 1:155000.0 2:46.0 3:9.0 4:9.0 5:87.0 6:2.0 
-0.16123228446639365 1:155000.0 2:33.0 3:9.5 4:9.5 5:87.0 6:2.0 
-0.1662759318100937 1:155000.0 2:3.0 3:9.5 4:9.5 5:87.0 6:2.0 
-0.07869186867320055 1:155000.0 2:32.0 3:6.666666666666667 4:6.666666666666667 5:87.0 6:2.0 
-0.16671350372820426 1:155000.0 2:1.0 3:3.0 4:3.0 5:87.0 6:2.0 
-0.10817906371916436 1:155000.0 2:31.0 3:6.0 4:6.0 5:87.0 6:2.0 
-0.16643058022956086 1:484000.0 2:28.0 3:4.0 4:4.0 5:220.0 6:5.7 
-0.16681154180526547 1:484000.0 2:6.0 3:4.0 4:4.0 5:220.0 6:5.7 
-0.16636253187533934 1:484000.0 2:34.0 3:5.0 4:5.0 5:220.0 6:5.7 
-0.11522213171566786 1:1.68E7 2:7.0 3:5.5 4:5.5 5:57.0 6:2.74 
-0.2062369078992946 1:1.68E7 2:3.0 3:5.666666666666667 4:5.666666666666667 5:57.0 6:2.74 
-0.1343845610053232 1:1.68E7 2:9.0 3:7.0 4:7.0 5:57.0 6:2.74 
-0.1563234564405705 1:1.68E7 2:15.0 3:4.0 4:4.0 5:57.0 6:2.74 
-0.14893386113667428 1:1.68E7 2:11.0 3:4.0 4:4.0 5:57.0 6:2.74 
-0.9454357548179322 1:180000.0 2:1.0 3:0.5 4:0.5 5:140.0 6:2.86 
-0.16666011952672344 1:44500.0 2:45.0 3:6.0 4:6.0 5:113.0 6:2.36 
-0.16666604608252733 1:3.87E7 2:1.0 3:5.6 4:5.6 5:146.0 6:3.4 
-0.13171110422415871 1:1.07E8 2:2.0 3:7.0 4:7.0 5:108.0 6:2.58 
-0.1320219840659153 1:1.07E8 2:0.0 3:5.5 4:5.5 5:108.0 6:2.58 
-0.16658655652934196 1:1.07E8 2:1.0 3:2.147483647E9 4:2.147483647E9 5:108.0 6:2.58 
-0.16656747966245156 1:4740000.0 2:8.0 3:10.0 4:10.0 5:59.0 6:3.2 
-0.16652674151559504 1:4740000.0 2:2.0 3:2.147483647E9 4:2.147483647E9 5:59.0 6:3.2 
-0.10644034747386698 1:8.71E7 2:3.0 3:2.3333333333333335 4:2.3333333333333335 5:57.0 6:1.92 
-0.16652668744871835 1:1.22E7 2:41.0 3:2.3333333333333335 4:2.3333333333333335 5:91.0 6:2.82 
-0.05002820504348144 1:8.71E7 2:0.0 3:2.0 4:2.0 5:57.0 6:1.92 
-0.10217044573301874 1:8.71E7 2:1.0 3:1.0 4:1.0 5:57.0 6:1.92 
-0.15463647462542263 1:8.71E7 2:2.0 3:5.0 4:5.0 5:57.0 6:1.92 
-1.0 1:10300.0 2:0.0 3:0.0 4:0.0 5:97.0 6:3.0816326530612246 
-0.16650672025733648 1:1750000.0 2:2.0 3:2.147483647E9 4:2.147483647E9 5:64.0 6:4.78 
-0.9454348666441985 1:1750000.0 2:1.0 3:7.0 4:7.0 5:64.0 6:4.78 
-0.1480298756199201 1:997000.0 2:0.0 3:0.5 4:0.5 5:49.0 6:1.1 
-0.14841495176468184 1:997000.0 2:2.0 3:2.5555555555555554 4:2.5555555555555554 5:49.0 6:1.1 
-0.16666181704879768 1:3.4E7 2:23.0 3:5.0 4:5.0 5:92.0 6:3.52 
-0.16686121811981391 1:3.4E7 2:13.0 3:6.0 4:6.0 5:92.0 6:3.52 
-0.5343846088591667 1:8.6E7 2:1.0 3:6.5 4:6.5 5:51.0 6:2.82 
-0.1312978971877452 1:1.09E8 2:4.0 3:6.0 4:6.0 5:44.0 6:3.56 
-0.16508935804974678 1:1.09E8 2:3.0 3:1.8571428571428572 4:1.8571428571428572 5:44.0 6:3.56 
-0.13140845924843658 1:1.09E8 2:1.0 3:6.0 4:6.0 5:44.0 6:3.56 
-0.1664719924368126 1:1.09E8 2:9.0 3:2.147483647E9 4:2.147483647E9 5:44.0 6:3.56 
-0.16601081736428014 1:8540000.0 2:0.0 3:4.5 4:4.5 5:81.0 6:3.14 
-0.1367145379258064 1:8540000.0 2:6.0 3:4.0 4:4.0 5:81.0 6:3.14 
-0.1370559788273502 1:8540000.0 2:9.0 3:3.6666666666666665 4:3.6666666666666665 5:81.0 6:3.14 
-0.16622022730208003 1:8540000.0 2:15.0 3:2.5 4:2.5 5:81.0 6:3.14 
-0.16646175532456786 1:280000.0 2:40.0 3:5.0 4:5.0 5:45.0 6:1.0 
-0.1511380505085758 1:150000.0 2:0.0 3:5.0 4:5.0 5:67.0 6:1.58 
-0.19864856160884045 1:150000.0 2:3.0 3:6.666666666666667 4:6.666666666666667 5:67.0 6:1.58 
-0.11526636878458701 1:5850000.0 2:2.0 3:4.666666666666667 4:4.666666666666667 5:59.0 6:3.979591836734694 
-0.16628033003227216 1:5850000.0 2:19.0 3:5.0 4:5.0 5:59.0 6:3.979591836734694 
-0.11582246547595454 1:5850000.0 2:4.0 3:4.0 4:4.0 5:59.0 6:3.979591836734694 
-0.13197911505953236 1:5800000.0 2:2.0 3:5.666666666666667 4:5.666666666666667 5:87.0 6:4.56 
-0.12950454921883675 1:5800000.0 2:0.0 3:7.0 4:7.0 5:87.0 6:4.56 
-0.1099256294763114 1:1080000.0 2:0.0 3:3.5 4:3.5 5:132.0 6:5.44 
-0.16630542345480231 1:2360000.0 2:38.0 3:3.6666666666666665 4:3.6666666666666665 5:151.0 6:5.44 
-0.1681505031513038 1:1080000.0 2:1.0 3:2.0 4:2.0 5:132.0 6:5.44 
-0.9906561915926418 1:1080000.0 2:6.0 3:2.4 4:2.4 5:132.0 6:5.44 
-0.16628710541529734 1:3.73E7 2:15.0 3:2.147483647E9 4:2.147483647E9 5:116.0 6:2.38 
-0.1662246110765649 1:3.73E7 2:23.0 3:2.6666666666666665 4:2.6666666666666665 5:116.0 6:2.38 
-0.16621677431045678 1:3.73E7 2:45.0 3:4.0 4:4.0 5:116.0 6:2.38 
-0.14373364949470993 1:3.73E7 2:5.0 3:3.0 4:3.0 5:116.0 6:2.38 
-0.1437336494947097 1:3.73E7 2:2.0 3:2.0 4:2.0 5:116.0 6:2.38 
-0.7726240530559405 1:8690000.0 2:1.0 3:0.0 4:0.0 5:65.0 6:1.94 
-0.17452105023475967 1:8690000.0 2:2.0 3:4.5 4:4.5 5:65.0 6:1.94 
-0.166992525489848 1:1.49E7 2:0.0 3:2.3333333333333335 4:2.3333333333333335 5:180.0 6:5.78 
-0.16626554494556256 1:1.49E7 2:48.0 3:2.6 4:2.6 5:180.0 6:5.78 
-0.16621162317553168 1:1.49E7 2:31.0 3:2.3333333333333335 4:2.3333333333333335 5:180.0 6:5.78 
-0.1653880447731365 1:4.28E7 2:4.0 3:6.5 4:6.5 5:145.0 6:3.5 
-0.1603433868871702 1:4.28E7 2:2.0 3:3.0 4:3.0 5:145.0 6:3.5 
-0.16683519692242077 1:4.28E7 2:27.0 3:3.5555555555555554 4:3.5555555555555554 5:145.0 6:3.5 
-0.16174572006514026 1:4.28E7 2:6.0 3:1.4 4:1.4 5:145.0 6:3.5 
-0.16628847875433622 1:3.54E7 2:21.0 3:3.6 4:3.6 5:113.0 6:3.26 
-0.1301057261953999 1:4.74E7 2:1.0 3:0.0 4:0.0 5:135.0 6:3.74 
-0.1666605942514789 1:3.54E7 2:12.0 3:3.5 4:3.5 5:113.0 6:3.26 
-0.5528661520885529 1:4.74E7 2:2.0 3:2.5 4:2.5 5:135.0 6:3.74 
-0.16622156313641384 1:8430000.0 2:12.0 3:2.5 4:2.5 5:113.0 6:2.46 
-0.11392512866053384 1:7.0E7 2:0.0 3:1.0 4:1.0 5:161.0 6:3.5 
-0.15765810738474922 1:7.0E7 2:4.0 3:0.0 4:0.0 5:161.0 6:3.5 
-0.1208297060348329 1:7.0E7 2:1.0 3:2.5 4:2.5 5:161.0 6:3.5 
-0.16622812770696127 1:165000.0 2:2.0 3:2.147483647E9 4:2.147483647E9 5:102.0 6:2.3 
-0.11073820190731187 1:165000.0 2:8.0 3:2.0 4:2.0 5:102.0 6:2.3 
-0.16657297723209263 1:165000.0 2:4.0 3:6.666666666666667 4:6.666666666666667 5:102.0 6:2.3 
-0.11317816059265534 1:165000.0 2:6.0 3:2.5 4:2.5 5:102.0 6:2.3 
-0.16671743679930073 1:270000.0 2:24.0 3:11.0 4:11.0 5:0.0 6:0.0 
-0.16622463504489476 1:30700.0 2:1.0 3:8.5 4:8.5 5:3.0 6:0.24 
-0.16620879379478615 1:30700.0 2:0.0 3:2.147483647E9 4:2.147483647E9 5:3.0 6:0.24 
-0.13649831295446274 1:1.84E7 2:1.0 3:1.0 4:1.0 5:79.0 6:2.4 
-0.13589170550248414 1:1.84E7 2:0.0 3:3.0 4:3.0 5:79.0 6:2.4 
-0.16618975022900323 1:1.84E7 2:32.0 3:6.75 4:6.75 5:79.0 6:2.4 
-0.1402838576297783 1:1.84E7 2:13.0 3:5.5 4:5.5 5:79.0 6:2.4 
-0.12701045350303952 1:1.84E7 2:10.0 3:5.0 4:5.0 5:79.0 6:2.4 
-0.15780895171585285 1:1.84E7 2:6.0 3:5.0 4:5.0 5:79.0 6:2.4 
-0.16669835012711792 1:1.84E7 2:21.0 3:2.147483647E9 4:2.147483647E9 5:79.0 6:2.4 
-0.15821262772676348 1:43.0 2:6.0 3:7.0 4:7.0 5:68.0 6:3.3255813953488373 
-0.1668674735512954 1:1.1E7 2:13.0 3:1.75 4:1.75 5:133.0 6:4.0 
-0.09991066740720922 1:43.0 2:5.0 3:3.0 4:3.0 5:68.0 6:3.3255813953488373 
-0.16669863857095707 1:1.1E7 2:23.0 3:1.5 4:1.5 5:133.0 6:4.0 
-0.3814465032435117 1:43.0 2:1.0 3:2.0 4:2.0 5:68.0 6:3.3255813953488373 
-0.14535200793365444 1:43.0 2:8.0 3:2.5 4:2.5 5:68.0 6:3.3255813953488373 
-0.1335505522340591 1:43.0 2:3.0 3:5.0 4:5.0 5:68.0 6:3.3255813953488373 
-0.048721563092341574 1:692000.0 2:2.0 3:3.3333333333333335 4:3.3333333333333335 5:82.0 6:1.8 
-0.06794721031017432 1:692000.0 2:7.0 3:4.0 4:4.0 5:82.0 6:1.8 
-0.11862978248283051 1:692000.0 2:4.0 3:4.2 4:4.2 5:82.0 6:1.8 
-0.1663613767395441 1:692000.0 2:22.0 3:2.147483647E9 4:2.147483647E9 5:82.0 6:1.8 
-0.13561556253195797 1:692000.0 2:0.0 3:3.3333333333333335 4:3.3333333333333335 5:82.0 6:1.8 
-0.16667145245274662 1:692000.0 2:21.0 3:5.0 4:5.0 5:82.0 6:1.8 
-0.11901903611126506 1:692000.0 2:8.0 3:5.0 4:5.0 5:82.0 6:1.8 
-0.16656608355692198 1:1.37E7 2:49.0 3:2.147483647E9 4:2.147483647E9 5:12.0 6:0.34 
-0.026646802398835313 1:2660000.0 2:3.0 3:3.6666666666666665 4:3.6666666666666665 5:57.0 6:1.68 
-0.9768707924083166 1:2660000.0 2:1.0 3:2.0 4:2.0 5:57.0 6:1.68 
-0.16655460700298252 1:2180000.0 2:42.0 3:4.428571428571429 4:4.428571428571429 5:26.0 6:3.34 
-0.16636166944851344 1:2.67E7 2:6.0 3:9.0 4:9.0 5:29.0 6:3.16 
-0.1776243135276246 1:2.67E7 2:5.0 3:3.0 4:3.0 5:29.0 6:3.16 
-0.16621121815045703 1:5.13E7 2:8.0 3:1.0 4:1.0 5:99.0 6:5.72 
-0.16648713738429766 1:1050000.0 2:34.0 3:2.5 4:2.5 5:69.0 6:1.48 
-0.16433929827767468 1:685000.0 2:4.0 3:2.0 4:2.0 5:83.0 6:1.72 
-0.147671192602158 1:685000.0 2:2.0 3:8.0 4:8.0 5:83.0 6:1.72 
-0.1329575688552463 1:685000.0 2:0.0 3:5.333333333333333 4:5.333333333333333 5:83.0 6:1.72 
-0.11911929703264719 1:685000.0 2:3.0 3:5.5 4:5.5 5:83.0 6:1.72 
-0.14842664643283632 1:121.0 2:0.0 3:0.0 4:0.0 5:139.0 6:3.0 
-0.16295695001723898 1:121.0 2:5.0 3:0.0 4:0.0 5:139.0 6:3.0 
-0.16654238681691785 1:6500000.0 2:25.0 3:3.5 4:3.5 5:142.0 6:3.0 
-0.14971360680360085 1:121.0 2:1.0 3:2.5 4:2.5 5:139.0 6:3.0 
-0.16962973644491003 1:1930000.0 2:0.0 3:4.0 4:4.0 5:113.0 6:2.76 
-0.13384284311714784 1:1930000.0 2:11.0 3:3.5 4:3.5 5:113.0 6:2.76 
-0.1338426831031599 1:1930000.0 2:9.0 3:5.0 4:5.0 5:113.0 6:2.76 
-0.15288821017414295 1:2290000.0 2:27.0 3:2.0 4:2.0 5:144.0 6:3.28 
-0.16709977932825965 1:5830000.0 2:42.0 3:3.0 4:3.0 5:174.0 6:3.74 
-0.08978445468881441 1:2290000.0 2:26.0 3:4.333333333333333 4:4.333333333333333 5:144.0 6:3.28 
-0.12562978172777306 1:2290000.0 2:24.0 3:5.0 4:5.0 5:144.0 6:3.28 
-0.0678340372047771 1:1210000.0 2:3.0 3:5.0 4:5.0 5:94.0 6:2.7 
-0.9363731960040376 1:1210000.0 2:1.0 3:3.0 4:3.0 5:94.0 6:2.7 
-0.16715243559820941 1:4100000.0 2:38.0 3:3.4 4:3.4 5:301.0 6:6.42 
-0.13101896413989794 1:2230000.0 2:1.0 3:1.7142857142857142 4:1.7142857142857142 5:308.0 6:6.46 
-0.13110090429041793 1:2230000.0 2:3.0 3:0.3333333333333333 4:0.3333333333333333 5:308.0 6:6.46 
-0.15852391702108115 1:5.61E7 2:0.0 3:3.3333333333333335 4:3.3333333333333335 5:59.0 6:2.9 
-0.15879989993198146 1:5.61E7 2:4.0 3:4.5 4:4.5 5:59.0 6:2.9 
-0.16412043127645065 1:5.61E7 2:18.0 3:3.0 4:3.0 5:59.0 6:2.9 
-0.1636653193053635 1:5.61E7 2:13.0 3:3.0 4:3.0 5:59.0 6:2.9 
-0.09211820883084847 1:2.49E7 2:33.0 3:4.888888888888889 4:4.888888888888889 5:66.0 6:3.38 
-0.15972703356565027 1:8050000.0 2:6.0 3:5.25 4:5.25 5:74.0 6:3.06 
-0.16664020056282403 1:8050000.0 2:0.0 3:0.0 4:0.0 5:74.0 6:3.06 
-0.07780202089693662 1:8050000.0 2:2.0 3:5.222222222222222 4:5.222222222222222 5:74.0 6:3.06 
-0.1088153081364011 1:8050000.0 2:1.0 3:4.5 4:4.5 5:74.0 6:3.06 
-0.0921182088308485 1:2.49E7 2:32.0 3:5.25 4:5.25 5:66.0 6:3.38 
-0.14695745193130771 1:178000.0 2:9.0 3:2.5 4:2.5 5:94.0 6:2.44 
-0.16714313867808334 1:178000.0 2:0.0 3:3.0 4:3.0 5:94.0 6:2.44 
-0.1463607152330092 1:178000.0 2:7.0 3:4.5 4:4.5 5:94.0 6:2.44 
-0.16714604197909755 1:1.31E7 2:1.0 3:2.147483647E9 4:2.147483647E9 5:85.0 6:2.28 
-0.16907608312801947 1:1.31E7 2:4.0 3:4.666666666666667 4:4.666666666666667 5:85.0 6:2.28 
-0.0826192960642321 1:4510000.0 2:1.0 3:5.0 4:5.0 5:61.0 6:3.26 
-0.16486330696917056 1:4510000.0 2:5.0 3:3.0 4:3.0 5:61.0 6:3.26 
-0.16714512419378175 1:4510000.0 2:18.0 3:4.0 4:4.0 5:61.0 6:3.26 
-0.09573883362681748 1:4510000.0 2:0.0 3:5.0 4:5.0 5:61.0 6:3.26 
-0.16405313046209694 1:2600000.0 2:9.0 3:3.5 4:3.5 5:38.0 6:1.56 
-0.1638954495763333 1:2600000.0 2:14.0 3:3.6666666666666665 4:3.6666666666666665 5:38.0 6:1.56 
-0.47167840796118005 1:2600000.0 2:1.0 3:3.25 4:3.25 5:38.0 6:1.56 
-0.16622463509095808 1:2.32E7 2:5.0 3:9.0 4:9.0 5:82.0 6:3.72 
-0.16715145697941225 1:2.32E7 2:24.0 3:6.0 4:6.0 5:82.0 6:3.72 
-0.9171714606259997 1:1450000.0 2:1.0 3:0.0 4:0.0 5:173.0 6:3.92 
-0.16715607839831276 1:1450000.0 2:12.0 3:2.147483647E9 4:2.147483647E9 5:173.0 6:3.92 
-0.1070367718511735 1:437000.0 2:0.0 3:9.0 4:9.0 5:65.0 6:2.3 
-0.09770242767782678 1:437000.0 2:1.0 3:8.0 4:8.0 5:65.0 6:2.3 
-0.163909365058311 1:437000.0 2:5.0 3:6.25 4:6.25 5:65.0 6:2.3 
-0.13615249317599798 1:510000.0 2:5.0 3:3.3333333333333335 4:3.3333333333333335 5:99.0 6:2.02 
-0.7651052126404234 1:510000.0 2:1.0 3:4.0 4:4.0 5:99.0 6:2.02 
-0.1880049759521825 1:5.52E7 2:4.0 3:3.25 4:3.25 5:78.0 6:2.06 
-0.07960936841328423 1:5.52E7 2:2.0 3:3.0 4:3.0 5:78.0 6:2.06 
-0.21179960516723723 1:5.52E7 2:0.0 3:2.25 4:2.25 5:78.0 6:2.06 
-0.16715279349078094 1:6460000.0 2:11.0 3:1.0 4:1.0 5:74.0 6:1.9 
-0.16717698794170027 1:2.26E7 2:25.0 3:5.666666666666667 4:5.666666666666667 5:157.0 6:5.66 
-0.1671453188283067 1:3.53E7 2:31.0 3:6.4 4:6.4 5:171.0 6:6.02 
-0.1597715355679062 1:2.26E7 2:0.0 3:7.5 4:7.5 5:157.0 6:5.66 
-0.16030200680564916 1:2.26E7 2:1.0 3:4.5 4:4.5 5:157.0 6:5.66 
-0.16668956724873957 1:3.29E7 2:2.0 3:2.147483647E9 4:2.147483647E9 5:51.0 6:2.48 
-0.3718073017626081 1:3.29E7 2:3.0 3:3.5 4:3.5 5:51.0 6:2.48 
-0.16652807860905167 1:6750000.0 2:6.0 3:2.5 4:2.5 5:66.0 6:2.78 
-0.1734533724315045 1:4620000.0 2:1.0 3:3.3333333333333335 4:3.3333333333333335 5:147.0 6:3.0 
-0.6764741394870966 1:4620000.0 2:2.0 3:0.0 4:0.0 5:147.0 6:3.0 
-0.16671673233476225 1:2430000.0 2:9.0 3:3.6 4:3.6 5:160.0 6:3.54 
-0.16622017030813008 1:4620000.0 2:11.0 3:1.6666666666666667 4:1.6666666666666667 5:147.0 6:3.0 
-0.1104554194548786 1:8.82E7 2:13.0 3:5.0 4:5.0 5:230.0 6:5.2 
-0.16403041073425023 1:8.82E7 2:20.0 3:6.333333333333333 4:6.333333333333333 5:230.0 6:5.2 
-0.15551357706866403 1:8.82E7 2:2.0 3:6.0 4:6.0 5:230.0 6:5.2 
-0.8807810315314356 1:8.82E7 2:1.0 3:2.3333333333333335 4:2.3333333333333335 5:230.0 6:5.2 
-0.1100300916760901 1:8.82E7 2:11.0 3:4.5 4:4.5 5:230.0 6:5.2 
-0.16407873186741972 1:8.82E7 2:25.0 3:5.5 4:5.5 5:230.0 6:5.2 
-0.16674059733225138 1:89800.0 2:28.0 3:4.0 4:4.0 5:173.0 6:5.0 
-0.3699529374763014 1:3360000.0 2:2.0 3:1.6666666666666667 4:1.6666666666666667 5:183.0 6:5.58 
-0.16676915817249782 1:3360000.0 2:16.0 3:16.0 4:16.0 5:183.0 6:5.58 
-0.1667656305592306 1:3360000.0 2:24.0 3:2.147483647E9 4:2.147483647E9 5:183.0 6:5.58 
-0.478682023405498 1:2280000.0 2:2.0 3:1.5 4:1.5 5:205.0 6:4.26 
-0.4781344933937407 1:2280000.0 2:1.0 3:0.0 4:0.0 5:205.0 6:4.26 
-0.16655118605712038 1:186000.0 2:20.0 3:4.2 4:4.2 5:179.0 6:3.72 
-0.43049224690271676 1:1.57E8 2:0.0 3:3.2 4:3.2 5:92.0 6:2.58 
-0.16675835384259952 1:1.57E8 2:19.0 3:6.0 4:6.0 5:92.0 6:2.58 
-0.0026489508789650385 1:2.46E7 2:26.0 3:8.4 4:8.4 5:184.0 6:3.76 
-0.08877018976956373 1:2.46E7 2:23.0 3:7.6 4:7.6 5:184.0 6:3.76 
-0.1093982275310997 1:2.46E7 2:37.0 3:7.666666666666667 4:7.666666666666667 5:184.0 6:3.76 
-0.12302746034157835 1:2.46E7 2:33.0 3:8.0 4:8.0 5:184.0 6:3.76 
-0.15082865540873075 1:2.46E7 2:20.0 3:11.0 4:11.0 5:184.0 6:3.76 
-0.12391610915716422 1:2.46E7 2:13.0 3:6.8 4:6.8 5:184.0 6:3.76 
-0.03021742625187326 1:2.46E7 2:12.0 3:7.333333333333333 4:7.333333333333333 5:184.0 6:3.76 
-0.06780633551471024 1:2.46E7 2:36.0 3:7.0 4:7.0 5:184.0 6:3.76 
-0.1381998524953899 1:2.46E7 2:30.0 3:7.2 4:7.2 5:184.0 6:3.76 
-0.09401209538097913 1:2.46E7 2:10.0 3:6.2 4:6.2 5:184.0 6:3.76 
-0.07473057583681611 1:2.46E7 2:25.0 3:8.2 4:8.2 5:184.0 6:3.76 
-0.11401175364642359 1:2.46E7 2:8.0 3:7.333333333333333 4:7.333333333333333 5:184.0 6:3.76 
-0.13642394346191627 1:2.46E7 2:27.0 3:9.5 4:9.5 5:184.0 6:3.76 
-0.16673935967333148 1:2.46E7 2:28.0 3:2.147483647E9 4:2.147483647E9 5:184.0 6:3.76 
-1.0 1:2.46E7 2:1.0 3:8.0 4:8.0 5:184.0 6:3.76 
-0.16502220586500915 1:2.46E7 2:2.0 3:4.0 4:4.0 5:184.0 6:3.76 
-0.09054354887058812 1:2.46E7 2:5.0 3:8.0 4:8.0 5:184.0 6:3.76 
-0.10880314298168503 1:2.46E7 2:21.0 3:8.666666666666666 4:8.666666666666666 5:184.0 6:3.76 
-0.1666364594224497 1:203000.0 2:17.0 3:8.0 4:8.0 5:36.0 6:1.26 
-0.16499927225169364 1:203000.0 2:3.0 3:2.0 4:2.0 5:36.0 6:1.26 
-0.1653853638924317 1:203000.0 2:2.0 3:5.75 4:5.75 5:36.0 6:1.26 
-0.16653073672988394 1:203000.0 2:39.0 3:4.75 4:4.75 5:36.0 6:1.26 
-0.16704698723188732 1:18200.0 2:7.0 3:4.666666666666667 4:4.666666666666667 5:88.0 6:1.98 
-0.304484928986646 1:18200.0 2:1.0 3:2.3333333333333335 4:2.3333333333333335 5:88.0 6:1.98 
-0.40564784206892285 1:6.03E7 2:2.0 3:8.0 4:8.0 5:82.0 6:3.78 
-0.16628473580965963 1:6.03E7 2:8.0 3:5.5 4:5.5 5:82.0 6:3.78 
-0.5841777634765146 1:6.03E7 2:1.0 3:5.0 4:5.0 5:82.0 6:3.78 
-0.16716150965281923 1:1100000.0 2:42.0 3:8.5 4:8.5 5:267.0 6:5.9 
-0.16780456382980224 1:7.02E7 2:0.0 3:0.0 4:0.0 5:101.0 6:3.78 
-0.16626470784692116 1:3.27E8 2:49.0 3:2.0 4:2.0 5:66.0 6:3.32 
-0.12108201940721774 1:7.02E7 2:12.0 3:4.5 4:4.5 5:101.0 6:3.78 
-0.24110923652871347 1:7.02E7 2:9.0 3:3.0 4:3.0 5:101.0 6:3.78 
-0.1677381241416402 1:3.28E7 2:1.0 3:0.0 4:0.0 5:122.0 6:3.36 
-0.16625804295317925 1:3.28E7 2:26.0 3:2.147483647E9 4:2.147483647E9 5:122.0 6:3.36 
-0.1665680314599987 1:7210000.0 2:33.0 3:2.5 4:2.5 5:122.0 6:2.74 
-0.16661736023791673 1:7.0E7 2:0.0 3:2.147483647E9 4:2.147483647E9 5:139.0 6:3.06 
-0.16043815824102325 1:7.0E7 2:1.0 3:1.6 4:1.6 5:139.0 6:3.06 
-0.1610448637208705 1:7.0E7 2:5.0 3:3.0 4:3.0 5:139.0 6:3.06 
-0.12776933292012882 1:1.16E7 2:4.0 3:2.0 4:2.0 5:59.0 6:1.44 
-0.11016175185116317 1:1.16E7 2:0.0 3:2.0 4:2.0 5:59.0 6:1.44 
-0.07865076892564088 1:1.16E7 2:1.0 3:3.0 4:3.0 5:59.0 6:1.44 
-0.15100542378470855 1:1.16E7 2:7.0 3:3.3333333333333335 4:3.3333333333333335 5:59.0 6:1.44 
-0.09324199056288326 1:53100.0 2:1.0 3:4.0 4:4.0 5:46.0 6:1.46 
-0.0943738089344909 1:53100.0 2:0.0 3:3.5 4:3.5 5:46.0 6:1.46 
-0.16631479578872116 1:2050000.0 2:2.0 3:10.0 4:10.0 5:115.0 6:4.64 
-0.16634987643223625 1:2050000.0 2:0.0 3:5.0 4:5.0 5:115.0 6:4.64 
-0.13569955475374385 1:1260000.0 2:4.0 3:4.25 4:4.25 5:90.0 6:2.0 
-0.10507755289341264 1:1260000.0 2:3.0 3:2.0 4:2.0 5:90.0 6:2.0 
-0.16644457267307583 1:1260000.0 2:0.0 3:2.147483647E9 4:2.147483647E9 5:90.0 6:2.0 
-0.11004751098321008 1:1260000.0 2:1.0 3:3.0 4:3.0 5:90.0 6:2.0 
-0.15053434496986534 1:78900.0 2:1.0 3:4.5 4:4.5 5:92.0 6:2.46 
-0.0904744922506105 1:78900.0 2:17.0 3:7.5 4:7.5 5:92.0 6:2.46 
-0.16701125960430746 1:78900.0 2:41.0 3:16.0 4:16.0 5:92.0 6:2.46 
-0.1666571853870626 1:78900.0 2:37.0 3:2.147483647E9 4:2.147483647E9 5:92.0 6:2.46 
-0.16689417696908176 1:78900.0 2:33.0 3:8.0 4:8.0 5:92.0 6:2.46 
-0.15089515020886862 1:78900.0 2:2.0 3:7.0 4:7.0 5:92.0 6:2.46 
-0.09047449225060505 1:78900.0 2:16.0 3:7.5 4:7.5 5:92.0 6:2.46 
-0.16689442842156255 1:495000.0 2:48.0 3:7.0 4:7.0 5:73.0 6:1.64 
-0.15072804074627355 1:495000.0 2:29.0 3:8.0 4:8.0 5:73.0 6:1.64 
-0.0904683444389572 1:495000.0 2:1.0 3:5.0 4:5.0 5:73.0 6:1.64 
-0.15035388810885497 1:495000.0 2:28.0 3:5.5 4:5.5 5:73.0 6:1.64 
-0.09046834443895778 1:495000.0 2:0.0 3:5.0 4:5.0 5:73.0 6:1.64 
-0.1665988566000055 1:495000.0 2:21.0 3:6.333333333333333 4:6.333333333333333 5:73.0 6:1.64 
-0.1663530655592828 1:95000.0 2:4.0 3:8.0 4:8.0 5:22.0 6:1.24 
-0.10193790132815421 1:95000.0 2:0.0 3:4.0 4:4.0 5:22.0 6:1.24 
-0.017269542537354653 1:95000.0 2:1.0 3:4.666666666666667 4:4.666666666666667 5:22.0 6:1.24 
-0.10152483505382141 1:95000.0 2:2.0 3:4.0 4:4.0 5:22.0 6:1.24 
-0.13582642013358615 1:139000.0 2:35.0 3:5.5 4:5.5 5:240.0 6:11.3 
-0.13641923123774102 1:139000.0 2:38.0 3:5.5 4:5.5 5:240.0 6:11.3 
-0.1666840245363857 1:2.75E7 2:15.0 3:3.0 4:3.0 5:147.0 6:5.24 
-0.16535957372622168 1:2.75E7 2:0.0 3:2.0 4:2.0 5:147.0 6:5.24 
-0.16645235885814014 1:2.75E7 2:23.0 3:2.0 4:2.0 5:147.0 6:5.24 
-0.16585819082715703 1:2.75E7 2:3.0 3:5.166666666666667 4:5.166666666666667 5:147.0 6:5.24 
-0.1671820753908036 1:1.92E7 2:1.0 3:0.0 4:0.0 5:132.0 6:2.64 
-0.16657677318953262 1:1.37E7 2:27.0 3:6.4 4:6.4 5:82.0 6:1.66 
-0.16647700928142112 1:11200.0 2:10.0 3:4.5 4:4.5 5:62.0 6:2.44 
-0.16465807164638013 1:95900.0 2:10.0 3:4.333333333333333 4:4.333333333333333 5:70.0 6:2.18 
-0.16640497188206577 1:95900.0 2:7.0 3:2.147483647E9 4:2.147483647E9 5:70.0 6:2.18 
-0.16431076134057804 1:95900.0 2:6.0 3:6.5 4:6.5 5:70.0 6:2.18 
-0.16653103793147211 1:137000.0 2:0.0 3:5.666666666666667 4:5.666666666666667 5:44.0 6:1.2 
-0.16645965438848426 1:1.01E7 2:2.0 3:2.147483647E9 4:2.147483647E9 5:82.0 6:2.98 
-0.06111161790606925 1:1.01E7 2:4.0 3:1.3333333333333333 4:1.3333333333333333 5:82.0 6:2.98 
-0.34345208386440607 1:1.01E7 2:3.0 3:0.0 4:0.0 5:82.0 6:2.98 
-0.16626723986113856 1:642000.0 2:34.0 3:2.147483647E9 4:2.147483647E9 5:58.0 6:2.48 
-0.3050380308571222 1:642000.0 2:1.0 3:8.0 4:8.0 5:58.0 6:2.48 
-0.16619007459297291 1:1.42E8 2:43.0 3:4.0 4:4.0 5:183.0 6:5.52 
-0.16129546521119975 1:5.26E7 2:0.0 3:0.0 4:0.0 5:179.0 6:4.76 
-0.10810390861036474 1:5.26E7 2:2.0 3:2.75 4:2.75 5:179.0 6:4.76 
-0.11920259727628513 1:5.26E7 2:4.0 3:3.0 4:3.0 5:179.0 6:4.76 
-0.13098272980081216 1:199000.0 2:1.0 3:2.0 4:2.0 5:84.0 6:2.12 
-0.12965102079387725 1:199000.0 2:3.0 3:5.571428571428571 4:5.571428571428571 5:84.0 6:2.12 
-0.151348757542551 1:199000.0 2:4.0 3:8.0 4:8.0 5:84.0 6:2.12 
-0.08794793015439539 1:199000.0 2:2.0 3:3.5 4:3.5 5:84.0 6:2.12 
-0.16688443936028607 1:1.97E7 2:0.0 3:2.5 4:2.5 5:113.0 6:3.14 
-0.16669283124125972 1:1.97E7 2:37.0 3:3.0 4:3.0 5:113.0 6:3.14 
-0.16663708763972296 1:514000.0 2:14.0 3:2.147483647E9 4:2.147483647E9 5:159.0 6:5.66 
-0.6796417890905633 1:2.58E7 2:0.0 3:4.8 4:4.8 5:119.0 6:4.92 
-0.16473855450760944 1:2.58E7 2:10.0 3:6.333333333333333 4:6.333333333333333 5:119.0 6:4.92 
-0.19693445230317175 1:2.58E7 2:5.0 3:7.5 4:7.5 5:119.0 6:4.92 
-0.1666856028059407 1:514000.0 2:27.0 3:3.3333333333333335 4:3.3333333333333335 5:159.0 6:5.66 
-0.142697418859848 1:353000.0 2:3.0 3:6.5 4:6.5 5:20.0 6:0.7 
-0.14348350306942187 1:353000.0 2:0.0 3:5.5 4:5.5 5:20.0 6:0.7 
-0.10031761847067722 1:353000.0 2:12.0 3:8.0 4:8.0 5:20.0 6:0.7 
-0.09174100819266373 1:353000.0 2:11.0 3:6.333333333333333 4:6.333333333333333 5:20.0 6:0.7 
-0.12570373049886352 1:353000.0 2:14.0 3:6.333333333333333 4:6.333333333333333 5:20.0 6:0.7 
-0.15019698710333235 1:353000.0 2:8.0 3:8.0 4:8.0 5:20.0 6:0.7 
-0.125169158622697 1:402000.0 2:5.0 3:2.5 4:2.5 5:81.0 6:2.0 
-0.038215628979647864 1:402000.0 2:4.0 3:4.0 4:4.0 5:81.0 6:2.0 
-0.12054175814463541 1:402000.0 2:2.0 3:3.0 4:3.0 5:81.0 6:2.0 
-0.15191331440193268 1:402000.0 2:3.0 3:6.0 4:6.0 5:81.0 6:2.0 
-0.661727538276335 1:3930000.0 2:2.0 3:4.333333333333333 4:4.333333333333333 5:240.0 6:5.16 
-0.14680299001524766 1:196000.0 2:3.0 3:4.5 4:4.5 5:110.0 6:2.24 
-0.1404097444059461 1:196000.0 2:0.0 3:4.0 4:4.0 5:110.0 6:2.24 
-0.16635753620076005 1:267000.0 2:15.0 3:7.0 4:7.0 5:64.0 6:2.52 
-0.14034368795515123 1:184000.0 2:0.0 3:1.0 4:1.0 5:63.0 6:2.66 
-0.16675424800483168 1:267000.0 2:5.0 3:5.0 4:5.0 5:64.0 6:2.52 
-0.1407313697984785 1:184000.0 2:2.0 3:2.75 4:2.75 5:63.0 6:2.66 
-0.16330756242822525 1:2350000.0 2:17.0 3:2.0 4:2.0 5:151.0 6:4.5 
-0.12818514028126615 1:4230000.0 2:0.0 3:2.0 4:2.0 5:132.0 6:3.84 
-0.14221265924763649 1:2350000.0 2:13.0 3:4.5 4:4.5 5:151.0 6:4.5 
-0.16624105029222336 1:2350000.0 2:1.0 3:1.0 4:1.0 5:151.0 6:4.5 
-0.11446560221411463 1:2350000.0 2:9.0 3:5.0 4:5.0 5:151.0 6:4.5 
-0.16668048153728166 1:4230000.0 2:14.0 3:1.6666666666666667 4:1.6666666666666667 5:132.0 6:3.84 
-0.22386710243607183 1:4230000.0 2:8.0 3:3.5 4:3.5 5:132.0 6:3.84 
-0.14697250534003964 1:2350000.0 2:12.0 3:2.0 4:2.0 5:151.0 6:4.5 
-0.129232197886902 1:2350000.0 2:7.0 3:3.8 4:3.8 5:151.0 6:4.5 
-0.20090149234176075 1:4230000.0 2:3.0 3:1.3333333333333333 4:1.3333333333333333 5:132.0 6:3.84 
-0.16620836511266873 1:4230000.0 2:11.0 3:8.0 4:8.0 5:132.0 6:3.84 
-0.1383149155185871 1:198000.0 2:8.0 3:4.0 4:4.0 5:57.0 6:1.5 
-0.11261931835791078 1:198000.0 2:2.0 3:3.0 4:3.0 5:57.0 6:1.5 
-0.11370872154333705 1:198000.0 2:0.0 3:2.5 4:2.5 5:57.0 6:1.5 
-0.13819099441079075 1:198000.0 2:11.0 3:4.5 4:4.5 5:57.0 6:1.5 
-0.1670374151390499 1:1140000.0 2:9.0 3:3.0 4:3.0 5:44.0 6:0.96 
-0.16664061969219418 1:485000.0 2:13.0 3:0.5 4:0.5 5:174.0 6:3.5 
-0.1533718705616544 1:485000.0 2:23.0 3:1.0 4:1.0 5:174.0 6:3.5 
-0.3024856290211979 1:485000.0 2:2.0 3:3.0 4:3.0 5:174.0 6:3.5 
-0.13667402393620515 1:485000.0 2:27.0 3:3.5 4:3.5 5:174.0 6:3.5 
-0.11955691654470751 1:485000.0 2:24.0 3:3.5 4:3.5 5:174.0 6:3.5 
-0.16480059260584906 1:485000.0 2:30.0 3:6.5 4:6.5 5:174.0 6:3.5 
-0.16636246003173927 1:485000.0 2:15.0 3:5.0 4:5.0 5:174.0 6:3.5 
-0.16690344137822455 1:145000.0 2:2.0 3:0.3333333333333333 4:0.3333333333333333 5:164.0 6:3.38 
-0.16668185674818448 1:2.31E7 2:18.0 3:5.0 4:5.0 5:123.0 6:3.96 
-0.1667657159274279 1:2.31E7 2:9.0 3:4.0 4:4.0 5:123.0 6:3.96 
-0.16651018122248207 1:2.31E7 2:1.0 3:0.0 4:0.0 5:123.0 6:3.96 
-0.1666880662351839 1:3.15E7 2:37.0 3:2.0 4:2.0 5:56.0 6:1.56 
-0.16688269711760817 1:3.15E7 2:3.0 3:4.0 4:4.0 5:56.0 6:1.56 
-0.16577912150049295 1:3.15E7 2:13.0 3:4.0 4:4.0 5:56.0 6:1.56 
-0.1663410285078772 1:3.15E7 2:15.0 3:0.0 4:0.0 5:56.0 6:1.56 
-0.16652096808165673 1:3.15E7 2:12.0 3:2.147483647E9 4:2.147483647E9 5:56.0 6:1.56 
-0.16649088795648076 1:3.15E7 2:29.0 3:2.5 4:2.5 5:56.0 6:1.56 
-0.16628378233459773 1:559000.0 2:0.0 3:3.5 4:3.5 5:93.0 6:3.64 
-0.11879741335599746 1:559000.0 2:7.0 3:5.0 4:5.0 5:93.0 6:3.64 
-0.16673622937887833 1:559000.0 2:15.0 3:7.0 4:7.0 5:93.0 6:3.64 
-0.11923324011669152 1:559000.0 2:8.0 3:3.5 4:3.5 5:93.0 6:3.64 
-0.1452903927884121 1:223000.0 2:1.0 3:4.0 4:4.0 5:28.0 6:1.38 
-0.14481887134125115 1:223000.0 2:3.0 3:6.0 4:6.0 5:28.0 6:1.38 
-0.16344711452080923 1:223000.0 2:6.0 3:3.0 4:3.0 5:28.0 6:1.38 
-0.16636912876657206 1:223000.0 2:2.0 3:2.147483647E9 4:2.147483647E9 5:28.0 6:1.38 
-0.11359106545288312 1:2.38E7 2:0.0 3:5.0 4:5.0 5:102.0 6:2.76 
-0.16635788847146998 1:2.38E7 2:3.0 3:2.147483647E9 4:2.147483647E9 5:102.0 6:2.76 
-0.11274564824287474 1:2.38E7 2:2.0 3:5.5 4:5.5 5:102.0 6:2.76 
-0.24553751796768059 1:1420000.0 2:1.0 3:2.6666666666666665 4:2.6666666666666665 5:60.0 6:3.32 
-0.14756209377020235 1:2.23E7 2:5.0 3:4.5 4:4.5 5:78.0 6:2.62 
-0.16231771028308573 1:2.23E7 2:0.0 3:5.0 4:5.0 5:78.0 6:2.62 
-0.15112437137398466 1:2.23E7 2:8.0 3:3.0 4:3.0 5:78.0 6:2.62 
-0.16383381555995397 1:2.23E7 2:1.0 3:1.5 4:1.5 5:78.0 6:2.62 
-0.16659622324006979 1:2.51E7 2:18.0 3:4.0 4:4.0 5:156.0 6:7.46 
-0.1661974327919552 1:2.0E7 2:24.0 3:6.0 4:6.0 5:131.0 6:6.46 
-0.5343764374952154 1:2.0E7 2:4.0 3:2.5 4:2.5 5:131.0 6:6.46 
-0.16655039374966996 1:2.0E7 2:37.0 3:5.5 4:5.5 5:131.0 6:6.46 
-0.14931802463528865 1:1.38E7 2:9.0 3:4.2 4:4.2 5:232.0 6:5.48 
-0.08595240244253055 1:1.38E7 2:6.0 3:5.0 4:5.0 5:232.0 6:5.48 
-0.10390357177136994 1:1.38E7 2:4.0 3:4.833333333333333 4:4.833333333333333 5:232.0 6:5.48 
-0.15447166705660986 1:1.38E7 2:1.0 3:3.4 4:3.4 5:232.0 6:5.48 
-0.16341562626276412 1:5330000.0 2:4.0 3:3.25 4:3.25 5:245.0 6:5.56 
-0.16394566978218722 1:5330000.0 2:0.0 3:1.25 4:1.25 5:245.0 6:5.56 
-0.13606192854841342 1:5.05E7 2:14.0 3:6.0 4:6.0 5:103.0 6:4.3 
-0.14638652050446305 1:5.05E7 2:0.0 3:6.666666666666667 4:6.666666666666667 5:103.0 6:4.3 
-0.14686862850570415 1:5.05E7 2:3.0 3:8.0 4:8.0 5:103.0 6:4.3 
-0.13637750160400353 1:5.05E7 2:13.0 3:8.0 4:8.0 5:103.0 6:4.3 
-0.16714076454940213 1:2530000.0 2:9.0 3:4.333333333333333 4:4.333333333333333 5:63.0 6:3.16 
-0.16660047866942257 1:1.33E7 2:44.0 3:2.75 4:2.75 5:262.0 6:6.92 
-0.9538157154469897 1:1.23E7 2:1.0 3:2.1666666666666665 4:2.1666666666666665 5:261.0 6:6.52 
-0.10379228646771618 1:5400000.0 2:0.0 3:3.0 4:3.0 5:67.0 6:3.12 
-0.16330700964195122 1:5400000.0 2:5.0 3:4.5 4:4.5 5:67.0 6:3.12 
-0.07332973159451914 1:5400000.0 2:1.0 3:3.0 4:3.0 5:67.0 6:3.12 
-0.1658893373448706 1:246.0 2:7.0 3:5.0 4:5.0 5:103.0 6:2.64 
-0.14687521389352987 1:246.0 2:10.0 3:9.5 4:9.5 5:103.0 6:2.64 
-0.14601944865955835 1:246.0 2:12.0 3:7.5 4:7.5 5:103.0 6:2.64 
-0.1665379976785078 1:246.0 2:19.0 3:6.5 4:6.5 5:103.0 6:2.64 
-0.14564551118113064 1:359000.0 2:1.0 3:2.5 4:2.5 5:91.0 6:3.0 
-0.1455165450383836 1:359000.0 2:5.0 3:3.5 4:3.5 5:91.0 6:3.0 
-0.029641940352599257 1:359000.0 2:3.0 3:3.0 4:3.0 5:91.0 6:3.0 
-0.16688713245178277 1:8670000.0 2:41.0 3:3.8 4:3.8 5:143.0 6:3.32 
-0.16388636099122889 1:8670000.0 2:23.0 3:1.3333333333333333 4:1.3333333333333333 5:143.0 6:3.32 
-0.16623775401163338 1:8670000.0 2:34.0 3:2.6 4:2.6 5:143.0 6:3.32 
-0.16471975949879675 1:8670000.0 2:27.0 3:3.5 4:3.5 5:143.0 6:3.32 
-0.2715649114446598 1:309000.0 2:1.0 3:2.5 4:2.5 5:75.0 6:1.68 
-0.16651819505936477 1:309000.0 2:3.0 3:7.0 4:7.0 5:75.0 6:1.68 
-0.16657890017163968 1:4690.0 2:1.0 3:5.0 4:5.0 5:44.0 6:1.3 
-0.16676766083532424 1:31800.0 2:8.0 3:3.0 4:3.0 5:65.0 6:1.56 
-0.17880769911249061 1:3120000.0 2:6.0 3:3.5 4:3.5 5:143.0 6:5.64 
-0.164643007503473 1:3120000.0 2:9.0 3:6.5 4:6.5 5:143.0 6:5.64 
-0.16427824290193416 1:5.43E7 2:8.0 3:3.5 4:3.5 5:201.0 6:6.26 
-0.14416231552414988 1:5.43E7 2:3.0 3:3.0 4:3.0 5:201.0 6:6.26 
-0.14580828121986883 1:5.43E7 2:1.0 3:5.0 4:5.0 5:201.0 6:6.26 
-0.16463389980406767 1:5.43E7 2:5.0 3:7.5 4:7.5 5:201.0 6:6.26 
-0.16617753068001972 1:215000.0 2:2.0 3:10.5 4:10.5 5:36.0 6:1.0816326530612246 
-0.16508591262288308 1:215000.0 2:0.0 3:5.0 4:5.0 5:36.0 6:1.0816326530612246 
-0.11502123610183285 1:215000.0 2:7.0 3:5.0 4:5.0 5:36.0 6:1.0816326530612246 
-0.10997455252953126 1:215000.0 2:5.0 3:5.5 4:5.5 5:36.0 6:1.0816326530612246 
-0.6729305325693018 1:188000.0 2:2.0 3:1.5 4:1.5 5:150.0 6:3.28 
-0.16657744820369452 1:297000.0 2:30.0 3:4.5 4:4.5 5:181.0 6:4.64 
-0.15740791961628559 1:188000.0 2:6.0 3:3.6666666666666665 4:3.6666666666666665 5:150.0 6:3.28 
-0.166429412846548 1:405000.0 2:2.0 3:2.25 4:2.25 5:128.0 6:2.64 
-0.16658056732057747 1:3.09E7 2:44.0 3:2.5 4:2.5 5:112.0 6:3.44 
-0.1661945164498691 1:3.09E7 2:5.0 3:2.147483647E9 4:2.147483647E9 5:112.0 6:3.44 
-0.16717542365488341 1:3.09E7 2:28.0 3:2.25 4:2.25 5:112.0 6:3.44 
-0.16671612383201095 1:3.09E7 2:0.0 3:3.0 4:3.0 5:112.0 6:3.44 
-0.1663737438850066 1:3.09E7 2:18.0 3:5.0 4:5.0 5:112.0 6:3.44 
-0.16668227203042957 1:248000.0 2:46.0 3:3.0 4:3.0 5:132.0 6:3.98 
-0.1661475094424359 1:8.61E7 2:0.0 3:4.0 4:4.0 5:54.0 6:2.62 
-0.1666839075181894 1:8.61E7 2:19.0 3:3.0 4:3.0 5:54.0 6:2.62 
-0.1661214176608498 1:8.61E7 2:2.0 3:0.0 4:0.0 5:54.0 6:2.62 
-0.1671489450484272 1:8.61E7 2:9.0 3:4.666666666666667 4:4.666666666666667 5:54.0 6:2.62 
-0.628820368687244 1:4060000.0 2:3.0 3:4.0 4:4.0 5:77.0 6:2.9 
-0.18013970671181445 1:4060000.0 2:0.0 3:8.0 4:8.0 5:77.0 6:2.9 
-0.046613725165429 1:4060000.0 2:6.0 3:4.333333333333333 4:4.333333333333333 5:77.0 6:2.9 
-0.16685885846971416 1:2.34E7 2:28.0 3:6.333333333333333 4:6.333333333333333 5:84.0 6:4.08 
-0.16662545404301043 1:2.34E7 2:20.0 3:4.333333333333333 4:4.333333333333333 5:84.0 6:4.08 
-0.16636281574911965 1:340000.0 2:0.0 3:0.0 4:0.0 5:80.0 6:2.08 
-0.16671699498747639 1:340000.0 2:2.0 3:6.0 4:6.0 5:80.0 6:2.08 
-0.166451348980591 1:340000.0 2:23.0 3:4.0 4:4.0 5:80.0 6:2.08 
-0.1667574480422756 1:1.86E7 2:4.0 3:2.0 4:2.0 5:272.0 6:6.06 
-0.16621095096501748 1:1890000.0 2:0.0 3:2.0 4:2.0 5:186.0 6:5.94 
-0.16708890356808753 1:1890000.0 2:10.0 3:0.0 4:0.0 5:186.0 6:5.94 
-0.1666867225485028 1:1890000.0 2:12.0 3:2.147483647E9 4:2.147483647E9 5:186.0 6:5.94 
-0.16668657890798827 1:5.37E7 2:7.0 3:7.5 4:7.5 5:89.0 6:2.1 
-0.15536595493349648 1:5.37E7 2:18.0 3:4.0 4:4.0 5:89.0 6:2.1 
-0.15570072202187063 1:5.37E7 2:22.0 3:4.0 4:4.0 5:89.0 6:2.1 
-0.11584322566689947 1:6.03E7 2:2.0 3:5.333333333333333 4:5.333333333333333 5:74.0 6:3.48 
-0.1668337841740657 1:6.03E7 2:18.0 3:2.0 4:2.0 5:74.0 6:3.48 
-0.11642639680261874 1:6.03E7 2:0.0 3:4.666666666666667 4:4.666666666666667 5:74.0 6:3.48 
-0.13499646662244985 1:373000.0 2:7.0 3:5.0 4:5.0 5:30.0 6:1.1 
-0.11922418688530967 1:373000.0 2:1.0 3:4.5 4:4.5 5:30.0 6:1.1 
-0.1184571883978755 1:373000.0 2:2.0 3:3.0 4:3.0 5:30.0 6:1.1 
-0.1664531983627931 1:927000.0 2:46.0 3:7.333333333333333 4:7.333333333333333 5:89.0 6:2.08 
-0.136550017453831 1:373000.0 2:8.0 3:7.0 4:7.0 5:30.0 6:1.1 
-0.16675091934328112 1:239000.0 2:42.0 3:5.666666666666667 4:5.666666666666667 5:197.0 6:5.18 
-0.16673809072726498 1:362000.0 2:0.0 3:2.147483647E9 4:2.147483647E9 5:209.0 6:5.18 
-0.16665173776474212 1:362000.0 2:10.0 3:6.5 4:6.5 5:209.0 6:5.18 
-0.15973705684525813 1:362000.0 2:4.0 3:9.0 4:9.0 5:209.0 6:5.18 
-0.16017350428694643 1:362000.0 2:1.0 3:6.75 4:6.75 5:209.0 6:5.18 
-0.16584459656752076 1:5450000.0 2:8.0 3:6.5 4:6.5 5:154.0 6:3.34 
-0.24167861191003215 1:5450000.0 2:2.0 3:5.6 4:5.6 5:154.0 6:3.34 
-0.1665432766991347 1:163000.0 2:9.0 3:7.0 4:7.0 5:140.0 6:2.82 
-0.16643547992607083 1:163000.0 2:16.0 3:5.5 4:5.5 5:140.0 6:2.82 
-0.16642922754804557 1:3730000.0 2:33.0 3:1.6666666666666667 4:1.6666666666666667 5:239.0 6:5.62 
-0.16634914075541307 1:3730000.0 2:12.0 3:1.6666666666666667 4:1.6666666666666667 5:239.0 6:5.62 
-0.998396327540473 1:3120000.0 2:2.0 3:1.4 4:1.4 5:261.0 6:5.7 
-0.13929138040352373 1:1.4E7 2:0.0 3:0.5 4:0.5 5:310.0 6:7.82 
-0.13932224266819476 1:1.4E7 2:1.0 3:2.6 4:2.6 5:310.0 6:7.82 
-0.09714265226142059 1:605000.0 2:2.0 3:5.333333333333333 4:5.333333333333333 5:182.0 6:4.76 
-0.09572613118028157 1:605000.0 2:3.0 3:6.0 4:6.0 5:182.0 6:4.76 
-0.1677326459512264 1:495000.0 2:3.0 3:4.0 4:4.0 5:196.0 6:4.06 
-0.14501303718710798 1:309000.0 2:42.0 3:7.333333333333333 4:7.333333333333333 5:246.0 6:5.46 
-0.16616605088544456 1:309000.0 2:33.0 3:6.0 4:6.0 5:246.0 6:5.46 
-0.14418171853297854 1:309000.0 2:39.0 3:6.25 4:6.25 5:246.0 6:5.46 
-0.15414112392178014 1:2440000.0 2:6.0 3:2.3333333333333335 4:2.3333333333333335 5:125.0 6:2.56 
-0.01930877147014861 1:2440000.0 2:3.0 3:1.5 4:1.5 5:125.0 6:2.56 
-0.16526254732647366 1:2440000.0 2:5.0 3:6.0 4:6.0 5:125.0 6:2.56 
-0.14276068028659591 1:2440000.0 2:2.0 3:1.3333333333333333 4:1.3333333333333333 5:125.0 6:2.56 
-0.16646377887464175 1:1610000.0 2:14.0 3:6.5 4:6.5 5:149.0 6:4.42 
-0.16652109353555816 1:195000.0 2:43.0 3:6.5 4:6.5 5:59.0 6:2.66 
-0.07439609772140947 1:3130000.0 2:3.0 3:3.0 4:3.0 5:57.0 6:2.84 
-0.2339090837778909 1:3130000.0 2:1.0 3:3.0 4:3.0 5:57.0 6:2.84 
-0.14381812635623192 1:1.12E7 2:0.0 3:5.0 4:5.0 5:37.0 6:1.4 
-0.14355969233878302 1:1.12E7 2:3.0 3:6.0 4:6.0 5:37.0 6:1.4 
-0.07983420586681503 1:811000.0 2:2.0 3:3.7142857142857144 4:3.7142857142857144 5:113.0 6:2.42 
-0.062001125455495396 1:811000.0 2:1.0 3:4.142857142857143 4:4.142857142857143 5:113.0 6:2.42 
-0.12030440506896188 1:811000.0 2:0.0 3:2.5 4:2.5 5:113.0 6:2.42 
-0.1669700183970403 1:92400.0 2:9.0 3:3.3333333333333335 4:3.3333333333333335 5:280.0 6:5.82 
-0.16666739604537228 1:92400.0 2:2.0 3:2.147483647E9 4:2.147483647E9 5:280.0 6:5.82 
-0.1431311226624112 1:1530000.0 2:30.0 3:5.0 4:5.0 5:88.0 6:3.54 
-0.38988188153172865 1:1530000.0 2:1.0 3:3.0 4:3.0 5:88.0 6:3.54 
-0.15655406848897646 1:1530000.0 2:38.0 3:7.5 4:7.5 5:88.0 6:3.54 
-0.15576835070474687 1:1530000.0 2:34.0 3:8.0 4:8.0 5:88.0 6:3.54 
-0.16572520812962904 1:1530000.0 2:10.0 3:3.6666666666666665 4:3.6666666666666665 5:88.0 6:3.54 
-0.1438407729590702 1:1530000.0 2:27.0 3:4.0 4:4.0 5:88.0 6:3.54 
-0.16553131392393283 1:1530000.0 2:8.0 3:0.0 4:0.0 5:88.0 6:3.54 
-0.16630411080194968 1:210000.0 2:0.0 3:2.147483647E9 4:2.147483647E9 5:82.0 6:2.56 
-0.1665210820966141 1:210000.0 2:1.0 3:6.5 4:6.5 5:82.0 6:2.56 
-0.16671273624030014 1:210000.0 2:10.0 3:3.5 4:3.5 5:82.0 6:2.56 
-0.1656159575491542 1:215000.0 2:0.0 3:6.666666666666667 4:6.666666666666667 5:24.0 6:0.48 
-0.16548480962133633 1:215000.0 2:4.0 3:4.0 4:4.0 5:24.0 6:0.48 
-0.16670625557265806 1:215000.0 2:11.0 3:5.666666666666667 4:5.666666666666667 5:24.0 6:0.48 
-0.16669234248245884 1:912000.0 2:20.0 3:2.147483647E9 4:2.147483647E9 5:223.0 6:5.12 
-0.1667380907272648 1:912000.0 2:3.0 3:9.5 4:9.5 5:223.0 6:5.12 
-0.16713268710094747 1:912000.0 2:40.0 3:7.0 4:7.0 5:223.0 6:5.12 
-0.16652582392900445 1:912000.0 2:33.0 3:7.5 4:7.5 5:223.0 6:5.12 
-0.16673925028502612 1:368000.0 2:9.0 3:5.0 4:5.0 5:235.0 6:6.8 
-0.4304251360940012 1:2.66E7 2:0.0 3:5.5 4:5.5 5:18.0 6:2.12 
-0.16881121700814933 1:2.66E7 2:7.0 3:3.0 4:3.0 5:18.0 6:2.12 
-0.24674323188910174 1:5.01E7 2:1.0 3:2.5 4:2.5 5:89.0 6:2.3 
-0.07924107371275457 1:5.01E7 2:9.0 3:3.0 4:3.0 5:89.0 6:2.3 
-0.16652779408853796 1:5.01E7 2:26.0 3:4.2 4:4.2 5:89.0 6:2.3 
-0.12183914253217167 1:5.01E7 2:46.0 3:4.666666666666667 4:4.666666666666667 5:89.0 6:2.3 
-0.10697311694346373 1:5.01E7 2:10.0 3:4.5 4:4.5 5:89.0 6:2.3 
-0.11085163757825411 1:5.01E7 2:7.0 3:4.0 4:4.0 5:89.0 6:2.3 
-0.06605737502726307 1:5.01E7 2:3.0 3:2.5 4:2.5 5:89.0 6:2.3 
-0.16673367836426828 1:5.01E7 2:24.0 3:2.147483647E9 4:2.147483647E9 5:89.0 6:2.3 
-0.16715096793680778 1:5.01E7 2:37.0 3:5.333333333333333 4:5.333333333333333 5:89.0 6:2.3 
-0.1218475688337508 1:5.01E7 2:48.0 3:5.5 4:5.5 5:89.0 6:2.3 
-0.16655055542361824 1:5.01E7 2:16.0 3:4.25 4:4.25 5:89.0 6:2.3 
-0.1629609783091343 1:262000.0 2:20.0 3:3.0 4:3.0 5:211.0 6:4.66 
-0.15134474490516048 1:262000.0 2:3.0 3:3.6 4:3.6 5:211.0 6:4.66 
-0.10345981904626572 1:262000.0 2:6.0 3:3.0 4:3.0 5:211.0 6:4.66 
-0.1401805944971261 1:262000.0 2:8.0 3:4.5 4:4.5 5:211.0 6:4.66 
-0.16307766242145683 1:262000.0 2:23.0 3:5.666666666666667 4:5.666666666666667 5:211.0 6:4.66 
-0.7249342329326911 1:248.0 2:17.0 3:6.0 4:6.0 5:126.0 6:2.94 
-0.3504037016419772 1:248.0 2:16.0 3:3.6666666666666665 4:3.6666666666666665 5:126.0 6:2.94 
-0.09712071293150736 1:212000.0 2:5.0 3:8.0 4:8.0 5:41.0 6:1.44 
-0.09577268395959267 1:212000.0 2:6.0 3:7.333333333333333 4:7.333333333333333 5:41.0 6:1.44 
-0.16661116036534007 1:212000.0 2:12.0 3:7.0 4:7.0 5:41.0 6:1.44 
-0.16668997142568498 1:212000.0 2:10.0 3:2.147483647E9 4:2.147483647E9 5:41.0 6:1.44 
-0.16698574327700472 1:185000.0 2:34.0 3:7.5 4:7.5 5:44.0 6:2.36 
-0.136595820872022 1:185000.0 2:2.0 3:4.0 4:4.0 5:44.0 6:2.36 
-0.767886335606258 1:185000.0 2:1.0 3:1.0 4:1.0 5:44.0 6:2.36 
-0.16691673645249633 1:1760000.0 2:21.0 3:4.0 4:4.0 5:53.0 6:1.7 
-0.16655132454872618 1:1760000.0 2:48.0 3:3.8333333333333335 4:3.8333333333333335 5:53.0 6:1.7 
-0.6805375560253766 1:5.31E7 2:0.0 3:0.0 4:0.0 5:77.0 6:2.14 
-0.13633830670550534 1:5.31E7 2:12.0 3:5.0 4:5.0 5:77.0 6:2.14 
-0.13594896099228126 1:5.31E7 2:9.0 3:4.5 4:4.5 5:77.0 6:2.14 
-0.12234673737982082 1:6.64E7 2:4.0 3:4.0 4:4.0 5:163.0 6:4.44 
-0.16646545394549533 1:6.64E7 2:1.0 3:2.147483647E9 4:2.147483647E9 5:163.0 6:4.44 
-0.12177243372559393 1:6.64E7 2:6.0 3:3.0 4:3.0 5:163.0 6:4.44 
-0.16638520216431724 1:2330000.0 2:17.0 3:2.147483647E9 4:2.147483647E9 5:210.0 6:5.98 
-0.16643450455280895 1:2330000.0 2:15.0 3:8.0 4:8.0 5:210.0 6:5.98 
-0.16637005696077695 1:970000.0 2:2.0 3:2.147483647E9 4:2.147483647E9 5:279.0 6:8.34 
-0.10417564094476618 1:2.81E7 2:1.0 3:6.0 4:6.0 5:78.0 6:3.72 
-0.1030713588996816 1:2.81E7 2:0.0 3:5.0 4:5.0 5:78.0 6:3.72 
-0.16637746583618251 1:2.81E7 2:14.0 3:2.4 4:2.4 5:78.0 6:3.72 
-0.1662371945099223 1:24.0 2:0.0 3:0.0 4:0.0 5:29.0 6:1.9166666666666667 
-0.1662027149791649 1:7240.0 2:6.0 3:2.147483647E9 4:2.147483647E9 5:84.0 6:2.24 
-0.1667441792517536 1:24.0 2:7.0 3:2.147483647E9 4:2.147483647E9 5:29.0 6:1.9166666666666667 
-0.16629320014904764 1:5450000.0 2:9.0 3:5.0 4:5.0 5:31.0 6:1.0 
-0.12148804868465392 1:5450000.0 2:4.0 3:2.5 4:2.5 5:31.0 6:1.0 
-0.12196229768496969 1:5450000.0 2:2.0 3:3.5 4:3.5 5:31.0 6:1.0 
-0.09591578113866178 1:416000.0 2:11.0 3:4.333333333333333 4:4.333333333333333 5:141.0 6:3.88 
-0.13487096237944496 1:416000.0 2:9.0 3:5.5 4:5.5 5:141.0 6:3.88 
-0.14917836757809888 1:416000.0 2:14.0 3:3.5 4:3.5 5:141.0 6:3.88 
-0.16674323727780754 1:416000.0 2:7.0 3:15.0 4:15.0 5:141.0 6:3.88 
-0.16669937164104648 1:804000.0 2:8.0 3:2.147483647E9 4:2.147483647E9 5:48.0 6:2.6 
-0.1665124206043866 1:804000.0 2:0.0 3:4.5 4:4.5 5:48.0 6:2.6 
-0.11878838846811474 1:804000.0 2:10.0 3:3.5 4:3.5 5:48.0 6:2.6 
-0.1187884000024883 1:804000.0 2:11.0 3:2.0 4:2.0 5:48.0 6:2.6 
-0.14693182903572927 1:4.38E7 2:22.0 3:5.5 4:5.5 5:79.0 6:4.0 
-0.1461176968117967 1:4.38E7 2:20.0 3:3.5 4:3.5 5:79.0 6:4.0 
-0.16466038855464638 1:4.38E7 2:14.0 3:4.5 4:4.5 5:79.0 6:4.0 
-0.37129105867801065 1:4.38E7 2:1.0 3:2.0 4:2.0 5:79.0 6:4.0 
-0.12189055927754622 1:4.38E7 2:7.0 3:5.0 4:5.0 5:79.0 6:4.0 
-0.08504338593026894 1:4.38E7 2:2.0 3:4.0 4:4.0 5:79.0 6:4.0 
-0.11932131223582149 1:4.38E7 2:9.0 3:4.0 4:4.0 5:79.0 6:4.0 
-0.1312120209268734 1:4.17E7 2:4.0 3:2.3333333333333335 4:2.3333333333333335 5:111.0 6:3.74 
-0.11404690267019052 1:4.17E7 2:0.0 3:2.2 4:2.2 5:111.0 6:3.74 
-0.08892884371007985 1:4.17E7 2:1.0 3:3.7142857142857144 4:3.7142857142857144 5:111.0 6:3.74 
-0.025354576942605813 1:4.17E7 2:3.0 3:3.25 4:3.25 5:111.0 6:3.74 
-0.11313419588688828 1:589000.0 2:0.0 3:5.0 4:5.0 5:63.0 6:1.72 
-0.10958961275500206 1:589000.0 2:1.0 3:3.6666666666666665 4:3.6666666666666665 5:63.0 6:1.72 
-0.16244018919730824 1:589000.0 2:5.0 3:5.5 4:5.5 5:63.0 6:1.72 
-0.12247778148745299 1:2580.0 2:5.0 3:5.833333333333333 4:5.833333333333333 5:20.0 6:0.5 
-0.16592582498744385 1:2580.0 2:6.0 3:9.666666666666666 4:9.666666666666666 5:20.0 6:0.5 
-0.12436191504668126 1:2580.0 2:3.0 3:4.75 4:4.75 5:20.0 6:0.5 
-0.13214370717448415 1:7.65E7 2:0.0 3:3.0 4:3.0 5:175.0 6:4.16 
-0.13135469592178867 1:7.65E7 2:3.0 3:3.0 4:3.0 5:175.0 6:4.16 
-0.16663496927639782 1:3200000.0 2:17.0 3:4.25 4:4.25 5:99.0 6:3.08 
-0.09433901754696139 1:131000.0 2:0.0 3:2.75 4:2.75 5:93.0 6:3.14 
-0.16656376755964675 1:131000.0 2:4.0 3:2.147483647E9 4:2.147483647E9 5:93.0 6:3.14 
-0.08878884855344443 1:131000.0 2:1.0 3:1.5 4:1.5 5:93.0 6:3.14 
-0.16657083427649666 1:284000.0 2:5.0 3:5.0 4:5.0 5:77.0 6:2.7 
-0.1249614199368807 1:131000.0 2:3.0 3:3.0 4:3.0 5:93.0 6:3.14 
-0.1500132480839313 1:333000.0 2:1.0 3:8.0 4:8.0 5:41.0 6:1.26 
-0.14700095572319444 1:333000.0 2:6.0 3:5.0 4:5.0 5:41.0 6:1.26 
-0.12265921077488312 1:333000.0 2:3.0 3:6.0 4:6.0 5:41.0 6:1.26 
-0.16650356188861787 1:2270000.0 2:2.0 3:4.5 4:4.5 5:111.0 6:2.22 
-0.1664966845961371 1:601000.0 2:17.0 3:4.0 4:4.0 5:61.0 6:1.72 
-0.09053140967313873 1:601000.0 2:1.0 3:1.5 4:1.5 5:61.0 6:1.72 
-0.0905314096731402 1:601000.0 2:0.0 3:1.5 4:1.5 5:61.0 6:1.72 
-0.07320020842224077 1:1.7E7 2:2.0 3:6.0 4:6.0 5:84.0 6:2.48 
-0.14925961657182835 1:1.7E7 2:0.0 3:3.5 4:3.5 5:84.0 6:2.48 
-0.15192762541660215 1:1.7E7 2:5.0 3:4.75 4:4.75 5:84.0 6:2.48 
-0.0754157170490919 1:1.7E7 2:1.0 3:5.8 4:5.8 5:84.0 6:2.48 
-0.16653103793147211 1:3600000.0 2:29.0 3:3.0 4:3.0 5:41.0 6:3.04 
-0.16668150830136097 1:1.72E7 2:11.0 3:7.333333333333333 4:7.333333333333333 5:69.0 6:4.04 
-0.16626772673218793 1:1.72E7 2:21.0 3:3.0 4:3.0 5:69.0 6:4.04 
-0.16645024547661563 1:4.91E7 2:10.0 3:2.147483647E9 4:2.147483647E9 5:147.0 6:4.3 
-0.12173488602534638 1:4.91E7 2:15.0 3:4.0 4:4.0 5:147.0 6:4.3 
-0.16642885388821138 1:5.26E7 2:41.0 3:3.3333333333333335 4:3.3333333333333335 5:174.0 6:5.12 
-0.10402528016061585 1:4.91E7 2:14.0 3:6.0 4:6.0 5:147.0 6:4.3 
-0.05855197884284585 1:4.91E7 2:13.0 3:5.0 4:5.0 5:147.0 6:4.3 
-0.7552408108887887 1:2.05E7 2:3.0 3:2.0 4:2.0 5:76.0 6:2.32 
-0.1717064987571548 1:2.05E7 2:0.0 3:0.0 4:0.0 5:76.0 6:2.32 
-0.12201410677859298 1:2.05E7 2:1.0 3:4.5 4:4.5 5:76.0 6:2.32 
-0.1661914896231393 1:257000.0 2:41.0 3:3.0 4:3.0 5:90.0 6:2.74 
-0.16668110155096993 1:257000.0 2:23.0 3:3.0 4:3.0 5:90.0 6:2.74 
-0.16665604188986027 1:1.29E7 2:0.0 3:2.147483647E9 4:2.147483647E9 5:290.0 6:6.22 
-0.11726311807780837 1:1.29E7 2:4.0 3:5.666666666666667 4:5.666666666666667 5:290.0 6:6.22 
-0.11726311807780843 1:1.29E7 2:2.0 3:4.9 4:4.9 5:290.0 6:6.22 
-0.20816265163874162 1:4150000.0 2:6.0 3:3.0 4:3.0 5:65.0 6:2.98 
-0.16600687351046603 1:4150000.0 2:0.0 3:2.25 4:2.25 5:65.0 6:2.98 
-0.28323551299028565 1:1970000.0 2:1.0 3:3.0 4:3.0 5:84.0 6:1.78 
-0.4675367588017296 1:1970000.0 2:2.0 3:4.0 4:4.0 5:84.0 6:1.78 
-0.1761100077245334 1:870000.0 2:0.0 3:4.0 4:4.0 5:178.0 6:4.62 
-0.1671119256456159 1:564000.0 2:28.0 3:2.147483647E9 4:2.147483647E9 5:116.0 6:2.98 
-0.16628651928137178 1:564000.0 2:1.0 3:5.0 4:5.0 5:116.0 6:2.98 
-0.1665775272757425 1:564000.0 2:9.0 3:8.5 4:8.5 5:116.0 6:2.98 
-0.11193933096703595 1:118000.0 2:0.0 3:4.0 4:4.0 5:101.0 6:2.24 
-0.1664472507689715 1:118000.0 2:49.0 3:2.147483647E9 4:2.147483647E9 5:101.0 6:2.24 
-0.11134628094324828 1:118000.0 2:2.0 3:4.333333333333333 4:4.333333333333333 5:101.0 6:2.24 
-0.16933990923396314 1:2.84E7 2:0.0 3:0.0 4:0.0 5:97.0 6:4.04 
-0.1163768477175261 1:6.36E7 2:1.0 3:5.0 4:5.0 5:78.0 6:5.26 
-0.016229241476440226 1:6.36E7 2:2.0 3:6.5 4:6.5 5:78.0 6:5.26 
-0.06923126521777562 1:6.36E7 2:3.0 3:5.0 4:5.0 5:78.0 6:5.26 
-0.16649317313341677 1:2810000.0 2:49.0 3:14.0 4:14.0 5:79.0 6:5.06 
-0.16637610709083323 1:2810000.0 2:18.0 3:7.6 4:7.6 5:79.0 6:5.06 
-0.1361035525791317 1:6.36E7 2:4.0 3:7.0 4:7.0 5:78.0 6:5.26 
-0.1153112950764772 1:2670000.0 2:2.0 3:4.0 4:4.0 5:45.0 6:1.96 
-0.14031738922752707 1:2670000.0 2:3.0 3:6.0 4:6.0 5:45.0 6:1.96 
-0.15059163481068816 1:2670000.0 2:4.0 3:2.0 4:2.0 5:45.0 6:1.96 
-0.16653961550373952 1:6060000.0 2:35.0 3:3.0 4:3.0 5:143.0 6:3.58 
-0.23061522762584669 1:6060000.0 2:0.0 3:2.5 4:2.5 5:143.0 6:3.58 
-0.7727966045922229 1:4.47E7 2:1.0 3:4.5 4:4.5 5:109.0 6:2.4 
-0.16672185918457555 1:179000.0 2:23.0 3:3.25 4:3.25 5:48.0 6:1.22 
-0.45042646015092586 1:398000.0 2:5.0 3:0.0 4:0.0 5:107.0 6:3.38 
-0.16614063087729875 1:398000.0 2:11.0 3:1.6666666666666667 4:1.6666666666666667 5:107.0 6:3.38 
-0.10387773013228957 1:221000.0 2:3.0 3:5.0 4:5.0 5:68.0 6:2.16 
-0.1650957525970455 1:221000.0 2:13.0 3:9.0 4:9.0 5:68.0 6:2.16 
-0.10355640812324651 1:221000.0 2:4.0 3:4.0 4:4.0 5:68.0 6:2.16 
-0.1645501970721312 1:221000.0 2:9.0 3:6.5 4:6.5 5:68.0 6:2.16 
-0.16613799110749516 1:304000.0 2:31.0 3:8.0 4:8.0 5:127.0 6:2.54 
-0.3290672431749925 1:5430000.0 2:2.0 3:4.0 4:4.0 5:88.0 6:1.78 
-0.1654688701566815 1:304000.0 2:47.0 3:6.0 4:6.0 5:127.0 6:2.54 
-0.16628446390391055 1:304000.0 2:36.0 3:5.0 4:5.0 5:127.0 6:2.54 
-0.9239952929374231 1:5430000.0 2:6.0 3:4.5 4:4.5 5:88.0 6:1.78 
-0.003545506963238132 1:5430000.0 2:1.0 3:5.0 4:5.0 5:88.0 6:1.78 
-0.16538020486764404 1:304000.0 2:42.0 3:4.333333333333333 4:4.333333333333333 5:127.0 6:2.54 
-0.6762297752340575 1:876000.0 2:2.0 3:5.25 4:5.25 5:327.0 6:7.28 
-0.15764997055755653 1:240.0 2:2.0 3:2.0 4:2.0 5:174.0 6:5.7 
-0.09982359511700684 1:240.0 2:4.0 3:4.333333333333333 4:4.333333333333333 5:174.0 6:5.7 
-0.12171797168460924 1:240.0 2:6.0 3:5.0 4:5.0 5:174.0 6:5.7 
-0.16665626831615266 1:332000.0 2:9.0 3:7.0 4:7.0 5:108.0 6:2.46 
-0.15403349144423556 1:332000.0 2:1.0 3:2.6666666666666665 4:2.6666666666666665 5:108.0 6:2.46 
-0.15448867002382616 1:332000.0 2:0.0 3:0.0 4:0.0 5:108.0 6:2.46 
-0.16654848073692435 1:1880000.0 2:4.0 3:3.75 4:3.75 5:108.0 6:4.52 
-0.16676448552980266 1:8560000.0 2:1.0 3:2.147483647E9 4:2.147483647E9 5:90.0 6:3.06 
-0.16706903427613418 1:1880000.0 2:0.0 3:0.0 4:0.0 5:108.0 6:4.52 
-0.16691466870841187 1:1880000.0 2:5.0 3:2.147483647E9 4:2.147483647E9 5:108.0 6:4.52 
-0.16596884719322286 1:4.77E7 2:0.0 3:4.0 4:4.0 5:75.0 6:2.08 
-0.13203687903695543 1:4.77E7 2:8.0 3:5.0 4:5.0 5:75.0 6:2.08 
-0.13159415871226876 1:4.77E7 2:7.0 3:3.25 4:3.25 5:75.0 6:2.08 
-0.16615085805744018 1:4.77E7 2:1.0 3:0.0 4:0.0 5:75.0 6:2.08 
-0.8832581852138446 1:7.65E7 2:2.0 3:1.8571428571428572 4:1.8571428571428572 5:75.0 6:2.52 
-0.16710115848405283 1:9420000.0 2:14.0 3:2.4285714285714284 4:2.4285714285714284 5:102.0 6:2.68 
-0.1616959510328768 1:37.0 2:0.0 3:4.25 4:4.25 5:71.0 6:2.945945945945946 
-0.13807441044370083 1:2520000.0 2:6.0 3:5.5 4:5.5 5:62.0 6:1.48 
-0.16635099353331478 1:37.0 2:10.0 3:5.0 4:5.0 5:71.0 6:2.945945945945946 
-0.13837561845734458 1:2520000.0 2:3.0 3:5.0 4:5.0 5:62.0 6:1.48 
-0.1422832651635862 1:37.0 2:4.0 3:2.0 4:2.0 5:71.0 6:2.945945945945946 
-0.1400688301740702 1:37.0 2:1.0 3:1.0 4:1.0 5:71.0 6:2.945945945945946 
-0.16662060997196565 1:122000.0 2:11.0 3:5.0 4:5.0 5:24.0 6:2.02 
-0.13572357602129836 1:122000.0 2:4.0 3:9.0 4:9.0 5:24.0 6:2.02 
-0.16713767611208946 1:122000.0 2:2.0 3:2.147483647E9 4:2.147483647E9 5:24.0 6:2.02 
-0.13663280085683016 1:122000.0 2:1.0 3:9.0 4:9.0 5:24.0 6:2.02 
-0.1671302912400474 1:1560000.0 2:32.0 3:5.0 4:5.0 5:155.0 6:5.36 
-0.16668169127659072 1:1560000.0 2:16.0 3:3.5 4:3.5 5:155.0 6:5.36 
-0.09138356506767804 1:91.0 2:5.0 3:7.0 4:7.0 5:48.0 6:1.22 
-0.0903235723341138 1:91.0 2:4.0 3:6.8 4:6.8 5:48.0 6:1.22 
-0.16714552540657035 1:138000.0 2:24.0 3:5.5 4:5.5 5:50.0 6:2.58 
-0.1662093846818038 1:1400000.0 2:1.0 3:6.0 4:6.0 5:43.0 6:2.54 
-0.16716245523495216 1:138000.0 2:3.0 3:4.0 4:4.0 5:50.0 6:2.58 
-0.16675056646939257 1:1400000.0 2:2.0 3:12.5 4:12.5 5:43.0 6:2.54 
-0.2082396950118851 1:247.0 2:0.0 3:0.0 4:0.0 5:123.0 6:3.24 
-0.5019772563271222 1:247.0 2:2.0 3:4.666666666666667 4:4.666666666666667 5:123.0 6:3.24 
-0.166280733594029 1:5.48E7 2:12.0 3:5.333333333333333 4:5.333333333333333 5:71.0 6:4.8 
-0.16673698411499854 1:5.48E7 2:21.0 3:3.0 4:3.0 5:71.0 6:4.8 
-0.16676966570352242 1:5.48E7 2:2.0 3:3.5 4:3.5 5:71.0 6:4.8 
-0.16672707430651684 1:5.48E7 2:42.0 3:4.25 4:4.25 5:71.0 6:4.8 
-0.8683260585367198 1:5440000.0 2:2.0 3:3.75 4:3.75 5:53.0 6:1.28 
-0.03443598741273325 1:3.39E7 2:4.0 3:4.5 4:4.5 5:62.0 6:3.8 
-0.09220392489418024 1:5.11E7 2:1.0 3:3.6666666666666665 4:3.6666666666666665 5:63.0 6:4.04 
-0.08848929932977188 1:5.11E7 2:2.0 3:3.4 4:3.4 5:63.0 6:4.04 
-0.12921650751669178 1:3.39E7 2:5.0 3:4.25 4:4.25 5:62.0 6:3.8 
-0.1545233696437052 1:3.39E7 2:1.0 3:4.0 4:4.0 5:62.0 6:3.8 
-0.16677049059719545 1:17800.0 2:26.0 3:3.625 4:3.625 5:83.0 6:1.66 
-0.16668362774081885 1:1470000.0 2:10.0 3:2.147483647E9 4:2.147483647E9 5:108.0 6:2.18 
-0.11277550820194432 1:1470000.0 2:11.0 3:6.6 4:6.6 5:108.0 6:2.18 
-0.16666431829015788 1:17800.0 2:17.0 3:2.147483647E9 4:2.147483647E9 5:83.0 6:1.66 
-0.16651510308775114 1:1470000.0 2:18.0 3:4.0 4:4.0 5:108.0 6:2.18 
-0.16058312914939282 1:17800.0 2:2.0 3:5.666666666666667 4:5.666666666666667 5:83.0 6:1.66 
-0.09964712715342522 1:1470000.0 2:3.0 3:5.25 4:5.25 5:108.0 6:2.18 
-0.06612292348552057 1:1470000.0 2:5.0 3:5.333333333333333 4:5.333333333333333 5:108.0 6:2.18 
-0.1602804281653913 1:17800.0 2:6.0 3:7.0 4:7.0 5:83.0 6:1.66 
-0.12426928260477521 1:1470000.0 2:12.0 3:5.0 4:5.0 5:108.0 6:2.18 
-0.14745207723483283 1:1470000.0 2:0.0 3:4.5 4:4.5 5:108.0 6:2.18 
-0.12932748636620778 1:1470000.0 2:7.0 3:6.333333333333333 4:6.333333333333333 5:108.0 6:2.18 
-0.1874960074994308 1:2.29E7 2:1.0 3:5.0 4:5.0 5:158.0 6:4.18 
-0.1665249960441718 1:3.61E7 2:4.0 3:2.0 4:2.0 5:114.0 6:3.34 
-0.1815981665629557 1:143000.0 2:5.0 3:6.25 4:6.25 5:205.0 6:4.44 
-0.16652668744871835 1:142000.0 2:36.0 3:7.333333333333333 4:7.333333333333333 5:203.0 6:4.3 
-0.17101364556738835 1:2.19E7 2:2.0 3:3.75 4:3.75 5:225.0 6:6.04 
-0.1663190455196102 1:2.19E7 2:45.0 3:4.4 4:4.4 5:225.0 6:6.04 
-0.16716081016224937 1:242.0 2:19.0 3:12.5 4:12.5 5:240.0 6:5.96 
-0.16626857440586063 1:242.0 2:10.0 3:8.0 4:8.0 5:240.0 6:5.96 
-0.21631976671902298 1:3.2E7 2:4.0 3:1.0 4:1.0 5:145.0 6:5.18 
-0.16632258200355432 1:3.2E7 2:38.0 3:5.5 4:5.5 5:145.0 6:5.18 
-0.16669922193263648 1:48300.0 2:21.0 3:4.333333333333333 4:4.333333333333333 5:61.0 6:1.76 
-0.16667978176776377 1:7950000.0 2:28.0 3:2.5 4:2.5 5:38.0 6:2.2 
-0.16209205553987638 1:7950000.0 2:2.0 3:3.0 4:3.0 5:38.0 6:2.2 
-0.16220382304173786 1:7950000.0 2:0.0 3:0.0 4:0.0 5:38.0 6:2.2 
-0.135430256717536 1:1410000.0 2:8.0 3:6.5 4:6.5 5:87.0 6:2.08 
-0.13419411768947037 1:1410000.0 2:1.0 3:3.0 4:3.0 5:87.0 6:2.08 
-0.16672954105683113 1:1410000.0 2:4.0 3:2.147483647E9 4:2.147483647E9 5:87.0 6:2.08 
-0.12415939773675155 1:1410000.0 2:2.0 3:5.666666666666667 4:5.666666666666667 5:87.0 6:2.08 
-0.13596581838287775 1:1410000.0 2:11.0 3:6.5 4:6.5 5:87.0 6:2.08 
-0.16556169926367448 1:1410000.0 2:9.0 3:2.5 4:2.5 5:87.0 6:2.08 
-0.07894611541550639 1:1410000.0 2:0.0 3:4.8 4:4.8 5:87.0 6:2.08 
-0.16139755516358006 1:155000.0 2:42.0 3:7.0 4:7.0 5:325.0 6:6.76 
-0.1614893664893628 1:155000.0 2:38.0 3:5.5 4:5.5 5:325.0 6:6.76 
-0.6480276306441 1:1520000.0 2:2.0 3:0.5 4:0.5 5:111.0 6:3.92 
-0.16618506133132538 1:1520000.0 2:8.0 3:9.0 4:9.0 5:111.0 6:3.92 
-0.04543095067333405 1:180000.0 2:1.0 3:5.0 4:5.0 5:63.0 6:1.28 
-0.14634224776740595 1:180000.0 2:3.0 3:2.0 4:2.0 5:63.0 6:1.28 
-0.14245647226681601 1:180000.0 2:8.0 3:5.5 4:5.5 5:63.0 6:1.28 
-0.12678268242867938 1:180000.0 2:0.0 3:5.5 4:5.5 5:63.0 6:1.28 
-0.09676154342200438 1:180000.0 2:5.0 3:5.5 4:5.5 5:63.0 6:1.28 
-0.07937296052468529 1:180000.0 2:4.0 3:4.0 4:4.0 5:63.0 6:1.28 
-0.1617490095248204 1:1.33E7 2:2.0 3:4.0 4:4.0 5:57.0 6:1.72 
-0.16638045377088784 1:2860000.0 2:0.0 3:2.147483647E9 4:2.147483647E9 5:46.0 6:1.72 
-0.16221792311407895 1:1.33E7 2:5.0 3:1.5 4:1.5 5:57.0 6:1.72 
-0.14319640904541114 1:758000.0 2:6.0 3:2.4 4:2.4 5:242.0 6:5.88 
-0.018275925885868738 1:758000.0 2:4.0 3:3.25 4:3.25 5:242.0 6:5.88 
-0.1374498020530557 1:758000.0 2:12.0 3:2.5714285714285716 4:2.5714285714285716 5:242.0 6:5.88 
-0.1419677530801901 1:758000.0 2:9.0 3:5.0 4:5.0 5:242.0 6:5.88 
-0.05537062849169125 1:758000.0 2:10.0 3:3.25 4:3.25 5:242.0 6:5.88 
-0.19113509821864727 1:758000.0 2:2.0 3:3.0 4:3.0 5:242.0 6:5.88 
-0.23038022988764334 1:203000.0 2:0.0 3:7.0 4:7.0 5:66.0 6:1.48 
-0.16775701083051553 1:203000.0 2:1.0 3:0.0 4:0.0 5:66.0 6:1.48 
-0.3502642861216826 1:3400000.0 2:1.0 3:3.0 4:3.0 5:221.0 6:5.18 
-0.5389801557469115 1:3400000.0 2:2.0 3:1.5 4:1.5 5:221.0 6:5.18 
-0.16637743366258329 1:3400000.0 2:4.0 3:2.147483647E9 4:2.147483647E9 5:221.0 6:5.18 
-0.049370286085082205 1:3400000.0 2:8.0 3:3.5 4:3.5 5:221.0 6:5.18 
-0.11847916352536558 1:3400000.0 2:7.0 3:3.0 4:3.0 5:221.0 6:5.18 
-0.15498629776748152 1:3400000.0 2:11.0 3:4.5 4:4.5 5:221.0 6:5.18 
-0.13864246217695608 1:2.05E7 2:5.0 3:3.5 4:3.5 5:128.0 6:3.44 
-0.1380213397375611 1:2.05E7 2:8.0 3:3.0 4:3.0 5:128.0 6:3.44 
-0.16636857399142901 1:3750000.0 2:6.0 3:2.147483647E9 4:2.147483647E9 5:282.0 6:6.2 
-0.16628895010299855 1:74.0 2:7.0 3:6.0 4:6.0 5:76.0 6:1.9 
-0.16619049802840213 1:6440.0 2:28.0 3:2.147483647E9 4:2.147483647E9 5:104.0 6:2.2 
-0.27165431744113105 1:74.0 2:1.0 3:3.0 4:3.0 5:76.0 6:1.9 
-0.5270734897997418 1:4960000.0 2:1.0 3:1.6 4:1.6 5:85.0 6:1.88 
-0.1667245918223501 1:4960000.0 2:3.0 3:2.147483647E9 4:2.147483647E9 5:85.0 6:1.88 
-0.15035545427170632 1:298000.0 2:7.0 3:5.5 4:5.5 5:29.0 6:1.34 
-0.14948879993283404 1:298000.0 2:4.0 3:7.0 4:7.0 5:29.0 6:1.34 
-0.09408899636990214 1:298000.0 2:0.0 3:4.0 4:4.0 5:29.0 6:1.34 
-0.08562477450916067 1:298000.0 2:1.0 3:4.0 4:4.0 5:29.0 6:1.34 
-0.16642168560455373 1:3.79E7 2:37.0 3:7.0 4:7.0 5:196.0 6:6.2 
-0.16819940130025618 1:3.79E7 2:5.0 3:2.5 4:2.5 5:196.0 6:6.2 
-0.16707008136512796 1:3.79E7 2:35.0 3:2.5 4:2.5 5:196.0 6:6.2 
-0.10708891572235502 1:2.19E7 2:3.0 3:0.0 4:0.0 5:102.0 6:2.32 
-0.14469362160372823 1:2.19E7 2:6.0 3:4.25 4:4.25 5:102.0 6:2.32 
-0.1378976582610597 1:2.19E7 2:7.0 3:2.0 4:2.0 5:102.0 6:2.32 
-0.06743124343920709 1:2.19E7 2:4.0 3:0.0 4:0.0 5:102.0 6:2.32 
-0.16677040279577132 1:710000.0 2:24.0 3:3.0 4:3.0 5:62.0 6:1.24 
-0.16669790225820252 1:220000.0 2:3.0 3:2.147483647E9 4:2.147483647E9 5:101.0 6:2.08 
-0.16653877860959299 1:220000.0 2:1.0 3:2.5 4:2.5 5:101.0 6:2.08 
-0.1664543600230743 1:220000.0 2:2.0 3:7.0 4:7.0 5:101.0 6:2.08 
-0.14954538133116252 1:4.79E7 2:0.0 3:8.0 4:8.0 5:259.0 6:5.52 
-0.13871922368156692 1:4.79E7 2:3.0 3:4.333333333333333 4:4.333333333333333 5:259.0 6:5.52 
-0.10588646259875145 1:4.79E7 2:2.0 3:6.2 4:6.2 5:259.0 6:5.52 
-0.23668235442328278 1:1.38E8 2:5.0 3:1.25 4:1.25 5:80.0 6:3.34 
-0.16626836684266033 1:5130000.0 2:4.0 3:2.147483647E9 4:2.147483647E9 5:183.0 6:3.9 
-0.16628176563533043 1:1680000.0 2:3.0 3:2.147483647E9 4:2.147483647E9 5:55.0 6:1.7 
-0.16629453794785676 1:5870000.0 2:20.0 3:3.75 4:3.75 5:46.0 6:1.4 
-0.3893286914911837 1:1680000.0 2:1.0 3:3.0 4:3.0 5:55.0 6:1.7 
-0.16653660056515568 1:89400.0 2:15.0 3:5.0 4:5.0 5:93.0 6:2.44 
-0.1665317570150393 1:89400.0 2:44.0 3:2.5 4:2.5 5:93.0 6:2.44 
-0.1707431652659986 1:2040000.0 2:1.0 3:4.0 4:4.0 5:95.0 6:2.36 
-0.1665303361777165 1:2040000.0 2:9.0 3:2.147483647E9 4:2.147483647E9 5:95.0 6:2.36 
-0.5527766231239076 1:1.57E7 2:2.0 3:2.75 4:2.75 5:162.0 6:3.34 
-0.02234800870111419 1:1.57E7 2:4.0 3:2.0 4:2.0 5:162.0 6:3.34 
-0.16656360780969098 1:2290000.0 2:42.0 3:1.5 4:1.5 5:146.0 6:3.06 
-0.728143866347631 1:1.57E7 2:0.0 3:3.2 4:3.2 5:162.0 6:3.34 
-0.15669268703511696 1:1140000.0 2:9.0 3:2.25 4:2.25 5:164.0 6:4.32 
-0.166532470103883 1:8.16E7 2:10.0 3:3.6 4:3.6 5:119.0 6:2.98 
-0.15702176558474223 1:1140000.0 2:5.0 3:1.6666666666666667 4:1.6666666666666667 5:164.0 6:4.32 
-0.16671613376076233 1:1180000.0 2:4.0 3:2.147483647E9 4:2.147483647E9 5:11.0 6:0.7 
-0.1667320353740201 1:1180000.0 2:0.0 3:4.666666666666667 4:4.666666666666667 5:11.0 6:0.7 
-0.16676957991316071 1:3.13E7 2:22.0 3:7.0 4:7.0 5:41.0 6:2.5918367346938775 
-0.16654735124855602 1:3.13E7 2:2.0 3:1.0 4:1.0 5:41.0 6:2.5918367346938775 
-0.16869997714199553 1:5.96E7 2:6.0 3:4.0 4:4.0 5:57.0 6:3.92 
-0.16621443822145032 1:5.96E7 2:47.0 3:5.6 4:5.6 5:57.0 6:3.92 
-0.16749186900739504 1:5.96E7 2:2.0 3:8.0 4:8.0 5:57.0 6:3.92 
-0.11479515251046496 1:2140000.0 2:0.0 3:4.0 4:4.0 5:189.0 6:6.1 
-0.11517826694252686 1:2140000.0 2:2.0 3:4.625 4:4.625 5:189.0 6:6.1 
-0.1664693321095021 1:3830000.0 2:48.0 3:3.5 4:3.5 5:147.0 6:8.7 
-0.14544851712734952 1:2.32E7 2:0.0 3:2.3333333333333335 4:2.3333333333333335 5:57.0 6:3.56 
-0.316868226295239 1:2.32E7 2:2.0 3:2.0 4:2.0 5:57.0 6:3.56 
-0.1661413585614867 1:2.32E7 2:9.0 3:2.75 4:2.75 5:57.0 6:3.56 
-0.166452381493207 1:1.92E7 2:10.0 3:2.147483647E9 4:2.147483647E9 5:228.0 6:5.36 
-0.16652069439857575 1:1.27E7 2:3.0 3:5.25 4:5.25 5:167.0 6:4.58 
-1.0 1:1.27E7 2:1.0 3:0.0 4:0.0 5:167.0 6:4.58 
-0.1666817753391987 1:1.2E7 2:29.0 3:2.8 4:2.8 5:34.0 6:0.7 
-0.16382867903426435 1:1.27E7 2:7.0 3:4.666666666666667 4:4.666666666666667 5:42.0 6:0.86 
-0.1260250697197144 1:1.27E7 2:5.0 3:1.3333333333333333 4:1.3333333333333333 5:42.0 6:0.86 
-0.31265825229386013 1:1.27E7 2:2.0 3:2.3333333333333335 4:2.3333333333333335 5:42.0 6:0.86 
-0.16588027791747623 1:1.27E7 2:11.0 3:1.6666666666666667 4:1.6666666666666667 5:42.0 6:0.86 
-0.16672096200176528 1:5.04E7 2:8.0 3:4.0 4:4.0 5:107.0 6:2.72 
-0.16644552206496316 1:5.04E7 2:12.0 3:7.5 4:7.5 5:107.0 6:2.72 
-0.16652909171285085 1:5.04E7 2:4.0 3:2.147483647E9 4:2.147483647E9 5:107.0 6:2.72 
-0.16637787190521885 1:256000.0 2:30.0 3:5.0 4:5.0 5:159.0 6:3.94 
-0.1663806238894372 1:256000.0 2:4.0 3:4.5 4:4.5 5:159.0 6:3.94 
-0.16031638896189432 1:4650000.0 2:19.0 3:9.0 4:9.0 5:85.0 6:2.08 
-0.15967723902566916 1:4650000.0 2:1.0 3:4.0 4:4.0 5:85.0 6:2.08 
-0.16619286854542076 1:4650000.0 2:11.0 3:5.333333333333333 4:5.333333333333333 5:85.0 6:2.08 
-0.12746063664606788 1:4650000.0 2:23.0 3:8.0 4:8.0 5:85.0 6:2.08 
-0.16616145595549364 1:4650000.0 2:0.0 3:0.0 4:0.0 5:85.0 6:2.08 
-0.16676448552980266 1:1.8E7 2:49.0 3:6.5 4:6.5 5:122.0 6:3.06 
-0.1506739515068939 1:4650000.0 2:2.0 3:7.0 4:7.0 5:85.0 6:2.08 
-0.1577979437004805 1:4650000.0 2:5.0 3:9.0 4:9.0 5:85.0 6:2.08 
-0.13783725159125343 1:4650000.0 2:26.0 3:8.0 4:8.0 5:85.0 6:2.08 
-0.38986705868442156 1:2.52E7 2:1.0 3:2.0 4:2.0 5:140.0 6:6.68 
-0.16665033113810007 1:2.52E7 2:17.0 3:2.0 4:2.0 5:140.0 6:6.68 
-0.16645399930879934 1:2.52E7 2:8.0 3:4.333333333333333 4:4.333333333333333 5:140.0 6:6.68 
-0.166686603780467 1:2.6E7 2:35.0 3:3.0 4:3.0 5:233.0 6:5.5 
-0.16716172739033663 1:3920000.0 2:6.0 3:3.375 4:3.375 5:167.0 6:4.24 
-0.16715034756759162 1:3920000.0 2:1.0 3:2.147483647E9 4:2.147483647E9 5:167.0 6:4.24 
-0.09060842789810553 1:277000.0 2:1.0 3:3.0 4:3.0 5:62.0 6:2.8 
-0.166268910213819 1:277000.0 2:9.0 3:4.75 4:4.75 5:62.0 6:2.8 
-0.16716242973575401 1:395000.0 2:4.0 3:0.5 4:0.5 5:87.0 6:3.06 
-0.09002914263282902 1:277000.0 2:0.0 3:3.0 4:3.0 5:62.0 6:2.8 
-0.945410790795518 1:336000.0 2:1.0 3:0.5 4:0.5 5:116.0 6:5.52 
-0.15228192564719792 1:426000.0 2:2.0 3:4.0 4:4.0 5:27.0 6:2.16 
-0.16715049921264358 1:114000.0 2:24.0 3:4.0 4:4.0 5:35.0 6:2.56 
-0.15180436186203952 1:426000.0 2:0.0 3:6.25 4:6.25 5:27.0 6:2.16 
-0.16669790225820252 1:426000.0 2:3.0 3:2.147483647E9 4:2.147483647E9 5:27.0 6:2.16 
-0.16247850633559618 1:3.66E7 2:10.0 3:5.625 4:5.625 5:35.0 6:1.94 
-1.0 1:3.66E7 2:2.0 3:5.25 4:5.25 5:35.0 6:1.94 
-0.0015743888215223878 1:3.66E7 2:7.0 3:4.75 4:4.75 5:35.0 6:1.94 
-0.34090761503077716 1:3.66E7 2:5.0 3:4.75 4:4.75 5:35.0 6:1.94 
-0.16673479000071084 1:77.0 2:15.0 3:4.0 4:4.0 5:38.0 6:1.28 
-0.16663510946370697 1:3.66E7 2:4.0 3:2.147483647E9 4:2.147483647E9 5:35.0 6:1.94 
-1.0 1:2.43E8 2:1.0 3:2.6666666666666665 4:2.6666666666666665 5:77.0 6:3.4 
-0.16178927810976312 1:2.43E8 2:6.0 3:3.5 4:3.5 5:77.0 6:3.4 
-0.16374077572488765 1:5.5E7 2:0.0 3:1.0 4:1.0 5:104.0 6:5.6 
-0.1645952360343077 1:5.5E7 2:1.0 3:4.5 4:4.5 5:104.0 6:5.6 
-0.166527805665583 1:5.5E7 2:26.0 3:1.5 4:1.5 5:104.0 6:5.6 
-0.09565993034143758 1:8940000.0 2:2.0 3:3.0 4:3.0 5:84.0 6:2.06 
-0.16652682705675947 1:1.98E7 2:41.0 3:1.5 4:1.5 5:76.0 6:1.88 
-0.11747933118110296 1:8940000.0 2:0.0 3:3.0 4:3.0 5:84.0 6:2.06 
-0.1596886626470851 1:8940000.0 2:6.0 3:3.0 4:3.0 5:84.0 6:2.06 
-0.1135959804194589 1:505000.0 2:16.0 3:1.5 4:1.5 5:109.0 6:4.94 
-0.16629441285743835 1:505000.0 2:5.0 3:2.147483647E9 4:2.147483647E9 5:109.0 6:4.94 
-0.24799994324959468 1:505000.0 2:1.0 3:2.5 4:2.5 5:109.0 6:4.94 
-0.11243016194395272 1:505000.0 2:14.0 3:1.0 4:1.0 5:109.0 6:4.94 
-0.10959759711943295 1:505000.0 2:4.0 3:2.5 4:2.5 5:109.0 6:4.94 
-0.15978759109589857 1:505000.0 2:8.0 3:3.0 4:3.0 5:109.0 6:4.94 
-0.16137064186915834 1:2370.0 2:2.0 3:5.0 4:5.0 5:27.0 6:1.92 
-0.16182147257092472 1:2370.0 2:6.0 3:3.5 4:3.5 5:27.0 6:1.92 
-0.16629803968445117 1:4260.0 2:29.0 3:3.5 4:3.5 5:22.0 6:1.72 
-0.16578126388612485 1:1.91E8 2:3.0 3:5.666666666666667 4:5.666666666666667 5:24.0 6:1.4137931034482758 
-0.16591140145793215 1:1.91E8 2:1.0 3:3.0 4:3.0 5:24.0 6:1.4137931034482758 
-0.16626505803742564 1:138000.0 2:42.0 3:1.0 4:1.0 5:129.0 6:4.4 
-0.16671334564816354 1:75700.0 2:7.0 3:3.6666666666666665 4:3.6666666666666665 5:219.0 6:5.94 
-0.09665693595726138 1:205.0 2:1.0 3:6.0 4:6.0 5:27.0 6:0.74 
-0.16629610919047422 1:205.0 2:8.0 3:6.5 4:6.5 5:27.0 6:0.74 
-0.09618838910699151 1:205.0 2:0.0 3:6.666666666666667 4:6.666666666666667 5:27.0 6:0.74 
-0.6112720267016791 1:242.0 2:4.0 3:4.625 4:4.625 5:75.0 6:2.1 
-0.15050815577597673 1:1.32E7 2:14.0 3:6.0 4:6.0 5:24.0 6:2.4 
-0.16652998046282058 1:1.32E7 2:1.0 3:0.0 4:0.0 5:24.0 6:2.4 
-0.11530685021761011 1:1.32E7 2:12.0 3:4.0 4:4.0 5:24.0 6:2.4 
-0.14022657225309834 1:1.32E7 2:9.0 3:4.0 4:4.0 5:24.0 6:2.4 
-0.6328525502646518 1:1960000.0 2:3.0 3:5.5 4:5.5 5:140.0 6:6.02 
-0.1442051168847217 1:1960000.0 2:4.0 3:2.5 4:2.5 5:140.0 6:6.02 
-0.16619454118480076 1:2370000.0 2:5.0 3:3.3333333333333335 4:3.3333333333333335 5:145.0 6:5.94 
-0.09062410943733537 1:332000.0 2:20.0 3:0.0 4:0.0 5:443.0 6:9.94 
-0.09002243491962228 1:332000.0 2:19.0 3:0.0 4:0.0 5:443.0 6:9.94 
-0.1746318931164489 1:189000.0 2:5.0 3:4.333333333333333 4:4.333333333333333 5:242.0 6:5.5 
-0.16671751978625193 1:189000.0 2:2.0 3:2.147483647E9 4:2.147483647E9 5:242.0 6:5.5 
-0.15879685798366916 1:4.11E7 2:9.0 3:6.0 4:6.0 5:162.0 6:4.48 
-0.158590642199618 1:4.11E7 2:13.0 3:7.0 4:7.0 5:162.0 6:4.48 
-0.1667653441126864 1:4.11E7 2:0.0 3:6.5 4:6.5 5:162.0 6:4.48 
-0.16629728094254997 1:4.11E7 2:26.0 3:4.666666666666667 4:4.666666666666667 5:162.0 6:4.48 
-0.3878051081441302 1:1330000.0 2:3.0 3:1.6666666666666667 4:1.6666666666666667 5:296.0 6:7.02 
-0.16628708523728525 1:4.39E7 2:0.0 3:1.0 4:1.0 5:149.0 6:3.7 
-0.16482922480410767 1:4.39E7 2:1.0 3:6.0 4:6.0 5:149.0 6:3.7 
-0.16162364443924437 1:4.39E7 2:6.0 3:5.0 4:5.0 5:149.0 6:3.7 
-0.16421090404787003 1:4.39E7 2:9.0 3:2.25 4:2.25 5:149.0 6:3.7 
-0.16683444352051383 1:3390000.0 2:40.0 3:5.1 4:5.1 5:306.0 6:6.7 
-0.16290463457622245 1:3390000.0 2:8.0 3:5.0 4:5.0 5:306.0 6:6.7 
-0.16669600473267115 1:3390000.0 2:33.0 3:4.444444444444445 4:4.444444444444445 5:306.0 6:6.7 
-0.16465342737990135 1:3390000.0 2:11.0 3:8.0 4:8.0 5:306.0 6:6.7 
-0.16496287254557973 1:3390000.0 2:3.0 3:6.0 4:6.0 5:306.0 6:6.7 
-0.16653159861279884 1:3390000.0 2:44.0 3:8.666666666666666 4:8.666666666666666 5:306.0 6:6.7 
-0.16716181859339746 1:3390000.0 2:48.0 3:14.0 4:14.0 5:306.0 6:6.7 
-0.16666412929712215 1:3390000.0 2:22.0 3:6.5 4:6.5 5:306.0 6:6.7 
-0.5247335083380469 1:113000.0 2:2.0 3:2.0 4:2.0 5:159.0 6:6.18 
-0.1665035618886178 1:371000.0 2:22.0 3:2.0 4:2.0 5:191.0 6:6.6 
-0.3898568044014149 1:1.81E7 2:1.0 3:0.0 4:0.0 5:49.0 6:2.42 
-0.0642401009825833 1:9.26E7 2:1.0 3:2.0 4:2.0 5:80.0 6:2.94 
-0.13616713396138447 1:9.26E7 2:12.0 3:4.0 4:4.0 5:80.0 6:2.94 
-0.15618622699893298 1:9.26E7 2:20.0 3:4.5 4:4.5 5:80.0 6:2.94 
-0.1326401174261817 1:9.26E7 2:9.0 3:3.0 4:3.0 5:80.0 6:2.94 
-0.11480189469143572 1:9.26E7 2:0.0 3:1.6666666666666667 4:1.6666666666666667 5:80.0 6:2.94 
-0.11063670113103352 1:9.26E7 2:3.0 3:4.0 4:4.0 5:80.0 6:2.94 
-0.11302845492928593 1:9.26E7 2:5.0 3:3.0 4:3.0 5:80.0 6:2.94 
-0.1510015256128992 1:9.26E7 2:16.0 3:5.666666666666667 4:5.666666666666667 5:80.0 6:2.94 
-0.041970608513356496 1:226000.0 2:0.0 3:4.0 4:4.0 5:64.0 6:1.34 
-0.1316907093748528 1:226000.0 2:1.0 3:3.0 4:3.0 5:64.0 6:1.34 
-0.16654218030219559 1:3390000.0 2:9.0 3:4.0 4:4.0 5:59.0 6:1.2 
-0.10478228469067159 1:226000.0 2:2.0 3:4.666666666666667 4:4.666666666666667 5:64.0 6:1.34 
-0.1278799375429294 1:1.22E7 2:12.0 3:4.0 4:4.0 5:78.0 6:2.94 
-0.16466747847778168 1:1.22E7 2:4.0 3:3.0 4:3.0 5:78.0 6:2.94 
-0.12777525865545972 1:1.22E7 2:10.0 3:5.25 4:5.25 5:78.0 6:2.94 
-0.16493835813677016 1:1.22E7 2:1.0 3:0.0 4:0.0 5:78.0 6:2.94 
-0.1660888013981528 1:176000.0 2:29.0 3:5.833333333333333 4:5.833333333333333 5:120.0 6:2.4 
-0.16682206843424663 1:176000.0 2:23.0 3:4.0 4:4.0 5:120.0 6:2.4 
-0.1666621686468508 1:2300000.0 2:4.0 3:2.147483647E9 4:2.147483647E9 5:126.0 6:2.54 
-0.1342867674233676 1:108000.0 2:2.0 3:5.0 4:5.0 5:62.0 6:1.92 
-0.1634812336378863 1:108000.0 2:11.0 3:6.0 4:6.0 5:62.0 6:1.92 
-0.12893047483862205 1:108000.0 2:19.0 3:5.0 4:5.0 5:62.0 6:1.92 
-0.16665587273346716 1:140000.0 2:15.0 3:2.147483647E9 4:2.147483647E9 5:59.0 6:1.84 
-0.12521242411507347 1:108000.0 2:17.0 3:6.5 4:6.5 5:62.0 6:1.92 
-0.16665531240889087 1:140000.0 2:3.0 3:6.0 4:6.0 5:59.0 6:1.84 
-0.14890838628135727 1:108000.0 2:15.0 3:4.0 4:4.0 5:62.0 6:1.92 
-0.1339289163646707 1:108000.0 2:0.0 3:3.5 4:3.5 5:62.0 6:1.92 
-0.166669685960616 1:1.65E7 2:41.0 3:4.0 4:4.0 5:209.0 6:4.28 
-0.16623040579682002 1:1.65E7 2:10.0 3:5.333333333333333 4:5.333333333333333 5:209.0 6:4.28 
-0.09708395325257335 1:1.65E7 2:1.0 3:7.333333333333333 4:7.333333333333333 5:209.0 6:4.28 
-0.09645821223179091 1:1.65E7 2:2.0 3:8.0 4:8.0 5:209.0 6:4.28 
-0.13327365196116242 1:6.64E7 2:0.0 3:0.6 4:0.6 5:66.0 6:1.8 
-0.2147117969656545 1:6.64E7 2:2.0 3:2.4 4:2.4 5:66.0 6:1.8 
-0.1667268356813555 1:3200000.0 2:5.0 3:1.25 4:1.25 5:70.0 6:2.12 
-0.16674159209159867 1:1740000.0 2:20.0 3:6.5 4:6.5 5:158.0 6:3.26 
-0.14488258537697923 1:1740000.0 2:47.0 3:4.75 4:4.75 5:158.0 6:3.26 
-0.14477415912396108 1:1740000.0 2:49.0 3:6.666666666666667 4:6.666666666666667 5:158.0 6:3.26 
-0.16625498204433703 1:5510000.0 2:2.0 3:6.333333333333333 4:6.333333333333333 5:151.0 6:3.74 
-0.16717166912396592 1:5510000.0 2:13.0 3:6.0 4:6.0 5:151.0 6:3.74 
-0.15837828951466792 1:5510000.0 2:21.0 3:6.25 4:6.25 5:151.0 6:3.74 
-0.15794318657778428 1:5510000.0 2:24.0 3:8.333333333333334 4:8.333333333333334 5:151.0 6:3.74 
-0.17135959492571629 1:5.24E7 2:4.0 3:3.6666666666666665 4:3.6666666666666665 5:197.0 6:6.24 
-0.18550606600345815 1:5.24E7 2:1.0 3:5.0 4:5.0 5:197.0 6:6.24 
-0.16514810002010472 1:129000.0 2:44.0 3:6.666666666666667 4:6.666666666666667 5:139.0 6:4.52 
-0.16500667720322115 1:129000.0 2:47.0 3:3.5 4:3.5 5:139.0 6:4.52 
-0.16711047588700723 1:129000.0 2:12.0 3:2.5 4:2.5 5:139.0 6:4.52 
-0.1670814547493824 1:3140000.0 2:16.0 3:5.0 4:5.0 5:154.0 6:3.66 
-0.16675063909652776 1:3140000.0 2:7.0 3:5.0 4:5.0 5:154.0 6:3.66 
-0.1626873425258108 1:3140000.0 2:0.0 3:3.25 4:3.25 5:154.0 6:3.66 
-0.16274783851481744 1:3140000.0 2:1.0 3:0.0 4:0.0 5:154.0 6:3.66 
-0.1670088679344408 1:4.61E7 2:38.0 3:3.75 4:3.75 5:185.0 6:4.32 
-0.16670096929322642 1:100000.0 2:43.0 3:4.0 4:4.0 5:118.0 6:2.88 
-0.16717405654569328 1:63900.0 2:11.0 3:4.0 4:4.0 5:109.0 6:2.9 
-0.16435902497158078 1:63900.0 2:9.0 3:13.0 4:13.0 5:109.0 6:2.9 
-0.1666797817677636 1:63900.0 2:47.0 3:5.6 4:5.6 5:109.0 6:2.9 
-0.1662385310598165 1:63900.0 2:20.0 3:12.5 4:12.5 5:109.0 6:2.9 
-0.8965594238516641 1:63900.0 2:1.0 3:8.0 4:8.0 5:109.0 6:2.9 
-0.16405259245309028 1:63900.0 2:8.0 3:9.5 4:9.5 5:109.0 6:2.9 
-0.16711767552376872 1:4290000.0 2:7.0 3:1.0 4:1.0 5:196.0 6:4.66 
-0.1641598934252424 1:3890000.0 2:22.0 3:2.0 4:2.0 5:105.0 6:3.14 
-0.163420204260668 1:3890000.0 2:8.0 3:4.0 4:4.0 5:105.0 6:3.14 
-0.6697247536604182 1:3890000.0 2:2.0 3:0.0 4:0.0 5:105.0 6:3.14 
-0.09923767411016332 1:3890000.0 2:5.0 3:1.5 4:1.5 5:105.0 6:3.14 
-0.16419025947152854 1:3890000.0 2:17.0 3:2.0 4:2.0 5:105.0 6:3.14 
-0.12135613797781442 1:1310000.0 2:2.0 3:5.0 4:5.0 5:38.0 6:2.04 
-0.06012832109226993 1:1310000.0 2:0.0 3:6.0 4:6.0 5:38.0 6:2.04 
-0.16529707034253915 1:1310000.0 2:6.0 3:8.5 4:8.5 5:38.0 6:2.04 
-0.12180943094529884 1:1310000.0 2:16.0 3:7.0 4:7.0 5:38.0 6:2.04 
-0.10205106374694813 1:1310000.0 2:1.0 3:7.0 4:7.0 5:38.0 6:2.04 
-0.1221361566809992 1:1310000.0 2:14.0 3:8.0 4:8.0 5:38.0 6:2.04 
-0.16685264171448355 1:1310000.0 2:17.0 3:2.147483647E9 4:2.147483647E9 5:38.0 6:2.04 
-0.16638520216431724 1:2420000.0 2:24.0 3:7.0 4:7.0 5:42.0 6:2.42 
-0.1667142180059915 1:1310000.0 2:10.0 3:15.0 4:15.0 5:38.0 6:2.04 
-0.16621896575323836 1:1.63E7 2:1.0 3:6.0 4:6.0 5:98.0 6:4.12 
-0.16636583694452406 1:1.63E7 2:19.0 3:3.0 4:3.0 5:98.0 6:4.12 
-0.16679814900551448 1:1.63E7 2:7.0 3:2.5 4:2.5 5:98.0 6:4.12 
-0.0656956240258227 1:1090000.0 2:0.0 3:3.3333333333333335 4:3.3333333333333335 5:150.0 6:3.86 
-0.11865653564986745 1:1090000.0 2:1.0 3:2.0 4:2.0 5:150.0 6:3.86 
-0.12353550922661115 1:1090000.0 2:2.0 3:4.333333333333333 4:4.333333333333333 5:150.0 6:3.86 
-0.16472902281842744 1:1090000.0 2:7.0 3:4.0 4:4.0 5:150.0 6:3.86 
-0.7727980171280743 1:1.86E7 2:1.0 3:3.0 4:3.0 5:47.0 6:2.04 
-0.16621608648577657 1:1.86E7 2:25.0 3:2.5 4:2.5 5:47.0 6:2.04 
-0.1667046955532513 1:1.86E7 2:31.0 3:5.0 4:5.0 5:47.0 6:2.04 
-0.11889545148095565 1:376000.0 2:0.0 3:0.0 4:0.0 5:94.0 6:2.48 
-0.16668434713367153 1:376000.0 2:9.0 3:2.3333333333333335 4:2.3333333333333335 5:94.0 6:2.48 
-0.11944217649965455 1:376000.0 2:1.0 3:1.5 4:1.5 5:94.0 6:2.48 
-0.3199252905681413 1:5.86E7 2:1.0 3:3.3333333333333335 4:3.3333333333333335 5:128.0 6:4.38 
-0.15878626283995062 1:5.86E7 2:39.0 3:3.0 4:3.0 5:128.0 6:4.38 
-0.013095572031098623 1:5.86E7 2:3.0 3:4.0 4:4.0 5:128.0 6:4.38 
-0.15623448941625478 1:5.86E7 2:25.0 3:5.5 4:5.5 5:128.0 6:4.38 
-0.12820720667475027 1:5.86E7 2:43.0 3:4.0 4:4.0 5:128.0 6:4.38 
-0.13636834402152487 1:5.86E7 2:42.0 3:6.0 4:6.0 5:128.0 6:4.38 
-0.15581690942244497 1:5.86E7 2:21.0 3:5.0 4:5.0 5:128.0 6:4.38 
-0.16652126359166441 1:151.0 2:8.0 3:0.0 4:0.0 5:113.0 6:4.24 
-0.16621344033983482 1:151.0 2:1.0 3:3.0 4:3.0 5:113.0 6:4.24 
-0.16516862082267558 1:753000.0 2:11.0 3:8.0 4:8.0 5:96.0 6:5.1 
-0.16425432436439186 1:753000.0 2:25.0 3:6.4 4:6.4 5:96.0 6:5.1 
-0.12783713583771178 1:753000.0 2:5.0 3:5.0 4:5.0 5:96.0 6:5.1 
-0.16442564065264414 1:753000.0 2:20.0 3:7.0 4:7.0 5:96.0 6:5.1 
-0.1087674181450699 1:753000.0 2:1.0 3:5.0 4:5.0 5:96.0 6:5.1 
-0.13649571957606005 1:753000.0 2:8.0 3:5.0 4:5.0 5:96.0 6:5.1 
-0.12240807948204585 1:753000.0 2:0.0 3:6.5 4:6.5 5:96.0 6:5.1 
-0.1665206436187019 1:109000.0 2:24.0 3:4.285714285714286 4:4.285714285714286 5:75.0 6:4.2 
-0.16650515853796916 1:753000.0 2:34.0 3:2.147483647E9 4:2.147483647E9 5:96.0 6:5.1 
-0.16644095597599895 1:7320000.0 2:30.0 3:7.0 4:7.0 5:209.0 6:4.9 
-0.11258971327362799 1:7320000.0 2:11.0 3:6.0 4:6.0 5:209.0 6:4.9 
-0.11350722745190328 1:7320000.0 2:9.0 3:6.5 4:6.5 5:209.0 6:4.9 
-0.6695164148137366 1:213.0 2:0.0 3:3.75 4:3.75 5:134.0 6:3.68 
-0.1662944128574384 1:545000.0 2:10.0 3:4.0 4:4.0 5:117.0 6:3.34 
-0.10447285597708345 1:465.0 2:3.0 3:8.0 4:8.0 5:3.0 6:0.12 
-0.10330074599487837 1:465.0 2:2.0 3:7.0 4:7.0 5:3.0 6:0.12 
-0.16660732976825293 1:294000.0 2:47.0 3:7.0 4:7.0 5:54.0 6:1.46 
-0.13806192213404656 1:294000.0 2:37.0 3:7.0 4:7.0 5:54.0 6:1.46 
-0.17082773218952813 1:294000.0 2:1.0 3:4.0 4:4.0 5:54.0 6:1.46 
-0.14361863711654604 1:294000.0 2:20.0 3:5.0 4:5.0 5:54.0 6:1.46 
-0.13831504124827837 1:294000.0 2:40.0 3:7.5 4:7.5 5:54.0 6:1.46 
-0.1436186070497354 1:294000.0 2:17.0 3:4.0 4:4.0 5:54.0 6:1.46 
-0.16589629753477153 1:273000.0 2:6.0 3:2.0 4:2.0 5:137.0 6:3.46 
-0.16583758980546287 1:273000.0 2:1.0 3:0.0 4:0.0 5:137.0 6:3.46 
-0.16650176188382915 1:273000.0 2:27.0 3:3.25 4:3.25 5:137.0 6:3.46 
-1.0 1:2200000.0 2:0.0 3:0.4 4:0.4 5:355.0 6:8.98 
-0.16716245509401678 1:3740000.0 2:13.0 3:2.125 4:2.125 5:377.0 6:9.3 
-0.1662319496931977 1:3740000.0 2:24.0 3:0.6666666666666666 4:0.6666666666666666 5:377.0 6:9.3 
-0.16685603357207984 1:2.26E7 2:26.0 3:3.5 4:3.5 5:139.0 6:4.32 
-0.1668504893971296 1:2.26E7 2:15.0 3:5.0 4:5.0 5:139.0 6:4.32 
-0.1663140844294293 1:114000.0 2:2.0 3:7.5 4:7.5 5:17.0 6:0.9387755102040817 
-0.1663107646857636 1:114000.0 2:1.0 3:2.147483647E9 4:2.147483647E9 5:17.0 6:0.9387755102040817 
-0.16625044806873168 1:269000.0 2:2.0 3:2.147483647E9 4:2.147483647E9 5:13.0 6:0.78 
-0.11176848124383854 1:1.03E7 2:2.0 3:6.0 4:6.0 5:34.0 6:3.5 
-0.07856980015726472 1:1.03E7 2:0.0 3:5.5 4:5.5 5:34.0 6:3.5 
-0.12896531903273595 1:1.03E7 2:1.0 3:3.6666666666666665 4:3.6666666666666665 5:34.0 6:3.5 
-0.15746929808731464 1:345000.0 2:0.0 3:4.5 4:4.5 5:70.0 6:1.66 
-0.16470527127092954 1:345000.0 2:26.0 3:6.0 4:6.0 5:70.0 6:1.66 
-0.1524617790889508 1:345000.0 2:15.0 3:10.0 4:10.0 5:70.0 6:1.66 
-0.1415257133192569 1:345000.0 2:21.0 3:6.0 4:6.0 5:70.0 6:1.66 
-0.1403652697733479 1:345000.0 2:18.0 3:7.0 4:7.0 5:70.0 6:1.66 
-0.1576042086788953 1:345000.0 2:3.0 3:6.5 4:6.5 5:70.0 6:1.66 
-0.15249285117816141 1:345000.0 2:13.0 3:7.666666666666667 4:7.666666666666667 5:70.0 6:1.66 
-0.16621381702687715 1:4.09E7 2:0.0 3:2.147483647E9 4:2.147483647E9 5:75.0 6:2.36 
-0.16881519216986518 1:4.09E7 2:4.0 3:2.6666666666666665 4:2.6666666666666665 5:75.0 6:2.36 
-0.14434912875781564 1:4.09E7 2:2.0 3:4.75 4:4.75 5:75.0 6:2.36 
-0.1667707746284557 1:2140000.0 2:47.0 3:3.0 4:3.0 5:103.0 6:3.86 
-0.16714887410537316 1:3.62E7 2:44.0 3:4.6 4:4.6 5:223.0 6:4.98 
-0.0905889178979066 1:3.62E7 2:1.0 3:4.428571428571429 4:4.428571428571429 5:223.0 6:4.98 
-0.09002458892027213 1:3.62E7 2:0.0 3:4.0 4:4.0 5:223.0 6:4.98 
-0.13351376280441885 1:2.54E7 2:4.0 3:3.7142857142857144 4:3.7142857142857144 5:120.0 6:3.34 
-0.16622553883707647 1:2.54E7 2:25.0 3:6.0 4:6.0 5:120.0 6:3.34 
-0.1511711902954173 1:2.54E7 2:1.0 3:3.5 4:3.5 5:120.0 6:3.34 
-0.09174746585633287 1:274000.0 2:1.0 3:4.75 4:4.75 5:306.0 6:6.24 
-0.08861425212508489 1:274000.0 2:2.0 3:4.75 4:4.75 5:306.0 6:6.24 
-0.14443642093275283 1:1.61E7 2:3.0 3:3.3333333333333335 4:3.3333333333333335 5:59.0 6:2.04 
-0.14446954391551414 1:1.61E7 2:1.0 3:5.25 4:5.25 5:59.0 6:2.04 
-0.16620323409875642 1:1.61E7 2:8.0 3:5.5 4:5.5 5:59.0 6:2.04 
-0.9454190587041873 1:3.68E7 2:0.0 3:3.5 4:3.5 5:42.0 6:1.28 
-0.16623152774883732 1:3.68E7 2:19.0 3:3.6666666666666665 4:3.6666666666666665 5:42.0 6:1.28 
-0.1663938070284361 1:3.68E7 2:23.0 3:0.0 4:0.0 5:42.0 6:1.28 
-0.16626720307234966 1:2290000.0 2:21.0 3:4.5 4:4.5 5:190.0 6:4.16 
-0.16626843784930317 1:2290000.0 2:4.0 3:4.75 4:4.75 5:190.0 6:4.16 
-0.11257182466367377 1:2290000.0 2:45.0 3:4.0 4:4.0 5:190.0 6:4.16 
-0.1135345490219154 1:2290000.0 2:43.0 3:3.5 4:3.5 5:190.0 6:4.16 
-0.16331319309816678 1:234.0 2:4.0 3:2.0 4:2.0 5:125.0 6:2.86 
-0.16369293316369316 1:234.0 2:0.0 3:4.0 4:4.0 5:125.0 6:2.86 
-0.16618688050223274 1:1500000.0 2:33.0 3:2.147483647E9 4:2.147483647E9 5:174.0 6:3.9 
-1.0 1:3.02E7 2:0.0 3:0.0 4:0.0 5:92.0 6:4.46 
-0.1688077968971824 1:3.02E7 2:4.0 3:3.5 4:3.5 5:92.0 6:4.46 
-0.16663256828010442 1:4.66E7 2:6.0 3:2.1666666666666665 4:2.1666666666666665 5:123.0 6:4.46 
-0.1671173644438227 1:2.14E7 2:2.0 3:4.6 4:4.6 5:105.0 6:2.8 
-0.16710179910693118 1:2.14E7 2:3.0 3:19.0 4:19.0 5:105.0 6:2.8 
-0.1671049819653997 1:2.14E7 2:1.0 3:9.5 4:9.5 5:105.0 6:2.8 
-0.1641284696389882 1:239000.0 2:1.0 3:6.0 4:6.0 5:102.0 6:2.66 
-0.16201863010714845 1:239000.0 2:0.0 3:2.5 4:2.5 5:102.0 6:2.66 
-0.16412883979092852 1:239000.0 2:5.0 3:2.0 4:2.0 5:102.0 6:2.66 
-0.9958631712330024 1:1.93E7 2:1.0 3:3.0 4:3.0 5:248.0 6:5.46 
-0.16626591332165946 1:272000.0 2:3.0 3:2.147483647E9 4:2.147483647E9 5:105.0 6:4.12 
-0.16622299372596516 1:272000.0 2:39.0 3:5.0 4:5.0 5:105.0 6:4.12 
